SVM-light Version V6.02
4 # kernel type
3 # kernel parameter -d 
1 # kernel parameter -g 
1 # kernel parameter -s 
1 # kernel parameter -r 
empty# kernel parameter -u 
260 # highest feature index 
54208 # number of training documents 
18125 # number of support vectors plus 1 
-0.071335848 # threshold b, each following line is a SV (starting with alpha*y)
LINEAR_WEIGHTS: 1 0.076158
LINEAR_WEIGHTS: 2 0.030410
LINEAR_WEIGHTS: 3 0.178581
LINEAR_WEIGHTS: 4 0.059866
LINEAR_WEIGHTS: 5 -0.117718
LINEAR_WEIGHTS: 6 -0.351930
LINEAR_WEIGHTS: 7 -0.015837
LINEAR_WEIGHTS: 8 0.043949
LINEAR_WEIGHTS: 9 0.068324
LINEAR_WEIGHTS: 10 -0.011328
LINEAR_WEIGHTS: 11 -0.011003
LINEAR_WEIGHTS: 12 0.095060
LINEAR_WEIGHTS: 13 -0.026079
LINEAR_WEIGHTS: 14 0.066465
LINEAR_WEIGHTS: 15 -0.181518
LINEAR_WEIGHTS: 16 0.050043
LINEAR_WEIGHTS: 17 -0.193917
LINEAR_WEIGHTS: 18 -0.144275
LINEAR_WEIGHTS: 19 -0.040156
LINEAR_WEIGHTS: 20 0.001990
LINEAR_WEIGHTS: 21 0.018901
LINEAR_WEIGHTS: 22 -0.008257
LINEAR_WEIGHTS: 23 0.008608
LINEAR_WEIGHTS: 24 0.076960
LINEAR_WEIGHTS: 25 -0.008115
LINEAR_WEIGHTS: 26 -0.079677
LINEAR_WEIGHTS: 27 0.396993
LINEAR_WEIGHTS: 28 -0.048478
LINEAR_WEIGHTS: 29 0.032395
LINEAR_WEIGHTS: 30 -0.072447
LINEAR_WEIGHTS: 31 0.130290
LINEAR_WEIGHTS: 32 0.088470
LINEAR_WEIGHTS: 33 -0.123337
LINEAR_WEIGHTS: 34 0.002644
LINEAR_WEIGHTS: 35 0.128455
LINEAR_WEIGHTS: 36 -0.030824
LINEAR_WEIGHTS: 37 -0.011319
LINEAR_WEIGHTS: 38 -0.029270
LINEAR_WEIGHTS: 39 -0.143542
LINEAR_WEIGHTS: 40 -0.031936
LINEAR_WEIGHTS: 41 0.004973
LINEAR_WEIGHTS: 42 0.081162
LINEAR_WEIGHTS: 43 -0.006672
LINEAR_WEIGHTS: 44 0.000585
LINEAR_WEIGHTS: 45 0.073745
LINEAR_WEIGHTS: 46 -0.009917
LINEAR_WEIGHTS: 47 0.028059
LINEAR_WEIGHTS: 48 -0.057626
LINEAR_WEIGHTS: 49 -0.062106
LINEAR_WEIGHTS: 50 0.082058
LINEAR_WEIGHTS: 51 0.050999
LINEAR_WEIGHTS: 52 -0.100073
LINEAR_WEIGHTS: 53 0.009223
LINEAR_WEIGHTS: 54 0.066730
LINEAR_WEIGHTS: 55 0.073369
LINEAR_WEIGHTS: 56 -0.425709
LINEAR_WEIGHTS: 57 -0.098736
LINEAR_WEIGHTS: 58 0.054778
LINEAR_WEIGHTS: 59 0.030028
LINEAR_WEIGHTS: 60 -0.034708
LINEAR_WEIGHTS: 61 -0.032449
LINEAR_WEIGHTS: 62 0.127242
LINEAR_WEIGHTS: 63 0.012795
LINEAR_WEIGHTS: 64 -0.013231
LINEAR_WEIGHTS: 65 0.024952
LINEAR_WEIGHTS: 66 0.039598
LINEAR_WEIGHTS: 67 -0.006053
LINEAR_WEIGHTS: 68 -0.003029
LINEAR_WEIGHTS: 69 0.004887
LINEAR_WEIGHTS: 70 0.016009
LINEAR_WEIGHTS: 71 -0.005454
LINEAR_WEIGHTS: 72 -0.002372
LINEAR_WEIGHTS: 73 0.070642
LINEAR_WEIGHTS: 74 -0.005582
LINEAR_WEIGHTS: 75 0.023383
LINEAR_WEIGHTS: 76 0.008356
LINEAR_WEIGHTS: 77 -0.011634
LINEAR_WEIGHTS: 78 0.086969
LINEAR_WEIGHTS: 79 -0.003427
LINEAR_WEIGHTS: 80 0.045804
LINEAR_WEIGHTS: 81 0.006717
LINEAR_WEIGHTS: 82 -0.010594
LINEAR_WEIGHTS: 83 -0.025166
LINEAR_WEIGHTS: 84 -0.001549
LINEAR_WEIGHTS: 85 0.017813
LINEAR_WEIGHTS: 86 0.000208
LINEAR_WEIGHTS: 87 -0.029581
LINEAR_WEIGHTS: 88 0.003894
LINEAR_WEIGHTS: 89 0.018024
LINEAR_WEIGHTS: 90 0.015829
LINEAR_WEIGHTS: 91 -0.006762
LINEAR_WEIGHTS: 92 -0.041983
LINEAR_WEIGHTS: 93 -0.023953
LINEAR_WEIGHTS: 94 0.229523
LINEAR_WEIGHTS: 95 0.037522
LINEAR_WEIGHTS: 96 -0.488301
LINEAR_WEIGHTS: 97 -0.016147
LINEAR_WEIGHTS: 98 -0.113273
LINEAR_WEIGHTS: 99 0.262465
LINEAR_WEIGHTS: 100 -0.134974
LINEAR_WEIGHTS: 101 -0.619467
LINEAR_WEIGHTS: 102 -0.212494
LINEAR_WEIGHTS: 103 0.591933
LINEAR_WEIGHTS: 104 0.293864
LINEAR_WEIGHTS: 105 0.427827
LINEAR_WEIGHTS: 106 0.252264
LINEAR_WEIGHTS: 107 0.099062
LINEAR_WEIGHTS: 108 -0.310209
LINEAR_WEIGHTS: 109 -0.006965
LINEAR_WEIGHTS: 110 -0.039487
LINEAR_WEIGHTS: 111 0.171869
LINEAR_WEIGHTS: 112 -0.004178
LINEAR_WEIGHTS: 113 0.053095
LINEAR_WEIGHTS: 114 0.056102
LINEAR_WEIGHTS: 115 -0.155478
LINEAR_WEIGHTS: 116 0.395852
LINEAR_WEIGHTS: 117 0.049485
LINEAR_WEIGHTS: 118 0.312511
LINEAR_WEIGHTS: 119 0.186959
LINEAR_WEIGHTS: 120 -0.159423
LINEAR_WEIGHTS: 121 0.349053
LINEAR_WEIGHTS: 122 0.078380
LINEAR_WEIGHTS: 123 0.234384
LINEAR_WEIGHTS: 124 -0.165780
LINEAR_WEIGHTS: 125 -0.069100
LINEAR_WEIGHTS: 126 0.044144
LINEAR_WEIGHTS: 127 0.264444
LINEAR_WEIGHTS: 128 -0.335509
LINEAR_WEIGHTS: 129 -0.113772
LINEAR_WEIGHTS: 130 0.012853
LINEAR_WEIGHTS: 131 -0.154717
LINEAR_WEIGHTS: 132 -0.126823
LINEAR_WEIGHTS: 133 -0.056630
LINEAR_WEIGHTS: 134 -0.267047
LINEAR_WEIGHTS: 135 -0.878630
LINEAR_WEIGHTS: 136 0.247682
LINEAR_WEIGHTS: 137 0.008860
LINEAR_WEIGHTS: 138 -0.021146
LINEAR_WEIGHTS: 139 0.001654
LINEAR_WEIGHTS: 140 0.003318
LINEAR_WEIGHTS: 141 0.017853
LINEAR_WEIGHTS: 142 0.005663
LINEAR_WEIGHTS: 143 0.024970
LINEAR_WEIGHTS: 144 0.013833
LINEAR_WEIGHTS: 145 0.013877
LINEAR_WEIGHTS: 146 0.041165
LINEAR_WEIGHTS: 147 0.052246
LINEAR_WEIGHTS: 148 0.026185
LINEAR_WEIGHTS: 149 0.138664
LINEAR_WEIGHTS: 150 0.132855
LINEAR_WEIGHTS: 151 0.110800
LINEAR_WEIGHTS: 152 -0.005773
LINEAR_WEIGHTS: 153 0.026505
LINEAR_WEIGHTS: 154 -0.020732
LINEAR_WEIGHTS: 155 0.144236
LINEAR_WEIGHTS: 156 0.148898
LINEAR_WEIGHTS: 157 0.109358
LINEAR_WEIGHTS: 158 0.069318
LINEAR_WEIGHTS: 159 0.086944
LINEAR_WEIGHTS: 160 0.042852
LINEAR_WEIGHTS: 161 0.068983
LINEAR_WEIGHTS: 162 0.083340
LINEAR_WEIGHTS: 163 0.062019
LINEAR_WEIGHTS: 164 0.047702
LINEAR_WEIGHTS: 165 0.043150
LINEAR_WEIGHTS: 166 0.030925
LINEAR_WEIGHTS: 167 0.052359
LINEAR_WEIGHTS: 168 0.037130
LINEAR_WEIGHTS: 169 0.032291
LINEAR_WEIGHTS: 170 -0.004819
LINEAR_WEIGHTS: 171 0.199966
LINEAR_WEIGHTS: 172 0.003381
LINEAR_WEIGHTS: 173 0.003766
LINEAR_WEIGHTS: 174 0.004726
LINEAR_WEIGHTS: 175 -0.007550
LINEAR_WEIGHTS: 176 -0.000390
LINEAR_WEIGHTS: 177 0.012582
LINEAR_WEIGHTS: 178 -0.013145
LINEAR_WEIGHTS: 179 -0.004359
LINEAR_WEIGHTS: 180 -0.007464
LINEAR_WEIGHTS: 181 -0.002430
LINEAR_WEIGHTS: 182 0.002223
LINEAR_WEIGHTS: 183 0.051849
LINEAR_WEIGHTS: 184 0.000209
LINEAR_WEIGHTS: 185 0.003053
LINEAR_WEIGHTS: 186 -0.001552
LINEAR_WEIGHTS: 187 0.000378
LINEAR_WEIGHTS: 188 0.008151
LINEAR_WEIGHTS: 189 -0.056783
LINEAR_WEIGHTS: 190 -0.061027
LINEAR_WEIGHTS: 191 -0.052981
LINEAR_WEIGHTS: 192 0.013520
LINEAR_WEIGHTS: 193 0.006680
LINEAR_WEIGHTS: 194 0.001419
LINEAR_WEIGHTS: 195 0.011551
LINEAR_WEIGHTS: 196 -0.029986
LINEAR_WEIGHTS: 197 0.002467
LINEAR_WEIGHTS: 198 -0.042867
LINEAR_WEIGHTS: 199 -0.059476
LINEAR_WEIGHTS: 200 -0.049242
LINEAR_WEIGHTS: 201 -0.059953
LINEAR_WEIGHTS: 202 -0.021998
LINEAR_WEIGHTS: 203 -0.042524
LINEAR_WEIGHTS: 204 -0.044213
LINEAR_WEIGHTS: 205 -0.031013
LINEAR_WEIGHTS: 206 -0.017317
LINEAR_WEIGHTS: 207 -0.015685
LINEAR_WEIGHTS: 208 -0.022842
LINEAR_WEIGHTS: 209 -0.017400
LINEAR_WEIGHTS: 210 -0.021609
LINEAR_WEIGHTS: 211 -0.013885
LINEAR_WEIGHTS: 212 -0.045225
LINEAR_WEIGHTS: 213 -0.036539
LINEAR_WEIGHTS: 214 -0.007727
LINEAR_WEIGHTS: 215 0.009163
LINEAR_WEIGHTS: 216 -0.019818
LINEAR_WEIGHTS: 217 0.009357
LINEAR_WEIGHTS: 218 -0.034659
LINEAR_WEIGHTS: 219 -0.047954
LINEAR_WEIGHTS: 220 -0.028838
LINEAR_WEIGHTS: 221 -0.067450
LINEAR_WEIGHTS: 222 -0.017383
LINEAR_WEIGHTS: 223 -0.038105
LINEAR_WEIGHTS: 224 -0.015986
LINEAR_WEIGHTS: 225 -0.010570
LINEAR_WEIGHTS: 226 -0.040656
LINEAR_WEIGHTS: 227 -0.009547
LINEAR_WEIGHTS: 228 -0.023496
LINEAR_WEIGHTS: 229 -0.015630
LINEAR_WEIGHTS: 230 -0.018092
LINEAR_WEIGHTS: 231 -0.022056
LINEAR_WEIGHTS: 232 -0.045846
LINEAR_WEIGHTS: 233 -0.046189
LINEAR_WEIGHTS: 234 0.002751
LINEAR_WEIGHTS: 235 -0.011216
LINEAR_WEIGHTS: 236 -0.019403
LINEAR_WEIGHTS: 237 0.009331
LINEAR_WEIGHTS: 238 -0.051951
LINEAR_WEIGHTS: 239 -0.057156
LINEAR_WEIGHTS: 240 -0.044739
LINEAR_WEIGHTS: 241 -0.066247
LINEAR_WEIGHTS: 242 -0.009769
LINEAR_WEIGHTS: 243 -0.056888
LINEAR_WEIGHTS: 244 -0.028082
LINEAR_WEIGHTS: 245 -0.014130
LINEAR_WEIGHTS: 246 -0.022001
LINEAR_WEIGHTS: 247 -0.010187
LINEAR_WEIGHTS: 248 -0.024672
LINEAR_WEIGHTS: 249 -0.022500
LINEAR_WEIGHTS: 250 -0.031427
LINEAR_WEIGHTS: 251 -0.023861
LINEAR_WEIGHTS: 252 -0.038153
LINEAR_WEIGHTS: 253 -0.040906
LINEAR_WEIGHTS: 254 -0.007388
LINEAR_WEIGHTS: 255 -0.004901
LINEAR_WEIGHTS: 256 -0.026119
LINEAR_WEIGHTS: 257 -0.172787
LINEAR_WEIGHTS: 258 0.282069
LINEAR_WEIGHTS: 259 0.182739
LINEAR_WEIGHTS: 260 0.116016
