SVM-light Version V6.02
4 # kernel type
3 # kernel parameter -d 
1 # kernel parameter -g 
1 # kernel parameter -s 
1 # kernel parameter -r 
empty# kernel parameter -u 
174 # highest feature index 
260078 # number of training documents 
90130 # number of support vectors plus 1 
0.63011549 # threshold b, each following line is a SV (starting with alpha*y)
LINEAR_WEIGHTS: 1 -0.192557
LINEAR_WEIGHTS: 2 -0.492215
LINEAR_WEIGHTS: 3 -0.504429
LINEAR_WEIGHTS: 4 -0.356633
LINEAR_WEIGHTS: 5 -0.687004
LINEAR_WEIGHTS: 6 -1.345825
LINEAR_WEIGHTS: 7 -0.387923
LINEAR_WEIGHTS: 8 -0.307241
LINEAR_WEIGHTS: 9 -0.088757
LINEAR_WEIGHTS: 10 0.053455
LINEAR_WEIGHTS: 11 0.196482
LINEAR_WEIGHTS: 12 0.212258
LINEAR_WEIGHTS: 13 0.242151
LINEAR_WEIGHTS: 14 -0.164079
LINEAR_WEIGHTS: 15 -0.044282
LINEAR_WEIGHTS: 16 -0.848217
LINEAR_WEIGHTS: 17 -0.692630
LINEAR_WEIGHTS: 18 -0.040065
LINEAR_WEIGHTS: 19 0.354607
LINEAR_WEIGHTS: 20 -0.154908
LINEAR_WEIGHTS: 21 -0.020478
LINEAR_WEIGHTS: 22 1.123344
LINEAR_WEIGHTS: 23 0.334862
LINEAR_WEIGHTS: 24 0.913879
LINEAR_WEIGHTS: 25 0.109094
LINEAR_WEIGHTS: 26 0.275612
LINEAR_WEIGHTS: 27 0.384596
LINEAR_WEIGHTS: 28 0.037016
LINEAR_WEIGHTS: 29 0.158484
LINEAR_WEIGHTS: 30 -0.412876
LINEAR_WEIGHTS: 31 0.116831
LINEAR_WEIGHTS: 32 0.485293
LINEAR_WEIGHTS: 33 -0.578438
LINEAR_WEIGHTS: 34 0.229087
LINEAR_WEIGHTS: 35 0.012440
LINEAR_WEIGHTS: 36 0.401278
LINEAR_WEIGHTS: 37 -0.341707
LINEAR_WEIGHTS: 38 -0.684680
LINEAR_WEIGHTS: 39 -1.074317
LINEAR_WEIGHTS: 40 -0.196232
LINEAR_WEIGHTS: 41 -0.126266
LINEAR_WEIGHTS: 42 -0.017000
LINEAR_WEIGHTS: 43 0.863025
LINEAR_WEIGHTS: 44 0.436716
LINEAR_WEIGHTS: 45 0.501712
LINEAR_WEIGHTS: 46 0.278999
LINEAR_WEIGHTS: 47 0.248286
LINEAR_WEIGHTS: 48 -0.361861
LINEAR_WEIGHTS: 49 -0.083643
LINEAR_WEIGHTS: 50 0.020729
LINEAR_WEIGHTS: 51 -0.398246
LINEAR_WEIGHTS: 52 -0.228611
LINEAR_WEIGHTS: 53 0.265600
LINEAR_WEIGHTS: 54 -0.127924
LINEAR_WEIGHTS: 55 0.265353
LINEAR_WEIGHTS: 56 -0.364841
LINEAR_WEIGHTS: 57 -0.284099
LINEAR_WEIGHTS: 58 -0.101410
LINEAR_WEIGHTS: 59 0.094297
LINEAR_WEIGHTS: 60 0.019574
LINEAR_WEIGHTS: 61 0.323739
LINEAR_WEIGHTS: 62 -0.160650
LINEAR_WEIGHTS: 63 0.539084
LINEAR_WEIGHTS: 64 -0.055874
LINEAR_WEIGHTS: 65 0.011697
LINEAR_WEIGHTS: 66 0.202403
LINEAR_WEIGHTS: 67 -0.209691
LINEAR_WEIGHTS: 68 0.043647
LINEAR_WEIGHTS: 69 0.002478
LINEAR_WEIGHTS: 70 0.025301
LINEAR_WEIGHTS: 71 0.038894
LINEAR_WEIGHTS: 72 0.304010
LINEAR_WEIGHTS: 73 0.165977
LINEAR_WEIGHTS: 74 0.050343
LINEAR_WEIGHTS: 75 0.041417
LINEAR_WEIGHTS: 76 -0.000522
LINEAR_WEIGHTS: 77 0.074284
LINEAR_WEIGHTS: 78 0.781358
LINEAR_WEIGHTS: 79 0.262619
LINEAR_WEIGHTS: 80 0.186051
LINEAR_WEIGHTS: 81 0.017969
LINEAR_WEIGHTS: 82 -0.009656
LINEAR_WEIGHTS: 83 0.194938
LINEAR_WEIGHTS: 84 -0.039904
LINEAR_WEIGHTS: 85 -0.048218
LINEAR_WEIGHTS: 86 0.031739
LINEAR_WEIGHTS: 87 0.071927
LINEAR_WEIGHTS: 88 -0.019700
LINEAR_WEIGHTS: 89 0.186739
LINEAR_WEIGHTS: 90 0.023823
LINEAR_WEIGHTS: 91 0.038095
LINEAR_WEIGHTS: 92 -0.863447
LINEAR_WEIGHTS: 93 1.111888
LINEAR_WEIGHTS: 94 -0.525099
LINEAR_WEIGHTS: 95 0.845407
LINEAR_WEIGHTS: 96 -0.845631
LINEAR_WEIGHTS: 97 0.006446
LINEAR_WEIGHTS: 98 -0.366277
LINEAR_WEIGHTS: 99 -0.475696
LINEAR_WEIGHTS: 100 0.388065
LINEAR_WEIGHTS: 101 -1.049448
LINEAR_WEIGHTS: 102 -0.820328
LINEAR_WEIGHTS: 103 0.281690
LINEAR_WEIGHTS: 104 0.132584
LINEAR_WEIGHTS: 105 0.195692
LINEAR_WEIGHTS: 106 0.037973
LINEAR_WEIGHTS: 107 0.284647
LINEAR_WEIGHTS: 108 -0.820631
LINEAR_WEIGHTS: 109 0.405477
LINEAR_WEIGHTS: 110 0.567713
LINEAR_WEIGHTS: 111 0.364749
LINEAR_WEIGHTS: 112 0.103067
LINEAR_WEIGHTS: 113 -0.667641
LINEAR_WEIGHTS: 114 -0.030389
LINEAR_WEIGHTS: 115 0.197052
LINEAR_WEIGHTS: 116 0.057401
LINEAR_WEIGHTS: 117 0.171039
LINEAR_WEIGHTS: 118 -0.302671
LINEAR_WEIGHTS: 119 0.552268
LINEAR_WEIGHTS: 120 0.238393
LINEAR_WEIGHTS: 121 0.380501
LINEAR_WEIGHTS: 122 0.040400
LINEAR_WEIGHTS: 123 -0.209445
LINEAR_WEIGHTS: 124 -0.284215
LINEAR_WEIGHTS: 125 0.644597
LINEAR_WEIGHTS: 126 0.323475
LINEAR_WEIGHTS: 127 0.006406
LINEAR_WEIGHTS: 128 0.243336
LINEAR_WEIGHTS: 129 -0.468994
LINEAR_WEIGHTS: 130 -0.214016
LINEAR_WEIGHTS: 131 -0.212521
LINEAR_WEIGHTS: 132 0.040337
LINEAR_WEIGHTS: 133 -0.205379
LINEAR_WEIGHTS: 134 -0.023352
LINEAR_WEIGHTS: 135 -0.283260
LINEAR_WEIGHTS: 136 0.711611
LINEAR_WEIGHTS: 137 -0.016802
LINEAR_WEIGHTS: 138 0.012923
LINEAR_WEIGHTS: 139 -0.028031
LINEAR_WEIGHTS: 140 0.021288
LINEAR_WEIGHTS: 141 0.048927
LINEAR_WEIGHTS: 142 0.007694
LINEAR_WEIGHTS: 143 -0.009374
LINEAR_WEIGHTS: 144 0.030636
LINEAR_WEIGHTS: 145 -0.021261
LINEAR_WEIGHTS: 146 -0.007614
LINEAR_WEIGHTS: 147 0.026417
LINEAR_WEIGHTS: 148 -0.027535
LINEAR_WEIGHTS: 149 -0.012173
LINEAR_WEIGHTS: 150 0.029700
LINEAR_WEIGHTS: 151 -0.024323
LINEAR_WEIGHTS: 152 0.040685
LINEAR_WEIGHTS: 153 0.189116
LINEAR_WEIGHTS: 154 0.274062
LINEAR_WEIGHTS: 155 0.042158
LINEAR_WEIGHTS: 156 0.049353
LINEAR_WEIGHTS: 157 0.045111
LINEAR_WEIGHTS: 158 -0.009268
LINEAR_WEIGHTS: 159 -0.011573
LINEAR_WEIGHTS: 160 -0.017996
LINEAR_WEIGHTS: 161 -0.020138
LINEAR_WEIGHTS: 162 -0.025980
LINEAR_WEIGHTS: 163 -0.034262
LINEAR_WEIGHTS: 164 -0.065516
LINEAR_WEIGHTS: 165 -0.039261
LINEAR_WEIGHTS: 166 -0.030818
LINEAR_WEIGHTS: 167 -0.027792
LINEAR_WEIGHTS: 168 -0.019510
LINEAR_WEIGHTS: 169 -0.017119
LINEAR_WEIGHTS: 170 -0.010601
LINEAR_WEIGHTS: 171 0.190266
LINEAR_WEIGHTS: 172 0.547751
LINEAR_WEIGHTS: 173 0.175804
LINEAR_WEIGHTS: 174 0.265260
