SVM-light Version V6.02
4 # kernel type
3 # kernel parameter -d 
1 # kernel parameter -g 
1 # kernel parameter -s 
1 # kernel parameter -r 
empty# kernel parameter -u 
174 # highest feature index 
264694 # number of training documents 
90404 # number of support vectors plus 1 
0.87039296 # threshold b, each following line is a SV (starting with alpha*y)
LINEAR_WEIGHTS: 1 -0.275583
LINEAR_WEIGHTS: 2 -0.412689
LINEAR_WEIGHTS: 3 -0.342610
LINEAR_WEIGHTS: 4 -0.274994
LINEAR_WEIGHTS: 5 -0.864937
LINEAR_WEIGHTS: 6 -1.163121
LINEAR_WEIGHTS: 7 -0.393612
LINEAR_WEIGHTS: 8 -0.162870
LINEAR_WEIGHTS: 9 -0.010162
LINEAR_WEIGHTS: 10 -0.024304
LINEAR_WEIGHTS: 11 0.248126
LINEAR_WEIGHTS: 12 -0.116882
LINEAR_WEIGHTS: 13 0.156428
LINEAR_WEIGHTS: 14 -0.012956
LINEAR_WEIGHTS: 15 0.120834
LINEAR_WEIGHTS: 16 -0.888023
LINEAR_WEIGHTS: 17 -0.714655
LINEAR_WEIGHTS: 18 0.104565
LINEAR_WEIGHTS: 19 0.320279
LINEAR_WEIGHTS: 20 -0.143012
LINEAR_WEIGHTS: 21 0.111991
LINEAR_WEIGHTS: 22 1.155323
LINEAR_WEIGHTS: 23 0.463248
LINEAR_WEIGHTS: 24 0.775230
LINEAR_WEIGHTS: 25 0.080606
LINEAR_WEIGHTS: 26 0.017056
LINEAR_WEIGHTS: 27 0.284606
LINEAR_WEIGHTS: 28 0.030309
LINEAR_WEIGHTS: 29 0.301480
LINEAR_WEIGHTS: 30 -0.467505
LINEAR_WEIGHTS: 31 0.131336
LINEAR_WEIGHTS: 32 0.469820
LINEAR_WEIGHTS: 33 -0.511490
LINEAR_WEIGHTS: 34 0.261305
LINEAR_WEIGHTS: 35 -0.317003
LINEAR_WEIGHTS: 36 0.414398
LINEAR_WEIGHTS: 37 -0.416813
LINEAR_WEIGHTS: 38 -0.699715
LINEAR_WEIGHTS: 39 -1.258316
LINEAR_WEIGHTS: 40 -0.284287
LINEAR_WEIGHTS: 41 -0.124953
LINEAR_WEIGHTS: 42 -0.029089
LINEAR_WEIGHTS: 43 0.499922
LINEAR_WEIGHTS: 44 0.707176
LINEAR_WEIGHTS: 45 0.248331
LINEAR_WEIGHTS: 46 0.161155
LINEAR_WEIGHTS: 47 0.047053
LINEAR_WEIGHTS: 48 -0.245829
LINEAR_WEIGHTS: 49 -0.131678
LINEAR_WEIGHTS: 50 0.113375
LINEAR_WEIGHTS: 51 -0.327410
LINEAR_WEIGHTS: 52 -0.222075
LINEAR_WEIGHTS: 53 0.318840
LINEAR_WEIGHTS: 54 0.216191
LINEAR_WEIGHTS: 55 0.318130
LINEAR_WEIGHTS: 56 -0.095009
LINEAR_WEIGHTS: 57 -0.472504
LINEAR_WEIGHTS: 58 -0.207771
LINEAR_WEIGHTS: 59 0.201907
LINEAR_WEIGHTS: 60 0.022981
LINEAR_WEIGHTS: 61 0.294965
LINEAR_WEIGHTS: 62 0.062624
LINEAR_WEIGHTS: 63 0.604835
LINEAR_WEIGHTS: 64 -0.034591
LINEAR_WEIGHTS: 65 -0.030217
LINEAR_WEIGHTS: 66 0.026609
LINEAR_WEIGHTS: 67 -0.302000
LINEAR_WEIGHTS: 68 0.104665
LINEAR_WEIGHTS: 69 0.199800
LINEAR_WEIGHTS: 70 0.055248
LINEAR_WEIGHTS: 71 0.018488
LINEAR_WEIGHTS: 72 0.304965
LINEAR_WEIGHTS: 73 0.170816
LINEAR_WEIGHTS: 74 -0.033461
LINEAR_WEIGHTS: 75 -0.028702
LINEAR_WEIGHTS: 76 0.019672
LINEAR_WEIGHTS: 77 0.085495
LINEAR_WEIGHTS: 78 0.606053
LINEAR_WEIGHTS: 79 0.272919
LINEAR_WEIGHTS: 80 0.210590
LINEAR_WEIGHTS: 81 0.039353
LINEAR_WEIGHTS: 82 -0.115224
LINEAR_WEIGHTS: 83 0.190721
LINEAR_WEIGHTS: 84 0.359856
LINEAR_WEIGHTS: 85 0.036066
LINEAR_WEIGHTS: 86 0.102918
LINEAR_WEIGHTS: 87 0.009647
LINEAR_WEIGHTS: 88 -0.017990
LINEAR_WEIGHTS: 89 0.073981
LINEAR_WEIGHTS: 90 0.002079
LINEAR_WEIGHTS: 91 0.019669
LINEAR_WEIGHTS: 92 -0.797331
LINEAR_WEIGHTS: 93 0.993430
LINEAR_WEIGHTS: 94 -0.317898
LINEAR_WEIGHTS: 95 0.368876
LINEAR_WEIGHTS: 96 -0.685987
LINEAR_WEIGHTS: 97 0.277573
LINEAR_WEIGHTS: 98 -0.456177
LINEAR_WEIGHTS: 99 -0.586948
LINEAR_WEIGHTS: 100 0.310629
LINEAR_WEIGHTS: 101 -0.956456
LINEAR_WEIGHTS: 102 -0.771759
LINEAR_WEIGHTS: 103 0.258668
LINEAR_WEIGHTS: 104 0.478928
LINEAR_WEIGHTS: 105 0.060695
LINEAR_WEIGHTS: 106 0.397826
LINEAR_WEIGHTS: 107 0.025435
LINEAR_WEIGHTS: 108 -0.408250
LINEAR_WEIGHTS: 109 0.394553
LINEAR_WEIGHTS: 110 0.330497
LINEAR_WEIGHTS: 111 0.254089
LINEAR_WEIGHTS: 112 0.371770
LINEAR_WEIGHTS: 113 -0.363089
LINEAR_WEIGHTS: 114 -0.048533
LINEAR_WEIGHTS: 115 0.269664
LINEAR_WEIGHTS: 116 -0.239568
LINEAR_WEIGHTS: 117 0.268199
LINEAR_WEIGHTS: 118 -0.351806
LINEAR_WEIGHTS: 119 0.392160
LINEAR_WEIGHTS: 120 0.260796
LINEAR_WEIGHTS: 121 0.272969
LINEAR_WEIGHTS: 122 -0.302374
LINEAR_WEIGHTS: 123 -0.032059
LINEAR_WEIGHTS: 124 -0.232695
LINEAR_WEIGHTS: 125 0.544082
LINEAR_WEIGHTS: 126 0.220879
LINEAR_WEIGHTS: 127 -0.128047
LINEAR_WEIGHTS: 128 0.067916
LINEAR_WEIGHTS: 129 -0.248833
LINEAR_WEIGHTS: 130 -0.260350
LINEAR_WEIGHTS: 131 -0.260287
LINEAR_WEIGHTS: 132 0.025806
LINEAR_WEIGHTS: 133 -0.262961
LINEAR_WEIGHTS: 134 -0.048058
LINEAR_WEIGHTS: 135 -0.158579
LINEAR_WEIGHTS: 136 0.491257
LINEAR_WEIGHTS: 137 -0.007631
LINEAR_WEIGHTS: 138 0.028685
LINEAR_WEIGHTS: 139 -0.011345
LINEAR_WEIGHTS: 140 0.051948
LINEAR_WEIGHTS: 141 0.074118
LINEAR_WEIGHTS: 142 0.037728
LINEAR_WEIGHTS: 143 -0.007746
LINEAR_WEIGHTS: 144 0.027552
LINEAR_WEIGHTS: 145 -0.019806
LINEAR_WEIGHTS: 146 0.005997
LINEAR_WEIGHTS: 147 0.032991
LINEAR_WEIGHTS: 148 -0.012771
LINEAR_WEIGHTS: 149 -0.006100
LINEAR_WEIGHTS: 150 0.036354
LINEAR_WEIGHTS: 151 -0.017014
LINEAR_WEIGHTS: 152 0.037558
LINEAR_WEIGHTS: 153 0.194663
LINEAR_WEIGHTS: 154 0.264307
LINEAR_WEIGHTS: 155 0.031058
LINEAR_WEIGHTS: 156 0.037696
LINEAR_WEIGHTS: 157 0.032531
LINEAR_WEIGHTS: 158 -0.008884
LINEAR_WEIGHTS: 159 -0.016233
LINEAR_WEIGHTS: 160 -0.025023
LINEAR_WEIGHTS: 161 -0.026985
LINEAR_WEIGHTS: 162 -0.032687
LINEAR_WEIGHTS: 163 -0.045139
LINEAR_WEIGHTS: 164 -0.078303
LINEAR_WEIGHTS: 165 -0.046644
LINEAR_WEIGHTS: 166 -0.036199
LINEAR_WEIGHTS: 167 -0.033032
LINEAR_WEIGHTS: 168 -0.023928
LINEAR_WEIGHTS: 169 -0.017781
LINEAR_WEIGHTS: 170 -0.012357
LINEAR_WEIGHTS: 171 0.206637
LINEAR_WEIGHTS: 172 0.800638
LINEAR_WEIGHTS: 173 0.189073
LINEAR_WEIGHTS: 174 0.268438
