SVM-light Version V6.02
4 # kernel type
3 # kernel parameter -d 
1 # kernel parameter -g 
1 # kernel parameter -s 
1 # kernel parameter -r 
empty# kernel parameter -u 
174 # highest feature index 
259216 # number of training documents 
90527 # number of support vectors plus 1 
0.74693557 # threshold b, each following line is a SV (starting with alpha*y)
LINEAR_WEIGHTS: 1 -0.156623
LINEAR_WEIGHTS: 2 -0.455269
LINEAR_WEIGHTS: 3 -0.466161
LINEAR_WEIGHTS: 4 -0.299140
LINEAR_WEIGHTS: 5 -0.769850
LINEAR_WEIGHTS: 6 -1.030401
LINEAR_WEIGHTS: 7 -0.398685
LINEAR_WEIGHTS: 8 -0.179734
LINEAR_WEIGHTS: 9 -0.046769
LINEAR_WEIGHTS: 10 -0.102343
LINEAR_WEIGHTS: 11 0.190593
LINEAR_WEIGHTS: 12 -0.068097
LINEAR_WEIGHTS: 13 0.201156
LINEAR_WEIGHTS: 14 -0.328104
LINEAR_WEIGHTS: 15 -0.038696
LINEAR_WEIGHTS: 16 -0.995848
LINEAR_WEIGHTS: 17 -0.322387
LINEAR_WEIGHTS: 18 0.132425
LINEAR_WEIGHTS: 19 0.402091
LINEAR_WEIGHTS: 20 -0.068906
LINEAR_WEIGHTS: 21 -0.002370
LINEAR_WEIGHTS: 22 1.028546
LINEAR_WEIGHTS: 23 0.406678
LINEAR_WEIGHTS: 24 0.742458
LINEAR_WEIGHTS: 25 0.178237
LINEAR_WEIGHTS: 26 0.071961
LINEAR_WEIGHTS: 27 0.449932
LINEAR_WEIGHTS: 28 0.065676
LINEAR_WEIGHTS: 29 0.206461
LINEAR_WEIGHTS: 30 -0.510809
LINEAR_WEIGHTS: 31 0.041064
LINEAR_WEIGHTS: 32 0.400570
LINEAR_WEIGHTS: 33 -0.765689
LINEAR_WEIGHTS: 34 0.098488
LINEAR_WEIGHTS: 35 -0.276849
LINEAR_WEIGHTS: 36 0.421059
LINEAR_WEIGHTS: 37 -0.352056
LINEAR_WEIGHTS: 38 -0.767133
LINEAR_WEIGHTS: 39 -1.288569
LINEAR_WEIGHTS: 40 -0.304971
LINEAR_WEIGHTS: 41 -0.053772
LINEAR_WEIGHTS: 42 -0.071608
LINEAR_WEIGHTS: 43 0.639981
LINEAR_WEIGHTS: 44 0.500117
LINEAR_WEIGHTS: 45 0.074021
LINEAR_WEIGHTS: 46 0.259548
LINEAR_WEIGHTS: 47 0.417047
LINEAR_WEIGHTS: 48 -0.393901
LINEAR_WEIGHTS: 49 0.065081
LINEAR_WEIGHTS: 50 0.117442
LINEAR_WEIGHTS: 51 -0.110637
LINEAR_WEIGHTS: 52 -0.285272
LINEAR_WEIGHTS: 53 0.291723
LINEAR_WEIGHTS: 54 -0.067742
LINEAR_WEIGHTS: 55 0.494173
LINEAR_WEIGHTS: 56 -0.373412
LINEAR_WEIGHTS: 57 -0.568021
LINEAR_WEIGHTS: 58 -0.047436
LINEAR_WEIGHTS: 59 0.086276
LINEAR_WEIGHTS: 60 0.314972
LINEAR_WEIGHTS: 61 0.214579
LINEAR_WEIGHTS: 62 0.028301
LINEAR_WEIGHTS: 63 0.749884
LINEAR_WEIGHTS: 64 -0.086569
LINEAR_WEIGHTS: 65 -0.000561
LINEAR_WEIGHTS: 66 0.128290
LINEAR_WEIGHTS: 67 -0.412430
LINEAR_WEIGHTS: 68 0.152656
LINEAR_WEIGHTS: 69 0.199493
LINEAR_WEIGHTS: 70 0.000631
LINEAR_WEIGHTS: 71 0.008653
LINEAR_WEIGHTS: 72 0.335444
LINEAR_WEIGHTS: 73 0.128946
LINEAR_WEIGHTS: 74 0.033584
LINEAR_WEIGHTS: 75 0.029726
LINEAR_WEIGHTS: 76 0.030956
LINEAR_WEIGHTS: 77 0.081906
LINEAR_WEIGHTS: 78 0.777312
LINEAR_WEIGHTS: 79 0.125111
LINEAR_WEIGHTS: 80 0.416421
LINEAR_WEIGHTS: 81 0.014693
LINEAR_WEIGHTS: 82 -0.157076
LINEAR_WEIGHTS: 83 0.230020
LINEAR_WEIGHTS: 84 0.294626
LINEAR_WEIGHTS: 85 -0.035317
LINEAR_WEIGHTS: 86 0.130184
LINEAR_WEIGHTS: 87 0.081390
LINEAR_WEIGHTS: 88 -0.026843
LINEAR_WEIGHTS: 89 0.151186
LINEAR_WEIGHTS: 90 -0.001836
LINEAR_WEIGHTS: 91 0.046102
LINEAR_WEIGHTS: 92 -0.483359
LINEAR_WEIGHTS: 93 1.153187
LINEAR_WEIGHTS: 94 -0.693125
LINEAR_WEIGHTS: 95 0.494799
LINEAR_WEIGHTS: 96 -0.871307
LINEAR_WEIGHTS: 97 -0.076144
LINEAR_WEIGHTS: 98 -0.360831
LINEAR_WEIGHTS: 99 -0.670679
LINEAR_WEIGHTS: 100 0.276868
LINEAR_WEIGHTS: 101 -0.842853
LINEAR_WEIGHTS: 102 -0.741653
LINEAR_WEIGHTS: 103 0.291185
LINEAR_WEIGHTS: 104 0.538799
LINEAR_WEIGHTS: 105 0.170445
LINEAR_WEIGHTS: 106 0.699961
LINEAR_WEIGHTS: 107 0.201933
LINEAR_WEIGHTS: 108 -0.592150
LINEAR_WEIGHTS: 109 0.468292
LINEAR_WEIGHTS: 110 0.331615
LINEAR_WEIGHTS: 111 0.170811
LINEAR_WEIGHTS: 112 0.214964
LINEAR_WEIGHTS: 113 -0.467975
LINEAR_WEIGHTS: 114 0.040156
LINEAR_WEIGHTS: 115 0.447456
LINEAR_WEIGHTS: 116 -0.231246
LINEAR_WEIGHTS: 117 0.272585
LINEAR_WEIGHTS: 118 -0.293923
LINEAR_WEIGHTS: 119 0.521706
LINEAR_WEIGHTS: 120 0.371277
LINEAR_WEIGHTS: 121 0.233787
LINEAR_WEIGHTS: 122 -0.237919
LINEAR_WEIGHTS: 123 -0.072403
LINEAR_WEIGHTS: 124 -0.406278
LINEAR_WEIGHTS: 125 0.372192
LINEAR_WEIGHTS: 126 0.135418
LINEAR_WEIGHTS: 127 0.022871
LINEAR_WEIGHTS: 128 0.106543
LINEAR_WEIGHTS: 129 -0.171974
LINEAR_WEIGHTS: 130 -0.096679
LINEAR_WEIGHTS: 131 -0.252503
LINEAR_WEIGHTS: 132 -0.027428
LINEAR_WEIGHTS: 133 -0.270496
LINEAR_WEIGHTS: 134 -0.164916
LINEAR_WEIGHTS: 135 -0.112271
LINEAR_WEIGHTS: 136 0.679411
LINEAR_WEIGHTS: 137 -0.007175
LINEAR_WEIGHTS: 138 0.020826
LINEAR_WEIGHTS: 139 -0.016827
LINEAR_WEIGHTS: 140 0.048823
LINEAR_WEIGHTS: 141 0.073925
LINEAR_WEIGHTS: 142 0.034199
LINEAR_WEIGHTS: 143 -0.007993
LINEAR_WEIGHTS: 144 0.028186
LINEAR_WEIGHTS: 145 -0.020193
LINEAR_WEIGHTS: 146 -0.004228
LINEAR_WEIGHTS: 147 0.023695
LINEAR_WEIGHTS: 148 -0.024299
LINEAR_WEIGHTS: 149 -0.003732
LINEAR_WEIGHTS: 150 0.040537
LINEAR_WEIGHTS: 151 -0.015492
LINEAR_WEIGHTS: 152 0.036628
LINEAR_WEIGHTS: 153 0.196045
LINEAR_WEIGHTS: 154 0.160085
LINEAR_WEIGHTS: 155 0.033632
LINEAR_WEIGHTS: 156 0.042132
LINEAR_WEIGHTS: 157 0.037534
LINEAR_WEIGHTS: 158 -0.009440
LINEAR_WEIGHTS: 159 -0.013230
LINEAR_WEIGHTS: 160 -0.021610
LINEAR_WEIGHTS: 161 -0.025583
LINEAR_WEIGHTS: 162 -0.031177
LINEAR_WEIGHTS: 163 -0.043252
LINEAR_WEIGHTS: 164 -0.072666
LINEAR_WEIGHTS: 165 -0.042188
LINEAR_WEIGHTS: 166 -0.032833
LINEAR_WEIGHTS: 167 -0.029787
LINEAR_WEIGHTS: 168 -0.020499
LINEAR_WEIGHTS: 169 -0.013734
LINEAR_WEIGHTS: 170 -0.012497
LINEAR_WEIGHTS: 171 0.214155
LINEAR_WEIGHTS: 172 0.800757
LINEAR_WEIGHTS: 173 0.173297
LINEAR_WEIGHTS: 174 0.244832
