SVM-light Version V6.02
4 # kernel type
3 # kernel parameter -d 
1 # kernel parameter -g 
1 # kernel parameter -s 
1 # kernel parameter -r 
empty# kernel parameter -u 
260 # highest feature index 
52842 # number of training documents 
18092 # number of support vectors plus 1 
-0.12110486 # threshold b, each following line is a SV (starting with alpha*y)
LINEAR_WEIGHTS: 1 0.075805
LINEAR_WEIGHTS: 2 0.021206
LINEAR_WEIGHTS: 3 0.047386
LINEAR_WEIGHTS: 4 0.052215
LINEAR_WEIGHTS: 5 -0.125089
LINEAR_WEIGHTS: 6 -0.291885
LINEAR_WEIGHTS: 7 0.002355
LINEAR_WEIGHTS: 8 0.046790
LINEAR_WEIGHTS: 9 0.028883
LINEAR_WEIGHTS: 10 0.038126
LINEAR_WEIGHTS: 11 -0.052466
LINEAR_WEIGHTS: 12 0.100693
LINEAR_WEIGHTS: 13 -0.010335
LINEAR_WEIGHTS: 14 0.064424
LINEAR_WEIGHTS: 15 -0.118943
LINEAR_WEIGHTS: 16 0.077362
LINEAR_WEIGHTS: 17 -0.144071
LINEAR_WEIGHTS: 18 -0.187302
LINEAR_WEIGHTS: 19 -0.010578
LINEAR_WEIGHTS: 20 0.010635
LINEAR_WEIGHTS: 21 -0.008157
LINEAR_WEIGHTS: 22 0.049490
LINEAR_WEIGHTS: 23 -0.025805
LINEAR_WEIGHTS: 24 0.075603
LINEAR_WEIGHTS: 25 0.015866
LINEAR_WEIGHTS: 26 -0.035049
LINEAR_WEIGHTS: 27 0.306839
LINEAR_WEIGHTS: 28 -0.057674
LINEAR_WEIGHTS: 29 0.106021
LINEAR_WEIGHTS: 30 -0.063789
LINEAR_WEIGHTS: 31 0.118300
LINEAR_WEIGHTS: 32 0.070961
LINEAR_WEIGHTS: 33 -0.110463
LINEAR_WEIGHTS: 34 -0.039162
LINEAR_WEIGHTS: 35 0.077860
LINEAR_WEIGHTS: 36 0.004279
LINEAR_WEIGHTS: 37 -0.014976
LINEAR_WEIGHTS: 38 -0.039509
LINEAR_WEIGHTS: 39 -0.161023
LINEAR_WEIGHTS: 40 -0.013179
LINEAR_WEIGHTS: 41 0.015199
LINEAR_WEIGHTS: 42 0.024357
LINEAR_WEIGHTS: 43 0.053973
LINEAR_WEIGHTS: 44 -0.025544
LINEAR_WEIGHTS: 45 0.072193
LINEAR_WEIGHTS: 46 0.027823
LINEAR_WEIGHTS: 47 -0.037930
LINEAR_WEIGHTS: 48 0.021793
LINEAR_WEIGHTS: 49 -0.082628
LINEAR_WEIGHTS: 50 0.098570
LINEAR_WEIGHTS: 51 -0.069053
LINEAR_WEIGHTS: 52 -0.096528
LINEAR_WEIGHTS: 53 -0.007679
LINEAR_WEIGHTS: 54 0.086613
LINEAR_WEIGHTS: 55 0.085051
LINEAR_WEIGHTS: 56 -0.326977
LINEAR_WEIGHTS: 57 -0.065951
LINEAR_WEIGHTS: 58 0.100479
LINEAR_WEIGHTS: 59 -0.079237
LINEAR_WEIGHTS: 60 0.066846
LINEAR_WEIGHTS: 61 -0.118459
LINEAR_WEIGHTS: 62 0.098318
LINEAR_WEIGHTS: 63 0.077476
LINEAR_WEIGHTS: 64 -0.014875
LINEAR_WEIGHTS: 65 0.018742
LINEAR_WEIGHTS: 66 0.035637
LINEAR_WEIGHTS: 67 -0.017192
LINEAR_WEIGHTS: 68 -0.002692
LINEAR_WEIGHTS: 69 -0.005091
LINEAR_WEIGHTS: 70 0.016016
LINEAR_WEIGHTS: 71 -0.002423
LINEAR_WEIGHTS: 72 0.002861
LINEAR_WEIGHTS: 73 0.051442
LINEAR_WEIGHTS: 74 -0.011814
LINEAR_WEIGHTS: 75 0.012454
LINEAR_WEIGHTS: 76 0.039252
LINEAR_WEIGHTS: 77 -0.022480
LINEAR_WEIGHTS: 78 0.067393
LINEAR_WEIGHTS: 79 -0.015773
LINEAR_WEIGHTS: 80 0.044198
LINEAR_WEIGHTS: 81 0.006495
LINEAR_WEIGHTS: 82 -0.013069
LINEAR_WEIGHTS: 83 -0.034425
LINEAR_WEIGHTS: 84 0.007567
LINEAR_WEIGHTS: 85 0.017314
LINEAR_WEIGHTS: 86 -0.000651
LINEAR_WEIGHTS: 87 -0.031376
LINEAR_WEIGHTS: 88 0.001526
LINEAR_WEIGHTS: 89 0.033330
LINEAR_WEIGHTS: 90 0.017256
LINEAR_WEIGHTS: 91 0.000029
LINEAR_WEIGHTS: 92 -0.230764
LINEAR_WEIGHTS: 93 -0.184651
LINEAR_WEIGHTS: 94 0.202399
LINEAR_WEIGHTS: 95 0.064683
LINEAR_WEIGHTS: 96 -0.491581
LINEAR_WEIGHTS: 97 0.058978
LINEAR_WEIGHTS: 98 -0.104902
LINEAR_WEIGHTS: 99 0.264195
LINEAR_WEIGHTS: 100 -0.375152
LINEAR_WEIGHTS: 101 -0.689673
LINEAR_WEIGHTS: 102 -0.143873
LINEAR_WEIGHTS: 103 0.353308
LINEAR_WEIGHTS: 104 0.166100
LINEAR_WEIGHTS: 105 0.646957
LINEAR_WEIGHTS: 106 0.113794
LINEAR_WEIGHTS: 107 0.009130
LINEAR_WEIGHTS: 108 0.007259
LINEAR_WEIGHTS: 109 0.169932
LINEAR_WEIGHTS: 110 -0.082582
LINEAR_WEIGHTS: 111 0.210460
LINEAR_WEIGHTS: 112 0.148889
LINEAR_WEIGHTS: 113 -0.079061
LINEAR_WEIGHTS: 114 -0.081226
LINEAR_WEIGHTS: 115 -0.177777
LINEAR_WEIGHTS: 116 0.207143
LINEAR_WEIGHTS: 117 0.027636
LINEAR_WEIGHTS: 118 0.218018
LINEAR_WEIGHTS: 119 0.227817
LINEAR_WEIGHTS: 120 -0.260440
LINEAR_WEIGHTS: 121 0.279526
LINEAR_WEIGHTS: 122 0.155094
LINEAR_WEIGHTS: 123 0.368280
LINEAR_WEIGHTS: 124 -0.038927
LINEAR_WEIGHTS: 125 -0.040881
LINEAR_WEIGHTS: 126 0.044209
LINEAR_WEIGHTS: 127 0.294876
LINEAR_WEIGHTS: 128 -0.293190
LINEAR_WEIGHTS: 129 -0.171936
LINEAR_WEIGHTS: 130 0.280036
LINEAR_WEIGHTS: 131 -0.293533
LINEAR_WEIGHTS: 132 -0.151576
LINEAR_WEIGHTS: 133 0.224075
LINEAR_WEIGHTS: 134 -0.488546
LINEAR_WEIGHTS: 135 -0.781016
LINEAR_WEIGHTS: 136 0.347100
LINEAR_WEIGHTS: 137 0.034299
LINEAR_WEIGHTS: 138 -0.013987
LINEAR_WEIGHTS: 139 0.022895
LINEAR_WEIGHTS: 140 -0.007200
LINEAR_WEIGHTS: 141 -0.006149
LINEAR_WEIGHTS: 142 -0.009401
LINEAR_WEIGHTS: 143 0.023845
LINEAR_WEIGHTS: 144 0.010105
LINEAR_WEIGHTS: 145 0.018710
LINEAR_WEIGHTS: 146 0.061618
LINEAR_WEIGHTS: 147 0.073244
LINEAR_WEIGHTS: 148 0.053282
LINEAR_WEIGHTS: 149 0.172109
LINEAR_WEIGHTS: 150 0.167794
LINEAR_WEIGHTS: 151 0.145854
LINEAR_WEIGHTS: 152 0.003233
LINEAR_WEIGHTS: 153 0.012785
LINEAR_WEIGHTS: 154 -0.016018
LINEAR_WEIGHTS: 155 0.157421
LINEAR_WEIGHTS: 156 0.160056
LINEAR_WEIGHTS: 157 0.127525
LINEAR_WEIGHTS: 158 0.082936
LINEAR_WEIGHTS: 159 0.097751
LINEAR_WEIGHTS: 160 0.065507
LINEAR_WEIGHTS: 161 0.060299
LINEAR_WEIGHTS: 162 0.063678
LINEAR_WEIGHTS: 163 0.044819
LINEAR_WEIGHTS: 164 0.057134
LINEAR_WEIGHTS: 165 0.049159
LINEAR_WEIGHTS: 166 0.039922
LINEAR_WEIGHTS: 167 0.075352
LINEAR_WEIGHTS: 168 0.063542
LINEAR_WEIGHTS: 169 0.051756
LINEAR_WEIGHTS: 170 -0.009580
LINEAR_WEIGHTS: 171 0.105275
LINEAR_WEIGHTS: 172 0.021139
LINEAR_WEIGHTS: 173 -0.007854
LINEAR_WEIGHTS: 174 -0.008015
LINEAR_WEIGHTS: 175 -0.010822
LINEAR_WEIGHTS: 176 0.002845
LINEAR_WEIGHTS: 177 0.002455
LINEAR_WEIGHTS: 178 -0.018871
LINEAR_WEIGHTS: 179 -0.007783
LINEAR_WEIGHTS: 180 -0.015242
LINEAR_WEIGHTS: 181 0.000366
LINEAR_WEIGHTS: 182 0.015651
LINEAR_WEIGHTS: 183 0.073928
LINEAR_WEIGHTS: 184 -0.027391
LINEAR_WEIGHTS: 185 0.004094
LINEAR_WEIGHTS: 186 -0.000471
LINEAR_WEIGHTS: 187 0.003273
LINEAR_WEIGHTS: 188 0.015193
LINEAR_WEIGHTS: 189 -0.056203
LINEAR_WEIGHTS: 190 -0.071341
LINEAR_WEIGHTS: 191 -0.062440
LINEAR_WEIGHTS: 192 0.013808
LINEAR_WEIGHTS: 193 0.010830
LINEAR_WEIGHTS: 194 0.006263
LINEAR_WEIGHTS: 195 0.013427
LINEAR_WEIGHTS: 196 -0.023815
LINEAR_WEIGHTS: 197 -0.003872
LINEAR_WEIGHTS: 198 -0.025142
LINEAR_WEIGHTS: 199 -0.077827
LINEAR_WEIGHTS: 200 -0.054960
LINEAR_WEIGHTS: 201 -0.055926
LINEAR_WEIGHTS: 202 -0.025171
LINEAR_WEIGHTS: 203 -0.044308
LINEAR_WEIGHTS: 204 -0.019164
LINEAR_WEIGHTS: 205 -0.036492
LINEAR_WEIGHTS: 206 -0.006839
LINEAR_WEIGHTS: 207 -0.019354
LINEAR_WEIGHTS: 208 -0.027298
LINEAR_WEIGHTS: 209 -0.026724
LINEAR_WEIGHTS: 210 -0.048512
LINEAR_WEIGHTS: 211 -0.020021
LINEAR_WEIGHTS: 212 -0.036401
LINEAR_WEIGHTS: 213 -0.049358
LINEAR_WEIGHTS: 214 0.003461
LINEAR_WEIGHTS: 215 0.018075
LINEAR_WEIGHTS: 216 -0.019286
LINEAR_WEIGHTS: 217 0.005400
LINEAR_WEIGHTS: 218 -0.027038
LINEAR_WEIGHTS: 219 -0.079803
LINEAR_WEIGHTS: 220 -0.037347
LINEAR_WEIGHTS: 221 -0.062827
LINEAR_WEIGHTS: 222 -0.020582
LINEAR_WEIGHTS: 223 -0.029624
LINEAR_WEIGHTS: 224 0.010207
LINEAR_WEIGHTS: 225 -0.033873
LINEAR_WEIGHTS: 226 -0.028456
LINEAR_WEIGHTS: 227 -0.014559
LINEAR_WEIGHTS: 228 -0.023172
LINEAR_WEIGHTS: 229 -0.025488
LINEAR_WEIGHTS: 230 -0.043468
LINEAR_WEIGHTS: 231 -0.036531
LINEAR_WEIGHTS: 232 -0.044396
LINEAR_WEIGHTS: 233 -0.061744
LINEAR_WEIGHTS: 234 0.016520
LINEAR_WEIGHTS: 235 -0.000795
LINEAR_WEIGHTS: 236 -0.015422
LINEAR_WEIGHTS: 237 0.008718
LINEAR_WEIGHTS: 238 -0.036346
LINEAR_WEIGHTS: 239 -0.096042
LINEAR_WEIGHTS: 240 -0.054086
LINEAR_WEIGHTS: 241 -0.064806
LINEAR_WEIGHTS: 242 -0.017919
LINEAR_WEIGHTS: 243 -0.052362
LINEAR_WEIGHTS: 244 -0.014943
LINEAR_WEIGHTS: 245 -0.024311
LINEAR_WEIGHTS: 246 -0.018931
LINEAR_WEIGHTS: 247 -0.018633
LINEAR_WEIGHTS: 248 -0.030019
LINEAR_WEIGHTS: 249 -0.024026
LINEAR_WEIGHTS: 250 -0.055590
LINEAR_WEIGHTS: 251 -0.039923
LINEAR_WEIGHTS: 252 -0.040808
LINEAR_WEIGHTS: 253 -0.054351
LINEAR_WEIGHTS: 254 -0.002581
LINEAR_WEIGHTS: 255 0.006993
LINEAR_WEIGHTS: 256 -0.033546
LINEAR_WEIGHTS: 257 -0.176680
LINEAR_WEIGHTS: 258 0.319540
LINEAR_WEIGHTS: 259 0.155006
LINEAR_WEIGHTS: 260 0.021830
