SVM-light Version V6.02
4 # kernel type
3 # kernel parameter -d 
1 # kernel parameter -g 
1 # kernel parameter -s 
1 # kernel parameter -r 
empty# kernel parameter -u 
174 # highest feature index 
259318 # number of training documents 
88418 # number of support vectors plus 1 
0.74797039 # threshold b, each following line is a SV (starting with alpha*y)
LINEAR_WEIGHTS: 1 -0.156256
LINEAR_WEIGHTS: 2 -0.199295
LINEAR_WEIGHTS: 3 -0.361578
LINEAR_WEIGHTS: 4 -0.277071
LINEAR_WEIGHTS: 5 -0.923269
LINEAR_WEIGHTS: 6 -1.482587
LINEAR_WEIGHTS: 7 -0.384203
LINEAR_WEIGHTS: 8 -0.149061
LINEAR_WEIGHTS: 9 0.014216
LINEAR_WEIGHTS: 10 -0.085988
LINEAR_WEIGHTS: 11 0.344161
LINEAR_WEIGHTS: 12 -0.032073
LINEAR_WEIGHTS: 13 0.242120
LINEAR_WEIGHTS: 14 -0.298556
LINEAR_WEIGHTS: 15 -0.115920
LINEAR_WEIGHTS: 16 -0.857963
LINEAR_WEIGHTS: 17 -0.595911
LINEAR_WEIGHTS: 18 0.252721
LINEAR_WEIGHTS: 19 0.418657
LINEAR_WEIGHTS: 20 -0.124491
LINEAR_WEIGHTS: 21 0.000486
LINEAR_WEIGHTS: 22 1.133701
LINEAR_WEIGHTS: 23 0.532454
LINEAR_WEIGHTS: 24 0.779946
LINEAR_WEIGHTS: 25 0.062405
LINEAR_WEIGHTS: 26 0.013535
LINEAR_WEIGHTS: 27 0.284966
LINEAR_WEIGHTS: 28 -0.002926
LINEAR_WEIGHTS: 29 0.234640
LINEAR_WEIGHTS: 30 -0.378411
LINEAR_WEIGHTS: 31 0.080087
LINEAR_WEIGHTS: 32 0.613234
LINEAR_WEIGHTS: 33 -0.596079
LINEAR_WEIGHTS: 34 0.180577
LINEAR_WEIGHTS: 35 -0.256237
LINEAR_WEIGHTS: 36 0.560244
LINEAR_WEIGHTS: 37 -0.298010
LINEAR_WEIGHTS: 38 -0.723077
LINEAR_WEIGHTS: 39 -1.282390
LINEAR_WEIGHTS: 40 -0.298582
LINEAR_WEIGHTS: 41 0.019161
LINEAR_WEIGHTS: 42 0.002116
LINEAR_WEIGHTS: 43 0.492986
LINEAR_WEIGHTS: 44 0.625452
LINEAR_WEIGHTS: 45 0.249685
LINEAR_WEIGHTS: 46 0.271205
LINEAR_WEIGHTS: 47 0.198891
LINEAR_WEIGHTS: 48 -0.458887
LINEAR_WEIGHTS: 49 -0.285789
LINEAR_WEIGHTS: 50 0.218703
LINEAR_WEIGHTS: 51 -0.347438
LINEAR_WEIGHTS: 52 -0.401570
LINEAR_WEIGHTS: 53 0.136107
LINEAR_WEIGHTS: 54 0.090414
LINEAR_WEIGHTS: 55 0.374391
LINEAR_WEIGHTS: 56 -0.090454
LINEAR_WEIGHTS: 57 -0.427874
LINEAR_WEIGHTS: 58 -0.143490
LINEAR_WEIGHTS: 59 -0.050445
LINEAR_WEIGHTS: 60 0.090065
LINEAR_WEIGHTS: 61 0.382067
LINEAR_WEIGHTS: 62 -0.003128
LINEAR_WEIGHTS: 63 0.609340
LINEAR_WEIGHTS: 64 -0.010247
LINEAR_WEIGHTS: 65 -0.005188
LINEAR_WEIGHTS: 66 0.169374
LINEAR_WEIGHTS: 67 -0.341835
LINEAR_WEIGHTS: 68 0.153367
LINEAR_WEIGHTS: 69 0.097807
LINEAR_WEIGHTS: 70 -0.001378
LINEAR_WEIGHTS: 71 -0.007140
LINEAR_WEIGHTS: 72 0.309797
LINEAR_WEIGHTS: 73 0.229529
LINEAR_WEIGHTS: 74 0.021593
LINEAR_WEIGHTS: 75 0.053508
LINEAR_WEIGHTS: 76 -0.007753
LINEAR_WEIGHTS: 77 -0.055217
LINEAR_WEIGHTS: 78 0.786053
LINEAR_WEIGHTS: 79 0.244513
LINEAR_WEIGHTS: 80 0.288790
LINEAR_WEIGHTS: 81 0.039010
LINEAR_WEIGHTS: 82 -0.119987
LINEAR_WEIGHTS: 83 0.229682
LINEAR_WEIGHTS: 84 0.287745
LINEAR_WEIGHTS: 85 -0.071988
LINEAR_WEIGHTS: 86 0.047851
LINEAR_WEIGHTS: 87 0.060310
LINEAR_WEIGHTS: 88 -0.014537
LINEAR_WEIGHTS: 89 0.138062
LINEAR_WEIGHTS: 90 0.034056
LINEAR_WEIGHTS: 91 0.024484
LINEAR_WEIGHTS: 92 -0.749875
LINEAR_WEIGHTS: 93 1.198694
LINEAR_WEIGHTS: 94 -0.645169
LINEAR_WEIGHTS: 95 0.457393
LINEAR_WEIGHTS: 96 -0.744479
LINEAR_WEIGHTS: 97 0.435695
LINEAR_WEIGHTS: 98 -0.294504
LINEAR_WEIGHTS: 99 -0.868692
LINEAR_WEIGHTS: 100 0.457769
LINEAR_WEIGHTS: 101 -0.957936
LINEAR_WEIGHTS: 102 -1.038037
LINEAR_WEIGHTS: 103 0.101816
LINEAR_WEIGHTS: 104 0.574734
LINEAR_WEIGHTS: 105 0.489068
LINEAR_WEIGHTS: 106 0.554074
LINEAR_WEIGHTS: 107 0.196988
LINEAR_WEIGHTS: 108 -0.590890
LINEAR_WEIGHTS: 109 0.561831
LINEAR_WEIGHTS: 110 0.426323
LINEAR_WEIGHTS: 111 0.280663
LINEAR_WEIGHTS: 112 0.157795
LINEAR_WEIGHTS: 113 -0.385300
LINEAR_WEIGHTS: 114 -0.030493
LINEAR_WEIGHTS: 115 0.160812
LINEAR_WEIGHTS: 116 -0.179865
LINEAR_WEIGHTS: 117 0.200977
LINEAR_WEIGHTS: 118 -0.396879
LINEAR_WEIGHTS: 119 0.580761
LINEAR_WEIGHTS: 120 0.236505
LINEAR_WEIGHTS: 121 0.358809
LINEAR_WEIGHTS: 122 -0.145313
LINEAR_WEIGHTS: 123 -0.248318
LINEAR_WEIGHTS: 124 -0.388794
LINEAR_WEIGHTS: 125 0.619641
LINEAR_WEIGHTS: 126 0.227890
LINEAR_WEIGHTS: 127 -0.085687
LINEAR_WEIGHTS: 128 0.070350
LINEAR_WEIGHTS: 129 -0.408988
LINEAR_WEIGHTS: 130 -0.288334
LINEAR_WEIGHTS: 131 -0.075144
LINEAR_WEIGHTS: 132 0.166898
LINEAR_WEIGHTS: 133 -0.295550
LINEAR_WEIGHTS: 134 -0.072529
LINEAR_WEIGHTS: 135 -0.250962
LINEAR_WEIGHTS: 136 0.570560
LINEAR_WEIGHTS: 137 -0.014369
LINEAR_WEIGHTS: 138 0.018925
LINEAR_WEIGHTS: 139 -0.019180
LINEAR_WEIGHTS: 140 0.018947
LINEAR_WEIGHTS: 141 0.041829
LINEAR_WEIGHTS: 142 0.004576
LINEAR_WEIGHTS: 143 -0.005829
LINEAR_WEIGHTS: 144 0.026227
LINEAR_WEIGHTS: 145 -0.020398
LINEAR_WEIGHTS: 146 -0.006829
LINEAR_WEIGHTS: 147 0.023022
LINEAR_WEIGHTS: 148 -0.022028
LINEAR_WEIGHTS: 149 -0.018076
LINEAR_WEIGHTS: 150 0.019571
LINEAR_WEIGHTS: 151 -0.032907
LINEAR_WEIGHTS: 152 0.035240
LINEAR_WEIGHTS: 153 0.202430
LINEAR_WEIGHTS: 154 0.114135
LINEAR_WEIGHTS: 155 0.033485
LINEAR_WEIGHTS: 156 0.040419
LINEAR_WEIGHTS: 157 0.034853
LINEAR_WEIGHTS: 158 -0.009267
LINEAR_WEIGHTS: 159 -0.014091
LINEAR_WEIGHTS: 160 -0.022269
LINEAR_WEIGHTS: 161 -0.025110
LINEAR_WEIGHTS: 162 -0.032501
LINEAR_WEIGHTS: 163 -0.040485
LINEAR_WEIGHTS: 164 -0.070493
LINEAR_WEIGHTS: 165 -0.040060
LINEAR_WEIGHTS: 166 -0.031049
LINEAR_WEIGHTS: 167 -0.028193
LINEAR_WEIGHTS: 168 -0.020316
LINEAR_WEIGHTS: 169 -0.015849
LINEAR_WEIGHTS: 170 -0.010491
LINEAR_WEIGHTS: 171 0.162271
LINEAR_WEIGHTS: 172 0.880336
LINEAR_WEIGHTS: 173 0.202765
LINEAR_WEIGHTS: 174 0.265333
