SVM-light Version V6.02
4 # kernel type
3 # kernel parameter -d 
1 # kernel parameter -g 
1 # kernel parameter -s 
1 # kernel parameter -r 
empty# kernel parameter -u 
174 # highest feature index 
262966 # number of training documents 
91046 # number of support vectors plus 1 
0.77909907 # threshold b, each following line is a SV (starting with alpha*y)
LINEAR_WEIGHTS: 1 -0.221707
LINEAR_WEIGHTS: 2 -0.111354
LINEAR_WEIGHTS: 3 -0.539607
LINEAR_WEIGHTS: 4 -0.142632
LINEAR_WEIGHTS: 5 -0.707100
LINEAR_WEIGHTS: 6 -1.200952
LINEAR_WEIGHTS: 7 -0.295118
LINEAR_WEIGHTS: 8 0.040389
LINEAR_WEIGHTS: 9 0.051514
LINEAR_WEIGHTS: 10 -0.011509
LINEAR_WEIGHTS: 11 0.220444
LINEAR_WEIGHTS: 12 -0.014704
LINEAR_WEIGHTS: 13 0.205595
LINEAR_WEIGHTS: 14 -0.262319
LINEAR_WEIGHTS: 15 -0.037364
LINEAR_WEIGHTS: 16 -0.874534
LINEAR_WEIGHTS: 17 -0.390128
LINEAR_WEIGHTS: 18 0.131309
LINEAR_WEIGHTS: 19 0.255264
LINEAR_WEIGHTS: 20 -0.105214
LINEAR_WEIGHTS: 21 0.102846
LINEAR_WEIGHTS: 22 0.864327
LINEAR_WEIGHTS: 23 0.472389
LINEAR_WEIGHTS: 24 0.584265
LINEAR_WEIGHTS: 25 0.129753
LINEAR_WEIGHTS: 26 -0.200738
LINEAR_WEIGHTS: 27 0.373485
LINEAR_WEIGHTS: 28 0.329306
LINEAR_WEIGHTS: 29 0.134340
LINEAR_WEIGHTS: 30 -0.855862
LINEAR_WEIGHTS: 31 0.432293
LINEAR_WEIGHTS: 32 0.739884
LINEAR_WEIGHTS: 33 -0.667067
LINEAR_WEIGHTS: 34 0.151405
LINEAR_WEIGHTS: 35 -0.387752
LINEAR_WEIGHTS: 36 0.444615
LINEAR_WEIGHTS: 37 -0.343145
LINEAR_WEIGHTS: 38 -0.982667
LINEAR_WEIGHTS: 39 -1.106345
LINEAR_WEIGHTS: 40 -0.274699
LINEAR_WEIGHTS: 41 -0.001570
LINEAR_WEIGHTS: 42 0.207968
LINEAR_WEIGHTS: 43 0.388163
LINEAR_WEIGHTS: 44 0.526255
LINEAR_WEIGHTS: 45 0.126564
LINEAR_WEIGHTS: 46 0.239898
LINEAR_WEIGHTS: 47 0.429226
LINEAR_WEIGHTS: 48 -0.381868
LINEAR_WEIGHTS: 49 0.016385
LINEAR_WEIGHTS: 50 0.154483
LINEAR_WEIGHTS: 51 -0.298431
LINEAR_WEIGHTS: 52 -0.456684
LINEAR_WEIGHTS: 53 0.142797
LINEAR_WEIGHTS: 54 -0.179069
LINEAR_WEIGHTS: 55 0.385336
LINEAR_WEIGHTS: 56 -0.195815
LINEAR_WEIGHTS: 57 -0.409662
LINEAR_WEIGHTS: 58 -0.209968
LINEAR_WEIGHTS: 59 -0.116044
LINEAR_WEIGHTS: 60 0.287571
LINEAR_WEIGHTS: 61 0.358312
LINEAR_WEIGHTS: 62 -0.223636
LINEAR_WEIGHTS: 63 0.673264
LINEAR_WEIGHTS: 64 -0.102429
LINEAR_WEIGHTS: 65 -0.006407
LINEAR_WEIGHTS: 66 0.284903
LINEAR_WEIGHTS: 67 -0.356479
LINEAR_WEIGHTS: 68 0.107304
LINEAR_WEIGHTS: 69 0.177763
LINEAR_WEIGHTS: 70 0.019209
LINEAR_WEIGHTS: 71 -0.004045
LINEAR_WEIGHTS: 72 0.324726
LINEAR_WEIGHTS: 73 0.187676
LINEAR_WEIGHTS: 74 0.003231
LINEAR_WEIGHTS: 75 -0.014333
LINEAR_WEIGHTS: 76 0.023869
LINEAR_WEIGHTS: 77 0.110303
LINEAR_WEIGHTS: 78 0.653854
LINEAR_WEIGHTS: 79 0.385747
LINEAR_WEIGHTS: 80 0.252763
LINEAR_WEIGHTS: 81 0.030797
LINEAR_WEIGHTS: 82 -0.152146
LINEAR_WEIGHTS: 83 0.101711
LINEAR_WEIGHTS: 84 0.321052
LINEAR_WEIGHTS: 85 0.004093
LINEAR_WEIGHTS: 86 0.100990
LINEAR_WEIGHTS: 87 0.082715
LINEAR_WEIGHTS: 88 -0.036420
LINEAR_WEIGHTS: 89 -0.010829
LINEAR_WEIGHTS: 90 0.068733
LINEAR_WEIGHTS: 91 0.047254
LINEAR_WEIGHTS: 92 -0.890160
LINEAR_WEIGHTS: 93 1.119404
LINEAR_WEIGHTS: 94 -0.231563
LINEAR_WEIGHTS: 95 0.388073
LINEAR_WEIGHTS: 96 -0.784157
LINEAR_WEIGHTS: 97 0.108781
LINEAR_WEIGHTS: 98 -0.348818
LINEAR_WEIGHTS: 99 -0.295272
LINEAR_WEIGHTS: 100 0.596091
LINEAR_WEIGHTS: 101 -1.020194
LINEAR_WEIGHTS: 102 -0.755384
LINEAR_WEIGHTS: 103 0.660903
LINEAR_WEIGHTS: 104 0.114832
LINEAR_WEIGHTS: 105 0.133558
LINEAR_WEIGHTS: 106 0.794693
LINEAR_WEIGHTS: 107 0.281713
LINEAR_WEIGHTS: 108 -0.577093
LINEAR_WEIGHTS: 109 0.395360
LINEAR_WEIGHTS: 110 0.441305
LINEAR_WEIGHTS: 111 0.192223
LINEAR_WEIGHTS: 112 0.175011
LINEAR_WEIGHTS: 113 -0.290924
LINEAR_WEIGHTS: 114 -0.092810
LINEAR_WEIGHTS: 115 0.428160
LINEAR_WEIGHTS: 116 -0.253942
LINEAR_WEIGHTS: 117 0.274925
LINEAR_WEIGHTS: 118 -0.352967
LINEAR_WEIGHTS: 119 0.661132
LINEAR_WEIGHTS: 120 0.230212
LINEAR_WEIGHTS: 121 0.262214
LINEAR_WEIGHTS: 122 -0.302989
LINEAR_WEIGHTS: 123 -0.105424
LINEAR_WEIGHTS: 124 -0.446685
LINEAR_WEIGHTS: 125 0.380131
LINEAR_WEIGHTS: 126 0.262763
LINEAR_WEIGHTS: 127 -0.135946
LINEAR_WEIGHTS: 128 0.041094
LINEAR_WEIGHTS: 129 -0.142617
LINEAR_WEIGHTS: 130 -0.330601
LINEAR_WEIGHTS: 131 -0.193981
LINEAR_WEIGHTS: 132 -0.017099
LINEAR_WEIGHTS: 133 -0.156812
LINEAR_WEIGHTS: 134 -0.158420
LINEAR_WEIGHTS: 135 -0.130188
LINEAR_WEIGHTS: 136 0.580200
LINEAR_WEIGHTS: 137 -0.002881
LINEAR_WEIGHTS: 138 0.033347
LINEAR_WEIGHTS: 139 -0.007184
LINEAR_WEIGHTS: 140 0.040258
LINEAR_WEIGHTS: 141 0.066766
LINEAR_WEIGHTS: 142 0.025752
LINEAR_WEIGHTS: 143 -0.008345
LINEAR_WEIGHTS: 144 0.028242
LINEAR_WEIGHTS: 145 -0.019898
LINEAR_WEIGHTS: 146 -0.015735
LINEAR_WEIGHTS: 147 0.019595
LINEAR_WEIGHTS: 148 -0.033237
LINEAR_WEIGHTS: 149 -0.030625
LINEAR_WEIGHTS: 150 0.013216
LINEAR_WEIGHTS: 151 -0.041363
LINEAR_WEIGHTS: 152 0.039593
LINEAR_WEIGHTS: 153 0.193698
LINEAR_WEIGHTS: 154 0.213174
LINEAR_WEIGHTS: 155 0.032804
LINEAR_WEIGHTS: 156 0.039057
LINEAR_WEIGHTS: 157 0.034422
LINEAR_WEIGHTS: 158 -0.007077
LINEAR_WEIGHTS: 159 -0.014204
LINEAR_WEIGHTS: 160 -0.022727
LINEAR_WEIGHTS: 161 -0.025677
LINEAR_WEIGHTS: 162 -0.030191
LINEAR_WEIGHTS: 163 -0.043424
LINEAR_WEIGHTS: 164 -0.072631
LINEAR_WEIGHTS: 165 -0.041225
LINEAR_WEIGHTS: 166 -0.033649
LINEAR_WEIGHTS: 167 -0.029810
LINEAR_WEIGHTS: 168 -0.023320
LINEAR_WEIGHTS: 169 -0.015707
LINEAR_WEIGHTS: 170 -0.010460
LINEAR_WEIGHTS: 171 0.203103
LINEAR_WEIGHTS: 172 0.732989
LINEAR_WEIGHTS: 173 0.163448
LINEAR_WEIGHTS: 174 0.302299
