svm_type nu_svr
kernel_type rbf
gamma 3.05176e-05
nr_class 2
total_sv 326
rho 0.179315
SV
-30.07320172977368 1:-0.462 2:-0.462 3:-0.861 4:-0.784 5:-0.077 6:-0.861 7:-0.784 8:0.458 9:-0.612 10:0.659 11:0.633 12:-0.784 13:-0.784 14:-0.458 15:-0.612 16:-0.612 17:-0.462 18:0.308 19:-0.612 20:-0.462 21:-0.462 22:-0.462 23:-0.462 24:-0.905 25:-0.905 26:0 27:-0.964 28:-0.905 29:0.964 30:-0.905 31:0.762 32:0.462 33:-0.905 34:-0.905 35:-0.905 36:-0.905 37:-0.762 38:-0.462 39:0.905 40:-0.905 41:-0.462 42:-0.462 43:-0.462 44:-0.964 45:0.762 46:0.987 47:-0.905 48:-0.762 49:0 50:-0.905 51:0.462 52:-0.905 53:-0.762 54:0 55:-0.462 56:0.762 57:0 58:0 59:-0.462 60:-0.762 61:-0.905 62:-0.462 63:-0.762 64:0.462 65:-0.462 66:0 67:0 68:-0.762 69:0 70:-0.462 71:-0.762 72:0 73:-0.762 74:-0.462 75:0.462 76:-0.462 77:0 78:-0.462 79:0.964 80:0.462 81:-0.762 82:-0.905 83:-0.462 84:-0.762 85:-0.762 86:-0.905 87:0.462 88:0 89:-0.905 90:0 91:0.462 92:-0.905 93:0 94:-0.905 95:-0.762 96:0.995 97:-0.762 98:0 99:0 100:0.462 101:0 102:-0.905 103:-0.964 104:-0.462 105:-0.762 106:-0.462 107:-0.462 108:-0.964 109:-0.905 110:0 111:-0.964 112:-0.905 113:0.762 114:-0.762 115:0.964 116:0.762 117:-0.905 118:-0.905 119:-0.762 120:-0.762 121:-0.762 122:-0.462 123:0.462 124:-0.762 125:-0.462 126:-0.462 127:0.964 128:0 129:-0.762 130:-0.462 131:-0.762 132:0 133:-0.762 134:-0.462 135:-0.462 136:-0.462 137:-0.462 138:-0.762 139:-0.462 140:-0.462 141:-0.462 142:0.462 143:0 144:0 145:-0.905 146:-0.462 147:-0.762 148:0 149:-0.905 150:-0.462 151:-0.762 152:-0.905 153:0.995 154:-0.762 155:-0.964 156:-0.762 157:-0.964 158:-0.905 159:0 160:-0.762 161:-0.762 162:-0.762 163:0 164:-0.762 165:-0.905 166:-0.762 167:-0.462 168:-0.905 169:0.462 170:-0.462 171:0 172:0 173:-0.762 174:0 175:-0.462 176:-0.762 177:0 178:-0.762 179:-0.462 180:0.462 181:-0.462 182:0 183:-0.462 184:0.964 185:0.462 186:-0.762 187:-0.905 188:-0.462 189:-0.762 190:-0.762 191:-0.905 192:0.462 193:0 194:-0.905 195:0 196:0.462 197:-0.905 198:0 199:-0.905 200:-0.762 201:0.995 202:-0.762 203:0 204:0 205:0.462 206:0 207:-0.905 208:-0.964 209:-0.462 210:-0.762 211:-0.762 212:-0.881 213:0.501 214:0.23 215:-0.588 216:-0.382 217:-0.154 218:-0.754 219:-0.382 220:-0.784 221:-0.707 222:0.412 223:-0.646 224:-0.151 225:-0.532 226:0.027 227:-0.358 228:-0.831 229:-0.726 230:-0.462 231:-0.556 232:0.499 233:0.044 234:-0.04 235:0.412 236:0.136 237:0.569 238:0.022 239:-0.044 240:0.581 
-128 1:-0.462 2:-0.462 3:-0.713 4:-0.683 5:-0.231 6:-0.713 7:-0.683 8:0.15 9:-0.612 10:0.251 11:0.15 12:-0.683 13:-0.683 14:-0.612 15:-0.612 16:-0.612 17:-0.462 18:0 19:-0.612 20:-0.462 21:-0.462 22:-0.762 23:-0.762 24:-0.905 25:-0.762 26:0.905 27:-0.905 28:0.762 29:-0.462 30:-0.762 31:-0.462 32:-0.462 33:-0.762 34:-0.905 35:-0.462 36:-0.762 37:-0.762 38:-0.762 39:-0.462 40:0.762 41:-0.462 42:0.998 43:-0.462 44:-0.905 45:-0.462 46:0.462 47:-0.905 48:-0.762 49:-0.462 50:-0.905 51:0.987 52:-0.762 53:-0.462 54:0 55:-0.462 56:0.462 57:0.762 58:0 59:-0.462 60:-0.762 61:-0.905 62:-0.462 63:-0.762 64:0 65:-0.905 66:-0.462 67:-0.762 68:-0.905 69:0.995 70:-0.762 71:-0.964 72:-0.762 73:-0.964 74:-0.905 75:0 76:-0.762 77:-0.762 78:-0.762 79:0 80:-0.762 81:-0.905 82:-0.762 83:-0.462 84:-0.905 85:0 86:-0.462 87:-0.905 88:-0.762 89:-0.462 90:-0.905 91:-0.905 92:0.905 93:-0.762 94:0.462 95:0.462 96:-0.905 97:-0.762 98:-0.762 99:-0.905 100:-0.762 101:0 102:0.964 103:-0.905 104:-0.462 105:-0.462 106:-0.762 107:-0.762 108:-0.905 109:-0.762 110:0.905 111:-0.905 112:0.762 113:-0.462 114:-0.762 115:-0.462 116:-0.462 117:-0.762 118:-0.905 119:-0.462 120:-0.762 121:-0.762 122:-0.762 123:-0.462 124:0.762 125:-0.462 126:0.998 127:-0.462 128:-0.964 129:0.762 130:0.987 131:-0.905 132:-0.762 133:0 134:-0.905 135:0.462 136:-0.905 137:-0.762 138:0 139:-0.462 140:0.762 141:0 142:0 143:-0.462 144:-0.762 145:-0.905 146:-0.462 147:-0.762 148:-0.462 149:-0.462 150:-0.964 151:-0.905 152:0 153:-0.964 154:-0.905 155:0.762 156:-0.762 157:0.964 158:0.762 159:-0.905 160:-0.905 161:-0.762 162:-0.762 163:-0.762 164:-0.462 165:0.462 166:-0.762 167:-0.462 168:-0.462 169:-0.462 170:-0.905 171:0 172:0.762 173:-0.905 174:-0.762 175:0 176:-0.905 177:0.462 178:-0.762 179:0 180:0 181:-0.462 182:0.987 183:0.462 184:0 185:-0.462 186:-0.762 187:-0.762 188:-0.462 189:-0.462 190:0 191:-0.462 192:-0.462 193:-0.462 194:-0.762 195:-0.762 196:-0.762 197:-0.462 198:-0.462 199:-0.462 200:-0.462 201:0 202:-0.462 203:-0.462 204:-0.462 205:0.462 206:0.987 207:0 208:-0.762 209:-0.462 210:-0.762 211:-0.462 212:-0.629 213:-0.389 214:-0.274 215:-0.302 216:-0.897 217:-0.603 218:0.206 219:-0.354 220:0.341 221:0.254 222:-0.603 223:-0.757 224:-0.254 225:-0.508 226:-0.508 227:-0.462 228:0.054 229:-0.81 230:-0.462 231:-0.562 232:1 233:0.478 234:-0.154 235:0.086 236:0.112 237:-0.084 238:0.206 239:-0.107 240:0.3 
-128 1:-0.462 2:-0.462 3:-0.462 4:-0.462 5:-0.462 6:-0.462 7:-0.462 8:-0.462 9:-0.462 10:-0.462 11:-0.462 12:-0.462 13:-0.462 14:-0.462 15:-0.462 16:-0.462 17:-0.462 18:-0.462 19:-0.462 20:-0.462 21:-0.462 22:-0.762 23:-0.762 24:-0.905 25:-0.762 26:0.905 27:-0.905 28:0.762 29:-0.462 30:-0.762 31:-0.462 32:-0.462 33:-0.762 34:-0.905 35:-0.462 36:-0.762 37:-0.762 38:-0.762 39:-0.462 40:0.762 41:-0.462 42:0.998 43:-0.462 44:-0.462 45:-0.964 46:-0.905 47:0 48:-0.964 49:-0.905 50:0.762 51:-0.762 52:0.964 53:0.762 54:-0.905 55:-0.905 56:-0.762 57:-0.762 58:-0.762 59:-0.462 60:0.462 61:-0.762 62:-0.462 63:-0.462 64:0 65:-0.905 66:-0.462 67:-0.762 68:-0.905 69:0.995 70:-0.762 71:-0.964 72:-0.762 73:-0.964 74:-0.905 75:0 76:-0.762 77:-0.762 78:-0.762 79:0 80:-0.762 81:-0.905 82:-0.762 83:-0.462 84:-0.905 85:-0.462 86:-0.462 87:-0.964 88:-0.905 89:0 90:-0.964 91:-0.905 92:0.762 93:-0.762 94:0.964 95:0.762 96:-0.905 97:-0.905 98:-0.762 99:-0.762 100:-0.762 101:-0.462 102:0.462 103:-0.762 104:-0.462 105:-0.462 106:-0.462 107:-0.462 108:-0.964 109:-0.905 110:0 111:-0.964 112:-0.905 113:0.762 114:-0.762 115:0.964 116:0.762 117:-0.905 118:-0.905 119:-0.762 120:-0.762 121:-0.762 122:-0.462 123:0.462 124:-0.762 125:-0.462 126:-0.462 127:0.462 128:-0.462 129:0 130:0 131:-0.762 132:0 133:-0.462 134:-0.762 135:0 136:-0.762 137:-0.462 138:0.462 139:-0.462 140:0 141:-0.462 142:0.964 143:0.462 144:-0.762 145:-0.905 146:-0.462 147:-0.762 148:-0.462 149:-0.905 150:0 151:0.762 152:-0.905 153:-0.762 154:0 155:-0.905 156:0.462 157:-0.762 158:0 159:0 160:-0.462 161:0.987 162:0.462 163:0 164:-0.462 165:-0.762 166:-0.762 167:-0.462 168:-0.462 169:-0.462 170:-0.905 171:-0.762 172:0 173:-0.905 174:-0.762 175:0 176:-0.905 177:0.762 178:-0.762 179:-0.462 180:0 181:-0.762 182:0.462 183:0.987 184:-0.462 185:-0.462 186:-0.905 187:-0.905 188:-0.462 189:-0.762 190:0 191:-0.462 192:-0.462 193:-0.462 194:-0.762 195:-0.762 196:-0.762 197:-0.462 198:-0.462 199:-0.462 200:-0.462 201:0 202:-0.462 203:-0.462 204:-0.462 205:0.462 206:0.987 207:0 208:-0.762 209:-0.462 210:-0.762 211:-0.562 212:-0.831 213:-0.2 214:0.103 215:-0.754 216:-0.696 217:-0.305 218:-0.594 219:0.076 220:-0.575 221:-0.456 222:0.003 223:-0.686 224:0.08 225:0.089 226:-0.358 227:-0.462 228:-0.603 229:-0.925 230:-0.462 231:-0.76 232:1 233:0.416 234:-0.154 235:0.244 236:0.136 237:0.465 238:0.12 239:-0.017 240:0.3 
128 1:-0.462 2:-0.462 3:-0.462 4:-0.462 5:-0.462 6:-0.462 7:-0.462 8:-0.462 9:-0.462 10:-0.462 11:-0.462 12:-0.462 13:-0.462 14:-0.462 15:-0.462 16:-0.462 17:-0.462 18:-0.462 19:-0.462 20:-0.462 21:-0.462 22:0 23:-0.462 24:-0.905 25:-0.762 26:-0.462 27:-0.905 28:-0.905 29:0.905 30:-0.762 31:0.462 32:0.462 33:-0.905 34:-0.762 35:-0.762 36:-0.905 37:-0.762 38:0 39:0.964 40:-0.905 41:-0.462 42:-0.462 43:0 44:-0.905 45:-0.462 46:-0.762 47:-0.905 48:0.995 49:-0.762 50:-0.964 51:-0.762 52:-0.964 53:-0.905 54:0 55:-0.762 56:-0.762 57:-0.762 58:0 59:-0.762 60:-0.905 61:-0.762 62:-0.462 63:-0.905 64:-0.462 65:-0.905 66:0 67:0.762 68:-0.905 69:-0.762 70:0 71:-0.905 72:0.462 73:-0.762 74:0 75:0 76:-0.462 77:0.987 78:0.462 79:0 80:-0.462 81:-0.762 82:-0.762 83:-0.462 84:-0.462 85:-0.462 86:-0.462 87:-0.905 88:-0.762 89:0 90:-0.905 91:-0.762 92:0.462 93:-0.462 94:0.762 95:0.987 96:-0.762 97:-0.762 98:0 99:-0.462 100:-0.462 101:-0.462 102:0.462 103:-0.462 104:-0.462 105:-0.462 106:-0.462 107:-0.462 108:-0.964 109:-0.905 110:0 111:-0.964 112:-0.905 113:0.762 114:-0.762 115:0.964 116:0.762 117:-0.905 118:-0.905 119:-0.762 120:-0.762 121:-0.762 122:-0.462 123:0.462 124:-0.762 125:-0.462 126:-0.462 127:-0.462 128:-0.462 129:-0.905 130:-0.762 131:0 132:-0.905 133:-0.762 134:0.462 135:-0.462 136:0.762 137:0.987 138:-0.762 139:-0.762 140:0 141:-0.462 142:-0.462 143:-0.462 144:0.462 145:-0.462 146:-0.462 147:-0.462 148:-0.462 149:-0.462 150:-0.964 151:-0.905 152:0 153:-0.964 154:-0.905 155:0.762 156:-0.762 157:0.964 158:0.762 159:-0.905 160:-0.905 161:-0.762 162:-0.762 163:-0.762 164:-0.462 165:0.462 166:-0.762 167:-0.462 168:-0.462 169:0 170:-0.462 171:-0.905 172:-0.762 173:-0.462 174:-0.905 175:-0.905 176:0.905 177:-0.762 178:0.462 179:0.462 180:-0.905 181:-0.762 182:-0.762 183:-0.905 184:-0.762 185:0 186:0.964 187:-0.905 188:-0.462 189:-0.462 190:-0.762 191:-0.905 192:0.462 193:0 194:-0.905 195:0 196:0.462 197:-0.905 198:0 199:-0.905 200:-0.762 201:0.995 202:-0.762 203:0 204:0 205:0.462 206:0 207:-0.905 208:-0.964 209:-0.462 210:-0.762 211:-0.612 212:-0.831 213:0.083 214:0.23 215:-0.754 216:-0.646 217:-0.382 218:-0.627 219:-0.104 220:-0.575 221:-0.48 222:0.08 223:-0.636 224:0.027 225:-0.179 226:-0.281 227:-0.462 228:-0.677 229:-0.911 230:-0.462 231:-0.784 232:0.46 233:-0.154 234:-0.107 235:0.452 236:0.136 237:0.407 238:0.206 239:0.122 240:0.581 
65.47598767246448 1:-0.562 2:-0.813 3:-0.081 4:0.041 5:-0.121 6:-0.843 7:-0.305 8:-0.326 9:-0.198 10:-0.292 11:-0.254 12:-0.452 13:-0.703 14:-0.048 15:-0.429 16:-0.381 17:-0.562 18:-0.458 19:-0.425 20:-0.462 21:-0.156 22:-0.762 23:-0.762 24:-0.905 25:-0.905 26:0.995 27:-0.905 28:-0.462 29:0 30:-0.905 31:0 32:0 33:-0.905 34:-0.964 35:-0.905 36:-0.905 37:-0.762 38:-0.762 39:-0.462 40:0.462 41:-0.462 42:0.905 43:-0.762 44:-0.905 45:0.462 46:0 47:-0.905 48:0 49:0.462 50:-0.905 51:0 52:-0.905 53:-0.762 54:0.995 55:-0.762 56:0 57:0 58:0.462 59:0 60:-0.905 61:-0.964 62:-0.462 63:-0.762 64:-0.462 65:-0.905 66:-0.762 67:0 68:-0.905 69:-0.762 70:0 71:-0.905 72:0.762 73:-0.762 74:-0.462 75:0 76:-0.762 77:0.462 78:0.987 79:-0.462 80:-0.462 81:-0.905 82:-0.905 83:-0.462 84:-0.762 85:-0.762 86:-0.905 87:0.462 88:0 89:-0.905 90:0 91:0.462 92:-0.905 93:0 94:-0.905 95:-0.762 96:0.995 97:-0.762 98:0 99:0 100:0.462 101:0 102:-0.905 103:-0.964 104:-0.462 105:-0.762 106:0.964 107:0 108:-0.762 109:-0.462 110:-0.762 111:0 112:-0.762 113:-0.462 114:-0.462 115:-0.462 116:-0.462 117:-0.762 118:-0.462 119:-0.462 120:-0.462 121:0.462 122:0 123:0 124:-0.905 125:-0.462 126:-0.762 127:-0.462 128:-0.462 129:-0.905 130:-0.905 131:0 132:-0.964 133:-0.905 134:0.964 135:-0.905 136:0.762 137:0.462 138:-0.905 139:-0.905 140:-0.905 141:-0.905 142:-0.762 143:-0.462 144:0.905 145:-0.905 146:-0.462 147:-0.462 148:-0.462 149:-0.905 150:-0.462 151:0.462 152:-0.905 153:-0.762 154:-0.462 155:-0.905 156:0.987 157:-0.762 158:-0.462 159:0 160:-0.462 161:0.462 162:0.762 163:0 164:-0.462 165:-0.762 166:-0.905 167:-0.462 168:-0.762 169:0 170:-0.462 171:-0.462 172:-0.462 173:-0.762 174:-0.762 175:-0.762 176:-0.462 177:-0.462 178:-0.462 179:-0.462 180:0 181:-0.462 182:-0.462 183:-0.462 184:0.462 185:0.987 186:0 187:-0.762 188:-0.462 189:-0.762 190:-0.462 191:-0.462 192:-0.964 193:-0.905 194:0 195:-0.964 196:-0.905 197:0.762 198:-0.762 199:0.964 200:0.762 201:-0.905 202:-0.905 203:-0.762 204:-0.762 205:-0.762 206:-0.462 207:0.462 208:-0.762 209:-0.462 210:-0.462 211:-0.562 212:-0.831 213:0.077 214:0.304 215:-0.831 216:-0.458 217:0.077 218:-0.831 219:0.154 220:-0.76 221:-0.331 222:0.255 223:-0.562 224:0.416 225:0.154 226:0.077 227:-0.308 228:-0.76 229:-0.779 230:-0.462 231:-0.562 232:0.999 233:0.539 234:-0.264 235:0.412 236:-0.386 237:0.66 238:0.157 239:0.223 240:0.437 
15.72760753782027 1:0.251 2:-0.379 3:-0.696 4:-0.228 5:-0.683 6:-0.415 7:-0.686 8:-0.406 9:-0.029 10:-0.324 11:-0.258 12:-0.532 13:-0.536 14:-0.204 15:-0.104 16:0.104 17:-0.231 18:-0.177 19:-0.881 20:-0.462 21:-0.712 22:-0.762 23:-0.762 24:-0.905 25:-0.762 26:0.905 27:-0.905 28:0.762 29:-0.462 30:-0.762 31:-0.462 32:-0.462 33:-0.762 34:-0.905 35:-0.462 36:-0.762 37:-0.762 38:-0.762 39:-0.462 40:0.762 41:-0.462 42:0.998 43:-0.762 44:-0.762 45:-0.905 46:-0.905 47:0.995 48:-0.905 49:-0.462 50:0 51:-0.905 52:0 53:0 54:-0.905 55:-0.964 56:-0.905 57:-0.905 58:-0.762 59:-0.762 60:-0.462 61:0.462 62:-0.462 63:0.905 64:0 65:-0.462 66:-0.462 67:-0.462 68:-0.762 69:-0.762 70:-0.762 71:-0.462 72:-0.462 73:-0.462 74:-0.462 75:0 76:-0.462 77:-0.462 78:-0.462 79:0.462 80:0.987 81:0 82:-0.762 83:-0.462 84:-0.762 85:0.964 86:0 87:-0.762 88:-0.462 89:-0.762 90:0 91:-0.762 92:-0.462 93:-0.462 94:-0.462 95:-0.462 96:-0.762 97:-0.462 98:-0.462 99:-0.462 100:0.462 101:0 102:0 103:-0.905 104:-0.462 105:-0.762 106:-0.462 107:-0.905 108:-0.462 109:0.462 110:-0.905 111:-0.762 112:-0.462 113:-0.905 114:0.987 115:-0.762 116:-0.462 117:0 118:-0.462 119:0.462 120:0.762 121:0 122:-0.462 123:-0.762 124:-0.905 125:-0.462 126:-0.762 127:-0.462 128:-0.462 129:-0.905 130:-0.905 131:0 132:-0.964 133:-0.905 134:0.964 135:-0.905 136:0.762 137:0.462 138:-0.905 139:-0.905 140:-0.905 141:-0.905 142:-0.762 143:-0.462 144:0.905 145:-0.905 146:-0.462 147:-0.462 148:-0.762 149:-0.905 150:0.462 151:0 152:-0.905 153:0 154:0.462 155:-0.905 156:0 157:-0.905 158:-0.762 159:0.995 160:-0.762 161:0 162:0 163:0.462 164:0 165:-0.905 166:-0.964 167:-0.462 168:-0.762 169:-0.462 170:-0.964 171:0.762 172:0.987 173:-0.905 174:-0.762 175:0 176:-0.905 177:0.462 178:-0.905 179:-0.762 180:0 181:-0.462 182:0.762 183:0 184:0 185:-0.462 186:-0.762 187:-0.905 188:-0.462 189:-0.762 190:-0.462 191:-0.462 192:-0.905 193:-0.762 194:0 195:-0.905 196:-0.762 197:0.462 198:-0.462 199:0.762 200:0.987 201:-0.762 202:-0.762 203:0 204:-0.462 205:-0.462 206:-0.462 207:0.462 208:-0.462 209:-0.462 210:-0.462 211:-0.331 212:-0.693 213:0.006 214:0.037 215:-0.683 216:-0.734 217:-0.607 218:0 219:-0.458 220:-0.241 221:-0.198 222:-0.298 223:-0.612 224:-0.254 225:-0.707 226:-0.381 227:-0.231 228:0.053 229:-0.925 230:-0.462 231:-0.66 232:1 233:0.099 234:-0.287 235:0.356 236:-0.004 237:0.66 238:0.589 239:0.025 240:0.224 
128 1:-0.458 2:-0.833 3:-0.683 4:-0.629 5:0.045 6:-0.248 7:-0.562 8:-0.472 9:-0.542 10:-0.448 11:-0.379 12:-0.453 13:-0.813 14:-0.629 15:-0.58 16:-0.381 17:-0.712 18:-0.66 19:-0.174 20:-0.462 21:0.024 22:-0.762 23:-0.762 24:-0.905 25:-0.762 26:0.905 27:-0.905 28:0.762 29:-0.462 30:-0.762 31:-0.462 32:-0.462 33:-0.762 34:-0.905 35:-0.462 36:-0.762 37:-0.762 38:-0.762 39:-0.462 40:0.762 41:-0.462 42:0.998 43:0.964 44:0 45:-0.762 46:-0.462 47:-0.762 48:0 49:-0.762 50:-0.462 51:-0.462 52:-0.462 53:-0.462 54:-0.762 55:-0.462 56:-0.462 57:-0.462 58:0.462 59:0 60:0 61:-0.905 62:-0.462 63:-0.762 64:0.462 65:-0.462 66:0 67:0 68:-0.762 69:0 70:-0.462 71:-0.762 72:0 73:-0.762 74:-0.462 75:0.462 76:-0.462 77:0 78:-0.462 79:0.964 80:0.462 81:-0.762 82:-0.905 83:-0.462 84:-0.762 85:-0.462 86:-0.905 87:-0.462 88:-0.462 89:-0.964 90:-0.762 91:-0.762 92:-0.905 93:-0.462 94:-0.905 95:-0.762 96:-0.762 97:0.998 98:-0.462 99:-0.762 100:-0.462 101:-0.462 102:-0.762 103:-0.964 104:-0.462 105:-0.905 106:0.462 107:-0.462 108:0 109:0 110:-0.762 111:0 112:-0.462 113:-0.762 114:0 115:-0.762 116:-0.462 117:0.462 118:-0.462 119:0 120:-0.462 121:0.964 122:0.462 123:-0.762 124:-0.905 125:-0.462 126:-0.762 127:0 128:-0.462 129:-0.905 130:-0.762 131:-0.462 132:-0.905 133:-0.905 134:0.905 135:-0.762 136:0.462 137:0.462 138:-0.905 139:-0.762 140:-0.762 141:-0.905 142:-0.762 143:0 144:0.964 145:-0.905 146:-0.462 147:-0.462 148:-0.462 149:-0.905 150:-0.462 151:0.462 152:-0.905 153:-0.762 154:-0.462 155:-0.905 156:0.987 157:-0.762 158:-0.462 159:0 160:-0.462 161:0.462 162:0.762 163:0 164:-0.462 165:-0.762 166:-0.905 167:-0.462 168:-0.762 169:0 170:-0.462 171:-0.462 172:-0.462 173:-0.762 174:-0.762 175:-0.762 176:-0.462 177:-0.462 178:-0.462 179:-0.462 180:0 181:-0.462 182:-0.462 183:-0.462 184:0.462 185:0.987 186:0 187:-0.762 188:-0.462 189:-0.762 190:0.462 191:-0.462 192:0 193:0 194:-0.762 195:0 196:-0.462 197:-0.762 198:0 199:-0.762 200:-0.462 201:0.462 202:-0.462 203:0 204:-0.462 205:0.964 206:0.462 207:-0.762 208:-0.905 209:-0.462 210:-0.762 211:-0.308 212:-0.462 213:-0.861 214:-0.784 215:-0.231 216:-0.861 217:-0.831 218:0.606 219:-0.712 220:0.559 221:0.458 222:-0.831 223:-0.784 224:-0.712 225:-0.76 226:-0.712 227:-0.308 228:0.475 229:-0.76 230:-0.462 231:-0.462 232:1 233:-0.115 234:-0.04 235:0.052 236:-0.04 237:0.531 238:0.157 239:0.223 240:0.417 
128 1:-0.308 2:-0.61 3:-0.797 4:-0.857 5:-0.302 6:-0.311 7:-0.857 8:0.187 9:-0.762 10:0.321 11:0.206 12:-0.603 13:-0.857 14:-0.762 15:-0.762 16:-0.508 17:-0.562 18:0.006 19:-0.762 20:-0.462 21:-0.61 22:-0.462 23:-0.462 24:-0.964 25:-0.905 26:0 27:-0.964 28:-0.905 29:0.762 30:-0.762 31:0.964 32:0.762 33:-0.905 34:-0.905 35:-0.762 36:-0.762 37:-0.762 38:-0.462 39:0.462 40:-0.762 41:-0.462 42:-0.462 43:-0.462 44:-0.462 45:-0.964 46:-0.905 47:0 48:-0.964 49:-0.905 50:0.762 51:-0.762 52:0.964 53:0.762 54:-0.905 55:-0.905 56:-0.762 57:-0.762 58:-0.762 59:-0.462 60:0.462 61:-0.762 62:-0.462 63:-0.462 64:-0.462 65:-0.905 66:-0.462 67:0.462 68:-0.905 69:-0.762 70:-0.462 71:-0.905 72:0.987 73:-0.762 74:-0.462 75:0 76:-0.462 77:0.462 78:0.762 79:0 80:-0.462 81:-0.762 82:-0.905 83:-0.462 84:-0.762 85:-0.762 86:-0.905 87:0.462 88:0 89:-0.905 90:0 91:0.462 92:-0.905 93:0 94:-0.905 95:-0.762 96:0.995 97:-0.762 98:0 99:0 100:0.462 101:0 102:-0.905 103:-0.964 104:-0.462 105:-0.762 106:-0.462 107:-0.462 108:-0.964 109:-0.905 110:0 111:-0.964 112:-0.905 113:0.762 114:-0.762 115:0.964 116:0.762 117:-0.905 118:-0.905 119:-0.762 120:-0.762 121:-0.762 122:-0.462 123:0.462 124:-0.762 125:-0.462 126:-0.462 127:0 128:-0.462 129:-0.462 130:-0.462 131:-0.762 132:-0.762 133:-0.762 134:-0.462 135:-0.462 136:-0.462 137:-0.462 138:0 139:-0.462 140:-0.462 141:-0.462 142:0.462 143:0.987 144:0 145:-0.762 146:-0.462 147:-0.762 148:0 149:-0.462 150:-0.462 151:-0.462 152:-0.762 153:-0.762 154:-0.762 155:-0.462 156:-0.462 157:-0.462 158:-0.462 159:0 160:-0.462 161:-0.462 162:-0.462 163:0.462 164:0.987 165:0 166:-0.762 167:-0.462 168:-0.762 169:0.462 170:-0.462 171:0 172:0 173:-0.762 174:0 175:-0.462 176:-0.762 177:0 178:-0.762 179:-0.462 180:0.462 181:-0.462 182:0 183:-0.462 184:0.964 185:0.462 186:-0.762 187:-0.905 188:-0.462 189:-0.762 190:0.462 191:-0.462 192:0 193:0 194:-0.762 195:0 196:-0.462 197:-0.762 198:0 199:-0.762 200:-0.462 201:0.462 202:-0.462 203:0 204:-0.462 205:0.964 206:0.462 207:-0.762 208:-0.905 209:-0.462 210:-0.762 211:-0.458 212:-0.612 213:-0.831 214:-0.712 215:0.222 216:-0.831 217:0.002 218:-0.006 219:-0.712 220:-0.154 221:-0.154 222:-0.76 223:-0.784 224:-0.562 225:-0.76 226:-0.712 227:-0.458 228:0.013 229:0.002 230:-0.462 231:0.268 232:0.538 233:0.416 234:-0.059 235:0.412 236:0.136 237:0.382 238:0.208 239:-0.044 240:0.417 
-128 1:-0.662 2:-0.905 3:0.154 4:0.154 5:-0.905 6:-0.254 7:0.154 8:-0.905 9:0.329 10:-0.857 11:-0.662 12:0.663 13:-0.662 14:0.154 15:0.254 16:0.308 17:-0.154 18:-0.857 19:-0.944 20:-0.462 21:-0.762 22:-0.762 23:-0.762 24:-0.905 25:-0.905 26:0.995 27:-0.905 28:-0.462 29:0 30:-0.905 31:0 32:0 33:-0.905 34:-0.964 35:-0.905 36:-0.905 37:-0.762 38:-0.762 39:-0.462 40:0.462 41:-0.462 42:0.905 43:-0.762 44:-0.762 45:-0.905 46:-0.905 47:0.995 48:-0.905 49:-0.462 50:0 51:-0.905 52:0 53:0 54:-0.905 55:-0.964 56:-0.905 57:-0.905 58:-0.762 59:-0.762 60:-0.462 61:0.462 62:-0.462 63:0.905 64:-0.905 65:-0.762 66:-0.964 67:-0.905 68:0.462 69:-0.762 70:-0.762 71:-0.905 72:-0.905 73:-0.762 74:-0.462 75:-0.964 76:-0.964 77:-0.762 78:-0.905 79:-0.905 80:-0.762 81:-0.905 82:1 83:-0.462 84:0.762 85:0.964 86:0 87:-0.762 88:-0.462 89:-0.762 90:0 91:-0.762 92:-0.462 93:-0.462 94:-0.462 95:-0.462 96:-0.762 97:-0.462 98:-0.462 99:-0.462 100:0.462 101:0 102:0 103:-0.905 104:-0.462 105:-0.762 106:0 107:-0.462 108:-0.905 109:-0.762 110:-0.462 111:-0.905 112:-0.905 113:0.905 114:-0.762 115:0.462 116:0.462 117:-0.905 118:-0.762 119:-0.762 120:-0.905 121:-0.762 122:0 123:0.964 124:-0.905 125:-0.462 126:-0.462 127:-0.462 128:-0.905 129:-0.462 130:0.462 131:-0.905 132:-0.762 133:-0.462 134:-0.905 135:0.987 136:-0.762 137:-0.462 138:0 139:-0.462 140:0.462 141:0.762 142:0 143:-0.462 144:-0.762 145:-0.905 146:-0.462 147:-0.762 148:-0.462 149:-0.905 150:-0.462 151:-0.462 152:-0.964 153:-0.762 154:-0.762 155:-0.905 156:-0.462 157:-0.905 158:-0.762 159:-0.762 160:0.998 161:-0.462 162:-0.762 163:-0.462 164:-0.462 165:-0.762 166:-0.964 167:-0.462 168:-0.905 169:-0.462 170:-0.905 171:-0.462 172:0.462 173:-0.905 174:-0.762 175:-0.462 176:-0.905 177:0.987 178:-0.762 179:-0.462 180:0 181:-0.462 182:0.462 183:0.762 184:0 185:-0.462 186:-0.762 187:-0.905 188:-0.462 189:-0.762 190:0.964 191:0 192:-0.762 193:-0.462 194:-0.762 195:0 196:-0.762 197:-0.462 198:-0.462 199:-0.462 200:-0.462 201:-0.762 202:-0.462 203:-0.462 204:-0.462 205:0.462 206:0 207:0 208:-0.905 209:-0.462 210:-0.762 211:-0.231 212:-0.683 213:-0.707 214:-0.254 215:-0.683 216:-0.834 217:-0.453 218:0 219:-0.05 220:-0.15 221:0.077 222:-0.453 223:-0.712 224:-0.062 225:-0.047 226:-0.535 227:-0.231 228:0.053 229:-0.881 230:-0.462 231:-0.562 232:0.999 233:0.099 234:0.215 235:0.356 236:-0.27 237:0.353 238:-0.215 239:0.231 240:0.385 
-128 1:0.013 2:-0.308 3:-0.784 4:-0.612 5:-0.331 6:-0.529 7:-0.712 8:0 9:-0.462 10:0.15 11:0.263 12:-0.712 13:-0.612 14:-0.231 15:-0.462 16:-0.154 17:-0.308 18:0.154 19:-0.61 20:-0.462 21:-0.562 22:-0.762 23:-0.762 24:-0.905 25:-0.905 26:0.995 27:-0.905 28:-0.462 29:0 30:-0.905 31:0 32:0 33:-0.905 34:-0.964 35:-0.905 36:-0.905 37:-0.762 38:-0.762 39:-0.462 40:0.462 41:-0.462 42:0.905 43:0 44:-0.462 45:-0.905 46:-0.762 47:-0.462 48:-0.905 49:-0.905 50:0.905 51:-0.762 52:0.462 53:0.462 54:-0.905 55:-0.762 56:-0.762 57:-0.905 58:-0.762 59:0 60:0.964 61:-0.905 62:-0.462 63:-0.462 64:-0.462 65:-0.964 66:0.762 67:0.987 68:-0.905 69:-0.762 70:0 71:-0.905 72:0.462 73:-0.905 74:-0.762 75:0 76:-0.462 77:0.762 78:0 79:0 80:-0.462 81:-0.762 82:-0.905 83:-0.462 84:-0.762 85:-0.762 86:-0.905 87:0.995 88:0.762 89:-0.905 90:-0.462 91:-0.462 92:-0.905 93:-0.462 94:-0.964 95:-0.905 96:0.462 97:-0.462 98:0 99:-0.762 100:0 101:-0.462 102:-0.905 103:-0.964 104:-0.462 105:-0.905 106:-0.462 107:-0.462 108:-0.905 109:-0.905 110:0 111:-0.964 112:-0.905 113:0.964 114:-0.905 115:0.762 116:0.462 117:-0.905 118:-0.905 119:-0.905 120:-0.905 121:-0.762 122:-0.462 123:0.905 124:-0.905 125:-0.462 126:-0.462 127:0.964 128:0 129:-0.762 130:-0.462 131:-0.762 132:0 133:-0.762 134:-0.462 135:-0.462 136:-0.462 137:-0.462 138:-0.762 139:-0.462 140:-0.462 141:-0.462 142:0.462 143:0 144:0 145:-0.905 146:-0.462 147:-0.762 148:-0.462 149:-0.462 150:-0.905 151:-0.762 152:0 153:-0.905 154:-0.762 155:0.462 156:-0.462 157:0.762 158:0.987 159:-0.762 160:-0.762 161:0 162:-0.462 163:-0.462 164:-0.462 165:0.462 166:-0.462 167:-0.462 168:-0.462 169:0 170:-0.905 171:-0.462 172:-0.762 173:-0.905 174:0.995 175:-0.762 176:-0.964 177:-0.762 178:-0.964 179:-0.905 180:0 181:-0.762 182:-0.762 183:-0.762 184:0 185:-0.762 186:-0.905 187:-0.762 188:-0.462 189:-0.905 190:-0.762 191:-0.762 192:-0.905 193:-0.762 194:0.905 195:-0.905 196:0.762 197:-0.462 198:-0.762 199:-0.462 200:-0.462 201:-0.762 202:-0.905 203:-0.462 204:-0.762 205:-0.762 206:-0.762 207:-0.462 208:0.762 209:-0.462 210:0.998 211:0.077 212:-0.462 213:-0.754 214:-0.635 215:-0.512 216:-0.754 217:-0.831 218:0.627 219:-0.635 220:0.258 221:0.308 222:-0.677 223:-0.712 224:-0.635 225:-0.831 226:-0.474 227:0.077 228:0.676 229:-0.905 230:-0.462 231:-0.512 232:0.999 233:0.439 234:-0.284 235:0.032 236:0.18 237:0.569 238:0.296 239:-0.268 240:0.07 
-20.74369139560602 1:-0.635 2:-0.516 3:-0.757 4:-0.613 5:0.216 6:-0.857 7:-0.049 8:-0.379 9:-0.757 10:-0.379 11:-0.331 12:-0.449 13:-0.887 14:-0.603 15:-0.603 16:-0.612 17:-0.712 18:-0.61 19:-0.15 20:-0.462 21:0.58 22:-0.462 23:-0.462 24:-0.905 25:-0.905 26:0 27:-0.964 28:-0.905 29:0.964 30:-0.905 31:0.762 32:0.462 33:-0.905 34:-0.905 35:-0.905 36:-0.905 37:-0.762 38:-0.462 39:0.905 40:-0.905 41:-0.462 42:-0.462 43:0 44:-0.462 45:-0.462 46:-0.462 47:-0.762 48:-0.762 49:-0.762 50:-0.462 51:-0.462 52:-0.462 53:-0.462 54:0 55:-0.462 56:-0.462 57:-0.462 58:0.462 59:0.987 60:0 61:-0.762 62:-0.462 63:-0.762 64:-0.462 65:-0.905 66:-0.462 67:0.462 68:-0.905 69:-0.762 70:-0.462 71:-0.905 72:0.987 73:-0.762 74:-0.462 75:0 76:-0.462 77:0.462 78:0.762 79:0 80:-0.462 81:-0.762 82:-0.905 83:-0.462 84:-0.762 85:-0.462 86:-0.964 87:0.762 88:0.987 89:-0.905 90:-0.762 91:0 92:-0.905 93:0.462 94:-0.905 95:-0.762 96:0 97:-0.462 98:0.762 99:0 100:0 101:-0.462 102:-0.762 103:-0.905 104:-0.462 105:-0.762 106:0 107:-0.462 108:-0.462 109:-0.462 110:-0.762 111:-0.762 112:-0.762 113:-0.462 114:-0.462 115:-0.462 116:-0.462 117:0 118:-0.462 119:-0.462 120:-0.462 121:0.462 122:0.987 123:0 124:-0.762 125:-0.462 126:-0.762 127:-0.462 128:-0.905 129:-0.462 130:-0.462 131:-0.964 132:-0.762 133:-0.762 134:-0.905 135:-0.462 136:-0.905 137:-0.762 138:-0.762 139:0.998 140:-0.462 141:-0.762 142:-0.462 143:-0.462 144:-0.762 145:-0.964 146:-0.462 147:-0.905 148:-0.762 149:-0.905 150:0.995 151:0.762 152:-0.905 153:-0.462 154:-0.462 155:-0.905 156:-0.462 157:-0.964 158:-0.905 159:0.462 160:-0.462 161:0 162:-0.762 163:0 164:-0.462 165:-0.905 166:-0.964 167:-0.462 168:-0.905 169:-0.462 170:-0.905 171:-0.762 172:0 173:-0.905 174:-0.762 175:0 176:-0.905 177:0.762 178:-0.762 179:-0.462 180:0 181:-0.762 182:0.462 183:0.987 184:-0.462 185:-0.462 186:-0.905 187:-0.905 188:-0.462 189:-0.762 190:-0.462 191:-0.462 192:-0.964 193:-0.905 194:0 195:-0.964 196:-0.905 197:0.762 198:-0.762 199:0.964 200:0.762 201:-0.905 202:-0.905 203:-0.762 204:-0.762 205:-0.762 206:-0.462 207:0.462 208:-0.762 209:-0.462 210:-0.462 211:-0.331 212:-0.683 213:0.101 214:0.15 215:-0.833 216:-0.662 217:-0.535 218:-0.683 219:-0.308 220:-0.679 221:-0.533 222:0.154 223:-0.462 224:-0.067 225:-0.408 226:0.231 227:0.263 228:-0.429 229:-0.829 230:-0.462 231:-0.76 232:0.499 233:0.263 234:-0.059 235:0.025 236:0.063 237:0.595 238:-0.062 239:-0.017 240:0.437 
-128 1:-0.462 2:-0.462 3:-0.713 4:-0.683 5:-0.231 6:-0.713 7:-0.683 8:0.15 9:-0.612 10:0.251 11:0.15 12:-0.683 13:-0.683 14:-0.612 15:-0.612 16:-0.612 17:-0.462 18:0 19:-0.612 20:-0.462 21:-0.462 22:-0.762 23:-0.762 24:-0.905 25:-0.905 26:0.995 27:-0.905 28:-0.462 29:0 30:-0.905 31:0 32:0 33:-0.905 34:-0.964 35:-0.905 36:-0.905 37:-0.762 38:-0.762 39:-0.462 40:0.462 41:-0.462 42:0.905 43:-0.462 44:-0.905 45:-0.462 46:0.462 47:-0.905 48:-0.762 49:-0.462 50:-0.905 51:0.987 52:-0.762 53:-0.462 54:0 55:-0.462 56:0.462 57:0.762 58:0 59:-0.462 60:-0.762 61:-0.905 62:-0.462 63:-0.762 64:-0.462 65:-0.964 66:0.762 67:0.987 68:-0.905 69:-0.762 70:0 71:-0.905 72:0.462 73:-0.905 74:-0.762 75:0 76:-0.462 77:0.762 78:0 79:0 80:-0.462 81:-0.762 82:-0.905 83:-0.462 84:-0.762 85:-0.462 86:-0.905 87:-0.462 88:0.462 89:-0.905 90:-0.762 91:-0.462 92:-0.905 93:0.987 94:-0.762 95:-0.462 96:0 97:-0.462 98:0.462 99:0.762 100:0 101:-0.462 102:-0.762 103:-0.905 104:-0.462 105:-0.762 106:-0.462 107:-0.964 108:0.762 109:0.987 110:-0.905 111:-0.762 112:0 113:-0.905 114:0.462 115:-0.905 116:-0.762 117:0 118:-0.462 119:0.762 120:0 121:0 122:-0.462 123:-0.762 124:-0.905 125:-0.462 126:-0.762 127:0 128:-0.462 129:-0.905 130:-0.762 131:-0.462 132:-0.905 133:-0.905 134:0.905 135:-0.762 136:0.462 137:0.462 138:-0.905 139:-0.762 140:-0.762 141:-0.905 142:-0.762 143:0 144:0.964 145:-0.905 146:-0.462 147:-0.462 148:-0.462 149:-0.905 150:-0.462 151:0.462 152:-0.905 153:-0.762 154:-0.462 155:-0.905 156:0.987 157:-0.762 158:-0.462 159:0 160:-0.462 161:0.462 162:0.762 163:0 164:-0.462 165:-0.762 166:-0.905 167:-0.462 168:-0.762 169:-0.462 170:-0.905 171:-0.462 172:0.462 173:-0.905 174:-0.762 175:-0.462 176:-0.905 177:0.987 178:-0.762 179:-0.462 180:0 181:-0.462 182:0.462 183:0.762 184:0 185:-0.462 186:-0.762 187:-0.905 188:-0.462 189:-0.762 190:-0.462 191:-0.964 192:0.762 193:0.987 194:-0.905 195:-0.762 196:0 197:-0.905 198:0.462 199:-0.905 200:-0.762 201:0 202:-0.462 203:0.762 204:0 205:0 206:-0.462 207:-0.762 208:-0.905 209:-0.462 210:-0.762 211:-0.512 212:-0.683 213:-0.441 214:-0.171 215:-0.452 216:-0.813 217:-0.683 218:0.03 219:-0.201 220:-0.034 221:-0.074 222:-0.376 223:-0.683 224:-0.298 225:-0.326 226:-0.381 227:-0.462 228:0.048 229:-0.915 230:-0.462 231:-0.636 232:0.999 233:0.478 234:-0.284 235:0.044 236:-0.204 237:0.531 238:0.157 239:0.231 240:-0.139 
-128 1:-0.462 2:-0.683 3:-0.462 4:0 5:-0.683 6:-0.612 7:-0.462 8:-0.683 9:0.263 10:-0.612 11:-0.462 12:-0.231 13:-0.462 14:0 15:0.15 16:-0.231 17:-0.462 18:-0.612 19:-0.683 20:-0.462 21:-0.612 22:-0.762 23:-0.762 24:-0.905 25:-0.762 26:0.905 27:-0.905 28:0.762 29:-0.462 30:-0.762 31:-0.462 32:-0.462 33:-0.762 34:-0.905 35:-0.462 36:-0.762 37:-0.762 38:-0.762 39:-0.462 40:0.762 41:-0.462 42:0.998 43:-0.462 44:-0.462 45:-0.964 46:-0.905 47:0 48:-0.964 49:-0.905 50:0.762 51:-0.762 52:0.964 53:0.762 54:-0.905 55:-0.905 56:-0.762 57:-0.762 58:-0.762 59:-0.462 60:0.462 61:-0.762 62:-0.462 63:-0.462 64:-0.462 65:-0.964 66:0.762 67:0.987 68:-0.905 69:-0.762 70:0 71:-0.905 72:0.462 73:-0.905 74:-0.762 75:0 76:-0.462 77:0.762 78:0 79:0 80:-0.462 81:-0.762 82:-0.905 83:-0.462 84:-0.762 85:-0.762 86:-0.762 87:-0.905 88:-0.905 89:0.995 90:-0.905 91:-0.462 92:0 93:-0.905 94:0 95:0 96:-0.905 97:-0.964 98:-0.905 99:-0.905 100:-0.762 101:-0.762 102:-0.462 103:0.462 104:-0.462 105:0.905 106:-0.462 107:-0.462 108:-0.905 109:-0.905 110:0 111:-0.964 112:-0.905 113:0.964 114:-0.905 115:0.762 116:0.462 117:-0.905 118:-0.905 119:-0.905 120:-0.905 121:-0.762 122:-0.462 123:0.905 124:-0.905 125:-0.462 126:-0.462 127:0.462 128:-0.462 129:0 130:0 131:-0.762 132:0 133:-0.462 134:-0.762 135:0 136:-0.762 137:-0.462 138:0.462 139:-0.462 140:0 141:-0.462 142:0.964 143:0.462 144:-0.762 145:-0.905 146:-0.462 147:-0.762 148:-0.462 149:-0.964 150:0.762 151:0.987 152:-0.905 153:-0.762 154:0 155:-0.905 156:0.462 157:-0.905 158:-0.762 159:0 160:-0.462 161:0.762 162:0 163:0 164:-0.462 165:-0.762 166:-0.905 167:-0.462 168:-0.762 169:0.964 170:0 171:-0.762 172:-0.462 173:-0.762 174:0 175:-0.762 176:-0.462 177:-0.462 178:-0.462 179:-0.462 180:-0.762 181:-0.462 182:-0.462 183:-0.462 184:0.462 185:0 186:0 187:-0.905 188:-0.462 189:-0.762 190:-0.462 191:-0.462 192:-0.905 193:-0.905 194:0 195:-0.964 196:-0.905 197:0.964 198:-0.905 199:0.762 200:0.462 201:-0.905 202:-0.905 203:-0.905 204:-0.905 205:-0.762 206:-0.462 207:0.905 208:-0.905 209:-0.462 210:-0.462 211:-0.485 212:-0.61 213:-0.757 214:-0.58 215:-0.231 216:-0.887 217:-0.27 218:0.331 219:-0.734 220:0.156 221:0.054 222:-0.449 223:-0.834 224:-0.58 225:-0.603 226:-0.662 227:-0.485 228:0.311 229:-0.857 230:-0.462 231:-0.054 232:1 233:0.416 234:-0.284 235:0.127 236:0.18 237:0.465 238:-0.204 239:0.109 240:0.616 
-116.617916224061 1:-0.512 2:-0.536 3:-0.637 4:-0.627 5:-0.151 6:-0.88 7:-0.831 8:0.484 9:-0.712 10:0.643 11:0.484 12:-0.677 13:-0.831 14:-0.635 15:-0.762 16:-0.635 17:-0.462 18:0.234 19:-0.796 20:-0.462 21:-0.536 22:-0.462 23:-0.462 24:-0.905 25:-0.905 26:0 27:-0.964 28:-0.905 29:0.964 30:-0.905 31:0.762 32:0.462 33:-0.905 34:-0.905 35:-0.905 36:-0.905 37:-0.762 38:-0.462 39:0.905 40:-0.905 41:-0.462 42:-0.462 43:-0.462 44:-0.964 45:0.762 46:0.987 47:-0.905 48:-0.762 49:0 50:-0.905 51:0.462 52:-0.905 53:-0.762 54:0 55:-0.462 56:0.762 57:0 58:0 59:-0.462 60:-0.762 61:-0.905 62:-0.462 63:-0.762 64:0.964 65:0 66:-0.762 67:-0.462 68:-0.762 69:0 70:-0.762 71:-0.462 72:-0.462 73:-0.462 74:-0.462 75:-0.762 76:-0.462 77:-0.462 78:-0.462 79:0.462 80:0 81:0 82:-0.905 83:-0.462 84:-0.762 85:-0.462 86:-0.462 87:-0.964 88:-0.905 89:0 90:-0.964 91:-0.905 92:0.762 93:-0.762 94:0.964 95:0.762 96:-0.905 97:-0.905 98:-0.762 99:-0.762 100:-0.762 101:-0.462 102:0.462 103:-0.762 104:-0.462 105:-0.462 106:0.462 107:-0.462 108:0 109:0 110:-0.762 111:0 112:-0.462 113:-0.762 114:0 115:-0.762 116:-0.462 117:0.462 118:-0.462 119:0 120:-0.462 121:0.964 122:0.462 123:-0.762 124:-0.905 125:-0.462 126:-0.762 127:0.964 128:0 129:-0.762 130:-0.462 131:-0.762 132:0 133:-0.762 134:-0.462 135:-0.462 136:-0.462 137:-0.462 138:-0.762 139:-0.462 140:-0.462 141:-0.462 142:0.462 143:0 144:0 145:-0.905 146:-0.462 147:-0.762 148:-0.462 149:-0.462 150:-0.905 151:-0.762 152:0 153:-0.905 154:-0.762 155:0.462 156:-0.462 157:0.762 158:0.987 159:-0.762 160:-0.762 161:0 162:-0.462 163:-0.462 164:-0.462 165:0.462 166:-0.462 167:-0.462 168:-0.462 169:-0.462 170:-0.462 171:-0.905 172:-0.762 173:0 174:-0.905 175:-0.762 176:0.462 177:-0.462 178:0.762 179:0.987 180:-0.762 181:-0.762 182:0 183:-0.462 184:-0.462 185:-0.462 186:0.462 187:-0.462 188:-0.462 189:-0.462 190:-0.462 191:-0.462 192:-0.964 193:-0.905 194:0 195:-0.964 196:-0.905 197:0.762 198:-0.762 199:0.964 200:0.762 201:-0.905 202:-0.905 203:-0.762 204:-0.762 205:-0.762 206:-0.462 207:0.462 208:-0.762 209:-0.462 210:-0.462 211:-0.612 212:-0.831 213:0.083 214:0.23 215:-0.754 216:-0.646 217:-0.382 218:-0.627 219:-0.104 220:-0.575 221:-0.48 222:0.08 223:-0.636 224:0.027 225:-0.179 226:-0.281 227:-0.462 228:-0.677 229:-0.911 230:-0.462 231:-0.784 232:0.499 233:0.044 234:-0.064 235:0.244 236:-0.04 237:0.569 238:0.296 239:0.296 240:0.437 
-128 1:-0.358 2:-0.905 3:-0.219 4:0.104 5:-0.905 6:-0.126 7:-0.562 8:-0.925 9:0.162 10:-0.863 11:-0.683 12:0.077 13:-0.562 14:-0.023 15:0 16:0 17:-0.562 18:-0.833 19:-0.867 20:-0.462 21:-0.833 22:-0.462 23:-0.462 24:-0.964 25:-0.905 26:0 27:-0.964 28:-0.905 29:0.762 30:-0.762 31:0.964 32:0.762 33:-0.905 34:-0.905 35:-0.762 36:-0.762 37:-0.762 38:-0.462 39:0.462 40:-0.762 41:-0.462 42:-0.462 43:0 44:1 45:-0.905 46:-0.964 47:-0.762 48:-0.905 49:-0.905 50:-0.462 51:-0.905 52:-0.462 53:-0.462 54:-0.905 55:-0.905 56:-0.905 57:-0.905 58:-0.462 59:-0.462 60:-0.462 61:-0.762 62:-0.462 63:-0.762 64:-0.462 65:-0.462 66:-0.964 67:-0.905 68:0 69:-0.964 70:-0.905 71:0.762 72:-0.762 73:0.964 74:0.762 75:-0.905 76:-0.905 77:-0.762 78:-0.762 79:-0.762 80:-0.462 81:0.462 82:-0.762 83:-0.462 84:-0.462 85:-0.462 86:-0.462 87:-0.905 88:-0.762 89:0 90:-0.905 91:-0.762 92:0.462 93:-0.462 94:0.762 95:0.987 96:-0.762 97:-0.762 98:0 99:-0.462 100:-0.462 101:-0.462 102:0.462 103:-0.462 104:-0.462 105:-0.462 106:-0.462 107:-0.905 108:-0.462 109:0.462 110:-0.905 111:-0.762 112:-0.462 113:-0.905 114:0.987 115:-0.762 116:-0.462 117:0 118:-0.462 119:0.462 120:0.762 121:0 122:-0.462 123:-0.762 124:-0.905 125:-0.462 126:-0.762 127:0.964 128:0 129:-0.762 130:-0.462 131:-0.762 132:0 133:-0.762 134:-0.462 135:-0.462 136:-0.462 137:-0.462 138:-0.762 139:-0.462 140:-0.462 141:-0.462 142:0.462 143:0 144:0 145:-0.905 146:-0.462 147:-0.762 148:-0.462 149:-0.905 150:0 151:0.762 152:-0.905 153:-0.762 154:0 155:-0.905 156:0.462 157:-0.762 158:0 159:0 160:-0.462 161:0.987 162:0.462 163:0 164:-0.462 165:-0.762 166:-0.762 167:-0.462 168:-0.462 169:-0.462 170:-0.905 171:-0.462 172:-0.462 173:-0.964 174:-0.762 175:-0.762 176:-0.905 177:-0.462 178:-0.905 179:-0.762 180:-0.762 181:0.998 182:-0.462 183:-0.762 184:-0.462 185:-0.462 186:-0.762 187:-0.964 188:-0.462 189:-0.905 190:0 191:-0.462 192:-0.462 193:-0.462 194:-0.762 195:-0.762 196:-0.762 197:-0.462 198:-0.462 199:-0.462 200:-0.462 201:0 202:-0.462 203:-0.462 204:-0.462 205:0.462 206:0.987 207:0 208:-0.762 209:-0.462 210:-0.762 211:-0.462 212:-0.462 213:-0.462 214:-0.462 215:-0.462 216:-0.462 217:-0.462 218:-0.462 219:-0.462 220:-0.462 221:-0.462 222:-0.462 223:-0.462 224:-0.462 225:-0.462 226:-0.462 227:-0.462 228:-0.462 229:-0.462 230:-0.462 231:-0.462 232:0.538 233:0.011 234:-0.084 235:0.452 236:-0.004 237:0.569 238:0.12 239:0.12 240:0.3 
-102.218685815187 1:0.013 2:-0.308 3:-0.857 4:-0.757 5:-0.254 6:-0.643 7:-0.857 8:0.489 9:-0.757 10:0.354 11:0.154 12:-0.857 13:-0.757 14:-0.757 15:-0.757 16:-0.354 17:-0.308 18:0.603 19:-0.905 20:-0.462 21:-0.562 22:-0.762 23:-0.762 24:-0.905 25:-0.905 26:0.995 27:-0.905 28:-0.462 29:0 30:-0.905 31:0 32:0 33:-0.905 34:-0.964 35:-0.905 36:-0.905 37:-0.762 38:-0.762 39:-0.462 40:0.462 41:-0.462 42:0.905 43:-0.462 44:-0.905 45:0 46:0.762 47:-0.905 48:-0.762 49:0 50:-0.905 51:0.462 52:-0.762 53:0 54:0 55:-0.462 56:0.987 57:0.462 58:0 59:-0.462 60:-0.762 61:-0.762 62:-0.462 63:-0.462 64:-0.462 65:-0.905 66:-0.462 67:-0.462 68:-0.964 69:-0.762 70:-0.762 71:-0.905 72:-0.462 73:-0.905 74:-0.762 75:-0.762 76:0.998 77:-0.462 78:-0.762 79:-0.462 80:-0.462 81:-0.762 82:-0.964 83:-0.462 84:-0.905 85:-0.462 86:-0.905 87:0 88:0.762 89:-0.905 90:-0.762 91:0 92:-0.905 93:0.462 94:-0.762 95:0 96:0 97:-0.462 98:0.987 99:0.462 100:0 101:-0.462 102:-0.762 103:-0.762 104:-0.462 105:-0.462 106:-0.762 107:-0.905 108:0.462 109:0 110:-0.905 111:0 112:0.462 113:-0.905 114:0 115:-0.905 116:-0.762 117:0.995 118:-0.762 119:0 120:0 121:0.462 122:0 123:-0.905 124:-0.964 125:-0.462 126:-0.762 127:0 128:-0.905 129:-0.462 130:-0.762 131:-0.905 132:0.995 133:-0.762 134:-0.964 135:-0.762 136:-0.964 137:-0.905 138:0 139:-0.762 140:-0.762 141:-0.762 142:0 143:-0.762 144:-0.905 145:-0.762 146:-0.462 147:-0.905 148:-0.462 149:-0.905 150:0 151:0.762 152:-0.905 153:-0.762 154:0 155:-0.905 156:0.462 157:-0.762 158:0 159:0 160:-0.462 161:0.987 162:0.462 163:0 164:-0.462 165:-0.762 166:-0.762 167:-0.462 168:-0.462 169:-0.762 170:-0.762 171:-0.905 172:-0.905 173:0.995 174:-0.905 175:-0.462 176:0 177:-0.905 178:0 179:0 180:-0.905 181:-0.964 182:-0.905 183:-0.905 184:-0.762 185:-0.762 186:-0.462 187:0.462 188:-0.462 189:0.905 190:-0.462 191:-0.462 192:-0.905 193:-0.905 194:0 195:-0.964 196:-0.905 197:0.964 198:-0.905 199:0.762 200:0.462 201:-0.905 202:-0.905 203:-0.905 204:-0.905 205:-0.762 206:-0.462 207:0.905 208:-0.905 209:-0.462 210:-0.462 211:-0.612 212:-0.683 213:-0.462 214:-0.231 215:-0.462 216:-0.612 217:0.269 218:-0.683 219:-0.462 220:-0.683 221:-0.612 222:0 223:-0.612 224:-0.231 225:-0.231 226:-0.462 227:-0.612 228:-0.683 229:-0.612 230:-0.462 231:0.15 232:0.999 233:0.16 234:-0.257 235:-0.004 236:0.078 237:0.139 238:0.12 239:0.127 240:0.616 
-128 1:-0.231 2:-0.61 3:-0.536 4:-0.536 5:-0.702 6:-0.796 7:-0.786 8:-0.372 9:-0.536 10:-0.406 11:-0.408 12:-0.405 13:-0.049 14:-0.536 15:-0.636 16:-0.05 17:0.263 18:-0.103 19:-0.853 20:-0.462 21:-0.76 22:-0.762 23:-0.762 24:-0.905 25:-0.905 26:0.995 27:-0.905 28:-0.462 29:0 30:-0.905 31:0 32:0 33:-0.905 34:-0.964 35:-0.905 36:-0.905 37:-0.762 38:-0.762 39:-0.462 40:0.462 41:-0.462 42:0.905 43:-0.462 44:-0.462 45:-0.964 46:-0.905 47:0 48:-0.964 49:-0.905 50:0.762 51:-0.762 52:0.964 53:0.762 54:-0.905 55:-0.905 56:-0.762 57:-0.762 58:-0.762 59:-0.462 60:0.462 61:-0.762 62:-0.462 63:-0.462 64:-0.462 65:-0.905 66:0 67:0.762 68:-0.905 69:-0.762 70:0 71:-0.905 72:0.462 73:-0.762 74:0 75:0 76:-0.462 77:0.987 78:0.462 79:0 80:-0.462 81:-0.762 82:-0.762 83:-0.462 84:-0.462 85:-0.462 86:-0.964 87:0.762 88:0.987 89:-0.905 90:-0.762 91:0 92:-0.905 93:0.462 94:-0.905 95:-0.762 96:0 97:-0.462 98:0.762 99:0 100:0 101:-0.462 102:-0.762 103:-0.905 104:-0.462 105:-0.762 106:0.964 107:0 108:-0.762 109:-0.462 110:-0.762 111:0 112:-0.762 113:-0.462 114:-0.462 115:-0.462 116:-0.462 117:-0.762 118:-0.462 119:-0.462 120:-0.462 121:0.462 122:0 123:0 124:-0.905 125:-0.462 126:-0.762 127:-0.462 128:-0.462 129:-0.964 130:-0.905 131:0 132:-0.964 133:-0.905 134:0.762 135:-0.762 136:0.964 137:0.762 138:-0.905 139:-0.905 140:-0.762 141:-0.762 142:-0.762 143:-0.462 144:0.462 145:-0.762 146:-0.462 147:-0.462 148:-0.762 149:-0.905 150:0.462 151:0 152:-0.905 153:0 154:0.462 155:-0.905 156:0 157:-0.905 158:-0.762 159:0.995 160:-0.762 161:0 162:0 163:0.462 164:0 165:-0.905 166:-0.964 167:-0.462 168:-0.762 169:-0.462 170:-0.462 171:-0.905 172:-0.905 173:0 174:-0.964 175:-0.905 176:0.964 177:-0.905 178:0.762 179:0.462 180:-0.905 181:-0.905 182:-0.905 183:-0.905 184:-0.762 185:-0.462 186:0.905 187:-0.905 188:-0.462 189:-0.462 190:0.964 191:0 192:-0.762 193:-0.462 194:-0.762 195:0 196:-0.762 197:-0.462 198:-0.462 199:-0.462 200:-0.462 201:-0.762 202:-0.462 203:-0.462 204:-0.462 205:0.462 206:0 207:0 208:-0.905 209:-0.462 210:-0.762 211:-0.07 212:-0.385 213:-0.911 214:-0.784 215:-0.281 216:-0.784 217:-0.881 218:0.606 219:-0.712 220:0.559 221:0.458 222:-0.881 223:-0.784 224:-0.712 225:-0.76 226:-0.558 227:-0.231 228:0.552 229:-0.833 230:-0.462 231:-0.512 232:0.999 233:0.416 234:-0.107 235:0.025 236:-0.386 237:0.181 238:0.589 239:0.325 240:0.385 
-128 1:-0.462 2:-0.767 3:-0.575 4:-0.137 5:-0.603 6:-0.829 7:-0.302 8:-0.349 9:0.204 10:-0.211 11:-0.104 12:-0.302 13:-0.76 14:0.104 15:0.239 16:-0.485 17:-0.462 18:-0.425 19:-0.857 20:-0.462 21:-0.662 22:-0.905 23:-0.762 24:-0.964 25:-0.905 26:0.462 27:-0.762 28:-0.762 29:-0.905 30:-0.905 31:-0.762 32:-0.462 33:-0.964 34:-0.964 35:-0.762 36:-0.905 37:-0.905 38:-0.762 39:-0.905 40:1 41:-0.462 42:0.762 43:-0.462 44:-0.905 45:-0.462 46:0.462 47:-0.905 48:-0.762 49:-0.462 50:-0.905 51:0.987 52:-0.762 53:-0.462 54:0 55:-0.462 56:0.462 57:0.762 58:0 59:-0.462 60:-0.762 61:-0.905 62:-0.462 63:-0.762 64:0.462 65:-0.462 66:0 67:0 68:-0.762 69:0 70:-0.462 71:-0.762 72:0 73:-0.762 74:-0.462 75:0.462 76:-0.462 77:0 78:-0.462 79:0.964 80:0.462 81:-0.762 82:-0.905 83:-0.462 84:-0.762 85:-0.462 86:-0.905 87:-0.762 88:0 89:-0.905 90:-0.762 91:0 92:-0.905 93:0.762 94:-0.762 95:-0.462 96:0 97:-0.762 98:0.462 99:0.987 100:-0.462 101:-0.462 102:-0.905 103:-0.905 104:-0.462 105:-0.762 106:-0.762 107:-0.905 108:-0.462 109:0 110:-0.462 111:-0.762 112:0.999 113:-0.905 114:-0.462 115:-0.905 116:-0.762 117:0.462 118:-0.762 119:0 120:0 121:-0.462 122:-0.762 123:-0.905 124:-0.762 125:-0.462 126:0.762 127:-0.462 128:-0.462 129:-0.905 130:-0.905 131:0 132:-0.964 133:-0.905 134:0.964 135:-0.905 136:0.762 137:0.462 138:-0.905 139:-0.905 140:-0.905 141:-0.905 142:-0.762 143:-0.462 144:0.905 145:-0.905 146:-0.462 147:-0.462 148:-0.462 149:-0.905 150:-0.462 151:0.462 152:-0.905 153:-0.762 154:-0.462 155:-0.905 156:0.987 157:-0.762 158:-0.462 159:0 160:-0.462 161:0.462 162:0.762 163:0 164:-0.462 165:-0.762 166:-0.905 167:-0.462 168:-0.762 169:-0.462 170:-0.964 171:0.762 172:0.987 173:-0.905 174:-0.762 175:0 176:-0.905 177:0.462 178:-0.905 179:-0.762 180:0 181:-0.462 182:0.762 183:0 184:0 185:-0.462 186:-0.762 187:-0.905 188:-0.462 189:-0.762 190:-0.462 191:-0.905 192:-0.762 193:0 194:-0.905 195:-0.762 196:0 197:-0.905 198:0.762 199:-0.762 200:-0.462 201:0 202:-0.762 203:0.462 204:0.987 205:-0.462 206:-0.462 207:-0.905 208:-0.905 209:-0.462 210:-0.762 211:-0.462 212:-0.462 213:-0.462 214:-0.462 215:-0.462 216:-0.462 217:-0.462 218:-0.462 219:-0.462 220:-0.462 221:-0.462 222:-0.462 223:-0.462 224:-0.462 225:-0.462 226:-0.462 227:-0.462 228:-0.462 229:-0.462 230:-0.462 231:-0.462 232:0.71 233:0.478 234:-0.04 235:-0.137 236:0.136 237:0.66 238:0.157 239:0.025 240:-0.137 
-128 1:0.09 2:-0.603 3:-0.331 4:0.1 5:-0.857 6:-0.215 7:-0.381 8:-0.767 9:-0.05 10:-0.696 11:-0.305 12:-0.254 13:-0.512 14:0.212 15:-0.05 16:0.154 17:-0.358 18:-0.532 19:-0.81 20:-0.462 21:-0.636 22:0.462 23:-0.462 24:0 25:0 26:-0.762 27:0 28:-0.462 29:-0.762 30:0 31:-0.762 32:-0.462 33:0.462 34:-0.462 35:0 36:-0.462 37:0.964 38:0.462 39:-0.762 40:-0.905 41:-0.462 42:-0.762 43:-0.462 44:-0.905 45:-0.462 46:0.462 47:-0.905 48:-0.762 49:-0.462 50:-0.905 51:0.987 52:-0.762 53:-0.462 54:0 55:-0.462 56:0.462 57:0.762 58:0 59:-0.462 60:-0.762 61:-0.905 62:-0.462 63:-0.762 64:0.462 65:-0.462 66:0 67:0 68:-0.762 69:0 70:-0.462 71:-0.762 72:0 73:-0.762 74:-0.462 75:0.462 76:-0.462 77:0 78:-0.462 79:0.964 80:0.462 81:-0.762 82:-0.905 83:-0.462 84:-0.762 85:0.462 86:-0.462 87:0 88:0 89:-0.762 90:0 91:-0.462 92:-0.762 93:0 94:-0.762 95:-0.462 96:0.462 97:-0.462 98:0 99:-0.462 100:0.964 101:0.462 102:-0.762 103:-0.905 104:-0.462 105:-0.762 106:-0.462 107:-0.462 108:-0.964 109:-0.905 110:0 111:-0.964 112:-0.905 113:0.762 114:-0.762 115:0.964 116:0.762 117:-0.905 118:-0.905 119:-0.762 120:-0.762 121:-0.762 122:-0.462 123:0.462 124:-0.762 125:-0.462 126:-0.462 127:-0.462 128:-0.462 129:-0.964 130:-0.905 131:0 132:-0.964 133:-0.905 134:0.762 135:-0.762 136:0.964 137:0.762 138:-0.905 139:-0.905 140:-0.762 141:-0.762 142:-0.762 143:-0.462 144:0.462 145:-0.762 146:-0.462 147:-0.462 148:-0.762 149:-0.905 150:-0.462 151:0 152:-0.462 153:-0.762 154:0.999 155:-0.905 156:-0.462 157:-0.905 158:-0.762 159:0.462 160:-0.762 161:0 162:0 163:-0.462 164:-0.762 165:-0.905 166:-0.762 167:-0.462 168:0.762 169:0.964 170:0 171:-0.762 172:-0.462 173:-0.762 174:0 175:-0.762 176:-0.462 177:-0.462 178:-0.462 179:-0.462 180:-0.762 181:-0.462 182:-0.462 183:-0.462 184:0.462 185:0 186:0 187:-0.905 188:-0.462 189:-0.762 190:-0.462 191:-0.462 192:-0.905 193:-0.905 194:0 195:-0.964 196:-0.905 197:0.964 198:-0.905 199:0.762 200:0.462 201:-0.905 202:-0.905 203:-0.905 204:-0.905 205:-0.762 206:-0.462 207:0.905 208:-0.905 209:-0.462 210:-0.462 211:-0.712 212:-0.905 213:0 214:-0.077 215:-0.767 216:-0.381 217:0.437 218:-0.905 219:-0.231 220:-0.905 221:-0.762 222:0.524 223:-0.469 224:-0.077 225:-0.127 226:0 227:-0.331 228:-0.881 229:-0.897 230:-0.462 231:-0.278 232:0.099 233:0.478 234:-0.04 235:0.516 236:0.136 237:0.181 238:0.202 239:0.109 240:0.616 
-128 1:-0.462 2:-0.462 3:-0.462 4:-0.462 5:-0.462 6:-0.462 7:-0.462 8:-0.462 9:-0.462 10:-0.462 11:-0.462 12:-0.462 13:-0.462 14:-0.462 15:-0.462 16:-0.462 17:-0.462 18:-0.462 19:-0.462 20:-0.462 21:-0.462 22:-0.762 23:-0.762 24:-0.905 25:-0.905 26:0.995 27:-0.905 28:-0.462 29:0 30:-0.905 31:0 32:0 33:-0.905 34:-0.964 35:-0.905 36:-0.905 37:-0.762 38:-0.762 39:-0.462 40:0.462 41:-0.462 42:0.905 43:-0.762 44:-0.905 45:0.462 46:0 47:-0.905 48:0 49:0.462 50:-0.905 51:0 52:-0.905 53:-0.762 54:0.995 55:-0.762 56:0 57:0 58:0.462 59:0 60:-0.905 61:-0.964 62:-0.462 63:-0.762 64:0.964 65:0 66:-0.762 67:-0.462 68:-0.762 69:0 70:-0.762 71:-0.462 72:-0.462 73:-0.462 74:-0.462 75:-0.762 76:-0.462 77:-0.462 78:-0.462 79:0.462 80:0 81:0 82:-0.905 83:-0.462 84:-0.762 85:-0.905 86:-0.762 87:-0.964 88:-0.905 89:0.462 90:-0.762 91:-0.762 92:-0.905 93:-0.905 94:-0.762 95:-0.462 96:-0.964 97:-0.964 98:-0.762 99:-0.905 100:-0.905 101:-0.762 102:-0.905 103:1 104:-0.462 105:0.762 106:-0.462 107:-0.462 108:-0.964 109:-0.905 110:0 111:-0.964 112:-0.905 113:0.762 114:-0.762 115:0.964 116:0.762 117:-0.905 118:-0.905 119:-0.762 120:-0.762 121:-0.762 122:-0.462 123:0.462 124:-0.762 125:-0.462 126:-0.462 127:0 128:-0.462 129:-0.462 130:-0.462 131:-0.762 132:-0.762 133:-0.762 134:-0.462 135:-0.462 136:-0.462 137:-0.462 138:0 139:-0.462 140:-0.462 141:-0.462 142:0.462 143:0.987 144:0 145:-0.762 146:-0.462 147:-0.762 148:0.462 149:-0.462 150:0 151:0 152:-0.762 153:0 154:-0.462 155:-0.762 156:0 157:-0.762 158:-0.462 159:0.462 160:-0.462 161:0 162:-0.462 163:0.964 164:0.462 165:-0.762 166:-0.905 167:-0.462 168:-0.762 169:-0.462 170:-0.462 171:-0.905 172:-0.905 173:0 174:-0.964 175:-0.905 176:0.964 177:-0.905 178:0.762 179:0.462 180:-0.905 181:-0.905 182:-0.905 183:-0.905 184:-0.762 185:-0.462 186:0.905 187:-0.905 188:-0.462 189:-0.462 190:-0.462 191:-0.462 192:-0.964 193:-0.905 194:0 195:-0.964 196:-0.905 197:0.762 198:-0.762 199:0.964 200:0.762 201:-0.905 202:-0.905 203:-0.762 204:-0.762 205:-0.762 206:-0.462 207:0.462 208:-0.762 209:-0.462 210:-0.462 211:-0.154 212:-0.462 213:-0.643 214:-0.603 215:-0.254 216:-0.643 217:-0.757 218:0.254 219:-0.508 220:0.389 221:0.354 222:-0.449 223:-0.757 224:-0.508 225:-0.662 226:-0.187 227:-0.154 228:0.054 229:-0.81 230:-0.462 231:-0.562 232:0.999 233:0.539 234:-0.064 235:-0.033 236:0.136 237:0.382 238:0.239 239:0.325 240:0.437 
128 1:-0.462 2:-0.713 3:0.15 4:0.263 5:-0.683 6:-0.612 7:-0.231 8:-0.683 9:0 10:-0.683 11:-0.612 12:-0.231 13:-0.462 14:0.15 15:-0.231 16:-0.231 17:-0.462 18:-0.612 19:-0.683 20:-0.462 21:-0.612 22:-0.762 23:-0.762 24:-0.905 25:-0.905 26:0.995 27:-0.905 28:-0.462 29:0 30:-0.905 31:0 32:0 33:-0.905 34:-0.964 35:-0.905 36:-0.905 37:-0.762 38:-0.762 39:-0.462 40:0.462 41:-0.462 42:0.905 43:-0.462 44:-0.964 45:0.762 46:0.987 47:-0.905 48:-0.762 49:0 50:-0.905 51:0.462 52:-0.905 53:-0.762 54:0 55:-0.462 56:0.762 57:0 58:0 59:-0.462 60:-0.762 61:-0.905 62:-0.462 63:-0.762 64:0.462 65:-0.462 66:0 67:0 68:-0.762 69:0 70:-0.462 71:-0.762 72:0 73:-0.762 74:-0.462 75:0.462 76:-0.462 77:0 78:-0.462 79:0.964 80:0.462 81:-0.762 82:-0.905 83:-0.462 84:-0.762 85:-0.462 86:-0.462 87:-0.964 88:-0.905 89:0 90:-0.964 91:-0.905 92:0.762 93:-0.762 94:0.964 95:0.762 96:-0.905 97:-0.905 98:-0.762 99:-0.762 100:-0.762 101:-0.462 102:0.462 103:-0.762 104:-0.462 105:-0.462 106:-0.762 107:-0.762 108:-0.905 109:-0.905 110:0.995 111:-0.905 112:-0.462 113:0 114:-0.905 115:0 116:0 117:-0.905 118:-0.964 119:-0.905 120:-0.905 121:-0.762 122:-0.762 123:-0.462 124:0.462 125:-0.462 126:0.905 127:-0.462 128:-0.905 129:-0.462 130:0.462 131:-0.905 132:-0.762 133:-0.462 134:-0.905 135:0.987 136:-0.762 137:-0.462 138:0 139:-0.462 140:0.462 141:0.762 142:0 143:-0.462 144:-0.762 145:-0.905 146:-0.462 147:-0.762 148:0 149:1 150:-0.905 151:-0.964 152:-0.762 153:-0.905 154:-0.905 155:-0.462 156:-0.905 157:-0.462 158:-0.462 159:-0.905 160:-0.905 161:-0.905 162:-0.905 163:-0.462 164:-0.462 165:-0.462 166:-0.762 167:-0.462 168:-0.762 169:-0.462 170:-0.462 171:-0.964 172:-0.905 173:0 174:-0.964 175:-0.905 176:0.762 177:-0.762 178:0.964 179:0.762 180:-0.905 181:-0.905 182:-0.762 183:-0.762 184:-0.762 185:-0.462 186:0.462 187:-0.762 188:-0.462 189:-0.462 190:0.462 191:-0.462 192:0 193:0 194:-0.762 195:0 196:-0.462 197:-0.762 198:0 199:-0.762 200:-0.462 201:0.462 202:-0.462 203:0 204:-0.462 205:0.964 206:0.462 207:-0.762 208:-0.905 209:-0.462 210:-0.762 211:-0.458 212:-0.683 213:-0.533 214:-0.302 215:-0.358 216:-0.702 217:0.121 218:-0.258 219:-0.533 220:-0.326 221:-0.304 222:0.006 223:-0.76 224:-0.302 225:-0.379 226:-0.324 227:-0.458 228:-0.278 229:-0.833 230:-0.462 231:0.1 232:0.999 233:0.044 234:-0.04 235:0.244 236:0.154 237:0.353 238:-0.629 239:0.19 240:0.417 
-53.06754796180939 1:-0.231 2:0.269 3:-0.683 4:-0.713 5:-0.612 6:-0.683 7:-0.683 8:-0.462 9:-0.683 10:-0.462 11:-0.462 12:-0.683 13:-0.683 14:-0.683 15:-0.683 16:-0.462 17:-0.462 18:-0.462 19:-0.612 20:-0.462 21:-0.612 22:-0.762 23:-0.762 24:-0.905 25:-0.905 26:0.995 27:-0.905 28:-0.462 29:0 30:-0.905 31:0 32:0 33:-0.905 34:-0.964 35:-0.905 36:-0.905 37:-0.762 38:-0.762 39:-0.462 40:0.462 41:-0.462 42:0.905 43:-0.462 44:-0.905 45:-0.462 46:0.462 47:-0.905 48:-0.762 49:-0.462 50:-0.905 51:0.987 52:-0.762 53:-0.462 54:0 55:-0.462 56:0.462 57:0.762 58:0 59:-0.462 60:-0.762 61:-0.905 62:-0.462 63:-0.762 64:-0.762 65:-0.762 66:-0.905 67:-0.762 68:0.905 69:-0.905 70:0.762 71:-0.462 72:-0.762 73:-0.462 74:-0.462 75:-0.762 76:-0.905 77:-0.462 78:-0.762 79:-0.762 80:-0.762 81:-0.462 82:0.762 83:-0.462 84:0.998 85:-0.462 86:-0.462 87:-0.964 88:-0.905 89:0 90:-0.964 91:-0.905 92:0.762 93:-0.762 94:0.964 95:0.762 96:-0.905 97:-0.905 98:-0.762 99:-0.762 100:-0.762 101:-0.462 102:0.462 103:-0.762 104:-0.462 105:-0.462 106:-0.462 107:-0.462 108:-0.964 109:-0.905 110:0 111:-0.964 112:-0.905 113:0.762 114:-0.762 115:0.964 116:0.762 117:-0.905 118:-0.905 119:-0.762 120:-0.762 121:-0.762 122:-0.462 123:0.462 124:-0.762 125:-0.462 126:-0.462 127:-0.462 128:-0.462 129:-0.905 130:-0.905 131:0 132:-0.964 133:-0.905 134:0.964 135:-0.905 136:0.762 137:0.462 138:-0.905 139:-0.905 140:-0.905 141:-0.905 142:-0.762 143:-0.462 144:0.905 145:-0.905 146:-0.462 147:-0.462 148:-0.462 149:-0.905 150:0 151:0.762 152:-0.905 153:-0.762 154:0 155:-0.905 156:0.462 157:-0.762 158:0 159:0 160:-0.462 161:0.987 162:0.462 163:0 164:-0.462 165:-0.762 166:-0.762 167:-0.462 168:-0.462 169:0 170:-0.905 171:-0.462 172:-0.762 173:-0.905 174:0.995 175:-0.762 176:-0.964 177:-0.762 178:-0.964 179:-0.905 180:0 181:-0.762 182:-0.762 183:-0.762 184:0 185:-0.762 186:-0.905 187:-0.762 188:-0.462 189:-0.905 190:-0.762 191:-0.905 192:-0.462 193:0 194:-0.462 195:-0.762 196:0.999 197:-0.905 198:-0.462 199:-0.905 200:-0.762 201:0.462 202:-0.762 203:0 204:0 205:-0.462 206:-0.762 207:-0.905 208:-0.762 209:-0.462 210:0.762 211:-0.712 212:-0.833 213:-0.121 214:0 215:0 216:-0.734 217:0.227 218:-0.683 219:-0.458 220:-0.679 221:-0.533 222:-0.227 223:-0.683 224:-0.067 225:-0.558 226:-0.381 227:-0.612 228:-0.66 229:-0.067 230:-0.462 231:0.12 232:0.999 233:0.478 234:0.07 235:0.244 236:0.136 237:0.66 238:0.12 239:-0.268 240:-0.046 
-68.46889205800643 1:-0.462 2:-0.462 3:-0.462 4:-0.462 5:-0.462 6:-0.462 7:-0.462 8:-0.462 9:-0.462 10:-0.462 11:-0.462 12:-0.462 13:-0.462 14:-0.462 15:-0.462 16:-0.462 17:-0.462 18:-0.462 19:-0.462 20:-0.462 21:-0.462 22:-0.462 23:-0.905 24:-0.762 25:0 26:-0.905 27:-0.762 28:0 29:-0.905 30:0.762 31:-0.762 32:-0.462 33:0 34:-0.762 35:0.462 36:0.987 37:-0.462 38:-0.462 39:-0.905 40:-0.905 41:-0.462 42:-0.762 43:-0.462 44:-0.905 45:0 46:0.762 47:-0.905 48:-0.762 49:0 50:-0.905 51:0.462 52:-0.762 53:0 54:0 55:-0.462 56:0.987 57:0.462 58:0 59:-0.462 60:-0.762 61:-0.762 62:-0.462 63:-0.462 64:0.964 65:0 66:-0.762 67:-0.462 68:-0.762 69:0 70:-0.762 71:-0.462 72:-0.462 73:-0.462 74:-0.462 75:-0.762 76:-0.462 77:-0.462 78:-0.462 79:0.462 80:0 81:0 82:-0.905 83:-0.462 84:-0.762 85:-0.462 86:-0.964 87:0.762 88:0.987 89:-0.905 90:-0.762 91:0 92:-0.905 93:0.462 94:-0.905 95:-0.762 96:0 97:-0.462 98:0.762 99:0 100:0 101:-0.462 102:-0.762 103:-0.905 104:-0.462 105:-0.762 106:-0.462 107:-0.905 108:-0.462 109:-0.462 110:-0.964 111:-0.762 112:-0.762 113:-0.905 114:-0.462 115:-0.905 116:-0.762 117:-0.762 118:0.998 119:-0.462 120:-0.762 121:-0.462 122:-0.462 123:-0.762 124:-0.964 125:-0.462 126:-0.905 127:0.462 128:-0.462 129:0 130:0 131:-0.762 132:0 133:-0.462 134:-0.762 135:0 136:-0.762 137:-0.462 138:0.462 139:-0.462 140:0 141:-0.462 142:0.964 143:0.462 144:-0.762 145:-0.905 146:-0.462 147:-0.762 148:-0.462 149:-0.462 150:-0.964 151:-0.905 152:0 153:-0.964 154:-0.905 155:0.762 156:-0.762 157:0.964 158:0.762 159:-0.905 160:-0.905 161:-0.762 162:-0.762 163:-0.762 164:-0.462 165:0.462 166:-0.762 167:-0.462 168:-0.462 169:-0.762 170:-0.762 171:-0.905 172:-0.762 173:0.905 174:-0.905 175:0.762 176:-0.462 177:-0.762 178:-0.462 179:-0.462 180:-0.762 181:-0.905 182:-0.462 183:-0.762 184:-0.762 185:-0.762 186:-0.462 187:0.762 188:-0.462 189:0.998 190:0 191:-0.905 192:-0.462 193:-0.762 194:-0.905 195:0.995 196:-0.762 197:-0.964 198:-0.762 199:-0.964 200:-0.905 201:0 202:-0.762 203:-0.762 204:-0.762 205:0 206:-0.762 207:-0.905 208:-0.762 209:-0.462 210:-0.905 211:-0.612 212:-0.905 213:-0.458 214:0 215:-0.757 216:-0.635 217:0.41 218:-0.905 219:0.227 220:-0.833 221:-0.612 222:0.32 223:-0.762 224:0.231 225:0.493 226:-0.308 227:-0.485 228:-0.905 229:-0.867 230:-0.462 231:-0.254 232:0.161 233:0.16 234:-0.064 235:0.025 236:-0.425 237:0.465 238:0.206 239:-0.425 240:0.18 
128 1:-0.462 2:-0.944 3:0.354 4:0.504 5:-0.925 6:-0.762 7:-0.254 8:-0.905 9:0.154 10:-0.905 11:-0.762 12:-0.254 13:0.025 14:0.354 15:-0.254 16:-0.154 17:-0.462 18:-0.762 19:-0.925 20:-0.462 21:-0.81 22:-0.762 23:-0.905 24:0.995 25:0.762 26:-0.905 27:-0.462 28:-0.462 29:-0.905 30:-0.462 31:-0.964 32:-0.905 33:0.462 34:-0.462 35:0 36:-0.762 37:0 38:-0.462 39:-0.905 40:-0.964 41:-0.462 42:-0.905 43:-0.462 44:-0.462 45:-0.964 46:-0.905 47:0 48:-0.964 49:-0.905 50:0.762 51:-0.762 52:0.964 53:0.762 54:-0.905 55:-0.905 56:-0.762 57:-0.762 58:-0.762 59:-0.462 60:0.462 61:-0.762 62:-0.462 63:-0.462 64:0 65:-0.905 66:-0.462 67:-0.762 68:-0.905 69:0.995 70:-0.762 71:-0.964 72:-0.762 73:-0.964 74:-0.905 75:0 76:-0.762 77:-0.762 78:-0.762 79:0 80:-0.762 81:-0.905 82:-0.762 83:-0.462 84:-0.905 85:-0.762 86:-0.905 87:0.462 88:0 89:-0.905 90:0 91:0.462 92:-0.905 93:0 94:-0.905 95:-0.762 96:0.995 97:-0.762 98:0 99:0 100:0.462 101:0 102:-0.905 103:-0.964 104:-0.462 105:-0.762 106:0 107:1 108:-0.905 109:-0.964 110:-0.762 111:-0.905 112:-0.905 113:-0.462 114:-0.905 115:-0.462 116:-0.462 117:-0.905 118:-0.905 119:-0.905 120:-0.905 121:-0.462 122:-0.462 123:-0.462 124:-0.762 125:-0.462 126:-0.762 127:-0.462 128:-0.462 129:-0.964 130:-0.905 131:0 132:-0.964 133:-0.905 134:0.762 135:-0.762 136:0.964 137:0.762 138:-0.905 139:-0.905 140:-0.762 141:-0.762 142:-0.762 143:-0.462 144:0.462 145:-0.762 146:-0.462 147:-0.462 148:-0.762 149:-0.905 150:0.462 151:0 152:-0.905 153:0 154:0.462 155:-0.905 156:0 157:-0.905 158:-0.762 159:0.995 160:-0.762 161:0 162:0 163:0.462 164:0 165:-0.905 166:-0.964 167:-0.462 168:-0.762 169:-0.462 170:-0.905 171:-0.462 172:0.462 173:-0.905 174:-0.762 175:-0.462 176:-0.905 177:0.987 178:-0.762 179:-0.462 180:0 181:-0.462 182:0.462 183:0.762 184:0 185:-0.462 186:-0.762 187:-0.905 188:-0.462 189:-0.762 190:0.462 191:-0.462 192:0 193:0 194:-0.762 195:0 196:-0.462 197:-0.762 198:0 199:-0.762 200:-0.462 201:0.462 202:-0.462 203:0 204:-0.462 205:0.964 206:0.462 207:-0.762 208:-0.905 209:-0.462 210:-0.762 211:-0.612 212:-0.683 213:0.267 214:0.15 215:-0.683 216:-0.462 217:-0.462 218:-0.683 219:-0.462 220:-0.713 221:-0.683 222:0 223:-0.462 224:-0.231 225:-0.612 226:-0.231 227:-0.462 228:-0.683 229:-0.713 230:-0.462 231:-0.683 232:-0.054 233:0.416 234:-0.154 235:0.412 236:0.287 237:0.181 238:0.589 239:0.231 240:0.417 
128 1:-0.1 2:-0.562 3:-0.379 4:-0.331 5:-0.156 6:-0.379 7:-0.054 8:-0.612 9:-0.331 10:-0.612 11:-0.462 12:-0.1 13:-0.61 14:-0.231 15:-0.562 16:0.151 17:-0.1 18:-0.612 19:-0.276 20:-0.462 21:-0.125 22:-0.762 23:-0.762 24:-0.905 25:-0.905 26:0.995 27:-0.905 28:-0.462 29:0 30:-0.905 31:0 32:0 33:-0.905 34:-0.964 35:-0.905 36:-0.905 37:-0.762 38:-0.762 39:-0.462 40:0.462 41:-0.462 42:0.905 43:-0.462 44:-0.964 45:0.762 46:0.987 47:-0.905 48:-0.762 49:0 50:-0.905 51:0.462 52:-0.905 53:-0.762 54:0 55:-0.462 56:0.762 57:0 58:0 59:-0.462 60:-0.762 61:-0.905 62:-0.462 63:-0.762 64:0.964 65:0 66:-0.762 67:-0.462 68:-0.762 69:0 70:-0.762 71:-0.462 72:-0.462 73:-0.462 74:-0.462 75:-0.762 76:-0.462 77:-0.462 78:-0.462 79:0.462 80:0 81:0 82:-0.905 83:-0.462 84:-0.762 85:-0.462 86:-0.905 87:0 88:0.762 89:-0.905 90:-0.762 91:0 92:-0.905 93:0.462 94:-0.762 95:0 96:0 97:-0.462 98:0.987 99:0.462 100:0 101:-0.462 102:-0.762 103:-0.762 104:-0.462 105:-0.462 106:0 107:-0.905 108:-0.462 109:-0.762 110:-0.905 111:0.995 112:-0.762 113:-0.964 114:-0.762 115:-0.964 116:-0.905 117:0 118:-0.762 119:-0.762 120:-0.762 121:0 122:-0.762 123:-0.905 124:-0.762 125:-0.462 126:-0.905 127:0.964 128:0 129:-0.762 130:-0.462 131:-0.762 132:0 133:-0.762 134:-0.462 135:-0.462 136:-0.462 137:-0.462 138:-0.762 139:-0.462 140:-0.462 141:-0.462 142:0.462 143:0 144:0 145:-0.905 146:-0.462 147:-0.762 148:-0.462 149:-0.462 150:-0.964 151:-0.905 152:0 153:-0.964 154:-0.905 155:0.762 156:-0.762 157:0.964 158:0.762 159:-0.905 160:-0.905 161:-0.762 162:-0.762 163:-0.762 164:-0.462 165:0.462 166:-0.762 167:-0.462 168:-0.462 169:0.964 170:0 171:-0.762 172:-0.462 173:-0.762 174:0 175:-0.762 176:-0.462 177:-0.462 178:-0.462 179:-0.462 180:-0.762 181:-0.462 182:-0.462 183:-0.462 184:0.462 185:0 186:0 187:-0.905 188:-0.462 189:-0.762 190:-0.762 191:-0.905 192:0.462 193:0 194:-0.905 195:0 196:0.462 197:-0.905 198:0 199:-0.905 200:-0.762 201:0.995 202:-0.762 203:0 204:0 205:0.462 206:0 207:-0.905 208:-0.964 209:-0.462 210:-0.762 211:0.09 212:-0.308 213:-0.857 214:-0.734 215:-0.331 216:-0.633 217:-0.857 218:0.479 219:-0.734 220:0.304 221:0.154 222:-0.857 223:-0.734 224:-0.734 225:-0.757 226:-0.354 227:-0.231 228:0.613 229:-0.905 230:-0.462 231:-0.562 232:0.999 233:0.044 234:-0.064 235:-0.004 236:-0.095 237:0.569 238:0.206 239:0.109 240:0.581 
-101.7749853794476 1:-0.462 2:-0.683 3:-0.693 4:-0.221 5:-0.453 6:-0.863 7:-0.683 8:-0.004 9:0.065 10:0.034 11:0.05 12:-0.452 13:-0.683 14:-0.198 15:-0.048 16:-0.381 17:-0.462 18:-0.002 19:-0.881 20:-0.462 21:-0.612 22:0 23:-0.462 24:-0.462 25:-0.462 26:-0.762 27:-0.762 28:-0.762 29:-0.462 30:-0.462 31:-0.462 32:-0.462 33:0 34:-0.462 35:-0.462 36:-0.462 37:0.462 38:0.987 39:0 40:-0.762 41:-0.462 42:-0.762 43:-0.462 44:-0.462 45:-0.964 46:-0.905 47:0 48:-0.964 49:-0.905 50:0.762 51:-0.762 52:0.964 53:0.762 54:-0.905 55:-0.905 56:-0.762 57:-0.762 58:-0.762 59:-0.462 60:0.462 61:-0.762 62:-0.462 63:-0.462 64:-0.462 65:-0.905 66:0 67:0.762 68:-0.905 69:-0.762 70:0 71:-0.905 72:0.462 73:-0.762 74:0 75:0 76:-0.462 77:0.987 78:0.462 79:0 80:-0.462 81:-0.762 82:-0.762 83:-0.462 84:-0.462 85:0.462 86:-0.462 87:0 88:0 89:-0.762 90:0 91:-0.462 92:-0.762 93:0 94:-0.762 95:-0.462 96:0.462 97:-0.462 98:0 99:-0.462 100:0.964 101:0.462 102:-0.762 103:-0.905 104:-0.462 105:-0.762 106:-0.462 107:-0.905 108:-0.462 109:0.462 110:-0.905 111:-0.762 112:-0.462 113:-0.905 114:0.987 115:-0.762 116:-0.462 117:0 118:-0.462 119:0.462 120:0.762 121:0 122:-0.462 123:-0.762 124:-0.905 125:-0.462 126:-0.762 127:-0.462 128:-0.462 129:-0.964 130:-0.905 131:0 132:-0.964 133:-0.905 134:0.762 135:-0.762 136:0.964 137:0.762 138:-0.905 139:-0.905 140:-0.762 141:-0.762 142:-0.762 143:-0.462 144:0.462 145:-0.762 146:-0.462 147:-0.462 148:0.462 149:-0.462 150:0 151:0 152:-0.762 153:0 154:-0.462 155:-0.762 156:0 157:-0.762 158:-0.462 159:0.462 160:-0.462 161:0 162:-0.462 163:0.964 164:0.462 165:-0.762 166:-0.905 167:-0.462 168:-0.762 169:-0.462 170:-0.905 171:-0.762 172:0 173:-0.905 174:-0.762 175:0 176:-0.905 177:0.762 178:-0.762 179:-0.462 180:0 181:-0.762 182:0.462 183:0.987 184:-0.462 185:-0.462 186:-0.905 187:-0.905 188:-0.462 189:-0.762 190:-0.762 191:-0.905 192:0.462 193:0 194:-0.905 195:0 196:0.462 197:-0.905 198:0 199:-0.905 200:-0.762 201:0.995 202:-0.762 203:0 204:0 205:0.462 206:0 207:-0.905 208:-0.964 209:-0.462 210:-0.762 211:-0.458 212:-0.686 213:-0.683 214:-0.529 215:0.093 216:-0.834 217:-0.562 218:-0.305 219:-0.442 220:-0.281 221:-0.231 222:-0.453 223:-0.713 224:-0.529 225:-0.48 226:-0.227 227:-0.129 228:-0.358 229:-0.174 230:-0.462 231:0.072 232:-0.011 233:0.416 234:-0.107 235:0.516 236:-0.004 237:0.181 238:0.239 239:-0.017 240:0.581 
-128 1:-0.077 2:-0.905 3:-0.462 4:-0.558 5:-0.905 6:0.702 7:-0.712 8:-0.954 9:-0.471 10:-0.93 11:-0.831 12:0 13:-0.712 14:-0.558 15:-0.508 16:0 17:-0.712 18:-0.881 19:-0.786 20:-0.462 21:-0.881 22:-0.762 23:-0.762 24:-0.905 25:-0.905 26:0.995 27:-0.905 28:-0.462 29:0 30:-0.905 31:0 32:0 33:-0.905 34:-0.964 35:-0.905 36:-0.905 37:-0.762 38:-0.762 39:-0.462 40:0.462 41:-0.462 42:0.905 43:-0.462 44:-0.462 45:-0.905 46:-0.762 47:0 48:-0.905 49:-0.762 50:0.462 51:-0.462 52:0.762 53:0.987 54:-0.762 55:-0.762 56:0 57:-0.462 58:-0.462 59:-0.462 60:0.462 61:-0.462 62:-0.462 63:-0.462 64:-0.762 65:-0.762 66:-0.905 67:-0.762 68:0.905 69:-0.905 70:0.762 71:-0.462 72:-0.762 73:-0.462 74:-0.462 75:-0.762 76:-0.905 77:-0.462 78:-0.762 79:-0.762 80:-0.762 81:-0.462 82:0.762 83:-0.462 84:0.998 85:-0.462 86:-0.462 87:-0.964 88:-0.905 89:0 90:-0.964 91:-0.905 92:0.762 93:-0.762 94:0.964 95:0.762 96:-0.905 97:-0.905 98:-0.762 99:-0.762 100:-0.762 101:-0.462 102:0.462 103:-0.762 104:-0.462 105:-0.462 106:-0.462 107:-0.905 108:-0.462 109:0.462 110:-0.905 111:-0.762 112:-0.462 113:-0.905 114:0.987 115:-0.762 116:-0.462 117:0 118:-0.462 119:0.462 120:0.762 121:0 122:-0.462 123:-0.762 124:-0.905 125:-0.462 126:-0.762 127:-0.462 128:-0.964 129:0.762 130:0.987 131:-0.905 132:-0.762 133:0 134:-0.905 135:0.462 136:-0.905 137:-0.762 138:0 139:-0.462 140:0.762 141:0 142:0 143:-0.462 144:-0.762 145:-0.905 146:-0.462 147:-0.762 148:-0.462 149:-0.462 150:-0.964 151:-0.905 152:0 153:-0.964 154:-0.905 155:0.762 156:-0.762 157:0.964 158:0.762 159:-0.905 160:-0.905 161:-0.762 162:-0.762 163:-0.762 164:-0.462 165:0.462 166:-0.762 167:-0.462 168:-0.462 169:-0.762 170:-0.762 171:-0.905 172:-0.762 173:0.905 174:-0.905 175:0.762 176:-0.462 177:-0.762 178:-0.462 179:-0.462 180:-0.762 181:-0.905 182:-0.462 183:-0.762 184:-0.762 185:-0.762 186:-0.462 187:0.762 188:-0.462 189:0.998 190:-0.762 191:-0.905 192:0.462 193:0 194:-0.905 195:0 196:0.462 197:-0.905 198:0 199:-0.905 200:-0.762 201:0.995 202:-0.762 203:0 204:0 205:0.462 206:0 207:-0.905 208:-0.964 209:-0.462 210:-0.762 211:-0.508 212:-0.757 213:0.006 214:-0.254 215:-0.757 216:-0.302 217:0.006 218:-0.302 219:-0.254 220:-0.449 221:-0.354 222:0.362 223:-0.762 224:-0.254 225:-0.302 226:0.054 227:0 228:-0.282 229:-0.944 230:-0.462 231:-0.662 232:0.999 233:0.527 234:0.07 235:0.244 236:-0.004 237:-0.084 238:0.206 239:-0.425 240:0.581 
128 1:-0.462 2:-0.462 3:-0.462 4:-0.462 5:-0.462 6:-0.462 7:-0.462 8:-0.462 9:-0.462 10:-0.462 11:-0.462 12:-0.462 13:-0.462 14:-0.462 15:-0.462 16:-0.462 17:-0.462 18:-0.462 19:-0.462 20:-0.462 21:-0.462 22:-0.762 23:-0.905 24:-0.462 25:0 26:-0.462 27:-0.762 28:0.999 29:-0.905 30:-0.462 31:-0.905 32:-0.762 33:0.462 34:-0.762 35:0 36:0 37:-0.462 38:-0.762 39:-0.905 40:-0.762 41:-0.462 42:0.762 43:-0.462 44:-0.905 45:-0.762 46:0 47:-0.905 48:-0.762 49:0 50:-0.905 51:0.762 52:-0.762 53:-0.462 54:0 55:-0.762 56:0.462 57:0.987 58:-0.462 59:-0.462 60:-0.905 61:-0.905 62:-0.462 63:-0.762 64:-0.905 65:-0.762 66:-0.964 67:-0.905 68:0.462 69:-0.762 70:-0.762 71:-0.905 72:-0.905 73:-0.762 74:-0.462 75:-0.964 76:-0.964 77:-0.762 78:-0.905 79:-0.905 80:-0.762 81:-0.905 82:1 83:-0.462 84:0.762 85:-0.762 86:-0.905 87:-0.462 88:0 89:-0.462 90:-0.762 91:0.999 92:-0.905 93:-0.462 94:-0.905 95:-0.762 96:0.462 97:-0.762 98:0 99:0 100:-0.462 101:-0.762 102:-0.905 103:-0.762 104:-0.462 105:0.762 106:-0.762 107:-0.905 108:0.462 109:0 110:-0.905 111:0 112:0.462 113:-0.905 114:0 115:-0.905 116:-0.762 117:0.995 118:-0.762 119:0 120:0 121:0.462 122:0 123:-0.905 124:-0.964 125:-0.462 126:-0.762 127:0.964 128:0 129:-0.762 130:-0.462 131:-0.762 132:0 133:-0.762 134:-0.462 135:-0.462 136:-0.462 137:-0.462 138:-0.762 139:-0.462 140:-0.462 141:-0.462 142:0.462 143:0 144:0 145:-0.905 146:-0.462 147:-0.762 148:-0.762 149:-0.905 150:-0.462 151:0 152:-0.462 153:-0.762 154:0.999 155:-0.905 156:-0.462 157:-0.905 158:-0.762 159:0.462 160:-0.762 161:0 162:0 163:-0.462 164:-0.762 165:-0.905 166:-0.762 167:-0.462 168:0.762 169:0 170:-0.462 171:-0.905 172:-0.762 173:-0.462 174:-0.905 175:-0.905 176:0.905 177:-0.762 178:0.462 179:0.462 180:-0.905 181:-0.762 182:-0.762 183:-0.905 184:-0.762 185:0 186:0.964 187:-0.905 188:-0.462 189:-0.462 190:0 191:-0.462 192:-0.905 193:-0.762 194:-0.462 195:-0.905 196:-0.905 197:0.905 198:-0.762 199:0.462 200:0.462 201:-0.905 202:-0.762 203:-0.762 204:-0.905 205:-0.762 206:0 207:0.964 208:-0.905 209:-0.462 210:-0.462 211:-0.562 212:-0.905 213:-0.462 214:0.308 215:-0.757 216:-0.762 217:0.025 218:-0.905 219:0.504 220:-0.81 221:-0.562 222:0.154 223:-0.562 224:0.308 225:0.508 226:-0.154 227:-0.562 228:-0.81 229:-0.857 230:-0.462 231:-0.254 232:0.379 233:0.359 234:0.215 235:0.136 236:0.078 237:0.569 238:0.202 239:0.122 240:0.473 
128 1:-0.462 2:-0.462 3:-0.462 4:-0.462 5:-0.462 6:-0.462 7:-0.462 8:-0.462 9:-0.462 10:-0.462 11:-0.462 12:-0.462 13:-0.462 14:-0.462 15:-0.462 16:-0.462 17:-0.462 18:-0.462 19:-0.462 20:-0.462 21:-0.462 22:-0.905 23:-0.762 24:-0.964 25:-0.905 26:0.462 27:-0.762 28:-0.762 29:-0.905 30:-0.905 31:-0.762 32:-0.462 33:-0.964 34:-0.964 35:-0.762 36:-0.905 37:-0.905 38:-0.762 39:-0.905 40:1 41:-0.462 42:0.762 43:0 44:-0.462 45:-0.905 46:-0.762 47:-0.462 48:-0.905 49:-0.905 50:0.905 51:-0.762 52:0.462 53:0.462 54:-0.905 55:-0.762 56:-0.762 57:-0.905 58:-0.762 59:0 60:0.964 61:-0.905 62:-0.462 63:-0.462 64:-0.762 65:-0.762 66:-0.905 67:-0.905 68:0.995 69:-0.905 70:-0.462 71:0 72:-0.905 73:0 74:0 75:-0.905 76:-0.964 77:-0.905 78:-0.905 79:-0.762 80:-0.762 81:-0.462 82:0.462 83:-0.462 84:0.905 85:0.462 86:-0.462 87:0 88:0 89:-0.762 90:0 91:-0.462 92:-0.762 93:0 94:-0.762 95:-0.462 96:0.462 97:-0.462 98:0 99:-0.462 100:0.964 101:0.462 102:-0.762 103:-0.905 104:-0.462 105:-0.762 106:0.462 107:-0.462 108:0 109:0 110:-0.762 111:0 112:-0.462 113:-0.762 114:0 115:-0.762 116:-0.462 117:0.462 118:-0.462 119:0 120:-0.462 121:0.964 122:0.462 123:-0.762 124:-0.905 125:-0.462 126:-0.762 127:0 128:-0.462 129:-0.905 130:-0.762 131:-0.462 132:-0.905 133:-0.905 134:0.905 135:-0.762 136:0.462 137:0.462 138:-0.905 139:-0.762 140:-0.762 141:-0.905 142:-0.762 143:0 144:0.964 145:-0.905 146:-0.462 147:-0.462 148:-0.462 149:-0.905 150:0 151:0.762 152:-0.905 153:-0.762 154:0 155:-0.905 156:0.462 157:-0.762 158:0 159:0 160:-0.462 161:0.987 162:0.462 163:0 164:-0.462 165:-0.762 166:-0.762 167:-0.462 168:-0.462 169:-0.462 170:-0.905 171:-0.462 172:-0.462 173:-0.964 174:-0.762 175:-0.762 176:-0.905 177:-0.462 178:-0.905 179:-0.762 180:-0.762 181:0.998 182:-0.462 183:-0.762 184:-0.462 185:-0.462 186:-0.762 187:-0.964 188:-0.462 189:-0.905 190:-0.462 191:-0.905 192:-0.462 193:-0.462 194:-0.964 195:-0.762 196:-0.762 197:-0.905 198:-0.462 199:-0.905 200:-0.762 201:-0.762 202:0.998 203:-0.462 204:-0.762 205:-0.462 206:-0.462 207:-0.762 208:-0.964 209:-0.462 210:-0.905 211:-0.308 212:-0.757 213:-0.61 214:-0.1 215:-0.767 216:-0.81 217:-0.66 218:-0.302 219:0.162 220:-0.378 221:-0.204 222:-0.429 223:-0.319 224:-0.1 225:-0.048 226:-0.331 227:-0.308 228:-0.187 229:-0.915 230:-0.462 231:-0.686 232:0.71 233:0.439 234:-0.046 235:0.516 236:-0.04 237:0.531 238:0.12 239:0.12 240:-0.01 
-32.88017096651345 1:-0.562 2:-0.683 3:-0.763 4:-0.453 5:-0.305 6:-0.863 7:-0.12 8:-0.071 9:-0.408 10:0.053 11:0.05 12:-0.298 13:-0.834 14:-0.304 15:-0.217 16:-0.612 17:-0.562 18:-0.221 19:-0.786 20:-0.462 21:-0.104 22:-0.762 23:-0.762 24:-0.905 25:-0.905 26:0.995 27:-0.905 28:-0.462 29:0 30:-0.905 31:0 32:0 33:-0.905 34:-0.964 35:-0.905 36:-0.905 37:-0.762 38:-0.762 39:-0.462 40:0.462 41:-0.462 42:0.905 43:0 44:-0.905 45:-0.462 46:-0.762 47:-0.905 48:0.995 49:-0.762 50:-0.964 51:-0.762 52:-0.964 53:-0.905 54:0 55:-0.762 56:-0.762 57:-0.762 58:0 59:-0.762 60:-0.905 61:-0.762 62:-0.462 63:-0.905 64:-0.762 65:-0.905 66:0.462 67:0 68:-0.905 69:0 70:0.462 71:-0.905 72:0 73:-0.905 74:-0.762 75:0.995 76:-0.762 77:0 78:0 79:0.462 80:0 81:-0.905 82:-0.964 83:-0.462 84:-0.762 85:-0.762 86:-0.762 87:-0.905 88:-0.762 89:0.905 90:-0.905 91:0.762 92:-0.462 93:-0.762 94:-0.462 95:-0.462 96:-0.762 97:-0.905 98:-0.462 99:-0.762 100:-0.762 101:-0.762 102:-0.462 103:0.762 104:-0.462 105:0.998 106:-0.462 107:-0.462 108:-0.905 109:-0.905 110:0 111:-0.964 112:-0.905 113:0.964 114:-0.905 115:0.762 116:0.462 117:-0.905 118:-0.905 119:-0.905 120:-0.905 121:-0.762 122:-0.462 123:0.905 124:-0.905 125:-0.462 126:-0.462 127:0 128:-0.462 129:-0.462 130:-0.462 131:-0.762 132:-0.762 133:-0.762 134:-0.462 135:-0.462 136:-0.462 137:-0.462 138:0 139:-0.462 140:-0.462 141:-0.462 142:0.462 143:0.987 144:0 145:-0.762 146:-0.462 147:-0.762 148:-0.762 149:-0.905 150:0.462 151:0 152:-0.905 153:0 154:0.462 155:-0.905 156:0 157:-0.905 158:-0.762 159:0.995 160:-0.762 161:0 162:0 163:0.462 164:0 165:-0.905 166:-0.964 167:-0.462 168:-0.762 169:-0.762 170:-0.905 171:0.995 172:0.762 173:-0.905 174:-0.462 175:-0.462 176:-0.905 177:-0.462 178:-0.964 179:-0.905 180:0.462 181:-0.462 182:0 183:-0.762 184:0 185:-0.462 186:-0.905 187:-0.964 188:-0.462 189:-0.905 190:0.462 191:-0.462 192:0 193:0 194:-0.762 195:0 196:-0.462 197:-0.762 198:0 199:-0.762 200:-0.462 201:0.462 202:-0.462 203:0 204:-0.462 205:0.964 206:0.462 207:-0.762 208:-0.905 209:-0.462 210:-0.762 211:-0.612 212:-0.612 213:-0.683 214:-0.612 215:0.222 216:-0.683 217:0.15 218:-0.462 219:-0.612 220:-0.462 221:-0.462 222:-0.612 223:-0.683 224:-0.462 225:-0.612 226:-0.612 227:-0.612 228:-0.462 229:0.15 230:-0.462 231:0.268 232:0.999 233:-0.154 234:-0.204 235:-0.098 236:0.18 237:0.382 238:0.589 239:-0.244 240:0.417 
80.76507297288882 1:-0.077 2:-0.462 3:-0.683 4:-0.636 5:-0.535 6:-0.843 7:-0.833 8:0.231 9:-0.636 10:0.05 11:-0 12:-0.452 13:-0.636 14:-0.636 15:-0.683 16:-0.15 17:0.416 18:0.472 19:-0.833 20:-0.462 21:-0.612 22:-0.462 23:-0.462 24:-0.905 25:-0.762 26:0 27:-0.905 28:-0.762 29:0.462 30:-0.462 31:0.762 32:0.987 33:-0.762 34:-0.762 35:0 36:-0.462 37:-0.462 38:-0.462 39:0.462 40:-0.462 41:-0.462 42:-0.462 43:-0.762 44:-0.762 45:-0.905 46:-0.905 47:0.995 48:-0.905 49:-0.462 50:0 51:-0.905 52:0 53:0 54:-0.905 55:-0.964 56:-0.905 57:-0.905 58:-0.762 59:-0.762 60:-0.462 61:0.462 62:-0.462 63:0.905 64:-0.462 65:-0.964 66:0.762 67:0.987 68:-0.905 69:-0.762 70:0 71:-0.905 72:0.462 73:-0.905 74:-0.762 75:0 76:-0.462 77:0.762 78:0 79:0 80:-0.462 81:-0.762 82:-0.905 83:-0.462 84:-0.762 85:0.964 86:0 87:-0.762 88:-0.462 89:-0.762 90:0 91:-0.762 92:-0.462 93:-0.462 94:-0.462 95:-0.462 96:-0.762 97:-0.462 98:-0.462 99:-0.462 100:0.462 101:0 102:0 103:-0.905 104:-0.462 105:-0.762 106:-0.462 107:-0.462 108:-0.964 109:-0.905 110:0 111:-0.964 112:-0.905 113:0.762 114:-0.762 115:0.964 116:0.762 117:-0.905 118:-0.905 119:-0.762 120:-0.762 121:-0.762 122:-0.462 123:0.462 124:-0.762 125:-0.462 126:-0.462 127:-0.462 128:-0.905 129:-0.462 130:-0.462 131:-0.964 132:-0.762 133:-0.762 134:-0.905 135:-0.462 136:-0.905 137:-0.762 138:-0.762 139:0.998 140:-0.462 141:-0.762 142:-0.462 143:-0.462 144:-0.762 145:-0.964 146:-0.462 147:-0.905 148:-0.762 149:-0.905 150:-0.462 151:0 152:-0.462 153:-0.762 154:0.999 155:-0.905 156:-0.462 157:-0.905 158:-0.762 159:0.462 160:-0.762 161:0 162:0 163:-0.462 164:-0.762 165:-0.905 166:-0.762 167:-0.462 168:0.762 169:-0.462 170:-0.462 171:-0.905 172:-0.905 173:0 174:-0.964 175:-0.905 176:0.964 177:-0.905 178:0.762 179:0.462 180:-0.905 181:-0.905 182:-0.905 183:-0.905 184:-0.762 185:-0.462 186:0.905 187:-0.905 188:-0.462 189:-0.462 190:-0.462 191:-0.462 192:-0.905 193:-0.905 194:0 195:-0.964 196:-0.905 197:0.964 198:-0.905 199:0.762 200:0.462 201:-0.905 202:-0.905 203:-0.905 204:-0.905 205:-0.762 206:-0.462 207:0.905 208:-0.905 209:-0.462 210:-0.462 211:-0.462 212:-0.462 213:-0.462 214:-0.462 215:-0.462 216:-0.462 217:-0.462 218:-0.462 219:-0.462 220:-0.462 221:-0.462 222:-0.462 223:-0.462 224:-0.462 225:-0.462 226:-0.462 227:-0.462 228:-0.462 229:-0.462 230:-0.462 231:-0.462 232:0.56 233:0.099 234:-0.284 235:0.356 236:0.136 237:0.595 238:0.202 239:0.325 240:0.616 
109.13685610619 1:-0.512 2:-0.66 3:-0.633 4:-0.326 5:-0.151 6:-0.887 7:-0.326 8:0.002 9:-0.354 10:0.151 11:0.304 12:-0.58 13:-0.757 14:-0.129 15:-0.354 16:-0.508 17:-0.512 18:-0.1 19:-0.508 20:-0.462 21:-0.219 22:-0.762 23:-0.762 24:-0.905 25:-0.905 26:0.995 27:-0.905 28:-0.462 29:0 30:-0.905 31:0 32:0 33:-0.905 34:-0.964 35:-0.905 36:-0.905 37:-0.762 38:-0.762 39:-0.462 40:0.462 41:-0.462 42:0.905 43:0.462 44:-0.462 45:0 46:0 47:-0.762 48:0 49:-0.462 50:-0.762 51:0 52:-0.762 53:-0.462 54:0.462 55:-0.462 56:0 57:-0.462 58:0.964 59:0.462 60:-0.762 61:-0.905 62:-0.462 63:-0.762 64:-0.762 65:-0.905 66:0.995 67:0.762 68:-0.905 69:-0.462 70:-0.462 71:-0.905 72:-0.462 73:-0.964 74:-0.905 75:0.462 76:-0.462 77:0 78:-0.762 79:0 80:-0.462 81:-0.905 82:-0.964 83:-0.462 84:-0.905 85:0.964 86:0 87:-0.762 88:-0.462 89:-0.762 90:0 91:-0.762 92:-0.462 93:-0.462 94:-0.462 95:-0.462 96:-0.762 97:-0.462 98:-0.462 99:-0.462 100:0.462 101:0 102:0 103:-0.905 104:-0.462 105:-0.762 106:-0.462 107:-0.905 108:-0.462 109:0.462 110:-0.905 111:-0.762 112:-0.462 113:-0.905 114:0.987 115:-0.762 116:-0.462 117:0 118:-0.462 119:0.462 120:0.762 121:0 122:-0.462 123:-0.762 124:-0.905 125:-0.462 126:-0.762 127:0.964 128:0 129:-0.762 130:-0.462 131:-0.762 132:0 133:-0.762 134:-0.462 135:-0.462 136:-0.462 137:-0.462 138:-0.762 139:-0.462 140:-0.462 141:-0.462 142:0.462 143:0 144:0 145:-0.905 146:-0.462 147:-0.762 148:-0.762 149:-0.905 150:0.462 151:0 152:-0.905 153:0 154:0.462 155:-0.905 156:0 157:-0.905 158:-0.762 159:0.995 160:-0.762 161:0 162:0 163:0.462 164:0 165:-0.905 166:-0.964 167:-0.462 168:-0.762 169:0 170:1 171:-0.905 172:-0.964 173:-0.762 174:-0.905 175:-0.905 176:-0.462 177:-0.905 178:-0.462 179:-0.462 180:-0.905 181:-0.905 182:-0.905 183:-0.905 184:-0.462 185:-0.462 186:-0.462 187:-0.762 188:-0.462 189:-0.762 190:0 191:-0.462 192:-0.462 193:-0.462 194:-0.762 195:-0.762 196:-0.762 197:-0.462 198:-0.462 199:-0.462 200:-0.462 201:0 202:-0.462 203:-0.462 204:-0.462 205:0.462 206:0.987 207:0 208:-0.762 209:-0.462 210:-0.762 211:0.405 212:-0.398 213:-0.127 214:0.098 215:-0.81 216:-0.254 217:-0.458 218:-0.66 219:-0.077 220:-0.66 221:-0.562 222:-0.304 223:-0.462 224:0.023 225:-0.308 226:0.392 227:-0.077 228:-0.381 229:-0.905 230:-0.462 231:-0.762 232:0.999 233:-0.059 234:-0.099 235:0.356 236:-0.004 237:0.569 238:0.589 239:-0.236 240:0.3 
128 1:-0.462 2:-0.462 3:-0.462 4:-0.462 5:-0.462 6:-0.462 7:-0.462 8:-0.462 9:-0.462 10:-0.462 11:-0.462 12:-0.462 13:-0.462 14:-0.462 15:-0.462 16:-0.462 17:-0.462 18:-0.462 19:-0.462 20:-0.462 21:-0.462 22:-0.462 23:-0.462 24:-0.964 25:-0.905 26:0 27:-0.964 28:-0.905 29:0.762 30:-0.762 31:0.964 32:0.762 33:-0.905 34:-0.905 35:-0.762 36:-0.762 37:-0.762 38:-0.462 39:0.462 40:-0.762 41:-0.462 42:-0.462 43:0.964 44:0 45:-0.762 46:-0.462 47:-0.762 48:0 49:-0.762 50:-0.462 51:-0.462 52:-0.462 53:-0.462 54:-0.762 55:-0.462 56:-0.462 57:-0.462 58:0.462 59:0 60:0 61:-0.905 62:-0.462 63:-0.762 64:0.462 65:-0.462 66:0 67:0 68:-0.762 69:0 70:-0.462 71:-0.762 72:0 73:-0.762 74:-0.462 75:0.462 76:-0.462 77:0 78:-0.462 79:0.964 80:0.462 81:-0.762 82:-0.905 83:-0.462 84:-0.762 85:-0.762 86:-0.762 87:-0.905 88:-0.905 89:0.995 90:-0.905 91:-0.462 92:0 93:-0.905 94:0 95:0 96:-0.905 97:-0.964 98:-0.905 99:-0.905 100:-0.762 101:-0.762 102:-0.462 103:0.462 104:-0.462 105:0.905 106:0 107:-0.462 108:-0.462 109:-0.462 110:-0.762 111:-0.762 112:-0.762 113:-0.462 114:-0.462 115:-0.462 116:-0.462 117:0 118:-0.462 119:-0.462 120:-0.462 121:0.462 122:0.987 123:0 124:-0.762 125:-0.462 126:-0.762 127:-0.462 128:-0.905 129:-0.462 130:-0.462 131:-0.964 132:-0.762 133:-0.762 134:-0.905 135:-0.462 136:-0.905 137:-0.762 138:-0.762 139:0.998 140:-0.462 141:-0.762 142:-0.462 143:-0.462 144:-0.762 145:-0.964 146:-0.462 147:-0.905 148:0 149:-0.462 150:-0.905 151:-0.762 152:-0.462 153:-0.905 154:-0.905 155:0.905 156:-0.762 157:0.462 158:0.462 159:-0.905 160:-0.762 161:-0.762 162:-0.905 163:-0.762 164:0 165:0.964 166:-0.905 167:-0.462 168:-0.462 169:-0.462 170:-0.462 171:-0.905 172:-0.905 173:0 174:-0.964 175:-0.905 176:0.964 177:-0.905 178:0.762 179:0.462 180:-0.905 181:-0.905 182:-0.905 183:-0.905 184:-0.762 185:-0.462 186:0.905 187:-0.905 188:-0.462 189:-0.462 190:-0.462 191:-0.905 192:0 193:0.762 194:-0.905 195:-0.762 196:0 197:-0.905 198:0.462 199:-0.762 200:0 201:0 202:-0.462 203:0.987 204:0.462 205:0 206:-0.462 207:-0.762 208:-0.762 209:-0.462 210:-0.462 211:-0.662 212:-0.905 213:0.663 214:0.762 215:-0.905 216:-0.562 217:-0.308 218:-0.905 219:-0.154 220:-0.897 221:-0.603 222:0.308 223:-0.462 224:0.329 225:-0.354 226:0 227:-0.462 228:-0.857 229:-0.897 230:-0.462 231:-0.757 232:0.538 233:-0.115 234:-0.04 235:0.127 236:0.063 237:0.595 238:0.002 239:0.325 240:-0.317 
-23.04077594565732 1:-0.712 2:-0.831 3:-0.084 4:-0.151 5:-0.607 6:-0.415 7:0.413 8:-0.627 9:-0.281 10:-0.594 11:-0.508 12:0.501 13:-0.786 14:-0.127 15:-0.127 16:-0.05 17:-0.331 18:-0.677 19:-0.863 20:-0.462 21:-0.204 22:-0.462 23:-0.462 24:-0.964 25:-0.905 26:0 27:-0.964 28:-0.905 29:0.762 30:-0.762 31:0.964 32:0.762 33:-0.905 34:-0.905 35:-0.762 36:-0.762 37:-0.762 38:-0.462 39:0.462 40:-0.762 41:-0.462 42:-0.462 43:0.462 44:-0.462 45:0 46:0 47:-0.762 48:0 49:-0.462 50:-0.762 51:0 52:-0.762 53:-0.462 54:0.462 55:-0.462 56:0 57:-0.462 58:0.964 59:0.462 60:-0.762 61:-0.905 62:-0.462 63:-0.762 64:-0.762 65:-0.905 66:0.995 67:0.762 68:-0.905 69:-0.462 70:-0.462 71:-0.905 72:-0.462 73:-0.964 74:-0.905 75:0.462 76:-0.462 77:0 78:-0.762 79:0 80:-0.462 81:-0.905 82:-0.964 83:-0.462 84:-0.905 85:-0.462 86:-0.462 87:-0.964 88:-0.905 89:0 90:-0.964 91:-0.905 92:0.762 93:-0.762 94:0.964 95:0.762 96:-0.905 97:-0.905 98:-0.762 99:-0.762 100:-0.762 101:-0.462 102:0.462 103:-0.762 104:-0.462 105:-0.462 106:-0.762 107:-0.762 108:-0.905 109:-0.762 110:0.905 111:-0.905 112:0.762 113:-0.462 114:-0.762 115:-0.462 116:-0.462 117:-0.762 118:-0.905 119:-0.462 120:-0.762 121:-0.762 122:-0.762 123:-0.462 124:0.762 125:-0.462 126:0.998 127:0.964 128:0 129:-0.762 130:-0.462 131:-0.762 132:0 133:-0.762 134:-0.462 135:-0.462 136:-0.462 137:-0.462 138:-0.762 139:-0.462 140:-0.462 141:-0.462 142:0.462 143:0 144:0 145:-0.905 146:-0.462 147:-0.762 148:-0.462 149:-0.462 150:-0.964 151:-0.905 152:0 153:-0.964 154:-0.905 155:0.762 156:-0.762 157:0.964 158:0.762 159:-0.905 160:-0.905 161:-0.762 162:-0.762 163:-0.762 164:-0.462 165:0.462 166:-0.762 167:-0.462 168:-0.462 169:-0.462 170:-0.462 171:-0.905 172:-0.905 173:0 174:-0.964 175:-0.905 176:0.964 177:-0.905 178:0.762 179:0.462 180:-0.905 181:-0.905 182:-0.905 183:-0.905 184:-0.762 185:-0.462 186:0.905 187:-0.905 188:-0.462 189:-0.462 190:0 191:-0.462 192:-0.462 193:-0.462 194:-0.762 195:-0.762 196:-0.762 197:-0.462 198:-0.462 199:-0.462 200:-0.462 201:0 202:-0.462 203:-0.462 204:-0.462 205:0.462 206:0.987 207:0 208:-0.762 209:-0.462 210:-0.762 211:-0.462 212:-0.713 213:0.15 214:0.263 215:-0.683 216:-0.612 217:-0.231 218:-0.683 219:0 220:-0.683 221:-0.612 222:-0.231 223:-0.462 224:0.15 225:-0.231 226:-0.231 227:-0.462 228:-0.612 229:-0.683 230:-0.462 231:-0.612 232:0.538 233:-0.059 234:-0.099 235:0.244 236:0.112 237:0.569 238:0.206 239:0.325 240:0.3 
-128 1:0 2:-0.462 3:-0.462 4:-0.452 5:-0.381 6:-0.482 7:-0.683 8:0.067 9:-0.429 10:0.034 11:0.05 12:-0.221 13:-0.683 14:-0.429 15:-0.66 16:0.101 17:0 18:-0.002 19:-0.881 20:-0.462 21:-0.612 22:-0.762 23:-0.762 24:-0.905 25:-0.905 26:0.995 27:-0.905 28:-0.462 29:0 30:-0.905 31:0 32:0 33:-0.905 34:-0.964 35:-0.905 36:-0.905 37:-0.762 38:-0.762 39:-0.462 40:0.462 41:-0.462 42:0.905 43:-0.762 44:-0.762 45:-0.905 46:-0.905 47:0.995 48:-0.905 49:-0.462 50:0 51:-0.905 52:0 53:0 54:-0.905 55:-0.964 56:-0.905 57:-0.905 58:-0.762 59:-0.762 60:-0.462 61:0.462 62:-0.462 63:0.905 64:0 65:-0.905 66:-0.462 67:-0.762 68:-0.905 69:0.995 70:-0.762 71:-0.964 72:-0.762 73:-0.964 74:-0.905 75:0 76:-0.762 77:-0.762 78:-0.762 79:0 80:-0.762 81:-0.905 82:-0.762 83:-0.462 84:-0.905 85:-0.462 86:-0.964 87:0.762 88:0.987 89:-0.905 90:-0.762 91:0 92:-0.905 93:0.462 94:-0.905 95:-0.762 96:0 97:-0.462 98:0.762 99:0 100:0 101:-0.462 102:-0.762 103:-0.905 104:-0.462 105:-0.762 106:-0.462 107:-0.462 108:-0.905 109:-0.905 110:0 111:-0.964 112:-0.905 113:0.964 114:-0.905 115:0.762 116:0.462 117:-0.905 118:-0.905 119:-0.905 120:-0.905 121:-0.762 122:-0.462 123:0.905 124:-0.905 125:-0.462 126:-0.462 127:-0.462 128:-0.905 129:-0.462 130:-0.462 131:-0.964 132:-0.762 133:-0.762 134:-0.905 135:-0.462 136:-0.905 137:-0.762 138:-0.762 139:0.998 140:-0.462 141:-0.762 142:-0.462 143:-0.462 144:-0.762 145:-0.964 146:-0.462 147:-0.905 148:0.462 149:-0.462 150:0 151:0 152:-0.762 153:0 154:-0.462 155:-0.762 156:0 157:-0.762 158:-0.462 159:0.462 160:-0.462 161:0 162:-0.462 163:0.964 164:0.462 165:-0.762 166:-0.905 167:-0.462 168:-0.762 169:-0.462 170:-0.462 171:-0.905 172:-0.905 173:0 174:-0.964 175:-0.905 176:0.964 177:-0.905 178:0.762 179:0.462 180:-0.905 181:-0.905 182:-0.905 183:-0.905 184:-0.762 185:-0.462 186:0.905 187:-0.905 188:-0.462 189:-0.462 190:-0.462 191:-0.462 192:-0.905 193:-0.905 194:0 195:-0.964 196:-0.905 197:0.964 198:-0.905 199:0.762 200:0.462 201:-0.905 202:-0.905 203:-0.905 204:-0.905 205:-0.762 206:-0.462 207:0.905 208:-0.905 209:-0.462 210:-0.462 211:-0.462 212:-0.462 213:-0.462 214:-0.462 215:-0.462 216:-0.462 217:-0.462 218:-0.462 219:-0.462 220:-0.462 221:-0.462 222:-0.462 223:-0.462 224:-0.462 225:-0.462 226:-0.462 227:-0.462 228:-0.462 229:-0.462 230:-0.462 231:-0.462 232:0.999 233:0.099 234:-0.154 235:0.025 236:0.18 237:0.595 238:0.239 239:0.325 240:0.616 
128 1:-0.308 2:-0.683 3:-0.302 4:0.079 5:-0.58 6:-0.702 7:-0.379 8:-0.258 9:-0.071 10:-0.254 11:0.077 12:-0.225 13:-0.61 14:0.192 15:-0.148 16:-0.093 17:-0.308 18:-0.206 19:-0.833 20:-0.462 21:-0.512 22:-0.462 23:-0.462 24:-0.964 25:-0.905 26:0 27:-0.964 28:-0.905 29:0.762 30:-0.762 31:0.964 32:0.762 33:-0.905 34:-0.905 35:-0.762 36:-0.762 37:-0.762 38:-0.462 39:0.462 40:-0.762 41:-0.462 42:-0.462 43:-0.462 44:-0.462 45:-0.905 46:-0.905 47:0 48:-0.964 49:-0.905 50:0.964 51:-0.905 52:0.762 53:0.462 54:-0.905 55:-0.905 56:-0.905 57:-0.905 58:-0.762 59:-0.462 60:0.905 61:-0.905 62:-0.462 63:-0.462 64:-0.762 65:-0.905 66:0.462 67:0 68:-0.905 69:0 70:0.462 71:-0.905 72:0 73:-0.905 74:-0.762 75:0.995 76:-0.762 77:0 78:0 79:0.462 80:0 81:-0.905 82:-0.964 83:-0.462 84:-0.762 85:-0.462 86:-0.905 87:-0.462 88:0.462 89:-0.905 90:-0.762 91:-0.462 92:-0.905 93:0.987 94:-0.762 95:-0.462 96:0 97:-0.462 98:0.462 99:0.762 100:0 101:-0.462 102:-0.762 103:-0.905 104:-0.462 105:-0.762 106:0.964 107:0 108:-0.762 109:-0.462 110:-0.762 111:0 112:-0.762 113:-0.462 114:-0.462 115:-0.462 116:-0.462 117:-0.762 118:-0.462 119:-0.462 120:-0.462 121:0.462 122:0 123:0 124:-0.905 125:-0.462 126:-0.762 127:0 128:-0.462 129:-0.905 130:-0.762 131:-0.462 132:-0.905 133:-0.905 134:0.905 135:-0.762 136:0.462 137:0.462 138:-0.905 139:-0.762 140:-0.762 141:-0.905 142:-0.762 143:0 144:0.964 145:-0.905 146:-0.462 147:-0.462 148:-0.762 149:-0.905 150:0.462 151:0 152:-0.905 153:0 154:0.462 155:-0.905 156:0 157:-0.905 158:-0.762 159:0.995 160:-0.762 161:0 162:0 163:0.462 164:0 165:-0.905 166:-0.964 167:-0.462 168:-0.762 169:0.964 170:0 171:-0.762 172:-0.462 173:-0.762 174:0 175:-0.762 176:-0.462 177:-0.462 178:-0.462 179:-0.462 180:-0.762 181:-0.462 182:-0.462 183:-0.462 184:0.462 185:0 186:0 187:-0.905 188:-0.462 189:-0.762 190:-0.462 191:-0.462 192:-0.964 193:-0.905 194:0 195:-0.964 196:-0.905 197:0.762 198:-0.762 199:0.964 200:0.762 201:-0.905 202:-0.905 203:-0.762 204:-0.762 205:-0.762 206:-0.462 207:0.462 208:-0.762 209:-0.462 210:-0.462 211:-0.462 212:-0.462 213:-0.683 214:-0.683 215:-0.231 216:-0.713 217:-0.683 218:0.251 219:-0.683 220:0.15 221:0 222:-0.683 223:-0.683 224:-0.683 225:-0.683 226:-0.612 227:-0.462 228:0.222 229:-0.683 230:-0.462 231:-0.462 232:0.538 233:0.586 234:-0.204 235:0.044 236:-0.386 237:0.531 238:0.589 239:0.109 240:0.437 
-128 1:-0.612 2:-0.76 3:-0.867 4:-0.532 5:0.151 6:-0.867 7:0.23 8:-0.406 9:-0.254 10:-0.324 11:-0.258 12:-0.532 13:-0.857 14:-0.204 15:-0.179 16:-0.662 17:-0.612 18:-0.456 19:-0.048 20:-0.462 21:0.168 22:-0.762 23:-0.762 24:-0.905 25:-0.905 26:0.995 27:-0.905 28:-0.462 29:0 30:-0.905 31:0 32:0 33:-0.905 34:-0.964 35:-0.905 36:-0.905 37:-0.762 38:-0.762 39:-0.462 40:0.462 41:-0.462 42:0.905 43:-0.462 44:-0.462 45:-0.905 46:-0.905 47:0 48:-0.964 49:-0.905 50:0.964 51:-0.905 52:0.762 53:0.462 54:-0.905 55:-0.905 56:-0.905 57:-0.905 58:-0.762 59:-0.462 60:0.905 61:-0.905 62:-0.462 63:-0.462 64:-0.462 65:-0.462 66:-0.905 67:-0.762 68:0 69:-0.905 70:-0.762 71:0.462 72:-0.462 73:0.762 74:0.987 75:-0.762 76:-0.762 77:0 78:-0.462 79:-0.462 80:-0.462 81:0.462 82:-0.462 83:-0.462 84:-0.462 85:0.964 86:0 87:-0.762 88:-0.462 89:-0.762 90:0 91:-0.762 92:-0.462 93:-0.462 94:-0.462 95:-0.462 96:-0.762 97:-0.462 98:-0.462 99:-0.462 100:0.462 101:0 102:0 103:-0.905 104:-0.462 105:-0.762 106:-0.762 107:-0.762 108:-0.905 109:-0.762 110:0.905 111:-0.905 112:0.762 113:-0.462 114:-0.762 115:-0.462 116:-0.462 117:-0.762 118:-0.905 119:-0.462 120:-0.762 121:-0.762 122:-0.762 123:-0.462 124:0.762 125:-0.462 126:0.998 127:0 128:-0.462 129:-0.905 130:-0.762 131:-0.462 132:-0.905 133:-0.905 134:0.905 135:-0.762 136:0.462 137:0.462 138:-0.905 139:-0.762 140:-0.762 141:-0.905 142:-0.762 143:0 144:0.964 145:-0.905 146:-0.462 147:-0.462 148:-0.762 149:-0.905 150:0.462 151:0 152:-0.905 153:0 154:0.462 155:-0.905 156:0 157:-0.905 158:-0.762 159:0.995 160:-0.762 161:0 162:0 163:0.462 164:0 165:-0.905 166:-0.964 167:-0.462 168:-0.762 169:-0.462 170:-0.905 171:0 172:0.762 173:-0.905 174:-0.762 175:0 176:-0.905 177:0.462 178:-0.762 179:0 180:0 181:-0.462 182:0.987 183:0.462 184:0 185:-0.462 186:-0.762 187:-0.762 188:-0.462 189:-0.462 190:0.964 191:0 192:-0.762 193:-0.462 194:-0.762 195:0 196:-0.762 197:-0.462 198:-0.462 199:-0.462 200:-0.462 201:-0.762 202:-0.462 203:-0.462 204:-0.462 205:0.462 206:0 207:0 208:-0.905 209:-0.462 210:-0.762 211:-0.462 212:-0.462 213:-0.462 214:-0.462 215:-0.462 216:-0.462 217:-0.462 218:-0.462 219:-0.462 220:-0.462 221:-0.462 222:-0.462 223:-0.462 224:-0.462 225:-0.462 226:-0.462 227:-0.462 228:-0.462 229:-0.462 230:-0.462 231:-0.462 232:0.999 233:0.586 234:0.079 235:0.356 236:0.112 237:0.531 238:0.589 239:-0.107 240:0.385 
-128 1:-0.154 2:-0.462 3:-0.559 4:-0.529 5:-0.331 6:-0.559 7:-0.683 8:0.05 9:-0.458 10:0.151 11:0.15 12:-0.376 13:-0.683 14:-0.458 15:-0.612 16:-0.137 17:-0.154 18:-0.1 19:-0.76 20:-0.462 21:-0.562 22:-0.762 23:-0.762 24:-0.905 25:-0.905 26:0.995 27:-0.905 28:-0.462 29:0 30:-0.905 31:0 32:0 33:-0.905 34:-0.964 35:-0.905 36:-0.905 37:-0.762 38:-0.762 39:-0.462 40:0.462 41:-0.462 42:0.905 43:0.462 44:-0.462 45:0 46:0 47:-0.762 48:0 49:-0.462 50:-0.762 51:0 52:-0.762 53:-0.462 54:0.462 55:-0.462 56:0 57:-0.462 58:0.964 59:0.462 60:-0.762 61:-0.905 62:-0.462 63:-0.762 64:-0.462 65:-0.462 66:-0.964 67:-0.905 68:0 69:-0.964 70:-0.905 71:0.762 72:-0.762 73:0.964 74:0.762 75:-0.905 76:-0.905 77:-0.762 78:-0.762 79:-0.762 80:-0.462 81:0.462 82:-0.762 83:-0.462 84:-0.462 85:-0.462 86:-0.462 87:-0.964 88:-0.905 89:0 90:-0.964 91:-0.905 92:0.762 93:-0.762 94:0.964 95:0.762 96:-0.905 97:-0.905 98:-0.762 99:-0.762 100:-0.762 101:-0.462 102:0.462 103:-0.762 104:-0.462 105:-0.462 106:-0.462 107:-0.462 108:-0.964 109:-0.905 110:0 111:-0.964 112:-0.905 113:0.762 114:-0.762 115:0.964 116:0.762 117:-0.905 118:-0.905 119:-0.762 120:-0.762 121:-0.762 122:-0.462 123:0.462 124:-0.762 125:-0.462 126:-0.462 127:0 128:-0.462 129:-0.905 130:-0.762 131:-0.462 132:-0.905 133:-0.905 134:0.905 135:-0.762 136:0.462 137:0.462 138:-0.905 139:-0.762 140:-0.762 141:-0.905 142:-0.762 143:0 144:0.964 145:-0.905 146:-0.462 147:-0.462 148:-0.462 149:-0.462 150:-0.905 151:-0.905 152:0 153:-0.964 154:-0.905 155:0.964 156:-0.905 157:0.762 158:0.462 159:-0.905 160:-0.905 161:-0.905 162:-0.905 163:-0.762 164:-0.462 165:0.905 166:-0.905 167:-0.462 168:-0.462 169:-0.462 170:-0.462 171:-0.905 172:-0.905 173:0 174:-0.964 175:-0.905 176:0.964 177:-0.905 178:0.762 179:0.462 180:-0.905 181:-0.905 182:-0.905 183:-0.905 184:-0.762 185:-0.462 186:0.905 187:-0.905 188:-0.462 189:-0.462 190:0.462 191:-0.462 192:0 193:0 194:-0.762 195:0 196:-0.462 197:-0.762 198:0 199:-0.762 200:-0.462 201:0.462 202:-0.462 203:0 204:-0.462 205:0.964 206:0.462 207:-0.762 208:-0.905 209:-0.462 210:-0.762 211:-0.712 212:-0.831 213:-0.238 214:-0.151 215:-0.533 216:-0.542 217:0.503 218:-0.627 219:-0.358 220:-0.594 221:-0.508 222:0.412 223:-0.786 224:-0.127 225:-0.127 226:-0.204 227:-0.458 228:-0.677 229:-0.829 230:-0.462 231:0.05 232:0.999 233:-0.059 234:-0.084 235:0.244 236:0.136 237:0.531 238:0.115 239:0.325 240:0.417 
-128 1:-0.562 2:-0.683 3:-0.734 4:-0.453 5:-0.305 6:-0.863 7:-0.12 8:0.03 9:-0.48 10:-0.048 11:-0.1 12:-0.298 13:-0.834 14:-0.376 15:-0.288 16:-0.612 17:-0.562 18:0 19:-0.857 20:-0.462 21:-0.104 22:-0.462 23:-0.462 24:-0.905 25:-0.905 26:0 27:-0.964 28:-0.905 29:0.964 30:-0.905 31:0.762 32:0.462 33:-0.905 34:-0.905 35:-0.905 36:-0.905 37:-0.762 38:-0.462 39:0.905 40:-0.905 41:-0.462 42:-0.462 43:0 44:-0.905 45:-0.462 46:-0.762 47:-0.905 48:0.995 49:-0.762 50:-0.964 51:-0.762 52:-0.964 53:-0.905 54:0 55:-0.762 56:-0.762 57:-0.762 58:0 59:-0.762 60:-0.905 61:-0.762 62:-0.462 63:-0.905 64:-0.462 65:-0.964 66:0.762 67:0.987 68:-0.905 69:-0.762 70:0 71:-0.905 72:0.462 73:-0.905 74:-0.762 75:0 76:-0.462 77:0.762 78:0 79:0 80:-0.462 81:-0.762 82:-0.905 83:-0.462 84:-0.762 85:0 86:-0.905 87:-0.462 88:-0.762 89:-0.905 90:0.995 91:-0.762 92:-0.964 93:-0.762 94:-0.964 95:-0.905 96:0 97:-0.762 98:-0.762 99:-0.762 100:0 101:-0.762 102:-0.905 103:-0.762 104:-0.462 105:-0.905 106:0 107:1 108:-0.905 109:-0.964 110:-0.762 111:-0.905 112:-0.905 113:-0.462 114:-0.905 115:-0.462 116:-0.462 117:-0.905 118:-0.905 119:-0.905 120:-0.905 121:-0.462 122:-0.462 123:-0.462 124:-0.762 125:-0.462 126:-0.762 127:-0.462 128:-0.905 129:-0.462 130:-0.462 131:-0.964 132:-0.762 133:-0.762 134:-0.905 135:-0.462 136:-0.905 137:-0.762 138:-0.762 139:0.998 140:-0.462 141:-0.762 142:-0.462 143:-0.462 144:-0.762 145:-0.964 146:-0.462 147:-0.905 148:-0.462 149:-0.905 150:-0.462 151:0.462 152:-0.905 153:-0.762 154:-0.462 155:-0.905 156:0.987 157:-0.762 158:-0.462 159:0 160:-0.462 161:0.462 162:0.762 163:0 164:-0.462 165:-0.762 166:-0.905 167:-0.462 168:-0.762 169:-0.462 170:-0.905 171:-0.462 172:-0.462 173:-0.964 174:-0.762 175:-0.762 176:-0.905 177:-0.462 178:-0.905 179:-0.762 180:-0.762 181:0.998 182:-0.462 183:-0.762 184:-0.462 185:-0.462 186:-0.762 187:-0.964 188:-0.462 189:-0.905 190:-0.762 191:-0.905 192:-0.462 193:0 194:-0.462 195:-0.762 196:0.999 197:-0.905 198:-0.462 199:-0.905 200:-0.762 201:0.462 202:-0.762 203:0 204:0 205:-0.462 206:-0.762 207:-0.905 208:-0.762 209:-0.462 210:0.762 211:-0.462 212:-0.683 213:-0.612 214:-0.231 215:-0.683 216:-0.612 217:-0.231 218:-0.683 219:0.15 220:-0.612 221:-0.462 222:-0.231 223:-0.612 224:0 225:0.263 226:-0.462 227:-0.462 228:-0.683 229:-0.683 230:-0.462 231:-0.612 232:0.499 233:-0.154 234:-0.284 235:0.249 236:0.287 237:0.595 238:0.157 239:0.12 240:-0.046 
-128 1:0.151 2:-0.452 3:-0.227 4:-0.104 5:-0.833 6:-0.127 7:-0.227 8:-0.683 9:-0.154 10:-0.66 11:-0.485 12:-0.049 13:-0.562 14:-0.067 15:-0.154 16:0.385 17:-0.077 18:-0.429 19:-0.901 20:-0.462 21:-0.712 22:-0.762 23:-0.762 24:-0.905 25:-0.762 26:0.905 27:-0.905 28:0.762 29:-0.462 30:-0.762 31:-0.462 32:-0.462 33:-0.762 34:-0.905 35:-0.462 36:-0.762 37:-0.762 38:-0.762 39:-0.462 40:0.762 41:-0.462 42:0.998 43:-0.462 44:-0.905 45:-0.462 46:0.462 47:-0.905 48:-0.762 49:-0.462 50:-0.905 51:0.987 52:-0.762 53:-0.462 54:0 55:-0.462 56:0.462 57:0.762 58:0 59:-0.462 60:-0.762 61:-0.905 62:-0.462 63:-0.762 64:-0.462 65:-0.905 66:0 67:0.762 68:-0.905 69:-0.762 70:0 71:-0.905 72:0.462 73:-0.762 74:0 75:0 76:-0.462 77:0.987 78:0.462 79:0 80:-0.462 81:-0.762 82:-0.762 83:-0.462 84:-0.462 85:-0.462 86:-0.462 87:-0.905 88:-0.762 89:0 90:-0.905 91:-0.762 92:0.462 93:-0.462 94:0.762 95:0.987 96:-0.762 97:-0.762 98:0 99:-0.462 100:-0.462 101:-0.462 102:0.462 103:-0.462 104:-0.462 105:-0.462 106:-0.462 107:-0.462 108:-0.905 109:-0.905 110:0 111:-0.964 112:-0.905 113:0.964 114:-0.905 115:0.762 116:0.462 117:-0.905 118:-0.905 119:-0.905 120:-0.905 121:-0.762 122:-0.462 123:0.905 124:-0.905 125:-0.462 126:-0.462 127:-0.462 128:-0.905 129:-0.462 130:0.462 131:-0.905 132:-0.762 133:-0.462 134:-0.905 135:0.987 136:-0.762 137:-0.462 138:0 139:-0.462 140:0.462 141:0.762 142:0 143:-0.462 144:-0.762 145:-0.905 146:-0.462 147:-0.762 148:0.462 149:-0.462 150:0 151:0 152:-0.762 153:0 154:-0.462 155:-0.762 156:0 157:-0.762 158:-0.462 159:0.462 160:-0.462 161:0 162:-0.462 163:0.964 164:0.462 165:-0.762 166:-0.905 167:-0.462 168:-0.762 169:-0.462 170:-0.905 171:-0.762 172:0 173:-0.905 174:-0.762 175:0 176:-0.905 177:0.762 178:-0.762 179:-0.462 180:0 181:-0.762 182:0.462 183:0.987 184:-0.462 185:-0.462 186:-0.905 187:-0.905 188:-0.462 189:-0.762 190:0 191:-0.462 192:-0.462 193:-0.462 194:-0.762 195:-0.762 196:-0.762 197:-0.462 198:-0.462 199:-0.462 200:-0.462 201:0 202:-0.462 203:-0.462 204:-0.462 205:0.462 206:0.987 207:0 208:-0.762 209:-0.462 210:-0.762 211:-0.462 212:-0.462 213:-0.713 214:-0.683 215:-0.231 216:-0.713 217:-0.683 218:0.15 219:-0.612 220:0.251 221:0.15 222:-0.683 223:-0.683 224:-0.612 225:-0.612 226:-0.612 227:-0.462 228:0 229:-0.612 230:-0.462 231:-0.462 232:1 233:0.478 234:-0.107 235:0.452 236:0.18 237:0.353 238:0.239 239:-0.017 240:0.3 
128 1:-0.612 2:-0.683 3:0.267 4:0.15 5:-0.683 6:-0.462 7:-0.462 8:-0.683 9:-0.462 10:-0.713 11:-0.683 12:0 13:-0.462 14:-0.231 15:-0.612 16:-0.231 17:-0.462 18:-0.683 19:-0.713 20:-0.462 21:-0.683 22:-0.462 23:-0.905 24:-0.762 25:0 26:-0.905 27:-0.762 28:0 29:-0.905 30:0.762 31:-0.762 32:-0.462 33:0 34:-0.762 35:0.462 36:0.987 37:-0.462 38:-0.462 39:-0.905 40:-0.905 41:-0.462 42:-0.762 43:0 44:-0.462 45:-0.462 46:-0.462 47:-0.762 48:-0.762 49:-0.762 50:-0.462 51:-0.462 52:-0.462 53:-0.462 54:0 55:-0.462 56:-0.462 57:-0.462 58:0.462 59:0.987 60:0 61:-0.762 62:-0.462 63:-0.762 64:-0.462 65:-0.964 66:0.762 67:0.987 68:-0.905 69:-0.762 70:0 71:-0.905 72:0.462 73:-0.905 74:-0.762 75:0 76:-0.462 77:0.762 78:0 79:0 80:-0.462 81:-0.762 82:-0.905 83:-0.462 84:-0.762 85:-0.462 86:-0.462 87:-0.964 88:-0.905 89:0 90:-0.964 91:-0.905 92:0.762 93:-0.762 94:0.964 95:0.762 96:-0.905 97:-0.905 98:-0.762 99:-0.762 100:-0.762 101:-0.462 102:0.462 103:-0.762 104:-0.462 105:-0.462 106:-0.462 107:-0.462 108:-0.964 109:-0.905 110:0 111:-0.964 112:-0.905 113:0.762 114:-0.762 115:0.964 116:0.762 117:-0.905 118:-0.905 119:-0.762 120:-0.762 121:-0.762 122:-0.462 123:0.462 124:-0.762 125:-0.462 126:-0.462 127:-0.462 128:-0.964 129:0.762 130:0.987 131:-0.905 132:-0.762 133:0 134:-0.905 135:0.462 136:-0.905 137:-0.762 138:0 139:-0.462 140:0.762 141:0 142:0 143:-0.462 144:-0.762 145:-0.905 146:-0.462 147:-0.762 148:-0.462 149:-0.462 150:-0.905 151:-0.762 152:0 153:-0.905 154:-0.762 155:0.462 156:-0.462 157:0.762 158:0.987 159:-0.762 160:-0.762 161:0 162:-0.462 163:-0.462 164:-0.462 165:0.462 166:-0.462 167:-0.462 168:-0.462 169:0 170:-0.462 171:-0.905 172:-0.762 173:-0.462 174:-0.905 175:-0.905 176:0.905 177:-0.762 178:0.462 179:0.462 180:-0.905 181:-0.762 182:-0.762 183:-0.905 184:-0.762 185:0 186:0.964 187:-0.905 188:-0.462 189:-0.462 190:0 191:1 192:-0.905 193:-0.964 194:-0.762 195:-0.905 196:-0.905 197:-0.462 198:-0.905 199:-0.462 200:-0.462 201:-0.905 202:-0.905 203:-0.905 204:-0.905 205:-0.462 206:-0.462 207:-0.462 208:-0.762 209:-0.462 210:-0.762 211:-0.712 212:-0.843 213:-0.48 214:-0.288 215:0.193 216:-0.834 217:0.102 218:-0.452 219:-0.529 220:-0.452 221:-0.381 222:-0.298 223:-0.813 224:-0.326 225:-0.453 226:-0.535 227:-0.712 228:-0.66 229:-0.174 230:-0.462 231:0.58 232:0.161 233:0.263 234:-0.284 235:0.244 236:0.136 237:-0.084 238:0.296 239:0.122 240:0.114 
126.1937750995255 1:-0.662 2:-0.905 3:0.308 4:0.254 5:-0.905 6:-0.254 7:0.308 8:-0.905 9:0.154 10:-0.857 11:-0.508 12:0.663 13:-0.662 14:0.329 15:0.154 16:0.308 17:-0.154 18:-0.857 19:-0.897 20:-0.462 21:-0.662 22:-0.762 23:-0.762 24:-0.905 25:-0.905 26:0.995 27:-0.905 28:-0.462 29:0 30:-0.905 31:0 32:0 33:-0.905 34:-0.964 35:-0.905 36:-0.905 37:-0.762 38:-0.762 39:-0.462 40:0.462 41:-0.462 42:0.905 43:-0.762 44:-0.762 45:-0.905 46:-0.905 47:0.995 48:-0.905 49:-0.462 50:0 51:-0.905 52:0 53:0 54:-0.905 55:-0.964 56:-0.905 57:-0.905 58:-0.762 59:-0.762 60:-0.462 61:0.462 62:-0.462 63:0.905 64:-0.905 65:-0.762 66:-0.964 67:-0.905 68:0.462 69:-0.762 70:-0.762 71:-0.905 72:-0.905 73:-0.762 74:-0.462 75:-0.964 76:-0.964 77:-0.762 78:-0.905 79:-0.905 80:-0.762 81:-0.905 82:1 83:-0.462 84:0.762 85:0.964 86:0 87:-0.762 88:-0.462 89:-0.762 90:0 91:-0.762 92:-0.462 93:-0.462 94:-0.462 95:-0.462 96:-0.762 97:-0.462 98:-0.462 99:-0.462 100:0.462 101:0 102:0 103:-0.905 104:-0.462 105:-0.762 106:0 107:-0.462 108:-0.905 109:-0.762 110:-0.462 111:-0.905 112:-0.905 113:0.905 114:-0.762 115:0.462 116:0.462 117:-0.905 118:-0.762 119:-0.762 120:-0.905 121:-0.762 122:0 123:0.964 124:-0.905 125:-0.462 126:-0.462 127:-0.462 128:-0.905 129:-0.462 130:0.462 131:-0.905 132:-0.762 133:-0.462 134:-0.905 135:0.987 136:-0.762 137:-0.462 138:0 139:-0.462 140:0.462 141:0.762 142:0 143:-0.462 144:-0.762 145:-0.905 146:-0.462 147:-0.762 148:-0.462 149:-0.905 150:-0.462 151:-0.462 152:-0.964 153:-0.762 154:-0.762 155:-0.905 156:-0.462 157:-0.905 158:-0.762 159:-0.762 160:0.998 161:-0.462 162:-0.762 163:-0.462 164:-0.462 165:-0.762 166:-0.964 167:-0.462 168:-0.905 169:-0.462 170:-0.905 171:-0.462 172:0.462 173:-0.905 174:-0.762 175:-0.462 176:-0.905 177:0.987 178:-0.762 179:-0.462 180:0 181:-0.462 182:0.462 183:0.762 184:0 185:-0.462 186:-0.762 187:-0.905 188:-0.462 189:-0.762 190:0 191:-0.462 192:-0.905 193:-0.762 194:-0.462 195:-0.905 196:-0.905 197:0.905 198:-0.762 199:0.462 200:0.462 201:-0.905 202:-0.762 203:-0.762 204:-0.905 205:-0.762 206:0 207:0.964 208:-0.905 209:-0.462 210:-0.462 211:-0.231 212:-0.61 213:-0.784 214:-0.458 215:-0.61 216:-0.784 217:-0.529 218:0.074 219:-0.204 220:-0.1 221:0 222:-0.529 223:-0.712 224:-0.304 225:-0.201 226:-0.612 227:-0.231 228:0.103 229:-0.831 230:-0.462 231:-0.562 232:0.999 233:0.099 234:0.215 235:0.356 236:-0.27 237:0.353 238:-0.215 239:0.231 240:0.473 
