svm_type nu_svr
kernel_type rbf
gamma 0.125
nr_class 2
total_sv 119
rho -0.230493
SV
-0.1952523971081015 1:-0.462 2:-0.462 3:-0.462 4:-0.462 5:-0.462 6:-0.462 7:-0.462 8:-0.462 9:-0.462 10:-0.462 11:-0.462 12:-0.462 13:-0.462 14:-0.462 15:-0.462 16:-0.462 17:-0.462 18:-0.462 19:-0.462 20:-0.462 21:-0.462 22:-0.762 23:-0.762 24:-0.905 25:-0.905 26:0.995 27:-0.905 28:-0.462 29:0 30:-0.905 31:0 32:0 33:-0.905 34:-0.964 35:-0.905 36:-0.905 37:-0.762 38:-0.762 39:-0.462 40:0.462 41:-0.462 42:0.905 43:0 44:-0.462 45:-0.462 46:-0.462 47:-0.762 48:-0.762 49:-0.762 50:-0.462 51:-0.462 52:-0.462 53:-0.462 54:0 55:-0.462 56:-0.462 57:-0.462 58:0.462 59:0.987 60:0 61:-0.762 62:-0.462 63:-0.762 64:-0.462 65:-0.905 66:-0.462 67:0.462 68:-0.905 69:-0.762 70:-0.462 71:-0.905 72:0.987 73:-0.762 74:-0.462 75:0 76:-0.462 77:0.462 78:0.762 79:0 80:-0.462 81:-0.762 82:-0.905 83:-0.462 84:-0.762 85:-0.462 86:-0.905 87:-0.462 88:0.462 89:-0.905 90:-0.762 91:-0.462 92:-0.905 93:0.987 94:-0.762 95:-0.462 96:0 97:-0.462 98:0.462 99:0.762 100:0 101:-0.462 102:-0.762 103:-0.905 104:-0.462 105:-0.762 106:-0.462 107:-0.462 108:-0.905 109:-0.762 110:0 111:-0.905 112:-0.762 113:0.462 114:-0.462 115:0.762 116:0.987 117:-0.762 118:-0.762 119:0 120:-0.462 121:-0.462 122:-0.462 123:0.462 124:-0.462 125:-0.462 126:-0.462 127:0 128:-0.462 129:-0.905 130:-0.762 131:-0.462 132:-0.905 133:-0.905 134:0.905 135:-0.762 136:0.462 137:0.462 138:-0.905 139:-0.762 140:-0.762 141:-0.905 142:-0.762 143:0 144:0.964 145:-0.905 146:-0.462 147:-0.462 148:-0.462 149:-0.964 150:0.762 151:0.987 152:-0.905 153:-0.762 154:0 155:-0.905 156:0.462 157:-0.905 158:-0.762 159:0 160:-0.462 161:0.762 162:0 163:0 164:-0.462 165:-0.762 166:-0.905 167:-0.462 168:-0.762 169:-0.762 170:-0.905 171:0.462 172:0 173:-0.905 174:0 175:0.462 176:-0.905 177:0 178:-0.905 179:-0.762 180:0.995 181:-0.762 182:0 183:0 184:0.462 185:0 186:-0.905 187:-0.964 188:-0.462 189:-0.762 190:0.964 191:0 192:-0.762 193:-0.462 194:-0.762 195:0 196:-0.762 197:-0.462 198:-0.462 199:-0.462 200:-0.462 201:-0.762 202:-0.462 203:-0.462 204:-0.462 205:0.462 206:0 207:0 208:-0.905 209:-0.462 210:-0.762 211:-0.462 212:-0.831 213:-0.536 214:0.234 215:-0.754 216:-0.796 217:-0.536 218:-0.594 219:0.672 220:-0.508 221:-0.308 222:-0.151 223:-0.536 224:0.234 225:0.484 226:-0.127 227:-0.462 228:-0.484 229:-0.905 230:-0.462 231:-0.712 232:-0.16 233:0.033 234:0.083 235:0.01 236:-0.062 237:0.927 238:0.166 239:-0.61 240:0.533 
0.07690069904356434 1:-0.562 2:-0.831 3:-0.007 4:0.23 5:-0.754 6:-0.542 7:0.003 8:-0.627 9:0.104 10:-0.522 11:-0.127 12:0.181 13:-0.636 14:0.366 15:0.104 16:0.027 17:-0.308 18:-0.606 19:-0.829 20:-0.462 21:-0.562 22:-0.462 23:-0.462 24:-0.905 25:-0.762 26:0 27:-0.905 28:-0.762 29:0.462 30:-0.462 31:0.762 32:0.987 33:-0.762 34:-0.762 35:0 36:-0.462 37:-0.462 38:-0.462 39:0.462 40:-0.462 41:-0.462 42:-0.462 43:0 44:-0.462 45:-0.905 46:-0.762 47:-0.462 48:-0.905 49:-0.905 50:0.905 51:-0.762 52:0.462 53:0.462 54:-0.905 55:-0.762 56:-0.762 57:-0.905 58:-0.762 59:0 60:0.964 61:-0.905 62:-0.462 63:-0.462 64:-0.462 65:-0.905 66:-0.762 67:0 68:-0.905 69:-0.762 70:0 71:-0.905 72:0.762 73:-0.762 74:-0.462 75:0 76:-0.762 77:0.462 78:0.987 79:-0.462 80:-0.462 81:-0.905 82:-0.905 83:-0.462 84:-0.762 85:0 86:-0.462 87:-0.462 88:-0.462 89:-0.762 90:-0.762 91:-0.762 92:-0.462 93:-0.462 94:-0.462 95:-0.462 96:0 97:-0.462 98:-0.462 99:-0.462 100:0.462 101:0.987 102:0 103:-0.762 104:-0.462 105:-0.762 106:0.964 107:0 108:-0.762 109:-0.462 110:-0.762 111:0 112:-0.762 113:-0.462 114:-0.462 115:-0.462 116:-0.462 117:-0.762 118:-0.462 119:-0.462 120:-0.462 121:0.462 122:0 123:0 124:-0.905 125:-0.462 126:-0.762 127:0.964 128:0 129:-0.762 130:-0.462 131:-0.762 132:0 133:-0.762 134:-0.462 135:-0.462 136:-0.462 137:-0.462 138:-0.762 139:-0.462 140:-0.462 141:-0.462 142:0.462 143:0 144:0 145:-0.905 146:-0.462 147:-0.762 148:-0.462 149:-0.964 150:0.762 151:0.987 152:-0.905 153:-0.762 154:0 155:-0.905 156:0.462 157:-0.905 158:-0.762 159:0 160:-0.462 161:0.762 162:0 163:0 164:-0.462 165:-0.762 166:-0.905 167:-0.462 168:-0.762 169:0 170:-0.462 171:-0.905 172:-0.762 173:-0.462 174:-0.905 175:-0.905 176:0.905 177:-0.762 178:0.462 179:0.462 180:-0.905 181:-0.762 182:-0.762 183:-0.905 184:-0.762 185:0 186:0.964 187:-0.905 188:-0.462 189:-0.462 190:0.964 191:0 192:-0.762 193:-0.462 194:-0.762 195:0 196:-0.762 197:-0.462 198:-0.462 199:-0.462 200:-0.462 201:-0.762 202:-0.462 203:-0.462 204:-0.462 205:0.462 206:0 207:0 208:-0.905 209:-0.462 210:-0.762 211:-0.462 212:-0.462 213:-0.462 214:-0.462 215:-0.462 216:-0.462 217:-0.462 218:-0.462 219:-0.462 220:-0.462 221:-0.462 222:-0.462 223:-0.462 224:-0.462 225:-0.462 226:-0.462 227:-0.462 228:-0.462 229:-0.462 230:-0.462 231:-0.462 232:0.193 233:-0.324 234:0.116 235:0.107 236:0.281 237:0.581 238:0.166 239:0.191 240:0.533 
0.1334453192252849 1:-0.529 2:-0.76 3:-0.713 4:-0.784 5:-0.148 6:-0.126 7:-0.712 8:-0.851 9:-0.784 10:-0.779 11:-0.61 12:-0.559 13:-0.813 14:-0.712 15:-0.784 16:-0.529 17:-0.712 18:-0.831 19:0.169 20:-0.462 21:0.002 22:-0.462 23:-0.462 24:-0.964 25:-0.905 26:0 27:-0.964 28:-0.905 29:0.762 30:-0.762 31:0.964 32:0.762 33:-0.905 34:-0.905 35:-0.762 36:-0.762 37:-0.762 38:-0.462 39:0.462 40:-0.762 41:-0.462 42:-0.462 43:0 44:1 45:-0.905 46:-0.964 47:-0.762 48:-0.905 49:-0.905 50:-0.462 51:-0.905 52:-0.462 53:-0.462 54:-0.905 55:-0.905 56:-0.905 57:-0.905 58:-0.462 59:-0.462 60:-0.462 61:-0.762 62:-0.462 63:-0.762 64:-0.462 65:-0.905 66:-0.462 67:0.462 68:-0.905 69:-0.762 70:-0.462 71:-0.905 72:0.987 73:-0.762 74:-0.462 75:0 76:-0.462 77:0.462 78:0.762 79:0 80:-0.462 81:-0.762 82:-0.905 83:-0.462 84:-0.762 85:-0.462 86:-0.462 87:-0.905 88:-0.762 89:0 90:-0.905 91:-0.762 92:0.462 93:-0.462 94:0.762 95:0.987 96:-0.762 97:-0.762 98:0 99:-0.462 100:-0.462 101:-0.462 102:0.462 103:-0.462 104:-0.462 105:-0.462 106:-0.762 107:-0.905 108:-0.462 109:0 110:-0.462 111:-0.762 112:0.999 113:-0.905 114:-0.462 115:-0.905 116:-0.762 117:0.462 118:-0.762 119:0 120:0 121:-0.462 122:-0.762 123:-0.905 124:-0.762 125:-0.462 126:0.762 127:0 128:-0.462 129:-0.462 130:-0.462 131:-0.762 132:-0.762 133:-0.762 134:-0.462 135:-0.462 136:-0.462 137:-0.462 138:0 139:-0.462 140:-0.462 141:-0.462 142:0.462 143:0.987 144:0 145:-0.762 146:-0.462 147:-0.762 148:0 149:-0.905 150:-0.462 151:-0.762 152:-0.905 153:0.995 154:-0.762 155:-0.964 156:-0.762 157:-0.964 158:-0.905 159:0 160:-0.762 161:-0.762 162:-0.762 163:0 164:-0.762 165:-0.905 166:-0.762 167:-0.462 168:-0.905 169:-0.462 170:-0.462 171:-0.905 172:-0.905 173:0 174:-0.964 175:-0.905 176:0.964 177:-0.905 178:0.762 179:0.462 180:-0.905 181:-0.905 182:-0.905 183:-0.905 184:-0.762 185:-0.462 186:0.905 187:-0.905 188:-0.462 189:-0.462 190:0 191:-0.462 192:-0.905 193:-0.762 194:-0.462 195:-0.905 196:-0.905 197:0.905 198:-0.762 199:0.462 200:0.462 201:-0.905 202:-0.762 203:-0.762 204:-0.905 205:-0.762 206:0 207:0.964 208:-0.905 209:-0.462 210:-0.462 211:-0.562 212:-0.905 213:-0.126 214:0.331 215:-0.905 216:-0.662 217:-0.231 218:-0.905 219:0.391 220:-0.829 221:-0.61 222:0.154 223:-0.612 224:0.308 225:0.366 226:-0.231 227:-0.462 228:-0.881 229:-0.925 230:-0.462 231:-0.81 232:-0.177 233:0.27 234:0.083 235:0.323 236:-0.039 237:0.663 238:0.025 239:-0.02 240:0.269 
-0.2308737227096553 1:-0.077 2:-0.831 3:-0.546 4:-0.786 5:-0.754 6:0.668 7:-0.786 8:-0.676 9:-0.762 10:-0.643 11:-0.627 12:-0.151 13:-0.786 14:-0.762 15:-0.762 16:-0.127 17:-0.712 18:-0.677 19:-0.762 20:-0.462 21:-0.831 22:-0.462 23:-0.905 24:-0.762 25:0 26:-0.905 27:-0.762 28:0 29:-0.905 30:0.762 31:-0.762 32:-0.462 33:0 34:-0.762 35:0.462 36:0.987 37:-0.462 38:-0.462 39:-0.905 40:-0.905 41:-0.462 42:-0.762 43:-0.762 44:-0.905 45:0.995 46:0.762 47:-0.905 48:-0.462 49:-0.462 50:-0.905 51:-0.462 52:-0.964 53:-0.905 54:0.462 55:-0.462 56:0 57:-0.762 58:0 59:-0.462 60:-0.905 61:-0.964 62:-0.462 63:-0.905 64:0.462 65:-0.462 66:0 67:0 68:-0.762 69:0 70:-0.462 71:-0.762 72:0 73:-0.762 74:-0.462 75:0.462 76:-0.462 77:0 78:-0.462 79:0.964 80:0.462 81:-0.762 82:-0.905 83:-0.462 84:-0.762 85:-0.462 86:-0.905 87:-0.762 88:0 89:-0.905 90:-0.762 91:0 92:-0.905 93:0.762 94:-0.762 95:-0.462 96:0 97:-0.762 98:0.462 99:0.987 100:-0.462 101:-0.462 102:-0.905 103:-0.905 104:-0.462 105:-0.762 106:0.462 107:-0.462 108:0 109:0 110:-0.762 111:0 112:-0.462 113:-0.762 114:0 115:-0.762 116:-0.462 117:0.462 118:-0.462 119:0 120:-0.462 121:0.964 122:0.462 123:-0.762 124:-0.905 125:-0.462 126:-0.762 127:0 128:-0.905 129:-0.462 130:-0.762 131:-0.905 132:0.995 133:-0.762 134:-0.964 135:-0.762 136:-0.964 137:-0.905 138:0 139:-0.762 140:-0.762 141:-0.762 142:0 143:-0.762 144:-0.905 145:-0.762 146:-0.462 147:-0.905 148:0.462 149:-0.462 150:0 151:0 152:-0.762 153:0 154:-0.462 155:-0.762 156:0 157:-0.762 158:-0.462 159:0.462 160:-0.462 161:0 162:-0.462 163:0.964 164:0.462 165:-0.762 166:-0.905 167:-0.462 168:-0.762 169:-0.462 170:-0.905 171:-0.462 172:-0.462 173:-0.964 174:-0.762 175:-0.762 176:-0.905 177:-0.462 178:-0.905 179:-0.762 180:-0.762 181:0.998 182:-0.462 183:-0.762 184:-0.462 185:-0.462 186:-0.762 187:-0.964 188:-0.462 189:-0.905 190:-0.462 191:-0.462 192:-0.905 193:-0.762 194:0 195:-0.905 196:-0.762 197:0.462 198:-0.462 199:0.762 200:0.987 201:-0.762 202:-0.762 203:0 204:-0.462 205:-0.462 206:-0.462 207:0.462 208:-0.462 209:-0.462 210:-0.462 211:0.251 212:-0.452 213:-0.762 214:-0.231 215:-0.833 216:-0.381 217:-0.381 218:-0.683 219:0.15 220:-0.612 221:-0.462 222:-0.381 223:-0.612 224:-0 225:0.262 226:0 227:-0.231 228:-0.452 229:-0.905 230:-0.462 231:-0.762 232:-0.361 233:0.019 234:0.03 235:0.233 236:-0.055 237:0.025 238:-0.186 239:-0.194 240:0.4 
-0.316139132543521 1:0.154 2:-0.536 3:-0.379 4:-0.331 5:-0.696 6:-0.429 7:-0.66 8:-0.23 9:-0.331 10:-0.378 11:-0.204 12:-0.198 13:-0.319 14:-0.331 15:-0.66 16:0.151 17:0.154 18:-0.187 19:-0.915 20:-0.462 21:-0.686 22:-0.462 23:-0.905 24:0 25:0.762 26:-0.905 27:-0.762 28:0 29:-0.905 30:0.462 31:-0.762 32:0 33:0 34:-0.462 35:0.987 36:0.462 37:0 38:-0.462 39:-0.762 40:-0.762 41:-0.462 42:-0.462 43:-0.462 44:-0.462 45:-0.964 46:-0.905 47:0 48:-0.964 49:-0.905 50:0.762 51:-0.762 52:0.964 53:0.762 54:-0.905 55:-0.905 56:-0.762 57:-0.762 58:-0.762 59:-0.462 60:0.462 61:-0.762 62:-0.462 63:-0.462 64:-0.462 65:-0.905 66:-0.762 67:0 68:-0.905 69:-0.762 70:0 71:-0.905 72:0.762 73:-0.762 74:-0.462 75:0 76:-0.762 77:0.462 78:0.987 79:-0.462 80:-0.462 81:-0.905 82:-0.905 83:-0.462 84:-0.762 85:-0.462 86:-0.462 87:-0.964 88:-0.905 89:0 90:-0.964 91:-0.905 92:0.762 93:-0.762 94:0.964 95:0.762 96:-0.905 97:-0.905 98:-0.762 99:-0.762 100:-0.762 101:-0.462 102:0.462 103:-0.762 104:-0.462 105:-0.462 106:0.964 107:0 108:-0.762 109:-0.462 110:-0.762 111:0 112:-0.762 113:-0.462 114:-0.462 115:-0.462 116:-0.462 117:-0.762 118:-0.462 119:-0.462 120:-0.462 121:0.462 122:0 123:0 124:-0.905 125:-0.462 126:-0.762 127:0 128:-0.462 129:-0.462 130:-0.462 131:-0.762 132:-0.762 133:-0.762 134:-0.462 135:-0.462 136:-0.462 137:-0.462 138:0 139:-0.462 140:-0.462 141:-0.462 142:0.462 143:0.987 144:0 145:-0.762 146:-0.462 147:-0.762 148:-0.462 149:-0.905 150:-0.462 151:-0.462 152:-0.964 153:-0.762 154:-0.762 155:-0.905 156:-0.462 157:-0.905 158:-0.762 159:-0.762 160:0.998 161:-0.462 162:-0.762 163:-0.462 164:-0.462 165:-0.762 166:-0.964 167:-0.462 168:-0.905 169:-0.462 170:-0.462 171:-0.964 172:-0.905 173:0 174:-0.964 175:-0.905 176:0.762 177:-0.762 178:0.964 179:0.762 180:-0.905 181:-0.905 182:-0.762 183:-0.762 184:-0.762 185:-0.462 186:0.462 187:-0.762 188:-0.462 189:-0.462 190:-0.462 191:-0.462 192:-0.964 193:-0.905 194:0 195:-0.964 196:-0.905 197:0.762 198:-0.762 199:0.964 200:0.762 201:-0.905 202:-0.905 203:-0.762 204:-0.762 205:-0.762 206:-0.462 207:0.462 208:-0.762 209:-0.462 210:-0.462 211:-0.462 212:-0.683 213:-0.813 214:-0.529 215:-0.462 216:-0.863 217:-0.58 218:-0.071 219:-0.204 220:0.077 221:0.1 222:-0.58 223:-0.54 224:-0.304 225:-0.179 226:-0.612 227:-0.462 228:-0.198 229:-0.843 230:-0.462 231:-0.636 232:0.054 233:-0.298 234:0.116 235:0.096 236:0.281 237:0.663 238:-0.073 239:-0.031 240:0.29 
-0.2305097444997932 1:-0.462 2:-0.462 3:-0.462 4:-0.462 5:-0.462 6:-0.462 7:-0.462 8:-0.462 9:-0.462 10:-0.462 11:-0.462 12:-0.462 13:-0.462 14:-0.462 15:-0.462 16:-0.462 17:-0.462 18:-0.462 19:-0.462 20:-0.462 21:-0.462 22:0.462 23:-0.462 24:0 25:0 26:-0.762 27:0 28:-0.462 29:-0.762 30:0 31:-0.762 32:-0.462 33:0.462 34:-0.462 35:0 36:-0.462 37:0.964 38:0.462 39:-0.762 40:-0.905 41:-0.462 42:-0.762 43:0.964 44:0 45:-0.762 46:-0.462 47:-0.762 48:0 49:-0.762 50:-0.462 51:-0.462 52:-0.462 53:-0.462 54:-0.762 55:-0.462 56:-0.462 57:-0.462 58:0.462 59:0 60:0 61:-0.905 62:-0.462 63:-0.762 64:-0.462 65:-0.462 66:-0.964 67:-0.905 68:0 69:-0.964 70:-0.905 71:0.762 72:-0.762 73:0.964 74:0.762 75:-0.905 76:-0.905 77:-0.762 78:-0.762 79:-0.762 80:-0.462 81:0.462 82:-0.762 83:-0.462 84:-0.462 85:-0.462 86:-0.462 87:-0.964 88:-0.905 89:0 90:-0.964 91:-0.905 92:0.762 93:-0.762 94:0.964 95:0.762 96:-0.905 97:-0.905 98:-0.762 99:-0.762 100:-0.762 101:-0.462 102:0.462 103:-0.762 104:-0.462 105:-0.462 106:0.462 107:-0.462 108:0 109:0 110:-0.762 111:0 112:-0.462 113:-0.762 114:0 115:-0.762 116:-0.462 117:0.462 118:-0.462 119:0 120:-0.462 121:0.964 122:0.462 123:-0.762 124:-0.905 125:-0.462 126:-0.762 127:0.462 128:-0.462 129:0 130:0 131:-0.762 132:0 133:-0.462 134:-0.762 135:0 136:-0.762 137:-0.462 138:0.462 139:-0.462 140:0 141:-0.462 142:0.964 143:0.462 144:-0.762 145:-0.905 146:-0.462 147:-0.762 148:-0.762 149:-0.905 150:0.995 151:0.762 152:-0.905 153:-0.462 154:-0.462 155:-0.905 156:-0.462 157:-0.964 158:-0.905 159:0.462 160:-0.462 161:0 162:-0.762 163:0 164:-0.462 165:-0.905 166:-0.964 167:-0.462 168:-0.905 169:-0.462 170:-0.462 171:-0.905 172:-0.905 173:0 174:-0.964 175:-0.905 176:0.964 177:-0.905 178:0.762 179:0.462 180:-0.905 181:-0.905 182:-0.905 183:-0.905 184:-0.762 185:-0.462 186:0.905 187:-0.905 188:-0.462 189:-0.462 190:0 191:-0.462 192:-0.462 193:-0.462 194:-0.762 195:-0.762 196:-0.762 197:-0.462 198:-0.462 199:-0.462 200:-0.462 201:0 202:-0.462 203:-0.462 204:-0.462 205:0.462 206:0.987 207:0 208:-0.762 209:-0.462 210:-0.762 211:0.636 212:-0.231 213:-0.532 214:-0.358 215:-0.712 216:-0.151 217:-0.686 218:-0.334 219:-0.358 220:-0.408 221:-0.308 222:-0.378 223:-0.512 224:-0.358 225:-0.536 226:0.425 227:0.154 228:-0.093 229:-0.905 230:-0.462 231:-0.712 232:-0.362 233:0.113 234:-0.545 235:0.096 236:-0.055 237:0.136 238:0.219 239:-0.02 240:0.21 
0.1828736654335139 1:-0.381 2:-0.686 3:-0.831 4:-0.762 5:0.148 6:-0.588 7:-0.048 8:-0.09 9:-0.762 10:-0.238 11:-0.228 12:-0.683 13:-0.834 14:-0.612 15:-0.81 16:-0.635 17:-0.508 18:-0.061 19:-0.048 20:-0.462 21:0.194 22:-0.462 23:-0.462 24:-0.905 25:-0.762 26:0 27:-0.905 28:-0.762 29:0.462 30:-0.462 31:0.762 32:0.987 33:-0.762 34:-0.762 35:0 36:-0.462 37:-0.462 38:-0.462 39:0.462 40:-0.462 41:-0.462 42:-0.462 43:0 44:-0.905 45:-0.462 46:-0.762 47:-0.905 48:0.995 49:-0.762 50:-0.964 51:-0.762 52:-0.964 53:-0.905 54:0 55:-0.762 56:-0.762 57:-0.762 58:0 59:-0.762 60:-0.905 61:-0.762 62:-0.462 63:-0.905 64:-0.762 65:-0.905 66:0.462 67:0 68:-0.905 69:0 70:0.462 71:-0.905 72:0 73:-0.905 74:-0.762 75:0.995 76:-0.762 77:0 78:0 79:0.462 80:0 81:-0.905 82:-0.964 83:-0.462 84:-0.762 85:-0.462 86:-0.462 87:-0.964 88:-0.905 89:0 90:-0.964 91:-0.905 92:0.762 93:-0.762 94:0.964 95:0.762 96:-0.905 97:-0.905 98:-0.762 99:-0.762 100:-0.762 101:-0.462 102:0.462 103:-0.762 104:-0.462 105:-0.462 106:0 107:-0.462 108:-0.462 109:-0.462 110:-0.762 111:-0.762 112:-0.762 113:-0.462 114:-0.462 115:-0.462 116:-0.462 117:0 118:-0.462 119:-0.462 120:-0.462 121:0.462 122:0.987 123:0 124:-0.762 125:-0.462 126:-0.762 127:0 128:-0.462 129:-0.462 130:-0.462 131:-0.762 132:-0.762 133:-0.762 134:-0.462 135:-0.462 136:-0.462 137:-0.462 138:0 139:-0.462 140:-0.462 141:-0.462 142:0.462 143:0.987 144:0 145:-0.762 146:-0.462 147:-0.762 148:-0.462 149:-0.905 150:0 151:0.762 152:-0.905 153:-0.762 154:0 155:-0.905 156:0.462 157:-0.762 158:0 159:0 160:-0.462 161:0.987 162:0.462 163:0 164:-0.462 165:-0.762 166:-0.762 167:-0.462 168:-0.462 169:-0.462 170:-0.905 171:0 172:0.762 173:-0.905 174:-0.762 175:0 176:-0.905 177:0.462 178:-0.762 179:0 180:0 181:-0.462 182:0.987 183:0.462 184:0 185:-0.462 186:-0.762 187:-0.762 188:-0.462 189:-0.462 190:-0.462 191:-0.462 192:-0.964 193:-0.905 194:0 195:-0.964 196:-0.905 197:0.762 198:-0.762 199:0.964 200:0.762 201:-0.905 202:-0.905 203:-0.762 204:-0.762 205:-0.762 206:-0.462 207:0.462 208:-0.762 209:-0.462 210:-0.462 211:-0.612 212:-0.683 213:0.267 214:0.15 215:-0.683 216:-0.462 217:-0.462 218:-0.683 219:-0.462 220:-0.713 221:-0.683 222:0 223:-0.462 224:-0.231 225:-0.612 226:-0.231 227:-0.462 228:-0.683 229:-0.713 230:-0.462 231:-0.683 232:0.193 233:-0.18 234:0.006 235:0.096 236:0.033 237:0.663 238:0.211 239:0.033 240:0.29 
-0.2116949053523161 1:-0.612 2:-0.925 3:0.408 4:0.252 5:-0.915 6:-0.381 7:0.104 8:-0.905 9:0.077 10:-0.905 11:-0.762 12:0.37 13:-0.369 14:0.177 15:-0.127 16:0.154 17:-0.231 18:-0.834 19:-0.944 20:-0.462 21:-0.786 22:0 23:-0.905 24:-0.462 25:-0.762 26:-0.905 27:0.995 28:-0.762 29:-0.964 30:-0.762 31:-0.964 32:-0.905 33:0 34:-0.762 35:-0.762 36:-0.762 37:0 38:-0.762 39:-0.905 40:-0.762 41:-0.462 42:-0.905 43:-0.462 44:-0.905 45:-0.462 46:0.462 47:-0.905 48:-0.762 49:-0.462 50:-0.905 51:0.987 52:-0.762 53:-0.462 54:0 55:-0.462 56:0.462 57:0.762 58:0 59:-0.462 60:-0.762 61:-0.905 62:-0.462 63:-0.762 64:-0.462 65:-0.905 66:-0.462 67:-0.462 68:-0.964 69:-0.762 70:-0.762 71:-0.905 72:-0.462 73:-0.905 74:-0.762 75:-0.762 76:0.998 77:-0.462 78:-0.762 79:-0.462 80:-0.462 81:-0.762 82:-0.964 83:-0.462 84:-0.905 85:-0.762 86:-0.905 87:0.462 88:0 89:-0.905 90:0 91:0.462 92:-0.905 93:0 94:-0.905 95:-0.762 96:0.995 97:-0.762 98:0 99:0 100:0.462 101:0 102:-0.905 103:-0.964 104:-0.462 105:-0.762 106:-0.462 107:-0.462 108:-0.905 109:-0.905 110:0 111:-0.964 112:-0.905 113:0.964 114:-0.905 115:0.762 116:0.462 117:-0.905 118:-0.905 119:-0.905 120:-0.905 121:-0.762 122:-0.462 123:0.905 124:-0.905 125:-0.462 126:-0.462 127:-0.462 128:-0.462 129:-0.964 130:-0.905 131:0 132:-0.964 133:-0.905 134:0.762 135:-0.762 136:0.964 137:0.762 138:-0.905 139:-0.905 140:-0.762 141:-0.762 142:-0.762 143:-0.462 144:0.462 145:-0.762 146:-0.462 147:-0.462 148:-0.762 149:-0.905 150:0.462 151:0 152:-0.905 153:0 154:0.462 155:-0.905 156:0 157:-0.905 158:-0.762 159:0.995 160:-0.762 161:0 162:0 163:0.462 164:0 165:-0.905 166:-0.964 167:-0.462 168:-0.762 169:0 170:1 171:-0.905 172:-0.964 173:-0.762 174:-0.905 175:-0.905 176:-0.462 177:-0.905 178:-0.462 179:-0.462 180:-0.905 181:-0.905 182:-0.905 183:-0.905 184:-0.462 185:-0.462 186:-0.462 187:-0.762 188:-0.462 189:-0.762 190:-0.762 191:-0.762 192:-0.905 193:-0.762 194:0.905 195:-0.905 196:0.762 197:-0.462 198:-0.762 199:-0.462 200:-0.462 201:-0.762 202:-0.905 203:-0.462 204:-0.762 205:-0.762 206:-0.762 207:-0.462 208:0.762 209:-0.462 210:0.998 211:-0.077 212:-0.462 213:-0.683 214:-0.612 215:-0.562 216:-0.784 217:-0.784 218:0.222 219:-0.612 220:0 221:0 222:-0.529 223:-0.612 224:-0.612 225:-0.683 226:-0.304 227:0.252 228:0.405 229:-0.784 230:-0.462 231:-0.562 232:-0.421 233:0.1 234:-0.117 235:-0.148 236:-0.114 237:0.722 238:0.385 239:-0.142 240:0.737 
0.1872007727630467 1:-0.462 2:-0.934 3:0.381 4:0.874 5:-0.905 6:-0.762 7:0 8:-0.905 9:0.462 10:-0.833 11:-0.381 12:0 13:-0.462 14:0.875 15:0.231 16:0 17:-0.462 18:-0.762 19:-0.833 20:-0.462 21:-0.612 22:0 23:-0.462 24:-0.462 25:-0.462 26:-0.762 27:-0.762 28:-0.762 29:-0.462 30:-0.462 31:-0.462 32:-0.462 33:0 34:-0.462 35:-0.462 36:-0.462 37:0.462 38:0.987 39:0 40:-0.762 41:-0.462 42:-0.762 43:-0.462 44:-0.905 45:0 46:0.762 47:-0.905 48:-0.762 49:0 50:-0.905 51:0.462 52:-0.762 53:0 54:0 55:-0.462 56:0.987 57:0.462 58:0 59:-0.462 60:-0.762 61:-0.762 62:-0.462 63:-0.462 64:-0.462 65:-0.905 66:0 67:0.762 68:-0.905 69:-0.762 70:0 71:-0.905 72:0.462 73:-0.762 74:0 75:0 76:-0.462 77:0.987 78:0.462 79:0 80:-0.462 81:-0.762 82:-0.762 83:-0.462 84:-0.462 85:-0.462 86:-0.462 87:-0.905 88:-0.905 89:0 90:-0.964 91:-0.905 92:0.964 93:-0.905 94:0.762 95:0.462 96:-0.905 97:-0.905 98:-0.905 99:-0.905 100:-0.762 101:-0.462 102:0.905 103:-0.905 104:-0.462 105:-0.462 106:-0.462 107:-0.905 108:-0.762 109:0 110:-0.905 111:-0.762 112:0 113:-0.905 114:0.762 115:-0.762 116:-0.462 117:0 118:-0.762 119:0.462 120:0.987 121:-0.462 122:-0.462 123:-0.905 124:-0.905 125:-0.462 126:-0.762 127:-0.462 128:-0.462 129:-0.964 130:-0.905 131:0 132:-0.964 133:-0.905 134:0.762 135:-0.762 136:0.964 137:0.762 138:-0.905 139:-0.905 140:-0.762 141:-0.762 142:-0.762 143:-0.462 144:0.462 145:-0.762 146:-0.462 147:-0.462 148:-0.462 149:-0.905 150:0 151:0.762 152:-0.905 153:-0.762 154:0 155:-0.905 156:0.462 157:-0.762 158:0 159:0 160:-0.462 161:0.987 162:0.462 163:0 164:-0.462 165:-0.762 166:-0.762 167:-0.462 168:-0.462 169:0.964 170:0 171:-0.762 172:-0.462 173:-0.762 174:0 175:-0.762 176:-0.462 177:-0.462 178:-0.462 179:-0.462 180:-0.762 181:-0.462 182:-0.462 183:-0.462 184:0.462 185:0 186:0 187:-0.905 188:-0.462 189:-0.762 190:-0.462 191:-0.964 192:0.762 193:0.987 194:-0.905 195:-0.762 196:0 197:-0.905 198:0.462 199:-0.905 200:-0.762 201:0 202:-0.462 203:0.762 204:0 205:0 206:-0.462 207:-0.762 208:-0.905 209:-0.462 210:-0.762 211:-0.562 212:-0.636 213:-0.754 214:-0.627 215:0.181 216:-0.911 217:-0.607 218:0.331 219:-0.677 220:0.254 221:0.231 222:-0.754 223:-0.851 224:-0.59 225:-0.677 226:-0.635 227:-0.562 228:0.171 229:-0.425 230:-0.462 231:-0.006 232:0.013 233:-0.039 234:-0.067 235:0.242 236:-0.146 237:0.722 238:0.211 239:0.246 240:-0.254 
-0.2305550866921953 1:0 2:-0.462 3:-0.231 4:-0.231 5:-0.612 6:-0.231 7:-0.462 8:-0.612 9:-0.231 10:-0.612 11:-0.462 12:0 13:-0.462 14:-0.231 15:-0.462 16:0.251 17:0 18:-0.612 19:-0.683 20:-0.462 21:-0.612 22:-0.462 23:-0.462 24:-0.964 25:-0.905 26:0 27:-0.964 28:-0.905 29:0.762 30:-0.762 31:0.964 32:0.762 33:-0.905 34:-0.905 35:-0.762 36:-0.762 37:-0.762 38:-0.462 39:0.462 40:-0.762 41:-0.462 42:-0.462 43:-0.462 44:-0.905 45:-0.462 46:0.462 47:-0.905 48:-0.762 49:-0.462 50:-0.905 51:0.987 52:-0.762 53:-0.462 54:0 55:-0.462 56:0.462 57:0.762 58:0 59:-0.462 60:-0.762 61:-0.905 62:-0.462 63:-0.762 64:-0.462 65:-0.462 66:-0.905 67:-0.762 68:0 69:-0.905 70:-0.762 71:0.462 72:-0.462 73:0.762 74:0.987 75:-0.762 76:-0.762 77:0 78:-0.462 79:-0.462 80:-0.462 81:0.462 82:-0.462 83:-0.462 84:-0.462 85:0.964 86:0 87:-0.762 88:-0.462 89:-0.762 90:0 91:-0.762 92:-0.462 93:-0.462 94:-0.462 95:-0.462 96:-0.762 97:-0.462 98:-0.462 99:-0.462 100:0.462 101:0 102:0 103:-0.905 104:-0.462 105:-0.762 106:-0.762 107:-0.905 108:0.995 109:0.762 110:-0.905 111:-0.462 112:-0.462 113:-0.905 114:-0.462 115:-0.964 116:-0.905 117:0.462 118:-0.462 119:0 120:-0.762 121:0 122:-0.462 123:-0.905 124:-0.964 125:-0.462 126:-0.905 127:-0.462 128:-0.905 129:-0.462 130:-0.462 131:-0.964 132:-0.762 133:-0.762 134:-0.905 135:-0.462 136:-0.905 137:-0.762 138:-0.762 139:0.998 140:-0.462 141:-0.762 142:-0.462 143:-0.462 144:-0.762 145:-0.964 146:-0.462 147:-0.905 148:-0.762 149:-0.905 150:0.462 151:0 152:-0.905 153:0 154:0.462 155:-0.905 156:0 157:-0.905 158:-0.762 159:0.995 160:-0.762 161:0 162:0 163:0.462 164:0 165:-0.905 166:-0.964 167:-0.462 168:-0.762 169:-0.462 170:-0.905 171:-0.762 172:0 173:-0.905 174:-0.762 175:0 176:-0.905 177:0.762 178:-0.762 179:-0.462 180:0 181:-0.762 182:0.462 183:0.987 184:-0.462 185:-0.462 186:-0.905 187:-0.905 188:-0.462 189:-0.762 190:-0.762 191:-0.762 192:-0.905 193:-0.905 194:0.995 195:-0.905 196:-0.462 197:0 198:-0.905 199:0 200:0 201:-0.905 202:-0.964 203:-0.905 204:-0.905 205:-0.762 206:-0.762 207:-0.462 208:0.462 209:-0.462 210:0.905 211:-0.308 212:-0.905 213:-0.612 214:-0.177 215:-0.905 216:-0.176 217:-0.331 218:-0.925 219:0.291 220:-0.829 221:-0.61 222:0 223:-0.712 224:0.054 225:0.366 226:-0.231 227:-0.562 228:-0.881 229:-0.857 230:-0.462 231:-0.81 232:-0.177 233:0.1 234:0.4 235:0.246 236:0.189 237:0.15 238:0.385 239:0.325 240:0.6 
-0.9548686590247669 1:-0.385 2:-0.683 3:-0.713 4:-0.734 5:-0.472 6:-0.57 7:-0.834 8:-0.081 9:-0.662 10:0.02 11:-0.024 12:-0.707 13:-0.247 14:-0.662 15:-0.762 16:-0.535 17:-0.512 18:-0.174 19:-0.829 20:-0.462 21:-0.683 22:0.462 23:-0.462 24:0 25:0 26:-0.762 27:0 28:-0.462 29:-0.762 30:0 31:-0.762 32:-0.462 33:0.462 34:-0.462 35:0 36:-0.462 37:0.964 38:0.462 39:-0.762 40:-0.905 41:-0.462 42:-0.762 43:0 44:1 45:-0.905 46:-0.964 47:-0.762 48:-0.905 49:-0.905 50:-0.462 51:-0.905 52:-0.462 53:-0.462 54:-0.905 55:-0.905 56:-0.905 57:-0.905 58:-0.462 59:-0.462 60:-0.462 61:-0.762 62:-0.462 63:-0.762 64:-0.462 65:-0.905 66:-0.462 67:0.462 68:-0.905 69:-0.762 70:-0.462 71:-0.905 72:0.987 73:-0.762 74:-0.462 75:0 76:-0.462 77:0.462 78:0.762 79:0 80:-0.462 81:-0.762 82:-0.905 83:-0.462 84:-0.762 85:0.462 86:-0.462 87:0 88:0 89:-0.762 90:0 91:-0.462 92:-0.762 93:0 94:-0.762 95:-0.462 96:0.462 97:-0.462 98:0 99:-0.462 100:0.964 101:0.462 102:-0.762 103:-0.905 104:-0.462 105:-0.762 106:0 107:1 108:-0.905 109:-0.964 110:-0.762 111:-0.905 112:-0.905 113:-0.462 114:-0.905 115:-0.462 116:-0.462 117:-0.905 118:-0.905 119:-0.905 120:-0.905 121:-0.462 122:-0.462 123:-0.462 124:-0.762 125:-0.462 126:-0.762 127:-0.905 128:-0.762 129:-0.964 130:-0.905 131:0.462 132:-0.762 133:-0.762 134:-0.905 135:-0.905 136:-0.762 137:-0.462 138:-0.964 139:-0.964 140:-0.762 141:-0.905 142:-0.905 143:-0.762 144:-0.905 145:1 146:-0.462 147:0.762 148:-0.462 149:-0.905 150:0 151:0.762 152:-0.905 153:-0.762 154:0 155:-0.905 156:0.462 157:-0.762 158:0 159:0 160:-0.462 161:0.987 162:0.462 163:0 164:-0.462 165:-0.762 166:-0.762 167:-0.462 168:-0.462 169:-0.462 170:-0.905 171:-0.462 172:0.462 173:-0.905 174:-0.762 175:-0.462 176:-0.905 177:0.987 178:-0.762 179:-0.462 180:0 181:-0.462 182:0.462 183:0.762 184:0 185:-0.462 186:-0.762 187:-0.905 188:-0.462 189:-0.762 190:-0.762 191:-0.762 192:-0.905 193:-0.905 194:0.995 195:-0.905 196:-0.462 197:0 198:-0.905 199:0 200:0 201:-0.905 202:-0.964 203:-0.905 204:-0.905 205:-0.762 206:-0.762 207:-0.462 208:0.462 209:-0.462 210:0.905 211:-0.612 212:-0.683 213:0.267 214:0.15 215:-0.683 216:-0.462 217:-0.462 218:-0.683 219:-0.462 220:-0.713 221:-0.683 222:0 223:-0.462 224:-0.231 225:-0.612 226:-0.231 227:-0.462 228:-0.683 229:-0.713 230:-0.462 231:-0.683 232:-0.362 233:0.27 234:0.083 235:-0.039 236:0.49 237:0.535 238:0.211 239:0.213 240:0.6 
-0.08166628909691109 1:-0.462 2:-0.462 3:-0.462 4:-0.462 5:-0.462 6:-0.462 7:-0.462 8:-0.462 9:-0.462 10:-0.462 11:-0.462 12:-0.462 13:-0.462 14:-0.462 15:-0.462 16:-0.462 17:-0.462 18:-0.462 19:-0.462 20:-0.462 21:-0.462 22:-0.462 23:-0.905 24:-0.462 25:0.462 26:-0.905 27:-0.762 28:-0.462 29:-0.905 30:0.987 31:-0.762 32:-0.462 33:0 34:-0.462 35:0.462 36:0.762 37:0 38:-0.462 39:-0.762 40:-0.905 41:-0.462 42:-0.762 43:-0.462 44:-0.905 45:-0.762 46:0 47:-0.905 48:-0.762 49:0 50:-0.905 51:0.762 52:-0.762 53:-0.462 54:0 55:-0.762 56:0.462 57:0.987 58:-0.462 59:-0.462 60:-0.905 61:-0.905 62:-0.462 63:-0.762 64:-0.762 65:-0.905 66:-0.462 67:0 68:-0.462 69:-0.762 70:0.999 71:-0.905 72:-0.462 73:-0.905 74:-0.762 75:0.462 76:-0.762 77:0 78:0 79:-0.462 80:-0.762 81:-0.905 82:-0.762 83:-0.462 84:0.762 85:-0.462 86:-0.905 87:-0.762 88:0 89:-0.905 90:-0.762 91:0 92:-0.905 93:0.762 94:-0.762 95:-0.462 96:0 97:-0.762 98:0.462 99:0.987 100:-0.462 101:-0.462 102:-0.905 103:-0.905 104:-0.462 105:-0.762 106:-0.462 107:-0.905 108:-0.462 109:0.462 110:-0.905 111:-0.762 112:-0.462 113:-0.905 114:0.987 115:-0.762 116:-0.462 117:0 118:-0.462 119:0.462 120:0.762 121:0 122:-0.462 123:-0.762 124:-0.905 125:-0.462 126:-0.762 127:0 128:-0.462 129:-0.905 130:-0.762 131:-0.462 132:-0.905 133:-0.905 134:0.905 135:-0.762 136:0.462 137:0.462 138:-0.905 139:-0.762 140:-0.762 141:-0.905 142:-0.762 143:0 144:0.964 145:-0.905 146:-0.462 147:-0.462 148:-0.462 149:-0.462 150:-0.964 151:-0.905 152:0 153:-0.964 154:-0.905 155:0.762 156:-0.762 157:0.964 158:0.762 159:-0.905 160:-0.905 161:-0.762 162:-0.762 163:-0.762 164:-0.462 165:0.462 166:-0.762 167:-0.462 168:-0.462 169:-0.462 170:-0.905 171:-0.762 172:0 173:-0.905 174:-0.762 175:0 176:-0.905 177:0.762 178:-0.762 179:-0.462 180:0 181:-0.762 182:0.462 183:0.987 184:-0.462 185:-0.462 186:-0.905 187:-0.905 188:-0.462 189:-0.762 190:-0.762 191:-0.905 192:0.995 193:0.762 194:-0.905 195:-0.462 196:-0.462 197:-0.905 198:-0.462 199:-0.964 200:-0.905 201:0.462 202:-0.462 203:0 204:-0.762 205:0 206:-0.462 207:-0.905 208:-0.964 209:-0.462 210:-0.905 211:-0.612 212:-0.757 213:-0.071 214:-0.175 215:-0.603 216:-0.448 217:-0.071 218:-0.282 219:-0.225 220:-0.326 221:-0.227 222:0.196 223:-0.76 224:-0.137 225:-0.225 226:-0.023 227:-0.231 228:-0.278 229:-0.911 230:-0.462 231:-0.612 232:0.248 233:0.131 234:0.296 235:0.233 236:0.16 237:0.927 238:-0.76 239:0.325 240:-0.087 
-0.2303354338687433 1:-0.458 2:-0.76 3:-0.607 4:-0.535 5:0.004 6:-0.707 7:0.05 8:-0.66 9:-0.535 10:-0.66 11:-0.562 12:-0.558 13:-0.197 14:-0.385 15:-0.712 16:-0.374 17:-0.458 18:-0.612 19:-0.091 20:-0.462 21:0.07 22:-0.762 23:-0.762 24:-0.905 25:-0.762 26:0.905 27:-0.905 28:0.762 29:-0.462 30:-0.762 31:-0.462 32:-0.462 33:-0.762 34:-0.905 35:-0.462 36:-0.762 37:-0.762 38:-0.762 39:-0.462 40:0.762 41:-0.462 42:0.998 43:-0.762 44:-0.762 45:-0.905 46:-0.762 47:0.905 48:-0.905 49:0.762 50:-0.462 51:-0.762 52:-0.462 53:-0.462 54:-0.762 55:-0.905 56:-0.462 57:-0.762 58:-0.762 59:-0.762 60:-0.462 61:0.762 62:-0.462 63:0.998 64:0 65:-0.905 66:-0.462 67:-0.762 68:-0.905 69:0.995 70:-0.762 71:-0.964 72:-0.762 73:-0.964 74:-0.905 75:0 76:-0.762 77:-0.762 78:-0.762 79:0 80:-0.762 81:-0.905 82:-0.762 83:-0.462 84:-0.905 85:0.462 86:-0.462 87:0 88:0 89:-0.762 90:0 91:-0.462 92:-0.762 93:0 94:-0.762 95:-0.462 96:0.462 97:-0.462 98:0 99:-0.462 100:0.964 101:0.462 102:-0.762 103:-0.905 104:-0.462 105:-0.762 106:0.462 107:-0.462 108:0 109:0 110:-0.762 111:0 112:-0.462 113:-0.762 114:0 115:-0.762 116:-0.462 117:0.462 118:-0.462 119:0 120:-0.462 121:0.964 122:0.462 123:-0.762 124:-0.905 125:-0.462 126:-0.762 127:-0.762 128:-0.762 129:-0.905 130:-0.762 131:0.905 132:-0.905 133:0.762 134:-0.462 135:-0.762 136:-0.462 137:-0.462 138:-0.762 139:-0.905 140:-0.462 141:-0.762 142:-0.762 143:-0.762 144:-0.462 145:0.762 146:-0.462 147:0.998 148:0 149:-0.905 150:-0.462 151:-0.762 152:-0.905 153:0.995 154:-0.762 155:-0.964 156:-0.762 157:-0.964 158:-0.905 159:0 160:-0.762 161:-0.762 162:-0.762 163:0 164:-0.762 165:-0.905 166:-0.762 167:-0.462 168:-0.905 169:-0.762 170:-0.762 171:-0.905 172:-0.762 173:0.905 174:-0.905 175:0.762 176:-0.462 177:-0.762 178:-0.462 179:-0.462 180:-0.762 181:-0.905 182:-0.462 183:-0.762 184:-0.762 185:-0.762 186:-0.462 187:0.762 188:-0.462 189:0.998 190:0.964 191:0 192:-0.762 193:-0.462 194:-0.762 195:0 196:-0.762 197:-0.462 198:-0.462 199:-0.462 200:-0.462 201:-0.762 202:-0.462 203:-0.462 204:-0.462 205:0.462 206:0 207:0 208:-0.905 209:-0.462 210:-0.762 211:-0.462 212:-0.462 213:-0.462 214:-0.462 215:-0.462 216:-0.462 217:-0.462 218:-0.462 219:-0.462 220:-0.462 221:-0.462 222:-0.462 223:-0.462 224:-0.462 225:-0.462 226:-0.462 227:-0.462 228:-0.462 229:-0.462 230:-0.462 231:-0.462 232:0.352 233:0.333 234:-0.267 235:-0.039 236:-0.055 237:0.422 238:0.025 239:0.406 240:0.533 
-0.2326379387120829 1:-0.462 2:-0.683 3:-0.231 4:0.15 5:-0.683 6:-0.612 7:-0.231 8:-0.683 9:0 10:-0.612 11:-0.231 12:-0.231 13:-0.462 14:0.263 15:0 16:-0.231 17:-0.462 18:-0.612 19:-0.612 20:-0.462 21:-0.462 22:0.964 23:0 24:-0.762 25:-0.462 26:-0.762 27:0 28:-0.762 29:-0.462 30:-0.462 31:-0.462 32:-0.462 33:-0.762 34:-0.462 35:-0.462 36:-0.462 37:0.462 38:0 39:0 40:-0.905 41:-0.462 42:-0.762 43:-0.462 44:-0.905 45:-0.462 46:0.462 47:-0.905 48:-0.762 49:-0.462 50:-0.905 51:0.987 52:-0.762 53:-0.462 54:0 55:-0.462 56:0.462 57:0.762 58:0 59:-0.462 60:-0.762 61:-0.905 62:-0.462 63:-0.762 64:-0.462 65:-0.905 66:-0.462 67:0.462 68:-0.905 69:-0.762 70:-0.462 71:-0.905 72:0.987 73:-0.762 74:-0.462 75:0 76:-0.462 77:0.462 78:0.762 79:0 80:-0.462 81:-0.762 82:-0.905 83:-0.462 84:-0.762 85:-0.462 86:-0.964 87:0.762 88:0.987 89:-0.905 90:-0.762 91:0 92:-0.905 93:0.462 94:-0.905 95:-0.762 96:0 97:-0.462 98:0.762 99:0 100:0 101:-0.462 102:-0.762 103:-0.905 104:-0.462 105:-0.762 106:-0.462 107:-0.905 108:-0.462 109:0.462 110:-0.905 111:-0.762 112:-0.462 113:-0.905 114:0.987 115:-0.762 116:-0.462 117:0 118:-0.462 119:0.462 120:0.762 121:0 122:-0.462 123:-0.762 124:-0.905 125:-0.462 126:-0.762 127:-0.462 128:-0.462 129:-0.964 130:-0.905 131:0 132:-0.964 133:-0.905 134:0.762 135:-0.762 136:0.964 137:0.762 138:-0.905 139:-0.905 140:-0.762 141:-0.762 142:-0.762 143:-0.462 144:0.462 145:-0.762 146:-0.462 147:-0.462 148:-0.762 149:-0.905 150:0.462 151:0 152:-0.905 153:0 154:0.462 155:-0.905 156:0 157:-0.905 158:-0.762 159:0.995 160:-0.762 161:0 162:0 163:0.462 164:0 165:-0.905 166:-0.964 167:-0.462 168:-0.762 169:-0.462 170:-0.462 171:-0.905 172:-0.905 173:0 174:-0.964 175:-0.905 176:0.964 177:-0.905 178:0.762 179:0.462 180:-0.905 181:-0.905 182:-0.905 183:-0.905 184:-0.762 185:-0.462 186:0.905 187:-0.905 188:-0.462 189:-0.462 190:-0.905 191:-0.762 192:-0.964 193:-0.905 194:0.462 195:-0.762 196:-0.762 197:-0.905 198:-0.905 199:-0.762 200:-0.462 201:-0.964 202:-0.964 203:-0.762 204:-0.905 205:-0.905 206:-0.762 207:-0.905 208:1 209:-0.462 210:0.762 211:-0.05 212:-0.703 213:0.42 214:0.456 215:-0.833 216:-0.331 217:-0.308 218:-0.833 219:0.077 220:-0.843 221:-0.636 222:0.308 223:-0.462 224:0.254 225:-0.358 226:0.482 227:0 228:-0.786 229:-0.915 230:-0.462 231:-0.786 232:-0.11 233:0.1 234:0.083 235:-0.319 236:0.16 237:0.722 238:0.385 239:-0.02 240:0.559 
0.6204266033773007 1:-0.224 2:-0.754 3:-0.662 4:0.077 5:-0.881 6:-0.635 7:-0.281 8:-0.831 9:0.633 10:-0.712 11:-0.462 12:-0.127 13:-0.612 14:0.308 15:0.67 16:-0.154 17:-0.385 18:-0.707 19:-0.905 20:-0.462 21:-0.762 22:-0.462 23:-0.905 24:-0.462 25:0.462 26:-0.905 27:-0.762 28:-0.462 29:-0.905 30:0.987 31:-0.762 32:-0.462 33:0 34:-0.462 35:0.462 36:0.762 37:0 38:-0.462 39:-0.762 40:-0.905 41:-0.462 42:-0.762 43:0 44:-0.462 45:-0.462 46:-0.462 47:-0.762 48:-0.762 49:-0.762 50:-0.462 51:-0.462 52:-0.462 53:-0.462 54:0 55:-0.462 56:-0.462 57:-0.462 58:0.462 59:0.987 60:0 61:-0.762 62:-0.462 63:-0.762 64:0 65:-0.462 66:-0.905 67:-0.762 68:-0.462 69:-0.905 70:-0.905 71:0.905 72:-0.762 73:0.462 74:0.462 75:-0.905 76:-0.762 77:-0.762 78:-0.905 79:-0.762 80:0 81:0.964 82:-0.905 83:-0.462 84:-0.462 85:0 86:-0.462 87:-0.462 88:-0.462 89:-0.762 90:-0.762 91:-0.762 92:-0.462 93:-0.462 94:-0.462 95:-0.462 96:0 97:-0.462 98:-0.462 99:-0.462 100:0.462 101:0.987 102:0 103:-0.762 104:-0.462 105:-0.762 106:0.964 107:0 108:-0.762 109:-0.462 110:-0.762 111:0 112:-0.762 113:-0.462 114:-0.462 115:-0.462 116:-0.462 117:-0.762 118:-0.462 119:-0.462 120:-0.462 121:0.462 122:0 123:0 124:-0.905 125:-0.462 126:-0.762 127:-0.462 128:-0.462 129:-0.905 130:-0.762 131:0 132:-0.905 133:-0.762 134:0.462 135:-0.462 136:0.762 137:0.987 138:-0.762 139:-0.762 140:0 141:-0.462 142:-0.462 143:-0.462 144:0.462 145:-0.462 146:-0.462 147:-0.462 148:-0.762 149:-0.905 150:0.995 151:0.762 152:-0.905 153:-0.462 154:-0.462 155:-0.905 156:-0.462 157:-0.964 158:-0.905 159:0.462 160:-0.462 161:0 162:-0.762 163:0 164:-0.462 165:-0.905 166:-0.964 167:-0.462 168:-0.905 169:0 170:-0.462 171:-0.905 172:-0.762 173:-0.462 174:-0.905 175:-0.905 176:0.905 177:-0.762 178:0.462 179:0.462 180:-0.905 181:-0.762 182:-0.762 183:-0.905 184:-0.762 185:0 186:0.964 187:-0.905 188:-0.462 189:-0.462 190:0 191:-0.462 192:-0.905 193:-0.762 194:-0.462 195:-0.905 196:-0.905 197:0.905 198:-0.762 199:0.462 200:0.462 201:-0.905 202:-0.762 203:-0.762 204:-0.905 205:-0.762 206:0 207:0.964 208:-0.905 209:-0.462 210:-0.462 211:-0.137 212:-0.458 213:-0.867 214:-0.686 215:0.199 216:-0.613 217:-0.024 218:-0.258 219:-0.662 220:-0.224 221:-0.258 222:-0.786 223:-0.757 224:-0.512 225:-0.662 226:-0.354 227:-0.458 228:-0.154 229:-0.048 230:-0.462 231:0.168 232:0.248 233:0.033 234:-0.417 235:0.107 236:0.281 237:0.376 238:0.219 239:0.191 240:0.269 
-0.2302760361274252 1:-0.462 2:-0.462 3:-0.462 4:-0.462 5:-0.462 6:-0.462 7:-0.462 8:-0.462 9:-0.462 10:-0.462 11:-0.462 12:-0.462 13:-0.462 14:-0.462 15:-0.462 16:-0.462 17:-0.462 18:-0.462 19:-0.462 20:-0.462 21:-0.462 22:0 23:-0.462 24:-0.462 25:-0.462 26:-0.762 27:-0.762 28:-0.762 29:-0.462 30:-0.462 31:-0.462 32:-0.462 33:0 34:-0.462 35:-0.462 36:-0.462 37:0.462 38:0.987 39:0 40:-0.762 41:-0.462 42:-0.762 43:-0.462 44:-0.905 45:-0.762 46:0 47:-0.905 48:-0.762 49:0 50:-0.905 51:0.762 52:-0.762 53:-0.462 54:0 55:-0.762 56:0.462 57:0.987 58:-0.462 59:-0.462 60:-0.905 61:-0.905 62:-0.462 63:-0.762 64:0.964 65:0 66:-0.762 67:-0.462 68:-0.762 69:0 70:-0.762 71:-0.462 72:-0.462 73:-0.462 74:-0.462 75:-0.762 76:-0.462 77:-0.462 78:-0.462 79:0.462 80:0 81:0 82:-0.905 83:-0.462 84:-0.762 85:0 86:-0.462 87:-0.462 88:-0.462 89:-0.762 90:-0.762 91:-0.762 92:-0.462 93:-0.462 94:-0.462 95:-0.462 96:0 97:-0.462 98:-0.462 99:-0.462 100:0.462 101:0.987 102:0 103:-0.762 104:-0.462 105:-0.762 106:-0.762 107:-0.905 108:0.462 109:0 110:-0.905 111:0 112:0.462 113:-0.905 114:0 115:-0.905 116:-0.762 117:0.995 118:-0.762 119:0 120:0 121:0.462 122:0 123:-0.905 124:-0.964 125:-0.462 126:-0.762 127:-0.762 128:-0.762 129:-0.905 130:-0.762 131:0.905 132:-0.905 133:0.762 134:-0.462 135:-0.762 136:-0.462 137:-0.462 138:-0.762 139:-0.905 140:-0.462 141:-0.762 142:-0.762 143:-0.762 144:-0.462 145:0.762 146:-0.462 147:0.998 148:-0.762 149:-0.905 150:0.462 151:0 152:-0.905 153:0 154:0.462 155:-0.905 156:0 157:-0.905 158:-0.762 159:0.995 160:-0.762 161:0 162:0 163:0.462 164:0 165:-0.905 166:-0.964 167:-0.462 168:-0.762 169:-0.462 170:-0.905 171:-0.762 172:0 173:-0.905 174:-0.762 175:0 176:-0.905 177:0.762 178:-0.762 179:-0.462 180:0 181:-0.762 182:0.462 183:0.987 184:-0.462 185:-0.462 186:-0.905 187:-0.905 188:-0.462 189:-0.762 190:0 191:-0.905 192:-0.462 193:-0.762 194:-0.905 195:0.995 196:-0.762 197:-0.964 198:-0.762 199:-0.964 200:-0.905 201:0 202:-0.762 203:-0.762 204:-0.762 205:0 206:-0.762 207:-0.905 208:-0.762 209:-0.462 210:-0.905 211:-0.458 212:-0.831 213:0.497 214:0.635 215:-0.881 216:-0.485 217:-0.308 218:-0.881 219:-0.077 220:-0.863 221:-0.529 222:0.308 223:-0.462 224:0.329 225:-0.304 226:0.161 227:-0.308 228:-0.834 229:-0.887 230:-0.462 231:-0.734 232:0.013 233:0.131 234:0.137 235:0.107 236:-0.148 237:0.422 238:0.385 239:0.325 240:-0.13 
-0.2102548129833539 1:-0.374 2:-0.774 3:0.358 4:0.252 5:-0.881 6:-0.254 7:0.104 8:-0.831 9:0.077 10:-0.831 11:-0.712 12:0.37 13:-0.612 14:0.177 15:-0.077 16:0.308 17:-0.154 18:-0.707 19:-0.934 20:-0.462 21:-0.762 22:0 23:-0.905 24:-0.462 25:-0.762 26:-0.905 27:0.995 28:-0.762 29:-0.964 30:-0.762 31:-0.964 32:-0.905 33:0 34:-0.762 35:-0.762 36:-0.762 37:0 38:-0.762 39:-0.905 40:-0.762 41:-0.462 42:-0.905 43:-0.462 44:-0.905 45:-0.462 46:0.462 47:-0.905 48:-0.762 49:-0.462 50:-0.905 51:0.987 52:-0.762 53:-0.462 54:0 55:-0.462 56:0.462 57:0.762 58:0 59:-0.462 60:-0.762 61:-0.905 62:-0.462 63:-0.762 64:0.462 65:-0.462 66:0 67:0 68:-0.762 69:0 70:-0.462 71:-0.762 72:0 73:-0.762 74:-0.462 75:0.462 76:-0.462 77:0 78:-0.462 79:0.964 80:0.462 81:-0.762 82:-0.905 83:-0.462 84:-0.762 85:-0.762 86:-0.905 87:0.462 88:0 89:-0.905 90:0 91:0.462 92:-0.905 93:0 94:-0.905 95:-0.762 96:0.995 97:-0.762 98:0 99:0 100:0.462 101:0 102:-0.905 103:-0.964 104:-0.462 105:-0.762 106:-0.762 107:-0.762 108:-0.905 109:-0.905 110:0.995 111:-0.905 112:-0.462 113:0 114:-0.905 115:0 116:0 117:-0.905 118:-0.964 119:-0.905 120:-0.905 121:-0.762 122:-0.762 123:-0.462 124:0.462 125:-0.462 126:0.905 127:-0.462 128:-0.462 129:-0.964 130:-0.905 131:0 132:-0.964 133:-0.905 134:0.762 135:-0.762 136:0.964 137:0.762 138:-0.905 139:-0.905 140:-0.762 141:-0.762 142:-0.762 143:-0.462 144:0.462 145:-0.762 146:-0.462 147:-0.462 148:-0.762 149:-0.905 150:0.462 151:0 152:-0.905 153:0 154:0.462 155:-0.905 156:0 157:-0.905 158:-0.762 159:0.995 160:-0.762 161:0 162:0 163:0.462 164:0 165:-0.905 166:-0.964 167:-0.462 168:-0.762 169:0 170:1 171:-0.905 172:-0.964 173:-0.762 174:-0.905 175:-0.905 176:-0.462 177:-0.905 178:-0.462 179:-0.462 180:-0.905 181:-0.905 182:-0.905 183:-0.905 184:-0.462 185:-0.462 186:-0.462 187:-0.762 188:-0.462 189:-0.762 190:-0.762 191:-0.762 192:-0.905 193:-0.762 194:0.905 195:-0.905 196:0.762 197:-0.462 198:-0.762 199:-0.462 200:-0.462 201:-0.762 202:-0.905 203:-0.462 204:-0.762 205:-0.762 206:-0.762 207:-0.462 208:0.762 209:-0.462 210:0.998 211:0.077 212:-0.462 213:-0.529 214:-0.458 215:-0.562 216:-0.529 217:-0.683 218:0.121 219:-0.458 220:-0.1 221:0 222:-0.376 223:-0.612 224:-0.458 225:-0.683 226:-0.137 227:0.077 228:0.151 229:-0.831 230:-0.462 231:-0.562 232:-0.421 233:0.1 234:0.03 235:-0.148 236:-0.16 237:0.722 238:0.385 239:-0.142 240:0.737 
-0.2301002187051771 1:-0.208 2:-0.458 3:-0.813 4:-0.683 5:-0.1 6:-0.458 7:-0.712 8:-0.683 9:-0.683 10:-0.612 11:-0.462 12:-0.813 13:-0.713 14:-0.612 15:-0.683 16:-0.376 17:-0.458 18:-0.529 19:0.121 20:-0.462 21:0.05 22:-0.462 23:-0.905 24:-0.762 25:0 26:-0.905 27:-0.762 28:0 29:-0.905 30:0.762 31:-0.762 32:-0.462 33:0 34:-0.762 35:0.462 36:0.987 37:-0.462 38:-0.462 39:-0.905 40:-0.905 41:-0.462 42:-0.762 43:-0.762 44:-0.905 45:0.462 46:0 47:-0.905 48:0 49:0.462 50:-0.905 51:0 52:-0.905 53:-0.762 54:0.995 55:-0.762 56:0 57:0 58:0.462 59:0 60:-0.905 61:-0.964 62:-0.462 63:-0.762 64:-0.462 65:-0.905 66:-0.762 67:0 68:-0.905 69:-0.762 70:0 71:-0.905 72:0.762 73:-0.762 74:-0.462 75:0 76:-0.762 77:0.462 78:0.987 79:-0.462 80:-0.462 81:-0.905 82:-0.905 83:-0.462 84:-0.762 85:0.964 86:0 87:-0.762 88:-0.462 89:-0.762 90:0 91:-0.762 92:-0.462 93:-0.462 94:-0.462 95:-0.462 96:-0.762 97:-0.462 98:-0.462 99:-0.462 100:0.462 101:0 102:0 103:-0.905 104:-0.462 105:-0.762 106:-0.462 107:-0.905 108:-0.462 109:0.462 110:-0.905 111:-0.762 112:-0.462 113:-0.905 114:0.987 115:-0.762 116:-0.462 117:0 118:-0.462 119:0.462 120:0.762 121:0 122:-0.462 123:-0.762 124:-0.905 125:-0.462 126:-0.762 127:0.964 128:0 129:-0.762 130:-0.462 131:-0.762 132:0 133:-0.762 134:-0.462 135:-0.462 136:-0.462 137:-0.462 138:-0.762 139:-0.462 140:-0.462 141:-0.462 142:0.462 143:0 144:0 145:-0.905 146:-0.462 147:-0.762 148:-0.905 149:-0.762 150:-0.964 151:-0.905 152:0.462 153:-0.762 154:-0.762 155:-0.905 156:-0.905 157:-0.762 158:-0.462 159:-0.964 160:-0.964 161:-0.762 162:-0.905 163:-0.905 164:-0.762 165:-0.905 166:1 167:-0.462 168:0.762 169:-0.462 170:-0.905 171:-0.762 172:0 173:-0.905 174:-0.762 175:0 176:-0.905 177:0.762 178:-0.762 179:-0.462 180:0 181:-0.762 182:0.462 183:0.987 184:-0.462 185:-0.462 186:-0.905 187:-0.905 188:-0.462 189:-0.762 190:-0.762 191:-0.905 192:0.462 193:0 194:-0.905 195:0 196:0.462 197:-0.905 198:0 199:-0.905 200:-0.762 201:0.995 202:-0.762 203:0 204:0 205:0.462 206:0 207:-0.905 208:-0.964 209:-0.462 210:-0.762 211:0.013 212:-0.603 213:-0.712 214:-0.077 215:-0.857 216:-0.508 217:-0.331 218:-0.757 219:0.391 220:-0.662 221:-0.462 222:-0.254 223:-0.612 224:0.154 225:0.467 226:-0.077 227:-0.308 228:-0.58 229:-0.905 230:-0.462 231:-0.762 232:-0.361 233:0.093 234:0.116 235:0.246 236:0.16 237:0.581 238:0.389 239:0.325 240:0.246 
-0.08302515267219279 1:-0.462 2:-0.713 3:-0.101 4:0.041 5:-0.453 6:-0.863 7:-0.452 8:-0.072 9:-0.15 10:0.029 11:0 12:-0.452 13:-0.683 14:0 15:-0.381 16:-0.381 17:-0.462 18:-0.15 19:-0.834 20:-0.462 21:-0.612 22:0 23:1 24:-0.905 25:-0.964 26:-0.762 27:-0.905 28:-0.905 29:-0.462 30:-0.905 31:-0.462 32:-0.462 33:-0.905 34:-0.905 35:-0.905 36:-0.905 37:-0.462 38:-0.462 39:-0.462 40:-0.762 41:-0.462 42:-0.762 43:0 44:1 45:-0.905 46:-0.964 47:-0.762 48:-0.905 49:-0.905 50:-0.462 51:-0.905 52:-0.462 53:-0.462 54:-0.905 55:-0.905 56:-0.905 57:-0.905 58:-0.462 59:-0.462 60:-0.462 61:-0.762 62:-0.462 63:-0.762 64:0.964 65:0 66:-0.762 67:-0.462 68:-0.762 69:0 70:-0.762 71:-0.462 72:-0.462 73:-0.462 74:-0.462 75:-0.762 76:-0.462 77:-0.462 78:-0.462 79:0.462 80:0 81:0 82:-0.905 83:-0.462 84:-0.762 85:-0.462 86:-0.905 87:-0.762 88:0 89:-0.905 90:-0.762 91:0 92:-0.905 93:0.762 94:-0.762 95:-0.462 96:0 97:-0.762 98:0.462 99:0.987 100:-0.462 101:-0.462 102:-0.905 103:-0.905 104:-0.462 105:-0.762 106:0 107:1 108:-0.905 109:-0.964 110:-0.762 111:-0.905 112:-0.905 113:-0.462 114:-0.905 115:-0.462 116:-0.462 117:-0.905 118:-0.905 119:-0.905 120:-0.905 121:-0.462 122:-0.462 123:-0.462 124:-0.762 125:-0.462 126:-0.762 127:-0.462 128:-0.462 129:-0.964 130:-0.905 131:0 132:-0.964 133:-0.905 134:0.762 135:-0.762 136:0.964 137:0.762 138:-0.905 139:-0.905 140:-0.762 141:-0.762 142:-0.762 143:-0.462 144:0.462 145:-0.762 146:-0.462 147:-0.462 148:0 149:-0.462 150:-0.905 151:-0.762 152:-0.462 153:-0.905 154:-0.905 155:0.905 156:-0.762 157:0.462 158:0.462 159:-0.905 160:-0.762 161:-0.762 162:-0.905 163:-0.762 164:0 165:0.964 166:-0.905 167:-0.462 168:-0.462 169:0 170:-0.905 171:-0.462 172:-0.762 173:-0.905 174:0.995 175:-0.762 176:-0.964 177:-0.762 178:-0.964 179:-0.905 180:0 181:-0.762 182:-0.762 183:-0.762 184:0 185:-0.762 186:-0.905 187:-0.762 188:-0.462 189:-0.905 190:0.964 191:0 192:-0.762 193:-0.462 194:-0.762 195:0 196:-0.762 197:-0.462 198:-0.462 199:-0.462 200:-0.462 201:-0.762 202:-0.462 203:-0.462 204:-0.462 205:0.462 206:0 207:0 208:-0.905 209:-0.462 210:-0.762 211:-0.324 212:-0.707 213:-0.66 214:-0.61 215:-0.277 216:-0.683 217:-0.662 218:-0.529 219:-0.61 220:-0.529 221:-0.458 222:-0.81 223:0.101 224:-0.61 225:-0.76 226:-0.408 227:-0.485 228:-0.535 229:-0.479 230:-0.462 231:-0.278 232:0.028 233:0.27 234:0.137 235:0.233 236:0.49 237:0.722 238:-0.368 239:-0.207 240:0.533 
-0.2307308233048795 1:-0.458 2:-0.757 3:0.216 4:0.227 5:-0.857 6:-0.612 7:-0.485 8:-0.757 9:-0.258 10:-0.763 11:-0.683 12:0.231 13:-0.512 14:-0.077 15:-0.371 16:0.077 17:0.021 18:-0.603 19:-0.887 20:-0.462 21:-0.834 22:-0.462 23:-0.905 24:-0.462 25:0.462 26:-0.905 27:-0.762 28:-0.462 29:-0.905 30:0.987 31:-0.762 32:-0.462 33:0 34:-0.462 35:0.462 36:0.762 37:0 38:-0.462 39:-0.762 40:-0.905 41:-0.462 42:-0.762 43:-0.762 44:-0.762 45:-0.905 46:-0.762 47:0.905 48:-0.905 49:0.762 50:-0.462 51:-0.762 52:-0.462 53:-0.462 54:-0.762 55:-0.905 56:-0.462 57:-0.762 58:-0.762 59:-0.762 60:-0.462 61:0.762 62:-0.462 63:0.998 64:0 65:-0.905 66:-0.462 67:-0.762 68:-0.905 69:0.995 70:-0.762 71:-0.964 72:-0.762 73:-0.964 74:-0.905 75:0 76:-0.762 77:-0.762 78:-0.762 79:0 80:-0.762 81:-0.905 82:-0.762 83:-0.462 84:-0.905 85:-0.462 86:-0.905 87:-0.762 88:0 89:-0.905 90:-0.762 91:0 92:-0.905 93:0.762 94:-0.762 95:-0.462 96:0 97:-0.762 98:0.462 99:0.987 100:-0.462 101:-0.462 102:-0.905 103:-0.905 104:-0.462 105:-0.762 106:0 107:-0.905 108:-0.462 109:-0.762 110:-0.905 111:0.995 112:-0.762 113:-0.964 114:-0.762 115:-0.964 116:-0.905 117:0 118:-0.762 119:-0.762 120:-0.762 121:0 122:-0.762 123:-0.905 124:-0.762 125:-0.462 126:-0.905 127:-0.462 128:-0.462 129:-0.964 130:-0.905 131:0 132:-0.964 133:-0.905 134:0.762 135:-0.762 136:0.964 137:0.762 138:-0.905 139:-0.905 140:-0.762 141:-0.762 142:-0.762 143:-0.462 144:0.462 145:-0.762 146:-0.462 147:-0.462 148:0.964 149:0 150:-0.762 151:-0.462 152:-0.762 153:0 154:-0.762 155:-0.462 156:-0.462 157:-0.462 158:-0.462 159:-0.762 160:-0.462 161:-0.462 162:-0.462 163:0.462 164:0 165:0 166:-0.905 167:-0.462 168:-0.762 169:-0.762 170:-0.762 171:-0.905 172:-0.762 173:0.905 174:-0.905 175:0.762 176:-0.462 177:-0.762 178:-0.462 179:-0.462 180:-0.762 181:-0.905 182:-0.462 183:-0.762 184:-0.762 185:-0.762 186:-0.462 187:0.762 188:-0.462 189:0.998 190:-0.462 191:-0.462 192:-0.905 193:-0.905 194:0 195:-0.964 196:-0.905 197:0.964 198:-0.905 199:0.762 200:0.462 201:-0.905 202:-0.905 203:-0.905 204:-0.905 205:-0.762 206:-0.462 207:0.905 208:-0.905 209:-0.462 210:-0.462 211:-0.187 212:-0.532 213:-0.541 214:-0.408 215:0.048 216:-0.529 217:0.05 218:-0.536 219:-0.612 220:-0.546 221:-0.536 222:-0.558 223:-0.683 224:-0.385 225:-0.662 226:-0.227 227:-0.458 228:-0.382 229:-0.081 230:-0.462 231:0.094 232:0.248 233:0.333 234:-0.267 235:0.233 236:-0.065 237:0.722 238:-0.045 239:0.406 240:0.227 
0.1987637506878122 1:-0.06 2:-0.286 3:0.093 4:0.066 5:-0.834 6:-0.382 7:-0.636 8:-0.683 9:-0.536 10:-0.713 11:-0.683 12:-0.174 13:-0.536 14:-0.305 15:-0.686 16:0.077 17:-0.308 18:-0.529 19:-0.911 20:-0.462 21:-0.834 22:0.964 23:0 24:-0.762 25:-0.462 26:-0.762 27:0 28:-0.762 29:-0.462 30:-0.462 31:-0.462 32:-0.462 33:-0.762 34:-0.462 35:-0.462 36:-0.462 37:0.462 38:0 39:0 40:-0.905 41:-0.462 42:-0.762 43:-0.462 44:-0.905 45:-0.762 46:0 47:-0.905 48:-0.762 49:0 50:-0.905 51:0.762 52:-0.762 53:-0.462 54:0 55:-0.762 56:0.462 57:0.987 58:-0.462 59:-0.462 60:-0.905 61:-0.905 62:-0.462 63:-0.762 64:-0.462 65:-0.462 66:-0.905 67:-0.762 68:0 69:-0.905 70:-0.762 71:0.462 72:-0.462 73:0.762 74:0.987 75:-0.762 76:-0.762 77:0 78:-0.462 79:-0.462 80:-0.462 81:0.462 82:-0.462 83:-0.462 84:-0.462 85:-0.762 86:-0.762 87:-0.905 88:-0.762 89:0.905 90:-0.905 91:0.762 92:-0.462 93:-0.762 94:-0.462 95:-0.462 96:-0.762 97:-0.905 98:-0.462 99:-0.762 100:-0.762 101:-0.762 102:-0.462 103:0.762 104:-0.462 105:0.998 106:0 107:-0.905 108:-0.462 109:-0.762 110:-0.905 111:0.995 112:-0.762 113:-0.964 114:-0.762 115:-0.964 116:-0.905 117:0 118:-0.762 119:-0.762 120:-0.762 121:0 122:-0.762 123:-0.905 124:-0.762 125:-0.462 126:-0.905 127:0 128:-0.462 129:-0.905 130:-0.762 131:-0.462 132:-0.905 133:-0.905 134:0.905 135:-0.762 136:0.462 137:0.462 138:-0.905 139:-0.762 140:-0.762 141:-0.905 142:-0.762 143:0 144:0.964 145:-0.905 146:-0.462 147:-0.462 148:-0.462 149:-0.462 150:-0.964 151:-0.905 152:0 153:-0.964 154:-0.905 155:0.762 156:-0.762 157:0.964 158:0.762 159:-0.905 160:-0.905 161:-0.762 162:-0.762 163:-0.762 164:-0.462 165:0.462 166:-0.762 167:-0.462 168:-0.462 169:-0.462 170:-0.905 171:-0.462 172:-0.462 173:-0.964 174:-0.762 175:-0.762 176:-0.905 177:-0.462 178:-0.905 179:-0.762 180:-0.762 181:0.998 182:-0.462 183:-0.762 184:-0.462 185:-0.462 186:-0.762 187:-0.964 188:-0.462 189:-0.905 190:-0.905 191:-0.762 192:-0.964 193:-0.905 194:0.462 195:-0.762 196:-0.762 197:-0.905 198:-0.905 199:-0.762 200:-0.462 201:-0.964 202:-0.964 203:-0.762 204:-0.905 205:-0.905 206:-0.762 207:-0.905 208:1 209:-0.462 210:0.762 211:-0.187 212:-0.58 213:-0.174 214:-0.305 215:-0.541 216:-0.151 217:-0.1 218:-0.607 219:-0.305 220:-0.607 221:-0.535 222:0.093 223:-0.696 224:-0.305 225:-0.305 226:0.258 227:-0.127 228:-0.529 229:-0.707 230:-0.462 231:-0.484 232:-0.11 233:0.131 234:0.4 235:0.333 236:-0.065 237:0.927 238:-0.76 239:-0.194 240:0.559 
-0.04347222463753764 1:-0.281 2:-0.683 3:-0.784 4:-0.381 5:-0.61 6:-0.834 7:-0.286 8:0 9:-0.204 10:-0.174 11:-0.05 12:-0.376 13:-0.762 14:-0.227 15:-0.124 16:-0.612 17:-0.281 18:0.03 19:-0.881 20:-0.462 21:-0.358 22:-0.462 23:-0.905 24:-0.462 25:0.462 26:-0.905 27:-0.762 28:-0.462 29:-0.905 30:0.987 31:-0.762 32:-0.462 33:0 34:-0.462 35:0.462 36:0.762 37:0 38:-0.462 39:-0.762 40:-0.905 41:-0.462 42:-0.762 43:-0.462 44:-0.905 45:-0.762 46:0 47:-0.905 48:-0.762 49:0 50:-0.905 51:0.762 52:-0.762 53:-0.462 54:0 55:-0.762 56:0.462 57:0.987 58:-0.462 59:-0.462 60:-0.905 61:-0.905 62:-0.462 63:-0.762 64:0 65:-0.905 66:-0.462 67:-0.762 68:-0.905 69:0.995 70:-0.762 71:-0.964 72:-0.762 73:-0.964 74:-0.905 75:0 76:-0.762 77:-0.762 78:-0.762 79:0 80:-0.762 81:-0.905 82:-0.762 83:-0.462 84:-0.905 85:-0.462 86:-0.462 87:-0.964 88:-0.905 89:0 90:-0.964 91:-0.905 92:0.762 93:-0.762 94:0.964 95:0.762 96:-0.905 97:-0.905 98:-0.762 99:-0.762 100:-0.762 101:-0.462 102:0.462 103:-0.762 104:-0.462 105:-0.462 106:0 107:-0.462 108:-0.462 109:-0.462 110:-0.762 111:-0.762 112:-0.762 113:-0.462 114:-0.462 115:-0.462 116:-0.462 117:0 118:-0.462 119:-0.462 120:-0.462 121:0.462 122:0.987 123:0 124:-0.762 125:-0.462 126:-0.762 127:0 128:-0.462 129:-0.905 130:-0.762 131:-0.462 132:-0.905 133:-0.905 134:0.905 135:-0.762 136:0.462 137:0.462 138:-0.905 139:-0.762 140:-0.762 141:-0.905 142:-0.762 143:0 144:0.964 145:-0.905 146:-0.462 147:-0.462 148:0.964 149:0 150:-0.762 151:-0.462 152:-0.762 153:0 154:-0.762 155:-0.462 156:-0.462 157:-0.462 158:-0.462 159:-0.762 160:-0.462 161:-0.462 162:-0.462 163:0.462 164:0 165:0 166:-0.905 167:-0.462 168:-0.762 169:0 170:-0.462 171:-0.905 172:-0.762 173:-0.462 174:-0.905 175:-0.905 176:0.905 177:-0.762 178:0.462 179:0.462 180:-0.905 181:-0.762 182:-0.762 183:-0.905 184:-0.762 185:0 186:0.964 187:-0.905 188:-0.462 189:-0.462 190:0.964 191:0 192:-0.762 193:-0.462 194:-0.762 195:0 196:-0.762 197:-0.462 198:-0.462 199:-0.462 200:-0.462 201:-0.762 202:-0.462 203:-0.462 204:-0.462 205:0.462 206:0 207:0 208:-0.905 209:-0.462 210:-0.762 211:0.244 212:-0.529 213:-0.562 214:-0.612 215:-0.784 216:0.42 217:-0.712 218:-0.713 219:-0.612 220:-0.713 221:-0.683 222:-0.331 223:-0.612 224:-0.612 225:-0.612 226:0.077 227:-0.458 228:-0.529 229:-0.76 230:-0.462 231:-0.784 232:0.248 233:0.131 234:-0.267 235:0.096 236:0.033 237:0.927 238:-0.045 239:0.191 240:0.533 
-0.2306846262700919 1:-0.077 2:-0.462 3:-0.633 4:-0.58 5:-0.331 6:-0.633 7:-0.757 8:0.278 9:-0.508 10:0.305 11:0.304 12:-0.449 13:-0.734 14:-0.508 15:-0.686 16:-0.187 17:-0.077 18:0.138 19:-0.833 20:-0.462 21:-0.562 22:0.964 23:0 24:-0.762 25:-0.462 26:-0.762 27:0 28:-0.762 29:-0.462 30:-0.462 31:-0.462 32:-0.462 33:-0.762 34:-0.462 35:-0.462 36:-0.462 37:0.462 38:0 39:0 40:-0.905 41:-0.462 42:-0.762 43:-0.762 44:-0.905 45:0.995 46:0.762 47:-0.905 48:-0.462 49:-0.462 50:-0.905 51:-0.462 52:-0.964 53:-0.905 54:0.462 55:-0.462 56:0 57:-0.762 58:0 59:-0.462 60:-0.905 61:-0.964 62:-0.462 63:-0.905 64:-0.905 65:-0.762 66:-0.964 67:-0.905 68:0.462 69:-0.762 70:-0.762 71:-0.905 72:-0.905 73:-0.762 74:-0.462 75:-0.964 76:-0.964 77:-0.762 78:-0.905 79:-0.905 80:-0.762 81:-0.905 82:1 83:-0.462 84:0.762 85:0 86:-0.462 87:-0.905 88:-0.762 89:-0.462 90:-0.905 91:-0.905 92:0.905 93:-0.762 94:0.462 95:0.462 96:-0.905 97:-0.762 98:-0.762 99:-0.905 100:-0.762 101:0 102:0.964 103:-0.905 104:-0.462 105:-0.462 106:0 107:1 108:-0.905 109:-0.964 110:-0.762 111:-0.905 112:-0.905 113:-0.462 114:-0.905 115:-0.462 116:-0.462 117:-0.905 118:-0.905 119:-0.905 120:-0.905 121:-0.462 122:-0.462 123:-0.462 124:-0.762 125:-0.462 126:-0.762 127:-0.462 128:-0.462 129:-0.964 130:-0.905 131:0 132:-0.964 133:-0.905 134:0.762 135:-0.762 136:0.964 137:0.762 138:-0.905 139:-0.905 140:-0.762 141:-0.762 142:-0.762 143:-0.462 144:0.462 145:-0.762 146:-0.462 147:-0.462 148:0.964 149:0 150:-0.762 151:-0.462 152:-0.762 153:0 154:-0.762 155:-0.462 156:-0.462 157:-0.462 158:-0.462 159:-0.762 160:-0.462 161:-0.462 162:-0.462 163:0.462 164:0 165:0 166:-0.905 167:-0.462 168:-0.762 169:-0.462 170:-0.905 171:0 172:0.762 173:-0.905 174:-0.762 175:0 176:-0.905 177:0.462 178:-0.762 179:0 180:0 181:-0.462 182:0.987 183:0.462 184:0 185:-0.462 186:-0.762 187:-0.762 188:-0.462 189:-0.462 190:-0.762 191:-0.905 192:-0.462 193:0 194:-0.462 195:-0.762 196:0.999 197:-0.905 198:-0.462 199:-0.905 200:-0.762 201:0.462 202:-0.762 203:0 204:0 205:-0.462 206:-0.762 207:-0.905 208:-0.762 209:-0.462 210:0.762 211:-0.154 212:-0.713 213:0.304 214:0.416 215:-0.784 216:-0.458 217:-0.231 218:-0.784 219:0.154 220:-0.784 221:-0.612 222:0.077 223:-0.462 224:0.304 225:-0.231 226:0.244 227:-0.154 228:-0.712 229:-0.831 230:-0.462 231:-0.712 232:-0.11 233:0.019 234:-0.194 235:-0.368 236:0.49 237:0.722 238:-0.045 239:0.033 240:0.252 
-0.1893076405443848 1:-0.562 2:-0.905 3:0.154 4:0.508 5:-0.905 6:-0.508 7:0.154 8:-0.905 9:0.308 10:-0.81 11:-0.254 12:0.332 13:-0.562 14:0.658 15:0.308 16:0.154 17:-0.308 18:-0.81 19:-0.829 20:-0.462 21:-0.562 22:-0.462 23:-0.964 24:0.762 25:0.987 26:-0.905 27:-0.762 28:0 29:-0.905 30:0.462 31:-0.905 32:-0.762 33:0 34:-0.462 35:0.762 36:0 37:0 38:-0.462 39:-0.762 40:-0.905 41:-0.462 42:-0.762 43:-0.462 44:-0.905 45:0 46:0.762 47:-0.905 48:-0.762 49:0 50:-0.905 51:0.462 52:-0.762 53:0 54:0 55:-0.462 56:0.987 57:0.462 58:0 59:-0.462 60:-0.762 61:-0.762 62:-0.462 63:-0.462 64:-0.462 65:-0.905 66:-0.462 67:0.462 68:-0.905 69:-0.762 70:-0.462 71:-0.905 72:0.987 73:-0.762 74:-0.462 75:0 76:-0.462 77:0.462 78:0.762 79:0 80:-0.462 81:-0.762 82:-0.905 83:-0.462 84:-0.762 85:-0.462 86:-0.905 87:-0.762 88:0 89:-0.905 90:-0.762 91:0 92:-0.905 93:0.762 94:-0.762 95:-0.462 96:0 97:-0.762 98:0.462 99:0.987 100:-0.462 101:-0.462 102:-0.905 103:-0.905 104:-0.462 105:-0.762 106:0.964 107:0 108:-0.762 109:-0.462 110:-0.762 111:0 112:-0.762 113:-0.462 114:-0.462 115:-0.462 116:-0.462 117:-0.762 118:-0.462 119:-0.462 120:-0.462 121:0.462 122:0 123:0 124:-0.905 125:-0.462 126:-0.762 127:0.964 128:0 129:-0.762 130:-0.462 131:-0.762 132:0 133:-0.762 134:-0.462 135:-0.462 136:-0.462 137:-0.462 138:-0.762 139:-0.462 140:-0.462 141:-0.462 142:0.462 143:0 144:0 145:-0.905 146:-0.462 147:-0.762 148:-0.462 149:-0.905 150:0 151:0.762 152:-0.905 153:-0.762 154:0 155:-0.905 156:0.462 157:-0.762 158:0 159:0 160:-0.462 161:0.987 162:0.462 163:0 164:-0.462 165:-0.762 166:-0.762 167:-0.462 168:-0.462 169:-0.462 170:-0.905 171:-0.762 172:0 173:-0.905 174:-0.762 175:0 176:-0.905 177:0.762 178:-0.762 179:-0.462 180:0 181:-0.762 182:0.462 183:0.987 184:-0.462 185:-0.462 186:-0.905 187:-0.905 188:-0.462 189:-0.762 190:0.964 191:0 192:-0.762 193:-0.462 194:-0.762 195:0 196:-0.762 197:-0.462 198:-0.462 199:-0.462 200:-0.462 201:-0.762 202:-0.462 203:-0.462 204:-0.462 205:0.462 206:0 207:0 208:-0.905 209:-0.462 210:-0.762 211:0.405 212:-0.379 213:-0.612 214:-0.562 215:-0.76 216:0.255 217:-0.712 218:-0.629 219:-0.562 220:-0.629 221:-0.61 222:-0.458 223:-0.562 224:-0.562 225:-0.562 226:0.154 227:-0.331 228:-0.379 229:-0.784 230:-0.462 231:-0.76 232:-0.355 233:-0.039 234:0.083 235:0.233 236:0.281 237:0.581 238:0.211 239:0.325 240:0.533 
-0.01769922211677977 1:0.077 2:-0.536 3:-0.398 4:-0.429 5:-0.532 6:-0.155 7:-0.66 8:-0.288 9:-0.381 10:-0.22 11:-0.128 12:-0.071 13:-0.66 14:-0.381 15:-0.612 16:0.228 17:-0.05 18:-0.378 19:-0.834 20:-0.462 21:-0.686 22:-0.462 23:-0.462 24:-0.964 25:-0.905 26:0 27:-0.964 28:-0.905 29:0.762 30:-0.762 31:0.964 32:0.762 33:-0.905 34:-0.905 35:-0.762 36:-0.762 37:-0.762 38:-0.462 39:0.462 40:-0.762 41:-0.462 42:-0.462 43:-0.462 44:-0.905 45:-0.762 46:0 47:-0.905 48:-0.762 49:0 50:-0.905 51:0.762 52:-0.762 53:-0.462 54:0 55:-0.762 56:0.462 57:0.987 58:-0.462 59:-0.462 60:-0.905 61:-0.905 62:-0.462 63:-0.762 64:-0.762 65:-0.762 66:-0.905 67:-0.905 68:0.995 69:-0.905 70:-0.462 71:0 72:-0.905 73:0 74:0 75:-0.905 76:-0.964 77:-0.905 78:-0.905 79:-0.762 80:-0.762 81:-0.462 82:0.462 83:-0.462 84:0.905 85:0.462 86:-0.462 87:0 88:0 89:-0.762 90:0 91:-0.462 92:-0.762 93:0 94:-0.762 95:-0.462 96:0.462 97:-0.462 98:0 99:-0.462 100:0.964 101:0.462 102:-0.762 103:-0.905 104:-0.462 105:-0.762 106:0 107:-0.462 108:-0.905 109:-0.762 110:-0.462 111:-0.905 112:-0.905 113:0.905 114:-0.762 115:0.462 116:0.462 117:-0.905 118:-0.762 119:-0.762 120:-0.905 121:-0.762 122:0 123:0.964 124:-0.905 125:-0.462 126:-0.462 127:0 128:-0.462 129:-0.905 130:-0.762 131:-0.462 132:-0.905 133:-0.905 134:0.905 135:-0.762 136:0.462 137:0.462 138:-0.905 139:-0.762 140:-0.762 141:-0.905 142:-0.762 143:0 144:0.964 145:-0.905 146:-0.462 147:-0.462 148:0 149:-0.905 150:-0.462 151:-0.762 152:-0.905 153:0.995 154:-0.762 155:-0.964 156:-0.762 157:-0.964 158:-0.905 159:0 160:-0.762 161:-0.762 162:-0.762 163:0 164:-0.762 165:-0.905 166:-0.762 167:-0.462 168:-0.905 169:0.964 170:0 171:-0.762 172:-0.462 173:-0.762 174:0 175:-0.762 176:-0.462 177:-0.462 178:-0.462 179:-0.462 180:-0.762 181:-0.462 182:-0.462 183:-0.462 184:0.462 185:0 186:0 187:-0.905 188:-0.462 189:-0.762 190:-0.462 191:-0.964 192:0.762 193:0.987 194:-0.905 195:-0.762 196:0 197:-0.905 198:0.462 199:-0.905 200:-0.762 201:0 202:-0.462 203:0.762 204:0 205:0 206:-0.462 207:-0.762 208:-0.905 209:-0.462 210:-0.762 211:-0.231 212:-0.905 213:-0.308 214:-0.05 215:-0.905 216:0.116 217:-0.458 218:-0.934 219:-0.062 220:-0.863 221:-0.529 222:0 223:-0.612 224:0.025 225:-0.1 226:0 227:-0.612 228:-0.834 229:-0.786 230:-0.462 231:-0.734 232:-0.177 233:0.131 234:0.131 235:-0.039 236:0.094 237:0.927 238:0.025 239:0.246 240:-0.254 
-0.01466421766826587 1:-0.562 2:-0.784 3:-0.379 4:0.002 5:-0.198 6:-0.76 7:-0.231 8:-0.529 9:-0.148 10:-0.458 11:-0.077 12:-0.379 13:-0.629 14:0.115 15:-0.148 16:-0.331 17:-0.562 18:-0.612 19:-0.304 20:-0.462 21:-0.006 22:-0.762 23:-0.905 24:0.995 25:0.762 26:-0.905 27:-0.462 28:-0.462 29:-0.905 30:-0.462 31:-0.964 32:-0.905 33:0.462 34:-0.462 35:0 36:-0.762 37:0 38:-0.462 39:-0.905 40:-0.964 41:-0.462 42:-0.905 43:0.964 44:0 45:-0.762 46:-0.462 47:-0.762 48:0 49:-0.762 50:-0.462 51:-0.462 52:-0.462 53:-0.462 54:-0.762 55:-0.462 56:-0.462 57:-0.462 58:0.462 59:0 60:0 61:-0.905 62:-0.462 63:-0.762 64:-0.762 65:-0.762 66:-0.905 67:-0.762 68:0.905 69:-0.905 70:0.762 71:-0.462 72:-0.762 73:-0.462 74:-0.462 75:-0.762 76:-0.905 77:-0.462 78:-0.762 79:-0.762 80:-0.762 81:-0.462 82:0.762 83:-0.462 84:0.998 85:-0.762 86:-0.905 87:0.462 88:0 89:-0.905 90:0 91:0.462 92:-0.905 93:0 94:-0.905 95:-0.762 96:0.995 97:-0.762 98:0 99:0 100:0.462 101:0 102:-0.905 103:-0.964 104:-0.462 105:-0.762 106:0.964 107:0 108:-0.762 109:-0.462 110:-0.762 111:0 112:-0.762 113:-0.462 114:-0.462 115:-0.462 116:-0.462 117:-0.762 118:-0.462 119:-0.462 120:-0.462 121:0.462 122:0 123:0 124:-0.905 125:-0.462 126:-0.762 127:0.964 128:0 129:-0.762 130:-0.462 131:-0.762 132:0 133:-0.762 134:-0.462 135:-0.462 136:-0.462 137:-0.462 138:-0.762 139:-0.462 140:-0.462 141:-0.462 142:0.462 143:0 144:0 145:-0.905 146:-0.462 147:-0.762 148:0 149:-0.905 150:-0.462 151:-0.762 152:-0.905 153:0.995 154:-0.762 155:-0.964 156:-0.762 157:-0.964 158:-0.905 159:0 160:-0.762 161:-0.762 162:-0.762 163:0 164:-0.762 165:-0.905 166:-0.762 167:-0.462 168:-0.905 169:0 170:-0.905 171:-0.462 172:-0.762 173:-0.905 174:0.995 175:-0.762 176:-0.964 177:-0.762 178:-0.964 179:-0.905 180:0 181:-0.762 182:-0.762 183:-0.762 184:0 185:-0.762 186:-0.905 187:-0.762 188:-0.462 189:-0.905 190:-0.762 191:-0.905 192:-0.462 193:0 194:-0.462 195:-0.762 196:0.999 197:-0.905 198:-0.462 199:-0.905 200:-0.762 201:0.462 202:-0.762 203:0 204:0 205:-0.462 206:-0.762 207:-0.905 208:-0.762 209:-0.462 210:0.762 211:-0.06 212:-0.529 213:-0.174 214:-0.281 215:-0.784 216:-0.151 217:-0.174 218:-0.456 219:-0.281 220:-0.529 221:-0.458 222:0.093 223:-0.662 224:-0.281 225:-0.305 226:0.258 227:0 228:-0.292 229:-0.934 230:-0.462 231:-0.712 232:-0.604 233:0.113 234:0.021 235:-0.148 236:0.281 237:0.581 238:0.025 239:-0.207 240:0.252 
-0.06581950098754596 1:-0.462 2:-0.61 3:-0.813 4:-0.529 5:-0.379 6:-0.813 7:-0.529 8:0.002 9:-0.204 10:0.151 11:0.15 12:-0.529 13:-0.784 14:-0.304 15:-0.129 16:-0.612 17:-0.462 18:-0.148 19:-0.76 20:-0.462 21:-0.562 22:-0.462 23:-0.905 24:-0.462 25:0.462 26:-0.905 27:-0.762 28:-0.462 29:-0.905 30:0.987 31:-0.762 32:-0.462 33:0 34:-0.462 35:0.462 36:0.762 37:0 38:-0.462 39:-0.762 40:-0.905 41:-0.462 42:-0.762 43:0 44:-0.905 45:-0.462 46:-0.762 47:-0.905 48:0.995 49:-0.762 50:-0.964 51:-0.762 52:-0.964 53:-0.905 54:0 55:-0.762 56:-0.762 57:-0.762 58:0 59:-0.762 60:-0.905 61:-0.762 62:-0.462 63:-0.905 64:-0.462 65:-0.905 66:-0.762 67:0 68:-0.905 69:-0.762 70:0 71:-0.905 72:0.762 73:-0.762 74:-0.462 75:0 76:-0.762 77:0.462 78:0.987 79:-0.462 80:-0.462 81:-0.905 82:-0.905 83:-0.462 84:-0.762 85:0.462 86:-0.462 87:0 88:0 89:-0.762 90:0 91:-0.462 92:-0.762 93:0 94:-0.762 95:-0.462 96:0.462 97:-0.462 98:0 99:-0.462 100:0.964 101:0.462 102:-0.762 103:-0.905 104:-0.462 105:-0.762 106:0 107:1 108:-0.905 109:-0.964 110:-0.762 111:-0.905 112:-0.905 113:-0.462 114:-0.905 115:-0.462 116:-0.462 117:-0.905 118:-0.905 119:-0.905 120:-0.905 121:-0.462 122:-0.462 123:-0.462 124:-0.762 125:-0.462 126:-0.762 127:-0.762 128:-0.905 129:0.995 130:0.762 131:-0.905 132:-0.462 133:-0.462 134:-0.905 135:-0.462 136:-0.964 137:-0.905 138:0.462 139:-0.462 140:0 141:-0.762 142:0 143:-0.462 144:-0.905 145:-0.964 146:-0.462 147:-0.905 148:-0.762 149:-0.905 150:0.995 151:0.762 152:-0.905 153:-0.462 154:-0.462 155:-0.905 156:-0.462 157:-0.964 158:-0.905 159:0.462 160:-0.462 161:0 162:-0.762 163:0 164:-0.462 165:-0.905 166:-0.964 167:-0.462 168:-0.905 169:-0.905 170:-0.762 171:-0.964 172:-0.905 173:0.462 174:-0.762 175:-0.762 176:-0.905 177:-0.905 178:-0.762 179:-0.462 180:-0.964 181:-0.964 182:-0.762 183:-0.905 184:-0.905 185:-0.762 186:-0.905 187:1 188:-0.462 189:0.762 190:-0.462 191:-0.462 192:-0.964 193:-0.905 194:0 195:-0.964 196:-0.905 197:0.762 198:-0.762 199:0.964 200:0.762 201:-0.905 202:-0.905 203:-0.762 204:-0.762 205:-0.762 206:-0.462 207:0.462 208:-0.762 209:-0.462 210:-0.462 211:0.077 212:-0.831 213:-0.385 214:-0.635 215:-0.881 216:0.829 217:-0.712 218:-0.93 219:-0.635 220:-0.93 221:-0.831 222:0.077 223:-0.712 224:-0.635 225:-0.712 226:0.161 227:-0.558 228:-0.881 229:-0.786 230:-0.462 231:-0.881 232:0.248 233:-0.18 234:0.116 235:-0.039 236:0.49 237:-0.005 238:0.219 239:-0.194 240:0.29 
-0.009991434279007283 1:-0.535 2:-0.851 3:-0.054 4:0.252 5:-0.66 6:-0.762 7:0.372 8:-0.831 9:-0.154 10:-0.831 11:-0.712 12:0.231 13:-0.612 14:0.177 15:-0.077 16:-0.154 17:-0.371 18:-0.707 19:-0.81 20:-0.462 21:0 22:0.964 23:0 24:-0.762 25:-0.462 26:-0.762 27:0 28:-0.762 29:-0.462 30:-0.462 31:-0.462 32:-0.462 33:-0.762 34:-0.462 35:-0.462 36:-0.462 37:0.462 38:0 39:0 40:-0.905 41:-0.462 42:-0.762 43:-0.462 44:-0.905 45:-0.462 46:0.462 47:-0.905 48:-0.762 49:-0.462 50:-0.905 51:0.987 52:-0.762 53:-0.462 54:0 55:-0.462 56:0.462 57:0.762 58:0 59:-0.462 60:-0.762 61:-0.905 62:-0.462 63:-0.762 64:-0.462 65:-0.905 66:-0.762 67:0 68:-0.905 69:-0.762 70:0 71:-0.905 72:0.762 73:-0.762 74:-0.462 75:0 76:-0.762 77:0.462 78:0.987 79:-0.462 80:-0.462 81:-0.905 82:-0.905 83:-0.462 84:-0.762 85:-0.462 86:-0.905 87:-0.462 88:0.462 89:-0.905 90:-0.762 91:-0.462 92:-0.905 93:0.987 94:-0.762 95:-0.462 96:0 97:-0.462 98:0.462 99:0.762 100:0 101:-0.462 102:-0.762 103:-0.905 104:-0.462 105:-0.762 106:0 107:-0.462 108:-0.462 109:-0.462 110:-0.762 111:-0.762 112:-0.762 113:-0.462 114:-0.462 115:-0.462 116:-0.462 117:0 118:-0.462 119:-0.462 120:-0.462 121:0.462 122:0.987 123:0 124:-0.762 125:-0.462 126:-0.762 127:0 128:-0.462 129:-0.905 130:-0.762 131:-0.462 132:-0.905 133:-0.905 134:0.905 135:-0.762 136:0.462 137:0.462 138:-0.905 139:-0.762 140:-0.762 141:-0.905 142:-0.762 143:0 144:0.964 145:-0.905 146:-0.462 147:-0.462 148:0 149:-0.462 150:-0.462 151:-0.462 152:-0.762 153:-0.762 154:-0.762 155:-0.462 156:-0.462 157:-0.462 158:-0.462 159:0 160:-0.462 161:-0.462 162:-0.462 163:0.462 164:0.987 165:0 166:-0.762 167:-0.462 168:-0.762 169:0.964 170:0 171:-0.762 172:-0.462 173:-0.762 174:0 175:-0.762 176:-0.462 177:-0.462 178:-0.462 179:-0.462 180:-0.762 181:-0.462 182:-0.462 183:-0.462 184:0.462 185:0 186:0 187:-0.905 188:-0.462 189:-0.762 190:-0.462 191:-0.462 192:-0.905 193:-0.762 194:0 195:-0.905 196:-0.762 197:0.462 198:-0.462 199:0.762 200:0.987 201:-0.762 202:-0.762 203:0 204:-0.462 205:-0.462 206:-0.462 207:0.462 208:-0.462 209:-0.462 210:-0.462 211:-0.462 212:-0.462 213:-0.462 214:-0.462 215:-0.462 216:-0.462 217:-0.462 218:-0.462 219:-0.462 220:-0.462 221:-0.462 222:-0.462 223:-0.462 224:-0.462 225:-0.462 226:-0.462 227:-0.462 228:-0.462 229:-0.462 230:-0.462 231:-0.462 232:-0.11 233:0.1 234:0.116 235:0.01 236:0.033 237:0.927 238:-0.493 239:0.246 240:0.4 
0.5324748997477216 1:0.151 2:-0.379 3:-0.126 4:-0.054 5:-0.76 6:-0.231 7:-0.612 8:-0.61 9:-0.462 10:-0.629 11:-0.61 12:-0.304 13:-0.462 14:-0.308 15:-0.562 16:0.154 17:-0.231 18:-0.379 19:-0.851 20:-0.462 21:-0.76 22:-0.762 23:-0.762 24:-0.905 25:-0.762 26:0.905 27:-0.905 28:0.762 29:-0.462 30:-0.762 31:-0.462 32:-0.462 33:-0.762 34:-0.905 35:-0.462 36:-0.762 37:-0.762 38:-0.762 39:-0.462 40:0.762 41:-0.462 42:0.998 43:-0.762 44:-0.905 45:-0.462 46:0 47:-0.462 48:-0.762 49:0.999 50:-0.905 51:-0.462 52:-0.905 53:-0.762 54:0.462 55:-0.762 56:0 57:0 58:-0.462 59:-0.762 60:-0.905 61:-0.762 62:-0.462 63:0.762 64:0.462 65:-0.462 66:0 67:0 68:-0.762 69:0 70:-0.462 71:-0.762 72:0 73:-0.762 74:-0.462 75:0.462 76:-0.462 77:0 78:-0.462 79:0.964 80:0.462 81:-0.762 82:-0.905 83:-0.462 84:-0.762 85:-0.462 86:-0.905 87:-0.762 88:0 89:-0.905 90:-0.762 91:0 92:-0.905 93:0.762 94:-0.762 95:-0.462 96:0 97:-0.762 98:0.462 99:0.987 100:-0.462 101:-0.462 102:-0.905 103:-0.905 104:-0.462 105:-0.762 106:0.964 107:0 108:-0.762 109:-0.462 110:-0.762 111:0 112:-0.762 113:-0.462 114:-0.462 115:-0.462 116:-0.462 117:-0.762 118:-0.462 119:-0.462 120:-0.462 121:0.462 122:0 123:0 124:-0.905 125:-0.462 126:-0.762 127:-0.462 128:-0.462 129:-0.905 130:-0.905 131:0 132:-0.964 133:-0.905 134:0.964 135:-0.905 136:0.762 137:0.462 138:-0.905 139:-0.905 140:-0.905 141:-0.905 142:-0.762 143:-0.462 144:0.905 145:-0.905 146:-0.462 147:-0.462 148:-0.462 149:-0.905 150:0 151:0.762 152:-0.905 153:-0.762 154:0 155:-0.905 156:0.462 157:-0.762 158:0 159:0 160:-0.462 161:0.987 162:0.462 163:0 164:-0.462 165:-0.762 166:-0.762 167:-0.462 168:-0.462 169:0 170:-0.462 171:-0.905 172:-0.762 173:-0.462 174:-0.905 175:-0.905 176:0.905 177:-0.762 178:0.462 179:0.462 180:-0.905 181:-0.762 182:-0.762 183:-0.905 184:-0.762 185:0 186:0.964 187:-0.905 188:-0.462 189:-0.462 190:0 191:-0.462 192:-0.905 193:-0.762 194:-0.462 195:-0.905 196:-0.905 197:0.905 198:-0.762 199:0.462 200:0.462 201:-0.905 202:-0.762 203:-0.762 204:-0.905 205:-0.762 206:0 207:0.964 208:-0.905 209:-0.462 210:-0.462 211:0.013 212:-0.603 213:-0.762 214:-0.154 215:-0.857 216:-0.508 217:-0.254 218:-0.757 219:0.354 220:-0.662 221:-0.462 222:-0.254 223:-0.662 224:0.154 225:0.504 226:-0.154 227:-0.308 228:-0.603 229:-0.905 230:-0.462 231:-0.762 232:0.352 233:-0.089 234:0.03 235:0.233 236:0.281 237:1 238:0.211 239:0.191 240:0.269 
0.1516179837794425 1:-0.462 2:-0.683 3:-0.612 4:-0.231 5:-0.683 6:-0.612 7:-0.231 8:-0.683 9:0.15 10:-0.612 11:-0.462 12:-0.231 13:-0.612 14:0 15:0.263 16:-0.462 17:-0.462 18:-0.683 19:-0.683 20:-0.462 21:-0.612 22:0 23:1 24:-0.905 25:-0.964 26:-0.762 27:-0.905 28:-0.905 29:-0.462 30:-0.905 31:-0.462 32:-0.462 33:-0.905 34:-0.905 35:-0.905 36:-0.905 37:-0.462 38:-0.462 39:-0.462 40:-0.762 41:-0.462 42:-0.762 43:-0.462 44:-0.462 45:-0.964 46:-0.905 47:0 48:-0.964 49:-0.905 50:0.762 51:-0.762 52:0.964 53:0.762 54:-0.905 55:-0.905 56:-0.762 57:-0.762 58:-0.762 59:-0.462 60:0.462 61:-0.762 62:-0.462 63:-0.462 64:-0.762 65:-0.905 66:-0.462 67:0 68:-0.462 69:-0.762 70:0.999 71:-0.905 72:-0.462 73:-0.905 74:-0.762 75:0.462 76:-0.762 77:0 78:0 79:-0.462 80:-0.762 81:-0.905 82:-0.762 83:-0.462 84:0.762 85:-0.762 86:-0.762 87:-0.905 88:-0.762 89:0.905 90:-0.905 91:0.762 92:-0.462 93:-0.762 94:-0.462 95:-0.462 96:-0.762 97:-0.905 98:-0.462 99:-0.762 100:-0.762 101:-0.762 102:-0.462 103:0.762 104:-0.462 105:0.998 106:0 107:-0.462 108:-0.462 109:-0.462 110:-0.762 111:-0.762 112:-0.762 113:-0.462 114:-0.462 115:-0.462 116:-0.462 117:0 118:-0.462 119:-0.462 120:-0.462 121:0.462 122:0.987 123:0 124:-0.762 125:-0.462 126:-0.762 127:0 128:-0.462 129:-0.905 130:-0.762 131:-0.462 132:-0.905 133:-0.905 134:0.905 135:-0.762 136:0.462 137:0.462 138:-0.905 139:-0.762 140:-0.762 141:-0.905 142:-0.762 143:0 144:0.964 145:-0.905 146:-0.462 147:-0.462 148:-0.762 149:-0.905 150:0.995 151:0.762 152:-0.905 153:-0.462 154:-0.462 155:-0.905 156:-0.462 157:-0.964 158:-0.905 159:0.462 160:-0.462 161:0 162:-0.762 163:0 164:-0.462 165:-0.905 166:-0.964 167:-0.462 168:-0.905 169:-0.462 170:-0.905 171:-0.462 172:0.462 173:-0.905 174:-0.762 175:-0.462 176:-0.905 177:0.987 178:-0.762 179:-0.462 180:0 181:-0.462 182:0.462 183:0.762 184:0 185:-0.462 186:-0.762 187:-0.905 188:-0.462 189:-0.762 190:0.462 191:-0.462 192:0 193:0 194:-0.762 195:0 196:-0.462 197:-0.762 198:0 199:-0.762 200:-0.462 201:0.462 202:-0.462 203:0 204:-0.462 205:0.964 206:0.462 207:-0.762 208:-0.905 209:-0.462 210:-0.762 211:-0.462 212:-0.905 213:-0.462 214:0.154 215:-0.925 216:-0.762 217:-0.562 218:-0.905 219:0.504 220:-0.81 221:-0.562 222:-0.254 223:0.025 224:0.154 225:0.254 226:-0.154 227:-0.462 228:-0.762 229:-0.925 230:-0.462 231:-0.81 232:0.028 233:-0.298 234:0.296 235:0.333 236:0.033 237:0.927 238:0.219 239:0.213 240:-0.06 
-0.001080987278458951 1:-0.612 2:-0.683 3:0.267 4:0.15 5:-0.683 6:-0.462 7:-0.462 8:-0.683 9:-0.462 10:-0.713 11:-0.683 12:0 13:-0.462 14:-0.231 15:-0.612 16:-0.231 17:-0.462 18:-0.683 19:-0.713 20:-0.462 21:-0.683 22:-0.462 23:-0.462 24:-0.905 25:-0.905 26:0 27:-0.964 28:-0.905 29:0.964 30:-0.905 31:0.762 32:0.462 33:-0.905 34:-0.905 35:-0.905 36:-0.905 37:-0.762 38:-0.462 39:0.905 40:-0.905 41:-0.462 42:-0.462 43:-0.462 44:-0.905 45:-0.462 46:0.462 47:-0.905 48:-0.762 49:-0.462 50:-0.905 51:0.987 52:-0.762 53:-0.462 54:0 55:-0.462 56:0.462 57:0.762 58:0 59:-0.462 60:-0.762 61:-0.905 62:-0.462 63:-0.762 64:-0.462 65:-0.462 66:-0.964 67:-0.905 68:0 69:-0.964 70:-0.905 71:0.762 72:-0.762 73:0.964 74:0.762 75:-0.905 76:-0.905 77:-0.762 78:-0.762 79:-0.762 80:-0.462 81:0.462 82:-0.762 83:-0.462 84:-0.462 85:-0.462 86:-0.462 87:-0.905 88:-0.905 89:0 90:-0.964 91:-0.905 92:0.964 93:-0.905 94:0.762 95:0.462 96:-0.905 97:-0.905 98:-0.905 99:-0.905 100:-0.762 101:-0.462 102:0.905 103:-0.905 104:-0.462 105:-0.462 106:-0.762 107:-0.905 108:0.995 109:0.762 110:-0.905 111:-0.462 112:-0.462 113:-0.905 114:-0.462 115:-0.964 116:-0.905 117:0.462 118:-0.462 119:0 120:-0.762 121:0 122:-0.462 123:-0.905 124:-0.964 125:-0.462 126:-0.905 127:0 128:-0.462 129:-0.905 130:-0.762 131:-0.462 132:-0.905 133:-0.905 134:0.905 135:-0.762 136:0.462 137:0.462 138:-0.905 139:-0.762 140:-0.762 141:-0.905 142:-0.762 143:0 144:0.964 145:-0.905 146:-0.462 147:-0.462 148:-0.462 149:-0.964 150:0.762 151:0.987 152:-0.905 153:-0.762 154:0 155:-0.905 156:0.462 157:-0.905 158:-0.762 159:0 160:-0.462 161:0.762 162:0 163:0 164:-0.462 165:-0.762 166:-0.905 167:-0.462 168:-0.762 169:-0.462 170:-0.462 171:-0.905 172:-0.762 173:0 174:-0.905 175:-0.762 176:0.462 177:-0.462 178:0.762 179:0.987 180:-0.762 181:-0.762 182:0 183:-0.462 184:-0.462 185:-0.462 186:0.462 187:-0.462 188:-0.462 189:-0.462 190:0 191:-0.462 192:-0.462 193:-0.462 194:-0.762 195:-0.762 196:-0.762 197:-0.462 198:-0.462 199:-0.462 200:-0.462 201:0 202:-0.462 203:-0.462 204:-0.462 205:0.462 206:0.987 207:0 208:-0.762 209:-0.462 210:-0.762 211:-0.224 212:-0.774 213:-0.254 214:0.252 215:-0.881 216:-0.635 217:-0.127 218:-0.831 219:0.458 220:-0.76 221:-0.562 222:-0.127 223:-0.612 224:0.408 225:0.416 226:-0.154 227:-0.385 228:-0.707 229:-0.905 230:-0.462 231:-0.762 232:-0.151 233:0.1 234:-0.545 235:0.242 236:0.189 237:0.927 238:0.166 239:0.229 240:0.21 
-0.08123393608349662 1:-0.462 2:-0.462 3:-0.462 4:-0.462 5:-0.462 6:-0.462 7:-0.462 8:-0.462 9:-0.462 10:-0.462 11:-0.462 12:-0.462 13:-0.462 14:-0.462 15:-0.462 16:-0.462 17:-0.462 18:-0.462 19:-0.462 20:-0.462 21:-0.462 22:0 23:-0.462 24:-0.462 25:-0.462 26:-0.762 27:-0.762 28:-0.762 29:-0.462 30:-0.462 31:-0.462 32:-0.462 33:0 34:-0.462 35:-0.462 36:-0.462 37:0.462 38:0.987 39:0 40:-0.762 41:-0.462 42:-0.762 43:0.964 44:0 45:-0.762 46:-0.462 47:-0.762 48:0 49:-0.762 50:-0.462 51:-0.462 52:-0.462 53:-0.462 54:-0.762 55:-0.462 56:-0.462 57:-0.462 58:0.462 59:0 60:0 61:-0.905 62:-0.462 63:-0.762 64:-0.462 65:-0.462 66:-0.905 67:-0.762 68:0 69:-0.905 70:-0.762 71:0.462 72:-0.462 73:0.762 74:0.987 75:-0.762 76:-0.762 77:0 78:-0.462 79:-0.462 80:-0.462 81:0.462 82:-0.462 83:-0.462 84:-0.462 85:-0.762 86:-0.905 87:0.995 88:0.762 89:-0.905 90:-0.462 91:-0.462 92:-0.905 93:-0.462 94:-0.964 95:-0.905 96:0.462 97:-0.462 98:0 99:-0.762 100:0 101:-0.462 102:-0.905 103:-0.964 104:-0.462 105:-0.905 106:0 107:-0.462 108:-0.905 109:-0.762 110:-0.462 111:-0.905 112:-0.905 113:0.905 114:-0.762 115:0.462 116:0.462 117:-0.905 118:-0.762 119:-0.762 120:-0.905 121:-0.762 122:0 123:0.964 124:-0.905 125:-0.462 126:-0.462 127:0 128:-0.462 129:-0.905 130:-0.762 131:-0.462 132:-0.905 133:-0.905 134:0.905 135:-0.762 136:0.462 137:0.462 138:-0.905 139:-0.762 140:-0.762 141:-0.905 142:-0.762 143:0 144:0.964 145:-0.905 146:-0.462 147:-0.462 148:-0.762 149:-0.762 150:-0.905 151:-0.762 152:0.905 153:-0.905 154:0.762 155:-0.462 156:-0.762 157:-0.462 158:-0.462 159:-0.762 160:-0.905 161:-0.462 162:-0.762 163:-0.762 164:-0.762 165:-0.462 166:0.762 167:-0.462 168:0.998 169:0.964 170:0 171:-0.762 172:-0.462 173:-0.762 174:0 175:-0.762 176:-0.462 177:-0.462 178:-0.462 179:-0.462 180:-0.762 181:-0.462 182:-0.462 183:-0.462 184:0.462 185:0 186:0 187:-0.905 188:-0.462 189:-0.762 190:-0.462 191:-0.462 192:-0.964 193:-0.905 194:0 195:-0.964 196:-0.905 197:0.762 198:-0.762 199:0.964 200:0.762 201:-0.905 202:-0.905 203:-0.762 204:-0.762 205:-0.762 206:-0.462 207:0.462 208:-0.762 209:-0.462 210:-0.462 211:-0.462 212:-0.905 213:-0.485 214:0.358 215:-0.905 216:-0.762 217:-0.231 218:-0.905 219:0.825 220:-0.762 221:-0.385 222:0 223:-0.562 224:0.549 225:0.787 226:-0.154 227:-0.462 228:-0.81 229:-0.881 230:-0.462 231:-0.712 232:0.013 233:0.113 234:0.4 235:-0.734 236:0.094 237:0.927 238:-0.194 239:0.246 240:0.29 
-0.05475145335278614 1:-0.231 2:-0.462 3:-0.831 4:-0.76 5:-0.308 6:-0.851 7:-0.831 8:0.697 9:-0.76 10:0.408 11:0.308 12:-0.831 13:-0.76 14:-0.76 15:-0.831 16:-0.712 17:-0.231 18:0.707 19:-0.831 20:-0.462 21:-0.462 22:-0.905 23:-0.762 24:-0.964 25:-0.905 26:0.462 27:-0.762 28:-0.762 29:-0.905 30:-0.905 31:-0.762 32:-0.462 33:-0.964 34:-0.964 35:-0.762 36:-0.905 37:-0.905 38:-0.762 39:-0.905 40:1 41:-0.462 42:0.762 43:0.964 44:0 45:-0.762 46:-0.462 47:-0.762 48:0 49:-0.762 50:-0.462 51:-0.462 52:-0.462 53:-0.462 54:-0.762 55:-0.462 56:-0.462 57:-0.462 58:0.462 59:0 60:0 61:-0.905 62:-0.462 63:-0.762 64:0.462 65:-0.462 66:0 67:0 68:-0.762 69:0 70:-0.462 71:-0.762 72:0 73:-0.762 74:-0.462 75:0.462 76:-0.462 77:0 78:-0.462 79:0.964 80:0.462 81:-0.762 82:-0.905 83:-0.462 84:-0.762 85:-0.462 86:-0.905 87:-0.762 88:0 89:-0.905 90:-0.762 91:0 92:-0.905 93:0.762 94:-0.762 95:-0.462 96:0 97:-0.762 98:0.462 99:0.987 100:-0.462 101:-0.462 102:-0.905 103:-0.905 104:-0.462 105:-0.762 106:-0.462 107:-0.964 108:0.762 109:0.987 110:-0.905 111:-0.762 112:0 113:-0.905 114:0.462 115:-0.905 116:-0.762 117:0 118:-0.462 119:0.762 120:0 121:0 122:-0.462 123:-0.762 124:-0.905 125:-0.462 126:-0.762 127:-0.462 128:-0.462 129:-0.964 130:-0.905 131:0 132:-0.964 133:-0.905 134:0.762 135:-0.762 136:0.964 137:0.762 138:-0.905 139:-0.905 140:-0.762 141:-0.762 142:-0.762 143:-0.462 144:0.462 145:-0.762 146:-0.462 147:-0.462 148:-0.462 149:-0.964 150:0.762 151:0.987 152:-0.905 153:-0.762 154:0 155:-0.905 156:0.462 157:-0.905 158:-0.762 159:0 160:-0.462 161:0.762 162:0 163:0 164:-0.462 165:-0.762 166:-0.905 167:-0.462 168:-0.762 169:-0.462 170:-0.905 171:-0.762 172:0 173:-0.905 174:-0.762 175:0 176:-0.905 177:0.762 178:-0.762 179:-0.462 180:0 181:-0.762 182:0.462 183:0.987 184:-0.462 185:-0.462 186:-0.905 187:-0.905 188:-0.462 189:-0.762 190:-0.762 191:-0.762 192:-0.905 193:-0.905 194:0.995 195:-0.905 196:-0.462 197:0 198:-0.905 199:0 200:0 201:-0.905 202:-0.964 203:-0.905 204:-0.905 205:-0.762 206:-0.762 207:-0.462 208:0.462 209:-0.462 210:0.905 211:0.355 212:-0.305 213:-0.606 214:-0.485 215:-0.686 216:-0.302 217:-0.606 218:-0.08 219:-0.485 220:-0.228 221:-0.204 222:-0.517 223:-0.612 224:-0.485 225:-0.533 226:0.054 227:0 228:0.17 229:-0.915 230:-0.462 231:-0.662 232:0.162 233:0.113 234:0.03 235:0.233 236:-0.028 237:0.722 238:0.166 239:0.325 240:0.6 
-0.02938259009977007 1:-0.231 2:-0.462 3:-0.462 4:-0.462 5:-0.612 6:-0.612 7:-0.612 8:-0.462 9:-0.462 10:-0.462 11:-0.462 12:-0.231 13:-0.462 14:-0.462 15:-0.462 16:0 17:0.263 18:-0.231 19:-0.612 20:-0.462 21:-0.612 22:-0.762 23:-0.762 24:-0.905 25:-0.905 26:0.995 27:-0.905 28:-0.462 29:0 30:-0.905 31:0 32:0 33:-0.905 34:-0.964 35:-0.905 36:-0.905 37:-0.762 38:-0.762 39:-0.462 40:0.462 41:-0.462 42:0.905 43:-0.462 44:-0.905 45:-0.762 46:0 47:-0.905 48:-0.762 49:0 50:-0.905 51:0.762 52:-0.762 53:-0.462 54:0 55:-0.762 56:0.462 57:0.987 58:-0.462 59:-0.462 60:-0.905 61:-0.905 62:-0.462 63:-0.762 64:0 65:-0.905 66:-0.462 67:-0.762 68:-0.905 69:0.995 70:-0.762 71:-0.964 72:-0.762 73:-0.964 74:-0.905 75:0 76:-0.762 77:-0.762 78:-0.762 79:0 80:-0.762 81:-0.905 82:-0.762 83:-0.462 84:-0.905 85:-0.462 86:-0.905 87:-0.762 88:0 89:-0.905 90:-0.762 91:0 92:-0.905 93:0.762 94:-0.762 95:-0.462 96:0 97:-0.762 98:0.462 99:0.987 100:-0.462 101:-0.462 102:-0.905 103:-0.905 104:-0.462 105:-0.762 106:0 107:-0.462 108:-0.905 109:-0.762 110:-0.462 111:-0.905 112:-0.905 113:0.905 114:-0.762 115:0.462 116:0.462 117:-0.905 118:-0.762 119:-0.762 120:-0.905 121:-0.762 122:0 123:0.964 124:-0.905 125:-0.462 126:-0.462 127:-0.462 128:-0.462 129:-0.964 130:-0.905 131:0 132:-0.964 133:-0.905 134:0.762 135:-0.762 136:0.964 137:0.762 138:-0.905 139:-0.905 140:-0.762 141:-0.762 142:-0.762 143:-0.462 144:0.462 145:-0.762 146:-0.462 147:-0.462 148:-0.762 149:-0.905 150:0.995 151:0.762 152:-0.905 153:-0.462 154:-0.462 155:-0.905 156:-0.462 157:-0.964 158:-0.905 159:0.462 160:-0.462 161:0 162:-0.762 163:0 164:-0.462 165:-0.905 166:-0.964 167:-0.462 168:-0.905 169:-0.462 170:-0.462 171:-0.905 172:-0.762 173:0 174:-0.905 175:-0.762 176:0.462 177:-0.462 178:0.762 179:0.987 180:-0.762 181:-0.762 182:0 183:-0.462 184:-0.462 185:-0.462 186:0.462 187:-0.462 188:-0.462 189:-0.462 190:-0.762 191:-0.762 192:-0.905 193:-0.905 194:0.995 195:-0.905 196:-0.462 197:0 198:-0.905 199:0 200:0 201:-0.905 202:-0.964 203:-0.905 204:-0.905 205:-0.762 206:-0.762 207:-0.462 208:0.462 209:-0.462 210:0.905 211:-0.07 212:-0.607 213:-0.662 214:-0.231 215:-0.834 216:-0.635 217:-0.381 218:-0.683 219:0.15 220:-0.612 221:-0.462 222:-0.127 223:-0.612 224:0 225:0.263 226:-0 227:0.098 228:-0.453 229:-0.857 230:-0.462 231:-0.762 232:-0.16 233:0.131 234:-0.267 235:0.233 236:0.094 237:0.722 238:0.219 239:0.229 240:0.6 
-0.2299971318671319 1:0.151 2:-0.415 3:-0.556 4:-0.321 5:-0.23 6:-0.429 7:-0.127 8:-0.536 9:-0.408 10:-0.536 11:-0.512 12:-0.635 13:-0.61 14:-0.258 15:-0.485 16:-0.023 17:-0.331 18:-0.281 19:-0.349 20:-0.462 21:-0.175 22:-0.462 23:-0.964 24:0.762 25:0.987 26:-0.905 27:-0.762 28:0 29:-0.905 30:0.462 31:-0.905 32:-0.762 33:0 34:-0.462 35:0.762 36:0 37:0 38:-0.462 39:-0.762 40:-0.905 41:-0.462 42:-0.762 43:-0.762 44:-0.762 45:-0.905 46:-0.762 47:0.905 48:-0.905 49:0.762 50:-0.462 51:-0.762 52:-0.462 53:-0.462 54:-0.762 55:-0.905 56:-0.462 57:-0.762 58:-0.762 59:-0.762 60:-0.462 61:0.762 62:-0.462 63:0.998 64:0.964 65:0 66:-0.762 67:-0.462 68:-0.762 69:0 70:-0.762 71:-0.462 72:-0.462 73:-0.462 74:-0.462 75:-0.762 76:-0.462 77:-0.462 78:-0.462 79:0.462 80:0 81:0 82:-0.905 83:-0.462 84:-0.762 85:-0.462 86:-0.905 87:-0.462 88:0.462 89:-0.905 90:-0.762 91:-0.462 92:-0.905 93:0.987 94:-0.762 95:-0.462 96:0 97:-0.462 98:0.462 99:0.762 100:0 101:-0.462 102:-0.762 103:-0.905 104:-0.462 105:-0.762 106:-0.762 107:-0.762 108:-0.905 109:-0.762 110:0.905 111:-0.905 112:0.762 113:-0.462 114:-0.762 115:-0.462 116:-0.462 117:-0.762 118:-0.905 119:-0.462 120:-0.762 121:-0.762 122:-0.762 123:-0.462 124:0.762 125:-0.462 126:0.998 127:0.964 128:0 129:-0.762 130:-0.462 131:-0.762 132:0 133:-0.762 134:-0.462 135:-0.462 136:-0.462 137:-0.462 138:-0.762 139:-0.462 140:-0.462 141:-0.462 142:0.462 143:0 144:0 145:-0.905 146:-0.462 147:-0.762 148:-0.462 149:-0.964 150:0.762 151:0.987 152:-0.905 153:-0.762 154:0 155:-0.905 156:0.462 157:-0.905 158:-0.762 159:0 160:-0.462 161:0.762 162:0 163:0 164:-0.462 165:-0.762 166:-0.905 167:-0.462 168:-0.762 169:-0.762 170:-0.762 171:-0.905 172:-0.762 173:0.905 174:-0.905 175:0.762 176:-0.462 177:-0.762 178:-0.462 179:-0.462 180:-0.762 181:-0.905 182:-0.462 183:-0.762 184:-0.762 185:-0.762 186:-0.462 187:0.762 188:-0.462 189:0.998 190:0.964 191:0 192:-0.762 193:-0.462 194:-0.762 195:0 196:-0.762 197:-0.462 198:-0.462 199:-0.462 200:-0.462 201:-0.762 202:-0.462 203:-0.462 204:-0.462 205:0.462 206:0 207:0 208:-0.905 209:-0.462 210:-0.762 211:-0.324 212:-0.736 213:-0.048 214:0.162 215:-0.278 216:-0.683 217:0.127 218:-0.683 219:-0.1 220:-0.683 221:-0.612 222:-0.381 223:-0.61 224:0.15 225:-0.331 226:-0.177 227:-0.485 228:-0.535 229:-0.349 230:-0.462 231:-0.175 232:-0.355 233:0.333 234:0.137 235:0.01 236:-0.485 237:0.581 238:0.166 239:0.406 240:0.533 
-0.2304834842019982 1:-0.231 2:-0.366 3:-0.757 4:-0.867 5:-0.429 6:-0.301 7:-0.857 8:0.084 9:-0.857 10:-0.017 11:-0.148 12:-0.603 13:-0.857 14:-0.857 15:-0.857 16:-0.458 17:-0.562 18:0.074 19:-0.834 20:-0.462 21:-0.66 22:-0.762 23:-0.905 24:0.462 25:0 26:-0.905 27:0 28:0.462 29:-0.905 30:0 31:-0.905 32:-0.762 33:0.995 34:-0.762 35:0 36:0 37:0.462 38:0 39:-0.905 40:-0.964 41:-0.462 42:-0.762 43:0 44:1 45:-0.905 46:-0.964 47:-0.762 48:-0.905 49:-0.905 50:-0.462 51:-0.905 52:-0.462 53:-0.462 54:-0.905 55:-0.905 56:-0.905 57:-0.905 58:-0.462 59:-0.462 60:-0.462 61:-0.762 62:-0.462 63:-0.762 64:0.462 65:-0.462 66:0 67:0 68:-0.762 69:0 70:-0.462 71:-0.762 72:0 73:-0.762 74:-0.462 75:0.462 76:-0.462 77:0 78:-0.462 79:0.964 80:0.462 81:-0.762 82:-0.905 83:-0.462 84:-0.762 85:0.964 86:0 87:-0.762 88:-0.462 89:-0.762 90:0 91:-0.762 92:-0.462 93:-0.462 94:-0.462 95:-0.462 96:-0.762 97:-0.462 98:-0.462 99:-0.462 100:0.462 101:0 102:0 103:-0.905 104:-0.462 105:-0.762 106:-0.462 107:-0.462 108:-0.964 109:-0.905 110:0 111:-0.964 112:-0.905 113:0.762 114:-0.762 115:0.964 116:0.762 117:-0.905 118:-0.905 119:-0.762 120:-0.762 121:-0.762 122:-0.462 123:0.462 124:-0.762 125:-0.462 126:-0.462 127:-0.462 128:-0.462 129:-0.964 130:-0.905 131:0 132:-0.964 133:-0.905 134:0.762 135:-0.762 136:0.964 137:0.762 138:-0.905 139:-0.905 140:-0.762 141:-0.762 142:-0.762 143:-0.462 144:0.462 145:-0.762 146:-0.462 147:-0.462 148:-0.462 149:-0.905 150:0 151:0.762 152:-0.905 153:-0.762 154:0 155:-0.905 156:0.462 157:-0.762 158:0 159:0 160:-0.462 161:0.987 162:0.462 163:0 164:-0.462 165:-0.762 166:-0.762 167:-0.462 168:-0.462 169:-0.762 170:-0.905 171:0.995 172:0.762 173:-0.905 174:-0.462 175:-0.462 176:-0.905 177:-0.462 178:-0.964 179:-0.905 180:0.462 181:-0.462 182:0 183:-0.762 184:0 185:-0.462 186:-0.905 187:-0.964 188:-0.462 189:-0.905 190:-0.762 191:-0.905 192:0.995 193:0.762 194:-0.905 195:-0.462 196:-0.462 197:-0.905 198:-0.462 199:-0.964 200:-0.905 201:0.462 202:-0.462 203:0 204:-0.762 205:0 206:-0.462 207:-0.905 208:-0.964 209:-0.462 210:-0.905 211:-0.308 212:-0.462 213:-0.683 214:-0.683 215:-0.331 216:-0.813 217:-0.784 218:0.251 219:-0.683 220:0.15 221:0 222:-0.529 223:-0.683 224:-0.683 225:-0.683 226:-0.304 227:0.021 228:0.376 229:-0.784 230:-0.462 231:-0.562 232:-0.064 233:0.27 234:0.03 235:0.246 236:-0.177 237:0.722 238:0.211 239:-0.151 240:-0.087 
0.6043195860504451 1:-0.231 2:-0.831 3:-0.462 4:-0.612 5:-0.851 6:0.166 7:-0.712 8:-0.861 9:-0.612 10:-0.861 11:-0.784 12:-0.331 13:-0.125 14:-0.612 15:-0.712 16:-0.231 17:-0.612 18:-0.784 19:-0.779 20:-0.462 21:-0.831 22:-0.762 23:-0.905 24:0.462 25:0 26:-0.905 27:0 28:0.462 29:-0.905 30:0 31:-0.905 32:-0.762 33:0.995 34:-0.762 35:0 36:0 37:0.462 38:0 39:-0.905 40:-0.964 41:-0.462 42:-0.762 43:-0.462 44:-0.905 45:-0.762 46:0 47:-0.905 48:-0.762 49:0 50:-0.905 51:0.762 52:-0.762 53:-0.462 54:0 55:-0.762 56:0.462 57:0.987 58:-0.462 59:-0.462 60:-0.905 61:-0.905 62:-0.462 63:-0.762 64:-0.462 65:-0.905 66:-0.462 67:-0.462 68:-0.964 69:-0.762 70:-0.762 71:-0.905 72:-0.462 73:-0.905 74:-0.762 75:-0.762 76:0.998 77:-0.462 78:-0.762 79:-0.462 80:-0.462 81:-0.762 82:-0.964 83:-0.462 84:-0.905 85:-0.762 86:-0.905 87:-0.462 88:0 89:-0.462 90:-0.762 91:0.999 92:-0.905 93:-0.462 94:-0.905 95:-0.762 96:0.462 97:-0.762 98:0 99:0 100:-0.462 101:-0.762 102:-0.905 103:-0.762 104:-0.462 105:0.762 106:-0.462 107:-0.462 108:-0.964 109:-0.905 110:0 111:-0.964 112:-0.905 113:0.762 114:-0.762 115:0.964 116:0.762 117:-0.905 118:-0.905 119:-0.762 120:-0.762 121:-0.762 122:-0.462 123:0.462 124:-0.762 125:-0.462 126:-0.462 127:-0.462 128:-0.462 129:-0.905 130:-0.905 131:0 132:-0.964 133:-0.905 134:0.964 135:-0.905 136:0.762 137:0.462 138:-0.905 139:-0.905 140:-0.905 141:-0.905 142:-0.762 143:-0.462 144:0.905 145:-0.905 146:-0.462 147:-0.462 148:-0.462 149:-0.905 150:-0.762 151:0 152:-0.905 153:-0.762 154:0 155:-0.905 156:0.762 157:-0.762 158:-0.462 159:0 160:-0.762 161:0.462 162:0.987 163:-0.462 164:-0.462 165:-0.905 166:-0.905 167:-0.462 168:-0.762 169:-0.462 170:-0.462 171:-0.964 172:-0.905 173:0 174:-0.964 175:-0.905 176:0.762 177:-0.762 178:0.964 179:0.762 180:-0.905 181:-0.905 182:-0.762 183:-0.762 184:-0.762 185:-0.462 186:0.462 187:-0.762 188:-0.462 189:-0.462 190:-0.762 191:-0.762 192:-0.905 193:-0.905 194:0.995 195:-0.905 196:-0.462 197:0 198:-0.905 199:0 200:0 201:-0.905 202:-0.964 203:-0.905 204:-0.905 205:-0.762 206:-0.762 207:-0.462 208:0.462 209:-0.462 210:0.905 211:-0.05 212:-0.683 213:-0.088 214:0.127 215:-0.833 216:-0.331 217:-0.308 218:-0.833 219:0.177 220:-0.796 221:-0.536 222:0.308 223:-0.562 224:0.154 225:-0.029 226:0.328 227:0 228:-0.833 229:-0.915 230:-0.462 231:-0.786 232:-0.064 233:0.131 234:-0.117 235:0.082 236:-0.177 237:1 238:0.131 239:-0.031 240:0.6 
0.4489086328027584 1:-0.462 2:-0.462 3:-0.462 4:-0.462 5:-0.462 6:-0.462 7:-0.462 8:-0.462 9:-0.462 10:-0.462 11:-0.462 12:-0.462 13:-0.462 14:-0.462 15:-0.462 16:-0.462 17:-0.462 18:-0.462 19:-0.462 20:-0.462 21:-0.462 22:-0.462 23:-0.462 24:-0.964 25:-0.905 26:0 27:-0.964 28:-0.905 29:0.762 30:-0.762 31:0.964 32:0.762 33:-0.905 34:-0.905 35:-0.762 36:-0.762 37:-0.762 38:-0.462 39:0.462 40:-0.762 41:-0.462 42:-0.462 43:0.462 44:-0.462 45:0 46:0 47:-0.762 48:0 49:-0.462 50:-0.762 51:0 52:-0.762 53:-0.462 54:0.462 55:-0.462 56:0 57:-0.462 58:0.964 59:0.462 60:-0.762 61:-0.905 62:-0.462 63:-0.762 64:-0.462 65:-0.905 66:0 67:0.762 68:-0.905 69:-0.762 70:0 71:-0.905 72:0.462 73:-0.762 74:0 75:0 76:-0.462 77:0.987 78:0.462 79:0 80:-0.462 81:-0.762 82:-0.762 83:-0.462 84:-0.462 85:0 86:-0.462 87:-0.462 88:-0.462 89:-0.762 90:-0.762 91:-0.762 92:-0.462 93:-0.462 94:-0.462 95:-0.462 96:0 97:-0.462 98:-0.462 99:-0.462 100:0.462 101:0.987 102:0 103:-0.762 104:-0.462 105:-0.762 106:0.964 107:0 108:-0.762 109:-0.462 110:-0.762 111:0 112:-0.762 113:-0.462 114:-0.462 115:-0.462 116:-0.462 117:-0.762 118:-0.462 119:-0.462 120:-0.462 121:0.462 122:0 123:0 124:-0.905 125:-0.462 126:-0.762 127:0.462 128:-0.462 129:0 130:0 131:-0.762 132:0 133:-0.462 134:-0.762 135:0 136:-0.762 137:-0.462 138:0.462 139:-0.462 140:0 141:-0.462 142:0.964 143:0.462 144:-0.762 145:-0.905 146:-0.462 147:-0.762 148:-0.462 149:-0.964 150:0.762 151:0.987 152:-0.905 153:-0.762 154:0 155:-0.905 156:0.462 157:-0.905 158:-0.762 159:0 160:-0.462 161:0.762 162:0 163:0 164:-0.462 165:-0.762 166:-0.905 167:-0.462 168:-0.762 169:-0.762 170:-0.905 171:0.995 172:0.762 173:-0.905 174:-0.462 175:-0.462 176:-0.905 177:-0.462 178:-0.964 179:-0.905 180:0.462 181:-0.462 182:0 183:-0.762 184:0 185:-0.462 186:-0.905 187:-0.964 188:-0.462 189:-0.905 190:0.462 191:-0.462 192:0 193:0 194:-0.762 195:0 196:-0.462 197:-0.762 198:0 199:-0.762 200:-0.462 201:0.462 202:-0.462 203:0 204:-0.462 205:0.964 206:0.462 207:-0.762 208:-0.905 209:-0.462 210:-0.762 211:-0.508 212:-0.734 213:0.045 214:-0.024 215:-0.441 216:-0.683 217:-0.61 218:-0.151 219:-0.636 220:-0.328 221:-0.298 222:-0.221 223:-0.646 224:-0.405 225:-0.833 226:-0.381 227:-0.358 228:-0.208 229:-0.707 230:-0.462 231:-0.456 232:-0.177 233:-0.025 234:-0.067 235:0.107 236:0.281 237:0.136 238:0.166 239:-0.151 240:-0.06 
0.3674489474608369 1:-0.308 2:-0.683 3:-0.61 4:-0.562 5:-0.713 6:-0.76 7:-0.76 8:-0.228 9:-0.562 10:-0.376 11:-0.304 12:-0.76 13:0.168 14:-0.562 15:-0.76 16:-0.562 17:-0.308 18:-0.137 19:-0.861 20:-0.462 21:-0.683 22:-0.462 23:-0.905 24:0 25:0.762 26:-0.905 27:-0.762 28:0 29:-0.905 30:0.462 31:-0.762 32:0 33:0 34:-0.462 35:0.987 36:0.462 37:0 38:-0.462 39:-0.762 40:-0.762 41:-0.462 42:-0.462 43:-0.462 44:-0.462 45:-0.964 46:-0.905 47:0 48:-0.964 49:-0.905 50:0.762 51:-0.762 52:0.964 53:0.762 54:-0.905 55:-0.905 56:-0.762 57:-0.762 58:-0.762 59:-0.462 60:0.462 61:-0.762 62:-0.462 63:-0.462 64:-0.762 65:-0.905 66:0.462 67:0 68:-0.905 69:0 70:0.462 71:-0.905 72:0 73:-0.905 74:-0.762 75:0.995 76:-0.762 77:0 78:0 79:0.462 80:0 81:-0.905 82:-0.964 83:-0.462 84:-0.762 85:-0.462 86:-0.905 87:0 88:0.762 89:-0.905 90:-0.762 91:0 92:-0.905 93:0.462 94:-0.762 95:0 96:0 97:-0.462 98:0.987 99:0.462 100:0 101:-0.462 102:-0.762 103:-0.762 104:-0.462 105:-0.462 106:-0.462 107:-0.462 108:-0.905 109:-0.762 110:0 111:-0.905 112:-0.762 113:0.462 114:-0.462 115:0.762 116:0.987 117:-0.762 118:-0.762 119:0 120:-0.462 121:-0.462 122:-0.462 123:0.462 124:-0.462 125:-0.462 126:-0.462 127:0 128:-0.462 129:-0.905 130:-0.762 131:-0.462 132:-0.905 133:-0.905 134:0.905 135:-0.762 136:0.462 137:0.462 138:-0.905 139:-0.762 140:-0.762 141:-0.905 142:-0.762 143:0 144:0.964 145:-0.905 146:-0.462 147:-0.462 148:-0.462 149:-0.905 150:-0.762 151:0 152:-0.905 153:-0.762 154:0 155:-0.905 156:0.762 157:-0.762 158:-0.462 159:0 160:-0.762 161:0.462 162:0.987 163:-0.462 164:-0.462 165:-0.905 166:-0.905 167:-0.462 168:-0.762 169:0 170:-0.462 171:-0.462 172:-0.462 173:-0.762 174:-0.762 175:-0.762 176:-0.462 177:-0.462 178:-0.462 179:-0.462 180:0 181:-0.462 182:-0.462 183:-0.462 184:0.462 185:0.987 186:0 187:-0.762 188:-0.462 189:-0.762 190:0.964 191:0 192:-0.762 193:-0.462 194:-0.762 195:0 196:-0.762 197:-0.462 198:-0.462 199:-0.462 200:-0.462 201:-0.762 202:-0.462 203:-0.462 204:-0.462 205:0.462 206:0 207:0 208:-0.905 209:-0.462 210:-0.762 211:0.328 212:-0.398 213:-0.278 214:-0.029 215:-0.76 216:-0.405 217:-0.532 218:-0.382 219:-0.204 220:-0.456 221:-0.408 222:-0.532 223:-0.512 224:-0.104 225:-0.382 226:0.104 227:-0.154 228:-0.093 229:-0.905 230:-0.462 231:-0.712 232:0.054 233:-0.298 234:0.006 235:0.01 236:-0.062 237:0.927 238:0.131 239:-0.108 240:0.533 
-0.230070720634716 1:-0.458 2:-0.767 3:0.471 4:0.391 5:-0.857 6:-0.612 7:-0.485 8:-0.757 9:-0.308 10:-0.787 11:-0.734 12:0.231 13:-0.462 14:-0.027 15:-0.535 16:0.154 17:0.021 18:-0.58 19:-0.887 20:-0.462 21:-0.834 22:0 23:-0.462 24:-0.462 25:-0.462 26:-0.762 27:-0.762 28:-0.762 29:-0.462 30:-0.462 31:-0.462 32:-0.462 33:0 34:-0.462 35:-0.462 36:-0.462 37:0.462 38:0.987 39:0 40:-0.762 41:-0.462 42:-0.762 43:-0.762 44:-0.762 45:-0.905 46:-0.762 47:0.905 48:-0.905 49:0.762 50:-0.462 51:-0.762 52:-0.462 53:-0.462 54:-0.762 55:-0.905 56:-0.462 57:-0.762 58:-0.762 59:-0.762 60:-0.462 61:0.762 62:-0.462 63:0.998 64:0.964 65:0 66:-0.762 67:-0.462 68:-0.762 69:0 70:-0.762 71:-0.462 72:-0.462 73:-0.462 74:-0.462 75:-0.762 76:-0.462 77:-0.462 78:-0.462 79:0.462 80:0 81:0 82:-0.905 83:-0.462 84:-0.762 85:0 86:1 87:-0.905 88:-0.964 89:-0.762 90:-0.905 91:-0.905 92:-0.462 93:-0.905 94:-0.462 95:-0.462 96:-0.905 97:-0.905 98:-0.905 99:-0.905 100:-0.462 101:-0.462 102:-0.462 103:-0.762 104:-0.462 105:-0.762 106:-0.462 107:-0.905 108:-0.762 109:0 110:-0.905 111:-0.762 112:0 113:-0.905 114:0.762 115:-0.762 116:-0.462 117:0 118:-0.762 119:0.462 120:0.987 121:-0.462 122:-0.462 123:-0.905 124:-0.905 125:-0.462 126:-0.762 127:0 128:-0.462 129:-0.905 130:-0.762 131:-0.462 132:-0.905 133:-0.905 134:0.905 135:-0.762 136:0.462 137:0.462 138:-0.905 139:-0.762 140:-0.762 141:-0.905 142:-0.762 143:0 144:0.964 145:-0.905 146:-0.462 147:-0.462 148:-0.462 149:-0.905 150:-0.462 151:0.462 152:-0.905 153:-0.762 154:-0.462 155:-0.905 156:0.987 157:-0.762 158:-0.462 159:0 160:-0.462 161:0.462 162:0.762 163:0 164:-0.462 165:-0.762 166:-0.905 167:-0.462 168:-0.762 169:-0.762 170:-0.905 171:-0.462 172:0 173:-0.462 174:-0.762 175:0.999 176:-0.905 177:-0.462 178:-0.905 179:-0.762 180:0.462 181:-0.762 182:0 183:0 184:-0.462 185:-0.762 186:-0.905 187:-0.762 188:-0.462 189:0.762 190:-0.762 191:-0.905 192:0.995 193:0.762 194:-0.905 195:-0.462 196:-0.462 197:-0.905 198:-0.462 199:-0.964 200:-0.905 201:0.462 202:-0.462 203:0 204:-0.762 205:0 206:-0.462 207:-0.905 208:-0.964 209:-0.462 210:-0.905 211:0.238 212:-0.385 213:-0.429 214:-0.331 215:-0.508 216:-0.302 217:-0.612 218:-0.304 219:-0.231 220:-0.204 221:0.021 222:-0.15 223:-0.562 224:-0.077 225:-0.462 226:0.405 227:0.077 228:-0.227 229:-0.757 230:-0.462 231:-0.662 232:0.013 233:0.333 234:0.137 235:-0.434 236:-0.146 237:0.927 238:0.187 239:0.082 240:-0.087 
-0.2305738627821708 1:-0.612 2:-0.612 3:-0.683 4:-0.683 5:0.267 6:-0.683 7:-0.462 8:-0.231 9:-0.683 10:-0.231 11:-0.231 12:-0.683 13:-0.713 14:-0.683 15:-0.683 16:-0.612 17:-0.612 18:-0.462 19:0 20:-0.462 21:0.222 22:-0.762 23:-0.762 24:-0.905 25:-0.762 26:0.905 27:-0.905 28:0.762 29:-0.462 30:-0.762 31:-0.462 32:-0.462 33:-0.762 34:-0.905 35:-0.462 36:-0.762 37:-0.762 38:-0.762 39:-0.462 40:0.762 41:-0.462 42:0.998 43:0 44:-0.462 45:-0.462 46:-0.462 47:-0.762 48:-0.762 49:-0.762 50:-0.462 51:-0.462 52:-0.462 53:-0.462 54:0 55:-0.462 56:-0.462 57:-0.462 58:0.462 59:0.987 60:0 61:-0.762 62:-0.462 63:-0.762 64:0 65:-0.462 66:-0.462 67:-0.462 68:-0.762 69:-0.762 70:-0.762 71:-0.462 72:-0.462 73:-0.462 74:-0.462 75:0 76:-0.462 77:-0.462 78:-0.462 79:0.462 80:0.987 81:0 82:-0.762 83:-0.462 84:-0.762 85:0 86:-0.905 87:-0.462 88:-0.762 89:-0.905 90:0.995 91:-0.762 92:-0.964 93:-0.762 94:-0.964 95:-0.905 96:0 97:-0.762 98:-0.762 99:-0.762 100:0 101:-0.762 102:-0.905 103:-0.762 104:-0.462 105:-0.905 106:0.964 107:0 108:-0.762 109:-0.462 110:-0.762 111:0 112:-0.762 113:-0.462 114:-0.462 115:-0.462 116:-0.462 117:-0.762 118:-0.462 119:-0.462 120:-0.462 121:0.462 122:0 123:0 124:-0.905 125:-0.462 126:-0.762 127:0 128:-0.462 129:-0.905 130:-0.762 131:-0.462 132:-0.905 133:-0.905 134:0.905 135:-0.762 136:0.462 137:0.462 138:-0.905 139:-0.762 140:-0.762 141:-0.905 142:-0.762 143:0 144:0.964 145:-0.905 146:-0.462 147:-0.462 148:-0.462 149:-0.905 150:-0.762 151:0 152:-0.905 153:-0.762 154:0 155:-0.905 156:0.762 157:-0.762 158:-0.462 159:0 160:-0.762 161:0.462 162:0.987 163:-0.462 164:-0.462 165:-0.905 166:-0.905 167:-0.462 168:-0.762 169:-0.462 170:-0.905 171:0 172:0.762 173:-0.905 174:-0.762 175:0 176:-0.905 177:0.462 178:-0.762 179:0 180:0 181:-0.462 182:0.987 183:0.462 184:0 185:-0.462 186:-0.762 187:-0.762 188:-0.462 189:-0.462 190:-0.462 191:-0.462 192:-0.905 193:-0.905 194:0 195:-0.964 196:-0.905 197:0.964 198:-0.905 199:0.762 200:0.462 201:-0.905 202:-0.905 203:-0.905 204:-0.905 205:-0.762 206:-0.462 207:0.905 208:-0.905 209:-0.462 210:-0.462 211:-0.508 212:-0.833 213:-0.441 214:-0.58 215:0.045 216:-0.198 217:-0.562 218:-0.472 219:-0.784 220:-0.482 221:-0.452 222:-0.376 223:-0.813 224:-0.707 225:-0.834 226:-0.381 227:-0.712 228:-0.683 229:-0.184 230:-0.462 231:0 232:0.352 233:0.033 234:-0.372 235:-0.883 236:0.281 237:0.927 238:0.131 239:0.033 240:0.227 
