svm_type nu_svr
kernel_type rbf
gamma 0.00195312
nr_class 2
total_sv 365
rho -0.300474
SV
-0.3283942223273286 1:0.013 2:-0.529 3:-0.646 4:-0.074 5:-0.707 6:-0.542 7:-0.636 8:-0.48 9:0.212 10:-0.374 11:-0.258 12:-0.405 13:-0.536 14:-0.05 15:0.1 16:0.027 17:-0.308 18:-0.304 19:-0.881 20:-0.462 21:-0.712 22:-0.762 23:-0.762 24:-0.905 25:-0.762 26:0.905 27:-0.905 28:0.762 29:-0.462 30:-0.762 31:-0.462 32:-0.462 33:-0.762 34:-0.905 35:-0.462 36:-0.762 37:-0.762 38:-0.762 39:-0.462 40:0.762 41:-0.462 42:0.998 43:-0.462 44:-0.905 45:-0.462 46:0.462 47:-0.905 48:-0.762 49:-0.462 50:-0.905 51:0.987 52:-0.762 53:-0.462 54:0 55:-0.462 56:0.462 57:0.762 58:0 59:-0.462 60:-0.762 61:-0.905 62:-0.462 63:-0.762 64:0.964 65:0 66:-0.762 67:-0.462 68:-0.762 69:0 70:-0.762 71:-0.462 72:-0.462 73:-0.462 74:-0.462 75:-0.762 76:-0.462 77:-0.462 78:-0.462 79:0.462 80:0 81:0 82:-0.905 83:-0.462 84:-0.762 85:-0.762 86:-0.905 87:0.462 88:0 89:-0.905 90:0 91:0.462 92:-0.905 93:0 94:-0.905 95:-0.762 96:0.995 97:-0.762 98:0 99:0 100:0.462 101:0 102:-0.905 103:-0.964 104:-0.462 105:-0.762 106:-0.905 107:-0.762 108:-0.964 109:-0.905 110:0.462 111:-0.762 112:-0.762 113:-0.905 114:-0.905 115:-0.762 116:-0.462 117:-0.964 118:-0.964 119:-0.762 120:-0.905 121:-0.905 122:-0.762 123:-0.905 124:1 125:-0.462 126:0.762 127:-0.462 128:-0.462 129:-0.905 130:-0.905 131:0 132:-0.964 133:-0.905 134:0.964 135:-0.905 136:0.762 137:0.462 138:-0.905 139:-0.905 140:-0.905 141:-0.905 142:-0.762 143:-0.462 144:0.905 145:-0.905 146:-0.462 147:-0.462 148:-0.462 149:-0.964 150:0.762 151:0.987 152:-0.905 153:-0.762 154:0 155:-0.905 156:0.462 157:-0.905 158:-0.762 159:0 160:-0.462 161:0.762 162:0 163:0 164:-0.462 165:-0.762 166:-0.905 167:-0.462 168:-0.762 169:-0.462 170:-0.462 171:-0.905 172:-0.905 173:0 174:-0.964 175:-0.905 176:0.964 177:-0.905 178:0.762 179:0.462 180:-0.905 181:-0.905 182:-0.905 183:-0.905 184:-0.762 185:-0.462 186:0.905 187:-0.905 188:-0.462 189:-0.462 190:-0.462 191:-0.462 192:-0.905 193:-0.762 194:0 195:-0.905 196:-0.762 197:0.462 198:-0.462 199:0.762 200:0.987 201:-0.762 202:-0.762 203:0 204:-0.462 205:-0.462 206:-0.462 207:0.462 208:-0.462 209:-0.462 210:-0.462 211:-0.462 212:-0.757 213:-0.76 214:-0.225 215:-0.603 216:-0.829 217:-0.379 218:-0.282 219:0.244 220:-0.254 221:-0.154 222:-0.302 223:-0.76 224:0.006 225:0.319 226:-0.485 227:-0.462 228:-0.278 229:-0.905 230:-0.462 231:-0.662 232:1 233:0.345 234:0.457 235:0.479 236:0.265 237:-0.007 238:-0.463 239:0.247 240:0.721 
2 1:0.482 2:-0.453 3:-0.612 4:-0.612 5:-0.834 6:0.497 7:-0.762 8:-0.713 9:-0.612 10:-0.713 11:-0.683 12:-0.381 13:-0.612 14:-0.612 15:-0.612 16:0.231 17:-0.381 18:-0.453 19:-0.833 20:-0.462 21:-0.834 22:-0.462 23:-0.905 24:-0.462 25:-0.462 26:-0.964 27:-0.762 28:-0.762 29:-0.905 30:-0.462 31:-0.905 32:-0.762 33:-0.762 34:0.998 35:-0.462 36:-0.762 37:-0.462 38:-0.462 39:-0.762 40:-0.964 41:-0.462 42:-0.905 43:-0.462 44:-0.905 45:-0.462 46:0.462 47:-0.905 48:-0.762 49:-0.462 50:-0.905 51:0.987 52:-0.762 53:-0.462 54:0 55:-0.462 56:0.462 57:0.762 58:0 59:-0.462 60:-0.762 61:-0.905 62:-0.462 63:-0.762 64:-0.762 65:-0.905 66:0.995 67:0.762 68:-0.905 69:-0.462 70:-0.462 71:-0.905 72:-0.462 73:-0.964 74:-0.905 75:0.462 76:-0.462 77:0 78:-0.762 79:0 80:-0.462 81:-0.905 82:-0.964 83:-0.462 84:-0.905 85:-0.762 86:-0.905 87:0.462 88:0 89:-0.905 90:0 91:0.462 92:-0.905 93:0 94:-0.905 95:-0.762 96:0.995 97:-0.762 98:0 99:0 100:0.462 101:0 102:-0.905 103:-0.964 104:-0.462 105:-0.762 106:0 107:-0.905 108:-0.462 109:-0.762 110:-0.905 111:0.995 112:-0.762 113:-0.964 114:-0.762 115:-0.964 116:-0.905 117:0 118:-0.762 119:-0.762 120:-0.762 121:0 122:-0.762 123:-0.905 124:-0.762 125:-0.462 126:-0.905 127:0 128:-0.905 129:-0.462 130:-0.762 131:-0.905 132:0.995 133:-0.762 134:-0.964 135:-0.762 136:-0.964 137:-0.905 138:0 139:-0.762 140:-0.762 141:-0.762 142:0 143:-0.762 144:-0.905 145:-0.762 146:-0.462 147:-0.905 148:0.964 149:0 150:-0.762 151:-0.462 152:-0.762 153:0 154:-0.762 155:-0.462 156:-0.462 157:-0.462 158:-0.462 159:-0.762 160:-0.462 161:-0.462 162:-0.462 163:0.462 164:0 165:0 166:-0.905 167:-0.462 168:-0.762 169:0 170:1 171:-0.905 172:-0.964 173:-0.762 174:-0.905 175:-0.905 176:-0.462 177:-0.905 178:-0.462 179:-0.462 180:-0.905 181:-0.905 182:-0.905 183:-0.905 184:-0.462 185:-0.462 186:-0.462 187:-0.762 188:-0.462 189:-0.762 190:0 191:-0.905 192:-0.462 193:-0.762 194:-0.905 195:0.995 196:-0.762 197:-0.964 198:-0.762 199:-0.964 200:-0.905 201:0 202:-0.762 203:-0.762 204:-0.762 205:0 206:-0.762 207:-0.905 208:-0.762 209:-0.462 210:-0.905 211:-0.462 212:-0.462 213:-0.462 214:-0.462 215:-0.462 216:-0.462 217:-0.462 218:-0.462 219:-0.462 220:-0.462 221:-0.462 222:-0.462 223:-0.462 224:-0.462 225:-0.462 226:-0.462 227:-0.462 228:-0.462 229:-0.462 230:-0.462 231:-0.462 232:-0.089 233:0.345 234:0.043 235:0.479 236:0.154 237:0.1 238:-0.051 239:0.138 240:-0.44 
2 1:-0.462 2:-0.462 3:-0.683 4:-0.683 5:-0.231 6:-0.713 7:-0.683 8:0.251 9:-0.683 10:0.15 11:0 12:-0.683 13:-0.683 14:-0.683 15:-0.683 16:-0.612 17:-0.462 18:0.222 19:-0.683 20:-0.462 21:-0.462 22:-0.762 23:-0.762 24:-0.905 25:-0.762 26:0.905 27:-0.905 28:0.762 29:-0.462 30:-0.762 31:-0.462 32:-0.462 33:-0.762 34:-0.905 35:-0.462 36:-0.762 37:-0.762 38:-0.762 39:-0.462 40:0.762 41:-0.462 42:0.998 43:-0.462 44:-0.905 45:-0.462 46:0.462 47:-0.905 48:-0.762 49:-0.462 50:-0.905 51:0.987 52:-0.762 53:-0.462 54:0 55:-0.462 56:0.462 57:0.762 58:0 59:-0.462 60:-0.762 61:-0.905 62:-0.462 63:-0.762 64:0.964 65:0 66:-0.762 67:-0.462 68:-0.762 69:0 70:-0.762 71:-0.462 72:-0.462 73:-0.462 74:-0.462 75:-0.762 76:-0.462 77:-0.462 78:-0.462 79:0.462 80:0 81:0 82:-0.905 83:-0.462 84:-0.762 85:0.462 86:-0.462 87:0 88:0 89:-0.762 90:0 91:-0.462 92:-0.762 93:0 94:-0.762 95:-0.462 96:0.462 97:-0.462 98:0 99:-0.462 100:0.964 101:0.462 102:-0.762 103:-0.905 104:-0.462 105:-0.762 106:-0.462 107:-0.905 108:-0.462 109:-0.462 110:-0.964 111:-0.762 112:-0.762 113:-0.905 114:-0.462 115:-0.905 116:-0.762 117:-0.762 118:0.998 119:-0.462 120:-0.762 121:-0.462 122:-0.462 123:-0.762 124:-0.964 125:-0.462 126:-0.905 127:0 128:-0.462 129:-0.462 130:-0.462 131:-0.762 132:-0.762 133:-0.762 134:-0.462 135:-0.462 136:-0.462 137:-0.462 138:0 139:-0.462 140:-0.462 141:-0.462 142:0.462 143:0.987 144:0 145:-0.762 146:-0.462 147:-0.762 148:-0.462 149:-0.462 150:-0.964 151:-0.905 152:0 153:-0.964 154:-0.905 155:0.762 156:-0.762 157:0.964 158:0.762 159:-0.905 160:-0.905 161:-0.762 162:-0.762 163:-0.762 164:-0.462 165:0.462 166:-0.762 167:-0.462 168:-0.462 169:0.964 170:0 171:-0.762 172:-0.462 173:-0.762 174:0 175:-0.762 176:-0.462 177:-0.462 178:-0.462 179:-0.462 180:-0.762 181:-0.462 182:-0.462 183:-0.462 184:0.462 185:0 186:0 187:-0.905 188:-0.462 189:-0.762 190:-0.762 191:-0.762 192:-0.905 193:-0.905 194:0.995 195:-0.905 196:-0.462 197:0 198:-0.905 199:0 200:0 201:-0.905 202:-0.964 203:-0.905 204:-0.905 205:-0.762 206:-0.762 207:-0.462 208:0.462 209:-0.462 210:0.905 211:0.09 212:-0.603 213:-0.562 214:-0.512 215:-0.887 216:-0.215 217:-0.762 218:-0.767 219:-0.512 220:-0.767 221:-0.686 222:-0.635 223:0.218 224:-0.512 225:-0.662 226:-0.077 227:-0.358 228:-0.532 229:-0.911 230:-0.462 231:-0.857 232:1 233:0.345 234:0.457 235:0.187 236:-0.089 237:-0.177 238:-0.244 239:0.305 240:0.584 
-1.159371487944947 1:-0.635 2:-0.784 3:-0.221 4:-0.429 5:-0.198 6:-0.452 7:-0.074 8:-0.302 9:-0.429 10:-0.376 11:-0.304 12:0.045 13:-0.829 14:-0.429 15:-0.452 16:-0.15 17:-0.254 18:-0.446 19:-0.479 20:-0.462 21:-0.156 22:-0.762 23:-0.762 24:-0.905 25:-0.762 26:0.905 27:-0.905 28:0.762 29:-0.462 30:-0.762 31:-0.462 32:-0.462 33:-0.762 34:-0.905 35:-0.462 36:-0.762 37:-0.762 38:-0.762 39:-0.462 40:0.762 41:-0.462 42:0.998 43:-0.462 44:-0.964 45:0.762 46:0.987 47:-0.905 48:-0.762 49:0 50:-0.905 51:0.462 52:-0.905 53:-0.762 54:0 55:-0.462 56:0.762 57:0 58:0 59:-0.462 60:-0.762 61:-0.905 62:-0.462 63:-0.762 64:0 65:-0.462 66:-0.462 67:-0.462 68:-0.762 69:-0.762 70:-0.762 71:-0.462 72:-0.462 73:-0.462 74:-0.462 75:0 76:-0.462 77:-0.462 78:-0.462 79:0.462 80:0.987 81:0 82:-0.762 83:-0.462 84:-0.762 85:-0.462 86:-0.964 87:0.762 88:0.987 89:-0.905 90:-0.762 91:0 92:-0.905 93:0.462 94:-0.905 95:-0.762 96:0 97:-0.462 98:0.762 99:0 100:0 101:-0.462 102:-0.762 103:-0.905 104:-0.462 105:-0.762 106:0 107:-0.462 108:-0.462 109:-0.462 110:-0.762 111:-0.762 112:-0.762 113:-0.462 114:-0.462 115:-0.462 116:-0.462 117:0 118:-0.462 119:-0.462 120:-0.462 121:0.462 122:0.987 123:0 124:-0.762 125:-0.462 126:-0.762 127:0 128:-0.462 129:-0.462 130:-0.462 131:-0.762 132:-0.762 133:-0.762 134:-0.462 135:-0.462 136:-0.462 137:-0.462 138:0 139:-0.462 140:-0.462 141:-0.462 142:0.462 143:0.987 144:0 145:-0.762 146:-0.462 147:-0.762 148:0.462 149:-0.462 150:0 151:0 152:-0.762 153:0 154:-0.462 155:-0.762 156:0 157:-0.762 158:-0.462 159:0.462 160:-0.462 161:0 162:-0.462 163:0.964 164:0.462 165:-0.762 166:-0.905 167:-0.462 168:-0.762 169:0 170:-0.462 171:-0.905 172:-0.762 173:-0.462 174:-0.905 175:-0.905 176:0.905 177:-0.762 178:0.462 179:0.462 180:-0.905 181:-0.762 182:-0.762 183:-0.905 184:-0.762 185:0 186:0.964 187:-0.905 188:-0.462 189:-0.462 190:-0.462 191:-0.462 192:-0.905 193:-0.905 194:0 195:-0.964 196:-0.905 197:0.964 198:-0.905 199:0.762 200:0.462 201:-0.905 202:-0.905 203:-0.905 204:-0.905 205:-0.762 206:-0.462 207:0.905 208:-0.905 209:-0.462 210:-0.462 211:0.251 212:-0.453 213:-0.612 214:-0.462 215:-0.863 216:-0.381 217:-0.762 218:-0.683 219:-0.462 220:-0.683 221:-0.612 222:-0.762 223:0.268 224:-0.462 225:-0.612 226:-0 227:-0.231 228:-0.381 229:-0.934 230:-0.462 231:-0.834 232:1 233:-0.172 234:-0.12 235:0.323 236:0.254 237:-0.177 238:-0.432 239:0.004 240:0.714 
-2 1:-0.612 2:-0.683 3:-0.073 4:-0.199 5:-0.452 6:-0.636 7:-0.529 8:-0.071 9:-0.535 10:0.01 11:-0.048 12:-0.133 13:-0.734 14:-0.381 15:-0.635 16:-0.304 17:-0.385 18:-0.221 19:-0.863 20:-0.462 21:-0.66 22:0.964 23:0 24:-0.762 25:-0.462 26:-0.762 27:0 28:-0.762 29:-0.462 30:-0.462 31:-0.462 32:-0.462 33:-0.762 34:-0.462 35:-0.462 36:-0.462 37:0.462 38:0 39:0 40:-0.905 41:-0.462 42:-0.762 43:-0.462 44:-0.905 45:-0.462 46:0.462 47:-0.905 48:-0.762 49:-0.462 50:-0.905 51:0.987 52:-0.762 53:-0.462 54:0 55:-0.462 56:0.462 57:0.762 58:0 59:-0.462 60:-0.762 61:-0.905 62:-0.462 63:-0.762 64:-0.762 65:-0.762 66:-0.905 67:-0.762 68:0.905 69:-0.905 70:0.762 71:-0.462 72:-0.762 73:-0.462 74:-0.462 75:-0.762 76:-0.905 77:-0.462 78:-0.762 79:-0.762 80:-0.762 81:-0.462 82:0.762 83:-0.462 84:0.998 85:-0.462 86:-0.905 87:-0.462 88:0.462 89:-0.905 90:-0.762 91:-0.462 92:-0.905 93:0.987 94:-0.762 95:-0.462 96:0 97:-0.462 98:0.462 99:0.762 100:0 101:-0.462 102:-0.762 103:-0.905 104:-0.462 105:-0.762 106:0.964 107:0 108:-0.762 109:-0.462 110:-0.762 111:0 112:-0.762 113:-0.462 114:-0.462 115:-0.462 116:-0.462 117:-0.762 118:-0.462 119:-0.462 120:-0.462 121:0.462 122:0 123:0 124:-0.905 125:-0.462 126:-0.762 127:-0.762 128:-0.905 129:0.462 130:0 131:-0.905 132:0 133:0.462 134:-0.905 135:0 136:-0.905 137:-0.762 138:0.995 139:-0.762 140:0 141:0 142:0.462 143:0 144:-0.905 145:-0.964 146:-0.462 147:-0.762 148:-0.905 149:-0.762 150:-0.964 151:-0.905 152:0.462 153:-0.762 154:-0.762 155:-0.905 156:-0.905 157:-0.762 158:-0.462 159:-0.964 160:-0.964 161:-0.762 162:-0.905 163:-0.905 164:-0.762 165:-0.905 166:1 167:-0.462 168:0.762 169:-0.462 170:-0.462 171:-0.905 172:-0.905 173:0 174:-0.964 175:-0.905 176:0.964 177:-0.905 178:0.762 179:0.462 180:-0.905 181:-0.905 182:-0.905 183:-0.905 184:-0.762 185:-0.462 186:0.905 187:-0.905 188:-0.462 189:-0.462 190:-0.462 191:-0.964 192:0.762 193:0.987 194:-0.905 195:-0.762 196:0 197:-0.905 198:0.462 199:-0.905 200:-0.762 201:0 202:-0.462 203:0.762 204:0 205:0 206:-0.462 207:-0.762 208:-0.905 209:-0.462 210:-0.762 211:-0.462 212:-0.462 213:-0.462 214:-0.462 215:-0.462 216:-0.462 217:-0.462 218:-0.462 219:-0.462 220:-0.462 221:-0.462 222:-0.462 223:-0.462 224:-0.462 225:-0.462 226:-0.462 227:-0.462 228:-0.462 229:-0.462 230:-0.462 231:-0.462 232:0.258 233:0.345 234:0.144 235:-0.008 236:0.13 237:-0.172 238:-0.011 239:0.247 240:-0.017 
2 1:-0.376 2:-0.612 3:-0.633 4:-0.58 5:-0.023 6:-0.532 7:-0.662 8:-0.629 9:-0.529 10:-0.508 11:-0.221 12:-0.455 13:-0.763 14:-0.381 15:-0.683 16:-0.208 17:-0.304 18:-0.629 19:0.121 20:-0.462 21:0.05 22:-0.462 23:-0.905 24:0 25:0.762 26:-0.905 27:-0.762 28:0 29:-0.905 30:0.462 31:-0.762 32:0 33:0 34:-0.462 35:0.987 36:0.462 37:0 38:-0.462 39:-0.762 40:-0.762 41:-0.462 42:-0.462 43:0 44:-0.462 45:-0.462 46:-0.462 47:-0.762 48:-0.762 49:-0.762 50:-0.462 51:-0.462 52:-0.462 53:-0.462 54:0 55:-0.462 56:-0.462 57:-0.462 58:0.462 59:0.987 60:0 61:-0.762 62:-0.462 63:-0.762 64:-0.762 65:-0.762 66:-0.905 67:-0.762 68:0.905 69:-0.905 70:0.762 71:-0.462 72:-0.762 73:-0.462 74:-0.462 75:-0.762 76:-0.905 77:-0.462 78:-0.762 79:-0.762 80:-0.762 81:-0.462 82:0.762 83:-0.462 84:0.998 85:0 86:-0.462 87:-0.905 88:-0.762 89:-0.462 90:-0.905 91:-0.905 92:0.905 93:-0.762 94:0.462 95:0.462 96:-0.905 97:-0.762 98:-0.762 99:-0.905 100:-0.762 101:0 102:0.964 103:-0.905 104:-0.462 105:-0.462 106:-0.762 107:-0.905 108:0.995 109:0.762 110:-0.905 111:-0.462 112:-0.462 113:-0.905 114:-0.462 115:-0.964 116:-0.905 117:0.462 118:-0.462 119:0 120:-0.762 121:0 122:-0.462 123:-0.905 124:-0.964 125:-0.462 126:-0.905 127:-0.462 128:-0.964 129:0.762 130:0.987 131:-0.905 132:-0.762 133:0 134:-0.905 135:0.462 136:-0.905 137:-0.762 138:0 139:-0.462 140:0.762 141:0 142:0 143:-0.462 144:-0.762 145:-0.905 146:-0.462 147:-0.762 148:-0.762 149:-0.905 150:-0.462 151:0 152:-0.462 153:-0.762 154:0.999 155:-0.905 156:-0.462 157:-0.905 158:-0.762 159:0.462 160:-0.762 161:0 162:0 163:-0.462 164:-0.762 165:-0.905 166:-0.762 167:-0.462 168:0.762 169:-0.462 170:-0.462 171:-0.964 172:-0.905 173:0 174:-0.964 175:-0.905 176:0.762 177:-0.762 178:0.964 179:0.762 180:-0.905 181:-0.905 182:-0.762 183:-0.762 184:-0.762 185:-0.462 186:0.462 187:-0.762 188:-0.462 189:-0.462 190:-0.462 191:-0.462 192:-0.905 193:-0.762 194:0 195:-0.905 196:-0.762 197:0.462 198:-0.462 199:0.762 200:0.987 201:-0.762 202:-0.762 203:0 204:-0.462 205:-0.462 206:-0.462 207:0.462 208:-0.462 209:-0.462 210:-0.462 211:-0.231 212:0.102 213:-0.349 214:-0.304 215:-0.683 216:-0.867 217:-0.603 218:-0.372 219:-0.449 220:-0.406 221:-0.408 222:-0.603 223:-0.757 224:-0.349 225:-0.603 226:-0.358 227:-0.462 228:-0.334 229:-0.833 230:-0.462 231:-0.712 232:-0.562 233:0.099 234:0.144 235:0.467 236:-0.176 237:-0.129 238:-0.032 239:-0.116 240:0.721 
-1.209600212683141 1:-0.224 2:-0.607 3:-0.679 4:-0.61 5:-0.609 6:-0.702 7:-0.81 8:-0.276 9:-0.562 10:-0.208 11:-0.204 12:-0.81 13:0.12 14:-0.562 15:-0.712 16:-0.408 17:-0.385 18:-0.227 19:-0.887 20:-0.462 21:-0.734 22:0 23:-0.462 24:-0.905 25:-0.762 26:-0.462 27:-0.905 28:-0.905 29:0.905 30:-0.762 31:0.462 32:0.462 33:-0.905 34:-0.762 35:-0.762 36:-0.905 37:-0.762 38:0 39:0.964 40:-0.905 41:-0.462 42:-0.462 43:0 44:-0.462 45:-0.905 46:-0.762 47:-0.462 48:-0.905 49:-0.905 50:0.905 51:-0.762 52:0.462 53:0.462 54:-0.905 55:-0.762 56:-0.762 57:-0.905 58:-0.762 59:0 60:0.964 61:-0.905 62:-0.462 63:-0.462 64:-0.462 65:-0.462 66:-0.964 67:-0.905 68:0 69:-0.964 70:-0.905 71:0.762 72:-0.762 73:0.964 74:0.762 75:-0.905 76:-0.905 77:-0.762 78:-0.762 79:-0.762 80:-0.462 81:0.462 82:-0.762 83:-0.462 84:-0.462 85:-0.462 86:-0.964 87:0.762 88:0.987 89:-0.905 90:-0.762 91:0 92:-0.905 93:0.462 94:-0.905 95:-0.762 96:0 97:-0.462 98:0.762 99:0 100:0 101:-0.462 102:-0.762 103:-0.905 104:-0.462 105:-0.762 106:-0.762 107:-0.905 108:0.462 109:0 110:-0.905 111:0 112:0.462 113:-0.905 114:0 115:-0.905 116:-0.762 117:0.995 118:-0.762 119:0 120:0 121:0.462 122:0 123:-0.905 124:-0.964 125:-0.462 126:-0.762 127:0.964 128:0 129:-0.762 130:-0.462 131:-0.762 132:0 133:-0.762 134:-0.462 135:-0.462 136:-0.462 137:-0.462 138:-0.762 139:-0.462 140:-0.462 141:-0.462 142:0.462 143:0 144:0 145:-0.905 146:-0.462 147:-0.762 148:-0.462 149:-0.905 150:-0.762 151:0 152:-0.905 153:-0.762 154:0 155:-0.905 156:0.762 157:-0.762 158:-0.462 159:0 160:-0.762 161:0.462 162:0.987 163:-0.462 164:-0.462 165:-0.905 166:-0.905 167:-0.462 168:-0.762 169:-0.462 170:-0.462 171:-0.905 172:-0.905 173:0 174:-0.964 175:-0.905 176:0.964 177:-0.905 178:0.762 179:0.462 180:-0.905 181:-0.905 182:-0.905 183:-0.905 184:-0.762 185:-0.462 186:0.905 187:-0.905 188:-0.462 189:-0.462 190:-0.462 191:-0.462 192:-0.964 193:-0.905 194:0 195:-0.964 196:-0.905 197:0.762 198:-0.762 199:0.964 200:0.762 201:-0.905 202:-0.905 203:-0.762 204:-0.762 205:-0.762 206:-0.462 207:0.462 208:-0.762 209:-0.462 210:-0.462 211:-0.462 212:-0.683 213:-0.462 214:0 215:-0.683 216:-0.612 217:-0.462 218:-0.683 219:0.263 220:-0.612 221:-0.462 222:-0.231 223:-0.462 224:0 225:0.15 226:-0.231 227:-0.462 228:-0.612 229:-0.683 230:-0.462 231:-0.612 232:0.272 233:0.169 234:-0.209 235:0.323 236:0.246 237:0.104 238:-0.664 239:0.247 240:0.487 
-2 1:-0.485 2:-0.683 3:-0.376 4:-0.58 5:-0.452 6:-0.316 7:-0.425 8:0.02 9:-0.58 10:-0.081 11:-0.174 12:-0.121 13:-0.834 14:-0.58 15:-0.58 16:-0.227 17:-0.358 18:0 19:-0.901 20:-0.462 21:-0.636 22:-0.762 23:-0.762 24:-0.905 25:-0.762 26:0.905 27:-0.905 28:0.762 29:-0.462 30:-0.762 31:-0.462 32:-0.462 33:-0.762 34:-0.905 35:-0.462 36:-0.762 37:-0.762 38:-0.762 39:-0.462 40:0.762 41:-0.462 42:0.998 43:0 44:-0.462 45:-0.462 46:-0.462 47:-0.762 48:-0.762 49:-0.762 50:-0.462 51:-0.462 52:-0.462 53:-0.462 54:0 55:-0.462 56:-0.462 57:-0.462 58:0.462 59:0.987 60:0 61:-0.762 62:-0.462 63:-0.762 64:-0.462 65:-0.905 66:-0.462 67:0.462 68:-0.905 69:-0.762 70:-0.462 71:-0.905 72:0.987 73:-0.762 74:-0.462 75:0 76:-0.462 77:0.462 78:0.762 79:0 80:-0.462 81:-0.762 82:-0.905 83:-0.462 84:-0.762 85:-0.462 86:-0.905 87:-0.462 88:0.462 89:-0.905 90:-0.762 91:-0.462 92:-0.905 93:0.987 94:-0.762 95:-0.462 96:0 97:-0.462 98:0.462 99:0.762 100:0 101:-0.462 102:-0.762 103:-0.905 104:-0.462 105:-0.762 106:-0.462 107:-0.964 108:0.762 109:0.987 110:-0.905 111:-0.762 112:0 113:-0.905 114:0.462 115:-0.905 116:-0.762 117:0 118:-0.462 119:0.762 120:0 121:0 122:-0.462 123:-0.762 124:-0.905 125:-0.462 126:-0.762 127:0.964 128:0 129:-0.762 130:-0.462 131:-0.762 132:0 133:-0.762 134:-0.462 135:-0.462 136:-0.462 137:-0.462 138:-0.762 139:-0.462 140:-0.462 141:-0.462 142:0.462 143:0 144:0 145:-0.905 146:-0.462 147:-0.762 148:-0.762 149:-0.762 150:-0.905 151:-0.905 152:0.995 153:-0.905 154:-0.462 155:0 156:-0.905 157:0 158:0 159:-0.905 160:-0.964 161:-0.905 162:-0.905 163:-0.762 164:-0.762 165:-0.462 166:0.462 167:-0.462 168:0.905 169:-0.762 170:-0.905 171:0.462 172:0 173:-0.905 174:0 175:0.462 176:-0.905 177:0 178:-0.905 179:-0.762 180:0.995 181:-0.762 182:0 183:0 184:0.462 185:0 186:-0.905 187:-0.964 188:-0.462 189:-0.762 190:0 191:-0.462 192:-0.905 193:-0.762 194:-0.462 195:-0.905 196:-0.905 197:0.905 198:-0.762 199:0.462 200:0.462 201:-0.905 202:-0.762 203:-0.762 204:-0.905 205:-0.762 206:0 207:0.964 208:-0.905 209:-0.462 210:-0.462 211:-0.462 212:-0.713 213:0.15 214:0.263 215:-0.683 216:-0.612 217:-0.231 218:-0.683 219:0 220:-0.683 221:-0.612 222:-0.231 223:-0.462 224:0.15 225:-0.231 226:-0.231 227:-0.462 228:-0.612 229:-0.683 230:-0.462 231:-0.612 232:1 233:0.099 234:0.197 235:-0.008 236:-0.089 237:0.104 238:0.089 239:0.104 240:0.816 
2 1:-0.485 2:-0.861 3:0.636 4:0.67 5:-0.881 6:-0.662 7:-0.281 8:-0.831 9:0 10:-0.851 11:-0.76 12:0.154 13:-0.462 14:0.304 15:-0.331 16:0.077 17:-0.221 18:-0.683 19:-0.901 20:-0.462 21:-0.81 22:-0.762 23:-0.762 24:-0.905 25:-0.762 26:0.905 27:-0.905 28:0.762 29:-0.462 30:-0.762 31:-0.462 32:-0.462 33:-0.762 34:-0.905 35:-0.462 36:-0.762 37:-0.762 38:-0.762 39:-0.462 40:0.762 41:-0.462 42:0.998 43:0 44:1 45:-0.905 46:-0.964 47:-0.762 48:-0.905 49:-0.905 50:-0.462 51:-0.905 52:-0.462 53:-0.462 54:-0.905 55:-0.905 56:-0.905 57:-0.905 58:-0.462 59:-0.462 60:-0.462 61:-0.762 62:-0.462 63:-0.762 64:0.462 65:-0.462 66:0 67:0 68:-0.762 69:0 70:-0.462 71:-0.762 72:0 73:-0.762 74:-0.462 75:0.462 76:-0.462 77:0 78:-0.462 79:0.964 80:0.462 81:-0.762 82:-0.905 83:-0.462 84:-0.762 85:-0.462 86:-0.905 87:-0.462 88:-0.462 89:-0.964 90:-0.762 91:-0.762 92:-0.905 93:-0.462 94:-0.905 95:-0.762 96:-0.762 97:0.998 98:-0.462 99:-0.762 100:-0.462 101:-0.462 102:-0.762 103:-0.964 104:-0.462 105:-0.905 106:-0.762 107:-0.905 108:0.995 109:0.762 110:-0.905 111:-0.462 112:-0.462 113:-0.905 114:-0.462 115:-0.964 116:-0.905 117:0.462 118:-0.462 119:0 120:-0.762 121:0 122:-0.462 123:-0.905 124:-0.964 125:-0.462 126:-0.905 127:-0.762 128:-0.905 129:-0.462 130:0 131:-0.462 132:-0.762 133:0.999 134:-0.905 135:-0.462 136:-0.905 137:-0.762 138:0.462 139:-0.762 140:0 141:0 142:-0.462 143:-0.762 144:-0.905 145:-0.762 146:-0.462 147:0.762 148:-0.762 149:-0.905 150:0.462 151:0 152:-0.905 153:0 154:0.462 155:-0.905 156:0 157:-0.905 158:-0.762 159:0.995 160:-0.762 161:0 162:0 163:0.462 164:0 165:-0.905 166:-0.964 167:-0.462 168:-0.762 169:0 170:1 171:-0.905 172:-0.964 173:-0.762 174:-0.905 175:-0.905 176:-0.462 177:-0.905 178:-0.462 179:-0.462 180:-0.905 181:-0.905 182:-0.905 183:-0.905 184:-0.462 185:-0.462 186:-0.462 187:-0.762 188:-0.462 189:-0.762 190:-0.462 191:-0.905 192:0 193:0.762 194:-0.905 195:-0.762 196:0 197:-0.905 198:0.462 199:-0.762 200:0 201:0 202:-0.462 203:0.987 204:0.462 205:0 206:-0.462 207:-0.762 208:-0.762 209:-0.462 210:-0.462 211:-0.462 212:-0.462 213:-0.462 214:-0.462 215:-0.462 216:-0.462 217:-0.462 218:-0.462 219:-0.462 220:-0.462 221:-0.462 222:-0.462 223:-0.462 224:-0.462 225:-0.462 226:-0.462 227:-0.462 228:-0.462 229:-0.462 230:-0.462 231:-0.462 232:1 233:0.055 234:0.032 235:0.023 236:-0.176 237:-0.251 238:-0.172 239:0.138 240:-0.015 
2 1:0.803 2:-0.077 3:-0.786 4:-0.512 5:-0.712 6:-0.151 7:-0.786 8:-0.234 9:-0.512 10:-0.308 11:-0.308 12:-0.786 13:-0.512 14:-0.512 15:-0.536 16:0.258 17:0 18:0.161 19:-0.905 20:-0.462 21:-0.712 22:0.964 23:0 24:-0.762 25:-0.462 26:-0.762 27:0 28:-0.762 29:-0.462 30:-0.462 31:-0.462 32:-0.462 33:-0.762 34:-0.462 35:-0.462 36:-0.462 37:0.462 38:0 39:0 40:-0.905 41:-0.462 42:-0.762 43:-0.462 44:-0.905 45:-0.462 46:-0.462 47:-0.964 48:-0.762 49:-0.762 50:-0.905 51:-0.462 52:-0.905 53:-0.762 54:-0.762 55:0.998 56:-0.462 57:-0.762 58:-0.462 59:-0.462 60:-0.762 61:-0.964 62:-0.462 63:-0.905 64:-0.462 65:-0.905 66:0 67:0.762 68:-0.905 69:-0.762 70:0 71:-0.905 72:0.462 73:-0.762 74:0 75:0 76:-0.462 77:0.987 78:0.462 79:0 80:-0.462 81:-0.762 82:-0.762 83:-0.462 84:-0.462 85:0 86:-0.462 87:-0.905 88:-0.762 89:-0.462 90:-0.905 91:-0.905 92:0.905 93:-0.762 94:0.462 95:0.462 96:-0.905 97:-0.762 98:-0.762 99:-0.905 100:-0.762 101:0 102:0.964 103:-0.905 104:-0.462 105:-0.462 106:-0.462 107:-0.905 108:-0.462 109:0.462 110:-0.905 111:-0.762 112:-0.462 113:-0.905 114:0.987 115:-0.762 116:-0.462 117:0 118:-0.462 119:0.462 120:0.762 121:0 122:-0.462 123:-0.762 124:-0.905 125:-0.462 126:-0.762 127:-0.762 128:-0.762 129:-0.905 130:-0.762 131:0.905 132:-0.905 133:0.762 134:-0.462 135:-0.762 136:-0.462 137:-0.462 138:-0.762 139:-0.905 140:-0.462 141:-0.762 142:-0.762 143:-0.762 144:-0.462 145:0.762 146:-0.462 147:0.998 148:0.964 149:0 150:-0.762 151:-0.462 152:-0.762 153:0 154:-0.762 155:-0.462 156:-0.462 157:-0.462 158:-0.462 159:-0.762 160:-0.462 161:-0.462 162:-0.462 163:0.462 164:0 165:0 166:-0.905 167:-0.462 168:-0.762 169:0 170:-0.462 171:-0.905 172:-0.762 173:-0.462 174:-0.905 175:-0.905 176:0.905 177:-0.762 178:0.462 179:0.462 180:-0.905 181:-0.762 182:-0.762 183:-0.905 184:-0.762 185:0 186:0.964 187:-0.905 188:-0.462 189:-0.462 190:-0.762 191:-0.762 192:-0.905 193:-0.905 194:0.995 195:-0.905 196:-0.462 197:0 198:-0.905 199:0 200:0 201:-0.905 202:-0.964 203:-0.905 204:-0.905 205:-0.762 206:-0.762 207:-0.462 208:0.462 209:-0.462 210:0.905 211:0.013 212:-0.559 213:0.05 214:0.263 215:-0.784 216:-0.458 217:-0.331 218:-0.683 219:0 220:-0.683 221:-0.612 222:-0.331 223:-0.462 224:0.15 225:-0.231 226:0.077 227:-0.308 228:-0.458 229:-0.831 230:-0.462 231:-0.712 232:0.258 233:-0.726 234:0.032 235:0.467 236:-0.098 237:0.551 238:-0.051 239:0.004 240:0.584 
2 1:0.482 2:-0.231 3:-0.612 4:-0.462 5:-0.762 6:-0.381 7:-0.762 8:-0.462 9:-0.462 10:-0.462 11:-0.462 12:-0.381 13:-0.462 14:-0.462 15:-0.462 16:0.462 17:0.493 18:0 19:-0.833 20:-0.462 21:-0.762 22:-0.762 23:-0.762 24:-0.905 25:-0.762 26:0.905 27:-0.905 28:0.762 29:-0.462 30:-0.762 31:-0.462 32:-0.462 33:-0.762 34:-0.905 35:-0.462 36:-0.762 37:-0.762 38:-0.762 39:-0.462 40:0.762 41:-0.462 42:0.998 43:0.964 44:0 45:-0.762 46:-0.462 47:-0.762 48:0 49:-0.762 50:-0.462 51:-0.462 52:-0.462 53:-0.462 54:-0.762 55:-0.462 56:-0.462 57:-0.462 58:0.462 59:0 60:0 61:-0.905 62:-0.462 63:-0.762 64:0 65:-0.462 66:-0.905 67:-0.762 68:-0.462 69:-0.905 70:-0.905 71:0.905 72:-0.762 73:0.462 74:0.462 75:-0.905 76:-0.762 77:-0.762 78:-0.905 79:-0.762 80:0 81:0.964 82:-0.905 83:-0.462 84:-0.462 85:0 86:-0.462 87:-0.462 88:-0.462 89:-0.762 90:-0.762 91:-0.762 92:-0.462 93:-0.462 94:-0.462 95:-0.462 96:0 97:-0.462 98:-0.462 99:-0.462 100:0.462 101:0.987 102:0 103:-0.762 104:-0.462 105:-0.762 106:0 107:-0.462 108:-0.462 109:-0.462 110:-0.762 111:-0.762 112:-0.762 113:-0.462 114:-0.462 115:-0.462 116:-0.462 117:0 118:-0.462 119:-0.462 120:-0.462 121:0.462 122:0.987 123:0 124:-0.762 125:-0.462 126:-0.762 127:-0.762 128:-0.762 129:-0.905 130:-0.905 131:0.995 132:-0.905 133:-0.462 134:0 135:-0.905 136:0 137:0 138:-0.905 139:-0.964 140:-0.905 141:-0.905 142:-0.762 143:-0.762 144:-0.462 145:0.462 146:-0.462 147:0.905 148:0.462 149:-0.462 150:0 151:0 152:-0.762 153:0 154:-0.462 155:-0.762 156:0 157:-0.762 158:-0.462 159:0.462 160:-0.462 161:0 162:-0.462 163:0.964 164:0.462 165:-0.762 166:-0.905 167:-0.462 168:-0.762 169:-0.762 170:-0.905 171:0.462 172:0 173:-0.905 174:0 175:0.462 176:-0.905 177:0 178:-0.905 179:-0.762 180:0.995 181:-0.762 182:0 183:0 184:0.462 185:0 186:-0.905 187:-0.964 188:-0.462 189:-0.762 190:0 191:-0.462 192:-0.905 193:-0.762 194:-0.462 195:-0.905 196:-0.905 197:0.905 198:-0.762 199:0.462 200:0.462 201:-0.905 202:-0.762 203:-0.762 204:-0.905 205:-0.762 206:0 207:0.964 208:-0.905 209:-0.462 210:-0.462 211:-0.462 212:-0.462 213:-0.462 214:-0.462 215:-0.462 216:-0.462 217:-0.462 218:-0.462 219:-0.462 220:-0.462 221:-0.462 222:-0.462 223:-0.462 224:-0.462 225:-0.462 226:-0.462 227:-0.462 228:-0.462 229:-0.462 230:-0.462 231:-0.462 232:1 233:0.096 234:0.196 235:0.525 236:0.254 237:0.539 238:-0.432 239:0.104 240:0.816 
-2 1:-0.231 2:0.121 3:-0.683 4:-0.713 5:-0.779 6:-0.784 7:-0.784 8:-0.61 9:-0.683 10:-0.61 11:-0.562 12:-0.784 13:-0.197 14:-0.683 15:-0.784 16:-0.462 17:-0.462 18:-0.562 19:-0.779 20:-0.462 21:-0.76 22:0 23:-0.462 24:-0.905 25:-0.762 26:-0.462 27:-0.905 28:-0.905 29:0.905 30:-0.762 31:0.462 32:0.462 33:-0.905 34:-0.762 35:-0.762 36:-0.905 37:-0.762 38:0 39:0.964 40:-0.905 41:-0.462 42:-0.462 43:-0.762 44:-0.762 45:-0.905 46:-0.905 47:0.995 48:-0.905 49:-0.462 50:0 51:-0.905 52:0 53:0 54:-0.905 55:-0.964 56:-0.905 57:-0.905 58:-0.762 59:-0.762 60:-0.462 61:0.462 62:-0.462 63:0.905 64:-0.462 65:-0.462 66:-0.905 67:-0.905 68:0 69:-0.964 70:-0.905 71:0.964 72:-0.905 73:0.762 74:0.462 75:-0.905 76:-0.905 77:-0.905 78:-0.905 79:-0.762 80:-0.462 81:0.905 82:-0.905 83:-0.462 84:-0.462 85:-0.462 86:-0.905 87:-0.462 88:0.462 89:-0.905 90:-0.762 91:-0.462 92:-0.905 93:0.987 94:-0.762 95:-0.462 96:0 97:-0.462 98:0.462 99:0.762 100:0 101:-0.462 102:-0.762 103:-0.905 104:-0.462 105:-0.762 106:-0.462 107:-0.905 108:-0.762 109:0 110:-0.905 111:-0.762 112:0 113:-0.905 114:0.762 115:-0.762 116:-0.462 117:0 118:-0.762 119:0.462 120:0.987 121:-0.462 122:-0.462 123:-0.905 124:-0.905 125:-0.462 126:-0.762 127:0 128:-0.462 129:-0.905 130:-0.762 131:-0.462 132:-0.905 133:-0.905 134:0.905 135:-0.762 136:0.462 137:0.462 138:-0.905 139:-0.762 140:-0.762 141:-0.905 142:-0.762 143:0 144:0.964 145:-0.905 146:-0.462 147:-0.462 148:0.462 149:-0.462 150:0 151:0 152:-0.762 153:0 154:-0.462 155:-0.762 156:0 157:-0.762 158:-0.462 159:0.462 160:-0.462 161:0 162:-0.462 163:0.964 164:0.462 165:-0.762 166:-0.905 167:-0.462 168:-0.762 169:-0.762 170:-0.905 171:0.462 172:0 173:-0.905 174:0 175:0.462 176:-0.905 177:0 178:-0.905 179:-0.762 180:0.995 181:-0.762 182:0 183:0 184:0.462 185:0 186:-0.905 187:-0.964 188:-0.462 189:-0.762 190:0 191:-0.462 192:-0.905 193:-0.762 194:-0.462 195:-0.905 196:-0.905 197:0.905 198:-0.762 199:0.462 200:0.462 201:-0.905 202:-0.762 203:-0.762 204:-0.905 205:-0.762 206:0 207:0.964 208:-0.905 209:-0.462 210:-0.462 211:-0.512 212:-0.536 213:-0.831 214:-0.754 215:-0.077 216:-0.93 217:-0.588 218:0.652 219:-0.831 220:0.484 221:0.258 222:-0.677 223:-0.881 224:-0.754 225:-0.754 226:-0.712 227:-0.512 228:0.603 229:-0.881 230:-0.462 231:-0.258 232:0.272 233:0.515 234:0.367 235:-0.008 236:-0.362 237:-0.127 238:-0.432 239:0.104 240:0.816 
-2 1:-0.231 2:-0.915 3:-0.258 4:-0.371 5:-0.925 6:0.116 7:-0.635 8:-0.934 9:-0.458 10:-0.934 11:-0.834 12:-0.254 13:-0.125 14:-0.408 15:-0.635 16:-0.154 17:-0.612 18:-0.834 19:-0.853 20:-0.462 21:-0.881 22:-0.762 23:-0.905 24:-0.462 25:0 26:-0.462 27:-0.762 28:0.999 29:-0.905 30:-0.462 31:-0.905 32:-0.762 33:0.462 34:-0.762 35:0 36:0 37:-0.462 38:-0.762 39:-0.905 40:-0.762 41:-0.462 42:0.762 43:-0.462 44:-0.462 45:-0.964 46:-0.905 47:0 48:-0.964 49:-0.905 50:0.762 51:-0.762 52:0.964 53:0.762 54:-0.905 55:-0.905 56:-0.762 57:-0.762 58:-0.762 59:-0.462 60:0.462 61:-0.762 62:-0.462 63:-0.462 64:0.964 65:0 66:-0.762 67:-0.462 68:-0.762 69:0 70:-0.762 71:-0.462 72:-0.462 73:-0.462 74:-0.462 75:-0.762 76:-0.462 77:-0.462 78:-0.462 79:0.462 80:0 81:0 82:-0.905 83:-0.462 84:-0.762 85:-0.462 86:-0.905 87:-0.462 88:-0.462 89:-0.964 90:-0.762 91:-0.762 92:-0.905 93:-0.462 94:-0.905 95:-0.762 96:-0.762 97:0.998 98:-0.462 99:-0.762 100:-0.462 101:-0.462 102:-0.762 103:-0.964 104:-0.462 105:-0.905 106:0 107:-0.462 108:-0.462 109:-0.462 110:-0.762 111:-0.762 112:-0.762 113:-0.462 114:-0.462 115:-0.462 116:-0.462 117:0 118:-0.462 119:-0.462 120:-0.462 121:0.462 122:0.987 123:0 124:-0.762 125:-0.462 126:-0.762 127:0 128:-0.905 129:-0.462 130:-0.762 131:-0.905 132:0.995 133:-0.762 134:-0.964 135:-0.762 136:-0.964 137:-0.905 138:0 139:-0.762 140:-0.762 141:-0.762 142:0 143:-0.762 144:-0.905 145:-0.762 146:-0.462 147:-0.905 148:-0.462 149:-0.462 150:-0.905 151:-0.762 152:0 153:-0.905 154:-0.762 155:0.462 156:-0.462 157:0.762 158:0.987 159:-0.762 160:-0.762 161:0 162:-0.462 163:-0.462 164:-0.462 165:0.462 166:-0.462 167:-0.462 168:-0.462 169:-0.762 170:-0.762 171:-0.905 172:-0.905 173:0.995 174:-0.905 175:-0.462 176:0 177:-0.905 178:0 179:0 180:-0.905 181:-0.964 182:-0.905 183:-0.905 184:-0.762 185:-0.762 186:-0.462 187:0.462 188:-0.462 189:0.905 190:0 191:-0.462 192:-0.905 193:-0.762 194:-0.462 195:-0.905 196:-0.905 197:0.905 198:-0.762 199:0.462 200:0.462 201:-0.905 202:-0.762 203:-0.762 204:-0.905 205:-0.762 206:0 207:0.964 208:-0.905 209:-0.462 210:-0.462 211:0.964 212:0 213:-0.762 214:-0.462 215:-0.762 216:0 217:-0.762 218:-0.462 219:-0.462 220:-0.462 221:-0.462 222:-0.762 223:-0.462 224:-0.462 225:-0.462 226:0.462 227:0 228:0 229:-0.905 230:-0.462 231:-0.762 232:0.144 233:-0.089 234:0.457 235:0.023 236:0.254 237:0.1 238:-0.436 239:0.14 240:0.816 
-1.016419949941305 1:0.251 2:-0.231 3:-0.612 4:-0.462 5:-0.612 6:-0.231 7:-0.612 8:-0.462 9:-0.462 10:-0.462 11:-0.462 12:-0.612 13:-0.462 14:-0.462 15:-0.462 16:0 17:-0.231 18:-0.231 19:-0.683 20:-0.462 21:-0.612 22:-0.762 23:-0.762 24:-0.905 25:-0.762 26:0.905 27:-0.905 28:0.762 29:-0.462 30:-0.762 31:-0.462 32:-0.462 33:-0.762 34:-0.905 35:-0.462 36:-0.762 37:-0.762 38:-0.762 39:-0.462 40:0.762 41:-0.462 42:0.998 43:0.462 44:-0.462 45:0 46:0 47:-0.762 48:0 49:-0.462 50:-0.762 51:0 52:-0.762 53:-0.462 54:0.462 55:-0.462 56:0 57:-0.462 58:0.964 59:0.462 60:-0.762 61:-0.905 62:-0.462 63:-0.762 64:-0.462 65:-0.462 66:-0.905 67:-0.905 68:0 69:-0.964 70:-0.905 71:0.964 72:-0.905 73:0.762 74:0.462 75:-0.905 76:-0.905 77:-0.905 78:-0.905 79:-0.762 80:-0.462 81:0.905 82:-0.905 83:-0.462 84:-0.462 85:-0.462 86:-0.964 87:0.762 88:0.987 89:-0.905 90:-0.762 91:0 92:-0.905 93:0.462 94:-0.905 95:-0.762 96:0 97:-0.462 98:0.762 99:0 100:0 101:-0.462 102:-0.762 103:-0.905 104:-0.462 105:-0.762 106:-0.762 107:-0.762 108:-0.905 109:-0.905 110:0.995 111:-0.905 112:-0.462 113:0 114:-0.905 115:0 116:0 117:-0.905 118:-0.964 119:-0.905 120:-0.905 121:-0.762 122:-0.762 123:-0.462 124:0.462 125:-0.462 126:0.905 127:0 128:-0.905 129:-0.462 130:-0.762 131:-0.905 132:0.995 133:-0.762 134:-0.964 135:-0.762 136:-0.964 137:-0.905 138:0 139:-0.762 140:-0.762 141:-0.762 142:0 143:-0.762 144:-0.905 145:-0.762 146:-0.462 147:-0.905 148:0 149:-0.462 150:-0.462 151:-0.462 152:-0.762 153:-0.762 154:-0.762 155:-0.462 156:-0.462 157:-0.462 158:-0.462 159:0 160:-0.462 161:-0.462 162:-0.462 163:0.462 164:0.987 165:0 166:-0.762 167:-0.462 168:-0.762 169:-0.762 170:-0.905 171:0.462 172:0 173:-0.905 174:0 175:0.462 176:-0.905 177:0 178:-0.905 179:-0.762 180:0.995 181:-0.762 182:0 183:0 184:0.462 185:0 186:-0.905 187:-0.964 188:-0.462 189:-0.762 190:-0.462 191:-0.462 192:-0.905 193:-0.905 194:0 195:-0.964 196:-0.905 197:0.964 198:-0.905 199:0.762 200:0.462 201:-0.905 202:-0.905 203:-0.905 204:-0.905 205:-0.762 206:-0.462 207:0.905 208:-0.905 209:-0.462 210:-0.462 211:0 212:-0.693 213:-0.027 214:0.319 215:-0.833 216:-0.381 217:-0.385 218:-0.833 219:0.406 220:-0.786 221:-0.512 222:0.231 223:-0.462 224:0.281 225:0.023 226:0.482 227:0 228:-0.762 229:-0.905 230:-0.462 231:-0.762 232:1 233:-0.271 234:0.367 235:0.323 236:0.187 237:0.1 238:-0.069 239:0.104 240:0.714 
-2 1:-0.462 2:-0.831 3:-0.536 4:-0.228 5:-0.784 6:-0.796 7:-0.686 8:-0.594 9:-0.053 10:-0.58 11:-0.458 12:-0.532 13:0.194 14:-0.228 15:-0.278 16:-0.358 17:-0.462 18:-0.484 19:-0.934 20:-0.462 21:-0.784 22:-0.462 23:-0.905 24:-0.462 25:0.462 26:-0.905 27:-0.762 28:-0.462 29:-0.905 30:0.987 31:-0.762 32:-0.462 33:0 34:-0.462 35:0.462 36:0.762 37:0 38:-0.462 39:-0.762 40:-0.905 41:-0.462 42:-0.762 43:-0.762 44:-0.905 45:0.995 46:0.762 47:-0.905 48:-0.462 49:-0.462 50:-0.905 51:-0.462 52:-0.964 53:-0.905 54:0.462 55:-0.462 56:0 57:-0.762 58:0 59:-0.462 60:-0.905 61:-0.964 62:-0.462 63:-0.905 64:0.462 65:-0.462 66:0 67:0 68:-0.762 69:0 70:-0.462 71:-0.762 72:0 73:-0.762 74:-0.462 75:0.462 76:-0.462 77:0 78:-0.462 79:0.964 80:0.462 81:-0.762 82:-0.905 83:-0.462 84:-0.762 85:-0.762 86:-0.905 87:0.995 88:0.762 89:-0.905 90:-0.462 91:-0.462 92:-0.905 93:-0.462 94:-0.964 95:-0.905 96:0.462 97:-0.462 98:0 99:-0.762 100:0 101:-0.462 102:-0.905 103:-0.964 104:-0.462 105:-0.905 106:-0.462 107:-0.964 108:0.762 109:0.987 110:-0.905 111:-0.762 112:0 113:-0.905 114:0.462 115:-0.905 116:-0.762 117:0 118:-0.462 119:0.762 120:0 121:0 122:-0.462 123:-0.762 124:-0.905 125:-0.462 126:-0.762 127:-0.762 128:-0.762 129:-0.905 130:-0.905 131:0.995 132:-0.905 133:-0.462 134:0 135:-0.905 136:0 137:0 138:-0.905 139:-0.964 140:-0.905 141:-0.905 142:-0.762 143:-0.762 144:-0.462 145:0.462 146:-0.462 147:0.905 148:-0.462 149:-0.462 150:-0.905 151:-0.905 152:0 153:-0.964 154:-0.905 155:0.964 156:-0.905 157:0.762 158:0.462 159:-0.905 160:-0.905 161:-0.905 162:-0.905 163:-0.762 164:-0.462 165:0.905 166:-0.905 167:-0.462 168:-0.462 169:-0.462 170:-0.905 171:-0.462 172:-0.462 173:-0.964 174:-0.762 175:-0.762 176:-0.905 177:-0.462 178:-0.905 179:-0.762 180:-0.762 181:0.998 182:-0.462 183:-0.762 184:-0.462 185:-0.462 186:-0.762 187:-0.964 188:-0.462 189:-0.905 190:-0.462 191:-0.462 192:-0.905 193:-0.762 194:0 195:-0.905 196:-0.762 197:0.462 198:-0.462 199:0.762 200:0.987 201:-0.762 202:-0.762 203:0 204:-0.462 205:-0.462 206:-0.462 207:0.462 208:-0.462 209:-0.462 210:-0.462 211:-0.462 212:-0.683 213:-0.462 214:0 215:-0.683 216:-0.612 217:-0.462 218:-0.683 219:0.263 220:-0.612 221:-0.462 222:-0.231 223:-0.462 224:0 225:0.15 226:-0.231 227:-0.462 228:-0.612 229:-0.683 230:-0.462 231:-0.612 232:0.168 233:-0.331 234:0.032 235:0.538 236:-0.089 237:0.539 238:-0.283 239:-0.179 240:0.721 
1.914991253613048 1:-0.562 2:-0.784 3:-0.61 4:-0.148 5:-0.198 6:-0.76 7:-0.462 8:-0.529 9:0.115 10:-0.458 11:-0.308 12:-0.379 13:-0.629 14:-0.148 15:0.002 16:-0.331 17:-0.562 18:-0.612 19:-0.376 20:-0.462 21:-0.156 22:0 23:-0.462 24:-0.462 25:-0.462 26:-0.762 27:-0.762 28:-0.762 29:-0.462 30:-0.462 31:-0.462 32:-0.462 33:0 34:-0.462 35:-0.462 36:-0.462 37:0.462 38:0.987 39:0 40:-0.762 41:-0.462 42:-0.762 43:-0.762 44:-0.762 45:-0.905 46:-0.905 47:0.995 48:-0.905 49:-0.462 50:0 51:-0.905 52:0 53:0 54:-0.905 55:-0.964 56:-0.905 57:-0.905 58:-0.762 59:-0.762 60:-0.462 61:0.462 62:-0.462 63:0.905 64:-0.462 65:-0.964 66:0.762 67:0.987 68:-0.905 69:-0.762 70:0 71:-0.905 72:0.462 73:-0.905 74:-0.762 75:0 76:-0.462 77:0.762 78:0 79:0 80:-0.462 81:-0.762 82:-0.905 83:-0.462 84:-0.762 85:0.964 86:0 87:-0.762 88:-0.462 89:-0.762 90:0 91:-0.762 92:-0.462 93:-0.462 94:-0.462 95:-0.462 96:-0.762 97:-0.462 98:-0.462 99:-0.462 100:0.462 101:0 102:0 103:-0.905 104:-0.462 105:-0.762 106:0.964 107:0 108:-0.762 109:-0.462 110:-0.762 111:0 112:-0.762 113:-0.462 114:-0.462 115:-0.462 116:-0.462 117:-0.762 118:-0.462 119:-0.462 120:-0.462 121:0.462 122:0 123:0 124:-0.905 125:-0.462 126:-0.762 127:-0.762 128:-0.762 129:-0.905 130:-0.905 131:0.995 132:-0.905 133:-0.462 134:0 135:-0.905 136:0 137:0 138:-0.905 139:-0.964 140:-0.905 141:-0.905 142:-0.762 143:-0.762 144:-0.462 145:0.462 146:-0.462 147:0.905 148:0 149:-0.462 150:-0.462 151:-0.462 152:-0.762 153:-0.762 154:-0.762 155:-0.462 156:-0.462 157:-0.462 158:-0.462 159:0 160:-0.462 161:-0.462 162:-0.462 163:0.462 164:0.987 165:0 166:-0.762 167:-0.462 168:-0.762 169:0.462 170:-0.462 171:0 172:0 173:-0.762 174:0 175:-0.462 176:-0.762 177:0 178:-0.762 179:-0.462 180:0.462 181:-0.462 182:0 183:-0.462 184:0.964 185:0.462 186:-0.762 187:-0.905 188:-0.462 189:-0.762 190:0.462 191:-0.462 192:0 193:0 194:-0.762 195:0 196:-0.462 197:-0.762 198:0 199:-0.762 200:-0.462 201:0.462 202:-0.462 203:0 204:-0.462 205:0.964 206:0.462 207:-0.762 208:-0.905 209:-0.462 210:-0.762 211:0.238 212:-0.533 213:-0.281 214:0.077 215:-0.81 216:-0.254 217:-0.512 218:-0.76 219:0.252 220:-0.712 221:-0.462 222:0.104 223:-0.462 224:0.077 225:-0.054 226:0.559 227:0.077 228:-0.635 229:-0.905 230:-0.462 231:-0.762 232:0.062 233:0.515 234:-0.089 235:0.53 236:0.13 237:0.539 238:-0.069 239:-0.277 240:-0.375 
-0.4578097304064343 1:0.101 2:-0.453 3:-0.15 4:-0.231 5:-0.834 6:0 7:-0.15 8:-0.683 9:-0.231 10:-0.683 11:-0.612 12:0.116 13:-0.612 14:-0.231 15:-0.231 16:0.462 17:0 18:-0.453 19:-0.934 20:-0.462 21:-0.762 22:0.964 23:0 24:-0.762 25:-0.462 26:-0.762 27:0 28:-0.762 29:-0.462 30:-0.462 31:-0.462 32:-0.462 33:-0.762 34:-0.462 35:-0.462 36:-0.462 37:0.462 38:0 39:0 40:-0.905 41:-0.462 42:-0.762 43:0.964 44:0 45:-0.762 46:-0.462 47:-0.762 48:0 49:-0.762 50:-0.462 51:-0.462 52:-0.462 53:-0.462 54:-0.762 55:-0.462 56:-0.462 57:-0.462 58:0.462 59:0 60:0 61:-0.905 62:-0.462 63:-0.762 64:-0.462 65:-0.905 66:-0.462 67:-0.462 68:-0.964 69:-0.762 70:-0.762 71:-0.905 72:-0.462 73:-0.905 74:-0.762 75:-0.762 76:0.998 77:-0.462 78:-0.762 79:-0.462 80:-0.462 81:-0.762 82:-0.964 83:-0.462 84:-0.905 85:0.964 86:0 87:-0.762 88:-0.462 89:-0.762 90:0 91:-0.762 92:-0.462 93:-0.462 94:-0.462 95:-0.462 96:-0.762 97:-0.462 98:-0.462 99:-0.462 100:0.462 101:0 102:0 103:-0.905 104:-0.462 105:-0.762 106:-0.762 107:-0.905 108:0.462 109:0 110:-0.905 111:0 112:0.462 113:-0.905 114:0 115:-0.905 116:-0.762 117:0.995 118:-0.762 119:0 120:0 121:0.462 122:0 123:-0.905 124:-0.964 125:-0.462 126:-0.762 127:-0.762 128:-0.905 129:0.995 130:0.762 131:-0.905 132:-0.462 133:-0.462 134:-0.905 135:-0.462 136:-0.964 137:-0.905 138:0.462 139:-0.462 140:0 141:-0.762 142:0 143:-0.462 144:-0.905 145:-0.964 146:-0.462 147:-0.905 148:-0.462 149:-0.905 150:-0.462 151:0.462 152:-0.905 153:-0.762 154:-0.462 155:-0.905 156:0.987 157:-0.762 158:-0.462 159:0 160:-0.462 161:0.462 162:0.762 163:0 164:-0.462 165:-0.762 166:-0.905 167:-0.462 168:-0.762 169:-0.762 170:-0.762 171:-0.905 172:-0.905 173:0.995 174:-0.905 175:-0.462 176:0 177:-0.905 178:0 179:0 180:-0.905 181:-0.964 182:-0.905 183:-0.905 184:-0.762 185:-0.762 186:-0.462 187:0.462 188:-0.462 189:0.905 190:0 191:-0.462 192:-0.462 193:-0.462 194:-0.762 195:-0.762 196:-0.762 197:-0.462 198:-0.462 199:-0.462 200:-0.462 201:0 202:-0.462 203:-0.462 204:-0.462 205:0.462 206:0.987 207:0 208:-0.762 209:-0.462 210:-0.762 211:-0.231 212:-0.462 213:-0.683 214:-0.612 215:-0.462 216:-0.683 217:-0.683 218:0.222 219:-0.612 220:0 221:0 222:-0.683 223:-0.612 224:-0.612 225:-0.683 226:-0.612 227:-0.231 228:0.251 229:-0.683 230:-0.462 231:-0.462 232:0.258 233:0.096 234:-0.089 235:0.53 236:0.246 237:-0.055 238:0.032 239:0.14 240:0.134 
1.229099104672266 1:-0.231 2:-0.831 3:-0.231 4:0.05 5:-0.881 6:-0.176 7:-0.381 8:-0.851 9:-0.1 10:-0.779 11:-0.379 12:0 13:-0.562 14:0.162 15:-0.1 16:0.077 17:-0.321 18:-0.683 19:-0.762 20:-0.462 21:-0.66 22:0.964 23:0 24:-0.762 25:-0.462 26:-0.762 27:0 28:-0.762 29:-0.462 30:-0.462 31:-0.462 32:-0.462 33:-0.762 34:-0.462 35:-0.462 36:-0.462 37:0.462 38:0 39:0 40:-0.905 41:-0.462 42:-0.762 43:-0.462 44:-0.462 45:-0.964 46:-0.905 47:0 48:-0.964 49:-0.905 50:0.762 51:-0.762 52:0.964 53:0.762 54:-0.905 55:-0.905 56:-0.762 57:-0.762 58:-0.762 59:-0.462 60:0.462 61:-0.762 62:-0.462 63:-0.462 64:0 65:-0.462 66:-0.905 67:-0.762 68:-0.462 69:-0.905 70:-0.905 71:0.905 72:-0.762 73:0.462 74:0.462 75:-0.905 76:-0.762 77:-0.762 78:-0.905 79:-0.762 80:0 81:0.964 82:-0.905 83:-0.462 84:-0.462 85:0 86:-0.462 87:-0.905 88:-0.762 89:-0.462 90:-0.905 91:-0.905 92:0.905 93:-0.762 94:0.462 95:0.462 96:-0.905 97:-0.762 98:-0.762 99:-0.905 100:-0.762 101:0 102:0.964 103:-0.905 104:-0.462 105:-0.462 106:0 107:-0.905 108:-0.462 109:-0.762 110:-0.905 111:0.995 112:-0.762 113:-0.964 114:-0.762 115:-0.964 116:-0.905 117:0 118:-0.762 119:-0.762 120:-0.762 121:0 122:-0.762 123:-0.905 124:-0.762 125:-0.462 126:-0.905 127:-0.462 128:-0.462 129:-0.905 130:-0.905 131:0 132:-0.964 133:-0.905 134:0.964 135:-0.905 136:0.762 137:0.462 138:-0.905 139:-0.905 140:-0.905 141:-0.905 142:-0.762 143:-0.462 144:0.905 145:-0.905 146:-0.462 147:-0.462 148:-0.762 149:-0.762 150:-0.905 151:-0.762 152:0.905 153:-0.905 154:0.762 155:-0.462 156:-0.762 157:-0.462 158:-0.462 159:-0.762 160:-0.905 161:-0.462 162:-0.762 163:-0.762 164:-0.762 165:-0.462 166:0.762 167:-0.462 168:0.998 169:-0.762 170:-0.905 171:0.995 172:0.762 173:-0.905 174:-0.462 175:-0.462 176:-0.905 177:-0.462 178:-0.964 179:-0.905 180:0.462 181:-0.462 182:0 183:-0.762 184:0 185:-0.462 186:-0.905 187:-0.964 188:-0.462 189:-0.905 190:-0.462 191:-0.964 192:0.762 193:0.987 194:-0.905 195:-0.762 196:0 197:-0.905 198:0.462 199:-0.905 200:-0.762 201:0 202:-0.462 203:0.762 204:0 205:0 206:-0.462 207:-0.762 208:-0.905 209:-0.462 210:-0.762 211:-0.462 212:-0.683 213:-0.61 214:-0.562 215:-0.559 216:-0.76 217:-0.712 218:-0.376 219:-0.462 220:-0.276 221:-0.129 222:-0.712 223:0.168 224:-0.308 225:-0.612 226:-0.462 227:-0.462 228:-0.304 229:-0.713 230:-0.462 231:-0.683 232:0.258 233:-0.089 234:0.196 235:0.467 236:0.154 237:-0.007 238:0.265 239:-0.112 240:-0.017 
2 1:0.013 2:-0.308 3:-0.813 4:-0.683 5:-0.331 6:-0.559 7:-0.784 8:0.15 9:-0.612 10:0.251 11:0.15 12:-0.784 13:-0.683 14:-0.612 15:-0.612 16:-0.304 17:-0.308 18:0.154 19:-0.76 20:-0.462 21:-0.562 22:-0.762 23:-0.762 24:-0.905 25:-0.905 26:0.995 27:-0.905 28:-0.462 29:0 30:-0.905 31:0 32:0 33:-0.905 34:-0.964 35:-0.905 36:-0.905 37:-0.762 38:-0.762 39:-0.462 40:0.462 41:-0.462 42:0.905 43:-0.462 44:-0.905 45:-0.462 46:0.462 47:-0.905 48:-0.762 49:-0.462 50:-0.905 51:0.987 52:-0.762 53:-0.462 54:0 55:-0.462 56:0.462 57:0.762 58:0 59:-0.462 60:-0.762 61:-0.905 62:-0.462 63:-0.762 64:0.964 65:0 66:-0.762 67:-0.462 68:-0.762 69:0 70:-0.762 71:-0.462 72:-0.462 73:-0.462 74:-0.462 75:-0.762 76:-0.462 77:-0.462 78:-0.462 79:0.462 80:0 81:0 82:-0.905 83:-0.462 84:-0.762 85:-0.462 86:-0.462 87:-0.905 88:-0.905 89:0 90:-0.964 91:-0.905 92:0.964 93:-0.905 94:0.762 95:0.462 96:-0.905 97:-0.905 98:-0.905 99:-0.905 100:-0.762 101:-0.462 102:0.905 103:-0.905 104:-0.462 105:-0.462 106:-0.462 107:-0.964 108:0.762 109:0.987 110:-0.905 111:-0.762 112:0 113:-0.905 114:0.462 115:-0.905 116:-0.762 117:0 118:-0.462 119:0.762 120:0 121:0 122:-0.462 123:-0.762 124:-0.905 125:-0.462 126:-0.762 127:0.964 128:0 129:-0.762 130:-0.462 131:-0.762 132:0 133:-0.762 134:-0.462 135:-0.462 136:-0.462 137:-0.462 138:-0.762 139:-0.462 140:-0.462 141:-0.462 142:0.462 143:0 144:0 145:-0.905 146:-0.462 147:-0.762 148:-0.762 149:-0.762 150:-0.905 151:-0.762 152:0.905 153:-0.905 154:0.762 155:-0.462 156:-0.762 157:-0.462 158:-0.462 159:-0.762 160:-0.905 161:-0.462 162:-0.762 163:-0.762 164:-0.762 165:-0.462 166:0.762 167:-0.462 168:0.998 169:-0.462 170:-0.462 171:-0.964 172:-0.905 173:0 174:-0.964 175:-0.905 176:0.762 177:-0.762 178:0.964 179:0.762 180:-0.905 181:-0.905 182:-0.762 183:-0.762 184:-0.762 185:-0.462 186:0.462 187:-0.762 188:-0.462 189:-0.462 190:-0.462 191:-0.462 192:-0.964 193:-0.905 194:0 195:-0.964 196:-0.905 197:0.762 198:-0.762 199:0.964 200:0.762 201:-0.905 202:-0.905 203:-0.762 204:-0.762 205:-0.762 206:-0.462 207:0.462 208:-0.762 209:-0.462 210:-0.462 211:0.151 212:-0.452 213:-0.612 214:-0.308 215:-0.696 216:-0.381 217:-0.175 218:-0.683 219:-0.462 220:-0.683 221:-0.612 222:-0.354 223:-0.319 224:-0.308 225:-0.358 226:0 227:-0.331 228:-0.429 229:-0.867 230:-0.462 231:-0.278 232:0.645 233:0.345 234:0.457 235:0.31 236:-0.089 237:0.104 238:0.265 239:-0.116 240:0.487 
0.1254861620369112 1:-0.462 2:-0.462 3:-0.462 4:-0.462 5:-0.462 6:-0.462 7:-0.462 8:-0.462 9:-0.462 10:-0.462 11:-0.462 12:-0.462 13:-0.462 14:-0.462 15:-0.462 16:-0.462 17:-0.462 18:-0.462 19:-0.462 20:-0.462 21:-0.462 22:-0.762 23:-0.762 24:-0.905 25:-0.905 26:0.995 27:-0.905 28:-0.462 29:0 30:-0.905 31:0 32:0 33:-0.905 34:-0.964 35:-0.905 36:-0.905 37:-0.762 38:-0.762 39:-0.462 40:0.462 41:-0.462 42:0.905 43:0.462 44:-0.462 45:0 46:0 47:-0.762 48:0 49:-0.462 50:-0.762 51:0 52:-0.762 53:-0.462 54:0.462 55:-0.462 56:0 57:-0.462 58:0.964 59:0.462 60:-0.762 61:-0.905 62:-0.462 63:-0.762 64:-0.762 65:-0.905 66:0.462 67:0 68:-0.905 69:0 70:0.462 71:-0.905 72:0 73:-0.905 74:-0.762 75:0.995 76:-0.762 77:0 78:0 79:0.462 80:0 81:-0.905 82:-0.964 83:-0.462 84:-0.762 85:0 86:-0.462 87:-0.905 88:-0.762 89:-0.462 90:-0.905 91:-0.905 92:0.905 93:-0.762 94:0.462 95:0.462 96:-0.905 97:-0.762 98:-0.762 99:-0.905 100:-0.762 101:0 102:0.964 103:-0.905 104:-0.462 105:-0.462 106:-0.762 107:-0.762 108:-0.905 109:-0.762 110:0.905 111:-0.905 112:0.762 113:-0.462 114:-0.762 115:-0.462 116:-0.462 117:-0.762 118:-0.905 119:-0.462 120:-0.762 121:-0.762 122:-0.762 123:-0.462 124:0.762 125:-0.462 126:0.998 127:-0.462 128:-0.462 129:-0.964 130:-0.905 131:0 132:-0.964 133:-0.905 134:0.762 135:-0.762 136:0.964 137:0.762 138:-0.905 139:-0.905 140:-0.762 141:-0.762 142:-0.762 143:-0.462 144:0.462 145:-0.762 146:-0.462 147:-0.462 148:-0.762 149:-0.762 150:-0.905 151:-0.905 152:0.995 153:-0.905 154:-0.462 155:0 156:-0.905 157:0 158:0 159:-0.905 160:-0.964 161:-0.905 162:-0.905 163:-0.762 164:-0.762 165:-0.462 166:0.462 167:-0.462 168:0.905 169:0.964 170:0 171:-0.762 172:-0.462 173:-0.762 174:0 175:-0.762 176:-0.462 177:-0.462 178:-0.462 179:-0.462 180:-0.762 181:-0.462 182:-0.462 183:-0.462 184:0.462 185:0 186:0 187:-0.905 188:-0.462 189:-0.762 190:-0.462 191:-0.905 192:-0.462 193:0.462 194:-0.905 195:-0.762 196:-0.462 197:-0.905 198:0.987 199:-0.762 200:-0.462 201:0 202:-0.462 203:0.462 204:0.762 205:0 206:-0.462 207:-0.762 208:-0.905 209:-0.462 210:-0.762 211:-0.458 212:-0.831 213:0.344 214:0.535 215:-0.881 216:-0.485 217:-0.462 218:-0.881 219:0.098 220:-0.863 221:-0.683 222:0.308 223:-0.462 224:0.154 225:-0.204 226:0.161 227:-0.308 228:-0.834 229:-0.934 230:-0.462 231:-0.834 232:0.645 233:-0.271 234:0.246 235:0.467 236:0.072 237:-0.244 238:0.089 239:0.305 240:0.197 
-0.4614184205758101 1:-0.231 2:-0.925 3:-0.054 4:-0.129 5:-0.915 6:0.116 7:-0.508 8:-0.934 9:-0.304 10:-0.934 11:-0.834 12:-0.127 13:-0.369 14:-0.204 15:-0.508 16:-0.077 17:-0.612 18:-0.834 19:-0.843 20:-0.462 21:-0.857 22:-0.905 23:-0.762 24:-0.964 25:-0.905 26:0.462 27:-0.762 28:-0.762 29:-0.905 30:-0.905 31:-0.762 32:-0.462 33:-0.964 34:-0.964 35:-0.762 36:-0.905 37:-0.905 38:-0.762 39:-0.905 40:1 41:-0.462 42:0.762 43:-0.462 44:-0.905 45:-0.462 46:0.462 47:-0.905 48:-0.762 49:-0.462 50:-0.905 51:0.987 52:-0.762 53:-0.462 54:0 55:-0.462 56:0.462 57:0.762 58:0 59:-0.462 60:-0.762 61:-0.905 62:-0.462 63:-0.762 64:0.964 65:0 66:-0.762 67:-0.462 68:-0.762 69:0 70:-0.762 71:-0.462 72:-0.462 73:-0.462 74:-0.462 75:-0.762 76:-0.462 77:-0.462 78:-0.462 79:0.462 80:0 81:0 82:-0.905 83:-0.462 84:-0.762 85:-0.762 86:-0.905 87:0.995 88:0.762 89:-0.905 90:-0.462 91:-0.462 92:-0.905 93:-0.462 94:-0.964 95:-0.905 96:0.462 97:-0.462 98:0 99:-0.762 100:0 101:-0.462 102:-0.905 103:-0.964 104:-0.462 105:-0.905 106:0 107:-0.462 108:-0.462 109:-0.462 110:-0.762 111:-0.762 112:-0.762 113:-0.462 114:-0.462 115:-0.462 116:-0.462 117:0 118:-0.462 119:-0.462 120:-0.462 121:0.462 122:0.987 123:0 124:-0.762 125:-0.462 126:-0.762 127:0.964 128:0 129:-0.762 130:-0.462 131:-0.762 132:0 133:-0.762 134:-0.462 135:-0.462 136:-0.462 137:-0.462 138:-0.762 139:-0.462 140:-0.462 141:-0.462 142:0.462 143:0 144:0 145:-0.905 146:-0.462 147:-0.762 148:-0.762 149:-0.762 150:-0.905 151:-0.762 152:0.905 153:-0.905 154:0.762 155:-0.462 156:-0.762 157:-0.462 158:-0.462 159:-0.762 160:-0.905 161:-0.462 162:-0.762 163:-0.762 164:-0.762 165:-0.462 166:0.762 167:-0.462 168:0.998 169:-0.462 170:-0.964 171:0.762 172:0.987 173:-0.905 174:-0.762 175:0 176:-0.905 177:0.462 178:-0.905 179:-0.762 180:0 181:-0.462 182:0.762 183:0 184:0 185:-0.462 186:-0.762 187:-0.905 188:-0.462 189:-0.762 190:0.462 191:-0.462 192:0 193:0 194:-0.762 195:0 196:-0.462 197:-0.762 198:0 199:-0.762 200:-0.462 201:0.462 202:-0.462 203:0 204:-0.462 205:0.964 206:0.462 207:-0.762 208:-0.905 209:-0.462 210:-0.762 211:-0.462 212:-0.683 213:-0.462 214:0 215:-0.683 216:-0.612 217:-0.462 218:-0.683 219:0.263 220:-0.612 221:-0.462 222:-0.231 223:-0.462 224:0 225:0.15 226:-0.231 227:-0.462 228:-0.612 229:-0.683 230:-0.462 231:-0.612 232:0.144 233:0.345 234:0.457 235:0.538 236:0.254 237:0.104 238:0.265 239:0.016 240:-0.375 
0.01379748385846797 1:-0.331 2:-0.61 3:-0.272 4:-0.278 5:-0.533 6:-0.767 7:-0.757 8:0.311 9:-0.686 10:0.037 11:0.006 12:-0.449 13:-0.686 14:-0.532 15:-0.857 16:-0.508 17:-0.231 18:0.331 19:-0.925 20:-0.462 21:-0.61 22:-0.462 23:-0.905 24:-0.462 25:0.462 26:-0.905 27:-0.762 28:-0.462 29:-0.905 30:0.987 31:-0.762 32:-0.462 33:0 34:-0.462 35:0.462 36:0.762 37:0 38:-0.462 39:-0.762 40:-0.905 41:-0.462 42:-0.762 43:-0.462 44:-0.462 45:-0.964 46:-0.905 47:0 48:-0.964 49:-0.905 50:0.762 51:-0.762 52:0.964 53:0.762 54:-0.905 55:-0.905 56:-0.762 57:-0.762 58:-0.762 59:-0.462 60:0.462 61:-0.762 62:-0.462 63:-0.462 64:0 65:-0.462 66:-0.905 67:-0.762 68:-0.462 69:-0.905 70:-0.905 71:0.905 72:-0.762 73:0.462 74:0.462 75:-0.905 76:-0.762 77:-0.762 78:-0.905 79:-0.762 80:0 81:0.964 82:-0.905 83:-0.462 84:-0.462 85:-0.762 86:-0.905 87:0.995 88:0.762 89:-0.905 90:-0.462 91:-0.462 92:-0.905 93:-0.462 94:-0.964 95:-0.905 96:0.462 97:-0.462 98:0 99:-0.762 100:0 101:-0.462 102:-0.905 103:-0.964 104:-0.462 105:-0.905 106:0.964 107:0 108:-0.762 109:-0.462 110:-0.762 111:0 112:-0.762 113:-0.462 114:-0.462 115:-0.462 116:-0.462 117:-0.762 118:-0.462 119:-0.462 120:-0.462 121:0.462 122:0 123:0 124:-0.905 125:-0.462 126:-0.762 127:-0.762 128:-0.905 129:0.462 130:0 131:-0.905 132:0 133:0.462 134:-0.905 135:0 136:-0.905 137:-0.762 138:0.995 139:-0.762 140:0 141:0 142:0.462 143:0 144:-0.905 145:-0.964 146:-0.462 147:-0.762 148:0 149:-0.905 150:-0.462 151:-0.762 152:-0.905 153:0.995 154:-0.762 155:-0.964 156:-0.762 157:-0.964 158:-0.905 159:0 160:-0.762 161:-0.762 162:-0.762 163:0 164:-0.762 165:-0.905 166:-0.762 167:-0.462 168:-0.905 169:0 170:-0.462 171:-0.462 172:-0.462 173:-0.762 174:-0.762 175:-0.762 176:-0.462 177:-0.462 178:-0.462 179:-0.462 180:0 181:-0.462 182:-0.462 183:-0.462 184:0.462 185:0.987 186:0 187:-0.762 188:-0.462 189:-0.762 190:-0.462 191:-0.462 192:-0.964 193:-0.905 194:0 195:-0.964 196:-0.905 197:0.762 198:-0.762 199:0.964 200:0.762 201:-0.905 202:-0.905 203:-0.762 204:-0.762 205:-0.762 206:-0.462 207:0.462 208:-0.762 209:-0.462 210:-0.462 211:-0.712 212:-0.831 213:0.024 214:0.177 215:-0.61 216:-0.612 217:0.269 218:-0.831 219:-0.462 220:-0.851 221:-0.76 222:0.308 223:-0.612 224:-0.077 225:-0.331 226:-0.308 227:-0.612 228:-0.831 229:-0.779 230:-0.462 231:0.002 232:0.168 233:-0.089 234:0.196 235:0.538 236:0.13 237:-0.172 238:-0.247 239:-0.022 240:0.487 
2 1:-0.308 2:-0.683 3:-0.462 4:-0.462 5:-0.813 6:-0.712 7:-0.712 8:-0.683 9:-0.462 10:-0.683 11:-0.612 12:-0.458 13:0.268 14:-0.462 15:-0.612 16:-0.154 17:0.021 18:-0.458 19:-0.813 20:-0.462 21:-0.784 22:-0.462 23:-0.964 24:0.762 25:0.987 26:-0.905 27:-0.762 28:0 29:-0.905 30:0.462 31:-0.905 32:-0.762 33:0 34:-0.462 35:0.762 36:0 37:0 38:-0.462 39:-0.762 40:-0.905 41:-0.462 42:-0.762 43:0.462 44:-0.462 45:0 46:0 47:-0.762 48:0 49:-0.462 50:-0.762 51:0 52:-0.762 53:-0.462 54:0.462 55:-0.462 56:0 57:-0.462 58:0.964 59:0.462 60:-0.762 61:-0.905 62:-0.462 63:-0.762 64:0.964 65:0 66:-0.762 67:-0.462 68:-0.762 69:0 70:-0.762 71:-0.462 72:-0.462 73:-0.462 74:-0.462 75:-0.762 76:-0.462 77:-0.462 78:-0.462 79:0.462 80:0 81:0 82:-0.905 83:-0.462 84:-0.762 85:0 86:-0.462 87:-0.462 88:-0.462 89:-0.762 90:-0.762 91:-0.762 92:-0.462 93:-0.462 94:-0.462 95:-0.462 96:0 97:-0.462 98:-0.462 99:-0.462 100:0.462 101:0.987 102:0 103:-0.762 104:-0.462 105:-0.762 106:-0.462 107:-0.905 108:-0.462 109:-0.462 110:-0.964 111:-0.762 112:-0.762 113:-0.905 114:-0.462 115:-0.905 116:-0.762 117:-0.762 118:0.998 119:-0.462 120:-0.762 121:-0.462 122:-0.462 123:-0.762 124:-0.964 125:-0.462 126:-0.905 127:-0.762 128:-0.762 129:-0.905 130:-0.905 131:0.995 132:-0.905 133:-0.462 134:0 135:-0.905 136:0 137:0 138:-0.905 139:-0.964 140:-0.905 141:-0.905 142:-0.762 143:-0.762 144:-0.462 145:0.462 146:-0.462 147:0.905 148:-0.462 149:-0.905 150:-0.462 151:-0.462 152:-0.964 153:-0.762 154:-0.762 155:-0.905 156:-0.462 157:-0.905 158:-0.762 159:-0.762 160:0.998 161:-0.462 162:-0.762 163:-0.462 164:-0.462 165:-0.762 166:-0.964 167:-0.462 168:-0.905 169:-0.762 170:-0.905 171:-0.462 172:0 173:-0.462 174:-0.762 175:0.999 176:-0.905 177:-0.462 178:-0.905 179:-0.762 180:0.462 181:-0.762 182:0 183:0 184:-0.462 185:-0.762 186:-0.905 187:-0.762 188:-0.462 189:0.762 190:-0.462 191:-0.905 192:-0.762 193:0 194:-0.905 195:-0.762 196:0 197:-0.905 198:0.762 199:-0.762 200:-0.462 201:0 202:-0.762 203:0.462 204:0.987 205:-0.462 206:-0.462 207:-0.905 208:-0.905 209:-0.462 210:-0.762 211:-0.231 212:-0.831 213:-0.536 214:-0.15 215:-0.831 216:-0.2 217:-0.636 218:-0.623 219:0.112 220:-0.625 221:-0.456 222:-0.151 223:-0.612 224:-0.15 225:-0.024 226:-0.127 227:-0.485 228:-0.522 229:-0.857 230:-0.462 231:-0.76 232:-0.327 233:-0.271 234:0.457 235:0.525 236:-0.089 237:0.539 238:-0.351 239:-0.251 240:0.05 
-0.860805785017384 1:-0.077 2:-0.27 3:-0.533 4:-0.575 5:-0.857 6:0.069 7:-0.683 8:-0.787 9:-0.606 10:-0.763 11:-0.607 12:-0.302 13:-0.76 14:-0.518 15:-0.606 16:-0.154 17:-0.612 18:-0.734 19:-0.762 20:-0.462 21:-0.784 22:-0.462 23:-0.905 24:-0.762 25:0 26:-0.905 27:-0.762 28:0 29:-0.905 30:0.762 31:-0.762 32:-0.462 33:0 34:-0.762 35:0.462 36:0.987 37:-0.462 38:-0.462 39:-0.905 40:-0.905 41:-0.462 42:-0.762 43:-0.462 44:-0.905 45:0 46:0.762 47:-0.905 48:-0.762 49:0 50:-0.905 51:0.462 52:-0.762 53:0 54:0 55:-0.462 56:0.987 57:0.462 58:0 59:-0.462 60:-0.762 61:-0.762 62:-0.462 63:-0.462 64:0.964 65:0 66:-0.762 67:-0.462 68:-0.762 69:0 70:-0.762 71:-0.462 72:-0.462 73:-0.462 74:-0.462 75:-0.762 76:-0.462 77:-0.462 78:-0.462 79:0.462 80:0 81:0 82:-0.905 83:-0.462 84:-0.762 85:0 86:-0.905 87:-0.462 88:-0.762 89:-0.905 90:0.995 91:-0.762 92:-0.964 93:-0.762 94:-0.964 95:-0.905 96:0 97:-0.762 98:-0.762 99:-0.762 100:0 101:-0.762 102:-0.905 103:-0.762 104:-0.462 105:-0.905 106:0 107:-0.905 108:-0.462 109:-0.762 110:-0.905 111:0.995 112:-0.762 113:-0.964 114:-0.762 115:-0.964 116:-0.905 117:0 118:-0.762 119:-0.762 120:-0.762 121:0 122:-0.762 123:-0.905 124:-0.762 125:-0.462 126:-0.905 127:-0.462 128:-0.905 129:-0.462 130:0.462 131:-0.905 132:-0.762 133:-0.462 134:-0.905 135:0.987 136:-0.762 137:-0.462 138:0 139:-0.462 140:0.462 141:0.762 142:0 143:-0.462 144:-0.762 145:-0.905 146:-0.462 147:-0.762 148:-0.462 149:-0.462 150:-0.964 151:-0.905 152:0 153:-0.964 154:-0.905 155:0.762 156:-0.762 157:0.964 158:0.762 159:-0.905 160:-0.905 161:-0.762 162:-0.762 163:-0.762 164:-0.462 165:0.462 166:-0.762 167:-0.462 168:-0.462 169:0 170:1 171:-0.905 172:-0.964 173:-0.762 174:-0.905 175:-0.905 176:-0.462 177:-0.905 178:-0.462 179:-0.462 180:-0.905 181:-0.905 182:-0.905 183:-0.905 184:-0.462 185:-0.462 186:-0.462 187:-0.762 188:-0.462 189:-0.762 190:-0.462 191:-0.905 192:-0.462 193:-0.462 194:-0.964 195:-0.762 196:-0.762 197:-0.905 198:-0.462 199:-0.905 200:-0.762 201:-0.762 202:0.998 203:-0.462 204:-0.762 205:-0.462 206:-0.462 207:-0.762 208:-0.964 209:-0.462 210:-0.905 211:-0.712 212:-0.831 213:0.308 214:-0.077 215:-0.831 216:-0.077 217:0.308 218:-0.831 219:-0.077 220:-0.831 221:-0.712 222:0.752 223:-0.712 224:-0.077 225:-0.077 226:0.308 227:-0.077 228:-0.831 229:-0.88 230:-0.462 231:-0.712 232:-0.29 233:-0.259 234:0.457 235:-0.148 236:0.154 237:-0.098 238:-0.244 239:0.138 240:0.306 
1.351054091871426 1:-0.308 2:-0.851 3:0.023 4:0.098 5:-0.911 6:-0.635 7:-0.458 8:-0.881 9:-0.077 10:-0.881 11:-0.712 12:-0.304 13:0.268 14:0.023 15:-0.458 16:-0.07 17:-0.308 18:-0.762 19:-0.934 20:-0.462 21:-0.834 22:0 23:1 24:-0.905 25:-0.964 26:-0.762 27:-0.905 28:-0.905 29:-0.462 30:-0.905 31:-0.462 32:-0.462 33:-0.905 34:-0.905 35:-0.905 36:-0.905 37:-0.462 38:-0.462 39:-0.462 40:-0.762 41:-0.462 42:-0.762 43:-0.462 44:-0.462 45:-0.905 46:-0.905 47:0 48:-0.964 49:-0.905 50:0.964 51:-0.905 52:0.762 53:0.462 54:-0.905 55:-0.905 56:-0.905 57:-0.905 58:-0.762 59:-0.462 60:0.905 61:-0.905 62:-0.462 63:-0.462 64:-0.462 65:-0.462 66:-0.905 67:-0.905 68:0 69:-0.964 70:-0.905 71:0.964 72:-0.905 73:0.762 74:0.462 75:-0.905 76:-0.905 77:-0.905 78:-0.905 79:-0.762 80:-0.462 81:0.905 82:-0.905 83:-0.462 84:-0.462 85:-0.762 86:-0.905 87:-0.462 88:0 89:-0.462 90:-0.762 91:0.999 92:-0.905 93:-0.462 94:-0.905 95:-0.762 96:0.462 97:-0.762 98:0 99:0 100:-0.462 101:-0.762 102:-0.905 103:-0.762 104:-0.462 105:0.762 106:-0.462 107:-0.905 108:-0.762 109:0 110:-0.905 111:-0.762 112:0 113:-0.905 114:0.762 115:-0.762 116:-0.462 117:0 118:-0.762 119:0.462 120:0.987 121:-0.462 122:-0.462 123:-0.905 124:-0.905 125:-0.462 126:-0.762 127:0 128:-0.905 129:-0.462 130:-0.762 131:-0.905 132:0.995 133:-0.762 134:-0.964 135:-0.762 136:-0.964 137:-0.905 138:0 139:-0.762 140:-0.762 141:-0.762 142:0 143:-0.762 144:-0.905 145:-0.762 146:-0.462 147:-0.905 148:-0.462 149:-0.905 150:-0.462 151:0.462 152:-0.905 153:-0.762 154:-0.462 155:-0.905 156:0.987 157:-0.762 158:-0.462 159:0 160:-0.462 161:0.462 162:0.762 163:0 164:-0.462 165:-0.762 166:-0.905 167:-0.462 168:-0.762 169:-0.462 170:-0.905 171:-0.462 172:-0.462 173:-0.964 174:-0.762 175:-0.762 176:-0.905 177:-0.462 178:-0.905 179:-0.762 180:-0.762 181:0.998 182:-0.462 183:-0.762 184:-0.462 185:-0.462 186:-0.762 187:-0.964 188:-0.462 189:-0.905 190:-0.762 191:-0.762 192:-0.905 193:-0.905 194:0.995 195:-0.905 196:-0.462 197:0 198:-0.905 199:0 200:0 201:-0.905 202:-0.964 203:-0.905 204:-0.905 205:-0.762 206:-0.762 207:-0.462 208:0.462 209:-0.462 210:0.905 211:-0.462 212:-0.767 213:-0.194 214:0.244 215:-0.603 216:-0.829 217:-0.302 218:-0.349 219:0.054 220:-0.211 221:0.127 222:-0.302 223:-0.61 224:0.366 225:-0.023 226:-0.254 227:-0.462 228:-0.354 229:-0.786 230:-0.462 231:-0.512 232:-0.164 233:0.279 234:0.367 235:-0.032 236:-0.362 237:0.1 238:0.032 239:-0.179 240:0.584 
2 1:-0.137 2:-0.529 3:0.166 4:0.15 5:-0.784 6:-0.308 7:-0.562 8:-0.683 9:-0.462 10:-0.713 11:-0.683 12:-0.1 13:-0.462 14:-0.231 15:-0.612 16:0.077 17:-0.308 18:-0.529 19:-0.861 20:-0.462 21:-0.784 22:0 23:-0.462 24:-0.905 25:-0.762 26:-0.462 27:-0.905 28:-0.905 29:0.905 30:-0.762 31:0.462 32:0.462 33:-0.905 34:-0.762 35:-0.762 36:-0.905 37:-0.762 38:0 39:0.964 40:-0.905 41:-0.462 42:-0.462 43:-0.462 44:-0.905 45:0 46:0.762 47:-0.905 48:-0.762 49:0 50:-0.905 51:0.462 52:-0.762 53:0 54:0 55:-0.462 56:0.987 57:0.462 58:0 59:-0.462 60:-0.762 61:-0.762 62:-0.462 63:-0.462 64:-0.762 65:-0.762 66:-0.905 67:-0.762 68:0.905 69:-0.905 70:0.762 71:-0.462 72:-0.762 73:-0.462 74:-0.462 75:-0.762 76:-0.905 77:-0.462 78:-0.762 79:-0.762 80:-0.762 81:-0.462 82:0.762 83:-0.462 84:0.998 85:-0.762 86:-0.905 87:0.995 88:0.762 89:-0.905 90:-0.462 91:-0.462 92:-0.905 93:-0.462 94:-0.964 95:-0.905 96:0.462 97:-0.462 98:0 99:-0.762 100:0 101:-0.462 102:-0.905 103:-0.964 104:-0.462 105:-0.905 106:-0.462 107:-0.462 108:-0.964 109:-0.905 110:0 111:-0.964 112:-0.905 113:0.762 114:-0.762 115:0.964 116:0.762 117:-0.905 118:-0.905 119:-0.762 120:-0.762 121:-0.762 122:-0.462 123:0.462 124:-0.762 125:-0.462 126:-0.462 127:-0.762 128:-0.762 129:-0.905 130:-0.762 131:0.905 132:-0.905 133:0.762 134:-0.462 135:-0.762 136:-0.462 137:-0.462 138:-0.762 139:-0.905 140:-0.462 141:-0.762 142:-0.762 143:-0.762 144:-0.462 145:0.762 146:-0.462 147:0.998 148:-0.462 149:-0.462 150:-0.964 151:-0.905 152:0 153:-0.964 154:-0.905 155:0.762 156:-0.762 157:0.964 158:0.762 159:-0.905 160:-0.905 161:-0.762 162:-0.762 163:-0.762 164:-0.462 165:0.462 166:-0.762 167:-0.462 168:-0.462 169:-0.762 170:-0.905 171:0.462 172:0 173:-0.905 174:0 175:0.462 176:-0.905 177:0 178:-0.905 179:-0.762 180:0.995 181:-0.762 182:0 183:0 184:0.462 185:0 186:-0.905 187:-0.964 188:-0.462 189:-0.762 190:0 191:-0.462 192:-0.905 193:-0.762 194:-0.462 195:-0.905 196:-0.905 197:0.905 198:-0.762 199:0.462 200:0.462 201:-0.905 202:-0.762 203:-0.762 204:-0.905 205:-0.762 206:0 207:0.964 208:-0.905 209:-0.462 210:-0.462 211:0.151 212:-0.452 213:-0.354 214:-0.231 215:-0.833 216:-0.127 217:-0.227 218:-0.683 219:-0.104 220:-0.66 221:-0.562 222:-0.049 223:-0.612 224:-0.154 225:-0.067 226:0.308 227:-0.077 228:-0.452 229:-0.925 230:-0.462 231:-0.762 232:0.272 233:-0.259 234:0.144 235:0.538 236:-0.281 237:0.551 238:-0.244 239:0.104 240:0.816 
-1.467294930607681 1:-0.612 2:-0.612 3:-0.683 4:-0.683 5:0.267 6:-0.683 7:-0.462 8:-0.231 9:-0.683 10:-0.231 11:-0.231 12:-0.683 13:-0.713 14:-0.683 15:-0.683 16:-0.612 17:-0.612 18:-0.462 19:0 20:-0.462 21:0.222 22:-0.762 23:-0.905 24:0.995 25:0.762 26:-0.905 27:-0.462 28:-0.462 29:-0.905 30:-0.462 31:-0.964 32:-0.905 33:0.462 34:-0.462 35:0 36:-0.762 37:0 38:-0.462 39:-0.905 40:-0.964 41:-0.462 42:-0.905 43:-0.462 44:-0.905 45:-0.762 46:0 47:-0.905 48:-0.762 49:0 50:-0.905 51:0.762 52:-0.762 53:-0.462 54:0 55:-0.762 56:0.462 57:0.987 58:-0.462 59:-0.462 60:-0.905 61:-0.905 62:-0.462 63:-0.762 64:0.462 65:-0.462 66:0 67:0 68:-0.762 69:0 70:-0.462 71:-0.762 72:0 73:-0.762 74:-0.462 75:0.462 76:-0.462 77:0 78:-0.462 79:0.964 80:0.462 81:-0.762 82:-0.905 83:-0.462 84:-0.762 85:0 86:-0.462 87:-0.462 88:-0.462 89:-0.762 90:-0.762 91:-0.762 92:-0.462 93:-0.462 94:-0.462 95:-0.462 96:0 97:-0.462 98:-0.462 99:-0.462 100:0.462 101:0.987 102:0 103:-0.762 104:-0.462 105:-0.762 106:-0.462 107:-0.905 108:-0.462 109:0.462 110:-0.905 111:-0.762 112:-0.462 113:-0.905 114:0.987 115:-0.762 116:-0.462 117:0 118:-0.462 119:0.462 120:0.762 121:0 122:-0.462 123:-0.762 124:-0.905 125:-0.462 126:-0.762 127:0 128:-0.462 129:-0.905 130:-0.762 131:-0.462 132:-0.905 133:-0.905 134:0.905 135:-0.762 136:0.462 137:0.462 138:-0.905 139:-0.762 140:-0.762 141:-0.905 142:-0.762 143:0 144:0.964 145:-0.905 146:-0.462 147:-0.462 148:-0.462 149:-0.462 150:-0.905 151:-0.905 152:0 153:-0.964 154:-0.905 155:0.964 156:-0.905 157:0.762 158:0.462 159:-0.905 160:-0.905 161:-0.905 162:-0.905 163:-0.762 164:-0.462 165:0.905 166:-0.905 167:-0.462 168:-0.462 169:-0.762 170:-0.905 171:0.995 172:0.762 173:-0.905 174:-0.462 175:-0.462 176:-0.905 177:-0.462 178:-0.964 179:-0.905 180:0.462 181:-0.462 182:0 183:-0.762 184:0 185:-0.462 186:-0.905 187:-0.964 188:-0.462 189:-0.905 190:-0.762 191:-0.762 192:-0.905 193:-0.905 194:0.995 195:-0.905 196:-0.462 197:0 198:-0.905 199:0 200:0 201:-0.905 202:-0.964 203:-0.905 204:-0.905 205:-0.762 206:-0.762 207:-0.462 208:0.462 209:-0.462 210:0.905 211:-0.712 212:-0.857 213:-0.61 214:-0.331 215:-0.09 216:-0.81 217:0.627 218:-0.757 219:-0.562 220:-0.757 221:-0.662 222:-0.15 223:-0.516 224:-0.231 225:-0.381 226:-0.562 227:-0.712 228:-0.734 229:-0.288 230:-0.462 231:0.563 232:-0.101 233:-0.226 234:0.032 235:0.525 236:-0.098 237:-0.127 238:-0.283 239:-0.112 240:0.584 
-2 1:0.077 2:-0.683 3:-0.331 4:-0.127 5:-0.833 6:-0.088 7:-0.358 8:-0.843 9:0.127 10:-0.796 11:-0.536 12:0.231 13:-0.612 14:0.027 15:-0.029 16:0.328 17:-0.05 18:-0.833 19:-0.881 20:-0.462 21:-0.786 22:-0.762 23:-0.762 24:-0.905 25:-0.762 26:0.905 27:-0.905 28:0.762 29:-0.462 30:-0.762 31:-0.462 32:-0.462 33:-0.762 34:-0.905 35:-0.462 36:-0.762 37:-0.762 38:-0.762 39:-0.462 40:0.762 41:-0.462 42:0.998 43:0.964 44:0 45:-0.762 46:-0.462 47:-0.762 48:0 49:-0.762 50:-0.462 51:-0.462 52:-0.462 53:-0.462 54:-0.762 55:-0.462 56:-0.462 57:-0.462 58:0.462 59:0 60:0 61:-0.905 62:-0.462 63:-0.762 64:0.964 65:0 66:-0.762 67:-0.462 68:-0.762 69:0 70:-0.762 71:-0.462 72:-0.462 73:-0.462 74:-0.462 75:-0.762 76:-0.462 77:-0.462 78:-0.462 79:0.462 80:0 81:0 82:-0.905 83:-0.462 84:-0.762 85:-0.762 86:-0.905 87:0.995 88:0.762 89:-0.905 90:-0.462 91:-0.462 92:-0.905 93:-0.462 94:-0.964 95:-0.905 96:0.462 97:-0.462 98:0 99:-0.762 100:0 101:-0.462 102:-0.905 103:-0.964 104:-0.462 105:-0.905 106:0.964 107:0 108:-0.762 109:-0.462 110:-0.762 111:0 112:-0.762 113:-0.462 114:-0.462 115:-0.462 116:-0.462 117:-0.762 118:-0.462 119:-0.462 120:-0.462 121:0.462 122:0 123:0 124:-0.905 125:-0.462 126:-0.762 127:0 128:-0.905 129:-0.462 130:-0.762 131:-0.905 132:0.995 133:-0.762 134:-0.964 135:-0.762 136:-0.964 137:-0.905 138:0 139:-0.762 140:-0.762 141:-0.762 142:0 143:-0.762 144:-0.905 145:-0.762 146:-0.462 147:-0.905 148:-0.762 149:-0.762 150:-0.905 151:-0.762 152:0.905 153:-0.905 154:0.762 155:-0.462 156:-0.762 157:-0.462 158:-0.462 159:-0.762 160:-0.905 161:-0.462 162:-0.762 163:-0.762 164:-0.762 165:-0.462 166:0.762 167:-0.462 168:0.998 169:0.964 170:0 171:-0.762 172:-0.462 173:-0.762 174:0 175:-0.762 176:-0.462 177:-0.462 178:-0.462 179:-0.462 180:-0.762 181:-0.462 182:-0.462 183:-0.462 184:0.462 185:0 186:0 187:-0.905 188:-0.462 189:-0.762 190:-0.462 191:-0.905 192:-0.462 193:-0.462 194:-0.964 195:-0.762 196:-0.762 197:-0.905 198:-0.462 199:-0.905 200:-0.762 201:-0.762 202:0.998 203:-0.462 204:-0.762 205:-0.462 206:-0.462 207:-0.762 208:-0.964 209:-0.462 210:-0.905 211:0.405 212:-0.305 213:-0.612 214:-0.462 215:-0.796 216:-0.381 217:-0.762 218:-0.536 219:-0.462 220:-0.536 221:-0.512 222:-0.508 223:-0.219 224:-0.462 225:-0.512 226:0.308 227:0.252 228:-0.127 229:-0.867 230:-0.462 231:-0.786 232:1 233:0.096 234:0.457 235:0.538 236:0.13 237:0.1 238:0.265 239:0.305 240:0.306 
-2 1:-0.612 2:-0.612 3:-0.683 4:-0.612 5:0.222 6:-0.683 7:0.15 8:-0.462 9:-0.612 10:-0.462 11:-0.462 12:-0.612 13:-0.683 14:-0.462 15:-0.612 16:-0.612 17:-0.612 18:-0.462 19:0.15 20:-0.462 21:0.268 22:-0.462 23:-0.905 24:-0.462 25:-0.462 26:-0.964 27:-0.762 28:-0.762 29:-0.905 30:-0.462 31:-0.905 32:-0.762 33:-0.762 34:0.998 35:-0.462 36:-0.762 37:-0.462 38:-0.462 39:-0.762 40:-0.964 41:-0.462 42:-0.905 43:-0.762 44:-0.762 45:-0.905 46:-0.905 47:0.995 48:-0.905 49:-0.462 50:0 51:-0.905 52:0 53:0 54:-0.905 55:-0.964 56:-0.905 57:-0.905 58:-0.762 59:-0.762 60:-0.462 61:0.462 62:-0.462 63:0.905 64:-0.462 65:-0.462 66:-0.905 67:-0.905 68:0 69:-0.964 70:-0.905 71:0.964 72:-0.905 73:0.762 74:0.462 75:-0.905 76:-0.905 77:-0.905 78:-0.905 79:-0.762 80:-0.462 81:0.905 82:-0.905 83:-0.462 84:-0.462 85:-0.462 86:-0.964 87:0.762 88:0.987 89:-0.905 90:-0.762 91:0 92:-0.905 93:0.462 94:-0.905 95:-0.762 96:0 97:-0.462 98:0.762 99:0 100:0 101:-0.462 102:-0.762 103:-0.905 104:-0.462 105:-0.762 106:-0.462 107:-0.905 108:0 109:0.762 110:-0.905 111:-0.762 112:0 113:-0.905 114:0.462 115:-0.762 116:0 117:0 118:-0.462 119:0.987 120:0.462 121:0 122:-0.462 123:-0.762 124:-0.762 125:-0.462 126:-0.462 127:-0.462 128:-0.964 129:0.762 130:0.987 131:-0.905 132:-0.762 133:0 134:-0.905 135:0.462 136:-0.905 137:-0.762 138:0 139:-0.462 140:0.762 141:0 142:0 143:-0.462 144:-0.762 145:-0.905 146:-0.462 147:-0.762 148:0 149:-0.905 150:-0.462 151:-0.762 152:-0.905 153:0.995 154:-0.762 155:-0.964 156:-0.762 157:-0.964 158:-0.905 159:0 160:-0.762 161:-0.762 162:-0.762 163:0 164:-0.762 165:-0.905 166:-0.762 167:-0.462 168:-0.905 169:-0.462 170:-0.905 171:-0.462 172:-0.462 173:-0.964 174:-0.762 175:-0.762 176:-0.905 177:-0.462 178:-0.905 179:-0.762 180:-0.762 181:0.998 182:-0.462 183:-0.762 184:-0.462 185:-0.462 186:-0.762 187:-0.964 188:-0.462 189:-0.905 190:-0.462 191:-0.964 192:0.762 193:0.987 194:-0.905 195:-0.762 196:0 197:-0.905 198:0.462 199:-0.905 200:-0.762 201:0 202:-0.462 203:0.762 204:0 205:0 206:-0.462 207:-0.762 208:-0.905 209:-0.462 210:-0.762 211:-0.762 212:-0.786 213:-0.588 214:-0.627 215:0.678 216:-0.831 217:-0.462 218:-0.151 219:-0.831 220:-0.161 221:-0.151 222:-0.677 223:-0.88 224:-0.754 225:-0.881 226:-0.635 227:-0.712 228:-0.536 229:0.224 230:-0.462 231:0.603 232:-0.089 233:0.515 234:0.367 235:0.323 236:-0.562 237:-0.129 238:-0.247 239:-0.179 240:-0.017 
-0.2649009772621249 1:-0.462 2:-0.462 3:-0.462 4:-0.462 5:-0.462 6:-0.462 7:-0.462 8:-0.462 9:-0.462 10:-0.462 11:-0.462 12:-0.462 13:-0.462 14:-0.462 15:-0.462 16:-0.462 17:-0.462 18:-0.462 19:-0.462 20:-0.462 21:-0.462 22:-0.462 23:-0.462 24:-0.905 25:-0.905 26:0 27:-0.964 28:-0.905 29:0.964 30:-0.905 31:0.762 32:0.462 33:-0.905 34:-0.905 35:-0.905 36:-0.905 37:-0.762 38:-0.462 39:0.905 40:-0.905 41:-0.462 42:-0.462 43:-0.462 44:-0.905 45:0 46:0.762 47:-0.905 48:-0.762 49:0 50:-0.905 51:0.462 52:-0.762 53:0 54:0 55:-0.462 56:0.987 57:0.462 58:0 59:-0.462 60:-0.762 61:-0.762 62:-0.462 63:-0.462 64:-0.762 65:-0.762 66:-0.905 67:-0.762 68:0.905 69:-0.905 70:0.762 71:-0.462 72:-0.762 73:-0.462 74:-0.462 75:-0.762 76:-0.905 77:-0.462 78:-0.762 79:-0.762 80:-0.762 81:-0.462 82:0.762 83:-0.462 84:0.998 85:0 86:-0.462 87:-0.905 88:-0.762 89:-0.462 90:-0.905 91:-0.905 92:0.905 93:-0.762 94:0.462 95:0.462 96:-0.905 97:-0.762 98:-0.762 99:-0.905 100:-0.762 101:0 102:0.964 103:-0.905 104:-0.462 105:-0.462 106:-0.762 107:-0.905 108:0.462 109:0 110:-0.905 111:0 112:0.462 113:-0.905 114:0 115:-0.905 116:-0.762 117:0.995 118:-0.762 119:0 120:0 121:0.462 122:0 123:-0.905 124:-0.964 125:-0.462 126:-0.762 127:-0.762 128:-0.762 129:-0.905 130:-0.762 131:0.905 132:-0.905 133:0.762 134:-0.462 135:-0.762 136:-0.462 137:-0.462 138:-0.762 139:-0.905 140:-0.462 141:-0.762 142:-0.762 143:-0.762 144:-0.462 145:0.762 146:-0.462 147:0.998 148:-0.905 149:-0.762 150:-0.964 151:-0.905 152:0.462 153:-0.762 154:-0.762 155:-0.905 156:-0.905 157:-0.762 158:-0.462 159:-0.964 160:-0.964 161:-0.762 162:-0.905 163:-0.905 164:-0.762 165:-0.905 166:1 167:-0.462 168:0.762 169:-0.762 170:-0.762 171:-0.905 172:-0.905 173:0.995 174:-0.905 175:-0.462 176:0 177:-0.905 178:0 179:0 180:-0.905 181:-0.964 182:-0.905 183:-0.905 184:-0.762 185:-0.762 186:-0.462 187:0.462 188:-0.462 189:0.905 190:0.964 191:0 192:-0.762 193:-0.462 194:-0.762 195:0 196:-0.762 197:-0.462 198:-0.462 199:-0.462 200:-0.462 201:-0.762 202:-0.462 203:-0.462 204:-0.462 205:0.462 206:0 207:0 208:-0.905 209:-0.462 210:-0.762 211:-0.07 212:-0.754 213:-0.512 214:-0.562 215:-0.911 216:-0.049 217:-0.762 218:-0.851 219:-0.562 220:-0.851 221:-0.76 222:-0.508 223:0.168 224:-0.562 225:-0.712 226:-0.154 227:-0.485 228:-0.683 229:-0.887 230:-0.462 231:-0.881 232:0.247 233:-0.259 234:0.144 235:0.467 236:0.246 237:0.551 238:-0.011 239:0.14 240:0.391 
2 1:0.475 2:-0.308 3:-0.331 4:-0.231 5:-0.712 6:-0.077 7:-0.562 8:-0.612 9:-0.231 10:-0.612 11:-0.462 12:-0.1 13:-0.462 14:-0.231 15:-0.462 16:0.559 17:0.154 18:-0.458 19:-0.831 20:-0.462 21:-0.712 22:-0.462 23:-0.964 24:0.762 25:0.987 26:-0.905 27:-0.762 28:0 29:-0.905 30:0.462 31:-0.905 32:-0.762 33:0 34:-0.462 35:0.762 36:0 37:0 38:-0.462 39:-0.762 40:-0.905 41:-0.462 42:-0.762 43:0.964 44:0 45:-0.762 46:-0.462 47:-0.762 48:0 49:-0.762 50:-0.462 51:-0.462 52:-0.462 53:-0.462 54:-0.762 55:-0.462 56:-0.462 57:-0.462 58:0.462 59:0 60:0 61:-0.905 62:-0.462 63:-0.762 64:-0.462 65:-0.905 66:-0.462 67:-0.462 68:-0.964 69:-0.762 70:-0.762 71:-0.905 72:-0.462 73:-0.905 74:-0.762 75:-0.762 76:0.998 77:-0.462 78:-0.762 79:-0.462 80:-0.462 81:-0.762 82:-0.964 83:-0.462 84:-0.905 85:-0.462 86:-0.905 87:-0.462 88:-0.462 89:-0.964 90:-0.762 91:-0.762 92:-0.905 93:-0.462 94:-0.905 95:-0.762 96:-0.762 97:0.998 98:-0.462 99:-0.762 100:-0.462 101:-0.462 102:-0.762 103:-0.964 104:-0.462 105:-0.905 106:0 107:-0.462 108:-0.462 109:-0.462 110:-0.762 111:-0.762 112:-0.762 113:-0.462 114:-0.462 115:-0.462 116:-0.462 117:0 118:-0.462 119:-0.462 120:-0.462 121:0.462 122:0.987 123:0 124:-0.762 125:-0.462 126:-0.762 127:0.462 128:-0.462 129:0 130:0 131:-0.762 132:0 133:-0.462 134:-0.762 135:0 136:-0.762 137:-0.462 138:0.462 139:-0.462 140:0 141:-0.462 142:0.964 143:0.462 144:-0.762 145:-0.905 146:-0.462 147:-0.762 148:-0.762 149:-0.905 150:-0.462 151:0 152:-0.462 153:-0.762 154:0.999 155:-0.905 156:-0.462 157:-0.905 158:-0.762 159:0.462 160:-0.762 161:0 162:0 163:-0.462 164:-0.762 165:-0.905 166:-0.762 167:-0.462 168:0.762 169:-0.462 170:-0.905 171:-0.762 172:0 173:-0.905 174:-0.762 175:0 176:-0.905 177:0.762 178:-0.762 179:-0.462 180:0 181:-0.762 182:0.462 183:0.987 184:-0.462 185:-0.462 186:-0.905 187:-0.905 188:-0.462 189:-0.762 190:-0.462 191:-0.905 192:-0.762 193:0 194:-0.905 195:-0.762 196:0 197:-0.905 198:0.762 199:-0.762 200:-0.462 201:0 202:-0.762 203:0.462 204:0.987 205:-0.462 206:-0.462 207:-0.905 208:-0.905 209:-0.462 210:-0.762 211:0.559 212:-0.305 213:-0.508 214:-0.231 215:-0.786 216:-0.127 217:-0.535 218:-0.636 219:-0.104 220:-0.612 221:-0.462 222:-0.227 223:-0.512 224:-0.154 225:-0.221 226:0.475 227:0.077 228:-0.405 229:-0.905 230:-0.462 231:-0.762 232:-0.327 233:0.096 234:-0.089 235:0.023 236:0.254 237:-0.156 238:-0.032 239:-0.226 240:0.05 
-2 1:-0.612 2:-0.905 3:0.267 4:0.304 5:-0.925 6:-0.612 7:-0.562 8:-0.905 9:-0.221 10:-0.911 11:-0.784 12:-0.023 13:0.025 14:-0.077 15:-0.508 16:-0.154 17:-0.462 18:-0.834 19:-0.954 20:-0.462 21:-0.881 22:0 23:-0.462 24:-0.462 25:-0.462 26:-0.762 27:-0.762 28:-0.762 29:-0.462 30:-0.462 31:-0.462 32:-0.462 33:0 34:-0.462 35:-0.462 36:-0.462 37:0.462 38:0.987 39:0 40:-0.762 41:-0.462 42:-0.762 43:0 44:-0.462 45:-0.905 46:-0.762 47:-0.462 48:-0.905 49:-0.905 50:0.905 51:-0.762 52:0.462 53:0.462 54:-0.905 55:-0.762 56:-0.762 57:-0.905 58:-0.762 59:0 60:0.964 61:-0.905 62:-0.462 63:-0.462 64:-0.762 65:-0.762 66:-0.905 67:-0.762 68:0.905 69:-0.905 70:0.762 71:-0.462 72:-0.762 73:-0.462 74:-0.462 75:-0.762 76:-0.905 77:-0.462 78:-0.762 79:-0.762 80:-0.762 81:-0.462 82:0.762 83:-0.462 84:0.998 85:0 86:-0.462 87:-0.462 88:-0.462 89:-0.762 90:-0.762 91:-0.762 92:-0.462 93:-0.462 94:-0.462 95:-0.462 96:0 97:-0.462 98:-0.462 99:-0.462 100:0.462 101:0.987 102:0 103:-0.762 104:-0.462 105:-0.762 106:0.462 107:-0.462 108:0 109:0 110:-0.762 111:0 112:-0.462 113:-0.762 114:0 115:-0.762 116:-0.462 117:0.462 118:-0.462 119:0 120:-0.462 121:0.964 122:0.462 123:-0.762 124:-0.905 125:-0.462 126:-0.762 127:-0.462 128:-0.905 129:-0.462 130:0.462 131:-0.905 132:-0.762 133:-0.462 134:-0.905 135:0.987 136:-0.762 137:-0.462 138:0 139:-0.462 140:0.462 141:0.762 142:0 143:-0.462 144:-0.762 145:-0.905 146:-0.462 147:-0.762 148:-0.462 149:-0.462 150:-0.964 151:-0.905 152:0 153:-0.964 154:-0.905 155:0.762 156:-0.762 157:0.964 158:0.762 159:-0.905 160:-0.905 161:-0.762 162:-0.762 163:-0.762 164:-0.462 165:0.462 166:-0.762 167:-0.462 168:-0.462 169:-0.462 170:-0.905 171:0 172:0.762 173:-0.905 174:-0.762 175:0 176:-0.905 177:0.462 178:-0.762 179:0 180:0 181:-0.462 182:0.987 183:0.462 184:0 185:-0.462 186:-0.762 187:-0.762 188:-0.462 189:-0.462 190:-0.762 191:-0.762 192:-0.905 193:-0.905 194:0.995 195:-0.905 196:-0.462 197:0 198:-0.905 199:0 200:0 201:-0.905 202:-0.964 203:-0.905 204:-0.905 205:-0.762 206:-0.762 207:-0.462 208:0.462 209:-0.462 210:0.905 211:0.244 212:-0.529 213:-0.562 214:-0.612 215:-0.784 216:0.42 217:-0.712 218:-0.713 219:-0.612 220:-0.713 221:-0.683 222:-0.331 223:-0.612 224:-0.612 225:-0.612 226:0.077 227:-0.458 228:-0.529 229:-0.76 230:-0.462 231:-0.784 232:0.062 233:0.169 234:0.144 235:0.525 236:-0.051 237:-0.098 238:-0.244 239:-0.259 240:0.584 
-0.3128343423408571 1:-0.331 2:-0.61 3:-0.06 4:-0.128 5:-0.683 6:-0.696 7:-0.686 8:-0.406 9:-0.512 10:-0.392 11:-0.406 12:0.003 13:-0.536 14:-0.358 15:-0.612 16:0.104 17:0.263 18:-0.225 19:-0.829 20:-0.462 21:-0.76 22:0.964 23:0 24:-0.762 25:-0.462 26:-0.762 27:0 28:-0.762 29:-0.462 30:-0.462 31:-0.462 32:-0.462 33:-0.762 34:-0.462 35:-0.462 36:-0.462 37:0.462 38:0 39:0 40:-0.905 41:-0.462 42:-0.762 43:0 44:-0.905 45:-0.462 46:-0.762 47:-0.905 48:0.995 49:-0.762 50:-0.964 51:-0.762 52:-0.964 53:-0.905 54:0 55:-0.762 56:-0.762 57:-0.762 58:0 59:-0.762 60:-0.905 61:-0.762 62:-0.462 63:-0.905 64:-0.462 65:-0.462 66:-0.964 67:-0.905 68:0 69:-0.964 70:-0.905 71:0.762 72:-0.762 73:0.964 74:0.762 75:-0.905 76:-0.905 77:-0.762 78:-0.762 79:-0.762 80:-0.462 81:0.462 82:-0.762 83:-0.462 84:-0.462 85:-0.462 86:-0.964 87:0.762 88:0.987 89:-0.905 90:-0.762 91:0 92:-0.905 93:0.462 94:-0.905 95:-0.762 96:0 97:-0.462 98:0.762 99:0 100:0 101:-0.462 102:-0.762 103:-0.905 104:-0.462 105:-0.762 106:-0.462 107:-0.964 108:0.762 109:0.987 110:-0.905 111:-0.762 112:0 113:-0.905 114:0.462 115:-0.905 116:-0.762 117:0 118:-0.462 119:0.762 120:0 121:0 122:-0.462 123:-0.762 124:-0.905 125:-0.462 126:-0.762 127:-0.762 128:-0.762 129:-0.905 130:-0.762 131:0.905 132:-0.905 133:0.762 134:-0.462 135:-0.762 136:-0.462 137:-0.462 138:-0.762 139:-0.905 140:-0.462 141:-0.762 142:-0.762 143:-0.762 144:-0.462 145:0.762 146:-0.462 147:0.998 148:0.462 149:-0.462 150:0 151:0 152:-0.762 153:0 154:-0.462 155:-0.762 156:0 157:-0.762 158:-0.462 159:0.462 160:-0.462 161:0 162:-0.462 163:0.964 164:0.462 165:-0.762 166:-0.905 167:-0.462 168:-0.762 169:0.964 170:0 171:-0.762 172:-0.462 173:-0.762 174:0 175:-0.762 176:-0.462 177:-0.462 178:-0.462 179:-0.462 180:-0.762 181:-0.462 182:-0.462 183:-0.462 184:0.462 185:0 186:0 187:-0.905 188:-0.462 189:-0.762 190:-0.462 191:-0.462 192:-0.905 193:-0.762 194:0 195:-0.905 196:-0.762 197:0.462 198:-0.462 199:0.762 200:0.987 201:-0.762 202:-0.762 203:0 204:-0.462 205:-0.462 206:-0.462 207:0.462 208:-0.462 209:-0.462 210:-0.462 211:-0.562 212:-0.831 213:-0.126 214:0.177 215:-0.831 216:-0.612 217:-0.231 218:-0.831 219:0.15 220:-0.779 221:-0.61 222:0.077 223:-0.612 224:0.154 225:0.162 226:-0.308 227:-0.462 228:-0.831 229:-0.851 230:-0.462 231:-0.76 232:0.258 233:-0.195 234:-0.209 235:0.323 236:-0.089 237:0.551 238:-0.432 239:0.305 240:0.721 
1.634229089394301 1:-0.562 2:-0.61 3:-0.449 4:-0.603 5:-0.302 6:-0.643 7:-0.449 8:0.341 9:-0.603 10:0.206 11:0.054 12:-0.272 13:-0.857 14:-0.603 15:-0.603 16:-0.354 17:-0.308 18:0.302 19:-0.925 20:-0.462 21:-0.562 22:-0.762 23:-0.762 24:-0.905 25:-0.905 26:0.995 27:-0.905 28:-0.462 29:0 30:-0.905 31:0 32:0 33:-0.905 34:-0.964 35:-0.905 36:-0.905 37:-0.762 38:-0.762 39:-0.462 40:0.462 41:-0.462 42:0.905 43:-0.762 44:-0.905 45:0.462 46:0 47:-0.905 48:0 49:0.462 50:-0.905 51:0 52:-0.905 53:-0.762 54:0.995 55:-0.762 56:0 57:0 58:0.462 59:0 60:-0.905 61:-0.964 62:-0.462 63:-0.762 64:0 65:-0.462 66:-0.905 67:-0.762 68:-0.462 69:-0.905 70:-0.905 71:0.905 72:-0.762 73:0.462 74:0.462 75:-0.905 76:-0.762 77:-0.762 78:-0.905 79:-0.762 80:0 81:0.964 82:-0.905 83:-0.462 84:-0.462 85:-0.462 86:-0.964 87:0.762 88:0.987 89:-0.905 90:-0.762 91:0 92:-0.905 93:0.462 94:-0.905 95:-0.762 96:0 97:-0.462 98:0.762 99:0 100:0 101:-0.462 102:-0.762 103:-0.905 104:-0.462 105:-0.762 106:-0.462 107:-0.905 108:-0.462 109:0.462 110:-0.905 111:-0.762 112:-0.462 113:-0.905 114:0.987 115:-0.762 116:-0.462 117:0 118:-0.462 119:0.462 120:0.762 121:0 122:-0.462 123:-0.762 124:-0.905 125:-0.462 126:-0.762 127:-0.762 128:-0.762 129:-0.905 130:-0.762 131:0.905 132:-0.905 133:0.762 134:-0.462 135:-0.762 136:-0.462 137:-0.462 138:-0.762 139:-0.905 140:-0.462 141:-0.762 142:-0.762 143:-0.762 144:-0.462 145:0.762 146:-0.462 147:0.998 148:0 149:-0.905 150:-0.462 151:-0.762 152:-0.905 153:0.995 154:-0.762 155:-0.964 156:-0.762 157:-0.964 158:-0.905 159:0 160:-0.762 161:-0.762 162:-0.762 163:0 164:-0.762 165:-0.905 166:-0.762 167:-0.462 168:-0.905 169:0.964 170:0 171:-0.762 172:-0.462 173:-0.762 174:0 175:-0.762 176:-0.462 177:-0.462 178:-0.462 179:-0.462 180:-0.762 181:-0.462 182:-0.462 183:-0.462 184:0.462 185:0 186:0 187:-0.905 188:-0.462 189:-0.762 190:0 191:-0.462 192:-0.905 193:-0.762 194:-0.462 195:-0.905 196:-0.905 197:0.905 198:-0.762 199:0.462 200:0.462 201:-0.905 202:-0.762 203:-0.762 204:-0.905 205:-0.762 206:0 207:0.964 208:-0.905 209:-0.462 210:-0.462 211:-0.331 212:-0.831 213:0.024 214:-0.204 215:-0.831 216:0.267 217:-0.612 218:-0.861 219:-0.612 220:-0.88 221:-0.831 222:0.077 223:-0.612 224:-0.458 225:-0.712 226:-0.077 227:-0.612 228:-0.831 229:-0.779 230:-0.462 231:-0.831 232:0.645 233:-0.391 234:0.196 235:0.323 236:-0.098 237:0.551 238:-0.247 239:0.305 240:0.816 
2 1:-0.304 2:-0.612 3:-0.529 4:-0.458 5:0.121 6:-0.529 7:0.15 8:-0.562 9:-0.458 10:-0.562 11:-0.462 12:-0.304 13:-0.683 14:-0.308 15:-0.612 16:-0.137 17:-0.304 18:-0.562 19:0.002 20:-0.462 21:0.168 22:0 23:-0.462 24:-0.905 25:-0.762 26:-0.462 27:-0.905 28:-0.905 29:0.905 30:-0.762 31:0.462 32:0.462 33:-0.905 34:-0.762 35:-0.762 36:-0.905 37:-0.762 38:0 39:0.964 40:-0.905 41:-0.462 42:-0.462 43:-0.762 44:-0.905 45:-0.462 46:0 47:-0.462 48:-0.762 49:0.999 50:-0.905 51:-0.462 52:-0.905 53:-0.762 54:0.462 55:-0.762 56:0 57:0 58:-0.462 59:-0.762 60:-0.905 61:-0.762 62:-0.462 63:0.762 64:0 65:-0.462 66:-0.905 67:-0.762 68:-0.462 69:-0.905 70:-0.905 71:0.905 72:-0.762 73:0.462 74:0.462 75:-0.905 76:-0.762 77:-0.762 78:-0.905 79:-0.762 80:0 81:0.964 82:-0.905 83:-0.462 84:-0.462 85:-0.762 86:-0.905 87:0.462 88:0 89:-0.905 90:0 91:0.462 92:-0.905 93:0 94:-0.905 95:-0.762 96:0.995 97:-0.762 98:0 99:0 100:0.462 101:0 102:-0.905 103:-0.964 104:-0.462 105:-0.762 106:0 107:-0.905 108:-0.462 109:-0.762 110:-0.905 111:0.995 112:-0.762 113:-0.964 114:-0.762 115:-0.964 116:-0.905 117:0 118:-0.762 119:-0.762 120:-0.762 121:0 122:-0.762 123:-0.905 124:-0.762 125:-0.462 126:-0.905 127:0.964 128:0 129:-0.762 130:-0.462 131:-0.762 132:0 133:-0.762 134:-0.462 135:-0.462 136:-0.462 137:-0.462 138:-0.762 139:-0.462 140:-0.462 141:-0.462 142:0.462 143:0 144:0 145:-0.905 146:-0.462 147:-0.762 148:-0.462 149:-0.905 150:-0.462 151:0.462 152:-0.905 153:-0.762 154:-0.462 155:-0.905 156:0.987 157:-0.762 158:-0.462 159:0 160:-0.462 161:0.462 162:0.762 163:0 164:-0.462 165:-0.762 166:-0.905 167:-0.462 168:-0.762 169:-0.762 170:-0.762 171:-0.905 172:-0.905 173:0.995 174:-0.905 175:-0.462 176:0 177:-0.905 178:0 179:0 180:-0.905 181:-0.964 182:-0.905 183:-0.905 184:-0.762 185:-0.762 186:-0.462 187:0.462 188:-0.462 189:0.905 190:-0.462 191:-0.462 192:-0.905 193:-0.905 194:0 195:-0.964 196:-0.905 197:0.964 198:-0.905 199:0.762 200:0.462 201:-0.905 202:-0.905 203:-0.905 204:-0.905 205:-0.762 206:-0.462 207:0.905 208:-0.905 209:-0.462 210:-0.462 211:-0.458 212:-0.757 213:0.344 214:0.354 215:-0.857 216:-0.612 217:-0.485 218:-0.757 219:-0.308 220:-0.763 221:-0.607 222:0.231 223:-0.462 224:0.01 225:-0.458 226:0.154 227:0.021 228:-0.58 229:-0.863 230:-0.462 231:-0.784 232:0.272 233:-0.251 234:0.196 235:0.479 236:0.154 237:0.104 238:0.032 239:0.14 240:0.714 
-1.1598024751421 1:-0.662 2:-0.881 3:0.193 4:0.408 5:-0.603 6:-0.636 7:-0.258 8:-0.831 9:-0.029 10:-0.813 11:-0.683 12:0.104 13:-0.536 14:0.077 15:-0.254 16:-0.127 17:-0.512 18:-0.784 19:-0.657 20:-0.462 21:-0.54 22:-0.462 23:-0.964 24:0.762 25:0.987 26:-0.905 27:-0.762 28:0 29:-0.905 30:0.462 31:-0.905 32:-0.762 33:0 34:-0.462 35:0.762 36:0 37:0 38:-0.462 39:-0.762 40:-0.905 41:-0.462 42:-0.762 43:-0.462 44:-0.905 45:-0.462 46:0.462 47:-0.905 48:-0.762 49:-0.462 50:-0.905 51:0.987 52:-0.762 53:-0.462 54:0 55:-0.462 56:0.462 57:0.762 58:0 59:-0.462 60:-0.762 61:-0.905 62:-0.462 63:-0.762 64:-0.762 65:-0.905 66:0.995 67:0.762 68:-0.905 69:-0.462 70:-0.462 71:-0.905 72:-0.462 73:-0.964 74:-0.905 75:0.462 76:-0.462 77:0 78:-0.762 79:0 80:-0.462 81:-0.905 82:-0.964 83:-0.462 84:-0.905 85:0 86:-0.462 87:-0.905 88:-0.762 89:-0.462 90:-0.905 91:-0.905 92:0.905 93:-0.762 94:0.462 95:0.462 96:-0.905 97:-0.762 98:-0.762 99:-0.905 100:-0.762 101:0 102:0.964 103:-0.905 104:-0.462 105:-0.462 106:0 107:-0.462 108:-0.462 109:-0.462 110:-0.762 111:-0.762 112:-0.762 113:-0.462 114:-0.462 115:-0.462 116:-0.462 117:0 118:-0.462 119:-0.462 120:-0.462 121:0.462 122:0.987 123:0 124:-0.762 125:-0.462 126:-0.762 127:-0.762 128:-0.905 129:0.995 130:0.762 131:-0.905 132:-0.462 133:-0.462 134:-0.905 135:-0.462 136:-0.964 137:-0.905 138:0.462 139:-0.462 140:0 141:-0.762 142:0 143:-0.462 144:-0.905 145:-0.964 146:-0.462 147:-0.905 148:-0.462 149:-0.462 150:-0.905 151:-0.905 152:0 153:-0.964 154:-0.905 155:0.964 156:-0.905 157:0.762 158:0.462 159:-0.905 160:-0.905 161:-0.905 162:-0.905 163:-0.762 164:-0.462 165:0.905 166:-0.905 167:-0.462 168:-0.462 169:0 170:-0.462 171:-0.462 172:-0.462 173:-0.762 174:-0.762 175:-0.762 176:-0.462 177:-0.462 178:-0.462 179:-0.462 180:0 181:-0.462 182:-0.462 183:-0.462 184:0.462 185:0.987 186:0 187:-0.762 188:-0.462 189:-0.762 190:0 191:-0.462 192:-0.905 193:-0.762 194:-0.462 195:-0.905 196:-0.905 197:0.905 198:-0.762 199:0.462 200:0.462 201:-0.905 202:-0.762 203:-0.762 204:-0.905 205:-0.762 206:0 207:0.964 208:-0.905 209:-0.462 210:-0.462 211:-0.462 212:-0.683 213:-0.462 214:0 215:-0.683 216:-0.612 217:-0.462 218:-0.683 219:0.263 220:-0.612 221:-0.462 222:-0.231 223:-0.462 224:0 225:0.15 226:-0.231 227:-0.462 228:-0.612 229:-0.683 230:-0.462 231:-0.612 232:-0.327 233:0.345 234:0.043 235:0.467 236:0.254 237:-0.055 238:-0.283 239:-0.022 240:0.816 
-1.122387442477241 1:0.405 2:-0.379 3:-0.535 4:-0.385 5:-0.829 6:-0.254 7:-0.712 8:-0.66 9:-0.385 10:-0.66 11:-0.562 12:-0.558 13:0.025 14:-0.385 15:-0.562 16:0.238 17:-0.077 18:-0.381 19:-0.925 20:-0.462 21:-0.81 22:-0.762 23:-0.762 24:-0.905 25:-0.762 26:0.905 27:-0.905 28:0.762 29:-0.462 30:-0.762 31:-0.462 32:-0.462 33:-0.762 34:-0.905 35:-0.462 36:-0.762 37:-0.762 38:-0.762 39:-0.462 40:0.762 41:-0.462 42:0.998 43:-0.462 44:-0.905 45:-0.462 46:-0.462 47:-0.964 48:-0.762 49:-0.762 50:-0.905 51:-0.462 52:-0.905 53:-0.762 54:-0.762 55:0.998 56:-0.462 57:-0.762 58:-0.462 59:-0.462 60:-0.762 61:-0.964 62:-0.462 63:-0.905 64:0.462 65:-0.462 66:0 67:0 68:-0.762 69:0 70:-0.462 71:-0.762 72:0 73:-0.762 74:-0.462 75:0.462 76:-0.462 77:0 78:-0.462 79:0.964 80:0.462 81:-0.762 82:-0.905 83:-0.462 84:-0.762 85:0 86:-0.462 87:-0.905 88:-0.762 89:-0.462 90:-0.905 91:-0.905 92:0.905 93:-0.762 94:0.462 95:0.462 96:-0.905 97:-0.762 98:-0.762 99:-0.905 100:-0.762 101:0 102:0.964 103:-0.905 104:-0.462 105:-0.462 106:-0.462 107:-0.462 108:-0.964 109:-0.905 110:0 111:-0.964 112:-0.905 113:0.762 114:-0.762 115:0.964 116:0.762 117:-0.905 118:-0.905 119:-0.762 120:-0.762 121:-0.762 122:-0.462 123:0.462 124:-0.762 125:-0.462 126:-0.462 127:0 128:-0.905 129:-0.462 130:-0.762 131:-0.905 132:0.995 133:-0.762 134:-0.964 135:-0.762 136:-0.964 137:-0.905 138:0 139:-0.762 140:-0.762 141:-0.762 142:0 143:-0.762 144:-0.905 145:-0.762 146:-0.462 147:-0.905 148:-0.462 149:-0.905 150:0 151:0.762 152:-0.905 153:-0.762 154:0 155:-0.905 156:0.462 157:-0.762 158:0 159:0 160:-0.462 161:0.987 162:0.462 163:0 164:-0.462 165:-0.762 166:-0.762 167:-0.462 168:-0.462 169:0 170:-0.462 171:-0.462 172:-0.462 173:-0.762 174:-0.762 175:-0.762 176:-0.462 177:-0.462 178:-0.462 179:-0.462 180:0 181:-0.462 182:-0.462 183:-0.462 184:0.462 185:0.987 186:0 187:-0.762 188:-0.462 189:-0.762 190:-0.462 191:-0.462 192:-0.905 193:-0.905 194:0 195:-0.964 196:-0.905 197:0.964 198:-0.905 199:0.762 200:0.462 201:-0.905 202:-0.905 203:-0.905 204:-0.905 205:-0.762 206:-0.462 207:0.905 208:-0.905 209:-0.462 210:-0.462 211:-0.462 212:-0.462 213:-0.462 214:-0.462 215:-0.462 216:-0.462 217:-0.462 218:-0.462 219:-0.462 220:-0.462 221:-0.462 222:-0.462 223:-0.462 224:-0.462 225:-0.462 226:-0.462 227:-0.462 228:-0.462 229:-0.462 230:-0.462 231:-0.462 232:1 233:-0.726 234:0.032 235:0.467 236:-0.281 237:0.1 238:-0.259 239:-0.022 240:0.714 
-2 1:-0.462 2:-0.462 3:-0.462 4:-0.462 5:-0.462 6:-0.462 7:-0.462 8:-0.462 9:-0.462 10:-0.462 11:-0.462 12:-0.462 13:-0.462 14:-0.462 15:-0.462 16:-0.462 17:-0.462 18:-0.462 19:-0.462 20:-0.462 21:-0.462 22:-0.762 23:-0.762 24:-0.905 25:-0.905 26:0.995 27:-0.905 28:-0.462 29:0 30:-0.905 31:0 32:0 33:-0.905 34:-0.964 35:-0.905 36:-0.905 37:-0.762 38:-0.762 39:-0.462 40:0.462 41:-0.462 42:0.905 43:-0.462 44:-0.462 45:-0.905 46:-0.762 47:0 48:-0.905 49:-0.762 50:0.462 51:-0.462 52:0.762 53:0.987 54:-0.762 55:-0.762 56:0 57:-0.462 58:-0.462 59:-0.462 60:0.462 61:-0.462 62:-0.462 63:-0.462 64:0 65:-0.462 66:-0.905 67:-0.762 68:-0.462 69:-0.905 70:-0.905 71:0.905 72:-0.762 73:0.462 74:0.462 75:-0.905 76:-0.762 77:-0.762 78:-0.905 79:-0.762 80:0 81:0.964 82:-0.905 83:-0.462 84:-0.462 85:0.964 86:0 87:-0.762 88:-0.462 89:-0.762 90:0 91:-0.762 92:-0.462 93:-0.462 94:-0.462 95:-0.462 96:-0.762 97:-0.462 98:-0.462 99:-0.462 100:0.462 101:0 102:0 103:-0.905 104:-0.462 105:-0.762 106:-0.462 107:-0.462 108:-0.905 109:-0.762 110:0 111:-0.905 112:-0.762 113:0.462 114:-0.462 115:0.762 116:0.987 117:-0.762 118:-0.762 119:0 120:-0.462 121:-0.462 122:-0.462 123:0.462 124:-0.462 125:-0.462 126:-0.462 127:-0.762 128:-0.762 129:-0.905 130:-0.905 131:0.995 132:-0.905 133:-0.462 134:0 135:-0.905 136:0 137:0 138:-0.905 139:-0.964 140:-0.905 141:-0.905 142:-0.762 143:-0.762 144:-0.462 145:0.462 146:-0.462 147:0.905 148:-0.462 149:-0.462 150:-0.964 151:-0.905 152:0 153:-0.964 154:-0.905 155:0.762 156:-0.762 157:0.964 158:0.762 159:-0.905 160:-0.905 161:-0.762 162:-0.762 163:-0.762 164:-0.462 165:0.462 166:-0.762 167:-0.462 168:-0.462 169:0.964 170:0 171:-0.762 172:-0.462 173:-0.762 174:0 175:-0.762 176:-0.462 177:-0.462 178:-0.462 179:-0.462 180:-0.762 181:-0.462 182:-0.462 183:-0.462 184:0.462 185:0 186:0 187:-0.905 188:-0.462 189:-0.762 190:0 191:-0.462 192:-0.905 193:-0.762 194:-0.462 195:-0.905 196:-0.905 197:0.905 198:-0.762 199:0.462 200:0.462 201:-0.905 202:-0.762 203:-0.762 204:-0.905 205:-0.762 206:0 207:0.964 208:-0.905 209:-0.462 210:-0.462 211:0.482 212:-0.231 213:-0.833 214:-0.612 215:-0.612 216:-0.452 217:-0.833 218:0.221 219:-0.612 220:-0 221:-0 222:-0.833 223:-0.612 224:-0.612 225:-0.683 226:-0.15 227:0 228:0.482 229:-0.905 230:-0.462 231:-0.612 232:0.645 233:0.06 234:0.196 235:0.53 236:-0.216 237:0.539 238:-0.244 239:0.305 240:0.816 
-1.560635906831608 1:-0.462 2:-0.462 3:-0.462 4:-0.462 5:-0.462 6:-0.462 7:-0.462 8:-0.462 9:-0.462 10:-0.462 11:-0.462 12:-0.462 13:-0.462 14:-0.462 15:-0.462 16:-0.462 17:-0.462 18:-0.462 19:-0.462 20:-0.462 21:-0.462 22:-0.762 23:-0.905 24:0.995 25:0.762 26:-0.905 27:-0.462 28:-0.462 29:-0.905 30:-0.462 31:-0.964 32:-0.905 33:0.462 34:-0.462 35:0 36:-0.762 37:0 38:-0.462 39:-0.905 40:-0.964 41:-0.462 42:-0.905 43:-0.462 44:-0.462 45:-0.905 46:-0.905 47:0 48:-0.964 49:-0.905 50:0.964 51:-0.905 52:0.762 53:0.462 54:-0.905 55:-0.905 56:-0.905 57:-0.905 58:-0.762 59:-0.462 60:0.905 61:-0.905 62:-0.462 63:-0.462 64:0 65:-0.462 66:-0.462 67:-0.462 68:-0.762 69:-0.762 70:-0.762 71:-0.462 72:-0.462 73:-0.462 74:-0.462 75:0 76:-0.462 77:-0.462 78:-0.462 79:0.462 80:0.987 81:0 82:-0.762 83:-0.462 84:-0.762 85:0 86:-0.462 87:-0.905 88:-0.762 89:-0.462 90:-0.905 91:-0.905 92:0.905 93:-0.762 94:0.462 95:0.462 96:-0.905 97:-0.762 98:-0.762 99:-0.905 100:-0.762 101:0 102:0.964 103:-0.905 104:-0.462 105:-0.462 106:-0.462 107:-0.905 108:-0.462 109:0.462 110:-0.905 111:-0.762 112:-0.462 113:-0.905 114:0.987 115:-0.762 116:-0.462 117:0 118:-0.462 119:0.462 120:0.762 121:0 122:-0.462 123:-0.762 124:-0.905 125:-0.462 126:-0.762 127:-0.762 128:-0.905 129:0.462 130:0 131:-0.905 132:0 133:0.462 134:-0.905 135:0 136:-0.905 137:-0.762 138:0.995 139:-0.762 140:0 141:0 142:0.462 143:0 144:-0.905 145:-0.964 146:-0.462 147:-0.762 148:0 149:1 150:-0.905 151:-0.964 152:-0.762 153:-0.905 154:-0.905 155:-0.462 156:-0.905 157:-0.462 158:-0.462 159:-0.905 160:-0.905 161:-0.905 162:-0.905 163:-0.462 164:-0.462 165:-0.462 166:-0.762 167:-0.462 168:-0.762 169:0 170:-0.462 171:-0.905 172:-0.762 173:-0.462 174:-0.905 175:-0.905 176:0.905 177:-0.762 178:0.462 179:0.462 180:-0.905 181:-0.762 182:-0.762 183:-0.905 184:-0.762 185:0 186:0.964 187:-0.905 188:-0.462 189:-0.462 190:-0.462 191:-0.462 192:-0.964 193:-0.905 194:0 195:-0.964 196:-0.905 197:0.762 198:-0.762 199:0.964 200:0.762 201:-0.905 202:-0.905 203:-0.762 204:-0.762 205:-0.762 206:-0.462 207:0.462 208:-0.762 209:-0.462 210:-0.462 211:-0.308 212:-0.831 213:-0.385 214:0.385 215:-0.881 216:-0.635 217:-0.462 218:-0.881 219:0.823 220:-0.762 221:-0.462 222:0.077 223:-0.462 224:0.385 225:0.558 226:0.161 227:-0.308 228:-0.762 229:-0.905 230:-0.462 231:-0.762 232:-0.101 233:0.279 234:-0.12 235:0.467 236:-0.098 237:-0.172 238:-0.164 239:0.004 240:0.487 
-2 1:-0.712 2:-0.76 3:-0.376 4:-0.529 5:0.119 6:-0.529 7:-0.154 8:-0.379 9:-0.529 10:-0.379 11:-0.331 12:-0.198 13:-0.813 14:-0.529 15:-0.529 16:-0.304 17:-0.458 18:-0.61 19:-0.167 20:-0.462 21:0.121 22:-0.462 23:-0.905 24:-0.762 25:0 26:-0.905 27:-0.762 28:0 29:-0.905 30:0.762 31:-0.762 32:-0.462 33:0 34:-0.762 35:0.462 36:0.987 37:-0.462 38:-0.462 39:-0.905 40:-0.905 41:-0.462 42:-0.762 43:-0.762 44:-0.762 45:-0.905 46:-0.905 47:0.995 48:-0.905 49:-0.462 50:0 51:-0.905 52:0 53:0 54:-0.905 55:-0.964 56:-0.905 57:-0.905 58:-0.762 59:-0.762 60:-0.462 61:0.462 62:-0.462 63:0.905 64:-0.462 65:-0.462 66:-0.905 67:-0.762 68:0 69:-0.905 70:-0.762 71:0.462 72:-0.462 73:0.762 74:0.987 75:-0.762 76:-0.762 77:0 78:-0.462 79:-0.462 80:-0.462 81:0.462 82:-0.462 83:-0.462 84:-0.462 85:0.462 86:-0.462 87:0 88:0 89:-0.762 90:0 91:-0.462 92:-0.762 93:0 94:-0.762 95:-0.462 96:0.462 97:-0.462 98:0 99:-0.462 100:0.964 101:0.462 102:-0.762 103:-0.905 104:-0.462 105:-0.762 106:-0.462 107:-0.905 108:-0.462 109:0.462 110:-0.905 111:-0.762 112:-0.462 113:-0.905 114:0.987 115:-0.762 116:-0.462 117:0 118:-0.462 119:0.462 120:0.762 121:0 122:-0.462 123:-0.762 124:-0.905 125:-0.462 126:-0.762 127:0 128:-0.905 129:-0.462 130:-0.762 131:-0.905 132:0.995 133:-0.762 134:-0.964 135:-0.762 136:-0.964 137:-0.905 138:0 139:-0.762 140:-0.762 141:-0.762 142:0 143:-0.762 144:-0.905 145:-0.762 146:-0.462 147:-0.905 148:0 149:-0.905 150:-0.462 151:-0.762 152:-0.905 153:0.995 154:-0.762 155:-0.964 156:-0.762 157:-0.964 158:-0.905 159:0 160:-0.762 161:-0.762 162:-0.762 163:0 164:-0.762 165:-0.905 166:-0.762 167:-0.462 168:-0.905 169:-0.462 170:-0.462 171:-0.905 172:-0.762 173:0 174:-0.905 175:-0.762 176:0.462 177:-0.462 178:0.762 179:0.987 180:-0.762 181:-0.762 182:0 183:-0.462 184:-0.462 185:-0.462 186:0.462 187:-0.462 188:-0.462 189:-0.462 190:-0.462 191:-0.905 192:-0.762 193:0 194:-0.905 195:-0.762 196:0 197:-0.905 198:0.762 199:-0.762 200:-0.462 201:0 202:-0.762 203:0.462 204:0.987 205:-0.462 206:-0.462 207:-0.905 208:-0.905 209:-0.462 210:-0.762 211:-0.508 212:-0.734 213:-0.221 214:-0.405 215:-0.441 216:-0.452 217:-0.148 218:-0.151 219:-0.405 220:-0.298 221:-0.227 222:0.045 223:-0.796 224:-0.405 225:-0.452 226:-0.15 227:-0.127 228:-0.208 229:-0.707 230:-0.462 231:-0.384 232:-0.29 233:0.515 234:0.241 235:0.187 236:-0.098 237:0.1 238:-0.247 239:-0.061 240:0.05 
-1.055230983823515 1:-0.06 2:-0.458 3:-0.784 4:-0.683 5:0.116 6:-0.58 7:-0.612 8:-0.231 9:-0.683 10:-0.231 11:-0.231 12:-0.707 13:-0.713 14:-0.683 15:-0.683 16:-0.15 17:-0.217 18:-0.231 19:-0.198 20:-0.462 21:0.072 22:-0.462 23:-0.905 24:-0.462 25:0.462 26:-0.905 27:-0.762 28:-0.462 29:-0.905 30:0.987 31:-0.762 32:-0.462 33:0 34:-0.462 35:0.462 36:0.762 37:0 38:-0.462 39:-0.762 40:-0.905 41:-0.462 42:-0.762 43:-0.462 44:-0.462 45:-0.905 46:-0.905 47:0 48:-0.964 49:-0.905 50:0.964 51:-0.905 52:0.762 53:0.462 54:-0.905 55:-0.905 56:-0.905 57:-0.905 58:-0.762 59:-0.462 60:0.905 61:-0.905 62:-0.462 63:-0.462 64:0 65:-0.905 66:-0.462 67:-0.762 68:-0.905 69:0.995 70:-0.762 71:-0.964 72:-0.762 73:-0.964 74:-0.905 75:0 76:-0.762 77:-0.762 78:-0.762 79:0 80:-0.762 81:-0.905 82:-0.762 83:-0.462 84:-0.905 85:-0.462 86:-0.905 87:-0.462 88:0.462 89:-0.905 90:-0.762 91:-0.462 92:-0.905 93:0.987 94:-0.762 95:-0.462 96:0 97:-0.462 98:0.462 99:0.762 100:0 101:-0.462 102:-0.762 103:-0.905 104:-0.462 105:-0.762 106:0 107:-0.462 108:-0.462 109:-0.462 110:-0.762 111:-0.762 112:-0.762 113:-0.462 114:-0.462 115:-0.462 116:-0.462 117:0 118:-0.462 119:-0.462 120:-0.462 121:0.462 122:0.987 123:0 124:-0.762 125:-0.462 126:-0.762 127:-0.762 128:-0.762 129:-0.905 130:-0.762 131:0.905 132:-0.905 133:0.762 134:-0.462 135:-0.762 136:-0.462 137:-0.462 138:-0.762 139:-0.905 140:-0.462 141:-0.762 142:-0.762 143:-0.762 144:-0.462 145:0.762 146:-0.462 147:0.998 148:0 149:-0.462 150:-0.462 151:-0.462 152:-0.762 153:-0.762 154:-0.762 155:-0.462 156:-0.462 157:-0.462 158:-0.462 159:0 160:-0.462 161:-0.462 162:-0.462 163:0.462 164:0.987 165:0 166:-0.762 167:-0.462 168:-0.762 169:-0.462 170:-0.905 171:-0.462 172:-0.462 173:-0.964 174:-0.762 175:-0.762 176:-0.905 177:-0.462 178:-0.905 179:-0.762 180:-0.762 181:0.998 182:-0.462 183:-0.762 184:-0.462 185:-0.462 186:-0.762 187:-0.964 188:-0.462 189:-0.905 190:-0.462 191:-0.964 192:0.762 193:0.987 194:-0.905 195:-0.762 196:0 197:-0.905 198:0.462 199:-0.905 200:-0.762 201:0 202:-0.462 203:0.762 204:0 205:0 206:-0.462 207:-0.762 208:-0.905 209:-0.462 210:-0.762 211:-0.462 212:-0.713 213:0.15 214:0.263 215:-0.683 216:-0.612 217:-0.231 218:-0.683 219:0 220:-0.683 221:-0.612 222:-0.231 223:-0.462 224:0.15 225:-0.231 226:-0.231 227:-0.462 228:-0.612 229:-0.683 230:-0.462 231:-0.612 232:0.168 233:0.279 234:0.445 235:-0.008 236:0.254 237:0.551 238:-0.069 239:-0.179 240:-0.017 
-2 1:-0.05 2:-0.66 3:-0.151 4:0.127 5:-0.532 6:-0.405 7:-0.104 8:-0.76 9:0.027 10:-0.712 11:-0.308 12:0.104 13:-0.536 14:0.252 15:-0.204 16:0.355 17:-0.05 18:-0.712 19:-0.58 20:-0.462 21:-0.369 22:-0.762 23:-0.762 24:-0.905 25:-0.762 26:0.905 27:-0.905 28:0.762 29:-0.462 30:-0.762 31:-0.462 32:-0.462 33:-0.762 34:-0.905 35:-0.462 36:-0.762 37:-0.762 38:-0.762 39:-0.462 40:0.762 41:-0.462 42:0.998 43:0 44:-0.905 45:-0.462 46:-0.762 47:-0.905 48:0.995 49:-0.762 50:-0.964 51:-0.762 52:-0.964 53:-0.905 54:0 55:-0.762 56:-0.762 57:-0.762 58:0 59:-0.762 60:-0.905 61:-0.762 62:-0.462 63:-0.905 64:-0.462 65:-0.905 66:-0.462 67:-0.462 68:-0.964 69:-0.762 70:-0.762 71:-0.905 72:-0.462 73:-0.905 74:-0.762 75:-0.762 76:0.998 77:-0.462 78:-0.762 79:-0.462 80:-0.462 81:-0.762 82:-0.964 83:-0.462 84:-0.905 85:0.462 86:-0.462 87:0 88:0 89:-0.762 90:0 91:-0.462 92:-0.762 93:0 94:-0.762 95:-0.462 96:0.462 97:-0.462 98:0 99:-0.462 100:0.964 101:0.462 102:-0.762 103:-0.905 104:-0.462 105:-0.762 106:0 107:-0.905 108:-0.462 109:-0.762 110:-0.905 111:0.995 112:-0.762 113:-0.964 114:-0.762 115:-0.964 116:-0.905 117:0 118:-0.762 119:-0.762 120:-0.762 121:0 122:-0.762 123:-0.905 124:-0.762 125:-0.462 126:-0.905 127:-0.462 128:-0.905 129:0 130:0.762 131:-0.905 132:-0.762 133:0 134:-0.905 135:0.462 136:-0.762 137:0 138:0 139:-0.462 140:0.987 141:0.462 142:0 143:-0.462 144:-0.762 145:-0.762 146:-0.462 147:-0.462 148:-0.762 149:-0.762 150:-0.905 151:-0.762 152:0.905 153:-0.905 154:0.762 155:-0.462 156:-0.762 157:-0.462 158:-0.462 159:-0.762 160:-0.905 161:-0.462 162:-0.762 163:-0.762 164:-0.762 165:-0.462 166:0.762 167:-0.462 168:0.998 169:0 170:-0.462 171:-0.462 172:-0.462 173:-0.762 174:-0.762 175:-0.762 176:-0.462 177:-0.462 178:-0.462 179:-0.462 180:0 181:-0.462 182:-0.462 183:-0.462 184:0.462 185:0.987 186:0 187:-0.762 188:-0.462 189:-0.762 190:-0.762 191:-0.905 192:-0.462 193:0 194:-0.462 195:-0.762 196:0.999 197:-0.905 198:-0.462 199:-0.905 200:-0.762 201:0.462 202:-0.762 203:0 204:0 205:-0.462 206:-0.762 207:-0.905 208:-0.762 209:-0.462 210:0.762 211:-0.612 212:-0.887 213:0.245 214:0.319 215:-0.272 216:-0.76 217:-0.231 218:-0.603 219:-0.148 220:-0.613 221:-0.532 222:-0.225 223:-0.629 224:0.079 225:-0.429 226:-0.254 227:-0.562 228:-0.686 229:-0.459 230:-0.462 231:-0.23 232:1 233:-0.195 234:-0.089 235:0.187 236:0.154 237:-0.259 238:0.265 239:-0.022 240:-0.406 
