svm_type nu_svr
kernel_type rbf
gamma 0.00195312
nr_class 2
total_sv 385
rho -0.314554
SV
-1.025275164716224 1:-0.308 2:-0.757 3:-0.533 4:-0.358 5:-0.787 6:-0.81 7:-0.683 8:-0.302 9:-0.408 10:-0.425 11:-0.227 12:-0.683 13:0.168 14:-0.321 15:-0.606 16:-0.485 17:-0.308 18:-0.187 19:-0.911 20:-0.462 21:-0.683 22:-0.462 23:-0.462 24:-0.964 25:-0.905 26:0 27:-0.964 28:-0.905 29:0.762 30:-0.762 31:0.964 32:0.762 33:-0.905 34:-0.905 35:-0.762 36:-0.762 37:-0.762 38:-0.462 39:0.462 40:-0.762 41:-0.462 42:-0.462 43:0 44:-0.462 45:-0.905 46:-0.762 47:-0.462 48:-0.905 49:-0.905 50:0.905 51:-0.762 52:0.462 53:0.462 54:-0.905 55:-0.762 56:-0.762 57:-0.905 58:-0.762 59:0 60:0.964 61:-0.905 62:-0.462 63:-0.462 64:-0.462 65:-0.905 66:0 67:0.762 68:-0.905 69:-0.762 70:0 71:-0.905 72:0.462 73:-0.762 74:0 75:0 76:-0.462 77:0.987 78:0.462 79:0 80:-0.462 81:-0.762 82:-0.762 83:-0.462 84:-0.462 85:-0.462 86:-0.905 87:0 88:0.762 89:-0.905 90:-0.762 91:0 92:-0.905 93:0.462 94:-0.762 95:0 96:0 97:-0.462 98:0.987 99:0.462 100:0 101:-0.462 102:-0.762 103:-0.762 104:-0.462 105:-0.462 106:-0.462 107:-0.905 108:0 109:0.762 110:-0.905 111:-0.762 112:0 113:-0.905 114:0.462 115:-0.762 116:0 117:0 118:-0.462 119:0.987 120:0.462 121:0 122:-0.462 123:-0.762 124:-0.762 125:-0.462 126:-0.462 127:-0.462 128:-0.905 129:0 130:0.762 131:-0.905 132:-0.762 133:0 134:-0.905 135:0.462 136:-0.762 137:0 138:0 139:-0.462 140:0.987 141:0.462 142:0 143:-0.462 144:-0.762 145:-0.762 146:-0.462 147:-0.462 148:-0.762 149:-0.762 150:-0.905 151:-0.762 152:0.905 153:-0.905 154:0.762 155:-0.462 156:-0.762 157:-0.462 158:-0.462 159:-0.762 160:-0.905 161:-0.462 162:-0.762 163:-0.762 164:-0.762 165:-0.462 166:0.762 167:-0.462 168:0.998 169:-0.462 170:-0.462 171:-0.964 172:-0.905 173:0 174:-0.964 175:-0.905 176:0.762 177:-0.762 178:0.964 179:0.762 180:-0.905 181:-0.905 182:-0.762 183:-0.762 184:-0.762 185:-0.462 186:0.462 187:-0.762 188:-0.462 189:-0.462 190:0 191:-0.905 192:-0.462 193:-0.762 194:-0.905 195:0.995 196:-0.762 197:-0.964 198:-0.762 199:-0.964 200:-0.905 201:0 202:-0.762 203:-0.762 204:-0.762 205:0 206:-0.762 207:-0.905 208:-0.762 209:-0.462 210:-0.905 211:-0.462 212:-0.905 213:0 214:0.762 215:-0.905 216:-0.762 217:0 218:-0.905 219:0.462 220:-0.762 221:0 222:0 223:-0.462 224:0.987 225:0.462 226:0 227:-0.462 228:-0.762 229:-0.762 230:-0.462 231:-0.462 232:0.629 233:0.369 234:-0.002 235:-0.061 236:-0.387 237:-0.2 238:0.338 239:-0.053 240:0.038 
-2 1:-0.462 2:-0.462 3:-0.462 4:-0.462 5:-0.462 6:-0.462 7:-0.462 8:-0.462 9:-0.462 10:-0.462 11:-0.462 12:-0.462 13:-0.462 14:-0.462 15:-0.462 16:-0.462 17:-0.462 18:-0.462 19:-0.462 20:-0.462 21:-0.462 22:-0.462 23:-0.462 24:-0.964 25:-0.905 26:0 27:-0.964 28:-0.905 29:0.762 30:-0.762 31:0.964 32:0.762 33:-0.905 34:-0.905 35:-0.762 36:-0.762 37:-0.762 38:-0.462 39:0.462 40:-0.762 41:-0.462 42:-0.462 43:0 44:-0.462 45:-0.905 46:-0.762 47:-0.462 48:-0.905 49:-0.905 50:0.905 51:-0.762 52:0.462 53:0.462 54:-0.905 55:-0.762 56:-0.762 57:-0.905 58:-0.762 59:0 60:0.964 61:-0.905 62:-0.462 63:-0.462 64:-0.762 65:-0.905 66:0.995 67:0.762 68:-0.905 69:-0.462 70:-0.462 71:-0.905 72:-0.462 73:-0.964 74:-0.905 75:0.462 76:-0.462 77:0 78:-0.762 79:0 80:-0.462 81:-0.905 82:-0.964 83:-0.462 84:-0.905 85:0.964 86:0 87:-0.762 88:-0.462 89:-0.762 90:0 91:-0.762 92:-0.462 93:-0.462 94:-0.462 95:-0.462 96:-0.762 97:-0.462 98:-0.462 99:-0.462 100:0.462 101:0 102:0 103:-0.905 104:-0.462 105:-0.762 106:-0.762 107:-0.905 108:0.462 109:0 110:-0.905 111:0 112:0.462 113:-0.905 114:0 115:-0.905 116:-0.762 117:0.995 118:-0.762 119:0 120:0 121:0.462 122:0 123:-0.905 124:-0.964 125:-0.462 126:-0.762 127:0 128:-0.905 129:-0.462 130:-0.762 131:-0.905 132:0.995 133:-0.762 134:-0.964 135:-0.762 136:-0.964 137:-0.905 138:0 139:-0.762 140:-0.762 141:-0.762 142:0 143:-0.762 144:-0.905 145:-0.762 146:-0.462 147:-0.905 148:0 149:-0.462 150:-0.462 151:-0.462 152:-0.762 153:-0.762 154:-0.762 155:-0.462 156:-0.462 157:-0.462 158:-0.462 159:0 160:-0.462 161:-0.462 162:-0.462 163:0.462 164:0.987 165:0 166:-0.762 167:-0.462 168:-0.762 169:-0.462 170:-0.462 171:-0.964 172:-0.905 173:0 174:-0.964 175:-0.905 176:0.762 177:-0.762 178:0.964 179:0.762 180:-0.905 181:-0.905 182:-0.762 183:-0.762 184:-0.762 185:-0.462 186:0.462 187:-0.762 188:-0.462 189:-0.462 190:-0.762 191:-0.905 192:-0.462 193:0 194:-0.462 195:-0.762 196:0.999 197:-0.905 198:-0.462 199:-0.905 200:-0.762 201:0.462 202:-0.762 203:0 204:0 205:-0.462 206:-0.762 207:-0.905 208:-0.762 209:-0.462 210:0.762 211:-0.612 212:-0.905 213:0.267 214:0.612 215:-0.905 216:-0.612 217:-0.462 218:-0.905 219:0.262 220:-0.863 221:-0.683 222:0.231 223:-0.462 224:0.231 225:0 226:0 227:-0.462 228:-0.834 229:-0.934 230:-0.462 231:-0.834 232:0.629 233:0.369 234:0.335 235:0.744 236:0.398 237:-0.001 238:0.237 239:-0.053 240:0.193 
-0.6430588469657181 1:-0.462 2:-0.536 3:-0.881 4:-0.635 5:-0.151 6:-0.881 7:-0.635 8:0.234 9:-0.258 10:0.508 11:0.745 12:-0.635 13:-0.762 14:0.077 15:-0.221 16:-0.462 17:-0.462 18:0.234 19:-0.536 20:-0.462 21:-0.512 22:-0.462 23:-0.964 24:0.762 25:0.987 26:-0.905 27:-0.762 28:0 29:-0.905 30:0.462 31:-0.905 32:-0.762 33:0 34:-0.462 35:0.762 36:0 37:0 38:-0.462 39:-0.762 40:-0.905 41:-0.462 42:-0.762 43:-0.762 44:-0.762 45:-0.905 46:-0.762 47:0.905 48:-0.905 49:0.762 50:-0.462 51:-0.762 52:-0.462 53:-0.462 54:-0.762 55:-0.905 56:-0.462 57:-0.762 58:-0.762 59:-0.762 60:-0.462 61:0.762 62:-0.462 63:0.998 64:0 65:-0.905 66:-0.462 67:-0.762 68:-0.905 69:0.995 70:-0.762 71:-0.964 72:-0.762 73:-0.964 74:-0.905 75:0 76:-0.762 77:-0.762 78:-0.762 79:0 80:-0.762 81:-0.905 82:-0.762 83:-0.462 84:-0.905 85:0 86:-0.462 87:-0.462 88:-0.462 89:-0.762 90:-0.762 91:-0.762 92:-0.462 93:-0.462 94:-0.462 95:-0.462 96:0 97:-0.462 98:-0.462 99:-0.462 100:0.462 101:0.987 102:0 103:-0.762 104:-0.462 105:-0.762 106:0 107:-0.462 108:-0.462 109:-0.462 110:-0.762 111:-0.762 112:-0.762 113:-0.462 114:-0.462 115:-0.462 116:-0.462 117:0 118:-0.462 119:-0.462 120:-0.462 121:0.462 122:0.987 123:0 124:-0.762 125:-0.462 126:-0.762 127:-0.462 128:-0.462 129:-0.905 130:-0.762 131:0 132:-0.905 133:-0.762 134:0.462 135:-0.462 136:0.762 137:0.987 138:-0.762 139:-0.762 140:0 141:-0.462 142:-0.462 143:-0.462 144:0.462 145:-0.462 146:-0.462 147:-0.462 148:0 149:-0.462 150:-0.905 151:-0.762 152:-0.462 153:-0.905 154:-0.905 155:0.905 156:-0.762 157:0.462 158:0.462 159:-0.905 160:-0.762 161:-0.762 162:-0.905 163:-0.762 164:0 165:0.964 166:-0.905 167:-0.462 168:-0.462 169:0.462 170:-0.462 171:0 172:0 173:-0.762 174:0 175:-0.462 176:-0.762 177:0 178:-0.762 179:-0.462 180:0.462 181:-0.462 182:0 183:-0.462 184:0.964 185:0.462 186:-0.762 187:-0.905 188:-0.462 189:-0.762 190:-0.762 191:-0.762 192:-0.905 193:-0.762 194:0.905 195:-0.905 196:0.762 197:-0.462 198:-0.762 199:-0.462 200:-0.462 201:-0.762 202:-0.905 203:-0.462 204:-0.762 205:-0.762 206:-0.762 207:-0.462 208:0.762 209:-0.462 210:0.998 211:-0.462 212:-0.831 213:-0.315 214:0.076 215:-0.774 216:-0.796 217:-0.405 218:-0.627 219:-0.05 220:-0.522 221:-0.127 222:-0.405 223:-0.049 224:0.212 225:-0.15 226:-0.281 227:-0.462 228:-0.558 229:-0.829 230:-0.462 231:-0.61 232:0.049 233:0.563 234:0.523 235:0.533 236:0.168 237:0.228 238:0.321 239:-0.378 240:0.524 
0.5365332298999268 1:-0.462 2:-0.713 3:0.15 4:0.263 5:-0.683 6:-0.612 7:-0.231 8:-0.683 9:0 10:-0.683 11:-0.612 12:-0.231 13:-0.462 14:0.15 15:-0.231 16:-0.231 17:-0.462 18:-0.612 19:-0.683 20:-0.462 21:-0.612 22:-0.462 23:-0.905 24:-0.462 25:-0.462 26:-0.964 27:-0.762 28:-0.762 29:-0.905 30:-0.462 31:-0.905 32:-0.762 33:-0.762 34:0.998 35:-0.462 36:-0.762 37:-0.462 38:-0.462 39:-0.762 40:-0.964 41:-0.462 42:-0.905 43:-0.462 44:-0.462 45:-0.905 46:-0.905 47:0 48:-0.964 49:-0.905 50:0.964 51:-0.905 52:0.762 53:0.462 54:-0.905 55:-0.905 56:-0.905 57:-0.905 58:-0.762 59:-0.462 60:0.905 61:-0.905 62:-0.462 63:-0.462 64:0.964 65:0 66:-0.762 67:-0.462 68:-0.762 69:0 70:-0.762 71:-0.462 72:-0.462 73:-0.462 74:-0.462 75:-0.762 76:-0.462 77:-0.462 78:-0.462 79:0.462 80:0 81:0 82:-0.905 83:-0.462 84:-0.762 85:0.964 86:0 87:-0.762 88:-0.462 89:-0.762 90:0 91:-0.762 92:-0.462 93:-0.462 94:-0.462 95:-0.462 96:-0.762 97:-0.462 98:-0.462 99:-0.462 100:0.462 101:0 102:0 103:-0.905 104:-0.462 105:-0.762 106:-0.762 107:-0.762 108:-0.905 109:-0.762 110:0.905 111:-0.905 112:0.762 113:-0.462 114:-0.762 115:-0.462 116:-0.462 117:-0.762 118:-0.905 119:-0.462 120:-0.762 121:-0.762 122:-0.762 123:-0.462 124:0.762 125:-0.462 126:0.998 127:-0.762 128:-0.905 129:-0.462 130:0 131:-0.462 132:-0.762 133:0.999 134:-0.905 135:-0.462 136:-0.905 137:-0.762 138:0.462 139:-0.762 140:0 141:0 142:-0.462 143:-0.762 144:-0.905 145:-0.762 146:-0.462 147:0.762 148:-0.762 149:-0.762 150:-0.905 151:-0.905 152:0.995 153:-0.905 154:-0.462 155:0 156:-0.905 157:0 158:0 159:-0.905 160:-0.964 161:-0.905 162:-0.905 163:-0.762 164:-0.762 165:-0.462 166:0.462 167:-0.462 168:0.905 169:-0.762 170:-0.905 171:0.995 172:0.762 173:-0.905 174:-0.462 175:-0.462 176:-0.905 177:-0.462 178:-0.964 179:-0.905 180:0.462 181:-0.462 182:0 183:-0.762 184:0 185:-0.462 186:-0.905 187:-0.964 188:-0.462 189:-0.905 190:-0.462 191:-0.462 192:-0.964 193:-0.905 194:0 195:-0.964 196:-0.905 197:0.762 198:-0.762 199:0.964 200:0.762 201:-0.905 202:-0.905 203:-0.762 204:-0.762 205:-0.762 206:-0.462 207:0.462 208:-0.762 209:-0.462 210:-0.462 211:0.154 212:-0.61 213:-0.305 214:-0.405 215:-0.683 216:0.171 217:-0.636 218:-0.542 219:-0.405 220:-0.575 221:-0.456 222:0.08 223:-0.636 224:-0.405 225:-0.636 226:0.355 227:-0.1 228:-0.532 229:-0.857 230:-0.462 231:-0.76 232:0.156 233:0.63 234:0.801 235:0.744 236:0.054 237:-0.191 238:0.569 239:0.196 240:0.387 
0.1589135733205285 1:-0.304 2:-0.757 3:0.42 4:0.458 5:-0.857 6:-0.358 7:-0.462 8:-0.857 9:-0.067 10:-0.863 11:-0.683 12:0.385 13:-0.462 14:0.077 15:-0.408 16:0.321 17:-0.154 18:-0.834 19:-0.934 20:-0.462 21:-0.834 22:-0.762 23:-0.762 24:-0.905 25:-0.762 26:0.905 27:-0.905 28:0.762 29:-0.462 30:-0.762 31:-0.462 32:-0.462 33:-0.762 34:-0.905 35:-0.462 36:-0.762 37:-0.762 38:-0.762 39:-0.462 40:0.762 41:-0.462 42:0.998 43:0 44:-0.462 45:-0.905 46:-0.762 47:-0.462 48:-0.905 49:-0.905 50:0.905 51:-0.762 52:0.462 53:0.462 54:-0.905 55:-0.762 56:-0.762 57:-0.905 58:-0.762 59:0 60:0.964 61:-0.905 62:-0.462 63:-0.462 64:-0.762 65:-0.762 66:-0.905 67:-0.762 68:0.905 69:-0.905 70:0.762 71:-0.462 72:-0.762 73:-0.462 74:-0.462 75:-0.762 76:-0.905 77:-0.462 78:-0.762 79:-0.762 80:-0.762 81:-0.462 82:0.762 83:-0.462 84:0.998 85:-0.462 86:-0.964 87:0.762 88:0.987 89:-0.905 90:-0.762 91:0 92:-0.905 93:0.462 94:-0.905 95:-0.762 96:0 97:-0.462 98:0.762 99:0 100:0 101:-0.462 102:-0.762 103:-0.905 104:-0.462 105:-0.762 106:-0.462 107:-0.905 108:-0.462 109:-0.462 110:-0.964 111:-0.762 112:-0.762 113:-0.905 114:-0.462 115:-0.905 116:-0.762 117:-0.762 118:0.998 119:-0.462 120:-0.762 121:-0.462 122:-0.462 123:-0.762 124:-0.964 125:-0.462 126:-0.905 127:-0.762 128:-0.762 129:-0.905 130:-0.905 131:0.995 132:-0.905 133:-0.462 134:0 135:-0.905 136:0 137:0 138:-0.905 139:-0.964 140:-0.905 141:-0.905 142:-0.762 143:-0.762 144:-0.462 145:0.462 146:-0.462 147:0.905 148:-0.462 149:-0.905 150:-0.462 151:-0.462 152:-0.964 153:-0.762 154:-0.762 155:-0.905 156:-0.462 157:-0.905 158:-0.762 159:-0.762 160:0.998 161:-0.462 162:-0.762 163:-0.462 164:-0.462 165:-0.762 166:-0.964 167:-0.462 168:-0.905 169:-0.462 170:-0.905 171:-0.462 172:0.462 173:-0.905 174:-0.762 175:-0.462 176:-0.905 177:0.987 178:-0.762 179:-0.462 180:0 181:-0.462 182:0.462 183:0.762 184:0 185:-0.462 186:-0.762 187:-0.905 188:-0.462 189:-0.762 190:-0.462 191:-0.964 192:0.762 193:0.987 194:-0.905 195:-0.762 196:0 197:-0.905 198:0.462 199:-0.905 200:-0.762 201:0 202:-0.462 203:0.762 204:0 205:0 206:-0.462 207:-0.762 208:-0.905 209:-0.462 210:-0.762 211:-0.231 212:-0.462 213:-0.683 214:-0.612 215:-0.462 216:-0.683 217:-0.683 218:0.222 219:-0.612 220:0 221:0 222:-0.683 223:-0.612 224:-0.612 225:-0.683 226:-0.612 227:-0.231 228:0.251 229:-0.683 230:-0.462 231:-0.462 232:1 233:0.369 234:0.524 235:0.339 236:0.186 237:0.344 238:-0.229 239:0.268 240:-0.27 
-2 1:-0.462 2:-0.462 3:-0.462 4:-0.462 5:-0.462 6:-0.462 7:-0.462 8:-0.462 9:-0.462 10:-0.462 11:-0.462 12:-0.462 13:-0.462 14:-0.462 15:-0.462 16:-0.462 17:-0.462 18:-0.462 19:-0.462 20:-0.462 21:-0.462 22:-0.462 23:-0.964 24:0.762 25:0.987 26:-0.905 27:-0.762 28:0 29:-0.905 30:0.462 31:-0.905 32:-0.762 33:0 34:-0.462 35:0.762 36:0 37:0 38:-0.462 39:-0.762 40:-0.905 41:-0.462 42:-0.762 43:0.964 44:0 45:-0.762 46:-0.462 47:-0.762 48:0 49:-0.762 50:-0.462 51:-0.462 52:-0.462 53:-0.462 54:-0.762 55:-0.462 56:-0.462 57:-0.462 58:0.462 59:0 60:0 61:-0.905 62:-0.462 63:-0.762 64:-0.462 65:-0.905 66:-0.462 67:0.462 68:-0.905 69:-0.762 70:-0.462 71:-0.905 72:0.987 73:-0.762 74:-0.462 75:0 76:-0.462 77:0.462 78:0.762 79:0 80:-0.462 81:-0.762 82:-0.905 83:-0.462 84:-0.762 85:-0.462 86:-0.462 87:-0.905 88:-0.905 89:0 90:-0.964 91:-0.905 92:0.964 93:-0.905 94:0.762 95:0.462 96:-0.905 97:-0.905 98:-0.905 99:-0.905 100:-0.762 101:-0.462 102:0.905 103:-0.905 104:-0.462 105:-0.462 106:0 107:-0.462 108:-0.462 109:-0.462 110:-0.762 111:-0.762 112:-0.762 113:-0.462 114:-0.462 115:-0.462 116:-0.462 117:0 118:-0.462 119:-0.462 120:-0.462 121:0.462 122:0.987 123:0 124:-0.762 125:-0.462 126:-0.762 127:-0.462 128:-0.462 129:-0.905 130:-0.762 131:0 132:-0.905 133:-0.762 134:0.462 135:-0.462 136:0.762 137:0.987 138:-0.762 139:-0.762 140:0 141:-0.462 142:-0.462 143:-0.462 144:0.462 145:-0.462 146:-0.462 147:-0.462 148:-0.462 149:-0.462 150:-0.964 151:-0.905 152:0 153:-0.964 154:-0.905 155:0.762 156:-0.762 157:0.964 158:0.762 159:-0.905 160:-0.905 161:-0.762 162:-0.762 163:-0.762 164:-0.462 165:0.462 166:-0.762 167:-0.462 168:-0.462 169:0 170:-0.462 171:-0.462 172:-0.462 173:-0.762 174:-0.762 175:-0.762 176:-0.462 177:-0.462 178:-0.462 179:-0.462 180:0 181:-0.462 182:-0.462 183:-0.462 184:0.462 185:0.987 186:0 187:-0.762 188:-0.462 189:-0.762 190:-0.762 191:-0.905 192:0.462 193:0 194:-0.905 195:0 196:0.462 197:-0.905 198:0 199:-0.905 200:-0.762 201:0.995 202:-0.762 203:0 204:0 205:0.462 206:0 207:-0.905 208:-0.964 209:-0.462 210:-0.762 211:-0.154 212:-0.588 213:-0.382 214:-0.288 215:-0.881 216:0.093 217:-0.532 218:-0.861 219:-0.378 220:-0.813 221:-0.529 222:-0.151 223:-0.686 224:-0.203 225:-0.378 226:-0.077 227:-0.612 228:-0.784 229:-0.762 230:-0.462 231:-0.734 232:0.049 233:0.041 234:0.522 235:0.47 236:0.168 237:0.228 238:0.345 239:-0.255 240:0.226 
-0.3594334959900418 1:-0.462 2:-0.934 3:0.15 4:0.416 5:-0.925 6:-0.762 7:-0.331 8:-0.905 9:0.241 10:-0.881 11:-0.712 12:-0.254 13:0.025 14:0.304 15:-0.127 16:-0.154 17:-0.462 18:-0.762 19:-0.925 20:-0.462 21:-0.81 22:0.964 23:0 24:-0.762 25:-0.462 26:-0.762 27:0 28:-0.762 29:-0.462 30:-0.462 31:-0.462 32:-0.462 33:-0.762 34:-0.462 35:-0.462 36:-0.462 37:0.462 38:0 39:0 40:-0.905 41:-0.462 42:-0.762 43:0 44:1 45:-0.905 46:-0.964 47:-0.762 48:-0.905 49:-0.905 50:-0.462 51:-0.905 52:-0.462 53:-0.462 54:-0.905 55:-0.905 56:-0.905 57:-0.905 58:-0.462 59:-0.462 60:-0.462 61:-0.762 62:-0.462 63:-0.762 64:0.462 65:-0.462 66:0 67:0 68:-0.762 69:0 70:-0.462 71:-0.762 72:0 73:-0.762 74:-0.462 75:0.462 76:-0.462 77:0 78:-0.462 79:0.964 80:0.462 81:-0.762 82:-0.905 83:-0.462 84:-0.762 85:0 86:-0.905 87:-0.462 88:-0.762 89:-0.905 90:0.995 91:-0.762 92:-0.964 93:-0.762 94:-0.964 95:-0.905 96:0 97:-0.762 98:-0.762 99:-0.762 100:0 101:-0.762 102:-0.905 103:-0.762 104:-0.462 105:-0.905 106:-0.462 107:-0.964 108:0.762 109:0.987 110:-0.905 111:-0.762 112:0 113:-0.905 114:0.462 115:-0.905 116:-0.762 117:0 118:-0.462 119:0.762 120:0 121:0 122:-0.462 123:-0.762 124:-0.905 125:-0.462 126:-0.762 127:-0.462 128:-0.905 129:-0.462 130:-0.462 131:-0.964 132:-0.762 133:-0.762 134:-0.905 135:-0.462 136:-0.905 137:-0.762 138:-0.762 139:0.998 140:-0.462 141:-0.762 142:-0.462 143:-0.462 144:-0.762 145:-0.964 146:-0.462 147:-0.905 148:0 149:-0.462 150:-0.905 151:-0.762 152:-0.462 153:-0.905 154:-0.905 155:0.905 156:-0.762 157:0.462 158:0.462 159:-0.905 160:-0.762 161:-0.762 162:-0.905 163:-0.762 164:0 165:0.964 166:-0.905 167:-0.462 168:-0.462 169:0 170:-0.462 171:-0.905 172:-0.762 173:-0.462 174:-0.905 175:-0.905 176:0.905 177:-0.762 178:0.462 179:0.462 180:-0.905 181:-0.762 182:-0.762 183:-0.905 184:-0.762 185:0 186:0.964 187:-0.905 188:-0.462 189:-0.462 190:0 191:-0.462 192:-0.905 193:-0.762 194:-0.462 195:-0.905 196:-0.905 197:0.905 198:-0.762 199:0.462 200:0.462 201:-0.905 202:-0.762 203:-0.762 204:-0.905 205:-0.762 206:0 207:0.964 208:-0.905 209:-0.462 210:-0.462 211:-0.612 212:-0.683 213:-0.61 214:-0.379 215:-0.308 216:-0.779 217:0.121 218:-0.208 219:-0.61 220:-0.276 221:-0.304 222:-0.148 223:-0.76 224:-0.379 225:-0.379 226:-0.562 227:-0.612 228:-0.228 229:-0.76 230:-0.462 231:0.15 232:0.266 233:0.122 234:0.238 235:0.343 236:-0.11 237:-0.118 238:0.321 239:0.07 240:0.652 
-0.4004834592643551 1:0.321 2:-0.382 3:-0.562 4:-0.512 5:-0.786 6:-0.215 7:-0.762 8:-0.546 9:-0.512 10:-0.546 11:-0.536 12:-0.254 13:-0.512 14:-0.512 15:-0.512 16:0.385 17:0.366 18:-0.151 19:-0.81 20:-0.462 21:-0.786 22:0 23:-0.462 24:-0.905 25:-0.762 26:-0.462 27:-0.905 28:-0.905 29:0.905 30:-0.762 31:0.462 32:0.462 33:-0.905 34:-0.762 35:-0.762 36:-0.905 37:-0.762 38:0 39:0.964 40:-0.905 41:-0.462 42:-0.462 43:0.964 44:0 45:-0.762 46:-0.462 47:-0.762 48:0 49:-0.762 50:-0.462 51:-0.462 52:-0.462 53:-0.462 54:-0.762 55:-0.462 56:-0.462 57:-0.462 58:0.462 59:0 60:0 61:-0.905 62:-0.462 63:-0.762 64:0 65:-0.462 66:-0.905 67:-0.762 68:-0.462 69:-0.905 70:-0.905 71:0.905 72:-0.762 73:0.462 74:0.462 75:-0.905 76:-0.762 77:-0.762 78:-0.905 79:-0.762 80:0 81:0.964 82:-0.905 83:-0.462 84:-0.462 85:-0.762 86:-0.905 87:0.995 88:0.762 89:-0.905 90:-0.462 91:-0.462 92:-0.905 93:-0.462 94:-0.964 95:-0.905 96:0.462 97:-0.462 98:0 99:-0.762 100:0 101:-0.462 102:-0.905 103:-0.964 104:-0.462 105:-0.905 106:0 107:1 108:-0.905 109:-0.964 110:-0.762 111:-0.905 112:-0.905 113:-0.462 114:-0.905 115:-0.462 116:-0.462 117:-0.905 118:-0.905 119:-0.905 120:-0.905 121:-0.462 122:-0.462 123:-0.462 124:-0.762 125:-0.462 126:-0.762 127:-0.462 128:-0.905 129:-0.762 130:0 131:-0.905 132:-0.762 133:0 134:-0.905 135:0.762 136:-0.762 137:-0.462 138:0 139:-0.762 140:0.462 141:0.987 142:-0.462 143:-0.462 144:-0.905 145:-0.905 146:-0.462 147:-0.762 148:-0.462 149:-0.905 150:-0.462 151:-0.462 152:-0.964 153:-0.762 154:-0.762 155:-0.905 156:-0.462 157:-0.905 158:-0.762 159:-0.762 160:0.998 161:-0.462 162:-0.762 163:-0.462 164:-0.462 165:-0.762 166:-0.964 167:-0.462 168:-0.905 169:-0.762 170:-0.762 171:-0.905 172:-0.905 173:0.995 174:-0.905 175:-0.462 176:0 177:-0.905 178:0 179:0 180:-0.905 181:-0.964 182:-0.905 183:-0.905 184:-0.762 185:-0.762 186:-0.462 187:0.462 188:-0.462 189:0.905 190:-0.762 191:-0.905 192:0.462 193:0 194:-0.905 195:0 196:0.462 197:-0.905 198:0 199:-0.905 200:-0.762 201:0.995 202:-0.762 203:0 204:0 205:0.462 206:0 207:-0.905 208:-0.964 209:-0.462 210:-0.762 211:-0.077 212:-0.915 213:-0.258 214:-0.471 215:-0.905 216:0.702 217:-0.635 218:-0.954 219:-0.558 220:-0.954 221:-0.881 222:0 223:-0.712 224:-0.508 225:-0.635 226:0 227:-0.712 228:-0.881 229:-0.786 230:-0.462 231:-0.881 232:0.753 233:0.041 234:0.413 235:0.704 236:0.122 237:-0.391 238:-0.229 239:-0.041 240:0.226 
0.1788221572449725 1:-0.231 2:-0.831 3:-0.562 4:-0.458 5:-0.831 6:0.166 7:-0.458 8:-0.861 9:-0.204 10:-0.813 11:-0.683 12:-0.077 13:-0.712 14:-0.304 15:-0.129 16:-0.231 17:-0.612 18:-0.831 19:-0.76 20:-0.462 21:-0.784 22:-0.762 23:-0.762 24:-0.905 25:-0.762 26:0.905 27:-0.905 28:0.762 29:-0.462 30:-0.762 31:-0.462 32:-0.462 33:-0.762 34:-0.905 35:-0.462 36:-0.762 37:-0.762 38:-0.762 39:-0.462 40:0.762 41:-0.462 42:0.998 43:-0.762 44:-0.762 45:-0.905 46:-0.905 47:0.995 48:-0.905 49:-0.462 50:0 51:-0.905 52:0 53:0 54:-0.905 55:-0.964 56:-0.905 57:-0.905 58:-0.762 59:-0.762 60:-0.462 61:0.462 62:-0.462 63:0.905 64:-0.462 65:-0.905 66:-0.462 67:0.462 68:-0.905 69:-0.762 70:-0.462 71:-0.905 72:0.987 73:-0.762 74:-0.462 75:0 76:-0.462 77:0.462 78:0.762 79:0 80:-0.462 81:-0.762 82:-0.905 83:-0.462 84:-0.762 85:-0.462 86:-0.462 87:-0.905 88:-0.762 89:0 90:-0.905 91:-0.762 92:0.462 93:-0.462 94:0.762 95:0.987 96:-0.762 97:-0.762 98:0 99:-0.462 100:-0.462 101:-0.462 102:0.462 103:-0.462 104:-0.462 105:-0.462 106:-0.462 107:-0.905 108:-0.762 109:0 110:-0.905 111:-0.762 112:0 113:-0.905 114:0.762 115:-0.762 116:-0.462 117:0 118:-0.762 119:0.462 120:0.987 121:-0.462 122:-0.462 123:-0.905 124:-0.905 125:-0.462 126:-0.762 127:0 128:-0.462 129:-0.462 130:-0.462 131:-0.762 132:-0.762 133:-0.762 134:-0.462 135:-0.462 136:-0.462 137:-0.462 138:0 139:-0.462 140:-0.462 141:-0.462 142:0.462 143:0.987 144:0 145:-0.762 146:-0.462 147:-0.762 148:0 149:-0.905 150:-0.462 151:-0.762 152:-0.905 153:0.995 154:-0.762 155:-0.964 156:-0.762 157:-0.964 158:-0.905 159:0 160:-0.762 161:-0.762 162:-0.762 163:0 164:-0.762 165:-0.905 166:-0.762 167:-0.462 168:-0.905 169:-0.462 170:-0.905 171:-0.462 172:0.462 173:-0.905 174:-0.762 175:-0.462 176:-0.905 177:0.987 178:-0.762 179:-0.462 180:0 181:-0.462 182:0.462 183:0.762 184:0 185:-0.462 186:-0.762 187:-0.905 188:-0.462 189:-0.762 190:0.462 191:-0.462 192:0 193:0 194:-0.762 195:0 196:-0.462 197:-0.762 198:0 199:-0.762 200:-0.462 201:0.462 202:-0.462 203:0 204:-0.462 205:0.964 206:0.462 207:-0.762 208:-0.905 209:-0.462 210:-0.762 211:0 212:-0.462 213:-0.452 214:-0.429 215:-0.381 216:-0.472 217:-0.66 218:0.017 219:-0.379 220:0 221:0.087 222:-0.198 223:-0.66 224:-0.302 225:-0.61 226:0.151 227:0 228:-0.002 229:-0.831 230:-0.462 231:-0.612 232:1 233:0.708 234:0.522 235:0.003 236:-0.166 237:-0.255 238:0.224 239:0.268 240:0.252 
2 1:-0.612 2:-0.833 3:-0.607 4:-0.1 5:0 6:-0.834 7:0.227 8:-0.683 9:0.025 10:-0.612 11:-0.385 12:-0.381 13:-0.683 14:0.087 15:-0.05 16:-0.381 17:-0.612 18:-0.612 19:-0.048 20:-0.462 21:0.168 22:0 23:-0.462 24:-0.905 25:-0.762 26:-0.462 27:-0.905 28:-0.905 29:0.905 30:-0.762 31:0.462 32:0.462 33:-0.905 34:-0.762 35:-0.762 36:-0.905 37:-0.762 38:0 39:0.964 40:-0.905 41:-0.462 42:-0.462 43:-0.762 44:-0.905 45:0.462 46:0 47:-0.905 48:0 49:0.462 50:-0.905 51:0 52:-0.905 53:-0.762 54:0.995 55:-0.762 56:0 57:0 58:0.462 59:0 60:-0.905 61:-0.964 62:-0.462 63:-0.762 64:-0.762 65:-0.905 66:0.462 67:0 68:-0.905 69:0 70:0.462 71:-0.905 72:0 73:-0.905 74:-0.762 75:0.995 76:-0.762 77:0 78:0 79:0.462 80:0 81:-0.905 82:-0.964 83:-0.462 84:-0.762 85:0 86:-0.462 87:-0.462 88:-0.462 89:-0.762 90:-0.762 91:-0.762 92:-0.462 93:-0.462 94:-0.462 95:-0.462 96:0 97:-0.462 98:-0.462 99:-0.462 100:0.462 101:0.987 102:0 103:-0.762 104:-0.462 105:-0.762 106:0.964 107:0 108:-0.762 109:-0.462 110:-0.762 111:0 112:-0.762 113:-0.462 114:-0.462 115:-0.462 116:-0.462 117:-0.762 118:-0.462 119:-0.462 120:-0.462 121:0.462 122:0 123:0 124:-0.905 125:-0.462 126:-0.762 127:0 128:-0.462 129:-0.462 130:-0.462 131:-0.762 132:-0.762 133:-0.762 134:-0.462 135:-0.462 136:-0.462 137:-0.462 138:0 139:-0.462 140:-0.462 141:-0.462 142:0.462 143:0.987 144:0 145:-0.762 146:-0.462 147:-0.762 148:-0.462 149:-0.462 150:-0.964 151:-0.905 152:0 153:-0.964 154:-0.905 155:0.762 156:-0.762 157:0.964 158:0.762 159:-0.905 160:-0.905 161:-0.762 162:-0.762 163:-0.762 164:-0.462 165:0.462 166:-0.762 167:-0.462 168:-0.462 169:-0.462 170:-0.462 171:-0.964 172:-0.905 173:0 174:-0.964 175:-0.905 176:0.762 177:-0.762 178:0.964 179:0.762 180:-0.905 181:-0.905 182:-0.762 183:-0.762 184:-0.762 185:-0.462 186:0.462 187:-0.762 188:-0.462 189:-0.462 190:-0.462 191:-0.462 192:-0.905 193:-0.762 194:0 195:-0.905 196:-0.762 197:0.462 198:-0.462 199:0.762 200:0.987 201:-0.762 202:-0.762 203:0 204:-0.462 205:-0.462 206:-0.462 207:0.462 208:-0.462 209:-0.462 210:-0.462 211:0.077 212:-0.462 213:-0.392 214:-0.382 215:-0.635 216:-0.542 217:-0.686 218:-0.358 219:-0.358 220:-0.324 221:-0.258 222:0.003 223:-0.536 224:-0.358 225:-0.512 226:0.425 227:0.571 228:-0.177 229:-0.81 230:-0.462 231:-0.712 232:0.753 233:0.049 234:0.499 235:0.533 236:0.274 237:-0.255 238:0.345 239:-0.053 240:0.657 
-1.665518628341422 1:-0.612 2:-0.683 3:0.267 4:0.15 5:-0.683 6:-0.462 7:-0.462 8:-0.683 9:-0.462 10:-0.713 11:-0.683 12:0 13:-0.462 14:-0.231 15:-0.612 16:-0.231 17:-0.462 18:-0.683 19:-0.713 20:-0.462 21:-0.683 22:-0.462 23:-0.462 24:-0.905 25:-0.905 26:0 27:-0.964 28:-0.905 29:0.964 30:-0.905 31:0.762 32:0.462 33:-0.905 34:-0.905 35:-0.905 36:-0.905 37:-0.762 38:-0.462 39:0.905 40:-0.905 41:-0.462 42:-0.462 43:-0.762 44:-0.905 45:0.462 46:0 47:-0.905 48:0 49:0.462 50:-0.905 51:0 52:-0.905 53:-0.762 54:0.995 55:-0.762 56:0 57:0 58:0.462 59:0 60:-0.905 61:-0.964 62:-0.462 63:-0.762 64:0.964 65:0 66:-0.762 67:-0.462 68:-0.762 69:0 70:-0.762 71:-0.462 72:-0.462 73:-0.462 74:-0.462 75:-0.762 76:-0.462 77:-0.462 78:-0.462 79:0.462 80:0 81:0 82:-0.905 83:-0.462 84:-0.762 85:0.462 86:-0.462 87:0 88:0 89:-0.762 90:0 91:-0.462 92:-0.762 93:0 94:-0.762 95:-0.462 96:0.462 97:-0.462 98:0 99:-0.462 100:0.964 101:0.462 102:-0.762 103:-0.905 104:-0.462 105:-0.762 106:-0.762 107:-0.762 108:-0.905 109:-0.905 110:0.995 111:-0.905 112:-0.462 113:0 114:-0.905 115:0 116:0 117:-0.905 118:-0.964 119:-0.905 120:-0.905 121:-0.762 122:-0.762 123:-0.462 124:0.462 125:-0.462 126:0.905 127:-0.462 128:-0.905 129:-0.762 130:0 131:-0.905 132:-0.762 133:0 134:-0.905 135:0.762 136:-0.762 137:-0.462 138:0 139:-0.762 140:0.462 141:0.987 142:-0.462 143:-0.462 144:-0.905 145:-0.905 146:-0.462 147:-0.762 148:0.964 149:0 150:-0.762 151:-0.462 152:-0.762 153:0 154:-0.762 155:-0.462 156:-0.462 157:-0.462 158:-0.462 159:-0.762 160:-0.462 161:-0.462 162:-0.462 163:0.462 164:0 165:0 166:-0.905 167:-0.462 168:-0.762 169:0.964 170:0 171:-0.762 172:-0.462 173:-0.762 174:0 175:-0.762 176:-0.462 177:-0.462 178:-0.462 179:-0.462 180:-0.762 181:-0.462 182:-0.462 183:-0.462 184:0.462 185:0 186:0 187:-0.905 188:-0.462 189:-0.762 190:-0.462 191:-0.462 192:-0.905 193:-0.762 194:0 195:-0.905 196:-0.762 197:0.462 198:-0.462 199:0.762 200:0.987 201:-0.762 202:-0.762 203:0 204:-0.462 205:-0.462 206:-0.462 207:0.462 208:-0.462 209:-0.462 210:-0.462 211:0.482 212:-0.231 213:-0.612 214:-0.462 215:-0.762 216:-0.381 217:-0.762 218:-0.462 219:-0.462 220:-0.462 221:-0.462 222:-0.381 223:-0.462 224:-0.462 225:-0.462 226:0.462 227:0.493 228:0 229:-0.834 230:-0.462 231:-0.762 232:0.929 233:0.049 234:0.801 235:0.278 236:0.21 237:-0.391 238:0.274 239:0.339 240:0.657 
-0.2807220646773808 1:-0.462 2:-0.683 3:-0.231 4:0.15 5:-0.683 6:-0.612 7:-0.231 8:-0.683 9:0 10:-0.612 11:-0.231 12:-0.231 13:-0.462 14:0.263 15:0 16:-0.231 17:-0.462 18:-0.612 19:-0.612 20:-0.462 21:-0.462 22:-0.462 23:-0.905 24:-0.462 25:0.462 26:-0.905 27:-0.762 28:-0.462 29:-0.905 30:0.987 31:-0.762 32:-0.462 33:0 34:-0.462 35:0.462 36:0.762 37:0 38:-0.462 39:-0.762 40:-0.905 41:-0.462 42:-0.762 43:-0.462 44:-0.462 45:-0.964 46:-0.905 47:0 48:-0.964 49:-0.905 50:0.762 51:-0.762 52:0.964 53:0.762 54:-0.905 55:-0.905 56:-0.762 57:-0.762 58:-0.762 59:-0.462 60:0.462 61:-0.762 62:-0.462 63:-0.462 64:-0.462 65:-0.462 66:-0.905 67:-0.905 68:0 69:-0.964 70:-0.905 71:0.964 72:-0.905 73:0.762 74:0.462 75:-0.905 76:-0.905 77:-0.905 78:-0.905 79:-0.762 80:-0.462 81:0.905 82:-0.905 83:-0.462 84:-0.462 85:-0.462 86:-0.964 87:0.762 88:0.987 89:-0.905 90:-0.762 91:0 92:-0.905 93:0.462 94:-0.905 95:-0.762 96:0 97:-0.462 98:0.762 99:0 100:0 101:-0.462 102:-0.762 103:-0.905 104:-0.462 105:-0.762 106:-0.762 107:-0.905 108:0.995 109:0.762 110:-0.905 111:-0.462 112:-0.462 113:-0.905 114:-0.462 115:-0.964 116:-0.905 117:0.462 118:-0.462 119:0 120:-0.762 121:0 122:-0.462 123:-0.905 124:-0.964 125:-0.462 126:-0.905 127:0 128:-0.462 129:-0.905 130:-0.762 131:-0.462 132:-0.905 133:-0.905 134:0.905 135:-0.762 136:0.462 137:0.462 138:-0.905 139:-0.762 140:-0.762 141:-0.905 142:-0.762 143:0 144:0.964 145:-0.905 146:-0.462 147:-0.462 148:-0.762 149:-0.905 150:0.462 151:0 152:-0.905 153:0 154:0.462 155:-0.905 156:0 157:-0.905 158:-0.762 159:0.995 160:-0.762 161:0 162:0 163:0.462 164:0 165:-0.905 166:-0.964 167:-0.462 168:-0.762 169:0.964 170:0 171:-0.762 172:-0.462 173:-0.762 174:0 175:-0.762 176:-0.462 177:-0.462 178:-0.462 179:-0.462 180:-0.762 181:-0.462 182:-0.462 183:-0.462 184:0.462 185:0 186:0 187:-0.905 188:-0.462 189:-0.762 190:0.462 191:-0.462 192:0 193:0 194:-0.762 195:0 196:-0.462 197:-0.762 198:0 199:-0.762 200:-0.462 201:0.462 202:-0.462 203:0 204:-0.462 205:0.964 206:0.462 207:-0.762 208:-0.905 209:-0.462 210:-0.762 211:-0.374 212:-0.683 213:-0.834 214:-0.529 215:0.069 216:-0.707 217:-0.358 218:-0.379 219:-0.276 220:-0.331 221:-0.231 222:-0.58 223:-0.813 224:-0.376 225:-0.201 226:-0.458 227:-0.535 228:-0.533 229:-0.221 230:-0.462 231:0.072 232:0.574 233:0.316 234:0.496 235:0.339 236:0.009 237:0.07 238:0.398 239:0.339 240:0.252 
-2 1:-0.05 2:-0.703 3:0.331 4:0.329 5:-0.833 6:-0.254 7:-0.154 8:-0.833 9:0.154 10:-0.833 11:-0.612 12:0.397 13:-0.512 14:0.254 15:-0.231 16:0.559 17:0.077 18:-0.786 19:-0.915 20:-0.462 21:-0.762 22:-0.762 23:-0.762 24:-0.905 25:-0.762 26:0.905 27:-0.905 28:0.762 29:-0.462 30:-0.762 31:-0.462 32:-0.462 33:-0.762 34:-0.905 35:-0.462 36:-0.762 37:-0.762 38:-0.762 39:-0.462 40:0.762 41:-0.462 42:0.998 43:-0.462 44:-0.905 45:-0.462 46:0.462 47:-0.905 48:-0.762 49:-0.462 50:-0.905 51:0.987 52:-0.762 53:-0.462 54:0 55:-0.462 56:0.462 57:0.762 58:0 59:-0.462 60:-0.762 61:-0.905 62:-0.462 63:-0.762 64:-0.462 65:-0.905 66:-0.462 67:0.462 68:-0.905 69:-0.762 70:-0.462 71:-0.905 72:0.987 73:-0.762 74:-0.462 75:0 76:-0.462 77:0.462 78:0.762 79:0 80:-0.462 81:-0.762 82:-0.905 83:-0.462 84:-0.762 85:-0.462 86:-0.905 87:0 88:0.762 89:-0.905 90:-0.762 91:0 92:-0.905 93:0.462 94:-0.762 95:0 96:0 97:-0.462 98:0.987 99:0.462 100:0 101:-0.462 102:-0.762 103:-0.762 104:-0.462 105:-0.462 106:0 107:-0.462 108:-0.905 109:-0.762 110:-0.462 111:-0.905 112:-0.905 113:0.905 114:-0.762 115:0.462 116:0.462 117:-0.905 118:-0.762 119:-0.762 120:-0.905 121:-0.762 122:0 123:0.964 124:-0.905 125:-0.462 126:-0.462 127:0 128:-0.462 129:-0.462 130:-0.462 131:-0.762 132:-0.762 133:-0.762 134:-0.462 135:-0.462 136:-0.462 137:-0.462 138:0 139:-0.462 140:-0.462 141:-0.462 142:0.462 143:0.987 144:0 145:-0.762 146:-0.462 147:-0.762 148:-0.462 149:-0.462 150:-0.905 151:-0.905 152:0 153:-0.964 154:-0.905 155:0.964 156:-0.905 157:0.762 158:0.462 159:-0.905 160:-0.905 161:-0.905 162:-0.905 163:-0.762 164:-0.462 165:0.905 166:-0.905 167:-0.462 168:-0.462 169:-0.462 170:-0.905 171:-0.762 172:0 173:-0.905 174:-0.762 175:0 176:-0.905 177:0.762 178:-0.762 179:-0.462 180:0 181:-0.762 182:0.462 183:0.987 184:-0.462 185:-0.462 186:-0.905 187:-0.905 188:-0.462 189:-0.762 190:-0.462 191:-0.462 192:-0.905 193:-0.905 194:0 195:-0.964 196:-0.905 197:0.964 198:-0.905 199:0.762 200:0.462 201:-0.905 202:-0.905 203:-0.905 204:-0.905 205:-0.762 206:-0.462 207:0.905 208:-0.905 209:-0.462 210:-0.462 211:-0.077 212:-0.196 213:-0.61 214:-0.779 215:-0.784 216:0.119 217:-0.76 218:-0.713 219:-0.76 220:-0.713 221:-0.683 222:-0.379 223:-0.76 224:-0.76 225:-0.76 226:-0.231 227:-0.612 228:-0.683 229:-0.712 230:-0.462 231:-0.784 232:1 233:0.398 234:0.522 235:-0.061 236:-0.117 237:-0.255 238:0.443 239:-0.107 240:0.544 
2 1:0.194 2:-0.58 3:-0.636 4:-0.662 5:-0.556 6:0.347 7:-0.508 8:-0.713 9:-0.662 10:-0.713 11:-0.683 12:-0.381 13:-0.686 14:-0.612 15:-0.662 16:0.027 17:-0.508 18:-0.529 19:-0.556 20:-0.462 21:-0.54 22:-0.462 23:-0.462 24:-0.905 25:-0.905 26:0 27:-0.964 28:-0.905 29:0.964 30:-0.905 31:0.762 32:0.462 33:-0.905 34:-0.905 35:-0.905 36:-0.905 37:-0.762 38:-0.462 39:0.905 40:-0.905 41:-0.462 42:-0.462 43:-0.462 44:-0.905 45:-0.762 46:0 47:-0.905 48:-0.762 49:0 50:-0.905 51:0.762 52:-0.762 53:-0.462 54:0 55:-0.762 56:0.462 57:0.987 58:-0.462 59:-0.462 60:-0.905 61:-0.905 62:-0.462 63:-0.762 64:-0.462 65:-0.905 66:-0.762 67:0 68:-0.905 69:-0.762 70:0 71:-0.905 72:0.762 73:-0.762 74:-0.462 75:0 76:-0.762 77:0.462 78:0.987 79:-0.462 80:-0.462 81:-0.905 82:-0.905 83:-0.462 84:-0.762 85:-0.762 86:-0.905 87:0.995 88:0.762 89:-0.905 90:-0.462 91:-0.462 92:-0.905 93:-0.462 94:-0.964 95:-0.905 96:0.462 97:-0.462 98:0 99:-0.762 100:0 101:-0.462 102:-0.905 103:-0.964 104:-0.462 105:-0.905 106:0 107:-0.905 108:-0.462 109:-0.762 110:-0.905 111:0.995 112:-0.762 113:-0.964 114:-0.762 115:-0.964 116:-0.905 117:0 118:-0.762 119:-0.762 120:-0.762 121:0 122:-0.762 123:-0.905 124:-0.762 125:-0.462 126:-0.905 127:-0.462 128:-0.462 129:-0.964 130:-0.905 131:0 132:-0.964 133:-0.905 134:0.762 135:-0.762 136:0.964 137:0.762 138:-0.905 139:-0.905 140:-0.762 141:-0.762 142:-0.762 143:-0.462 144:0.462 145:-0.762 146:-0.462 147:-0.462 148:-0.462 149:-0.462 150:-0.964 151:-0.905 152:0 153:-0.964 154:-0.905 155:0.762 156:-0.762 157:0.964 158:0.762 159:-0.905 160:-0.905 161:-0.762 162:-0.762 163:-0.762 164:-0.462 165:0.462 166:-0.762 167:-0.462 168:-0.462 169:-0.462 170:-0.462 171:-0.964 172:-0.905 173:0 174:-0.964 175:-0.905 176:0.762 177:-0.762 178:0.964 179:0.762 180:-0.905 181:-0.905 182:-0.762 183:-0.762 184:-0.762 185:-0.462 186:0.462 187:-0.762 188:-0.462 189:-0.462 190:-0.462 191:-0.905 192:-0.762 193:0 194:-0.905 195:-0.762 196:0 197:-0.905 198:0.762 199:-0.762 200:-0.462 201:0 202:-0.762 203:0.462 204:0.987 205:-0.462 206:-0.462 207:-0.905 208:-0.905 209:-0.462 210:-0.762 211:-0.358 212:-0.536 213:-0.618 214:-0.58 215:-0.305 216:-0.861 217:-0.831 218:0.532 219:-0.712 220:0.475 221:0.384 222:-0.677 223:-0.784 224:-0.635 225:-0.81 226:-0.635 227:-0.308 228:0.401 229:-0.843 230:-0.462 231:-0.536 232:0.929 233:-0.107 234:-0.305 235:0.704 236:0.224 237:0.142 238:0.345 239:-0.053 240:0.038 
2 1:0.228 2:-0.379 3:-0.126 4:-0.054 5:-0.81 6:-0.281 7:-0.662 8:-0.61 9:-0.462 10:-0.629 11:-0.61 12:-0.227 13:-0.462 14:-0.308 15:-0.562 16:0.308 17:0.01 18:-0.302 19:-0.901 20:-0.462 21:-0.81 22:-0.462 23:-0.462 24:-0.964 25:-0.905 26:0 27:-0.964 28:-0.905 29:0.762 30:-0.762 31:0.964 32:0.762 33:-0.905 34:-0.905 35:-0.762 36:-0.762 37:-0.762 38:-0.462 39:0.462 40:-0.762 41:-0.462 42:-0.462 43:-0.462 44:-0.905 45:-0.762 46:0 47:-0.905 48:-0.762 49:0 50:-0.905 51:0.762 52:-0.762 53:-0.462 54:0 55:-0.762 56:0.462 57:0.987 58:-0.462 59:-0.462 60:-0.905 61:-0.905 62:-0.462 63:-0.762 64:0 65:-0.462 66:-0.462 67:-0.462 68:-0.762 69:-0.762 70:-0.762 71:-0.462 72:-0.462 73:-0.462 74:-0.462 75:0 76:-0.462 77:-0.462 78:-0.462 79:0.462 80:0.987 81:0 82:-0.762 83:-0.462 84:-0.762 85:-0.462 86:-0.462 87:-0.964 88:-0.905 89:0 90:-0.964 91:-0.905 92:0.762 93:-0.762 94:0.964 95:0.762 96:-0.905 97:-0.905 98:-0.762 99:-0.762 100:-0.762 101:-0.462 102:0.462 103:-0.762 104:-0.462 105:-0.462 106:0 107:-0.905 108:-0.462 109:-0.762 110:-0.905 111:0.995 112:-0.762 113:-0.964 114:-0.762 115:-0.964 116:-0.905 117:0 118:-0.762 119:-0.762 120:-0.762 121:0 122:-0.762 123:-0.905 124:-0.762 125:-0.462 126:-0.905 127:0.462 128:-0.462 129:0 130:0 131:-0.762 132:0 133:-0.462 134:-0.762 135:0 136:-0.762 137:-0.462 138:0.462 139:-0.462 140:0 141:-0.462 142:0.964 143:0.462 144:-0.762 145:-0.905 146:-0.462 147:-0.762 148:0 149:-0.462 150:-0.462 151:-0.462 152:-0.762 153:-0.762 154:-0.762 155:-0.462 156:-0.462 157:-0.462 158:-0.462 159:0 160:-0.462 161:-0.462 162:-0.462 163:0.462 164:0.987 165:0 166:-0.762 167:-0.462 168:-0.762 169:0.462 170:-0.462 171:0 172:0 173:-0.762 174:0 175:-0.462 176:-0.762 177:0 178:-0.762 179:-0.462 180:0.462 181:-0.462 182:0 183:-0.462 184:0.964 185:0.462 186:-0.762 187:-0.905 188:-0.462 189:-0.762 190:0.964 191:0 192:-0.762 193:-0.462 194:-0.762 195:0 196:-0.762 197:-0.462 198:-0.462 199:-0.462 200:-0.462 201:-0.762 202:-0.462 203:-0.462 204:-0.462 205:0.462 206:0 207:0 208:-0.905 209:-0.462 210:-0.762 211:-0.535 212:-0.851 213:0.601 214:0.583 215:-0.831 216:-0.636 217:-0.382 218:-0.603 219:-0.204 220:-0.707 221:-0.629 222:0.08 223:-0.512 224:0.127 225:-0.532 226:-0.127 227:-0.385 228:-0.546 229:-0.934 230:-0.462 231:-0.784 232:0.629 233:-0.107 234:0.473 235:-0.264 236:0.224 237:-0.218 238:0.237 239:-0.378 240:0.584 
2 1:-0.308 2:-0.683 3:-0.693 4:-0.636 5:-0.636 6:-0.843 7:-0.833 8:-0.024 9:-0.612 10:-0.138 11:-0.1 12:-0.833 13:0.094 14:-0.612 15:-0.81 16:-0.612 17:-0.308 18:0.017 19:-0.911 20:-0.462 21:-0.683 22:-0.462 23:-0.905 24:-0.462 25:0.462 26:-0.905 27:-0.762 28:-0.462 29:-0.905 30:0.987 31:-0.762 32:-0.462 33:0 34:-0.462 35:0.462 36:0.762 37:0 38:-0.462 39:-0.762 40:-0.905 41:-0.462 42:-0.762 43:-0.462 44:-0.462 45:-0.964 46:-0.905 47:0 48:-0.964 49:-0.905 50:0.762 51:-0.762 52:0.964 53:0.762 54:-0.905 55:-0.905 56:-0.762 57:-0.762 58:-0.762 59:-0.462 60:0.462 61:-0.762 62:-0.462 63:-0.462 64:-0.762 65:-0.905 66:0.995 67:0.762 68:-0.905 69:-0.462 70:-0.462 71:-0.905 72:-0.462 73:-0.964 74:-0.905 75:0.462 76:-0.462 77:0 78:-0.762 79:0 80:-0.462 81:-0.905 82:-0.964 83:-0.462 84:-0.905 85:0.964 86:0 87:-0.762 88:-0.462 89:-0.762 90:0 91:-0.762 92:-0.462 93:-0.462 94:-0.462 95:-0.462 96:-0.762 97:-0.462 98:-0.462 99:-0.462 100:0.462 101:0 102:0 103:-0.905 104:-0.462 105:-0.762 106:0.964 107:0 108:-0.762 109:-0.462 110:-0.762 111:0 112:-0.762 113:-0.462 114:-0.462 115:-0.462 116:-0.462 117:-0.762 118:-0.462 119:-0.462 120:-0.462 121:0.462 122:0 123:0 124:-0.905 125:-0.462 126:-0.762 127:-0.762 128:-0.762 129:-0.905 130:-0.762 131:0.905 132:-0.905 133:0.762 134:-0.462 135:-0.762 136:-0.462 137:-0.462 138:-0.762 139:-0.905 140:-0.462 141:-0.762 142:-0.762 143:-0.762 144:-0.462 145:0.762 146:-0.462 147:0.998 148:0.462 149:-0.462 150:0 151:0 152:-0.762 153:0 154:-0.462 155:-0.762 156:0 157:-0.762 158:-0.462 159:0.462 160:-0.462 161:0 162:-0.462 163:0.964 164:0.462 165:-0.762 166:-0.905 167:-0.462 168:-0.762 169:0 170:-0.462 171:-0.905 172:-0.762 173:-0.462 174:-0.905 175:-0.905 176:0.905 177:-0.762 178:0.462 179:0.462 180:-0.905 181:-0.762 182:-0.762 183:-0.905 184:-0.762 185:0 186:0.964 187:-0.905 188:-0.462 189:-0.462 190:0.964 191:0 192:-0.762 193:-0.462 194:-0.762 195:0 196:-0.762 197:-0.462 198:-0.462 199:-0.462 200:-0.462 201:-0.762 202:-0.462 203:-0.462 204:-0.462 205:0.462 206:0 207:0 208:-0.905 209:-0.462 210:-0.762 211:-0.612 212:-0.76 213:-0.683 214:-0.304 215:0.074 216:-0.784 217:0.15 218:-0.61 219:-0.129 220:-0.562 221:-0.462 222:-0.458 223:-0.683 224:-0.154 225:-0.204 226:-0.458 227:-0.612 228:-0.562 229:0.002 230:-0.462 231:0.168 232:0.574 233:0.316 234:0.335 235:0.744 236:0.274 237:0.391 238:0.065 239:0.07 240:0.584 
2 1:-0.462 2:-0.462 3:-0.462 4:-0.462 5:-0.462 6:-0.462 7:-0.462 8:-0.462 9:-0.462 10:-0.462 11:-0.462 12:-0.462 13:-0.462 14:-0.462 15:-0.462 16:-0.462 17:-0.462 18:-0.462 19:-0.462 20:-0.462 21:-0.462 22:-0.462 23:-0.462 24:-0.964 25:-0.905 26:0 27:-0.964 28:-0.905 29:0.762 30:-0.762 31:0.964 32:0.762 33:-0.905 34:-0.905 35:-0.762 36:-0.762 37:-0.762 38:-0.462 39:0.462 40:-0.762 41:-0.462 42:-0.462 43:-0.462 44:-0.905 45:-0.462 46:0.462 47:-0.905 48:-0.762 49:-0.462 50:-0.905 51:0.987 52:-0.762 53:-0.462 54:0 55:-0.462 56:0.462 57:0.762 58:0 59:-0.462 60:-0.762 61:-0.905 62:-0.462 63:-0.762 64:-0.462 65:-0.462 66:-0.964 67:-0.905 68:0 69:-0.964 70:-0.905 71:0.762 72:-0.762 73:0.964 74:0.762 75:-0.905 76:-0.905 77:-0.762 78:-0.762 79:-0.762 80:-0.462 81:0.462 82:-0.762 83:-0.462 84:-0.462 85:0 86:-0.462 87:-0.462 88:-0.462 89:-0.762 90:-0.762 91:-0.762 92:-0.462 93:-0.462 94:-0.462 95:-0.462 96:0 97:-0.462 98:-0.462 99:-0.462 100:0.462 101:0.987 102:0 103:-0.762 104:-0.462 105:-0.762 106:0.462 107:-0.462 108:0 109:0 110:-0.762 111:0 112:-0.462 113:-0.762 114:0 115:-0.762 116:-0.462 117:0.462 118:-0.462 119:0 120:-0.462 121:0.964 122:0.462 123:-0.762 124:-0.905 125:-0.462 126:-0.762 127:0 128:-0.905 129:-0.462 130:-0.762 131:-0.905 132:0.995 133:-0.762 134:-0.964 135:-0.762 136:-0.964 137:-0.905 138:0 139:-0.762 140:-0.762 141:-0.762 142:0 143:-0.762 144:-0.905 145:-0.762 146:-0.462 147:-0.905 148:-0.462 149:-0.905 150:-0.462 151:0.462 152:-0.905 153:-0.762 154:-0.462 155:-0.905 156:0.987 157:-0.762 158:-0.462 159:0 160:-0.462 161:0.462 162:0.762 163:0 164:-0.462 165:-0.762 166:-0.905 167:-0.462 168:-0.762 169:-0.462 170:-0.462 171:-0.905 172:-0.905 173:0 174:-0.964 175:-0.905 176:0.964 177:-0.905 178:0.762 179:0.462 180:-0.905 181:-0.905 182:-0.905 183:-0.905 184:-0.762 185:-0.462 186:0.905 187:-0.905 188:-0.462 189:-0.462 190:0.964 191:0 192:-0.762 193:-0.462 194:-0.762 195:0 196:-0.762 197:-0.462 198:-0.462 199:-0.462 200:-0.462 201:-0.762 202:-0.462 203:-0.462 204:-0.462 205:0.462 206:0 207:0 208:-0.905 209:-0.462 210:-0.762 211:0.154 212:0.025 213:-0.462 214:-0.472 215:-0.635 216:-0.462 217:-0.683 218:-0.408 219:-0.429 220:-0.374 221:-0.258 222:-0.221 223:-0.683 224:-0.429 225:-0.66 226:0.201 227:0 228:-0.458 229:-0.834 230:-0.462 231:-0.712 232:0.629 233:0.398 234:-0.083 235:0.533 236:0.072 237:-0.001 238:0.268 239:0.245 240:0.584 
-1.915663513538935 1:-0.462 2:-0.462 3:-0.462 4:-0.462 5:-0.462 6:-0.462 7:-0.462 8:-0.462 9:-0.462 10:-0.462 11:-0.462 12:-0.462 13:-0.462 14:-0.462 15:-0.462 16:-0.462 17:-0.462 18:-0.462 19:-0.462 20:-0.462 21:-0.462 22:-0.462 23:-0.462 24:-0.964 25:-0.905 26:0 27:-0.964 28:-0.905 29:0.762 30:-0.762 31:0.964 32:0.762 33:-0.905 34:-0.905 35:-0.762 36:-0.762 37:-0.762 38:-0.462 39:0.462 40:-0.762 41:-0.462 42:-0.462 43:-0.462 44:-0.905 45:-0.462 46:-0.462 47:-0.964 48:-0.762 49:-0.762 50:-0.905 51:-0.462 52:-0.905 53:-0.762 54:-0.762 55:0.998 56:-0.462 57:-0.762 58:-0.462 59:-0.462 60:-0.762 61:-0.964 62:-0.462 63:-0.905 64:0.964 65:0 66:-0.762 67:-0.462 68:-0.762 69:0 70:-0.762 71:-0.462 72:-0.462 73:-0.462 74:-0.462 75:-0.762 76:-0.462 77:-0.462 78:-0.462 79:0.462 80:0 81:0 82:-0.905 83:-0.462 84:-0.762 85:-0.762 86:-0.905 87:0.995 88:0.762 89:-0.905 90:-0.462 91:-0.462 92:-0.905 93:-0.462 94:-0.964 95:-0.905 96:0.462 97:-0.462 98:0 99:-0.762 100:0 101:-0.462 102:-0.905 103:-0.964 104:-0.462 105:-0.905 106:-0.462 107:-0.462 108:-0.964 109:-0.905 110:0 111:-0.964 112:-0.905 113:0.762 114:-0.762 115:0.964 116:0.762 117:-0.905 118:-0.905 119:-0.762 120:-0.762 121:-0.762 122:-0.462 123:0.462 124:-0.762 125:-0.462 126:-0.462 127:-0.462 128:-0.462 129:-0.905 130:-0.762 131:0 132:-0.905 133:-0.762 134:0.462 135:-0.462 136:0.762 137:0.987 138:-0.762 139:-0.762 140:0 141:-0.462 142:-0.462 143:-0.462 144:0.462 145:-0.462 146:-0.462 147:-0.462 148:-0.462 149:-0.462 150:-0.905 151:-0.905 152:0 153:-0.964 154:-0.905 155:0.964 156:-0.905 157:0.762 158:0.462 159:-0.905 160:-0.905 161:-0.905 162:-0.905 163:-0.762 164:-0.462 165:0.905 166:-0.905 167:-0.462 168:-0.462 169:-0.462 170:-0.905 171:-0.762 172:0 173:-0.905 174:-0.762 175:0 176:-0.905 177:0.762 178:-0.762 179:-0.462 180:0 181:-0.762 182:0.462 183:0.987 184:-0.462 185:-0.462 186:-0.905 187:-0.905 188:-0.462 189:-0.762 190:-0.462 191:-0.462 192:-0.905 193:-0.905 194:0 195:-0.964 196:-0.905 197:0.964 198:-0.905 199:0.762 200:0.462 201:-0.905 202:-0.905 203:-0.905 204:-0.905 205:-0.762 206:-0.462 207:0.905 208:-0.905 209:-0.462 210:-0.462 211:0.013 212:-0.382 213:-0.707 214:-0.48 215:-0.405 216:-0.609 217:-0.707 218:0.177 219:-0.529 220:0.1 221:0.077 222:-0.707 223:-0.683 224:-0.442 225:-0.529 226:-0.227 227:-0.308 228:0.326 229:-0.881 230:-0.462 231:-0.562 232:0.629 233:-0.454 234:0.801 235:0.704 236:-0.607 237:0.228 238:0.443 239:-0.107 240:0.544 
-0.01880762547420164 1:-0.231 2:-0.462 3:-0.683 4:-0.612 5:-0.462 6:-0.683 7:-0.683 8:0.222 9:-0.612 10:0 11:0 12:-0.683 13:-0.612 14:-0.612 15:-0.683 16:-0.612 17:-0.231 18:0.251 19:-0.683 20:-0.462 21:-0.462 22:-0.462 23:-0.905 24:-0.462 25:-0.462 26:-0.964 27:-0.762 28:-0.762 29:-0.905 30:-0.462 31:-0.905 32:-0.762 33:-0.762 34:0.998 35:-0.462 36:-0.762 37:-0.462 38:-0.462 39:-0.762 40:-0.964 41:-0.462 42:-0.905 43:-0.462 44:-0.905 45:0 46:0.762 47:-0.905 48:-0.762 49:0 50:-0.905 51:0.462 52:-0.762 53:0 54:0 55:-0.462 56:0.987 57:0.462 58:0 59:-0.462 60:-0.762 61:-0.762 62:-0.462 63:-0.462 64:-0.462 65:-0.462 66:-0.964 67:-0.905 68:0 69:-0.964 70:-0.905 71:0.762 72:-0.762 73:0.964 74:0.762 75:-0.905 76:-0.905 77:-0.762 78:-0.762 79:-0.762 80:-0.462 81:0.462 82:-0.762 83:-0.462 84:-0.462 85:-0.462 86:-0.905 87:0 88:0.762 89:-0.905 90:-0.762 91:0 92:-0.905 93:0.462 94:-0.762 95:0 96:0 97:-0.462 98:0.987 99:0.462 100:0 101:-0.462 102:-0.762 103:-0.762 104:-0.462 105:-0.462 106:-0.462 107:-0.905 108:-0.462 109:-0.462 110:-0.964 111:-0.762 112:-0.762 113:-0.905 114:-0.462 115:-0.905 116:-0.762 117:-0.762 118:0.998 119:-0.462 120:-0.762 121:-0.462 122:-0.462 123:-0.762 124:-0.964 125:-0.462 126:-0.905 127:-0.462 128:-0.905 129:0 130:0.762 131:-0.905 132:-0.762 133:0 134:-0.905 135:0.462 136:-0.762 137:0 138:0 139:-0.462 140:0.987 141:0.462 142:0 143:-0.462 144:-0.762 145:-0.762 146:-0.462 147:-0.462 148:-0.762 149:-0.905 150:0.462 151:0 152:-0.905 153:0 154:0.462 155:-0.905 156:0 157:-0.905 158:-0.762 159:0.995 160:-0.762 161:0 162:0 163:0.462 164:0 165:-0.905 166:-0.964 167:-0.462 168:-0.762 169:-0.462 170:-0.905 171:-0.462 172:-0.462 173:-0.964 174:-0.762 175:-0.762 176:-0.905 177:-0.462 178:-0.905 179:-0.762 180:-0.762 181:0.998 182:-0.462 183:-0.762 184:-0.462 185:-0.462 186:-0.762 187:-0.964 188:-0.462 189:-0.905 190:0.462 191:-0.462 192:0 193:0 194:-0.762 195:0 196:-0.462 197:-0.762 198:0 199:-0.762 200:-0.462 201:0.462 202:-0.462 203:0 204:-0.462 205:0.964 206:0.462 207:-0.762 208:-0.905 209:-0.462 210:-0.762 211:-0.462 212:-0.905 213:0 214:0.762 215:-0.905 216:-0.762 217:0 218:-0.905 219:0.462 220:-0.762 221:0 222:0 223:-0.462 224:0.987 225:0.462 226:0 227:-0.462 228:-0.762 229:-0.762 230:-0.462 231:-0.462 232:0.156 233:0.051 234:-0.083 235:-0.061 236:0.186 237:-0.2 238:0.398 239:-0.118 240:0.252 
-2 1:0.251 2:-0.231 3:-0.612 4:-0.462 5:-0.612 6:-0.231 7:-0.612 8:-0.462 9:-0.462 10:-0.462 11:-0.462 12:-0.612 13:-0.462 14:-0.462 15:-0.462 16:0 17:-0.231 18:-0.231 19:-0.683 20:-0.462 21:-0.612 22:0 23:-0.462 24:-0.905 25:-0.762 26:-0.462 27:-0.905 28:-0.905 29:0.905 30:-0.762 31:0.462 32:0.462 33:-0.905 34:-0.762 35:-0.762 36:-0.905 37:-0.762 38:0 39:0.964 40:-0.905 41:-0.462 42:-0.462 43:-0.462 44:-0.905 45:0 46:0.762 47:-0.905 48:-0.762 49:0 50:-0.905 51:0.462 52:-0.762 53:0 54:0 55:-0.462 56:0.987 57:0.462 58:0 59:-0.462 60:-0.762 61:-0.762 62:-0.462 63:-0.462 64:0 65:-0.462 66:-0.905 67:-0.762 68:-0.462 69:-0.905 70:-0.905 71:0.905 72:-0.762 73:0.462 74:0.462 75:-0.905 76:-0.762 77:-0.762 78:-0.905 79:-0.762 80:0 81:0.964 82:-0.905 83:-0.462 84:-0.462 85:0 86:-0.462 87:-0.462 88:-0.462 89:-0.762 90:-0.762 91:-0.762 92:-0.462 93:-0.462 94:-0.462 95:-0.462 96:0 97:-0.462 98:-0.462 99:-0.462 100:0.462 101:0.987 102:0 103:-0.762 104:-0.462 105:-0.762 106:-0.762 107:-0.762 108:-0.905 109:-0.905 110:0.995 111:-0.905 112:-0.462 113:0 114:-0.905 115:0 116:0 117:-0.905 118:-0.964 119:-0.905 120:-0.905 121:-0.762 122:-0.762 123:-0.462 124:0.462 125:-0.462 126:0.905 127:0 128:-0.462 129:-0.462 130:-0.462 131:-0.762 132:-0.762 133:-0.762 134:-0.462 135:-0.462 136:-0.462 137:-0.462 138:0 139:-0.462 140:-0.462 141:-0.462 142:0.462 143:0.987 144:0 145:-0.762 146:-0.462 147:-0.762 148:0 149:-0.462 150:-0.905 151:-0.762 152:-0.462 153:-0.905 154:-0.905 155:0.905 156:-0.762 157:0.462 158:0.462 159:-0.905 160:-0.762 161:-0.762 162:-0.905 163:-0.762 164:0 165:0.964 166:-0.905 167:-0.462 168:-0.462 169:-0.462 170:-0.905 171:0 172:0.762 173:-0.905 174:-0.762 175:0 176:-0.905 177:0.462 178:-0.762 179:0 180:0 181:-0.462 182:0.987 183:0.462 184:0 185:-0.462 186:-0.762 187:-0.762 188:-0.462 189:-0.462 190:-0.462 191:-0.905 192:-0.462 193:0.462 194:-0.905 195:-0.762 196:-0.462 197:-0.905 198:0.987 199:-0.762 200:-0.462 201:0 202:-0.462 203:0.462 204:0.762 205:0 206:-0.462 207:-0.762 208:-0.905 209:-0.462 210:-0.762 211:0.027 212:-0.757 213:-0.065 214:-0.254 215:-0.857 216:0.42 217:-0.612 218:-0.887 219:-0.458 220:-0.897 221:-0.757 222:0.231 223:-0.612 224:-0.381 225:-0.662 226:0.321 227:-0.304 228:-0.857 229:-0.843 230:-0.462 231:-0.857 232:0.753 233:0.051 234:0.413 235:0.533 236:0.21 237:-0.255 238:0.321 239:-0.002 240:0.35 
-2 1:0.007 2:-0.533 3:-0.612 4:-0.308 5:-0.81 6:-0.635 7:-0.508 8:-0.61 9:-0.054 10:-0.562 11:-0.462 12:-0.127 13:-0.562 14:-0.154 15:0.021 16:0.154 17:0.34 18:-0.302 19:-0.833 20:-0.462 21:-0.762 22:0.964 23:0 24:-0.762 25:-0.462 26:-0.762 27:0 28:-0.762 29:-0.462 30:-0.462 31:-0.462 32:-0.462 33:-0.762 34:-0.462 35:-0.462 36:-0.462 37:0.462 38:0 39:0 40:-0.905 41:-0.462 42:-0.762 43:-0.905 44:-0.762 45:-0.964 46:-0.905 47:0.462 48:-0.762 49:-0.762 50:-0.905 51:-0.905 52:-0.762 53:-0.462 54:-0.964 55:-0.964 56:-0.762 57:-0.905 58:-0.905 59:-0.762 60:-0.905 61:1 62:-0.462 63:0.762 64:0 65:-0.462 66:-0.905 67:-0.762 68:-0.462 69:-0.905 70:-0.905 71:0.905 72:-0.762 73:0.462 74:0.462 75:-0.905 76:-0.762 77:-0.762 78:-0.905 79:-0.762 80:0 81:0.964 82:-0.905 83:-0.462 84:-0.462 85:-0.762 86:-0.905 87:0.995 88:0.762 89:-0.905 90:-0.462 91:-0.462 92:-0.905 93:-0.462 94:-0.964 95:-0.905 96:0.462 97:-0.462 98:0 99:-0.762 100:0 101:-0.462 102:-0.905 103:-0.964 104:-0.462 105:-0.905 106:0.462 107:-0.462 108:0 109:0 110:-0.762 111:0 112:-0.462 113:-0.762 114:0 115:-0.762 116:-0.462 117:0.462 118:-0.462 119:0 120:-0.462 121:0.964 122:0.462 123:-0.762 124:-0.905 125:-0.462 126:-0.762 127:0 128:-0.905 129:-0.462 130:-0.762 131:-0.905 132:0.995 133:-0.762 134:-0.964 135:-0.762 136:-0.964 137:-0.905 138:0 139:-0.762 140:-0.762 141:-0.762 142:0 143:-0.762 144:-0.905 145:-0.762 146:-0.462 147:-0.905 148:0.964 149:0 150:-0.762 151:-0.462 152:-0.762 153:0 154:-0.762 155:-0.462 156:-0.462 157:-0.462 158:-0.462 159:-0.762 160:-0.462 161:-0.462 162:-0.462 163:0.462 164:0 165:0 166:-0.905 167:-0.462 168:-0.762 169:-0.462 170:-0.905 171:0 172:0.762 173:-0.905 174:-0.762 175:0 176:-0.905 177:0.462 178:-0.762 179:0 180:0 181:-0.462 182:0.987 183:0.462 184:0 185:-0.462 186:-0.762 187:-0.762 188:-0.462 189:-0.462 190:-0.462 191:-0.462 192:-0.964 193:-0.905 194:0 195:-0.964 196:-0.905 197:0.762 198:-0.762 199:0.964 200:0.762 201:-0.905 202:-0.905 203:-0.762 204:-0.762 205:-0.762 206:-0.462 207:0.462 208:-0.762 209:-0.462 210:-0.462 211:-0.231 212:-0.683 213:-0.462 214:-0.612 215:-0.683 216:0.267 217:-0.612 218:-0.713 219:-0.612 220:-0.713 221:-0.683 222:-0.231 223:-0.612 224:-0.612 225:-0.612 226:-0.231 227:-0.612 228:-0.683 229:-0.612 230:-0.462 231:-0.683 232:0.266 233:0.214 234:0.413 235:0.704 236:0.072 237:-0.001 238:0.274 239:-0.002 240:0.387 
2 1:-0.512 2:-0.881 3:-0.536 4:-0.074 5:-0.608 6:-0.786 7:-0.562 8:-0.754 9:0.189 10:-0.683 11:-0.485 12:-0.405 13:-0.059 14:-0.074 15:-0.024 16:-0.281 17:-0.512 18:-0.712 19:-0.697 20:-0.462 21:-0.532 22:-0.462 23:-0.905 24:-0.762 25:0 26:-0.905 27:-0.762 28:0 29:-0.905 30:0.762 31:-0.762 32:-0.462 33:0 34:-0.762 35:0.462 36:0.987 37:-0.462 38:-0.462 39:-0.905 40:-0.905 41:-0.462 42:-0.762 43:0 44:-0.462 45:-0.905 46:-0.762 47:-0.462 48:-0.905 49:-0.905 50:0.905 51:-0.762 52:0.462 53:0.462 54:-0.905 55:-0.762 56:-0.762 57:-0.905 58:-0.762 59:0 60:0.964 61:-0.905 62:-0.462 63:-0.462 64:-0.905 65:-0.762 66:-0.964 67:-0.905 68:0.462 69:-0.762 70:-0.762 71:-0.905 72:-0.905 73:-0.762 74:-0.462 75:-0.964 76:-0.964 77:-0.762 78:-0.905 79:-0.905 80:-0.762 81:-0.905 82:1 83:-0.462 84:0.762 85:-0.462 86:-0.964 87:0.762 88:0.987 89:-0.905 90:-0.762 91:0 92:-0.905 93:0.462 94:-0.905 95:-0.762 96:0 97:-0.462 98:0.762 99:0 100:0 101:-0.462 102:-0.762 103:-0.905 104:-0.462 105:-0.762 106:-0.462 107:-0.905 108:0 109:0.762 110:-0.905 111:-0.762 112:0 113:-0.905 114:0.462 115:-0.762 116:0 117:0 118:-0.462 119:0.987 120:0.462 121:0 122:-0.462 123:-0.762 124:-0.762 125:-0.462 126:-0.462 127:-0.462 128:-0.462 129:-0.905 130:-0.905 131:0 132:-0.964 133:-0.905 134:0.964 135:-0.905 136:0.762 137:0.462 138:-0.905 139:-0.905 140:-0.905 141:-0.905 142:-0.762 143:-0.462 144:0.905 145:-0.905 146:-0.462 147:-0.462 148:-0.762 149:-0.762 150:-0.905 151:-0.905 152:0.995 153:-0.905 154:-0.462 155:0 156:-0.905 157:0 158:0 159:-0.905 160:-0.964 161:-0.905 162:-0.905 163:-0.762 164:-0.762 165:-0.462 166:0.462 167:-0.462 168:0.905 169:0.462 170:-0.462 171:0 172:0 173:-0.762 174:0 175:-0.462 176:-0.762 177:0 178:-0.762 179:-0.462 180:0.462 181:-0.462 182:0 183:-0.462 184:0.964 185:0.462 186:-0.762 187:-0.905 188:-0.462 189:-0.762 190:0 191:-0.462 192:-0.462 193:-0.462 194:-0.762 195:-0.762 196:-0.762 197:-0.462 198:-0.462 199:-0.462 200:-0.462 201:0 202:-0.462 203:-0.462 204:-0.462 205:0.462 206:0.987 207:0 208:-0.762 209:-0.462 210:-0.762 211:-0.683 212:-0.612 213:-0.713 214:-0.683 215:0 216:-0.612 217:-0.612 218:-0.683 219:-0.683 220:-0.612 221:-0.462 222:-0.713 223:-0.713 224:-0.612 225:-0.683 226:-0.683 227:-0.612 228:-0.683 229:0.269 230:-0.462 231:0.15 232:-0.054 233:0.369 234:0.664 235:0.339 236:-0.387 237:0.284 238:0.569 239:-0.378 240:0.552 
2 1:-0.358 2:-0.66 3:-0.757 4:-0.857 5:-0.136 6:-0.301 7:-0.784 8:0.161 9:-0.857 10:0.06 11:-0.071 12:-0.603 13:-0.867 14:-0.857 15:-0.857 16:-0.508 17:-0.612 18:0.074 19:-0.629 20:-0.462 21:-0.382 22:0 23:-0.462 24:-0.905 25:-0.762 26:-0.462 27:-0.905 28:-0.905 29:0.905 30:-0.762 31:0.462 32:0.462 33:-0.905 34:-0.762 35:-0.762 36:-0.905 37:-0.762 38:0 39:0.964 40:-0.905 41:-0.462 42:-0.462 43:0 44:-0.462 45:-0.905 46:-0.762 47:-0.462 48:-0.905 49:-0.905 50:0.905 51:-0.762 52:0.462 53:0.462 54:-0.905 55:-0.762 56:-0.762 57:-0.905 58:-0.762 59:0 60:0.964 61:-0.905 62:-0.462 63:-0.462 64:0.964 65:0 66:-0.762 67:-0.462 68:-0.762 69:0 70:-0.762 71:-0.462 72:-0.462 73:-0.462 74:-0.462 75:-0.762 76:-0.462 77:-0.462 78:-0.462 79:0.462 80:0 81:0 82:-0.905 83:-0.462 84:-0.762 85:-0.905 86:-0.762 87:-0.964 88:-0.905 89:0.462 90:-0.762 91:-0.762 92:-0.905 93:-0.905 94:-0.762 95:-0.462 96:-0.964 97:-0.964 98:-0.762 99:-0.905 100:-0.905 101:-0.762 102:-0.905 103:1 104:-0.462 105:0.762 106:-0.462 107:-0.905 108:0 109:0.762 110:-0.905 111:-0.762 112:0 113:-0.905 114:0.462 115:-0.762 116:0 117:0 118:-0.462 119:0.987 120:0.462 121:0 122:-0.462 123:-0.762 124:-0.762 125:-0.462 126:-0.462 127:0 128:-0.462 129:-0.905 130:-0.762 131:-0.462 132:-0.905 133:-0.905 134:0.905 135:-0.762 136:0.462 137:0.462 138:-0.905 139:-0.762 140:-0.762 141:-0.905 142:-0.762 143:0 144:0.964 145:-0.905 146:-0.462 147:-0.462 148:-0.462 149:-0.905 150:-0.462 151:0.462 152:-0.905 153:-0.762 154:-0.462 155:-0.905 156:0.987 157:-0.762 158:-0.462 159:0 160:-0.462 161:0.462 162:0.762 163:0 164:-0.462 165:-0.762 166:-0.905 167:-0.462 168:-0.762 169:-0.462 170:-0.462 171:-0.964 172:-0.905 173:0 174:-0.964 175:-0.905 176:0.762 177:-0.762 178:0.964 179:0.762 180:-0.905 181:-0.905 182:-0.762 183:-0.762 184:-0.762 185:-0.462 186:0.462 187:-0.762 188:-0.462 189:-0.462 190:-0.462 191:-0.462 192:-0.964 193:-0.905 194:0 195:-0.964 196:-0.905 197:0.762 198:-0.762 199:0.964 200:0.762 201:-0.905 202:-0.905 203:-0.762 204:-0.762 205:-0.762 206:-0.462 207:0.462 208:-0.762 209:-0.462 210:-0.462 211:-0.308 212:-0.683 213:-0.61 214:-0.562 215:-0.713 216:-0.76 217:-0.76 218:-0.228 219:-0.562 220:-0.376 221:-0.304 222:-0.76 223:0.168 224:-0.562 225:-0.76 226:-0.562 227:-0.308 228:-0.137 229:-0.861 230:-0.462 231:-0.683 232:0.753 233:0.369 234:0.801 235:0.214 236:-0.387 237:0.07 238:0.268 239:-0.053 240:0.387 
-0.724645424304726 1:-0.231 2:-0.683 3:-0.462 4:-0.612 5:-0.683 6:0.267 7:-0.612 8:-0.713 9:-0.612 10:-0.713 11:-0.683 12:-0.231 13:-0.612 14:-0.612 15:-0.612 16:-0.231 17:-0.612 18:-0.683 19:-0.612 20:-0.462 21:-0.683 22:0 23:-0.462 24:-0.905 25:-0.762 26:-0.462 27:-0.905 28:-0.905 29:0.905 30:-0.762 31:0.462 32:0.462 33:-0.905 34:-0.762 35:-0.762 36:-0.905 37:-0.762 38:0 39:0.964 40:-0.905 41:-0.462 42:-0.462 43:0 44:-0.462 45:-0.462 46:-0.462 47:-0.762 48:-0.762 49:-0.762 50:-0.462 51:-0.462 52:-0.462 53:-0.462 54:0 55:-0.462 56:-0.462 57:-0.462 58:0.462 59:0.987 60:0 61:-0.762 62:-0.462 63:-0.762 64:0 65:-0.462 66:-0.905 67:-0.762 68:-0.462 69:-0.905 70:-0.905 71:0.905 72:-0.762 73:0.462 74:0.462 75:-0.905 76:-0.762 77:-0.762 78:-0.905 79:-0.762 80:0 81:0.964 82:-0.905 83:-0.462 84:-0.462 85:-0.462 86:-0.905 87:-0.462 88:0.462 89:-0.905 90:-0.762 91:-0.462 92:-0.905 93:0.987 94:-0.762 95:-0.462 96:0 97:-0.462 98:0.462 99:0.762 100:0 101:-0.462 102:-0.762 103:-0.905 104:-0.462 105:-0.762 106:-0.762 107:-0.905 108:0.995 109:0.762 110:-0.905 111:-0.462 112:-0.462 113:-0.905 114:-0.462 115:-0.964 116:-0.905 117:0.462 118:-0.462 119:0 120:-0.762 121:0 122:-0.462 123:-0.905 124:-0.964 125:-0.462 126:-0.905 127:0 128:-0.462 129:-0.905 130:-0.762 131:-0.462 132:-0.905 133:-0.905 134:0.905 135:-0.762 136:0.462 137:0.462 138:-0.905 139:-0.762 140:-0.762 141:-0.905 142:-0.762 143:0 144:0.964 145:-0.905 146:-0.462 147:-0.462 148:0 149:-0.462 150:-0.462 151:-0.462 152:-0.762 153:-0.762 154:-0.762 155:-0.462 156:-0.462 157:-0.462 158:-0.462 159:0 160:-0.462 161:-0.462 162:-0.462 163:0.462 164:0.987 165:0 166:-0.762 167:-0.462 168:-0.762 169:-0.462 170:-0.462 171:-0.905 172:-0.905 173:0 174:-0.964 175:-0.905 176:0.964 177:-0.905 178:0.762 179:0.462 180:-0.905 181:-0.905 182:-0.905 183:-0.905 184:-0.762 185:-0.462 186:0.905 187:-0.905 188:-0.462 189:-0.462 190:0 191:-0.462 192:-0.462 193:-0.462 194:-0.762 195:-0.762 196:-0.762 197:-0.462 198:-0.462 199:-0.462 200:-0.462 201:0 202:-0.462 203:-0.462 204:-0.462 205:0.462 206:0.987 207:0 208:-0.762 209:-0.462 210:-0.762 211:0.328 212:-0.452 213:-0.612 214:-0.512 215:-0.853 216:-0.088 217:-0.762 218:-0.693 219:-0.512 220:-0.693 221:-0.636 222:-0.635 223:-0.025 224:-0.512 225:-0.612 226:0.077 227:-0.281 228:-0.405 229:-0.901 230:-0.462 231:-0.833 232:0.753 233:0.129 234:0.413 235:-0.088 236:0.009 237:0.07 238:0.237 239:0.245 240:0.552 
2 1:-0.1 2:-0.61 3:0.077 4:-0.077 5:-0.76 6:-0.077 7:-0.154 8:-0.76 9:-0.077 10:-0.76 11:-0.562 12:0.486 13:-0.562 14:-0.077 15:-0.308 16:0.559 17:0.154 18:-0.76 19:-0.851 20:-0.462 21:-0.712 22:-0.462 23:-0.462 24:-0.964 25:-0.905 26:0 27:-0.964 28:-0.905 29:0.762 30:-0.762 31:0.964 32:0.762 33:-0.905 34:-0.905 35:-0.762 36:-0.762 37:-0.762 38:-0.462 39:0.462 40:-0.762 41:-0.462 42:-0.462 43:-0.462 44:-0.462 45:-0.964 46:-0.905 47:0 48:-0.964 49:-0.905 50:0.762 51:-0.762 52:0.964 53:0.762 54:-0.905 55:-0.905 56:-0.762 57:-0.762 58:-0.762 59:-0.462 60:0.462 61:-0.762 62:-0.462 63:-0.462 64:0 65:-0.462 66:-0.462 67:-0.462 68:-0.762 69:-0.762 70:-0.762 71:-0.462 72:-0.462 73:-0.462 74:-0.462 75:0 76:-0.462 77:-0.462 78:-0.462 79:0.462 80:0.987 81:0 82:-0.762 83:-0.462 84:-0.762 85:0.462 86:-0.462 87:0 88:0 89:-0.762 90:0 91:-0.462 92:-0.762 93:0 94:-0.762 95:-0.462 96:0.462 97:-0.462 98:0 99:-0.462 100:0.964 101:0.462 102:-0.762 103:-0.905 104:-0.462 105:-0.762 106:-0.462 107:-0.905 108:-0.462 109:-0.462 110:-0.964 111:-0.762 112:-0.762 113:-0.905 114:-0.462 115:-0.905 116:-0.762 117:-0.762 118:0.998 119:-0.462 120:-0.762 121:-0.462 122:-0.462 123:-0.762 124:-0.964 125:-0.462 126:-0.905 127:-0.462 128:-0.462 129:-0.964 130:-0.905 131:0 132:-0.964 133:-0.905 134:0.762 135:-0.762 136:0.964 137:0.762 138:-0.905 139:-0.905 140:-0.762 141:-0.762 142:-0.762 143:-0.462 144:0.462 145:-0.762 146:-0.462 147:-0.462 148:0.462 149:-0.462 150:0 151:0 152:-0.762 153:0 154:-0.462 155:-0.762 156:0 157:-0.762 158:-0.462 159:0.462 160:-0.462 161:0 162:-0.462 163:0.964 164:0.462 165:-0.762 166:-0.905 167:-0.462 168:-0.762 169:-0.462 170:-0.462 171:-0.905 172:-0.905 173:0 174:-0.964 175:-0.905 176:0.964 177:-0.905 178:0.762 179:0.462 180:-0.905 181:-0.905 182:-0.905 183:-0.905 184:-0.762 185:-0.462 186:0.905 187:-0.905 188:-0.462 189:-0.462 190:-0.762 191:-0.905 192:0.462 193:0 194:-0.905 195:0 196:0.462 197:-0.905 198:0 199:-0.905 200:-0.762 201:0.995 202:-0.762 203:0 204:0 205:0.462 206:0 207:-0.905 208:-0.964 209:-0.462 210:-0.762 211:-0.231 212:-0.61 213:-0.636 214:-0.358 215:-0.683 216:-0.786 217:-0.508 218:-0.456 219:-0.054 220:-0.358 221:-0.221 222:-0.127 223:-0.612 224:-0.077 225:0.021 226:0 227:0.263 228:-0.225 229:-0.76 230:-0.462 231:-0.712 232:0.629 233:0.316 234:0.473 235:0.278 236:0.186 237:0.142 238:0.065 239:0.245 240:0.226 
1.757767869618882 1:-0.462 2:-0.462 3:-0.462 4:-0.462 5:-0.462 6:-0.462 7:-0.462 8:-0.462 9:-0.462 10:-0.462 11:-0.462 12:-0.462 13:-0.462 14:-0.462 15:-0.462 16:-0.462 17:-0.462 18:-0.462 19:-0.462 20:-0.462 21:-0.462 22:-0.462 23:-0.964 24:0.762 25:0.987 26:-0.905 27:-0.762 28:0 29:-0.905 30:0.462 31:-0.905 32:-0.762 33:0 34:-0.462 35:0.762 36:0 37:0 38:-0.462 39:-0.762 40:-0.905 41:-0.462 42:-0.762 43:0.964 44:0 45:-0.762 46:-0.462 47:-0.762 48:0 49:-0.762 50:-0.462 51:-0.462 52:-0.462 53:-0.462 54:-0.762 55:-0.462 56:-0.462 57:-0.462 58:0.462 59:0 60:0 61:-0.905 62:-0.462 63:-0.762 64:0 65:-0.462 66:-0.905 67:-0.762 68:-0.462 69:-0.905 70:-0.905 71:0.905 72:-0.762 73:0.462 74:0.462 75:-0.905 76:-0.762 77:-0.762 78:-0.905 79:-0.762 80:0 81:0.964 82:-0.905 83:-0.462 84:-0.462 85:0.462 86:-0.462 87:0 88:0 89:-0.762 90:0 91:-0.462 92:-0.762 93:0 94:-0.762 95:-0.462 96:0.462 97:-0.462 98:0 99:-0.462 100:0.964 101:0.462 102:-0.762 103:-0.905 104:-0.462 105:-0.762 106:-0.462 107:-0.462 108:-0.964 109:-0.905 110:0 111:-0.964 112:-0.905 113:0.762 114:-0.762 115:0.964 116:0.762 117:-0.905 118:-0.905 119:-0.762 120:-0.762 121:-0.762 122:-0.462 123:0.462 124:-0.762 125:-0.462 126:-0.462 127:-0.462 128:-0.462 129:-0.964 130:-0.905 131:0 132:-0.964 133:-0.905 134:0.762 135:-0.762 136:0.964 137:0.762 138:-0.905 139:-0.905 140:-0.762 141:-0.762 142:-0.762 143:-0.462 144:0.462 145:-0.762 146:-0.462 147:-0.462 148:0 149:1 150:-0.905 151:-0.964 152:-0.762 153:-0.905 154:-0.905 155:-0.462 156:-0.905 157:-0.462 158:-0.462 159:-0.905 160:-0.905 161:-0.905 162:-0.905 163:-0.462 164:-0.462 165:-0.462 166:-0.762 167:-0.462 168:-0.762 169:0.462 170:-0.462 171:0 172:0 173:-0.762 174:0 175:-0.462 176:-0.762 177:0 178:-0.762 179:-0.462 180:0.462 181:-0.462 182:0 183:-0.462 184:0.964 185:0.462 186:-0.762 187:-0.905 188:-0.462 189:-0.762 190:-0.762 191:-0.905 192:0.995 193:0.762 194:-0.905 195:-0.462 196:-0.462 197:-0.905 198:-0.462 199:-0.964 200:-0.905 201:0.462 202:-0.462 203:0 204:-0.762 205:0 206:-0.462 207:-0.905 208:-0.964 209:-0.462 210:-0.905 211:-0.462 212:-0.905 213:-0.308 214:0.408 215:-0.915 216:-0.762 217:-0.358 218:-0.905 219:0.571 220:-0.786 221:-0.358 222:-0.127 223:-0.219 224:0.483 225:0.408 226:-0.077 227:-0.462 228:-0.762 229:-0.867 230:-0.462 231:-0.686 232:0.049 233:0.041 234:0.413 235:0.278 236:-0.607 237:0.142 238:0.021 239:-0.378 240:-0.274 
-0.7214355305017079 1:-0.324 2:-0.784 3:0.586 4:0.67 5:-0.881 6:-0.535 7:-0.281 8:-0.831 9:0 10:-0.851 11:-0.76 12:0.027 13:-0.462 14:0.304 15:-0.331 16:0.077 17:-0.385 18:-0.683 19:-0.925 20:-0.462 21:-0.81 22:0 23:-0.462 24:-0.905 25:-0.762 26:-0.462 27:-0.905 28:-0.905 29:0.905 30:-0.762 31:0.462 32:0.462 33:-0.905 34:-0.762 35:-0.762 36:-0.905 37:-0.762 38:0 39:0.964 40:-0.905 41:-0.462 42:-0.462 43:-0.462 44:-0.905 45:0 46:0.762 47:-0.905 48:-0.762 49:0 50:-0.905 51:0.462 52:-0.762 53:0 54:0 55:-0.462 56:0.987 57:0.462 58:0 59:-0.462 60:-0.762 61:-0.762 62:-0.462 63:-0.462 64:-0.462 65:-0.905 66:-0.762 67:0 68:-0.905 69:-0.762 70:0 71:-0.905 72:0.762 73:-0.762 74:-0.462 75:0 76:-0.762 77:0.462 78:0.987 79:-0.462 80:-0.462 81:-0.905 82:-0.905 83:-0.462 84:-0.762 85:-0.462 86:-0.462 87:-0.905 88:-0.762 89:0 90:-0.905 91:-0.762 92:0.462 93:-0.462 94:0.762 95:0.987 96:-0.762 97:-0.762 98:0 99:-0.462 100:-0.462 101:-0.462 102:0.462 103:-0.462 104:-0.462 105:-0.462 106:-0.462 107:-0.462 108:-0.905 109:-0.762 110:0 111:-0.905 112:-0.762 113:0.462 114:-0.462 115:0.762 116:0.987 117:-0.762 118:-0.762 119:0 120:-0.462 121:-0.462 122:-0.462 123:0.462 124:-0.462 125:-0.462 126:-0.462 127:0.964 128:0 129:-0.762 130:-0.462 131:-0.762 132:0 133:-0.762 134:-0.462 135:-0.462 136:-0.462 137:-0.462 138:-0.762 139:-0.462 140:-0.462 141:-0.462 142:0.462 143:0 144:0 145:-0.905 146:-0.462 147:-0.762 148:-0.462 149:-0.964 150:0.762 151:0.987 152:-0.905 153:-0.762 154:0 155:-0.905 156:0.462 157:-0.905 158:-0.762 159:0 160:-0.462 161:0.762 162:0 163:0 164:-0.462 165:-0.762 166:-0.905 167:-0.462 168:-0.762 169:-0.462 170:-0.462 171:-0.905 172:-0.905 173:0 174:-0.964 175:-0.905 176:0.964 177:-0.905 178:0.762 179:0.462 180:-0.905 181:-0.905 182:-0.905 183:-0.905 184:-0.762 185:-0.462 186:0.905 187:-0.905 188:-0.462 189:-0.462 190:-0.762 191:-0.905 192:0.995 193:0.762 194:-0.905 195:-0.462 196:-0.462 197:-0.905 198:-0.462 199:-0.964 200:-0.905 201:0.462 202:-0.462 203:0 204:-0.762 205:0 206:-0.462 207:-0.905 208:-0.964 209:-0.462 210:-0.905 211:-0.331 212:-0.61 213:0.024 214:-0.054 215:-0.76 216:-0.612 217:-0.612 218:-0.61 219:-0.462 220:-0.629 221:-0.61 222:0.077 223:-0.462 224:-0.308 225:-0.562 226:0.154 227:0.263 228:-0.379 229:-0.779 230:-0.462 231:-0.76 232:0.753 233:0.051 234:-0.305 235:0.003 236:-0.156 237:-0.025 238:-0.025 239:0.245 240:-0.274 
-1.531923168523954 1:-0.358 2:-0.049 3:-0.618 4:-0.647 5:-0.405 6:-0.861 7:-0.831 8:0.076 9:-0.76 10:0.167 11:0.076 12:-0.677 13:-0.831 14:-0.683 15:-0.81 16:-0.535 17:-0.462 18:-0.074 19:-0.796 20:-0.462 21:-0.636 22:-0.462 23:-0.462 24:-0.964 25:-0.905 26:0 27:-0.964 28:-0.905 29:0.762 30:-0.762 31:0.964 32:0.762 33:-0.905 34:-0.905 35:-0.762 36:-0.762 37:-0.762 38:-0.462 39:0.462 40:-0.762 41:-0.462 42:-0.462 43:0 44:1 45:-0.905 46:-0.964 47:-0.762 48:-0.905 49:-0.905 50:-0.462 51:-0.905 52:-0.462 53:-0.462 54:-0.905 55:-0.905 56:-0.905 57:-0.905 58:-0.462 59:-0.462 60:-0.462 61:-0.762 62:-0.462 63:-0.762 64:0.964 65:0 66:-0.762 67:-0.462 68:-0.762 69:0 70:-0.762 71:-0.462 72:-0.462 73:-0.462 74:-0.462 75:-0.762 76:-0.462 77:-0.462 78:-0.462 79:0.462 80:0 81:0 82:-0.905 83:-0.462 84:-0.762 85:-0.762 86:-0.762 87:-0.905 88:-0.762 89:0.905 90:-0.905 91:0.762 92:-0.462 93:-0.762 94:-0.462 95:-0.462 96:-0.762 97:-0.905 98:-0.462 99:-0.762 100:-0.762 101:-0.762 102:-0.462 103:0.762 104:-0.462 105:0.998 106:0.462 107:-0.462 108:0 109:0 110:-0.762 111:0 112:-0.462 113:-0.762 114:0 115:-0.762 116:-0.462 117:0.462 118:-0.462 119:0 120:-0.462 121:0.964 122:0.462 123:-0.762 124:-0.905 125:-0.462 126:-0.762 127:-0.462 128:-0.462 129:-0.905 130:-0.905 131:0 132:-0.964 133:-0.905 134:0.964 135:-0.905 136:0.762 137:0.462 138:-0.905 139:-0.905 140:-0.905 141:-0.905 142:-0.762 143:-0.462 144:0.905 145:-0.905 146:-0.462 147:-0.462 148:-0.462 149:-0.964 150:0.762 151:0.987 152:-0.905 153:-0.762 154:0 155:-0.905 156:0.462 157:-0.905 158:-0.762 159:0 160:-0.462 161:0.762 162:0 163:0 164:-0.462 165:-0.762 166:-0.905 167:-0.462 168:-0.762 169:-0.762 170:-0.762 171:-0.905 172:-0.905 173:0.995 174:-0.905 175:-0.462 176:0 177:-0.905 178:0 179:0 180:-0.905 181:-0.964 182:-0.905 183:-0.905 184:-0.762 185:-0.762 186:-0.462 187:0.462 188:-0.462 189:0.905 190:0 191:-0.905 192:-0.462 193:-0.762 194:-0.905 195:0.995 196:-0.762 197:-0.964 198:-0.762 199:-0.964 200:-0.905 201:0 202:-0.762 203:-0.762 204:-0.762 205:0 206:-0.762 207:-0.905 208:-0.762 209:-0.462 210:-0.905 211:-0.331 212:-0.61 213:-0.228 214:-0.382 215:-0.683 216:-0.542 217:-0.378 218:-0.372 219:-0.382 220:-0.406 221:-0.408 222:0.181 223:-0.636 224:-0.382 225:-0.382 226:0.258 227:0.416 228:-0.151 229:-0.853 230:-0.462 231:-0.712 232:0.629 233:0.122 234:0.801 235:0.563 236:0.072 237:0.284 238:-0.025 239:-0.041 240:0.038 
-2 1:-0.462 2:-0.757 3:-0.61 4:-0.408 5:-0.633 6:-0.81 7:-0.712 8:-0.449 9:-0.221 10:-0.326 11:-0.129 12:-0.635 13:0.168 14:-0.154 15:-0.408 16:-0.385 17:-0.462 18:-0.354 19:-0.787 20:-0.462 21:-0.734 22:-0.462 23:-0.462 24:-0.905 25:-0.762 26:0 27:-0.905 28:-0.762 29:0.462 30:-0.462 31:0.762 32:0.987 33:-0.762 34:-0.762 35:0 36:-0.462 37:-0.462 38:-0.462 39:0.462 40:-0.462 41:-0.462 42:-0.462 43:-0.762 44:-0.762 45:-0.905 46:-0.762 47:0.905 48:-0.905 49:0.762 50:-0.462 51:-0.762 52:-0.462 53:-0.462 54:-0.762 55:-0.905 56:-0.462 57:-0.762 58:-0.762 59:-0.762 60:-0.462 61:0.762 62:-0.462 63:0.998 64:-0.462 65:-0.462 66:-0.905 67:-0.905 68:0 69:-0.964 70:-0.905 71:0.964 72:-0.905 73:0.762 74:0.462 75:-0.905 76:-0.905 77:-0.905 78:-0.905 79:-0.762 80:-0.462 81:0.905 82:-0.905 83:-0.462 84:-0.462 85:0.964 86:0 87:-0.762 88:-0.462 89:-0.762 90:0 91:-0.762 92:-0.462 93:-0.462 94:-0.462 95:-0.462 96:-0.762 97:-0.462 98:-0.462 99:-0.462 100:0.462 101:0 102:0 103:-0.905 104:-0.462 105:-0.762 106:0 107:-0.905 108:-0.462 109:-0.762 110:-0.905 111:0.995 112:-0.762 113:-0.964 114:-0.762 115:-0.964 116:-0.905 117:0 118:-0.762 119:-0.762 120:-0.762 121:0 122:-0.762 123:-0.905 124:-0.762 125:-0.462 126:-0.905 127:-0.762 128:-0.762 129:-0.905 130:-0.762 131:0.905 132:-0.905 133:0.762 134:-0.462 135:-0.762 136:-0.462 137:-0.462 138:-0.762 139:-0.905 140:-0.462 141:-0.762 142:-0.762 143:-0.762 144:-0.462 145:0.762 146:-0.462 147:0.998 148:-0.462 149:-0.905 150:-0.462 151:0.462 152:-0.905 153:-0.762 154:-0.462 155:-0.905 156:0.987 157:-0.762 158:-0.462 159:0 160:-0.462 161:0.462 162:0.762 163:0 164:-0.462 165:-0.762 166:-0.905 167:-0.462 168:-0.762 169:0 170:-0.462 171:-0.462 172:-0.462 173:-0.762 174:-0.762 175:-0.762 176:-0.462 177:-0.462 178:-0.462 179:-0.462 180:0 181:-0.462 182:-0.462 183:-0.462 184:0.462 185:0.987 186:0 187:-0.762 188:-0.462 189:-0.762 190:-0.762 191:-0.762 192:-0.905 193:-0.905 194:0.995 195:-0.905 196:-0.462 197:0 198:-0.905 199:0 200:0 201:-0.905 202:-0.964 203:-0.905 204:-0.905 205:-0.762 206:-0.762 207:-0.462 208:0.462 209:-0.462 210:0.905 211:-0.458 212:-0.905 213:0.216 214:0.127 215:-0.905 216:-0.026 217:-0.485 218:-0.925 219:-0.358 220:-0.93 221:-0.831 222:0.231 223:-0.612 224:-0.177 225:-0.471 226:-0.077 227:-0.562 228:-0.905 229:-0.887 230:-0.462 231:-0.881 232:0.565 233:0.563 234:0.496 235:0.744 236:0.224 237:0.391 238:0.268 239:-0.255 240:0.21 
-0.2443767599763121 1:-0.458 2:-0.27 3:-0.071 4:-0.194 5:-0.857 6:-0.429 7:-0.071 8:-0.757 9:-0.225 10:-0.734 11:-0.535 12:0.196 13:-0.76 14:-0.137 15:-0.225 16:0.077 17:-0.231 18:-0.734 19:-0.863 20:-0.462 21:-0.712 22:-0.462 23:-0.462 24:-0.905 25:-0.762 26:0 27:-0.905 28:-0.762 29:0.462 30:-0.462 31:0.762 32:0.987 33:-0.762 34:-0.762 35:0 36:-0.462 37:-0.462 38:-0.462 39:0.462 40:-0.462 41:-0.462 42:-0.462 43:0 44:-0.462 45:-0.905 46:-0.762 47:-0.462 48:-0.905 49:-0.905 50:0.905 51:-0.762 52:0.462 53:0.462 54:-0.905 55:-0.762 56:-0.762 57:-0.905 58:-0.762 59:0 60:0.964 61:-0.905 62:-0.462 63:-0.462 64:0 65:-0.462 66:-0.905 67:-0.762 68:-0.462 69:-0.905 70:-0.905 71:0.905 72:-0.762 73:0.462 74:0.462 75:-0.905 76:-0.762 77:-0.762 78:-0.905 79:-0.762 80:0 81:0.964 82:-0.905 83:-0.462 84:-0.462 85:-0.462 86:-0.964 87:0.762 88:0.987 89:-0.905 90:-0.762 91:0 92:-0.905 93:0.462 94:-0.905 95:-0.762 96:0 97:-0.462 98:0.762 99:0 100:0 101:-0.462 102:-0.762 103:-0.905 104:-0.462 105:-0.762 106:-0.462 107:-0.905 108:-0.762 109:0 110:-0.905 111:-0.762 112:0 113:-0.905 114:0.762 115:-0.762 116:-0.462 117:0 118:-0.762 119:0.462 120:0.987 121:-0.462 122:-0.462 123:-0.905 124:-0.905 125:-0.462 126:-0.762 127:-0.462 128:-0.462 129:-0.964 130:-0.905 131:0 132:-0.964 133:-0.905 134:0.762 135:-0.762 136:0.964 137:0.762 138:-0.905 139:-0.905 140:-0.762 141:-0.762 142:-0.762 143:-0.462 144:0.462 145:-0.762 146:-0.462 147:-0.462 148:0 149:-0.905 150:-0.462 151:-0.762 152:-0.905 153:0.995 154:-0.762 155:-0.964 156:-0.762 157:-0.964 158:-0.905 159:0 160:-0.762 161:-0.762 162:-0.762 163:0 164:-0.762 165:-0.905 166:-0.762 167:-0.462 168:-0.905 169:-0.762 170:-0.905 171:0.995 172:0.762 173:-0.905 174:-0.462 175:-0.462 176:-0.905 177:-0.462 178:-0.964 179:-0.905 180:0.462 181:-0.462 182:0 183:-0.762 184:0 185:-0.462 186:-0.905 187:-0.964 188:-0.462 189:-0.905 190:-0.762 191:-0.762 192:-0.905 193:-0.762 194:0.905 195:-0.905 196:0.762 197:-0.462 198:-0.762 199:-0.462 200:-0.462 201:-0.762 202:-0.905 203:-0.462 204:-0.762 205:-0.762 206:-0.762 207:-0.462 208:0.762 209:-0.462 210:0.998 211:-0.462 212:-0.462 213:-0.462 214:-0.462 215:-0.462 216:-0.462 217:-0.462 218:-0.462 219:-0.462 220:-0.462 221:-0.462 222:-0.462 223:-0.462 224:-0.462 225:-0.462 226:-0.462 227:-0.462 228:-0.462 229:-0.462 230:-0.462 231:-0.462 232:0.565 233:0.369 234:0.413 235:0.339 236:-0.166 237:0.142 238:0.224 239:0.196 240:0.524 
-1.539157373322517 1:-0.077 2:-0.462 3:-0.915 4:-0.786 5:-0.385 6:-0.915 7:-0.905 8:0.881 9:-0.762 10:0.546 11:0.512 12:-0.905 13:-0.786 14:-0.762 15:-0.881 16:-0.762 17:-0.077 18:0.88 19:-0.881 20:-0.462 21:-0.462 22:0 23:-0.462 24:-0.905 25:-0.762 26:-0.462 27:-0.905 28:-0.905 29:0.905 30:-0.762 31:0.462 32:0.462 33:-0.905 34:-0.762 35:-0.762 36:-0.905 37:-0.762 38:0 39:0.964 40:-0.905 41:-0.462 42:-0.462 43:-0.462 44:-0.462 45:-0.964 46:-0.905 47:0 48:-0.964 49:-0.905 50:0.762 51:-0.762 52:0.964 53:0.762 54:-0.905 55:-0.905 56:-0.762 57:-0.762 58:-0.762 59:-0.462 60:0.462 61:-0.762 62:-0.462 63:-0.462 64:-0.762 65:-0.762 66:-0.905 67:-0.905 68:0.995 69:-0.905 70:-0.462 71:0 72:-0.905 73:0 74:0 75:-0.905 76:-0.964 77:-0.905 78:-0.905 79:-0.762 80:-0.762 81:-0.462 82:0.462 83:-0.462 84:0.905 85:0.964 86:0 87:-0.762 88:-0.462 89:-0.762 90:0 91:-0.762 92:-0.462 93:-0.462 94:-0.462 95:-0.462 96:-0.762 97:-0.462 98:-0.462 99:-0.462 100:0.462 101:0 102:0 103:-0.905 104:-0.462 105:-0.762 106:0 107:-0.462 108:-0.905 109:-0.762 110:-0.462 111:-0.905 112:-0.905 113:0.905 114:-0.762 115:0.462 116:0.462 117:-0.905 118:-0.762 119:-0.762 120:-0.905 121:-0.762 122:0 123:0.964 124:-0.905 125:-0.462 126:-0.462 127:-0.762 128:-0.762 129:-0.905 130:-0.905 131:0.995 132:-0.905 133:-0.462 134:0 135:-0.905 136:0 137:0 138:-0.905 139:-0.964 140:-0.905 141:-0.905 142:-0.762 143:-0.762 144:-0.462 145:0.462 146:-0.462 147:0.905 148:-0.462 149:-0.462 150:-0.964 151:-0.905 152:0 153:-0.964 154:-0.905 155:0.762 156:-0.762 157:0.964 158:0.762 159:-0.905 160:-0.905 161:-0.762 162:-0.762 163:-0.762 164:-0.462 165:0.462 166:-0.762 167:-0.462 168:-0.462 169:0 170:-0.905 171:-0.462 172:-0.762 173:-0.905 174:0.995 175:-0.762 176:-0.964 177:-0.762 178:-0.964 179:-0.905 180:0 181:-0.762 182:-0.762 183:-0.762 184:0 185:-0.762 186:-0.905 187:-0.762 188:-0.462 189:-0.905 190:0.462 191:-0.462 192:0 193:0 194:-0.762 195:0 196:-0.462 197:-0.762 198:0 199:-0.762 200:-0.462 201:0.462 202:-0.462 203:0 204:-0.462 205:0.964 206:0.462 207:-0.762 208:-0.905 209:-0.462 210:-0.762 211:-0.462 212:-0.462 213:-0.462 214:-0.462 215:-0.462 216:-0.462 217:-0.462 218:-0.462 219:-0.462 220:-0.462 221:-0.462 222:-0.462 223:-0.462 224:-0.462 225:-0.462 226:-0.462 227:-0.462 228:-0.462 229:-0.462 230:-0.462 231:-0.462 232:0.753 233:0.316 234:0.382 235:0.744 236:-0.117 237:0.344 238:0.345 239:-0.311 240:0.252 
-2 1:0 2:-0.61 3:-0.331 4:-0.077 5:-0.76 6:-0.331 7:-0.308 8:-0.76 9:0.177 10:-0.712 11:-0.462 12:0.154 13:-0.562 14:0.077 15:0.021 16:0.251 17:0 18:-0.76 19:-0.831 20:-0.462 21:-0.712 22:-0.462 23:-0.462 24:-0.964 25:-0.905 26:0 27:-0.964 28:-0.905 29:0.762 30:-0.762 31:0.964 32:0.762 33:-0.905 34:-0.905 35:-0.762 36:-0.762 37:-0.762 38:-0.462 39:0.462 40:-0.762 41:-0.462 42:-0.462 43:-0.462 44:-0.905 45:-0.762 46:0 47:-0.905 48:-0.762 49:0 50:-0.905 51:0.762 52:-0.762 53:-0.462 54:0 55:-0.762 56:0.462 57:0.987 58:-0.462 59:-0.462 60:-0.905 61:-0.905 62:-0.462 63:-0.762 64:0 65:-0.462 66:-0.462 67:-0.462 68:-0.762 69:-0.762 70:-0.762 71:-0.462 72:-0.462 73:-0.462 74:-0.462 75:0 76:-0.462 77:-0.462 78:-0.462 79:0.462 80:0.987 81:0 82:-0.762 83:-0.462 84:-0.762 85:0 86:-0.462 87:-0.905 88:-0.762 89:-0.462 90:-0.905 91:-0.905 92:0.905 93:-0.762 94:0.462 95:0.462 96:-0.905 97:-0.762 98:-0.762 99:-0.905 100:-0.762 101:0 102:0.964 103:-0.905 104:-0.462 105:-0.462 106:0 107:-0.462 108:-0.462 109:-0.462 110:-0.762 111:-0.762 112:-0.762 113:-0.462 114:-0.462 115:-0.462 116:-0.462 117:0 118:-0.462 119:-0.462 120:-0.462 121:0.462 122:0.987 123:0 124:-0.762 125:-0.462 126:-0.762 127:-0.462 128:-0.905 129:-0.462 130:-0.462 131:-0.964 132:-0.762 133:-0.762 134:-0.905 135:-0.462 136:-0.905 137:-0.762 138:-0.762 139:0.998 140:-0.462 141:-0.762 142:-0.462 143:-0.462 144:-0.762 145:-0.964 146:-0.462 147:-0.905 148:-0.462 149:-0.462 150:-0.905 151:-0.905 152:0 153:-0.964 154:-0.905 155:0.964 156:-0.905 157:0.762 158:0.462 159:-0.905 160:-0.905 161:-0.905 162:-0.905 163:-0.762 164:-0.462 165:0.905 166:-0.905 167:-0.462 168:-0.462 169:-0.462 170:-0.905 171:-0.762 172:0 173:-0.905 174:-0.762 175:0 176:-0.905 177:0.762 178:-0.762 179:-0.462 180:0 181:-0.762 182:0.462 183:0.987 184:-0.462 185:-0.462 186:-0.905 187:-0.905 188:-0.462 189:-0.762 190:-0.462 191:-0.462 192:-0.905 193:-0.762 194:0 195:-0.905 196:-0.762 197:0.462 198:-0.462 199:0.762 200:0.987 201:-0.762 202:-0.762 203:0 204:-0.462 205:-0.462 206:-0.462 207:0.462 208:-0.462 209:-0.462 210:-0.462 211:-0.231 212:-0.905 213:-0.231 214:0 215:-0.905 216:0.116 217:-0.381 218:-0.934 219:-0.15 220:-0.863 221:-0.452 222:0 223:-0.612 224:0.112 225:-0.15 226:0 227:-0.612 228:-0.833 229:-0.762 230:-0.462 231:-0.683 232:0.629 233:-0.107 234:0.473 235:0.511 236:0.168 237:-0.118 238:0.443 239:-0.107 240:0.657 
-1.583493733180976 1:-0.227 2:-0.757 3:0.154 4:-0.127 5:-0.857 6:0.166 7:-0.05 8:-0.867 9:-0.127 10:-0.867 11:-0.686 12:0.651 13:-0.662 14:-0.127 15:-0.281 16:0.552 17:0.027 18:-0.857 19:-0.911 20:-0.462 21:-0.786 22:-0.462 23:-0.905 24:-0.462 25:-0.462 26:-0.964 27:-0.762 28:-0.762 29:-0.905 30:-0.462 31:-0.905 32:-0.762 33:-0.762 34:0.998 35:-0.462 36:-0.762 37:-0.462 38:-0.462 39:-0.762 40:-0.964 41:-0.462 42:-0.905 43:-0.762 44:-0.905 45:0.462 46:0 47:-0.905 48:0 49:0.462 50:-0.905 51:0 52:-0.905 53:-0.762 54:0.995 55:-0.762 56:0 57:0 58:0.462 59:0 60:-0.905 61:-0.964 62:-0.462 63:-0.762 64:-0.762 65:-0.762 66:-0.905 67:-0.762 68:0.905 69:-0.905 70:0.762 71:-0.462 72:-0.762 73:-0.462 74:-0.462 75:-0.762 76:-0.905 77:-0.462 78:-0.762 79:-0.762 80:-0.762 81:-0.462 82:0.762 83:-0.462 84:0.998 85:-0.462 86:-0.462 87:-0.964 88:-0.905 89:0 90:-0.964 91:-0.905 92:0.762 93:-0.762 94:0.964 95:0.762 96:-0.905 97:-0.905 98:-0.762 99:-0.762 100:-0.762 101:-0.462 102:0.462 103:-0.762 104:-0.462 105:-0.462 106:0.964 107:0 108:-0.762 109:-0.462 110:-0.762 111:0 112:-0.762 113:-0.462 114:-0.462 115:-0.462 116:-0.462 117:-0.762 118:-0.462 119:-0.462 120:-0.462 121:0.462 122:0 123:0 124:-0.905 125:-0.462 126:-0.762 127:-0.462 128:-0.462 129:-0.964 130:-0.905 131:0 132:-0.964 133:-0.905 134:0.762 135:-0.762 136:0.964 137:0.762 138:-0.905 139:-0.905 140:-0.762 141:-0.762 142:-0.762 143:-0.462 144:0.462 145:-0.762 146:-0.462 147:-0.462 148:-0.462 149:-0.462 150:-0.964 151:-0.905 152:0 153:-0.964 154:-0.905 155:0.762 156:-0.762 157:0.964 158:0.762 159:-0.905 160:-0.905 161:-0.762 162:-0.762 163:-0.762 164:-0.462 165:0.462 166:-0.762 167:-0.462 168:-0.462 169:0 170:-0.462 171:-0.905 172:-0.762 173:-0.462 174:-0.905 175:-0.905 176:0.905 177:-0.762 178:0.462 179:0.462 180:-0.905 181:-0.762 182:-0.762 183:-0.905 184:-0.762 185:0 186:0.964 187:-0.905 188:-0.462 189:-0.462 190:-0.462 191:-0.905 192:-0.462 193:0.462 194:-0.905 195:-0.762 196:-0.462 197:-0.905 198:0.987 199:-0.762 200:-0.462 201:0 202:-0.462 203:0.462 204:0.762 205:0 206:-0.462 207:-0.762 208:-0.905 209:-0.462 210:-0.762 211:-0.458 212:-0.612 213:-0.831 214:-0.784 215:0.267 216:-0.831 217:-0.61 218:0.225 219:-0.784 220:0.077 221:0.077 222:-0.831 223:-0.813 224:-0.784 225:-0.831 226:-0.712 227:-0.458 228:0.013 229:-0.148 230:-0.462 231:0.222 232:0.156 233:0.049 234:0.524 235:-0.264 236:0.274 237:0.142 238:0.345 239:0.07 240:0.35 
2 1:0.101 2:-0.453 3:-0.612 4:-0.231 5:-0.612 6:-0.381 7:0.118 8:-0.683 9:-0.462 10:-0.683 11:-0.612 12:-0.15 13:-0.612 14:-0.231 15:-0.231 16:-0 17:-0.381 18:-0.453 19:-0.833 20:-0.462 21:0 22:-0.462 23:-0.905 24:-0.462 25:0.462 26:-0.905 27:-0.762 28:-0.462 29:-0.905 30:0.987 31:-0.762 32:-0.462 33:0 34:-0.462 35:0.462 36:0.762 37:0 38:-0.462 39:-0.762 40:-0.905 41:-0.462 42:-0.762 43:-0.762 44:-0.762 45:-0.905 46:-0.905 47:0.995 48:-0.905 49:-0.462 50:0 51:-0.905 52:0 53:0 54:-0.905 55:-0.964 56:-0.905 57:-0.905 58:-0.762 59:-0.762 60:-0.462 61:0.462 62:-0.462 63:0.905 64:-0.462 65:-0.462 66:-0.905 67:-0.762 68:0 69:-0.905 70:-0.762 71:0.462 72:-0.462 73:0.762 74:0.987 75:-0.762 76:-0.762 77:0 78:-0.462 79:-0.462 80:-0.462 81:0.462 82:-0.462 83:-0.462 84:-0.462 85:0 86:-0.462 87:-0.905 88:-0.762 89:-0.462 90:-0.905 91:-0.905 92:0.905 93:-0.762 94:0.462 95:0.462 96:-0.905 97:-0.762 98:-0.762 99:-0.905 100:-0.762 101:0 102:0.964 103:-0.905 104:-0.462 105:-0.462 106:0.964 107:0 108:-0.762 109:-0.462 110:-0.762 111:0 112:-0.762 113:-0.462 114:-0.462 115:-0.462 116:-0.462 117:-0.762 118:-0.462 119:-0.462 120:-0.462 121:0.462 122:0 123:0 124:-0.905 125:-0.462 126:-0.762 127:-0.462 128:-0.462 129:-0.905 130:-0.762 131:0 132:-0.905 133:-0.762 134:0.462 135:-0.462 136:0.762 137:0.987 138:-0.762 139:-0.762 140:0 141:-0.462 142:-0.462 143:-0.462 144:0.462 145:-0.462 146:-0.462 147:-0.462 148:-0.762 149:-0.762 150:-0.905 151:-0.905 152:0.995 153:-0.905 154:-0.462 155:0 156:-0.905 157:0 158:0 159:-0.905 160:-0.964 161:-0.905 162:-0.905 163:-0.762 164:-0.762 165:-0.462 166:0.462 167:-0.462 168:0.905 169:-0.462 170:-0.462 171:-0.964 172:-0.905 173:0 174:-0.964 175:-0.905 176:0.762 177:-0.762 178:0.964 179:0.762 180:-0.905 181:-0.905 182:-0.762 183:-0.762 184:-0.762 185:-0.462 186:0.462 187:-0.762 188:-0.462 189:-0.462 190:0.964 191:0 192:-0.762 193:-0.462 194:-0.762 195:0 196:-0.762 197:-0.462 198:-0.462 199:-0.462 200:-0.462 201:-0.762 202:-0.462 203:-0.462 204:-0.462 205:0.462 206:0 207:0 208:-0.905 209:-0.462 210:-0.762 211:0.244 212:-0.308 213:-0.784 214:-0.612 215:-0.562 216:-0.529 217:-0.784 218:0.222 219:-0.612 220:0 221:0 222:-0.784 223:-0.612 224:-0.612 225:-0.683 226:-0.304 227:-0.077 228:0.405 229:-0.831 230:-0.462 231:-0.562 232:0.574 233:0.708 234:0.127 235:0.511 236:0.274 237:0.228 238:0.569 239:-0.053 240:0.584 
2 1:0.251 2:-0.231 3:-0.612 4:-0.462 5:-0.612 6:-0.231 7:-0.612 8:-0.462 9:-0.462 10:-0.462 11:-0.462 12:-0.612 13:-0.462 14:-0.462 15:-0.462 16:0 17:-0.231 18:-0.231 19:-0.683 20:-0.462 21:-0.612 22:0.462 23:-0.462 24:0 25:0 26:-0.762 27:0 28:-0.462 29:-0.762 30:0 31:-0.762 32:-0.462 33:0.462 34:-0.462 35:0 36:-0.462 37:0.964 38:0.462 39:-0.762 40:-0.905 41:-0.462 42:-0.762 43:-0.462 44:-0.964 45:0.762 46:0.987 47:-0.905 48:-0.762 49:0 50:-0.905 51:0.462 52:-0.905 53:-0.762 54:0 55:-0.462 56:0.762 57:0 58:0 59:-0.462 60:-0.762 61:-0.905 62:-0.462 63:-0.762 64:0.964 65:0 66:-0.762 67:-0.462 68:-0.762 69:0 70:-0.762 71:-0.462 72:-0.462 73:-0.462 74:-0.462 75:-0.762 76:-0.462 77:-0.462 78:-0.462 79:0.462 80:0 81:0 82:-0.905 83:-0.462 84:-0.762 85:-0.462 86:-0.905 87:-0.462 88:-0.462 89:-0.964 90:-0.762 91:-0.762 92:-0.905 93:-0.462 94:-0.905 95:-0.762 96:-0.762 97:0.998 98:-0.462 99:-0.762 100:-0.462 101:-0.462 102:-0.762 103:-0.964 104:-0.462 105:-0.905 106:-0.462 107:-0.905 108:-0.462 109:-0.462 110:-0.964 111:-0.762 112:-0.762 113:-0.905 114:-0.462 115:-0.905 116:-0.762 117:-0.762 118:0.998 119:-0.462 120:-0.762 121:-0.462 122:-0.462 123:-0.762 124:-0.964 125:-0.462 126:-0.905 127:0 128:-0.462 129:-0.462 130:-0.462 131:-0.762 132:-0.762 133:-0.762 134:-0.462 135:-0.462 136:-0.462 137:-0.462 138:0 139:-0.462 140:-0.462 141:-0.462 142:0.462 143:0.987 144:0 145:-0.762 146:-0.462 147:-0.762 148:0.462 149:-0.462 150:0 151:0 152:-0.762 153:0 154:-0.462 155:-0.762 156:0 157:-0.762 158:-0.462 159:0.462 160:-0.462 161:0 162:-0.462 163:0.964 164:0.462 165:-0.762 166:-0.905 167:-0.462 168:-0.762 169:-0.762 170:-0.905 171:-0.462 172:0 173:-0.462 174:-0.762 175:0.999 176:-0.905 177:-0.462 178:-0.905 179:-0.762 180:0.462 181:-0.762 182:0 183:0 184:-0.462 185:-0.762 186:-0.905 187:-0.762 188:-0.462 189:0.762 190:-0.462 191:-0.905 192:-0.762 193:0 194:-0.905 195:-0.762 196:0 197:-0.905 198:0.762 199:-0.762 200:-0.462 201:0 202:-0.762 203:0.462 204:0.987 205:-0.462 206:-0.462 207:-0.905 208:-0.905 209:-0.462 210:-0.762 211:0.167 212:-0.529 213:-0.635 214:-0.154 215:-0.834 216:-0.381 217:-0.331 218:-0.734 219:0.227 220:-0.662 221:-0.462 222:-0.177 223:-0.612 224:0.077 225:0.263 226:0.084 227:-0.154 228:-0.58 229:-0.905 230:-0.462 231:-0.762 232:-0.052 233:0.013 234:0.801 235:0.315 236:0.186 237:-0.255 238:0.065 239:0.119 240:0.038 
2 1:-0.304 2:-0.683 3:-0.308 4:-0.077 5:-0.562 6:-0.458 7:0.269 8:-0.784 9:-0.308 10:-0.784 11:-0.612 12:0.308 13:-0.612 14:-0.077 15:-0.231 16:0.013 17:-0.304 18:-0.784 19:-0.76 20:-0.462 21:0.05 22:-0.462 23:-0.462 24:-0.964 25:-0.905 26:0 27:-0.964 28:-0.905 29:0.762 30:-0.762 31:0.964 32:0.762 33:-0.905 34:-0.905 35:-0.762 36:-0.762 37:-0.762 38:-0.462 39:0.462 40:-0.762 41:-0.462 42:-0.462 43:-0.462 44:-0.462 45:-0.905 46:-0.905 47:0 48:-0.964 49:-0.905 50:0.964 51:-0.905 52:0.762 53:0.462 54:-0.905 55:-0.905 56:-0.905 57:-0.905 58:-0.762 59:-0.462 60:0.905 61:-0.905 62:-0.462 63:-0.462 64:-0.462 65:-0.905 66:-0.462 67:0.462 68:-0.905 69:-0.762 70:-0.462 71:-0.905 72:0.987 73:-0.762 74:-0.462 75:0 76:-0.462 77:0.462 78:0.762 79:0 80:-0.462 81:-0.762 82:-0.905 83:-0.462 84:-0.762 85:-0.462 86:-0.462 87:-0.905 88:-0.905 89:0 90:-0.964 91:-0.905 92:0.964 93:-0.905 94:0.762 95:0.462 96:-0.905 97:-0.905 98:-0.905 99:-0.905 100:-0.762 101:-0.462 102:0.905 103:-0.905 104:-0.462 105:-0.462 106:-0.462 107:-0.905 108:-0.462 109:-0.462 110:-0.964 111:-0.762 112:-0.762 113:-0.905 114:-0.462 115:-0.905 116:-0.762 117:-0.762 118:0.998 119:-0.462 120:-0.762 121:-0.462 122:-0.462 123:-0.762 124:-0.964 125:-0.462 126:-0.905 127:-0.462 128:-0.462 129:-0.964 130:-0.905 131:0 132:-0.964 133:-0.905 134:0.762 135:-0.762 136:0.964 137:0.762 138:-0.905 139:-0.905 140:-0.762 141:-0.762 142:-0.762 143:-0.462 144:0.462 145:-0.762 146:-0.462 147:-0.462 148:-0.462 149:-0.462 150:-0.964 151:-0.905 152:0 153:-0.964 154:-0.905 155:0.762 156:-0.762 157:0.964 158:0.762 159:-0.905 160:-0.905 161:-0.762 162:-0.762 163:-0.762 164:-0.462 165:0.462 166:-0.762 167:-0.462 168:-0.462 169:-0.462 170:-0.462 171:-0.905 172:-0.905 173:0 174:-0.964 175:-0.905 176:0.964 177:-0.905 178:0.762 179:0.462 180:-0.905 181:-0.905 182:-0.905 183:-0.905 184:-0.762 185:-0.462 186:0.905 187:-0.905 188:-0.462 189:-0.462 190:0 191:-0.905 192:-0.462 193:-0.762 194:-0.905 195:0.995 196:-0.762 197:-0.964 198:-0.762 199:-0.964 200:-0.905 201:0 202:-0.762 203:-0.762 204:-0.762 205:0 206:-0.762 207:-0.905 208:-0.762 209:-0.462 210:-0.905 211:-0.508 212:-0.833 213:-0.529 214:-0.635 215:0 216:-0.121 217:0.204 218:-0.703 219:-0.635 220:-0.703 221:-0.66 222:-0.215 223:-0.834 224:-0.485 225:-0.635 226:-0.304 227:-0.635 228:-0.683 229:-0.034 230:-0.462 231:0.07 232:0.629 233:0.63 234:0.522 235:0.47 236:0.186 237:0.142 238:0.345 239:0.245 240:0.038 
2 1:-0.462 2:-0.462 3:-0.462 4:-0.462 5:-0.462 6:-0.462 7:-0.462 8:-0.462 9:-0.462 10:-0.462 11:-0.462 12:-0.462 13:-0.462 14:-0.462 15:-0.462 16:-0.462 17:-0.462 18:-0.462 19:-0.462 20:-0.462 21:-0.462 22:0 23:-0.462 24:-0.905 25:-0.762 26:-0.462 27:-0.905 28:-0.905 29:0.905 30:-0.762 31:0.462 32:0.462 33:-0.905 34:-0.762 35:-0.762 36:-0.905 37:-0.762 38:0 39:0.964 40:-0.905 41:-0.462 42:-0.462 43:-0.762 44:-0.905 45:-0.462 46:0 47:-0.462 48:-0.762 49:0.999 50:-0.905 51:-0.462 52:-0.905 53:-0.762 54:0.462 55:-0.762 56:0 57:0 58:-0.462 59:-0.762 60:-0.905 61:-0.762 62:-0.462 63:0.762 64:-0.462 65:-0.905 66:-0.762 67:0 68:-0.905 69:-0.762 70:0 71:-0.905 72:0.762 73:-0.762 74:-0.462 75:0 76:-0.762 77:0.462 78:0.987 79:-0.462 80:-0.462 81:-0.905 82:-0.905 83:-0.462 84:-0.762 85:0 86:-0.905 87:-0.462 88:-0.762 89:-0.905 90:0.995 91:-0.762 92:-0.964 93:-0.762 94:-0.964 95:-0.905 96:0 97:-0.762 98:-0.762 99:-0.762 100:0 101:-0.762 102:-0.905 103:-0.762 104:-0.462 105:-0.905 106:0.964 107:0 108:-0.762 109:-0.462 110:-0.762 111:0 112:-0.762 113:-0.462 114:-0.462 115:-0.462 116:-0.462 117:-0.762 118:-0.462 119:-0.462 120:-0.462 121:0.462 122:0 123:0 124:-0.905 125:-0.462 126:-0.762 127:0 128:-0.462 129:-0.905 130:-0.762 131:-0.462 132:-0.905 133:-0.905 134:0.905 135:-0.762 136:0.462 137:0.462 138:-0.905 139:-0.762 140:-0.762 141:-0.905 142:-0.762 143:0 144:0.964 145:-0.905 146:-0.462 147:-0.462 148:-0.462 149:-0.905 150:-0.462 151:-0.462 152:-0.964 153:-0.762 154:-0.762 155:-0.905 156:-0.462 157:-0.905 158:-0.762 159:-0.762 160:0.998 161:-0.462 162:-0.762 163:-0.462 164:-0.462 165:-0.762 166:-0.964 167:-0.462 168:-0.905 169:-0.462 170:-0.905 171:-0.762 172:0 173:-0.905 174:-0.762 175:0 176:-0.905 177:0.762 178:-0.762 179:-0.462 180:0 181:-0.762 182:0.462 183:0.987 184:-0.462 185:-0.462 186:-0.905 187:-0.905 188:-0.462 189:-0.762 190:-0.462 191:-0.905 192:-0.762 193:0 194:-0.905 195:-0.762 196:0 197:-0.905 198:0.762 199:-0.762 200:-0.462 201:0 202:-0.762 203:0.462 204:0.987 205:-0.462 206:-0.462 207:-0.905 208:-0.905 209:-0.462 210:-0.762 211:-0.231 212:-0.905 213:-0.512 214:-0.535 215:-0.925 216:0.116 217:-0.635 218:-0.934 219:-0.408 220:-0.911 221:-0.784 222:-0.254 223:-0.175 224:-0.458 225:-0.471 226:-0.231 227:-0.612 228:-0.857 229:-0.853 230:-0.462 231:-0.881 232:0.753 233:0.033 234:-0.305 235:0.343 236:0.274 237:0.07 238:-0.229 239:-0.107 240:0.038 
2 1:-0.562 2:-0.867 3:-0.175 4:0.244 5:-0.272 6:-0.81 7:-0.154 8:-0.603 9:0.006 10:-0.532 11:-0.127 12:-0.302 13:-0.629 14:0.319 15:-0.071 16:-0.254 17:-0.562 18:-0.662 19:-0.378 20:-0.462 21:-0.056 22:0 23:-0.462 24:-0.905 25:-0.762 26:-0.462 27:-0.905 28:-0.905 29:0.905 30:-0.762 31:0.462 32:0.462 33:-0.905 34:-0.762 35:-0.762 36:-0.905 37:-0.762 38:0 39:0.964 40:-0.905 41:-0.462 42:-0.462 43:0 44:-0.462 45:-0.905 46:-0.762 47:-0.462 48:-0.905 49:-0.905 50:0.905 51:-0.762 52:0.462 53:0.462 54:-0.905 55:-0.762 56:-0.762 57:-0.905 58:-0.762 59:0 60:0.964 61:-0.905 62:-0.462 63:-0.462 64:-0.762 65:-0.905 66:0.462 67:0 68:-0.905 69:0 70:0.462 71:-0.905 72:0 73:-0.905 74:-0.762 75:0.995 76:-0.762 77:0 78:0 79:0.462 80:0 81:-0.905 82:-0.964 83:-0.462 84:-0.762 85:-0.462 86:-0.905 87:-0.462 88:-0.462 89:-0.964 90:-0.762 91:-0.762 92:-0.905 93:-0.462 94:-0.905 95:-0.762 96:-0.762 97:0.998 98:-0.462 99:-0.762 100:-0.462 101:-0.462 102:-0.762 103:-0.964 104:-0.462 105:-0.905 106:-0.762 107:-0.905 108:-0.462 109:0 110:-0.462 111:-0.762 112:0.999 113:-0.905 114:-0.462 115:-0.905 116:-0.762 117:0.462 118:-0.762 119:0 120:0 121:-0.462 122:-0.762 123:-0.905 124:-0.762 125:-0.462 126:0.762 127:-0.462 128:-0.462 129:-0.964 130:-0.905 131:0 132:-0.964 133:-0.905 134:0.762 135:-0.762 136:0.964 137:0.762 138:-0.905 139:-0.905 140:-0.762 141:-0.762 142:-0.762 143:-0.462 144:0.462 145:-0.762 146:-0.462 147:-0.462 148:-0.462 149:-0.462 150:-0.964 151:-0.905 152:0 153:-0.964 154:-0.905 155:0.762 156:-0.762 157:0.964 158:0.762 159:-0.905 160:-0.905 161:-0.762 162:-0.762 163:-0.762 164:-0.462 165:0.462 166:-0.762 167:-0.462 168:-0.462 169:-0.462 170:-0.905 171:-0.762 172:0 173:-0.905 174:-0.762 175:0 176:-0.905 177:0.762 178:-0.762 179:-0.462 180:0 181:-0.762 182:0.462 183:0.987 184:-0.462 185:-0.462 186:-0.905 187:-0.905 188:-0.462 189:-0.762 190:0 191:-0.462 192:-0.905 193:-0.762 194:-0.462 195:-0.905 196:-0.905 197:0.905 198:-0.762 199:0.462 200:0.462 201:-0.905 202:-0.762 203:-0.762 204:-0.905 205:-0.762 206:0 207:0.964 208:-0.905 209:-0.462 210:-0.462 211:-0.308 212:-0.546 213:-0.509 214:-0.442 215:-0.405 216:-0.863 217:-0.707 218:0.076 219:-0.458 220:0.177 221:0.1 222:-0.453 223:-0.683 224:-0.408 225:-0.535 226:-0.227 227:0.021 228:0.104 229:-0.786 230:-0.462 231:-0.612 232:0.753 233:0.369 234:0.499 235:0.315 236:-0.068 237:0.142 238:0.345 239:-0.107 240:0.652 
2 1:-0.462 2:-0.851 3:-0.054 4:0.483 5:-0.831 6:-0.712 7:-0.308 8:-0.831 9:0.571 10:-0.76 11:-0.562 12:-0.077 13:-0.462 14:0.408 15:0.304 16:-0.077 17:-0.462 18:-0.712 19:-0.831 20:-0.462 21:-0.712 22:-0.462 23:-0.462 24:-0.905 25:-0.905 26:0 27:-0.964 28:-0.905 29:0.964 30:-0.905 31:0.762 32:0.462 33:-0.905 34:-0.905 35:-0.905 36:-0.905 37:-0.762 38:-0.462 39:0.905 40:-0.905 41:-0.462 42:-0.462 43:-0.462 44:-0.905 45:0 46:0.762 47:-0.905 48:-0.762 49:0 50:-0.905 51:0.462 52:-0.762 53:0 54:0 55:-0.462 56:0.987 57:0.462 58:0 59:-0.462 60:-0.762 61:-0.762 62:-0.462 63:-0.462 64:-0.462 65:-0.905 66:-0.462 67:0.462 68:-0.905 69:-0.762 70:-0.462 71:-0.905 72:0.987 73:-0.762 74:-0.462 75:0 76:-0.462 77:0.462 78:0.762 79:0 80:-0.462 81:-0.762 82:-0.905 83:-0.462 84:-0.762 85:0.964 86:0 87:-0.762 88:-0.462 89:-0.762 90:0 91:-0.762 92:-0.462 93:-0.462 94:-0.462 95:-0.462 96:-0.762 97:-0.462 98:-0.462 99:-0.462 100:0.462 101:0 102:0 103:-0.905 104:-0.462 105:-0.762 106:-0.762 107:-0.762 108:-0.905 109:-0.905 110:0.995 111:-0.905 112:-0.462 113:0 114:-0.905 115:0 116:0 117:-0.905 118:-0.964 119:-0.905 120:-0.905 121:-0.762 122:-0.762 123:-0.462 124:0.462 125:-0.462 126:0.905 127:-0.762 128:-0.905 129:0.995 130:0.762 131:-0.905 132:-0.462 133:-0.462 134:-0.905 135:-0.462 136:-0.964 137:-0.905 138:0.462 139:-0.462 140:0 141:-0.762 142:0 143:-0.462 144:-0.905 145:-0.964 146:-0.462 147:-0.905 148:-0.762 149:-0.905 150:0.995 151:0.762 152:-0.905 153:-0.462 154:-0.462 155:-0.905 156:-0.462 157:-0.964 158:-0.905 159:0.462 160:-0.462 161:0 162:-0.762 163:0 164:-0.462 165:-0.905 166:-0.964 167:-0.462 168:-0.905 169:-0.462 170:-0.462 171:-0.905 172:-0.905 173:0 174:-0.964 175:-0.905 176:0.964 177:-0.905 178:0.762 179:0.462 180:-0.905 181:-0.905 182:-0.905 183:-0.905 184:-0.762 185:-0.462 186:0.905 187:-0.905 188:-0.462 189:-0.462 190:0.964 191:0 192:-0.762 193:-0.462 194:-0.762 195:0 196:-0.762 197:-0.462 198:-0.462 199:-0.462 200:-0.462 201:-0.762 202:-0.462 203:-0.462 204:-0.462 205:0.462 206:0 207:0 208:-0.905 209:-0.462 210:-0.762 211:-0.612 212:-0.834 213:-0.683 214:-0.174 215:0.015 216:-0.833 217:-0.054 218:-0.607 219:0.089 220:-0.535 221:-0.385 222:-0.405 223:-0.693 224:-0.074 225:-0.024 226:-0.381 227:-0.612 228:-0.612 229:-0.121 230:-0.462 231:0.102 232:0.929 233:0.051 234:0.522 235:0.744 236:0.21 237:-0.274 238:-0.114 239:0.245 240:0.584 
2 1:0.151 2:-0.379 3:-0.304 4:-0.308 5:-0.76 6:-0.077 7:-0.304 8:-0.61 9:-0.308 10:-0.61 11:-0.562 12:-0.126 13:-0.562 14:-0.308 15:-0.308 16:0.308 17:-0.077 18:-0.379 19:-0.851 20:-0.462 21:-0.712 22:0 23:-0.905 24:-0.462 25:-0.762 26:-0.905 27:0.995 28:-0.762 29:-0.964 30:-0.762 31:-0.964 32:-0.905 33:0 34:-0.762 35:-0.762 36:-0.762 37:0 38:-0.762 39:-0.905 40:-0.762 41:-0.462 42:-0.905 43:-0.762 44:-0.762 45:-0.905 46:-0.905 47:0.995 48:-0.905 49:-0.462 50:0 51:-0.905 52:0 53:0 54:-0.905 55:-0.964 56:-0.905 57:-0.905 58:-0.762 59:-0.762 60:-0.462 61:0.462 62:-0.462 63:0.905 64:-0.462 65:-0.905 66:-0.462 67:0.462 68:-0.905 69:-0.762 70:-0.462 71:-0.905 72:0.987 73:-0.762 74:-0.462 75:0 76:-0.462 77:0.462 78:0.762 79:0 80:-0.462 81:-0.762 82:-0.905 83:-0.462 84:-0.762 85:0.964 86:0 87:-0.762 88:-0.462 89:-0.762 90:0 91:-0.762 92:-0.462 93:-0.462 94:-0.462 95:-0.462 96:-0.762 97:-0.462 98:-0.462 99:-0.462 100:0.462 101:0 102:0 103:-0.905 104:-0.462 105:-0.762 106:0.964 107:0 108:-0.762 109:-0.462 110:-0.762 111:0 112:-0.762 113:-0.462 114:-0.462 115:-0.462 116:-0.462 117:-0.762 118:-0.462 119:-0.462 120:-0.462 121:0.462 122:0 123:0 124:-0.905 125:-0.462 126:-0.762 127:-0.462 128:-0.462 129:-0.964 130:-0.905 131:0 132:-0.964 133:-0.905 134:0.762 135:-0.762 136:0.964 137:0.762 138:-0.905 139:-0.905 140:-0.762 141:-0.762 142:-0.762 143:-0.462 144:0.462 145:-0.762 146:-0.462 147:-0.462 148:0.964 149:0 150:-0.762 151:-0.462 152:-0.762 153:0 154:-0.762 155:-0.462 156:-0.462 157:-0.462 158:-0.462 159:-0.762 160:-0.462 161:-0.462 162:-0.462 163:0.462 164:0 165:0 166:-0.905 167:-0.462 168:-0.762 169:0.964 170:0 171:-0.762 172:-0.462 173:-0.762 174:0 175:-0.762 176:-0.462 177:-0.462 178:-0.462 179:-0.462 180:-0.762 181:-0.462 182:-0.462 183:-0.462 184:0.462 185:0 186:0 187:-0.905 188:-0.462 189:-0.762 190:0.964 191:0 192:-0.762 193:-0.462 194:-0.762 195:0 196:-0.762 197:-0.462 198:-0.462 199:-0.462 200:-0.462 201:-0.762 202:-0.462 203:-0.462 204:-0.462 205:0.462 206:0 207:0 208:-0.905 209:-0.462 210:-0.762 211:0.482 212:-0.379 213:-0.686 214:-0.612 215:-0.76 216:0.181 217:-0.786 218:-0.401 219:-0.612 220:-0.475 221:-0.456 222:-0.532 223:-0.612 224:-0.612 225:-0.636 226:0.104 227:-0.254 228:-0.141 229:-0.857 230:-0.462 231:-0.76 232:-0.696 233:0.708 234:0.522 235:0.744 236:0.274 237:0.142 238:0.274 239:0.339 240:0.584 
2 1:-0.462 2:-0.462 3:-0.462 4:-0.462 5:-0.462 6:-0.462 7:-0.462 8:-0.462 9:-0.462 10:-0.462 11:-0.462 12:-0.462 13:-0.462 14:-0.462 15:-0.462 16:-0.462 17:-0.462 18:-0.462 19:-0.462 20:-0.462 21:-0.462 22:0.964 23:0 24:-0.762 25:-0.462 26:-0.762 27:0 28:-0.762 29:-0.462 30:-0.462 31:-0.462 32:-0.462 33:-0.762 34:-0.462 35:-0.462 36:-0.462 37:0.462 38:0 39:0 40:-0.905 41:-0.462 42:-0.762 43:-0.905 44:-0.762 45:-0.964 46:-0.905 47:0.462 48:-0.762 49:-0.762 50:-0.905 51:-0.905 52:-0.762 53:-0.462 54:-0.964 55:-0.964 56:-0.762 57:-0.905 58:-0.905 59:-0.762 60:-0.905 61:1 62:-0.462 63:0.762 64:0 65:-0.462 66:-0.905 67:-0.762 68:-0.462 69:-0.905 70:-0.905 71:0.905 72:-0.762 73:0.462 74:0.462 75:-0.905 76:-0.762 77:-0.762 78:-0.905 79:-0.762 80:0 81:0.964 82:-0.905 83:-0.462 84:-0.462 85:-0.762 86:-0.905 87:0.995 88:0.762 89:-0.905 90:-0.462 91:-0.462 92:-0.905 93:-0.462 94:-0.964 95:-0.905 96:0.462 97:-0.462 98:0 99:-0.762 100:0 101:-0.462 102:-0.905 103:-0.964 104:-0.462 105:-0.905 106:0.462 107:-0.462 108:0 109:0 110:-0.762 111:0 112:-0.462 113:-0.762 114:0 115:-0.762 116:-0.462 117:0.462 118:-0.462 119:0 120:-0.462 121:0.964 122:0.462 123:-0.762 124:-0.905 125:-0.462 126:-0.762 127:0 128:-0.905 129:-0.462 130:-0.762 131:-0.905 132:0.995 133:-0.762 134:-0.964 135:-0.762 136:-0.964 137:-0.905 138:0 139:-0.762 140:-0.762 141:-0.762 142:0 143:-0.762 144:-0.905 145:-0.762 146:-0.462 147:-0.905 148:0.964 149:0 150:-0.762 151:-0.462 152:-0.762 153:0 154:-0.762 155:-0.462 156:-0.462 157:-0.462 158:-0.462 159:-0.762 160:-0.462 161:-0.462 162:-0.462 163:0.462 164:0 165:0 166:-0.905 167:-0.462 168:-0.762 169:-0.462 170:-0.905 171:0 172:0.762 173:-0.905 174:-0.762 175:0 176:-0.905 177:0.462 178:-0.762 179:0 180:0 181:-0.462 182:0.987 183:0.462 184:0 185:-0.462 186:-0.762 187:-0.762 188:-0.462 189:-0.462 190:-0.462 191:-0.462 192:-0.964 193:-0.905 194:0 195:-0.964 196:-0.905 197:0.762 198:-0.762 199:0.964 200:0.762 201:-0.905 202:-0.905 203:-0.762 204:-0.762 205:-0.762 206:-0.462 207:0.462 208:-0.762 209:-0.462 210:-0.462 211:-0.231 212:-0.851 213:-0.138 214:-0.203 215:-0.754 216:0.083 217:-0.532 218:-0.657 219:-0.354 220:-0.623 221:-0.58 222:-0.151 223:-0.686 224:-0.254 225:-0.508 226:-0.127 227:-0.612 228:-0.629 229:-0.81 230:-0.462 231:-0.784 232:0.266 233:0.214 234:0.413 235:0.704 236:0.072 237:-0.001 238:0.274 239:-0.002 240:0.387 
2 1:0.231 2:-0.683 3:-0.231 4:-0.381 5:-0.833 6:0.497 7:-0.612 8:-0.863 9:-0.381 10:-0.863 11:-0.683 12:0.231 13:-0.612 14:-0.381 15:-0.612 16:0.482 17:-0.15 18:-0.833 19:-0.834 20:-0.462 21:-0.833 22:-0.462 23:-0.462 24:-0.905 25:-0.905 26:0 27:-0.964 28:-0.905 29:0.964 30:-0.905 31:0.762 32:0.462 33:-0.905 34:-0.905 35:-0.905 36:-0.905 37:-0.762 38:-0.462 39:0.905 40:-0.905 41:-0.462 42:-0.462 43:-0.462 44:-0.462 45:-0.964 46:-0.905 47:0 48:-0.964 49:-0.905 50:0.762 51:-0.762 52:0.964 53:0.762 54:-0.905 55:-0.905 56:-0.762 57:-0.762 58:-0.762 59:-0.462 60:0.462 61:-0.762 62:-0.462 63:-0.462 64:-0.462 65:-0.905 66:-0.462 67:0.462 68:-0.905 69:-0.762 70:-0.462 71:-0.905 72:0.987 73:-0.762 74:-0.462 75:0 76:-0.462 77:0.462 78:0.762 79:0 80:-0.462 81:-0.762 82:-0.905 83:-0.462 84:-0.762 85:-0.462 86:-0.462 87:-0.905 88:-0.905 89:0 90:-0.964 91:-0.905 92:0.964 93:-0.905 94:0.762 95:0.462 96:-0.905 97:-0.905 98:-0.905 99:-0.905 100:-0.762 101:-0.462 102:0.905 103:-0.905 104:-0.462 105:-0.462 106:0.462 107:-0.462 108:0 109:0 110:-0.762 111:0 112:-0.462 113:-0.762 114:0 115:-0.762 116:-0.462 117:0.462 118:-0.462 119:0 120:-0.462 121:0.964 122:0.462 123:-0.762 124:-0.905 125:-0.462 126:-0.762 127:-0.762 128:-0.905 129:0.462 130:0 131:-0.905 132:0 133:0.462 134:-0.905 135:0 136:-0.905 137:-0.762 138:0.995 139:-0.762 140:0 141:0 142:0.462 143:0 144:-0.905 145:-0.964 146:-0.462 147:-0.762 148:-0.462 149:-0.905 150:-0.462 151:0.462 152:-0.905 153:-0.762 154:-0.462 155:-0.905 156:0.987 157:-0.762 158:-0.462 159:0 160:-0.462 161:0.462 162:0.762 163:0 164:-0.462 165:-0.762 166:-0.905 167:-0.462 168:-0.762 169:-0.762 170:-0.762 171:-0.905 172:-0.762 173:0.905 174:-0.905 175:0.762 176:-0.462 177:-0.762 178:-0.462 179:-0.462 180:-0.762 181:-0.905 182:-0.462 183:-0.762 184:-0.762 185:-0.762 186:-0.462 187:0.762 188:-0.462 189:0.998 190:-0.762 191:-0.905 192:-0.462 193:0 194:-0.462 195:-0.762 196:0.999 197:-0.905 198:-0.462 199:-0.905 200:-0.762 201:0.462 202:-0.762 203:0 204:0 205:-0.462 206:-0.762 207:-0.905 208:-0.762 209:-0.462 210:0.762 211:-0.154 212:-0.683 213:-0.462 214:-0.204 215:-0.833 216:-0.469 217:-0.662 218:-0.693 219:-0.029 220:-0.646 221:-0.536 222:0 223:-0.512 224:-0.204 225:-0.104 226:0.231 227:0.212 228:-0.405 229:-0.81 230:-0.462 231:-0.786 232:0.929 233:0.316 234:0.522 235:0.47 236:0.072 237:-0.025 238:0.268 239:-0.047 240:0.193 
