svm_type nu_svr
kernel_type rbf
gamma 0.00195312
nr_class 2
total_sv 302
rho -0.235054
SV
-0.911414531548169 1:-0.612 2:-0.934 3:0.79 4:0.748 5:-0.905 6:-0.535 7:-0.077 8:-0.905 9:0.077 10:-0.925 11:-0.81 12:0.32 13:-0.512 14:0.381 15:-0.254 16:0.077 17:-0.385 18:-0.833 19:-0.934 20:-0.462 21:-0.81 22:0 23:-0.462 24:-0.462 25:-0.462 26:-0.762 27:-0.762 28:-0.762 29:-0.462 30:-0.462 31:-0.462 32:-0.462 33:0 34:-0.462 35:-0.462 36:-0.462 37:0.462 38:0.987 39:0 40:-0.762 41:-0.462 42:-0.762 43:-0.462 44:-0.905 45:-0.462 46:0.462 47:-0.905 48:-0.762 49:-0.462 50:-0.905 51:0.987 52:-0.762 53:-0.462 54:0 55:-0.462 56:0.462 57:0.762 58:0 59:-0.462 60:-0.762 61:-0.905 62:-0.462 63:-0.762 64:-0.462 65:-0.905 66:-0.462 67:0.462 68:-0.905 69:-0.762 70:-0.462 71:-0.905 72:0.987 73:-0.762 74:-0.462 75:0 76:-0.462 77:0.462 78:0.762 79:0 80:-0.462 81:-0.762 82:-0.905 83:-0.462 84:-0.762 85:-0.462 86:-0.905 87:0 88:0.762 89:-0.905 90:-0.762 91:0 92:-0.905 93:0.462 94:-0.762 95:0 96:0 97:-0.462 98:0.987 99:0.462 100:0 101:-0.462 102:-0.762 103:-0.762 104:-0.462 105:-0.462 106:0 107:-0.462 108:-0.905 109:-0.762 110:-0.462 111:-0.905 112:-0.905 113:0.905 114:-0.762 115:0.462 116:0.462 117:-0.905 118:-0.762 119:-0.762 120:-0.905 121:-0.762 122:0 123:0.964 124:-0.905 125:-0.462 126:-0.462 127:-0.762 128:-0.905 129:0.462 130:0 131:-0.905 132:0 133:0.462 134:-0.905 135:0 136:-0.905 137:-0.762 138:0.995 139:-0.762 140:0 141:0 142:0.462 143:0 144:-0.905 145:-0.964 146:-0.462 147:-0.762 148:-0.462 149:-0.462 150:-0.964 151:-0.905 152:0 153:-0.964 154:-0.905 155:0.762 156:-0.762 157:0.964 158:0.762 159:-0.905 160:-0.905 161:-0.762 162:-0.762 163:-0.762 164:-0.462 165:0.462 166:-0.762 167:-0.462 168:-0.462 169:-0.462 170:-0.462 171:-0.905 172:-0.762 173:0 174:-0.905 175:-0.762 176:0.462 177:-0.462 178:0.762 179:0.987 180:-0.762 181:-0.762 182:0 183:-0.462 184:-0.462 185:-0.462 186:0.462 187:-0.462 188:-0.462 189:-0.462 190:0 191:-0.905 192:-0.462 193:-0.762 194:-0.905 195:0.995 196:-0.762 197:-0.964 198:-0.762 199:-0.964 200:-0.905 201:0 202:-0.762 203:-0.762 204:-0.762 205:0 206:-0.762 207:-0.905 208:-0.762 209:-0.462 210:-0.905 211:-0.462 212:-0.462 213:-0.462 214:-0.462 215:-0.462 216:-0.462 217:-0.462 218:-0.462 219:-0.462 220:-0.462 221:-0.462 222:-0.462 223:-0.462 224:-0.462 225:-0.462 226:-0.462 227:-0.462 228:-0.462 229:-0.462 230:-0.462 231:-0.462 232:0.03 233:0.26 234:0.027 235:0.11 236:-0.391 237:0.292 238:0.284 239:0.02 240:0.041 
-1.214154485173981 1:-0.231 2:-0.757 3:-0.629 4:-0.76 5:-0.613 6:0.049 7:-0.81 8:-0.379 9:-0.712 10:-0.311 11:-0.326 12:-0.429 13:-0.516 14:-0.712 15:-0.762 16:-0.331 17:-0.612 18:-0.425 19:-0.796 20:-0.462 21:-0.757 22:-0.462 23:-0.462 24:-0.964 25:-0.905 26:0 27:-0.964 28:-0.905 29:0.762 30:-0.762 31:0.964 32:0.762 33:-0.905 34:-0.905 35:-0.762 36:-0.762 37:-0.762 38:-0.462 39:0.462 40:-0.762 41:-0.462 42:-0.462 43:-0.462 44:-0.462 45:-0.964 46:-0.905 47:0 48:-0.964 49:-0.905 50:0.762 51:-0.762 52:0.964 53:0.762 54:-0.905 55:-0.905 56:-0.762 57:-0.762 58:-0.762 59:-0.462 60:0.462 61:-0.762 62:-0.462 63:-0.462 64:-0.462 65:-0.462 66:-0.964 67:-0.905 68:0 69:-0.964 70:-0.905 71:0.762 72:-0.762 73:0.964 74:0.762 75:-0.905 76:-0.905 77:-0.762 78:-0.762 79:-0.762 80:-0.462 81:0.462 82:-0.762 83:-0.462 84:-0.462 85:-0.462 86:-0.905 87:-0.462 88:0.462 89:-0.905 90:-0.762 91:-0.462 92:-0.905 93:0.987 94:-0.762 95:-0.462 96:0 97:-0.462 98:0.462 99:0.762 100:0 101:-0.462 102:-0.762 103:-0.905 104:-0.462 105:-0.762 106:-0.762 107:-0.905 108:0.462 109:0 110:-0.905 111:0 112:0.462 113:-0.905 114:0 115:-0.905 116:-0.762 117:0.995 118:-0.762 119:0 120:0 121:0.462 122:0 123:-0.905 124:-0.964 125:-0.462 126:-0.762 127:-0.462 128:-0.462 129:-0.964 130:-0.905 131:0 132:-0.964 133:-0.905 134:0.762 135:-0.762 136:0.964 137:0.762 138:-0.905 139:-0.905 140:-0.762 141:-0.762 142:-0.762 143:-0.462 144:0.462 145:-0.762 146:-0.462 147:-0.462 148:0 149:-0.462 150:-0.462 151:-0.462 152:-0.762 153:-0.762 154:-0.762 155:-0.462 156:-0.462 157:-0.462 158:-0.462 159:0 160:-0.462 161:-0.462 162:-0.462 163:0.462 164:0.987 165:0 166:-0.762 167:-0.462 168:-0.762 169:0 170:-0.462 171:-0.462 172:-0.462 173:-0.762 174:-0.762 175:-0.762 176:-0.462 177:-0.462 178:-0.462 179:-0.462 180:0 181:-0.462 182:-0.462 183:-0.462 184:0.462 185:0.987 186:0 187:-0.762 188:-0.462 189:-0.762 190:0.462 191:-0.462 192:0 193:0 194:-0.762 195:0 196:-0.462 197:-0.762 198:0 199:-0.762 200:-0.462 201:0.462 202:-0.462 203:0 204:-0.462 205:0.964 206:0.462 207:-0.762 208:-0.905 209:-0.462 210:-0.762 211:-0.023 212:-0.562 213:-0.452 214:-0.381 215:-0.156 216:-0.452 217:-0.128 218:-0.384 219:-0.381 220:-0.458 221:-0.308 222:-0.174 223:-0.66 224:-0.281 225:-0.636 226:0.101 227:-0.023 228:-0.374 229:-0.349 230:-0.462 231:-0.125 232:0.566 233:0.043 234:0.266 235:0.065 236:-0.176 237:-0.013 238:0.294 239:-0.147 240:0.16 
-0.430096857864849 1:-0.612 2:-0.683 3:0 4:-0.231 5:-0.683 6:-0.231 7:0 8:-0.683 9:-0.231 10:-0.683 11:-0.612 12:0.267 13:-0.612 14:-0.231 15:-0.231 16:0 17:-0.231 18:-0.683 19:-0.713 20:-0.462 21:-0.612 22:-0.462 23:-0.905 24:-0.462 25:0.462 26:-0.905 27:-0.762 28:-0.462 29:-0.905 30:0.987 31:-0.762 32:-0.462 33:0 34:-0.462 35:0.462 36:0.762 37:0 38:-0.462 39:-0.762 40:-0.905 41:-0.462 42:-0.762 43:-0.762 44:-0.905 45:0.462 46:0 47:-0.905 48:0 49:0.462 50:-0.905 51:0 52:-0.905 53:-0.762 54:0.995 55:-0.762 56:0 57:0 58:0.462 59:0 60:-0.905 61:-0.964 62:-0.462 63:-0.762 64:-0.762 65:-0.762 66:-0.905 67:-0.905 68:0.995 69:-0.905 70:-0.462 71:0 72:-0.905 73:0 74:0 75:-0.905 76:-0.964 77:-0.905 78:-0.905 79:-0.762 80:-0.762 81:-0.462 82:0.462 83:-0.462 84:0.905 85:-0.762 86:-0.762 87:-0.905 88:-0.905 89:0.995 90:-0.905 91:-0.462 92:0 93:-0.905 94:0 95:0 96:-0.905 97:-0.964 98:-0.905 99:-0.905 100:-0.762 101:-0.762 102:-0.462 103:0.462 104:-0.462 105:0.905 106:-0.905 107:-0.762 108:-0.964 109:-0.905 110:0.462 111:-0.762 112:-0.762 113:-0.905 114:-0.905 115:-0.762 116:-0.462 117:-0.964 118:-0.964 119:-0.762 120:-0.905 121:-0.905 122:-0.762 123:-0.905 124:1 125:-0.462 126:0.762 127:0.964 128:0 129:-0.762 130:-0.462 131:-0.762 132:0 133:-0.762 134:-0.462 135:-0.462 136:-0.462 137:-0.462 138:-0.762 139:-0.462 140:-0.462 141:-0.462 142:0.462 143:0 144:0 145:-0.905 146:-0.462 147:-0.762 148:0 149:-0.462 150:-0.905 151:-0.762 152:-0.462 153:-0.905 154:-0.905 155:0.905 156:-0.762 157:0.462 158:0.462 159:-0.905 160:-0.762 161:-0.762 162:-0.905 163:-0.762 164:0 165:0.964 166:-0.905 167:-0.462 168:-0.462 169:-0.462 170:-0.905 171:-0.462 172:0.462 173:-0.905 174:-0.762 175:-0.462 176:-0.905 177:0.987 178:-0.762 179:-0.462 180:0 181:-0.462 182:0.462 183:0.762 184:0 185:-0.462 186:-0.762 187:-0.905 188:-0.462 189:-0.762 190:-0.462 191:-0.905 192:-0.462 193:-0.462 194:-0.964 195:-0.762 196:-0.762 197:-0.905 198:-0.462 199:-0.905 200:-0.762 201:-0.762 202:0.998 203:-0.462 204:-0.762 205:-0.462 206:-0.462 207:-0.762 208:-0.964 209:-0.462 210:-0.905 211:0.09 212:-0.529 213:-0.636 214:-0.05 215:-0.784 216:-0.532 217:-0.636 218:-0.456 219:0.212 220:-0.458 221:-0.308 222:-0.405 223:-0.512 224:-0.05 225:0.076 226:0.027 227:-0.231 228:-0.22 229:-0.905 230:-0.462 231:-0.712 232:0.146 233:0.134 234:0.395 235:0.355 236:-0.339 237:0.023 238:0.378 239:-0.111 240:-0.034 
-1.160518772506496 1:-0.385 2:-0.469 3:-0.071 4:0.031 5:-0.58 6:-0.853 7:-0.452 8:-0.208 9:-0.221 10:-0.276 11:-0.304 12:-0.452 13:-0.683 14:-0.071 15:-0.452 16:-0.331 17:-0.462 18:-0.156 19:-0.881 20:-0.462 21:-0.662 22:-0.762 23:-0.762 24:-0.905 25:-0.762 26:0.905 27:-0.905 28:0.762 29:-0.462 30:-0.762 31:-0.462 32:-0.462 33:-0.762 34:-0.905 35:-0.462 36:-0.762 37:-0.762 38:-0.762 39:-0.462 40:0.762 41:-0.462 42:0.998 43:0 44:-0.462 45:-0.905 46:-0.762 47:-0.462 48:-0.905 49:-0.905 50:0.905 51:-0.762 52:0.462 53:0.462 54:-0.905 55:-0.762 56:-0.762 57:-0.905 58:-0.762 59:0 60:0.964 61:-0.905 62:-0.462 63:-0.462 64:0 65:-0.462 66:-0.462 67:-0.462 68:-0.762 69:-0.762 70:-0.762 71:-0.462 72:-0.462 73:-0.462 74:-0.462 75:0 76:-0.462 77:-0.462 78:-0.462 79:0.462 80:0.987 81:0 82:-0.762 83:-0.462 84:-0.762 85:-0.462 86:-0.462 87:-0.964 88:-0.905 89:0 90:-0.964 91:-0.905 92:0.762 93:-0.762 94:0.964 95:0.762 96:-0.905 97:-0.905 98:-0.762 99:-0.762 100:-0.762 101:-0.462 102:0.462 103:-0.762 104:-0.462 105:-0.462 106:-0.762 107:-0.905 108:0.462 109:0 110:-0.905 111:0 112:0.462 113:-0.905 114:0 115:-0.905 116:-0.762 117:0.995 118:-0.762 119:0 120:0 121:0.462 122:0 123:-0.905 124:-0.964 125:-0.462 126:-0.762 127:0.964 128:0 129:-0.762 130:-0.462 131:-0.762 132:0 133:-0.762 134:-0.462 135:-0.462 136:-0.462 137:-0.462 138:-0.762 139:-0.462 140:-0.462 141:-0.462 142:0.462 143:0 144:0 145:-0.905 146:-0.462 147:-0.762 148:0.462 149:-0.462 150:0 151:0 152:-0.762 153:0 154:-0.462 155:-0.762 156:0 157:-0.762 158:-0.462 159:0.462 160:-0.462 161:0 162:-0.462 163:0.964 164:0.462 165:-0.762 166:-0.905 167:-0.462 168:-0.762 169:-0.462 170:-0.905 171:0 172:0.762 173:-0.905 174:-0.762 175:0 176:-0.905 177:0.462 178:-0.762 179:0 180:0 181:-0.462 182:0.987 183:0.462 184:0 185:-0.462 186:-0.762 187:-0.762 188:-0.462 189:-0.462 190:-0.762 191:-0.762 192:-0.905 193:-0.762 194:0.905 195:-0.905 196:0.762 197:-0.462 198:-0.762 199:-0.462 200:-0.462 201:-0.762 202:-0.905 203:-0.462 204:-0.762 205:-0.762 206:-0.762 207:-0.462 208:0.762 209:-0.462 210:0.998 211:0.228 212:-0.135 213:-0.378 214:-0.392 215:-0.81 216:-0.151 217:-0.378 218:-0.61 219:-0.382 220:-0.61 221:-0.562 222:-0.2 223:-0.636 224:-0.382 225:-0.382 226:0.308 227:-0.077 228:-0.379 229:-0.901 230:-0.462 231:-0.762 232:0.892 233:0.078 234:-0.013 235:0.491 236:-0.176 237:0.023 238:0.121 239:-0.214 240:-0.339 
2 1:-0.462 2:-0.767 3:-0.194 4:0.244 5:-0.603 6:-0.829 7:-0.302 8:-0.349 9:0.054 10:-0.211 11:0.127 12:-0.302 13:-0.61 14:0.366 15:-0.023 16:-0.254 17:-0.462 18:-0.354 19:-0.786 20:-0.462 21:-0.512 22:-0.762 23:-0.905 24:-0.462 25:0 26:-0.462 27:-0.762 28:0.999 29:-0.905 30:-0.462 31:-0.905 32:-0.762 33:0.462 34:-0.762 35:0 36:0 37:-0.462 38:-0.762 39:-0.905 40:-0.762 41:-0.462 42:0.762 43:-0.462 44:-0.462 45:-0.905 46:-0.905 47:0 48:-0.964 49:-0.905 50:0.964 51:-0.905 52:0.762 53:0.462 54:-0.905 55:-0.905 56:-0.905 57:-0.905 58:-0.762 59:-0.462 60:0.905 61:-0.905 62:-0.462 63:-0.462 64:-0.462 65:-0.462 66:-0.905 67:-0.905 68:0 69:-0.964 70:-0.905 71:0.964 72:-0.905 73:0.762 74:0.462 75:-0.905 76:-0.905 77:-0.905 78:-0.905 79:-0.762 80:-0.462 81:0.905 82:-0.905 83:-0.462 84:-0.462 85:-0.462 86:-0.462 87:-0.964 88:-0.905 89:0 90:-0.964 91:-0.905 92:0.762 93:-0.762 94:0.964 95:0.762 96:-0.905 97:-0.905 98:-0.762 99:-0.762 100:-0.762 101:-0.462 102:0.462 103:-0.762 104:-0.462 105:-0.462 106:-0.762 107:-0.905 108:0.462 109:0 110:-0.905 111:0 112:0.462 113:-0.905 114:0 115:-0.905 116:-0.762 117:0.995 118:-0.762 119:0 120:0 121:0.462 122:0 123:-0.905 124:-0.964 125:-0.462 126:-0.762 127:0.964 128:0 129:-0.762 130:-0.462 131:-0.762 132:0 133:-0.762 134:-0.462 135:-0.462 136:-0.462 137:-0.462 138:-0.762 139:-0.462 140:-0.462 141:-0.462 142:0.462 143:0 144:0 145:-0.905 146:-0.462 147:-0.762 148:0.462 149:-0.462 150:0 151:0 152:-0.762 153:0 154:-0.462 155:-0.762 156:0 157:-0.762 158:-0.462 159:0.462 160:-0.462 161:0 162:-0.462 163:0.964 164:0.462 165:-0.762 166:-0.905 167:-0.462 168:-0.762 169:-0.762 170:-0.762 171:-0.905 172:-0.762 173:0.905 174:-0.905 175:0.762 176:-0.462 177:-0.762 178:-0.462 179:-0.462 180:-0.762 181:-0.905 182:-0.462 183:-0.762 184:-0.762 185:-0.762 186:-0.462 187:0.762 188:-0.462 189:0.998 190:-0.462 191:-0.462 192:-0.905 193:-0.905 194:0 195:-0.964 196:-0.905 197:0.964 198:-0.905 199:0.762 200:0.462 201:-0.905 202:-0.905 203:-0.905 204:-0.905 205:-0.762 206:-0.462 207:0.905 208:-0.905 209:-0.462 210:-0.462 211:-0.281 212:-0.66 213:-0.536 214:-0.512 215:-0.551 216:-0.786 217:-0.508 218:-0.61 219:-0.512 220:-0.61 221:-0.562 222:-0.381 223:-0.049 224:-0.462 225:-0.612 226:-0.05 227:0.212 228:-0.331 229:-0.575 230:-0.462 231:-0.516 232:0.38 233:0.224 234:0.38 235:0.491 236:-0.176 237:0.023 238:0.121 239:-0.247 240:-0.031 
2 1:-0.231 2:-0.61 3:-0.562 4:-0.308 5:-0.76 6:-0.712 7:-0.458 8:-0.61 9:-0.054 10:-0.562 11:-0.462 12:-0.077 13:-0.562 14:-0.154 15:0.021 16:0 17:0.263 18:-0.379 19:-0.76 20:-0.462 21:-0.712 22:-0.462 23:-0.462 24:-0.964 25:-0.905 26:0 27:-0.964 28:-0.905 29:0.762 30:-0.762 31:0.964 32:0.762 33:-0.905 34:-0.905 35:-0.762 36:-0.762 37:-0.762 38:-0.462 39:0.462 40:-0.762 41:-0.462 42:-0.462 43:-0.462 44:-0.462 45:-0.905 46:-0.905 47:0 48:-0.964 49:-0.905 50:0.964 51:-0.905 52:0.762 53:0.462 54:-0.905 55:-0.905 56:-0.905 57:-0.905 58:-0.762 59:-0.462 60:0.905 61:-0.905 62:-0.462 63:-0.462 64:-0.462 65:-0.462 66:-0.964 67:-0.905 68:0 69:-0.964 70:-0.905 71:0.762 72:-0.762 73:0.964 74:0.762 75:-0.905 76:-0.905 77:-0.762 78:-0.762 79:-0.762 80:-0.462 81:0.462 82:-0.762 83:-0.462 84:-0.462 85:-0.462 86:-0.462 87:-0.964 88:-0.905 89:0 90:-0.964 91:-0.905 92:0.762 93:-0.762 94:0.964 95:0.762 96:-0.905 97:-0.905 98:-0.762 99:-0.762 100:-0.762 101:-0.462 102:0.462 103:-0.762 104:-0.462 105:-0.462 106:-0.462 107:-0.462 108:-0.905 109:-0.762 110:0 111:-0.905 112:-0.762 113:0.462 114:-0.462 115:0.762 116:0.987 117:-0.762 118:-0.762 119:0 120:-0.462 121:-0.462 122:-0.462 123:0.462 124:-0.462 125:-0.462 126:-0.462 127:-0.462 128:-0.462 129:-0.964 130:-0.905 131:0 132:-0.964 133:-0.905 134:0.762 135:-0.762 136:0.964 137:0.762 138:-0.905 139:-0.905 140:-0.762 141:-0.762 142:-0.762 143:-0.462 144:0.462 145:-0.762 146:-0.462 147:-0.462 148:0 149:-0.462 150:-0.462 151:-0.462 152:-0.762 153:-0.762 154:-0.762 155:-0.462 156:-0.462 157:-0.462 158:-0.462 159:0 160:-0.462 161:-0.462 162:-0.462 163:0.462 164:0.987 165:0 166:-0.762 167:-0.462 168:-0.762 169:-0.762 170:-0.905 171:0.462 172:0 173:-0.905 174:0 175:0.462 176:-0.905 177:0 178:-0.905 179:-0.762 180:0.995 181:-0.762 182:0 183:0 184:0.462 185:0 186:-0.905 187:-0.964 188:-0.462 189:-0.762 190:-0.462 191:-0.905 192:-0.462 193:-0.462 194:-0.964 195:-0.762 196:-0.762 197:-0.905 198:-0.462 199:-0.905 200:-0.762 201:-0.762 202:0.998 203:-0.462 204:-0.762 205:-0.462 206:-0.462 207:-0.762 208:-0.964 209:-0.462 210:-0.905 211:-0.231 212:-0.683 213:-0.512 214:-0.077 215:-0.833 216:-0.762 217:-0.535 218:-0.683 219:0.225 220:-0.612 221:-0.462 222:0 223:-0.512 224:-0 225:0.187 226:0.154 227:0.263 228:-0.405 229:-0.833 230:-0.462 231:-0.762 232:0.566 233:0.224 234:0.266 235:0.491 236:-0.043 237:-0.013 238:0.294 239:0.134 240:-0.034 
0.7304960823958396 1:-0.462 2:-0.462 3:-0.462 4:-0.462 5:-0.462 6:-0.462 7:-0.462 8:-0.462 9:-0.462 10:-0.462 11:-0.462 12:-0.462 13:-0.462 14:-0.462 15:-0.462 16:-0.462 17:-0.462 18:-0.462 19:-0.462 20:-0.462 21:-0.462 22:-0.462 23:-0.905 24:-0.762 25:0 26:-0.905 27:-0.762 28:0 29:-0.905 30:0.762 31:-0.762 32:-0.462 33:0 34:-0.762 35:0.462 36:0.987 37:-0.462 38:-0.462 39:-0.905 40:-0.905 41:-0.462 42:-0.762 43:0 44:-0.462 45:-0.905 46:-0.762 47:-0.462 48:-0.905 49:-0.905 50:0.905 51:-0.762 52:0.462 53:0.462 54:-0.905 55:-0.762 56:-0.762 57:-0.905 58:-0.762 59:0 60:0.964 61:-0.905 62:-0.462 63:-0.462 64:-0.462 65:-0.462 66:-0.964 67:-0.905 68:0 69:-0.964 70:-0.905 71:0.762 72:-0.762 73:0.964 74:0.762 75:-0.905 76:-0.905 77:-0.762 78:-0.762 79:-0.762 80:-0.462 81:0.462 82:-0.762 83:-0.462 84:-0.462 85:-0.762 86:-0.905 87:0.995 88:0.762 89:-0.905 90:-0.462 91:-0.462 92:-0.905 93:-0.462 94:-0.964 95:-0.905 96:0.462 97:-0.462 98:0 99:-0.762 100:0 101:-0.462 102:-0.905 103:-0.964 104:-0.462 105:-0.905 106:-0.462 107:-0.462 108:-0.905 109:-0.905 110:0 111:-0.964 112:-0.905 113:0.964 114:-0.905 115:0.762 116:0.462 117:-0.905 118:-0.905 119:-0.905 120:-0.905 121:-0.762 122:-0.462 123:0.905 124:-0.905 125:-0.462 126:-0.462 127:-0.462 128:-0.462 129:-0.964 130:-0.905 131:0 132:-0.964 133:-0.905 134:0.762 135:-0.762 136:0.964 137:0.762 138:-0.905 139:-0.905 140:-0.762 141:-0.762 142:-0.762 143:-0.462 144:0.462 145:-0.762 146:-0.462 147:-0.462 148:0 149:-0.462 150:-0.905 151:-0.762 152:-0.462 153:-0.905 154:-0.905 155:0.905 156:-0.762 157:0.462 158:0.462 159:-0.905 160:-0.762 161:-0.762 162:-0.905 163:-0.762 164:0 165:0.964 166:-0.905 167:-0.462 168:-0.462 169:0.964 170:0 171:-0.762 172:-0.462 173:-0.762 174:0 175:-0.762 176:-0.462 177:-0.462 178:-0.462 179:-0.462 180:-0.762 181:-0.462 182:-0.462 183:-0.462 184:0.462 185:0 186:0 187:-0.905 188:-0.462 189:-0.762 190:-0.462 191:-0.905 192:-0.762 193:0 194:-0.905 195:-0.762 196:0 197:-0.905 198:0.762 199:-0.762 200:-0.462 201:0 202:-0.762 203:0.462 204:0.987 205:-0.462 206:-0.462 207:-0.905 208:-0.905 209:-0.462 210:-0.762 211:-0.462 212:-0.683 213:-0.863 214:-0.452 215:-0.453 216:-0.863 217:-0.452 218:-0.072 219:0 220:0.101 221:0.15 222:-0.452 223:-0.833 224:-0.15 225:0.112 226:-0.612 227:-0.462 228:-0.222 229:-0.834 230:-0.462 231:-0.612 232:-0.154 233:0.078 234:0.266 235:0.036 236:-0.169 237:-0.013 238:0.378 239:-0.33 240:-0.292 
-2 1:-0.462 2:-0.944 3:0.354 4:0.504 5:-0.925 6:-0.762 7:-0.254 8:-0.905 9:0.154 10:-0.905 11:-0.762 12:-0.254 13:0.025 14:0.354 15:-0.254 16:-0.154 17:-0.462 18:-0.762 19:-0.925 20:-0.462 21:-0.81 22:-0.762 23:-0.905 24:0.995 25:0.762 26:-0.905 27:-0.462 28:-0.462 29:-0.905 30:-0.462 31:-0.964 32:-0.905 33:0.462 34:-0.462 35:0 36:-0.762 37:0 38:-0.462 39:-0.905 40:-0.964 41:-0.462 42:-0.905 43:-0.462 44:-0.462 45:-0.964 46:-0.905 47:0 48:-0.964 49:-0.905 50:0.762 51:-0.762 52:0.964 53:0.762 54:-0.905 55:-0.905 56:-0.762 57:-0.762 58:-0.762 59:-0.462 60:0.462 61:-0.762 62:-0.462 63:-0.462 64:0 65:-0.905 66:-0.462 67:-0.762 68:-0.905 69:0.995 70:-0.762 71:-0.964 72:-0.762 73:-0.964 74:-0.905 75:0 76:-0.762 77:-0.762 78:-0.762 79:0 80:-0.762 81:-0.905 82:-0.762 83:-0.462 84:-0.905 85:-0.762 86:-0.905 87:0.462 88:0 89:-0.905 90:0 91:0.462 92:-0.905 93:0 94:-0.905 95:-0.762 96:0.995 97:-0.762 98:0 99:0 100:0.462 101:0 102:-0.905 103:-0.964 104:-0.462 105:-0.762 106:0 107:1 108:-0.905 109:-0.964 110:-0.762 111:-0.905 112:-0.905 113:-0.462 114:-0.905 115:-0.462 116:-0.462 117:-0.905 118:-0.905 119:-0.905 120:-0.905 121:-0.462 122:-0.462 123:-0.462 124:-0.762 125:-0.462 126:-0.762 127:-0.462 128:-0.462 129:-0.964 130:-0.905 131:0 132:-0.964 133:-0.905 134:0.762 135:-0.762 136:0.964 137:0.762 138:-0.905 139:-0.905 140:-0.762 141:-0.762 142:-0.762 143:-0.462 144:0.462 145:-0.762 146:-0.462 147:-0.462 148:-0.762 149:-0.905 150:0.462 151:0 152:-0.905 153:0 154:0.462 155:-0.905 156:0 157:-0.905 158:-0.762 159:0.995 160:-0.762 161:0 162:0 163:0.462 164:0 165:-0.905 166:-0.964 167:-0.462 168:-0.762 169:-0.462 170:-0.905 171:-0.462 172:0.462 173:-0.905 174:-0.762 175:-0.462 176:-0.905 177:0.987 178:-0.762 179:-0.462 180:0 181:-0.462 182:0.462 183:0.762 184:0 185:-0.462 186:-0.762 187:-0.905 188:-0.462 189:-0.762 190:0.462 191:-0.462 192:0 193:0 194:-0.762 195:0 196:-0.462 197:-0.762 198:0 199:-0.762 200:-0.462 201:0.462 202:-0.462 203:0 204:-0.462 205:0.964 206:0.462 207:-0.762 208:-0.905 209:-0.462 210:-0.762 211:-0.612 212:-0.683 213:0.267 214:0.15 215:-0.683 216:-0.462 217:-0.462 218:-0.683 219:-0.462 220:-0.713 221:-0.683 222:0 223:-0.462 224:-0.231 225:-0.612 226:-0.231 227:-0.462 228:-0.683 229:-0.713 230:-0.462 231:-0.683 232:-0.481 233:0.043 234:-0.066 235:0.134 236:-0.122 237:-0.013 238:0.324 239:-0.111 240:0.16 
-2 1:-0.358 2:-0.683 3:-0.529 4:-0.707 5:-0.452 6:-0.15 7:-0.629 8:0.01 9:-0.707 10:-0.091 11:-0.198 12:-0.287 13:-0.834 14:-0.707 15:-0.707 16:-0.304 17:-0.485 18:0 19:-0.867 20:-0.462 21:-0.66 22:-0.462 23:-0.462 24:-0.964 25:-0.905 26:0 27:-0.964 28:-0.905 29:0.762 30:-0.762 31:0.964 32:0.762 33:-0.905 34:-0.905 35:-0.762 36:-0.762 37:-0.762 38:-0.462 39:0.462 40:-0.762 41:-0.462 42:-0.462 43:-0.462 44:-0.905 45:-0.462 46:0.462 47:-0.905 48:-0.762 49:-0.462 50:-0.905 51:0.987 52:-0.762 53:-0.462 54:0 55:-0.462 56:0.462 57:0.762 58:0 59:-0.462 60:-0.762 61:-0.905 62:-0.462 63:-0.762 64:-0.462 65:-0.905 66:-0.462 67:0.462 68:-0.905 69:-0.762 70:-0.462 71:-0.905 72:0.987 73:-0.762 74:-0.462 75:0 76:-0.462 77:0.462 78:0.762 79:0 80:-0.462 81:-0.762 82:-0.905 83:-0.462 84:-0.762 85:-0.462 86:-0.462 87:-0.964 88:-0.905 89:0 90:-0.964 91:-0.905 92:0.762 93:-0.762 94:0.964 95:0.762 96:-0.905 97:-0.905 98:-0.762 99:-0.762 100:-0.762 101:-0.462 102:0.462 103:-0.762 104:-0.462 105:-0.462 106:0.462 107:-0.462 108:0 109:0 110:-0.762 111:0 112:-0.462 113:-0.762 114:0 115:-0.762 116:-0.462 117:0.462 118:-0.462 119:0 120:-0.462 121:0.964 122:0.462 123:-0.762 124:-0.905 125:-0.462 126:-0.762 127:0.462 128:-0.462 129:0 130:0 131:-0.762 132:0 133:-0.462 134:-0.762 135:0 136:-0.762 137:-0.462 138:0.462 139:-0.462 140:0 141:-0.462 142:0.964 143:0.462 144:-0.762 145:-0.905 146:-0.462 147:-0.762 148:-0.462 149:-0.462 150:-0.905 151:-0.905 152:0 153:-0.964 154:-0.905 155:0.964 156:-0.905 157:0.762 158:0.462 159:-0.905 160:-0.905 161:-0.905 162:-0.905 163:-0.762 164:-0.462 165:0.905 166:-0.905 167:-0.462 168:-0.462 169:-0.462 170:-0.905 171:-0.462 172:0.462 173:-0.905 174:-0.762 175:-0.462 176:-0.905 177:0.987 178:-0.762 179:-0.462 180:0 181:-0.462 182:0.462 183:0.762 184:0 185:-0.462 186:-0.762 187:-0.905 188:-0.462 189:-0.762 190:0.462 191:-0.462 192:0 193:0 194:-0.762 195:0 196:-0.462 197:-0.762 198:0 199:-0.762 200:-0.462 201:0.462 202:-0.462 203:0 204:-0.462 205:0.964 206:0.462 207:-0.762 208:-0.905 209:-0.462 210:-0.762 211:-0.154 212:-0.757 213:-0.358 214:0.231 215:-0.857 216:-0.508 217:-0.385 218:-0.857 219:0.621 220:-0.762 221:-0.462 222:0.154 223:-0.512 224:0.308 225:0.391 226:0.244 227:-0.154 228:-0.786 229:-0.905 230:-0.462 231:-0.762 232:0.566 233:0.26 234:0.027 235:0.491 236:-0.306 237:0.089 238:0.594 239:-0.111 240:0.16 
2 1:0 2:-0.462 3:-0.231 4:-0.231 5:-0.612 6:-0.231 7:-0.462 8:-0.612 9:-0.231 10:-0.612 11:-0.462 12:0 13:-0.462 14:-0.231 15:-0.462 16:0.251 17:0 18:-0.612 19:-0.683 20:-0.462 21:-0.612 22:-0.762 23:-0.762 24:-0.905 25:-0.762 26:0.905 27:-0.905 28:0.762 29:-0.462 30:-0.762 31:-0.462 32:-0.462 33:-0.762 34:-0.905 35:-0.462 36:-0.762 37:-0.762 38:-0.762 39:-0.462 40:0.762 41:-0.462 42:0.998 43:0 44:-0.462 45:-0.462 46:-0.462 47:-0.762 48:-0.762 49:-0.762 50:-0.462 51:-0.462 52:-0.462 53:-0.462 54:0 55:-0.462 56:-0.462 57:-0.462 58:0.462 59:0.987 60:0 61:-0.762 62:-0.462 63:-0.762 64:-0.462 65:-0.462 66:-0.905 67:-0.905 68:0 69:-0.964 70:-0.905 71:0.964 72:-0.905 73:0.762 74:0.462 75:-0.905 76:-0.905 77:-0.905 78:-0.905 79:-0.762 80:-0.462 81:0.905 82:-0.905 83:-0.462 84:-0.462 85:0 86:-0.462 87:-0.905 88:-0.762 89:-0.462 90:-0.905 91:-0.905 92:0.905 93:-0.762 94:0.462 95:0.462 96:-0.905 97:-0.762 98:-0.762 99:-0.905 100:-0.762 101:0 102:0.964 103:-0.905 104:-0.462 105:-0.462 106:0.462 107:-0.462 108:0 109:0 110:-0.762 111:0 112:-0.462 113:-0.762 114:0 115:-0.762 116:-0.462 117:0.462 118:-0.462 119:0 120:-0.462 121:0.964 122:0.462 123:-0.762 124:-0.905 125:-0.462 126:-0.762 127:0.462 128:-0.462 129:0 130:0 131:-0.762 132:0 133:-0.462 134:-0.762 135:0 136:-0.762 137:-0.462 138:0.462 139:-0.462 140:0 141:-0.462 142:0.964 143:0.462 144:-0.762 145:-0.905 146:-0.462 147:-0.762 148:-0.462 149:-0.462 150:-0.964 151:-0.905 152:0 153:-0.964 154:-0.905 155:0.762 156:-0.762 157:0.964 158:0.762 159:-0.905 160:-0.905 161:-0.762 162:-0.762 163:-0.762 164:-0.462 165:0.462 166:-0.762 167:-0.462 168:-0.462 169:0 170:-0.905 171:-0.462 172:-0.762 173:-0.905 174:0.995 175:-0.762 176:-0.964 177:-0.762 178:-0.964 179:-0.905 180:0 181:-0.762 182:-0.762 183:-0.762 184:0 185:-0.762 186:-0.905 187:-0.762 188:-0.462 189:-0.905 190:0 191:-0.462 192:-0.905 193:-0.762 194:-0.462 195:-0.905 196:-0.905 197:0.905 198:-0.762 199:0.462 200:0.462 201:-0.905 202:-0.762 203:-0.762 204:-0.905 205:-0.762 206:0 207:0.964 208:-0.905 209:-0.462 210:-0.462 211:-0.635 212:-0.831 213:0.678 214:0.508 215:-0.831 216:-0.536 217:-0.536 218:-0.603 219:-0.512 220:-0.726 221:-0.677 222:0.234 223:-0.512 224:-0.127 225:-0.786 226:-0.127 227:-0.385 228:-0.594 229:-0.954 230:-0.462 231:-0.831 232:0.892 233:-0.147 234:0.38 235:0.192 236:-0.306 237:0.089 238:0.284 239:-0.351 240:0.025 
1.820825952156354 1:-0.308 2:-0.196 3:-0.61 4:-0.629 5:-0.813 6:-0.76 7:-0.76 8:-0.683 9:-0.61 10:-0.683 11:-0.612 12:-0.76 13:0.12 14:-0.61 15:-0.76 16:-0.462 17:-0.462 18:-0.612 19:-0.813 20:-0.462 21:-0.784 22:-0.462 23:-0.462 24:-0.964 25:-0.905 26:0 27:-0.964 28:-0.905 29:0.762 30:-0.762 31:0.964 32:0.762 33:-0.905 34:-0.905 35:-0.762 36:-0.762 37:-0.762 38:-0.462 39:0.462 40:-0.762 41:-0.462 42:-0.462 43:-0.762 44:-0.905 45:0.995 46:0.762 47:-0.905 48:-0.462 49:-0.462 50:-0.905 51:-0.462 52:-0.964 53:-0.905 54:0.462 55:-0.462 56:0 57:-0.762 58:0 59:-0.462 60:-0.905 61:-0.964 62:-0.462 63:-0.905 64:-0.762 65:-0.905 66:-0.462 67:0 68:-0.462 69:-0.762 70:0.999 71:-0.905 72:-0.462 73:-0.905 74:-0.762 75:0.462 76:-0.762 77:0 78:0 79:-0.462 80:-0.762 81:-0.905 82:-0.762 83:-0.462 84:0.762 85:0 86:-0.462 87:-0.905 88:-0.762 89:-0.462 90:-0.905 91:-0.905 92:0.905 93:-0.762 94:0.462 95:0.462 96:-0.905 97:-0.762 98:-0.762 99:-0.905 100:-0.762 101:0 102:0.964 103:-0.905 104:-0.462 105:-0.462 106:-0.762 107:-0.905 108:0.462 109:0 110:-0.905 111:0 112:0.462 113:-0.905 114:0 115:-0.905 116:-0.762 117:0.995 118:-0.762 119:0 120:0 121:0.462 122:0 123:-0.905 124:-0.964 125:-0.462 126:-0.762 127:0 128:-0.462 129:-0.462 130:-0.462 131:-0.762 132:-0.762 133:-0.762 134:-0.462 135:-0.462 136:-0.462 137:-0.462 138:0 139:-0.462 140:-0.462 141:-0.462 142:0.462 143:0.987 144:0 145:-0.762 146:-0.462 147:-0.762 148:-0.462 149:-0.462 150:-0.964 151:-0.905 152:0 153:-0.964 154:-0.905 155:0.762 156:-0.762 157:0.964 158:0.762 159:-0.905 160:-0.905 161:-0.762 162:-0.762 163:-0.762 164:-0.462 165:0.462 166:-0.762 167:-0.462 168:-0.462 169:-0.762 170:-0.905 171:-0.462 172:0 173:-0.462 174:-0.762 175:0.999 176:-0.905 177:-0.462 178:-0.905 179:-0.762 180:0.462 181:-0.762 182:0 183:0 184:-0.462 185:-0.762 186:-0.905 187:-0.762 188:-0.462 189:0.762 190:-0.762 191:-0.762 192:-0.905 193:-0.905 194:0.995 195:-0.905 196:-0.462 197:0 198:-0.905 199:0 200:0 201:-0.905 202:-0.964 203:-0.905 204:-0.905 205:-0.762 206:-0.762 207:-0.462 208:0.462 209:-0.462 210:0.905 211:-0.308 212:-0.536 213:-0.763 214:-0.607 215:-0.405 216:-0.863 217:-0.707 218:0.076 219:-0.408 220:0.201 221:0.15 222:-0.453 223:-0.734 224:-0.458 225:-0.371 226:-0.304 227:0.021 228:0.08 229:-0.786 230:-0.462 231:-0.612 232:0.566 233:-0.131 234:0.097 235:0.192 236:-0.176 237:-0.088 238:0.284 239:-0.263 240:-0.242 
-2 1:-0.462 2:-0.462 3:-0.462 4:-0.462 5:-0.462 6:-0.462 7:-0.462 8:-0.462 9:-0.462 10:-0.462 11:-0.462 12:-0.462 13:-0.462 14:-0.462 15:-0.462 16:-0.462 17:-0.462 18:-0.462 19:-0.462 20:-0.462 21:-0.462 22:-0.462 23:-0.462 24:-0.964 25:-0.905 26:0 27:-0.964 28:-0.905 29:0.762 30:-0.762 31:0.964 32:0.762 33:-0.905 34:-0.905 35:-0.762 36:-0.762 37:-0.762 38:-0.462 39:0.462 40:-0.762 41:-0.462 42:-0.462 43:0 44:-0.462 45:-0.462 46:-0.462 47:-0.762 48:-0.762 49:-0.762 50:-0.462 51:-0.462 52:-0.462 53:-0.462 54:0 55:-0.462 56:-0.462 57:-0.462 58:0.462 59:0.987 60:0 61:-0.762 62:-0.462 63:-0.762 64:-0.762 65:-0.762 66:-0.905 67:-0.905 68:0.995 69:-0.905 70:-0.462 71:0 72:-0.905 73:0 74:0 75:-0.905 76:-0.964 77:-0.905 78:-0.905 79:-0.762 80:-0.762 81:-0.462 82:0.462 83:-0.462 84:0.905 85:-0.462 86:-0.462 87:-0.964 88:-0.905 89:0 90:-0.964 91:-0.905 92:0.762 93:-0.762 94:0.964 95:0.762 96:-0.905 97:-0.905 98:-0.762 99:-0.762 100:-0.762 101:-0.462 102:0.462 103:-0.762 104:-0.462 105:-0.462 106:0.964 107:0 108:-0.762 109:-0.462 110:-0.762 111:0 112:-0.762 113:-0.462 114:-0.462 115:-0.462 116:-0.462 117:-0.762 118:-0.462 119:-0.462 120:-0.462 121:0.462 122:0 123:0 124:-0.905 125:-0.462 126:-0.762 127:0 128:-0.462 129:-0.905 130:-0.762 131:-0.462 132:-0.905 133:-0.905 134:0.905 135:-0.762 136:0.462 137:0.462 138:-0.905 139:-0.762 140:-0.762 141:-0.905 142:-0.762 143:0 144:0.964 145:-0.905 146:-0.462 147:-0.462 148:0 149:-0.905 150:-0.462 151:-0.762 152:-0.905 153:0.995 154:-0.762 155:-0.964 156:-0.762 157:-0.964 158:-0.905 159:0 160:-0.762 161:-0.762 162:-0.762 163:0 164:-0.762 165:-0.905 166:-0.762 167:-0.462 168:-0.905 169:0 170:-0.905 171:-0.462 172:-0.762 173:-0.905 174:0.995 175:-0.762 176:-0.964 177:-0.762 178:-0.964 179:-0.905 180:0 181:-0.762 182:-0.762 183:-0.762 184:0 185:-0.762 186:-0.905 187:-0.762 188:-0.462 189:-0.905 190:0 191:-0.462 192:-0.905 193:-0.762 194:-0.462 195:-0.905 196:-0.905 197:0.905 198:-0.762 199:0.462 200:0.462 201:-0.905 202:-0.762 203:-0.762 204:-0.905 205:-0.762 206:0 207:0.964 208:-0.905 209:-0.462 210:-0.462 211:-0.512 212:-0.512 213:-0.954 214:-0.905 215:0.166 216:-0.954 217:-0.831 218:0.635 219:-0.786 220:0.803 221:0.635 222:-0.905 223:-0.915 224:-0.786 225:-0.786 226:-0.762 227:-0.512 228:0.308 229:-0.558 230:-0.462 231:-0.234 232:0.566 233:-0.147 234:0.395 235:0.491 236:-0.412 237:0.043 238:-0.185 239:-0.351 240:0.025 
2 1:-0.712 2:-0.784 3:0.035 4:-0.024 5:-0.151 6:-0.693 7:-0.128 8:-0.48 9:-0.612 10:-0.475 11:-0.48 12:-0.174 13:-0.683 14:-0.281 15:-0.762 16:-0.381 17:-0.562 18:-0.529 19:-0.355 20:-0.462 21:-0.197 22:-0.462 23:-0.462 24:-0.964 25:-0.905 26:0 27:-0.964 28:-0.905 29:0.762 30:-0.762 31:0.964 32:0.762 33:-0.905 34:-0.905 35:-0.762 36:-0.762 37:-0.762 38:-0.462 39:0.462 40:-0.762 41:-0.462 42:-0.462 43:-0.462 44:-0.905 45:0 46:0.762 47:-0.905 48:-0.762 49:0 50:-0.905 51:0.462 52:-0.762 53:0 54:0 55:-0.462 56:0.987 57:0.462 58:0 59:-0.462 60:-0.762 61:-0.762 62:-0.462 63:-0.462 64:-0.462 65:-0.905 66:-0.762 67:0 68:-0.905 69:-0.762 70:0 71:-0.905 72:0.762 73:-0.762 74:-0.462 75:0 76:-0.762 77:0.462 78:0.987 79:-0.462 80:-0.462 81:-0.905 82:-0.905 83:-0.462 84:-0.762 85:0.462 86:-0.462 87:0 88:0 89:-0.762 90:0 91:-0.462 92:-0.762 93:0 94:-0.762 95:-0.462 96:0.462 97:-0.462 98:0 99:-0.462 100:0.964 101:0.462 102:-0.762 103:-0.905 104:-0.462 105:-0.762 106:0.964 107:0 108:-0.762 109:-0.462 110:-0.762 111:0 112:-0.762 113:-0.462 114:-0.462 115:-0.462 116:-0.462 117:-0.762 118:-0.462 119:-0.462 120:-0.462 121:0.462 122:0 123:0 124:-0.905 125:-0.462 126:-0.762 127:-0.462 128:-0.462 129:-0.905 130:-0.762 131:0 132:-0.905 133:-0.762 134:0.462 135:-0.462 136:0.762 137:0.987 138:-0.762 139:-0.762 140:0 141:-0.462 142:-0.462 143:-0.462 144:0.462 145:-0.462 146:-0.462 147:-0.462 148:0 149:-0.462 150:-0.905 151:-0.762 152:-0.462 153:-0.905 154:-0.905 155:0.905 156:-0.762 157:0.462 158:0.462 159:-0.905 160:-0.762 161:-0.762 162:-0.905 163:-0.762 164:0 165:0.964 166:-0.905 167:-0.462 168:-0.462 169:-0.762 170:-0.762 171:-0.905 172:-0.762 173:0.905 174:-0.905 175:0.762 176:-0.462 177:-0.762 178:-0.462 179:-0.462 180:-0.762 181:-0.905 182:-0.462 183:-0.762 184:-0.762 185:-0.762 186:-0.462 187:0.762 188:-0.462 189:0.998 190:0.462 191:-0.462 192:0 193:0 194:-0.762 195:0 196:-0.462 197:-0.762 198:0 199:-0.762 200:-0.462 201:0.462 202:-0.462 203:0 204:-0.462 205:0.964 206:0.462 207:-0.762 208:-0.905 209:-0.462 210:-0.762 211:0 212:-0.462 213:-0.231 214:-0.231 215:-0.612 216:-0.231 217:-0.462 218:-0.612 219:-0.231 220:-0.612 221:-0.462 222:0 223:-0.462 224:-0.231 225:-0.462 226:0.251 227:0 228:-0.612 229:-0.683 230:-0.462 231:-0.612 232:0.566 233:-0.139 234:0.101 235:0.155 236:-0.412 237:0.075 238:0.378 239:-0.247 240:0.16 
0.4191715607557719 1:-0.462 2:-0.905 3:-0.612 4:0.231 5:-0.905 6:-0.762 7:-0.231 8:-0.905 9:0.874 10:-0.762 11:-0.462 12:0 13:-0.612 14:0.462 15:0.875 16:-0.231 17:-0.462 18:-0.834 19:-0.905 20:-0.462 21:-0.762 22:-0.762 23:-0.762 24:-0.905 25:-0.905 26:0.995 27:-0.905 28:-0.462 29:0 30:-0.905 31:0 32:0 33:-0.905 34:-0.964 35:-0.905 36:-0.905 37:-0.762 38:-0.762 39:-0.462 40:0.462 41:-0.462 42:0.905 43:-0.462 44:-0.462 45:-0.964 46:-0.905 47:0 48:-0.964 49:-0.905 50:0.762 51:-0.762 52:0.964 53:0.762 54:-0.905 55:-0.905 56:-0.762 57:-0.762 58:-0.762 59:-0.462 60:0.462 61:-0.762 62:-0.462 63:-0.462 64:-0.462 65:-0.462 66:-0.964 67:-0.905 68:0 69:-0.964 70:-0.905 71:0.762 72:-0.762 73:0.964 74:0.762 75:-0.905 76:-0.905 77:-0.762 78:-0.762 79:-0.762 80:-0.462 81:0.462 82:-0.762 83:-0.462 84:-0.462 85:-0.462 86:-0.462 87:-0.905 88:-0.905 89:0 90:-0.964 91:-0.905 92:0.964 93:-0.905 94:0.762 95:0.462 96:-0.905 97:-0.905 98:-0.905 99:-0.905 100:-0.762 101:-0.462 102:0.905 103:-0.905 104:-0.462 105:-0.462 106:-0.462 107:-0.905 108:-0.762 109:0 110:-0.905 111:-0.762 112:0 113:-0.905 114:0.762 115:-0.762 116:-0.462 117:0 118:-0.762 119:0.462 120:0.987 121:-0.462 122:-0.462 123:-0.905 124:-0.905 125:-0.462 126:-0.762 127:-0.762 128:-0.905 129:0.462 130:0 131:-0.905 132:0 133:0.462 134:-0.905 135:0 136:-0.905 137:-0.762 138:0.995 139:-0.762 140:0 141:0 142:0.462 143:0 144:-0.905 145:-0.964 146:-0.462 147:-0.762 148:0.462 149:-0.462 150:0 151:0 152:-0.762 153:0 154:-0.462 155:-0.762 156:0 157:-0.762 158:-0.462 159:0.462 160:-0.462 161:0 162:-0.462 163:0.964 164:0.462 165:-0.762 166:-0.905 167:-0.462 168:-0.762 169:0 170:-0.462 171:-0.462 172:-0.462 173:-0.762 174:-0.762 175:-0.762 176:-0.462 177:-0.462 178:-0.462 179:-0.462 180:0 181:-0.462 182:-0.462 183:-0.462 184:0.462 185:0.987 186:0 187:-0.762 188:-0.462 189:-0.762 190:-0.905 191:-0.762 192:-0.964 193:-0.905 194:0.462 195:-0.762 196:-0.762 197:-0.905 198:-0.905 199:-0.762 200:-0.462 201:-0.964 202:-0.964 203:-0.762 204:-0.905 205:-0.905 206:-0.762 207:-0.905 208:1 209:-0.462 210:0.762 211:-0.462 212:-0.462 213:-0.462 214:-0.462 215:-0.462 216:-0.462 217:-0.462 218:-0.462 219:-0.462 220:-0.462 221:-0.462 222:-0.462 223:-0.462 224:-0.462 225:-0.462 226:-0.462 227:-0.462 228:-0.462 229:-0.462 230:-0.462 231:-0.462 232:1 233:0.043 234:0.266 235:0.38 236:-0.384 237:0.292 238:0.121 239:-0.147 240:-0.339 
1.748387759431911 1:-0.304 2:-0.683 3:0.42 4:0.304 5:-0.784 6:-0.308 7:-0.462 8:-0.784 9:-0.308 10:-0.813 11:-0.683 12:0.308 13:-0.462 14:-0.077 15:-0.612 16:0.244 17:-0.154 18:-0.784 19:-0.861 20:-0.462 21:-0.784 22:-0.762 23:-0.762 24:-0.905 25:-0.905 26:0.995 27:-0.905 28:-0.462 29:0 30:-0.905 31:0 32:0 33:-0.905 34:-0.964 35:-0.905 36:-0.905 37:-0.762 38:-0.762 39:-0.462 40:0.462 41:-0.462 42:0.905 43:-0.762 44:-0.762 45:-0.905 46:-0.762 47:0.905 48:-0.905 49:0.762 50:-0.462 51:-0.762 52:-0.462 53:-0.462 54:-0.762 55:-0.905 56:-0.462 57:-0.762 58:-0.762 59:-0.762 60:-0.462 61:0.762 62:-0.462 63:0.998 64:0.964 65:0 66:-0.762 67:-0.462 68:-0.762 69:0 70:-0.762 71:-0.462 72:-0.462 73:-0.462 74:-0.462 75:-0.762 76:-0.462 77:-0.462 78:-0.462 79:0.462 80:0 81:0 82:-0.905 83:-0.462 84:-0.762 85:-0.462 86:-0.462 87:-0.964 88:-0.905 89:0 90:-0.964 91:-0.905 92:0.762 93:-0.762 94:0.964 95:0.762 96:-0.905 97:-0.905 98:-0.762 99:-0.762 100:-0.762 101:-0.462 102:0.462 103:-0.762 104:-0.462 105:-0.462 106:-0.462 107:-0.462 108:-0.905 109:-0.905 110:0 111:-0.964 112:-0.905 113:0.964 114:-0.905 115:0.762 116:0.462 117:-0.905 118:-0.905 119:-0.905 120:-0.905 121:-0.762 122:-0.462 123:0.905 124:-0.905 125:-0.462 126:-0.462 127:0.462 128:-0.462 129:0 130:0 131:-0.762 132:0 133:-0.462 134:-0.762 135:0 136:-0.762 137:-0.462 138:0.462 139:-0.462 140:0 141:-0.462 142:0.964 143:0.462 144:-0.762 145:-0.905 146:-0.462 147:-0.762 148:-0.462 149:-0.964 150:0.762 151:0.987 152:-0.905 153:-0.762 154:0 155:-0.905 156:0.462 157:-0.905 158:-0.762 159:0 160:-0.462 161:0.762 162:0 163:0 164:-0.462 165:-0.762 166:-0.905 167:-0.462 168:-0.762 169:-0.462 170:-0.905 171:-0.762 172:0 173:-0.905 174:-0.762 175:0 176:-0.905 177:0.762 178:-0.762 179:-0.462 180:0 181:-0.762 182:0.462 183:0.987 184:-0.462 185:-0.462 186:-0.905 187:-0.905 188:-0.462 189:-0.762 190:-0.762 191:-0.762 192:-0.905 193:-0.905 194:0.995 195:-0.905 196:-0.462 197:0 198:-0.905 199:0 200:0 201:-0.905 202:-0.964 203:-0.905 204:-0.905 205:-0.762 206:-0.762 207:-0.462 208:0.462 209:-0.462 210:0.905 211:-0.612 212:-0.66 213:-0.449 214:-0.58 215:-0.151 216:-0.633 217:-0.171 218:0.103 219:-0.58 220:0.002 221:-0.1 222:-0.248 223:-0.857 224:-0.529 225:-0.58 226:-0.354 227:-0.358 228:0.074 229:-0.647 230:-0.462 231:-0.319 232:1 233:-0.457 234:-0.208 235:0.491 236:-0.169 237:0.089 238:-0.231 239:-0.438 240:-0.242 
-2 1:-0.612 2:-0.683 3:-0.462 4:-0.231 5:-0.462 6:-0.612 7:0.269 8:-0.683 9:-0.462 10:-0.683 11:-0.612 12:0 13:-0.612 14:-0.231 15:-0.231 16:-0.462 17:-0.612 18:-0.683 19:-0.612 20:-0.462 21:0.15 22:-0.462 23:-0.905 24:-0.462 25:0.462 26:-0.905 27:-0.762 28:-0.462 29:-0.905 30:0.987 31:-0.762 32:-0.462 33:0 34:-0.462 35:0.462 36:0.762 37:0 38:-0.462 39:-0.762 40:-0.905 41:-0.462 42:-0.762 43:0 44:-0.905 45:-0.462 46:-0.762 47:-0.905 48:0.995 49:-0.762 50:-0.964 51:-0.762 52:-0.964 53:-0.905 54:0 55:-0.762 56:-0.762 57:-0.762 58:0 59:-0.762 60:-0.905 61:-0.762 62:-0.462 63:-0.905 64:-0.462 65:-0.462 66:-0.905 67:-0.905 68:0 69:-0.964 70:-0.905 71:0.964 72:-0.905 73:0.762 74:0.462 75:-0.905 76:-0.905 77:-0.905 78:-0.905 79:-0.762 80:-0.462 81:0.905 82:-0.905 83:-0.462 84:-0.462 85:0 86:-0.462 87:-0.905 88:-0.762 89:-0.462 90:-0.905 91:-0.905 92:0.905 93:-0.762 94:0.462 95:0.462 96:-0.905 97:-0.762 98:-0.762 99:-0.905 100:-0.762 101:0 102:0.964 103:-0.905 104:-0.462 105:-0.462 106:-0.462 107:-0.462 108:-0.905 109:-0.905 110:0 111:-0.964 112:-0.905 113:0.964 114:-0.905 115:0.762 116:0.462 117:-0.905 118:-0.905 119:-0.905 120:-0.905 121:-0.762 122:-0.462 123:0.905 124:-0.905 125:-0.462 126:-0.462 127:-0.462 128:-0.905 129:-0.462 130:0.462 131:-0.905 132:-0.762 133:-0.462 134:-0.905 135:0.987 136:-0.762 137:-0.462 138:0 139:-0.462 140:0.462 141:0.762 142:0 143:-0.462 144:-0.762 145:-0.905 146:-0.462 147:-0.762 148:0.462 149:-0.462 150:0 151:0 152:-0.762 153:0 154:-0.462 155:-0.762 156:0 157:-0.762 158:-0.462 159:0.462 160:-0.462 161:0 162:-0.462 163:0.964 164:0.462 165:-0.762 166:-0.905 167:-0.462 168:-0.762 169:-0.462 170:-0.905 171:-0.462 172:0.462 173:-0.905 174:-0.762 175:-0.462 176:-0.905 177:0.987 178:-0.762 179:-0.462 180:0 181:-0.462 182:0.462 183:0.762 184:0 185:-0.462 186:-0.762 187:-0.905 188:-0.462 189:-0.762 190:-0.462 191:-0.905 192:-0.462 193:0.462 194:-0.905 195:-0.762 196:-0.462 197:-0.905 198:0.987 199:-0.762 200:-0.462 201:0 202:-0.462 203:0.462 204:0.762 205:0 206:-0.462 207:-0.762 208:-0.905 209:-0.462 210:-0.762 211:-0.154 212:-0.831 213:-0.385 214:-0.023 215:-0.881 216:-0.049 217:-0.562 218:-0.901 219:0.239 220:-0.829 221:-0.61 222:0.077 223:-0.562 224:-0.023 225:0.05 226:0.161 227:-0.408 228:-0.81 229:-0.857 230:-0.462 231:-0.81 232:0.146 233:-0.243 234:0.38 235:0.192 236:-0.169 237:-0.238 238:0.121 239:-0.111 240:-0.139 
2 1:-0.462 2:-0.462 3:-0.462 4:-0.462 5:-0.462 6:-0.462 7:-0.462 8:-0.462 9:-0.462 10:-0.462 11:-0.462 12:-0.462 13:-0.462 14:-0.462 15:-0.462 16:-0.462 17:-0.462 18:-0.462 19:-0.462 20:-0.462 21:-0.462 22:0 23:-0.462 24:-0.462 25:-0.462 26:-0.762 27:-0.762 28:-0.762 29:-0.462 30:-0.462 31:-0.462 32:-0.462 33:0 34:-0.462 35:-0.462 36:-0.462 37:0.462 38:0.987 39:0 40:-0.762 41:-0.462 42:-0.762 43:0.964 44:0 45:-0.762 46:-0.462 47:-0.762 48:0 49:-0.762 50:-0.462 51:-0.462 52:-0.462 53:-0.462 54:-0.762 55:-0.462 56:-0.462 57:-0.462 58:0.462 59:0 60:0 61:-0.905 62:-0.462 63:-0.762 64:0 65:-0.462 66:-0.905 67:-0.762 68:-0.462 69:-0.905 70:-0.905 71:0.905 72:-0.762 73:0.462 74:0.462 75:-0.905 76:-0.762 77:-0.762 78:-0.905 79:-0.762 80:0 81:0.964 82:-0.905 83:-0.462 84:-0.462 85:0.964 86:0 87:-0.762 88:-0.462 89:-0.762 90:0 91:-0.762 92:-0.462 93:-0.462 94:-0.462 95:-0.462 96:-0.762 97:-0.462 98:-0.462 99:-0.462 100:0.462 101:0 102:0 103:-0.905 104:-0.462 105:-0.762 106:-0.462 107:-0.905 108:-0.462 109:0.462 110:-0.905 111:-0.762 112:-0.462 113:-0.905 114:0.987 115:-0.762 116:-0.462 117:0 118:-0.462 119:0.462 120:0.762 121:0 122:-0.462 123:-0.762 124:-0.905 125:-0.462 126:-0.762 127:0 128:1 129:-0.905 130:-0.964 131:-0.762 132:-0.905 133:-0.905 134:-0.462 135:-0.905 136:-0.462 137:-0.462 138:-0.905 139:-0.905 140:-0.905 141:-0.905 142:-0.462 143:-0.462 144:-0.462 145:-0.762 146:-0.462 147:-0.762 148:-0.762 149:-0.905 150:0.462 151:0 152:-0.905 153:0 154:0.462 155:-0.905 156:0 157:-0.905 158:-0.762 159:0.995 160:-0.762 161:0 162:0 163:0.462 164:0 165:-0.905 166:-0.964 167:-0.462 168:-0.762 169:-0.462 170:-0.964 171:0.762 172:0.987 173:-0.905 174:-0.762 175:0 176:-0.905 177:0.462 178:-0.905 179:-0.762 180:0 181:-0.462 182:0.762 183:0 184:0 185:-0.462 186:-0.762 187:-0.905 188:-0.462 189:-0.762 190:-0.462 191:-0.905 192:-0.462 193:0.462 194:-0.905 195:-0.762 196:-0.462 197:-0.905 198:0.987 199:-0.762 200:-0.462 201:0 202:-0.462 203:0.462 204:0.762 205:0 206:-0.462 207:-0.762 208:-0.905 209:-0.462 210:-0.762 211:-0.712 212:-0.915 213:0.228 214:0.418 215:-0.683 216:-0.662 217:0.346 218:-0.905 219:-0.308 220:-0.925 221:-0.81 222:0.385 223:-0.612 224:0.127 225:-0.254 226:-0.231 227:-0.612 228:-0.881 229:-0.853 230:-0.462 231:-0.048 232:0.03 233:-0.267 234:0.124 235:-0.009 236:-0.059 237:0.045 238:0.324 239:-0.461 240:-0.139 
-2 1:-0.462 2:-0.462 3:-0.462 4:-0.462 5:-0.462 6:-0.462 7:-0.462 8:-0.462 9:-0.462 10:-0.462 11:-0.462 12:-0.462 13:-0.462 14:-0.462 15:-0.462 16:-0.462 17:-0.462 18:-0.462 19:-0.462 20:-0.462 21:-0.462 22:-0.462 23:-0.462 24:-0.905 25:-0.905 26:0 27:-0.964 28:-0.905 29:0.964 30:-0.905 31:0.762 32:0.462 33:-0.905 34:-0.905 35:-0.905 36:-0.905 37:-0.762 38:-0.462 39:0.905 40:-0.905 41:-0.462 42:-0.462 43:-0.762 44:-0.905 45:0.462 46:0 47:-0.905 48:0 49:0.462 50:-0.905 51:0 52:-0.905 53:-0.762 54:0.995 55:-0.762 56:0 57:0 58:0.462 59:0 60:-0.905 61:-0.964 62:-0.462 63:-0.762 64:0.462 65:-0.462 66:0 67:0 68:-0.762 69:0 70:-0.462 71:-0.762 72:0 73:-0.762 74:-0.462 75:0.462 76:-0.462 77:0 78:-0.462 79:0.964 80:0.462 81:-0.762 82:-0.905 83:-0.462 84:-0.762 85:-0.462 86:-0.462 87:-0.905 88:-0.762 89:0 90:-0.905 91:-0.762 92:0.462 93:-0.462 94:0.762 95:0.987 96:-0.762 97:-0.762 98:0 99:-0.462 100:-0.462 101:-0.462 102:0.462 103:-0.462 104:-0.462 105:-0.462 106:-0.462 107:-0.905 108:-0.462 109:0.462 110:-0.905 111:-0.762 112:-0.462 113:-0.905 114:0.987 115:-0.762 116:-0.462 117:0 118:-0.462 119:0.462 120:0.762 121:0 122:-0.462 123:-0.762 124:-0.905 125:-0.462 126:-0.762 127:0 128:-0.462 129:-0.462 130:-0.462 131:-0.762 132:-0.762 133:-0.762 134:-0.462 135:-0.462 136:-0.462 137:-0.462 138:0 139:-0.462 140:-0.462 141:-0.462 142:0.462 143:0.987 144:0 145:-0.762 146:-0.462 147:-0.762 148:0.462 149:-0.462 150:0 151:0 152:-0.762 153:0 154:-0.462 155:-0.762 156:0 157:-0.762 158:-0.462 159:0.462 160:-0.462 161:0 162:-0.462 163:0.964 164:0.462 165:-0.762 166:-0.905 167:-0.462 168:-0.762 169:-0.762 170:-0.762 171:-0.905 172:-0.905 173:0.995 174:-0.905 175:-0.462 176:0 177:-0.905 178:0 179:0 180:-0.905 181:-0.964 182:-0.905 183:-0.905 184:-0.762 185:-0.762 186:-0.462 187:0.462 188:-0.462 189:0.905 190:0.462 191:-0.462 192:0 193:0 194:-0.762 195:0 196:-0.462 197:-0.762 198:0 199:-0.762 200:-0.462 201:0.462 202:-0.462 203:0 204:-0.462 205:0.964 206:0.462 207:-0.762 208:-0.905 209:-0.462 210:-0.762 211:0 212:-0.61 213:-0.415 214:-0.151 215:-0.683 216:-0.415 217:-0.382 218:-0.556 219:0.127 220:-0.474 221:-0.258 222:0.08 223:-0.636 224:0.027 225:-0.029 226:0.201 227:0 228:-0.606 229:-0.881 230:-0.462 231:-0.712 232:0.696 233:0.134 234:-0.226 235:0.766 236:-0.059 237:-0.088 238:0.121 239:-0.188 240:0.16 
2 1:-0.231 2:-0.683 3:-0.462 4:-0.612 5:-0.683 6:0.267 7:-0.612 8:-0.713 9:-0.612 10:-0.713 11:-0.683 12:-0.231 13:-0.612 14:-0.612 15:-0.612 16:-0.231 17:-0.612 18:-0.683 19:-0.612 20:-0.462 21:-0.683 22:-0.462 23:-0.462 24:-0.905 25:-0.905 26:0 27:-0.964 28:-0.905 29:0.964 30:-0.905 31:0.762 32:0.462 33:-0.905 34:-0.905 35:-0.905 36:-0.905 37:-0.762 38:-0.462 39:0.905 40:-0.905 41:-0.462 42:-0.462 43:-0.462 44:-0.905 45:-0.762 46:0 47:-0.905 48:-0.762 49:0 50:-0.905 51:0.762 52:-0.762 53:-0.462 54:0 55:-0.762 56:0.462 57:0.987 58:-0.462 59:-0.462 60:-0.905 61:-0.905 62:-0.462 63:-0.762 64:-0.762 65:-0.905 66:-0.462 67:0 68:-0.462 69:-0.762 70:0.999 71:-0.905 72:-0.462 73:-0.905 74:-0.762 75:0.462 76:-0.762 77:0 78:0 79:-0.462 80:-0.762 81:-0.905 82:-0.762 83:-0.462 84:0.762 85:-0.462 86:-0.462 87:-0.964 88:-0.905 89:0 90:-0.964 91:-0.905 92:0.762 93:-0.762 94:0.964 95:0.762 96:-0.905 97:-0.905 98:-0.762 99:-0.762 100:-0.762 101:-0.462 102:0.462 103:-0.762 104:-0.462 105:-0.462 106:-0.762 107:-0.762 108:-0.905 109:-0.905 110:0.995 111:-0.905 112:-0.462 113:0 114:-0.905 115:0 116:0 117:-0.905 118:-0.964 119:-0.905 120:-0.905 121:-0.762 122:-0.762 123:-0.462 124:0.462 125:-0.462 126:0.905 127:0 128:-0.905 129:-0.462 130:-0.762 131:-0.905 132:0.995 133:-0.762 134:-0.964 135:-0.762 136:-0.964 137:-0.905 138:0 139:-0.762 140:-0.762 141:-0.762 142:0 143:-0.762 144:-0.905 145:-0.762 146:-0.462 147:-0.905 148:-0.762 149:-0.905 150:0.462 151:0 152:-0.905 153:0 154:0.462 155:-0.905 156:0 157:-0.905 158:-0.762 159:0.995 160:-0.762 161:0 162:0 163:0.462 164:0 165:-0.905 166:-0.964 167:-0.462 168:-0.762 169:-0.762 170:-0.762 171:-0.905 172:-0.762 173:0.905 174:-0.905 175:0.762 176:-0.462 177:-0.762 178:-0.462 179:-0.462 180:-0.762 181:-0.905 182:-0.462 183:-0.762 184:-0.762 185:-0.762 186:-0.462 187:0.762 188:-0.462 189:0.998 190:-0.462 191:-0.462 192:-0.905 193:-0.905 194:0 195:-0.964 196:-0.905 197:0.964 198:-0.905 199:0.762 200:0.462 201:-0.905 202:-0.905 203:-0.905 204:-0.905 205:-0.762 206:-0.462 207:0.905 208:-0.905 209:-0.462 210:-0.462 211:-0.381 212:-0.683 213:0.089 214:-0.104 215:-0.833 216:-0.458 217:-0.304 218:-0.683 219:-0.308 220:-0.693 221:-0.636 222:0.409 223:-0.562 224:-0.231 225:-0.358 226:0.385 227:0.416 228:-0.452 229:-0.863 230:-0.462 231:-0.786 232:0.696 233:-0.05 234:0.097 235:0.491 236:-0.188 237:-0.087 238:0.324 239:-0.247 240:-0.031 
2 1:-0.462 2:-0.462 3:-0.462 4:-0.462 5:-0.462 6:-0.462 7:-0.462 8:-0.462 9:-0.462 10:-0.462 11:-0.462 12:-0.462 13:-0.462 14:-0.462 15:-0.462 16:-0.462 17:-0.462 18:-0.462 19:-0.462 20:-0.462 21:-0.462 22:-0.462 23:-0.462 24:-0.905 25:-0.905 26:0 27:-0.964 28:-0.905 29:0.964 30:-0.905 31:0.762 32:0.462 33:-0.905 34:-0.905 35:-0.905 36:-0.905 37:-0.762 38:-0.462 39:0.905 40:-0.905 41:-0.462 42:-0.462 43:0 44:-0.905 45:-0.462 46:-0.762 47:-0.905 48:0.995 49:-0.762 50:-0.964 51:-0.762 52:-0.964 53:-0.905 54:0 55:-0.762 56:-0.762 57:-0.762 58:0 59:-0.762 60:-0.905 61:-0.762 62:-0.462 63:-0.905 64:-0.762 65:-0.905 66:-0.462 67:0 68:-0.462 69:-0.762 70:0.999 71:-0.905 72:-0.462 73:-0.905 74:-0.762 75:0.462 76:-0.762 77:0 78:0 79:-0.462 80:-0.762 81:-0.905 82:-0.762 83:-0.462 84:0.762 85:-0.462 86:-0.462 87:-0.964 88:-0.905 89:0 90:-0.964 91:-0.905 92:0.762 93:-0.762 94:0.964 95:0.762 96:-0.905 97:-0.905 98:-0.762 99:-0.762 100:-0.762 101:-0.462 102:0.462 103:-0.762 104:-0.462 105:-0.462 106:-0.462 107:-0.462 108:-0.964 109:-0.905 110:0 111:-0.964 112:-0.905 113:0.762 114:-0.762 115:0.964 116:0.762 117:-0.905 118:-0.905 119:-0.762 120:-0.762 121:-0.762 122:-0.462 123:0.462 124:-0.762 125:-0.462 126:-0.462 127:-0.462 128:-0.905 129:-0.762 130:0 131:-0.905 132:-0.762 133:0 134:-0.905 135:0.762 136:-0.762 137:-0.462 138:0 139:-0.762 140:0.462 141:0.987 142:-0.462 143:-0.462 144:-0.905 145:-0.905 146:-0.462 147:-0.762 148:0 149:-0.905 150:-0.462 151:-0.762 152:-0.905 153:0.995 154:-0.762 155:-0.964 156:-0.762 157:-0.964 158:-0.905 159:0 160:-0.762 161:-0.762 162:-0.762 163:0 164:-0.762 165:-0.905 166:-0.762 167:-0.462 168:-0.905 169:-0.462 170:-0.905 171:-0.762 172:0 173:-0.905 174:-0.762 175:0 176:-0.905 177:0.762 178:-0.762 179:-0.462 180:0 181:-0.762 182:0.462 183:0.987 184:-0.462 185:-0.462 186:-0.905 187:-0.905 188:-0.462 189:-0.762 190:-0.762 191:-0.905 192:0.462 193:0 194:-0.905 195:0 196:0.462 197:-0.905 198:0 199:-0.905 200:-0.762 201:0.995 202:-0.762 203:0 204:0 205:0.462 206:0 207:-0.905 208:-0.964 209:-0.462 210:-0.762 211:-0.712 212:-0.784 213:-0.683 214:-0.452 215:0.101 216:-0.843 217:0.195 218:-0.292 219:-0.683 220:-0.326 221:-0.304 222:-0.221 223:-0.853 224:-0.452 225:-0.452 226:-0.612 227:-0.712 228:-0.456 229:-0.378 230:-0.462 231:0.606 232:0.696 233:-0.243 234:0.097 235:0.491 236:-0.349 237:-0.384 238:-0.185 239:-0.438 240:0.324 
1.395113904066636 1:0.552 2:-0.308 3:-0.331 4:-0.231 5:-0.762 6:-0.127 7:-0.612 8:-0.612 9:-0.231 10:-0.612 11:-0.462 12:-0.023 13:-0.462 14:-0.231 15:-0.462 16:0.713 17:0.395 18:-0.381 19:-0.881 20:-0.462 21:-0.762 22:-0.462 23:-0.905 24:-0.462 25:0.462 26:-0.905 27:-0.762 28:-0.462 29:-0.905 30:0.987 31:-0.762 32:-0.462 33:0 34:-0.462 35:0.462 36:0.762 37:0 38:-0.462 39:-0.762 40:-0.905 41:-0.462 42:-0.762 43:-0.462 44:-0.462 45:-0.964 46:-0.905 47:0 48:-0.964 49:-0.905 50:0.762 51:-0.762 52:0.964 53:0.762 54:-0.905 55:-0.905 56:-0.762 57:-0.762 58:-0.762 59:-0.462 60:0.462 61:-0.762 62:-0.462 63:-0.462 64:-0.462 65:-0.462 66:-0.964 67:-0.905 68:0 69:-0.964 70:-0.905 71:0.762 72:-0.762 73:0.964 74:0.762 75:-0.905 76:-0.905 77:-0.762 78:-0.762 79:-0.762 80:-0.462 81:0.462 82:-0.762 83:-0.462 84:-0.462 85:-0.462 86:-0.964 87:0.762 88:0.987 89:-0.905 90:-0.762 91:0 92:-0.905 93:0.462 94:-0.905 95:-0.762 96:0 97:-0.462 98:0.762 99:0 100:0 101:-0.462 102:-0.762 103:-0.905 104:-0.462 105:-0.762 106:-0.762 107:-0.905 108:0.995 109:0.762 110:-0.905 111:-0.462 112:-0.462 113:-0.905 114:-0.462 115:-0.964 116:-0.905 117:0.462 118:-0.462 119:0 120:-0.762 121:0 122:-0.462 123:-0.905 124:-0.964 125:-0.462 126:-0.905 127:-0.462 128:-0.905 129:-0.762 130:0 131:-0.905 132:-0.762 133:0 134:-0.905 135:0.762 136:-0.762 137:-0.462 138:0 139:-0.762 140:0.462 141:0.987 142:-0.462 143:-0.462 144:-0.905 145:-0.905 146:-0.462 147:-0.762 148:0 149:-0.462 150:-0.905 151:-0.762 152:-0.462 153:-0.905 154:-0.905 155:0.905 156:-0.762 157:0.462 158:0.462 159:-0.905 160:-0.762 161:-0.762 162:-0.905 163:-0.762 164:0 165:0.964 166:-0.905 167:-0.462 168:-0.462 169:0 170:-0.905 171:-0.462 172:-0.762 173:-0.905 174:0.995 175:-0.762 176:-0.964 177:-0.762 178:-0.964 179:-0.905 180:0 181:-0.762 182:-0.762 183:-0.762 184:0 185:-0.762 186:-0.905 187:-0.762 188:-0.462 189:-0.905 190:-0.462 191:-0.462 192:-0.964 193:-0.905 194:0 195:-0.964 196:-0.905 197:0.762 198:-0.762 199:0.964 200:0.762 201:-0.905 202:-0.905 203:-0.762 204:-0.762 205:-0.762 206:-0.462 207:0.462 208:-0.762 209:-0.462 210:-0.462 211:-0.712 212:-0.831 213:-0.074 214:-0.151 215:-0.607 216:-0.415 217:0.413 218:-0.594 219:-0.305 220:-0.627 221:-0.558 222:0.501 223:-0.786 224:-0.151 225:-0.151 226:-0.05 227:-0.331 228:-0.603 229:-0.887 230:-0.462 231:-0.204 232:0.146 233:0.043 234:0.266 235:0.082 236:-0.582 237:-0.384 238:0.378 239:-0.351 240:-0.038 
-0.3352218315222067 1:-0.308 2:-0.536 3:-0.713 4:-0.529 5:-0.405 6:-0.863 7:-0.784 8:0.076 9:-0.371 10:0.201 11:0.15 12:-0.453 13:-0.683 14:-0.458 15:-0.408 16:-0.227 17:0.021 18:0.104 19:-0.786 20:-0.462 21:-0.612 22:-0.462 23:-0.905 24:-0.762 25:0 26:-0.905 27:-0.762 28:0 29:-0.905 30:0.762 31:-0.762 32:-0.462 33:0 34:-0.762 35:0.462 36:0.987 37:-0.462 38:-0.462 39:-0.905 40:-0.905 41:-0.462 42:-0.762 43:-0.462 44:-0.462 45:-0.964 46:-0.905 47:0 48:-0.964 49:-0.905 50:0.762 51:-0.762 52:0.964 53:0.762 54:-0.905 55:-0.905 56:-0.762 57:-0.762 58:-0.762 59:-0.462 60:0.462 61:-0.762 62:-0.462 63:-0.462 64:-0.462 65:-0.905 66:-0.462 67:-0.462 68:-0.964 69:-0.762 70:-0.762 71:-0.905 72:-0.462 73:-0.905 74:-0.762 75:-0.762 76:0.998 77:-0.462 78:-0.762 79:-0.462 80:-0.462 81:-0.762 82:-0.964 83:-0.462 84:-0.905 85:-0.462 86:-0.905 87:-0.462 88:0.462 89:-0.905 90:-0.762 91:-0.462 92:-0.905 93:0.987 94:-0.762 95:-0.462 96:0 97:-0.462 98:0.462 99:0.762 100:0 101:-0.462 102:-0.762 103:-0.905 104:-0.462 105:-0.762 106:-0.462 107:-0.462 108:-0.905 109:-0.762 110:0 111:-0.905 112:-0.762 113:0.462 114:-0.462 115:0.762 116:0.987 117:-0.762 118:-0.762 119:0 120:-0.462 121:-0.462 122:-0.462 123:0.462 124:-0.462 125:-0.462 126:-0.462 127:-0.462 128:-0.462 129:-0.964 130:-0.905 131:0 132:-0.964 133:-0.905 134:0.762 135:-0.762 136:0.964 137:0.762 138:-0.905 139:-0.905 140:-0.762 141:-0.762 142:-0.762 143:-0.462 144:0.462 145:-0.762 146:-0.462 147:-0.462 148:-0.462 149:-0.964 150:0.762 151:0.987 152:-0.905 153:-0.762 154:0 155:-0.905 156:0.462 157:-0.905 158:-0.762 159:0 160:-0.462 161:0.762 162:0 163:0 164:-0.462 165:-0.762 166:-0.905 167:-0.462 168:-0.762 169:0 170:-0.462 171:-0.462 172:-0.462 173:-0.762 174:-0.762 175:-0.762 176:-0.462 177:-0.462 178:-0.462 179:-0.462 180:0 181:-0.462 182:-0.462 183:-0.462 184:0.462 185:0.987 186:0 187:-0.762 188:-0.462 189:-0.762 190:-0.462 191:-0.964 192:0.762 193:0.987 194:-0.905 195:-0.762 196:0 197:-0.905 198:0.462 199:-0.905 200:-0.762 201:0 202:-0.462 203:0.762 204:0 205:0 206:-0.462 207:-0.762 208:-0.905 209:-0.462 210:-0.762 211:-0.308 212:-0.462 213:-0.831 214:-0.784 215:-0.231 216:-0.861 217:-0.831 218:0.707 219:-0.784 220:0.458 221:0.308 222:-0.831 223:-0.784 224:-0.784 225:-0.831 226:-0.712 227:-0.308 228:0.697 229:-0.831 230:-0.462 231:-0.462 232:-0.154 233:0.043 234:-1 235:0.065 236:-0.043 237:-0.013 238:-0.231 239:-0.147 240:-0.231 
-2 1:-0.462 2:-0.462 3:-0.713 4:-0.683 5:-0.231 6:-0.713 7:-0.683 8:0.15 9:-0.612 10:0.251 11:0.15 12:-0.683 13:-0.683 14:-0.612 15:-0.612 16:-0.612 17:-0.462 18:0 19:-0.612 20:-0.462 21:-0.462 22:-0.462 23:-0.462 24:-0.964 25:-0.905 26:0 27:-0.964 28:-0.905 29:0.762 30:-0.762 31:0.964 32:0.762 33:-0.905 34:-0.905 35:-0.762 36:-0.762 37:-0.762 38:-0.462 39:0.462 40:-0.762 41:-0.462 42:-0.462 43:-0.462 44:-0.964 45:0.762 46:0.987 47:-0.905 48:-0.762 49:0 50:-0.905 51:0.462 52:-0.905 53:-0.762 54:0 55:-0.462 56:0.762 57:0 58:0 59:-0.462 60:-0.762 61:-0.905 62:-0.462 63:-0.762 64:0.462 65:-0.462 66:0 67:0 68:-0.762 69:0 70:-0.462 71:-0.762 72:0 73:-0.762 74:-0.462 75:0.462 76:-0.462 77:0 78:-0.462 79:0.964 80:0.462 81:-0.762 82:-0.905 83:-0.462 84:-0.762 85:-0.462 86:-0.462 87:-0.964 88:-0.905 89:0 90:-0.964 91:-0.905 92:0.762 93:-0.762 94:0.964 95:0.762 96:-0.905 97:-0.905 98:-0.762 99:-0.762 100:-0.762 101:-0.462 102:0.462 103:-0.762 104:-0.462 105:-0.462 106:0.462 107:-0.462 108:0 109:0 110:-0.762 111:0 112:-0.462 113:-0.762 114:0 115:-0.762 116:-0.462 117:0.462 118:-0.462 119:0 120:-0.462 121:0.964 122:0.462 123:-0.762 124:-0.905 125:-0.462 126:-0.762 127:0.462 128:-0.462 129:0 130:0 131:-0.762 132:0 133:-0.462 134:-0.762 135:0 136:-0.762 137:-0.462 138:0.462 139:-0.462 140:0 141:-0.462 142:0.964 143:0.462 144:-0.762 145:-0.905 146:-0.462 147:-0.762 148:-0.462 149:-0.462 150:-0.964 151:-0.905 152:0 153:-0.964 154:-0.905 155:0.762 156:-0.762 157:0.964 158:0.762 159:-0.905 160:-0.905 161:-0.762 162:-0.762 163:-0.762 164:-0.462 165:0.462 166:-0.762 167:-0.462 168:-0.462 169:0 170:-0.905 171:-0.462 172:-0.762 173:-0.905 174:0.995 175:-0.762 176:-0.964 177:-0.762 178:-0.964 179:-0.905 180:0 181:-0.762 182:-0.762 183:-0.762 184:0 185:-0.762 186:-0.905 187:-0.762 188:-0.462 189:-0.905 190:0.964 191:0 192:-0.762 193:-0.462 194:-0.762 195:0 196:-0.762 197:-0.462 198:-0.462 199:-0.462 200:-0.462 201:-0.762 202:-0.462 203:-0.462 204:-0.462 205:0.462 206:0 207:0 208:-0.905 209:-0.462 210:-0.762 211:-0.662 212:-0.757 213:-0.386 214:-0.175 215:-0.382 216:-0.779 217:0.121 218:-0.349 219:-0.562 220:-0.292 221:-0.278 222:0.006 223:-0.76 224:-0.254 225:-0.381 226:-0.485 227:-0.612 228:-0.449 229:-0.796 230:-0.462 231:0.076 232:0.566 233:-0.261 234:-0.226 235:0.491 236:-0.306 237:0.089 238:0.284 239:-0.351 240:0.096 
-1.447284653998737 1:-0.385 2:-0.851 3:-0.128 4:-0.029 5:-0.861 6:-0.786 7:-0.532 8:-0.603 9:-0.204 10:-0.677 11:-0.558 12:-0.532 13:0.218 14:-0.104 15:-0.532 16:-0.358 17:-0.385 18:-0.474 19:-0.934 20:-0.462 21:-0.784 22:-0.762 23:-0.905 24:-0.462 25:0 26:-0.462 27:-0.762 28:0.999 29:-0.905 30:-0.462 31:-0.905 32:-0.762 33:0.462 34:-0.762 35:0 36:0 37:-0.462 38:-0.762 39:-0.905 40:-0.762 41:-0.462 42:0.762 43:0 44:-0.462 45:-0.462 46:-0.462 47:-0.762 48:-0.762 49:-0.762 50:-0.462 51:-0.462 52:-0.462 53:-0.462 54:0 55:-0.462 56:-0.462 57:-0.462 58:0.462 59:0.987 60:0 61:-0.762 62:-0.462 63:-0.762 64:0 65:-0.905 66:-0.462 67:-0.762 68:-0.905 69:0.995 70:-0.762 71:-0.964 72:-0.762 73:-0.964 74:-0.905 75:0 76:-0.762 77:-0.762 78:-0.762 79:0 80:-0.762 81:-0.905 82:-0.762 83:-0.462 84:-0.905 85:-0.762 86:-0.905 87:0.995 88:0.762 89:-0.905 90:-0.462 91:-0.462 92:-0.905 93:-0.462 94:-0.964 95:-0.905 96:0.462 97:-0.462 98:0 99:-0.762 100:0 101:-0.462 102:-0.905 103:-0.964 104:-0.462 105:-0.905 106:-0.762 107:-0.762 108:-0.905 109:-0.762 110:0.905 111:-0.905 112:0.762 113:-0.462 114:-0.762 115:-0.462 116:-0.462 117:-0.762 118:-0.905 119:-0.462 120:-0.762 121:-0.762 122:-0.762 123:-0.462 124:0.762 125:-0.462 126:0.998 127:0 128:-0.462 129:-0.905 130:-0.762 131:-0.462 132:-0.905 133:-0.905 134:0.905 135:-0.762 136:0.462 137:0.462 138:-0.905 139:-0.762 140:-0.762 141:-0.905 142:-0.762 143:0 144:0.964 145:-0.905 146:-0.462 147:-0.462 148:0.964 149:0 150:-0.762 151:-0.462 152:-0.762 153:0 154:-0.762 155:-0.462 156:-0.462 157:-0.462 158:-0.462 159:-0.762 160:-0.462 161:-0.462 162:-0.462 163:0.462 164:0 165:0 166:-0.905 167:-0.462 168:-0.762 169:0.964 170:0 171:-0.762 172:-0.462 173:-0.762 174:0 175:-0.762 176:-0.462 177:-0.462 178:-0.462 179:-0.462 180:-0.762 181:-0.462 182:-0.462 183:-0.462 184:0.462 185:0 186:0 187:-0.905 188:-0.462 189:-0.762 190:-0.762 191:-0.905 192:0.462 193:0 194:-0.905 195:0 196:0.462 197:-0.905 198:0 199:-0.905 200:-0.762 201:0.995 202:-0.762 203:0 204:0 205:0.462 206:0 207:-0.905 208:-0.964 209:-0.462 210:-0.762 211:-0.462 212:-0.462 213:-0.462 214:-0.462 215:-0.462 216:-0.462 217:-0.462 218:-0.462 219:-0.462 220:-0.462 221:-0.462 222:-0.462 223:-0.462 224:-0.462 225:-0.462 226:-0.462 227:-0.462 228:-0.462 229:-0.462 230:-0.462 231:-0.462 232:0.38 233:-0.147 234:-0.066 235:0.036 236:-0.247 237:0.043 238:0.267 239:-0.33 240:0.324 
-2 1:-0.662 2:-0.662 3:-0.905 4:-0.905 5:0.663 6:-0.925 7:-0.61 8:0.321 9:-0.905 10:0.254 11:0.154 12:-0.905 13:-0.944 14:-0.905 15:-0.905 16:-0.762 17:-0.662 18:-0.006 19:0.006 20:-0.462 21:0.449 22:-0.762 23:-0.762 24:-0.905 25:-0.905 26:0.995 27:-0.905 28:-0.462 29:0 30:-0.905 31:0 32:0 33:-0.905 34:-0.964 35:-0.905 36:-0.905 37:-0.762 38:-0.762 39:-0.462 40:0.462 41:-0.462 42:0.905 43:-0.462 44:-0.462 45:-0.964 46:-0.905 47:0 48:-0.964 49:-0.905 50:0.762 51:-0.762 52:0.964 53:0.762 54:-0.905 55:-0.905 56:-0.762 57:-0.762 58:-0.762 59:-0.462 60:0.462 61:-0.762 62:-0.462 63:-0.462 64:-0.462 65:-0.462 66:-0.964 67:-0.905 68:0 69:-0.964 70:-0.905 71:0.762 72:-0.762 73:0.964 74:0.762 75:-0.905 76:-0.905 77:-0.762 78:-0.762 79:-0.762 80:-0.462 81:0.462 82:-0.762 83:-0.462 84:-0.462 85:-0.462 86:-0.462 87:-0.964 88:-0.905 89:0 90:-0.964 91:-0.905 92:0.762 93:-0.762 94:0.964 95:0.762 96:-0.905 97:-0.905 98:-0.762 99:-0.762 100:-0.762 101:-0.462 102:0.462 103:-0.762 104:-0.462 105:-0.462 106:0.964 107:0 108:-0.762 109:-0.462 110:-0.762 111:0 112:-0.762 113:-0.462 114:-0.462 115:-0.462 116:-0.462 117:-0.762 118:-0.462 119:-0.462 120:-0.462 121:0.462 122:0 123:0 124:-0.905 125:-0.462 126:-0.762 127:0 128:-0.905 129:-0.462 130:-0.762 131:-0.905 132:0.995 133:-0.762 134:-0.964 135:-0.762 136:-0.964 137:-0.905 138:0 139:-0.762 140:-0.762 141:-0.762 142:0 143:-0.762 144:-0.905 145:-0.762 146:-0.462 147:-0.905 148:-0.462 149:-0.905 150:-0.762 151:0 152:-0.905 153:-0.762 154:0 155:-0.905 156:0.762 157:-0.762 158:-0.462 159:0 160:-0.762 161:0.462 162:0.987 163:-0.462 164:-0.462 165:-0.905 166:-0.905 167:-0.462 168:-0.762 169:0.462 170:-0.462 171:0 172:0 173:-0.762 174:0 175:-0.462 176:-0.762 177:0 178:-0.762 179:-0.462 180:0.462 181:-0.462 182:0 183:-0.462 184:0.964 185:0.462 186:-0.762 187:-0.905 188:-0.462 189:-0.762 190:0 191:1 192:-0.905 193:-0.964 194:-0.762 195:-0.905 196:-0.905 197:-0.462 198:-0.905 199:-0.462 200:-0.462 201:-0.905 202:-0.905 203:-0.905 204:-0.905 205:-0.462 206:-0.462 207:-0.462 208:-0.762 209:-0.462 210:-0.762 211:-0.023 212:-0.683 213:0.255 214:0.127 215:-0.833 216:0.012 217:-0.512 218:-0.843 219:-0.281 220:-0.863 221:-0.683 222:0.385 223:-0.512 224:-0.127 225:-0.612 226:0.482 227:-0.05 228:-0.833 229:-0.901 230:-0.462 231:-0.833 232:1 233:0.043 234:0.266 235:0.491 236:-0.412 237:-0.087 238:-0.099 239:-0.185 240:-0.573 
-0.02872107419490296 1:0.251 2:-0.231 3:-0.612 4:-0.462 5:-0.612 6:-0.231 7:-0.612 8:-0.462 9:-0.462 10:-0.462 11:-0.462 12:-0.612 13:-0.462 14:-0.462 15:-0.462 16:0 17:-0.231 18:-0.231 19:-0.683 20:-0.462 21:-0.612 22:-0.762 23:-0.762 24:-0.905 25:-0.905 26:0.995 27:-0.905 28:-0.462 29:0 30:-0.905 31:0 32:0 33:-0.905 34:-0.964 35:-0.905 36:-0.905 37:-0.762 38:-0.762 39:-0.462 40:0.462 41:-0.462 42:0.905 43:-0.462 44:-0.905 45:-0.462 46:0.462 47:-0.905 48:-0.762 49:-0.462 50:-0.905 51:0.987 52:-0.762 53:-0.462 54:0 55:-0.462 56:0.462 57:0.762 58:0 59:-0.462 60:-0.762 61:-0.905 62:-0.462 63:-0.762 64:-0.462 65:-0.462 66:-0.905 67:-0.905 68:0 69:-0.964 70:-0.905 71:0.964 72:-0.905 73:0.762 74:0.462 75:-0.905 76:-0.905 77:-0.905 78:-0.905 79:-0.762 80:-0.462 81:0.905 82:-0.905 83:-0.462 84:-0.462 85:0 86:-0.905 87:-0.462 88:-0.762 89:-0.905 90:0.995 91:-0.762 92:-0.964 93:-0.762 94:-0.964 95:-0.905 96:0 97:-0.762 98:-0.762 99:-0.762 100:0 101:-0.762 102:-0.905 103:-0.762 104:-0.462 105:-0.905 106:-0.462 107:-0.462 108:-0.964 109:-0.905 110:0 111:-0.964 112:-0.905 113:0.762 114:-0.762 115:0.964 116:0.762 117:-0.905 118:-0.905 119:-0.762 120:-0.762 121:-0.762 122:-0.462 123:0.462 124:-0.762 125:-0.462 126:-0.462 127:-0.762 128:-0.905 129:-0.462 130:0 131:-0.462 132:-0.762 133:0.999 134:-0.905 135:-0.462 136:-0.905 137:-0.762 138:0.462 139:-0.762 140:0 141:0 142:-0.462 143:-0.762 144:-0.905 145:-0.762 146:-0.462 147:0.762 148:0 149:-0.462 150:-0.462 151:-0.462 152:-0.762 153:-0.762 154:-0.762 155:-0.462 156:-0.462 157:-0.462 158:-0.462 159:0 160:-0.462 161:-0.462 162:-0.462 163:0.462 164:0.987 165:0 166:-0.762 167:-0.462 168:-0.762 169:-0.462 170:-0.964 171:0.762 172:0.987 173:-0.905 174:-0.762 175:0 176:-0.905 177:0.462 178:-0.905 179:-0.762 180:0 181:-0.462 182:0.762 183:0 184:0 185:-0.462 186:-0.762 187:-0.905 188:-0.462 189:-0.762 190:-0.762 191:-0.762 192:-0.905 193:-0.905 194:0.995 195:-0.905 196:-0.462 197:0 198:-0.905 199:0 200:0 201:-0.905 202:-0.964 203:-0.905 204:-0.905 205:-0.762 206:-0.762 207:-0.462 208:0.462 209:-0.462 210:0.905 211:-0.231 212:-0.683 213:-0.305 214:0.1 215:-0.784 216:-0.786 217:-0.405 218:-0.456 219:-0.05 220:-0.458 221:-0.077 222:-0.151 223:-0.512 224:0.212 225:-0.074 226:0.027 227:0.098 228:-0.22 229:-0.786 230:-0.462 231:-0.562 232:1 233:0.26 234:0.38 235:-0.11 236:-0.349 237:-0.263 238:0.294 239:-0.461 240:-0.242 
2 1:-0.462 2:-0.831 3:-0.331 4:0.304 5:-0.831 6:-0.712 7:-0.077 8:-0.831 9:0.408 10:-0.712 11:-0.231 12:-0.077 13:-0.562 14:0.571 15:0.483 16:-0.231 17:-0.462 18:-0.76 19:-0.76 20:-0.462 21:-0.562 22:-0.462 23:-0.462 24:-0.964 25:-0.905 26:0 27:-0.964 28:-0.905 29:0.762 30:-0.762 31:0.964 32:0.762 33:-0.905 34:-0.905 35:-0.762 36:-0.762 37:-0.762 38:-0.462 39:0.462 40:-0.762 41:-0.462 42:-0.462 43:-0.462 44:-0.462 45:-0.905 46:-0.905 47:0 48:-0.964 49:-0.905 50:0.964 51:-0.905 52:0.762 53:0.462 54:-0.905 55:-0.905 56:-0.905 57:-0.905 58:-0.762 59:-0.462 60:0.905 61:-0.905 62:-0.462 63:-0.462 64:-0.462 65:-0.905 66:-0.462 67:0.462 68:-0.905 69:-0.762 70:-0.462 71:-0.905 72:0.987 73:-0.762 74:-0.462 75:0 76:-0.462 77:0.462 78:0.762 79:0 80:-0.462 81:-0.762 82:-0.905 83:-0.462 84:-0.762 85:0 86:-0.462 87:-0.462 88:-0.462 89:-0.762 90:-0.762 91:-0.762 92:-0.462 93:-0.462 94:-0.462 95:-0.462 96:0 97:-0.462 98:-0.462 99:-0.462 100:0.462 101:0.987 102:0 103:-0.762 104:-0.462 105:-0.762 106:-0.762 107:-0.905 108:0.995 109:0.762 110:-0.905 111:-0.462 112:-0.462 113:-0.905 114:-0.462 115:-0.964 116:-0.905 117:0.462 118:-0.462 119:0 120:-0.762 121:0 122:-0.462 123:-0.905 124:-0.964 125:-0.462 126:-0.905 127:-0.462 128:-0.462 129:-0.905 130:-0.905 131:0 132:-0.964 133:-0.905 134:0.964 135:-0.905 136:0.762 137:0.462 138:-0.905 139:-0.905 140:-0.905 141:-0.905 142:-0.762 143:-0.462 144:0.905 145:-0.905 146:-0.462 147:-0.462 148:0.462 149:-0.462 150:0 151:0 152:-0.762 153:0 154:-0.462 155:-0.762 156:0 157:-0.762 158:-0.462 159:0.462 160:-0.462 161:0 162:-0.462 163:0.964 164:0.462 165:-0.762 166:-0.905 167:-0.462 168:-0.762 169:-0.462 170:-0.462 171:-0.905 172:-0.762 173:0 174:-0.905 175:-0.762 176:0.462 177:-0.462 178:0.762 179:0.987 180:-0.762 181:-0.762 182:0 183:-0.462 184:-0.462 185:-0.462 186:0.462 187:-0.462 188:-0.462 189:-0.462 190:0.462 191:-0.462 192:0 193:0 194:-0.762 195:0 196:-0.462 197:-0.762 198:0 199:-0.762 200:-0.462 201:0.462 202:-0.462 203:0 204:-0.462 205:0.964 206:0.462 207:-0.762 208:-0.905 209:-0.462 210:-0.762 211:-0.462 212:-0.683 213:-0.683 214:-0.458 215:-0.472 216:-0.834 217:-0.712 218:-0.221 219:-0.221 220:-0.048 221:0.162 222:-0.635 223:-0.125 224:-0.077 225:-0.358 226:-0.385 227:-0.462 228:-0.15 229:-0.703 230:-0.462 231:-0.66 232:0.566 233:0.224 234:0.027 235:0.105 236:-0.582 237:0.024 238:0.121 239:0.02 240:0.16 
-0.2554814762770908 1:-0.485 2:-0.588 3:-0.05 4:-0.138 5:-0.911 6:-0.686 7:-0.686 8:-0.831 9:-0.536 10:-0.851 11:-0.76 12:-0.378 13:0.194 14:-0.382 15:-0.786 16:-0.308 17:-0.462 18:-0.76 19:-0.93 20:-0.462 21:-0.881 22:-0.462 23:-0.905 24:-0.462 25:0.462 26:-0.905 27:-0.762 28:-0.462 29:-0.905 30:0.987 31:-0.762 32:-0.462 33:0 34:-0.462 35:0.462 36:0.762 37:0 38:-0.462 39:-0.762 40:-0.905 41:-0.462 42:-0.762 43:-0.462 44:-0.905 45:-0.762 46:0 47:-0.905 48:-0.762 49:0 50:-0.905 51:0.762 52:-0.762 53:-0.462 54:0 55:-0.762 56:0.462 57:0.987 58:-0.462 59:-0.462 60:-0.905 61:-0.905 62:-0.462 63:-0.762 64:-0.762 65:-0.762 66:-0.905 67:-0.762 68:0.905 69:-0.905 70:0.762 71:-0.462 72:-0.762 73:-0.462 74:-0.462 75:-0.762 76:-0.905 77:-0.462 78:-0.762 79:-0.762 80:-0.762 81:-0.462 82:0.762 83:-0.462 84:0.998 85:-0.762 86:-0.762 87:-0.905 88:-0.905 89:0.995 90:-0.905 91:-0.462 92:0 93:-0.905 94:0 95:0 96:-0.905 97:-0.964 98:-0.905 99:-0.905 100:-0.762 101:-0.762 102:-0.462 103:0.462 104:-0.462 105:0.905 106:0 107:-0.462 108:-0.905 109:-0.762 110:-0.462 111:-0.905 112:-0.905 113:0.905 114:-0.762 115:0.462 116:0.462 117:-0.905 118:-0.762 119:-0.762 120:-0.905 121:-0.762 122:0 123:0.964 124:-0.905 125:-0.462 126:-0.462 127:-0.462 128:-0.905 129:-0.462 130:-0.462 131:-0.964 132:-0.762 133:-0.762 134:-0.905 135:-0.462 136:-0.905 137:-0.762 138:-0.762 139:0.998 140:-0.462 141:-0.762 142:-0.462 143:-0.462 144:-0.762 145:-0.964 146:-0.462 147:-0.905 148:-0.462 149:-0.462 150:-0.905 151:-0.905 152:0 153:-0.964 154:-0.905 155:0.964 156:-0.905 157:0.762 158:0.462 159:-0.905 160:-0.905 161:-0.905 162:-0.905 163:-0.762 164:-0.462 165:0.905 166:-0.905 167:-0.462 168:-0.462 169:-0.762 170:-0.762 171:-0.905 172:-0.905 173:0.995 174:-0.905 175:-0.462 176:0 177:-0.905 178:0 179:0 180:-0.905 181:-0.964 182:-0.905 183:-0.905 184:-0.762 185:-0.762 186:-0.462 187:0.462 188:-0.462 189:0.905 190:0.462 191:-0.462 192:0 193:0 194:-0.762 195:0 196:-0.462 197:-0.762 198:0 199:-0.762 200:-0.462 201:0.462 202:-0.462 203:0 204:-0.462 205:0.964 206:0.462 207:-0.762 208:-0.905 209:-0.462 210:-0.762 211:0.09 212:-0.559 213:-0.024 214:0.212 215:-0.784 216:-0.532 217:-0.405 218:-0.456 219:-0.05 220:-0.529 221:-0.458 222:-0.405 223:-0.512 224:0.1 225:-0.305 226:0.027 227:-0.231 228:-0.22 229:-0.905 230:-0.462 231:-0.712 232:0.146 233:-0.05 234:0.279 235:0.355 236:-0.391 237:-0.264 238:0.594 239:-0.188 240:0.16 
2 1:-0.462 2:-0.683 3:-0.612 4:-0.231 5:-0.683 6:-0.612 7:-0.231 8:-0.683 9:0.15 10:-0.612 11:-0.462 12:-0.231 13:-0.612 14:0 15:0.263 16:-0.462 17:-0.462 18:-0.683 19:-0.683 20:-0.462 21:-0.612 22:-0.462 23:-0.905 24:-0.762 25:0 26:-0.905 27:-0.762 28:0 29:-0.905 30:0.762 31:-0.762 32:-0.462 33:0 34:-0.762 35:0.462 36:0.987 37:-0.462 38:-0.462 39:-0.905 40:-0.905 41:-0.462 42:-0.762 43:-0.462 44:-0.905 45:-0.762 46:0 47:-0.905 48:-0.762 49:0 50:-0.905 51:0.762 52:-0.762 53:-0.462 54:0 55:-0.762 56:0.462 57:0.987 58:-0.462 59:-0.462 60:-0.905 61:-0.905 62:-0.462 63:-0.762 64:0 65:-0.462 66:-0.905 67:-0.762 68:-0.462 69:-0.905 70:-0.905 71:0.905 72:-0.762 73:0.462 74:0.462 75:-0.905 76:-0.762 77:-0.762 78:-0.905 79:-0.762 80:0 81:0.964 82:-0.905 83:-0.462 84:-0.462 85:-0.462 86:-0.462 87:-0.905 88:-0.762 89:0 90:-0.905 91:-0.762 92:0.462 93:-0.462 94:0.762 95:0.987 96:-0.762 97:-0.762 98:0 99:-0.462 100:-0.462 101:-0.462 102:0.462 103:-0.462 104:-0.462 105:-0.462 106:-0.462 107:-0.462 108:-0.905 109:-0.905 110:0 111:-0.964 112:-0.905 113:0.964 114:-0.905 115:0.762 116:0.462 117:-0.905 118:-0.905 119:-0.905 120:-0.905 121:-0.762 122:-0.462 123:0.905 124:-0.905 125:-0.462 126:-0.462 127:-0.462 128:-0.905 129:0 130:0.762 131:-0.905 132:-0.762 133:0 134:-0.905 135:0.462 136:-0.762 137:0 138:0 139:-0.462 140:0.987 141:0.462 142:0 143:-0.462 144:-0.762 145:-0.762 146:-0.462 147:-0.462 148:0.462 149:-0.462 150:0 151:0 152:-0.762 153:0 154:-0.462 155:-0.762 156:0 157:-0.762 158:-0.462 159:0.462 160:-0.462 161:0 162:-0.462 163:0.964 164:0.462 165:-0.762 166:-0.905 167:-0.462 168:-0.762 169:0.462 170:-0.462 171:0 172:0 173:-0.762 174:0 175:-0.462 176:-0.762 177:0 178:-0.762 179:-0.462 180:0.462 181:-0.462 182:0 183:-0.462 184:0.964 185:0.462 186:-0.762 187:-0.905 188:-0.462 189:-0.762 190:0 191:-0.905 192:-0.462 193:-0.762 194:-0.905 195:0.995 196:-0.762 197:-0.964 198:-0.762 199:-0.964 200:-0.905 201:0 202:-0.762 203:-0.762 204:-0.762 205:0 206:-0.762 207:-0.905 208:-0.762 209:-0.462 210:-0.905 211:-0.231 212:-0.831 213:-0.546 214:-0.378 215:-0.754 216:0.083 217:-0.686 218:-0.657 219:-0.179 220:-0.575 221:-0.48 222:-0.151 223:-0.686 224:-0.354 225:-0.254 226:-0.127 227:-0.612 228:-0.629 229:-0.81 230:-0.462 231:-0.784 232:-0.154 233:-0.05 234:0.124 235:0.766 236:-0.169 237:-0.499 238:0.121 239:-0.185 240:0.041 
1.965569930207419 1:-0.562 2:-0.683 3:-0.227 4:-0.121 5:-0.452 6:-0.763 7:-0.683 8:-0.071 9:-0.371 10:0.034 11:0.002 12:-0.298 13:-0.683 14:-0.304 15:-0.508 16:-0.381 17:-0.462 18:-0.198 19:-0.853 20:-0.462 21:-0.66 22:-0.905 23:-0.762 24:-0.964 25:-0.905 26:0.462 27:-0.762 28:-0.762 29:-0.905 30:-0.905 31:-0.762 32:-0.462 33:-0.964 34:-0.964 35:-0.762 36:-0.905 37:-0.905 38:-0.762 39:-0.905 40:1 41:-0.462 42:0.762 43:-0.762 44:-0.905 45:0.995 46:0.762 47:-0.905 48:-0.462 49:-0.462 50:-0.905 51:-0.462 52:-0.964 53:-0.905 54:0.462 55:-0.462 56:0 57:-0.762 58:0 59:-0.462 60:-0.905 61:-0.964 62:-0.462 63:-0.905 64:-0.762 65:-0.762 66:-0.905 67:-0.762 68:0.905 69:-0.905 70:0.762 71:-0.462 72:-0.762 73:-0.462 74:-0.462 75:-0.762 76:-0.905 77:-0.462 78:-0.762 79:-0.762 80:-0.762 81:-0.462 82:0.762 83:-0.462 84:0.998 85:-0.462 86:-0.462 87:-0.905 88:-0.762 89:0 90:-0.905 91:-0.762 92:0.462 93:-0.462 94:0.762 95:0.987 96:-0.762 97:-0.762 98:0 99:-0.462 100:-0.462 101:-0.462 102:0.462 103:-0.462 104:-0.462 105:-0.462 106:-0.462 107:-0.462 108:-0.964 109:-0.905 110:0 111:-0.964 112:-0.905 113:0.762 114:-0.762 115:0.964 116:0.762 117:-0.905 118:-0.905 119:-0.762 120:-0.762 121:-0.762 122:-0.462 123:0.462 124:-0.762 125:-0.462 126:-0.462 127:-0.762 128:-0.905 129:0.462 130:0 131:-0.905 132:0 133:0.462 134:-0.905 135:0 136:-0.905 137:-0.762 138:0.995 139:-0.762 140:0 141:0 142:0.462 143:0 144:-0.905 145:-0.964 146:-0.462 147:-0.762 148:0.462 149:-0.462 150:0 151:0 152:-0.762 153:0 154:-0.462 155:-0.762 156:0 157:-0.762 158:-0.462 159:0.462 160:-0.462 161:0 162:-0.462 163:0.964 164:0.462 165:-0.762 166:-0.905 167:-0.462 168:-0.762 169:0 170:-0.462 171:-0.462 172:-0.462 173:-0.762 174:-0.762 175:-0.762 176:-0.462 177:-0.462 178:-0.462 179:-0.462 180:0 181:-0.462 182:-0.462 183:-0.462 184:0.462 185:0.987 186:0 187:-0.762 188:-0.462 189:-0.762 190:0 191:-0.905 192:-0.462 193:-0.762 194:-0.905 195:0.995 196:-0.762 197:-0.964 198:-0.762 199:-0.964 200:-0.905 201:0 202:-0.762 203:-0.762 204:-0.762 205:0 206:-0.762 207:-0.905 208:-0.762 209:-0.462 210:-0.905 211:-0.231 212:-0.683 213:-0.61 214:-0.76 215:-0.529 216:0.099 217:-0.76 218:-0.238 219:-0.76 220:-0.305 221:-0.376 222:-0.379 223:-0.76 224:-0.76 225:-0.76 226:-0.331 227:-0.612 228:-0.228 229:-0.76 230:-0.462 231:-0.683 232:0.787 233:-0.131 234:0.279 235:0.766 236:-0.349 237:0.292 238:0.121 239:-0.147 240:0.041 
-2 1:-0.462 2:-0.462 3:-0.683 4:-0.683 5:-0.231 6:-0.713 7:-0.683 8:0.251 9:-0.683 10:0.15 11:0 12:-0.683 13:-0.683 14:-0.683 15:-0.683 16:-0.612 17:-0.462 18:0.222 19:-0.683 20:-0.462 21:-0.462 22:-0.462 23:-0.462 24:-0.964 25:-0.905 26:0 27:-0.964 28:-0.905 29:0.762 30:-0.762 31:0.964 32:0.762 33:-0.905 34:-0.905 35:-0.762 36:-0.762 37:-0.762 38:-0.462 39:0.462 40:-0.762 41:-0.462 42:-0.462 43:0 44:-0.462 45:-0.462 46:-0.462 47:-0.762 48:-0.762 49:-0.762 50:-0.462 51:-0.462 52:-0.462 53:-0.462 54:0 55:-0.462 56:-0.462 57:-0.462 58:0.462 59:0.987 60:0 61:-0.762 62:-0.462 63:-0.762 64:0 65:-0.462 66:-0.905 67:-0.762 68:-0.462 69:-0.905 70:-0.905 71:0.905 72:-0.762 73:0.462 74:0.462 75:-0.905 76:-0.762 77:-0.762 78:-0.905 79:-0.762 80:0 81:0.964 82:-0.905 83:-0.462 84:-0.462 85:0.462 86:-0.462 87:0 88:0 89:-0.762 90:0 91:-0.462 92:-0.762 93:0 94:-0.762 95:-0.462 96:0.462 97:-0.462 98:0 99:-0.462 100:0.964 101:0.462 102:-0.762 103:-0.905 104:-0.462 105:-0.762 106:0 107:-0.462 108:-0.905 109:-0.762 110:-0.462 111:-0.905 112:-0.905 113:0.905 114:-0.762 115:0.462 116:0.462 117:-0.905 118:-0.762 119:-0.762 120:-0.905 121:-0.762 122:0 123:0.964 124:-0.905 125:-0.462 126:-0.462 127:0.964 128:0 129:-0.762 130:-0.462 131:-0.762 132:0 133:-0.762 134:-0.462 135:-0.462 136:-0.462 137:-0.462 138:-0.762 139:-0.462 140:-0.462 141:-0.462 142:0.462 143:0 144:0 145:-0.905 146:-0.462 147:-0.762 148:0 149:-0.462 150:-0.905 151:-0.762 152:-0.462 153:-0.905 154:-0.905 155:0.905 156:-0.762 157:0.462 158:0.462 159:-0.905 160:-0.762 161:-0.762 162:-0.905 163:-0.762 164:0 165:0.964 166:-0.905 167:-0.462 168:-0.462 169:0.462 170:-0.462 171:0 172:0 173:-0.762 174:0 175:-0.462 176:-0.762 177:0 178:-0.762 179:-0.462 180:0.462 181:-0.462 182:0 183:-0.462 184:0.964 185:0.462 186:-0.762 187:-0.905 188:-0.462 189:-0.762 190:-0.462 191:-0.964 192:0.762 193:0.987 194:-0.905 195:-0.762 196:0 197:-0.905 198:0.462 199:-0.905 200:-0.762 201:0 202:-0.462 203:0.762 204:0 205:0 206:-0.462 207:-0.762 208:-0.905 209:-0.462 210:-0.762 211:-0.231 212:-0.905 213:-0.462 214:-0.304 215:-0.915 216:0.116 217:-0.662 218:-0.934 219:-0.129 220:-0.887 221:-0.734 222:-0.127 223:-0.369 224:-0.304 225:-0.254 226:-0.077 227:-0.612 228:-0.834 229:-0.843 230:-0.462 231:-0.857 232:0.566 233:-0.147 234:0.124 235:0.155 236:-0.391 237:0.023 238:0.378 239:-0.185 240:-0.231 
2 1:-0.485 2:-0.831 3:-0.2 4:0.127 5:-0.831 6:-0.686 7:-0.305 8:-0.603 9:0.1 10:-0.625 11:-0.456 12:0.003 13:-0.662 14:0.104 15:0.089 16:-0.358 17:-0.385 18:-0.594 19:-0.925 20:-0.462 21:-0.76 22:-0.462 23:-0.462 24:-0.964 25:-0.905 26:0 27:-0.964 28:-0.905 29:0.762 30:-0.762 31:0.964 32:0.762 33:-0.905 34:-0.905 35:-0.762 36:-0.762 37:-0.762 38:-0.462 39:0.462 40:-0.762 41:-0.462 42:-0.462 43:-0.462 44:-0.462 45:-0.905 46:-0.762 47:0 48:-0.905 49:-0.762 50:0.462 51:-0.462 52:0.762 53:0.987 54:-0.762 55:-0.762 56:0 57:-0.462 58:-0.462 59:-0.462 60:0.462 61:-0.462 62:-0.462 63:-0.462 64:0.462 65:-0.462 66:0 67:0 68:-0.762 69:0 70:-0.462 71:-0.762 72:0 73:-0.762 74:-0.462 75:0.462 76:-0.462 77:0 78:-0.462 79:0.964 80:0.462 81:-0.762 82:-0.905 83:-0.462 84:-0.762 85:-0.462 86:-0.462 87:-0.905 88:-0.762 89:0 90:-0.905 91:-0.762 92:0.462 93:-0.462 94:0.762 95:0.987 96:-0.762 97:-0.762 98:0 99:-0.462 100:-0.462 101:-0.462 102:0.462 103:-0.462 104:-0.462 105:-0.462 106:-0.462 107:-0.905 108:-0.462 109:0.462 110:-0.905 111:-0.762 112:-0.462 113:-0.905 114:0.987 115:-0.762 116:-0.462 117:0 118:-0.462 119:0.462 120:0.762 121:0 122:-0.462 123:-0.762 124:-0.905 125:-0.462 126:-0.762 127:0.462 128:-0.462 129:0 130:0 131:-0.762 132:0 133:-0.462 134:-0.762 135:0 136:-0.762 137:-0.462 138:0.462 139:-0.462 140:0 141:-0.462 142:0.964 143:0.462 144:-0.762 145:-0.905 146:-0.462 147:-0.762 148:-0.462 149:-0.462 150:-0.905 151:-0.905 152:0 153:-0.964 154:-0.905 155:0.964 156:-0.905 157:0.762 158:0.462 159:-0.905 160:-0.905 161:-0.905 162:-0.905 163:-0.762 164:-0.462 165:0.905 166:-0.905 167:-0.462 168:-0.462 169:-0.462 170:-0.905 171:0 172:0.762 173:-0.905 174:-0.762 175:0 176:-0.905 177:0.462 178:-0.762 179:0 180:0 181:-0.462 182:0.987 183:0.462 184:0 185:-0.462 186:-0.762 187:-0.762 188:-0.462 189:-0.462 190:-0.462 191:-0.905 192:-0.462 193:0.462 194:-0.905 195:-0.762 196:-0.462 197:-0.905 198:0.987 199:-0.762 200:-0.462 201:0 202:-0.462 203:0.462 204:0.762 205:0 206:-0.462 207:-0.762 208:-0.905 209:-0.462 210:-0.762 211:-0.462 212:-0.462 213:-0.462 214:-0.462 215:-0.462 216:-0.462 217:-0.462 218:-0.462 219:-0.462 220:-0.462 221:-0.462 222:-0.462 223:-0.462 224:-0.462 225:-0.462 226:-0.462 227:-0.462 228:-0.462 229:-0.462 230:-0.462 231:-0.462 232:0.566 233:0.206 234:-0.226 235:0.766 236:-0.059 237:0.089 238:0.594 239:-0.214 240:-0.139 
-0.9347572310313943 1:-0.1 2:-0.61 3:0.077 4:-0.077 5:-0.76 6:-0.077 7:-0.154 8:-0.76 9:-0.077 10:-0.76 11:-0.562 12:0.486 13:-0.562 14:-0.077 15:-0.308 16:0.559 17:0.154 18:-0.76 19:-0.851 20:-0.462 21:-0.712 22:-0.762 23:-0.762 24:-0.905 25:-0.905 26:0.995 27:-0.905 28:-0.462 29:0 30:-0.905 31:0 32:0 33:-0.905 34:-0.964 35:-0.905 36:-0.905 37:-0.762 38:-0.762 39:-0.462 40:0.462 41:-0.462 42:0.905 43:-0.762 44:-0.762 45:-0.905 46:-0.762 47:0.905 48:-0.905 49:0.762 50:-0.462 51:-0.762 52:-0.462 53:-0.462 54:-0.762 55:-0.905 56:-0.462 57:-0.762 58:-0.762 59:-0.762 60:-0.462 61:0.762 62:-0.462 63:0.998 64:-0.762 65:-0.762 66:-0.905 67:-0.762 68:0.905 69:-0.905 70:0.762 71:-0.462 72:-0.762 73:-0.462 74:-0.462 75:-0.762 76:-0.905 77:-0.462 78:-0.762 79:-0.762 80:-0.762 81:-0.462 82:0.762 83:-0.462 84:0.998 85:-0.462 86:-0.462 87:-0.905 88:-0.762 89:0 90:-0.905 91:-0.762 92:0.462 93:-0.462 94:0.762 95:0.987 96:-0.762 97:-0.762 98:0 99:-0.462 100:-0.462 101:-0.462 102:0.462 103:-0.462 104:-0.462 105:-0.462 106:-0.462 107:-0.905 108:-0.462 109:0.462 110:-0.905 111:-0.762 112:-0.462 113:-0.905 114:0.987 115:-0.762 116:-0.462 117:0 118:-0.462 119:0.462 120:0.762 121:0 122:-0.462 123:-0.762 124:-0.905 125:-0.462 126:-0.762 127:0 128:-0.905 129:-0.462 130:-0.762 131:-0.905 132:0.995 133:-0.762 134:-0.964 135:-0.762 136:-0.964 137:-0.905 138:0 139:-0.762 140:-0.762 141:-0.762 142:0 143:-0.762 144:-0.905 145:-0.762 146:-0.462 147:-0.905 148:0 149:-0.905 150:-0.462 151:-0.762 152:-0.905 153:0.995 154:-0.762 155:-0.964 156:-0.762 157:-0.964 158:-0.905 159:0 160:-0.762 161:-0.762 162:-0.762 163:0 164:-0.762 165:-0.905 166:-0.762 167:-0.462 168:-0.905 169:0 170:-0.462 171:-0.905 172:-0.762 173:-0.462 174:-0.905 175:-0.905 176:0.905 177:-0.762 178:0.462 179:0.462 180:-0.905 181:-0.762 182:-0.762 183:-0.905 184:-0.762 185:0 186:0.964 187:-0.905 188:-0.462 189:-0.462 190:-0.762 191:-0.905 192:0.462 193:0 194:-0.905 195:0 196:0.462 197:-0.905 198:0 199:-0.905 200:-0.762 201:0.995 202:-0.762 203:0 204:0 205:0.462 206:0 207:-0.905 208:-0.964 209:-0.462 210:-0.762 211:-0.331 212:-0.562 213:-0.693 214:-0.683 215:-0.049 216:-0.843 217:-0.686 218:-0.104 219:-0.66 220:-0.07 221:-0.104 222:-0.452 223:-0.703 224:-0.66 225:-0.66 226:-0.15 227:0.162 228:-0.077 229:-0.354 230:-0.462 231:-0.156 232:1 233:-0.457 234:0.279 235:0.766 236:-0.059 237:-0.087 238:-0.185 239:-0.342 240:0.324 
0.1305131399488885 1:0.308 2:-0.462 3:-0.161 4:-0.151 5:-0.635 6:-0.161 7:-0.536 8:-0.508 9:-0.127 10:-0.474 11:-0.258 12:0.234 13:-0.536 14:-0.127 15:-0.512 16:0.676 17:0.308 18:-0.558 19:-0.881 20:-0.462 21:-0.712 22:-0.462 23:-0.462 24:-0.964 25:-0.905 26:0 27:-0.964 28:-0.905 29:0.762 30:-0.762 31:0.964 32:0.762 33:-0.905 34:-0.905 35:-0.762 36:-0.762 37:-0.762 38:-0.462 39:0.462 40:-0.762 41:-0.462 42:-0.462 43:-0.462 44:-0.905 45:-0.762 46:0 47:-0.905 48:-0.762 49:0 50:-0.905 51:0.762 52:-0.762 53:-0.462 54:0 55:-0.762 56:0.462 57:0.987 58:-0.462 59:-0.462 60:-0.905 61:-0.905 62:-0.462 63:-0.762 64:-0.762 65:-0.905 66:0.462 67:0 68:-0.905 69:0 70:0.462 71:-0.905 72:0 73:-0.905 74:-0.762 75:0.995 76:-0.762 77:0 78:0 79:0.462 80:0 81:-0.905 82:-0.964 83:-0.462 84:-0.762 85:-0.462 86:-0.462 87:-0.964 88:-0.905 89:0 90:-0.964 91:-0.905 92:0.762 93:-0.762 94:0.964 95:0.762 96:-0.905 97:-0.905 98:-0.762 99:-0.762 100:-0.762 101:-0.462 102:0.462 103:-0.762 104:-0.462 105:-0.462 106:0 107:1 108:-0.905 109:-0.964 110:-0.762 111:-0.905 112:-0.905 113:-0.462 114:-0.905 115:-0.462 116:-0.462 117:-0.905 118:-0.905 119:-0.905 120:-0.905 121:-0.462 122:-0.462 123:-0.462 124:-0.762 125:-0.462 126:-0.762 127:-0.462 128:-0.964 129:0.762 130:0.987 131:-0.905 132:-0.762 133:0 134:-0.905 135:0.462 136:-0.905 137:-0.762 138:0 139:-0.462 140:0.762 141:0 142:0 143:-0.462 144:-0.762 145:-0.905 146:-0.462 147:-0.762 148:-0.462 149:-0.462 150:-0.964 151:-0.905 152:0 153:-0.964 154:-0.905 155:0.762 156:-0.762 157:0.964 158:0.762 159:-0.905 160:-0.905 161:-0.762 162:-0.762 163:-0.762 164:-0.462 165:0.462 166:-0.762 167:-0.462 168:-0.462 169:-0.462 170:-0.462 171:-0.964 172:-0.905 173:0 174:-0.964 175:-0.905 176:0.762 177:-0.762 178:0.964 179:0.762 180:-0.905 181:-0.905 182:-0.762 183:-0.762 184:-0.762 185:-0.462 186:0.462 187:-0.762 188:-0.462 189:-0.462 190:0 191:-0.905 192:-0.462 193:-0.762 194:-0.905 195:0.995 196:-0.762 197:-0.964 198:-0.762 199:-0.964 200:-0.905 201:0 202:-0.762 203:-0.762 204:-0.762 205:0 206:-0.762 207:-0.905 208:-0.762 209:-0.462 210:-0.905 211:-0.231 212:-0.462 213:-0.683 214:-0.612 215:-0.462 216:-0.683 217:-0.683 218:0.222 219:-0.612 220:0 221:0 222:-0.683 223:-0.612 224:-0.612 225:-0.683 226:-0.612 227:-0.231 228:0.251 229:-0.683 230:-0.462 231:-0.462 232:0.566 233:-0.05 234:0.134 235:0.491 236:-0.122 237:-0.33 238:0.284 239:-0.323 240:0.041 
-2 1:0.151 2:-0.452 3:-0.227 4:-0.104 5:-0.833 6:-0.127 7:-0.227 8:-0.683 9:-0.154 10:-0.66 11:-0.485 12:-0.049 13:-0.562 14:-0.067 15:-0.154 16:0.385 17:-0.077 18:-0.429 19:-0.901 20:-0.462 21:-0.712 22:-0.762 23:-0.762 24:-0.905 25:-0.762 26:0.905 27:-0.905 28:0.762 29:-0.462 30:-0.762 31:-0.462 32:-0.462 33:-0.762 34:-0.905 35:-0.462 36:-0.762 37:-0.762 38:-0.762 39:-0.462 40:0.762 41:-0.462 42:0.998 43:-0.462 44:-0.905 45:-0.462 46:0.462 47:-0.905 48:-0.762 49:-0.462 50:-0.905 51:0.987 52:-0.762 53:-0.462 54:0 55:-0.462 56:0.462 57:0.762 58:0 59:-0.462 60:-0.762 61:-0.905 62:-0.462 63:-0.762 64:-0.462 65:-0.905 66:0 67:0.762 68:-0.905 69:-0.762 70:0 71:-0.905 72:0.462 73:-0.762 74:0 75:0 76:-0.462 77:0.987 78:0.462 79:0 80:-0.462 81:-0.762 82:-0.762 83:-0.462 84:-0.462 85:-0.462 86:-0.462 87:-0.905 88:-0.762 89:0 90:-0.905 91:-0.762 92:0.462 93:-0.462 94:0.762 95:0.987 96:-0.762 97:-0.762 98:0 99:-0.462 100:-0.462 101:-0.462 102:0.462 103:-0.462 104:-0.462 105:-0.462 106:-0.462 107:-0.462 108:-0.905 109:-0.905 110:0 111:-0.964 112:-0.905 113:0.964 114:-0.905 115:0.762 116:0.462 117:-0.905 118:-0.905 119:-0.905 120:-0.905 121:-0.762 122:-0.462 123:0.905 124:-0.905 125:-0.462 126:-0.462 127:-0.462 128:-0.905 129:-0.462 130:0.462 131:-0.905 132:-0.762 133:-0.462 134:-0.905 135:0.987 136:-0.762 137:-0.462 138:0 139:-0.462 140:0.462 141:0.762 142:0 143:-0.462 144:-0.762 145:-0.905 146:-0.462 147:-0.762 148:0.462 149:-0.462 150:0 151:0 152:-0.762 153:0 154:-0.462 155:-0.762 156:0 157:-0.762 158:-0.462 159:0.462 160:-0.462 161:0 162:-0.462 163:0.964 164:0.462 165:-0.762 166:-0.905 167:-0.462 168:-0.762 169:-0.462 170:-0.905 171:-0.762 172:0 173:-0.905 174:-0.762 175:0 176:-0.905 177:0.762 178:-0.762 179:-0.462 180:0 181:-0.762 182:0.462 183:0.987 184:-0.462 185:-0.462 186:-0.905 187:-0.905 188:-0.462 189:-0.762 190:0 191:-0.462 192:-0.462 193:-0.462 194:-0.762 195:-0.762 196:-0.762 197:-0.462 198:-0.462 199:-0.462 200:-0.462 201:0 202:-0.462 203:-0.462 204:-0.462 205:0.462 206:0.987 207:0 208:-0.762 209:-0.462 210:-0.762 211:-0.462 212:-0.462 213:-0.713 214:-0.683 215:-0.231 216:-0.713 217:-0.683 218:0.15 219:-0.612 220:0.251 221:0.15 222:-0.683 223:-0.683 224:-0.612 225:-0.612 226:-0.612 227:-0.462 228:0 229:-0.612 230:-0.462 231:-0.462 232:0.892 233:0.26 234:-0.306 235:0.766 236:-0.169 237:-0.238 238:0.121 239:-0.438 240:0.168 
-0.4131397683338672 1:-0.462 2:-0.713 3:0.15 4:0.263 5:-0.683 6:-0.612 7:-0.231 8:-0.683 9:0 10:-0.683 11:-0.612 12:-0.231 13:-0.462 14:0.15 15:-0.231 16:-0.231 17:-0.462 18:-0.612 19:-0.683 20:-0.462 21:-0.612 22:-0.762 23:-0.762 24:-0.905 25:-0.905 26:0.995 27:-0.905 28:-0.462 29:0 30:-0.905 31:0 32:0 33:-0.905 34:-0.964 35:-0.905 36:-0.905 37:-0.762 38:-0.762 39:-0.462 40:0.462 41:-0.462 42:0.905 43:-0.462 44:-0.905 45:-0.762 46:0 47:-0.905 48:-0.762 49:0 50:-0.905 51:0.762 52:-0.762 53:-0.462 54:0 55:-0.762 56:0.462 57:0.987 58:-0.462 59:-0.462 60:-0.905 61:-0.905 62:-0.462 63:-0.762 64:-0.762 65:-0.905 66:0.462 67:0 68:-0.905 69:0 70:0.462 71:-0.905 72:0 73:-0.905 74:-0.762 75:0.995 76:-0.762 77:0 78:0 79:0.462 80:0 81:-0.905 82:-0.964 83:-0.462 84:-0.762 85:-0.762 86:-0.905 87:0.995 88:0.762 89:-0.905 90:-0.462 91:-0.462 92:-0.905 93:-0.462 94:-0.964 95:-0.905 96:0.462 97:-0.462 98:0 99:-0.762 100:0 101:-0.462 102:-0.905 103:-0.964 104:-0.462 105:-0.905 106:-0.905 107:-0.762 108:-0.964 109:-0.905 110:0.462 111:-0.762 112:-0.762 113:-0.905 114:-0.905 115:-0.762 116:-0.462 117:-0.964 118:-0.964 119:-0.762 120:-0.905 121:-0.905 122:-0.762 123:-0.905 124:1 125:-0.462 126:0.762 127:-0.462 128:-0.462 129:-0.905 130:-0.905 131:0 132:-0.964 133:-0.905 134:0.964 135:-0.905 136:0.762 137:0.462 138:-0.905 139:-0.905 140:-0.905 141:-0.905 142:-0.762 143:-0.462 144:0.905 145:-0.905 146:-0.462 147:-0.462 148:-0.462 149:-0.462 150:-0.964 151:-0.905 152:0 153:-0.964 154:-0.905 155:0.762 156:-0.762 157:0.964 158:0.762 159:-0.905 160:-0.905 161:-0.762 162:-0.762 163:-0.762 164:-0.462 165:0.462 166:-0.762 167:-0.462 168:-0.462 169:-0.462 170:-0.964 171:0.762 172:0.987 173:-0.905 174:-0.762 175:0 176:-0.905 177:0.462 178:-0.905 179:-0.762 180:0 181:-0.462 182:0.762 183:0 184:0 185:-0.462 186:-0.762 187:-0.905 188:-0.462 189:-0.762 190:0.462 191:-0.462 192:0 193:0 194:-0.762 195:0 196:-0.462 197:-0.762 198:0 199:-0.762 200:-0.462 201:0.462 202:-0.462 203:0 204:-0.462 205:0.964 206:0.462 207:-0.762 208:-0.905 209:-0.462 210:-0.762 211:-0.712 212:-0.831 213:0.183 214:0.23 215:-0.607 216:-0.646 217:-0.049 218:-0.627 219:-0.512 220:-0.623 221:-0.58 222:0.234 223:-0.636 224:-0.127 225:-0.508 226:-0.281 227:-0.562 228:-0.677 229:-0.863 230:-0.462 231:-0.276 232:1 233:-0.05 234:0.134 235:0.036 236:-0.339 237:0.024 238:0.284 239:-0.461 240:0.16 
2 1:-0.462 2:-0.683 3:-0.61 4:-0.61 5:-0.559 6:-0.779 7:-0.76 8:-0.208 9:-0.61 10:-0.276 11:-0.304 12:-0.76 13:0.12 14:-0.61 15:-0.76 16:-0.562 17:-0.462 18:-0.156 19:-0.861 20:-0.462 21:-0.683 22:-0.462 23:-0.462 24:-0.905 25:-0.905 26:0 27:-0.964 28:-0.905 29:0.964 30:-0.905 31:0.762 32:0.462 33:-0.905 34:-0.905 35:-0.905 36:-0.905 37:-0.762 38:-0.462 39:0.905 40:-0.905 41:-0.462 42:-0.462 43:-0.462 44:-0.905 45:0 46:0.762 47:-0.905 48:-0.762 49:0 50:-0.905 51:0.462 52:-0.762 53:0 54:0 55:-0.462 56:0.987 57:0.462 58:0 59:-0.462 60:-0.762 61:-0.762 62:-0.462 63:-0.462 64:-0.462 65:-0.462 66:-0.964 67:-0.905 68:0 69:-0.964 70:-0.905 71:0.762 72:-0.762 73:0.964 74:0.762 75:-0.905 76:-0.905 77:-0.762 78:-0.762 79:-0.762 80:-0.462 81:0.462 82:-0.762 83:-0.462 84:-0.462 85:-0.462 86:-0.462 87:-0.964 88:-0.905 89:0 90:-0.964 91:-0.905 92:0.762 93:-0.762 94:0.964 95:0.762 96:-0.905 97:-0.905 98:-0.762 99:-0.762 100:-0.762 101:-0.462 102:0.462 103:-0.762 104:-0.462 105:-0.462 106:-0.462 107:-0.905 108:-0.462 109:-0.462 110:-0.964 111:-0.762 112:-0.762 113:-0.905 114:-0.462 115:-0.905 116:-0.762 117:-0.762 118:0.998 119:-0.462 120:-0.762 121:-0.462 122:-0.462 123:-0.762 124:-0.964 125:-0.462 126:-0.905 127:-0.762 128:-0.905 129:0.462 130:0 131:-0.905 132:0 133:0.462 134:-0.905 135:0 136:-0.905 137:-0.762 138:0.995 139:-0.762 140:0 141:0 142:0.462 143:0 144:-0.905 145:-0.964 146:-0.462 147:-0.762 148:0 149:-0.462 150:-0.462 151:-0.462 152:-0.762 153:-0.762 154:-0.762 155:-0.462 156:-0.462 157:-0.462 158:-0.462 159:0 160:-0.462 161:-0.462 162:-0.462 163:0.462 164:0.987 165:0 166:-0.762 167:-0.462 168:-0.762 169:-0.462 170:-0.462 171:-0.964 172:-0.905 173:0 174:-0.964 175:-0.905 176:0.762 177:-0.762 178:0.964 179:0.762 180:-0.905 181:-0.905 182:-0.762 183:-0.762 184:-0.762 185:-0.462 186:0.462 187:-0.762 188:-0.462 189:-0.462 190:0 191:-0.462 192:-0.905 193:-0.762 194:-0.462 195:-0.905 196:-0.905 197:0.905 198:-0.762 199:0.462 200:0.462 201:-0.905 202:-0.762 203:-0.762 204:-0.905 205:-0.762 206:0 207:0.964 208:-0.905 209:-0.462 210:-0.462 211:-0.374 212:-0.683 213:-0.58 214:-0.276 215:0.069 216:-0.707 217:-0.358 218:-0.379 219:-0.376 220:-0.331 221:-0.077 222:-0.58 223:-0.713 224:-0.201 225:-0.376 226:-0.304 227:-0.535 228:-0.485 229:-0.174 230:-0.462 231:0.171 232:0.696 233:-0.139 234:0.266 235:0.491 236:-0.485 237:0.292 238:0.294 239:-0.323 240:0.025 
2 1:-0.231 2:-0.462 3:-0.683 4:-0.612 5:-0.462 6:-0.683 7:-0.683 8:0.222 9:-0.612 10:0 11:0 12:-0.683 13:-0.612 14:-0.612 15:-0.683 16:-0.612 17:-0.231 18:0.251 19:-0.683 20:-0.462 21:-0.462 22:0.462 23:-0.462 24:0 25:0 26:-0.762 27:0 28:-0.462 29:-0.762 30:0 31:-0.762 32:-0.462 33:0.462 34:-0.462 35:0 36:-0.462 37:0.964 38:0.462 39:-0.762 40:-0.905 41:-0.462 42:-0.762 43:-0.462 44:-0.462 45:-0.964 46:-0.905 47:0 48:-0.964 49:-0.905 50:0.762 51:-0.762 52:0.964 53:0.762 54:-0.905 55:-0.905 56:-0.762 57:-0.762 58:-0.762 59:-0.462 60:0.462 61:-0.762 62:-0.462 63:-0.462 64:-0.462 65:-0.462 66:-0.905 67:-0.905 68:0 69:-0.964 70:-0.905 71:0.964 72:-0.905 73:0.762 74:0.462 75:-0.905 76:-0.905 77:-0.905 78:-0.905 79:-0.762 80:-0.462 81:0.905 82:-0.905 83:-0.462 84:-0.462 85:0.964 86:0 87:-0.762 88:-0.462 89:-0.762 90:0 91:-0.762 92:-0.462 93:-0.462 94:-0.462 95:-0.462 96:-0.762 97:-0.462 98:-0.462 99:-0.462 100:0.462 101:0 102:0 103:-0.905 104:-0.462 105:-0.762 106:0.964 107:0 108:-0.762 109:-0.462 110:-0.762 111:0 112:-0.762 113:-0.462 114:-0.462 115:-0.462 116:-0.462 117:-0.762 118:-0.462 119:-0.462 120:-0.462 121:0.462 122:0 123:0 124:-0.905 125:-0.462 126:-0.762 127:-0.462 128:-0.462 129:-0.964 130:-0.905 131:0 132:-0.964 133:-0.905 134:0.762 135:-0.762 136:0.964 137:0.762 138:-0.905 139:-0.905 140:-0.762 141:-0.762 142:-0.762 143:-0.462 144:0.462 145:-0.762 146:-0.462 147:-0.462 148:-0.462 149:-0.905 150:-0.462 151:0.462 152:-0.905 153:-0.762 154:-0.462 155:-0.905 156:0.987 157:-0.762 158:-0.462 159:0 160:-0.462 161:0.462 162:0.762 163:0 164:-0.462 165:-0.762 166:-0.905 167:-0.462 168:-0.762 169:0 170:-0.905 171:-0.462 172:-0.762 173:-0.905 174:0.995 175:-0.762 176:-0.964 177:-0.762 178:-0.964 179:-0.905 180:0 181:-0.762 182:-0.762 183:-0.762 184:0 185:-0.762 186:-0.905 187:-0.762 188:-0.462 189:-0.905 190:-0.462 191:-0.462 192:-0.905 193:-0.762 194:0 195:-0.905 196:-0.762 197:0.462 198:-0.462 199:0.762 200:0.987 201:-0.762 202:-0.762 203:0 204:-0.462 205:-0.462 206:-0.462 207:0.462 208:-0.462 209:-0.462 210:-0.462 211:-0.562 212:-0.61 213:-0.459 214:-0.603 215:-0.302 216:-0.643 217:-0.449 218:0.307 219:-0.58 220:0.24 221:0.104 222:-0.272 223:-0.857 224:-0.58 225:-0.58 226:-0.354 227:-0.308 228:0.228 229:-0.901 230:-0.462 231:-0.562 232:-0.021 233:0.043 234:0.38 235:-0.009 236:-0.412 237:-0.013 238:-0.139 239:-0.351 240:-0.118 
-0.5733634234742003 1:-0.562 2:-0.831 3:-0.154 4:0.154 5:-0.831 6:-0.458 7:-0.154 8:-0.831 9:0.416 10:-0.76 11:-0.562 12:0.255 13:-0.562 14:0.154 15:0.304 16:0.077 17:-0.308 18:-0.76 19:-0.851 20:-0.462 21:-0.712 22:0.462 23:-0.462 24:0 25:0 26:-0.762 27:0 28:-0.462 29:-0.762 30:0 31:-0.762 32:-0.462 33:0.462 34:-0.462 35:0 36:-0.462 37:0.964 38:0.462 39:-0.762 40:-0.905 41:-0.462 42:-0.762 43:0.964 44:0 45:-0.762 46:-0.462 47:-0.762 48:0 49:-0.762 50:-0.462 51:-0.462 52:-0.462 53:-0.462 54:-0.762 55:-0.462 56:-0.462 57:-0.462 58:0.462 59:0 60:0 61:-0.905 62:-0.462 63:-0.762 64:-0.762 65:-0.762 66:-0.905 67:-0.905 68:0.995 69:-0.905 70:-0.462 71:0 72:-0.905 73:0 74:0 75:-0.905 76:-0.964 77:-0.905 78:-0.905 79:-0.762 80:-0.762 81:-0.462 82:0.462 83:-0.462 84:0.905 85:-0.462 86:-0.905 87:0 88:0.762 89:-0.905 90:-0.762 91:0 92:-0.905 93:0.462 94:-0.762 95:0 96:0 97:-0.462 98:0.987 99:0.462 100:0 101:-0.462 102:-0.762 103:-0.762 104:-0.462 105:-0.462 106:0.462 107:-0.462 108:0 109:0 110:-0.762 111:0 112:-0.462 113:-0.762 114:0 115:-0.762 116:-0.462 117:0.462 118:-0.462 119:0 120:-0.462 121:0.964 122:0.462 123:-0.762 124:-0.905 125:-0.462 126:-0.762 127:0.462 128:-0.462 129:0 130:0 131:-0.762 132:0 133:-0.462 134:-0.762 135:0 136:-0.762 137:-0.462 138:0.462 139:-0.462 140:0 141:-0.462 142:0.964 143:0.462 144:-0.762 145:-0.905 146:-0.462 147:-0.762 148:0 149:-0.462 150:-0.905 151:-0.762 152:-0.462 153:-0.905 154:-0.905 155:0.905 156:-0.762 157:0.462 158:0.462 159:-0.905 160:-0.762 161:-0.762 162:-0.905 163:-0.762 164:0 165:0.964 166:-0.905 167:-0.462 168:-0.462 169:0.964 170:0 171:-0.762 172:-0.462 173:-0.762 174:0 175:-0.762 176:-0.462 177:-0.462 178:-0.462 179:-0.462 180:-0.762 181:-0.462 182:-0.462 183:-0.462 184:0.462 185:0 186:0 187:-0.905 188:-0.462 189:-0.762 190:0.462 191:-0.462 192:0 193:0 194:-0.762 195:0 196:-0.462 197:-0.762 198:0 199:-0.762 200:-0.462 201:0.462 202:-0.462 203:0 204:-0.462 205:0.964 206:0.462 207:-0.762 208:-0.905 209:-0.462 210:-0.762 211:-0.331 212:-0.784 213:-0.683 214:-0.833 215:-0.121 216:0.035 217:-0.686 218:-0.321 219:-0.833 220:-0.355 221:-0.376 222:-0.452 223:-0.853 224:-0.833 225:-0.833 226:-0.381 227:-0.712 228:-0.456 229:-0.378 230:-0.462 231:-0.228 232:-0.021 233:-0.267 234:0.395 235:0.11 236:-0.306 237:0.089 238:0.378 239:-0.33 240:0.16 
-1.88007258935026 1:-0.562 2:-0.934 3:0.408 4:0.493 5:-0.905 6:-0.508 7:0.154 8:-0.905 9:0.358 10:-0.881 11:-0.712 12:0.332 13:-0.612 14:0.458 15:0.164 16:0.077 17:-0.308 18:-0.833 19:-0.925 20:-0.462 21:-0.762 22:-0.905 23:-0.762 24:-0.964 25:-0.905 26:0.462 27:-0.762 28:-0.762 29:-0.905 30:-0.905 31:-0.762 32:-0.462 33:-0.964 34:-0.964 35:-0.762 36:-0.905 37:-0.905 38:-0.762 39:-0.905 40:1 41:-0.462 42:0.762 43:-0.462 44:-0.462 45:-0.905 46:-0.905 47:0 48:-0.964 49:-0.905 50:0.964 51:-0.905 52:0.762 53:0.462 54:-0.905 55:-0.905 56:-0.905 57:-0.905 58:-0.762 59:-0.462 60:0.905 61:-0.905 62:-0.462 63:-0.462 64:-0.462 65:-0.462 66:-0.964 67:-0.905 68:0 69:-0.964 70:-0.905 71:0.762 72:-0.762 73:0.964 74:0.762 75:-0.905 76:-0.905 77:-0.762 78:-0.762 79:-0.762 80:-0.462 81:0.462 82:-0.762 83:-0.462 84:-0.462 85:-0.462 86:-0.964 87:0.762 88:0.987 89:-0.905 90:-0.762 91:0 92:-0.905 93:0.462 94:-0.905 95:-0.762 96:0 97:-0.462 98:0.762 99:0 100:0 101:-0.462 102:-0.762 103:-0.905 104:-0.462 105:-0.762 106:0.462 107:-0.462 108:0 109:0 110:-0.762 111:0 112:-0.462 113:-0.762 114:0 115:-0.762 116:-0.462 117:0.462 118:-0.462 119:0 120:-0.462 121:0.964 122:0.462 123:-0.762 124:-0.905 125:-0.462 126:-0.762 127:-0.762 128:-0.905 129:0.995 130:0.762 131:-0.905 132:-0.462 133:-0.462 134:-0.905 135:-0.462 136:-0.964 137:-0.905 138:0.462 139:-0.462 140:0 141:-0.762 142:0 143:-0.462 144:-0.905 145:-0.964 146:-0.462 147:-0.905 148:-0.762 149:-0.905 150:-0.462 151:0 152:-0.462 153:-0.762 154:0.999 155:-0.905 156:-0.462 157:-0.905 158:-0.762 159:0.462 160:-0.762 161:0 162:0 163:-0.462 164:-0.762 165:-0.905 166:-0.762 167:-0.462 168:0.762 169:-0.462 170:-0.462 171:-0.964 172:-0.905 173:0 174:-0.964 175:-0.905 176:0.762 177:-0.762 178:0.964 179:0.762 180:-0.905 181:-0.905 182:-0.762 183:-0.762 184:-0.762 185:-0.462 186:0.462 187:-0.762 188:-0.462 189:-0.462 190:-0.462 191:-0.462 192:-0.905 193:-0.905 194:0 195:-0.964 196:-0.905 197:0.964 198:-0.905 199:0.762 200:0.462 201:-0.905 202:-0.905 203:-0.905 204:-0.905 205:-0.762 206:-0.462 207:0.905 208:-0.905 209:-0.462 210:-0.462 211:0.251 212:-0.398 213:-0.278 214:-0.029 215:-0.683 216:-0.405 217:-0.508 218:-0.456 219:-0.154 220:-0.406 221:-0.321 222:-0.508 223:-0.512 224:0.023 225:-0.308 226:0.154 227:-0.231 228:-0.177 229:-0.831 230:-0.462 231:-0.712 232:0.787 233:0.224 234:0.266 235:0.082 236:-0.306 237:-0.415 238:-0.639 239:-0.323 240:-0.031 
-2 1:0.475 2:-0.382 3:-0.331 4:-0.231 5:-0.796 6:-0.127 7:-0.612 8:-0.686 9:-0.231 10:-0.686 11:-0.512 12:-0.15 13:-0.219 14:-0.231 15:-0.512 16:0.559 17:0.154 18:-0.508 19:-0.915 20:-0.462 21:-0.786 22:0.964 23:0 24:-0.762 25:-0.462 26:-0.762 27:0 28:-0.762 29:-0.462 30:-0.462 31:-0.462 32:-0.462 33:-0.762 34:-0.462 35:-0.462 36:-0.462 37:0.462 38:0 39:0 40:-0.905 41:-0.462 42:-0.762 43:-0.462 44:-0.462 45:-0.905 46:-0.905 47:0 48:-0.964 49:-0.905 50:0.964 51:-0.905 52:0.762 53:0.462 54:-0.905 55:-0.905 56:-0.905 57:-0.905 58:-0.762 59:-0.462 60:0.905 61:-0.905 62:-0.462 63:-0.462 64:0 65:-0.462 66:-0.905 67:-0.762 68:-0.462 69:-0.905 70:-0.905 71:0.905 72:-0.762 73:0.462 74:0.462 75:-0.905 76:-0.762 77:-0.762 78:-0.905 79:-0.762 80:0 81:0.964 82:-0.905 83:-0.462 84:-0.462 85:-0.762 86:-0.905 87:0.462 88:0 89:-0.905 90:0 91:0.462 92:-0.905 93:0 94:-0.905 95:-0.762 96:0.995 97:-0.762 98:0 99:0 100:0.462 101:0 102:-0.905 103:-0.964 104:-0.462 105:-0.762 106:-0.762 107:-0.762 108:-0.905 109:-0.905 110:0.995 111:-0.905 112:-0.462 113:0 114:-0.905 115:0 116:0 117:-0.905 118:-0.964 119:-0.905 120:-0.905 121:-0.762 122:-0.762 123:-0.462 124:0.462 125:-0.462 126:0.905 127:0 128:-0.462 129:-0.905 130:-0.762 131:-0.462 132:-0.905 133:-0.905 134:0.905 135:-0.762 136:0.462 137:0.462 138:-0.905 139:-0.762 140:-0.762 141:-0.905 142:-0.762 143:0 144:0.964 145:-0.905 146:-0.462 147:-0.462 148:0.462 149:-0.462 150:0 151:0 152:-0.762 153:0 154:-0.462 155:-0.762 156:0 157:-0.762 158:-0.462 159:0.462 160:-0.462 161:0 162:-0.462 163:0.964 164:0.462 165:-0.762 166:-0.905 167:-0.462 168:-0.762 169:-0.462 170:-0.905 171:-0.462 172:0.462 173:-0.905 174:-0.762 175:-0.462 176:-0.905 177:0.987 178:-0.762 179:-0.462 180:0 181:-0.462 182:0.462 183:0.762 184:0 185:-0.462 186:-0.762 187:-0.905 188:-0.462 189:-0.762 190:0 191:-0.462 192:-0.905 193:-0.762 194:-0.462 195:-0.905 196:-0.905 197:0.905 198:-0.762 199:0.462 200:0.462 201:-0.905 202:-0.762 203:-0.762 204:-0.905 205:-0.762 206:0 207:0.964 208:-0.905 209:-0.462 210:-0.462 211:-0.462 212:-0.462 213:-0.683 214:-0.612 215:-0.231 216:-0.683 217:-0.612 218:0 219:-0.462 220:0.15 221:0.263 222:-0.612 223:-0.612 224:-0.231 225:-0.462 226:-0.462 227:-0.462 228:0 229:-0.462 230:-0.462 231:-0.462 232:-0.208 233:0.224 234:0.124 235:0.134 236:-0.188 237:0.043 238:0.121 239:-0.111 240:0.025 
-2 1:-0.662 2:-0.905 3:-0.562 4:0 5:-0.61 6:-0.762 7:0.666 8:-0.905 9:-0.054 10:-0.857 11:-0.662 12:0.308 13:-0.762 14:0.154 15:0.329 16:-0.462 17:-0.662 18:-0.905 19:-0.81 20:-0.462 21:0.254 22:-0.462 23:-0.462 24:-0.905 25:-0.905 26:0 27:-0.964 28:-0.905 29:0.964 30:-0.905 31:0.762 32:0.462 33:-0.905 34:-0.905 35:-0.905 36:-0.905 37:-0.762 38:-0.462 39:0.905 40:-0.905 41:-0.462 42:-0.462 43:-0.462 44:-0.462 45:-0.905 46:-0.905 47:0 48:-0.964 49:-0.905 50:0.964 51:-0.905 52:0.762 53:0.462 54:-0.905 55:-0.905 56:-0.905 57:-0.905 58:-0.762 59:-0.462 60:0.905 61:-0.905 62:-0.462 63:-0.462 64:0 65:-0.905 66:-0.462 67:-0.762 68:-0.905 69:0.995 70:-0.762 71:-0.964 72:-0.762 73:-0.964 74:-0.905 75:0 76:-0.762 77:-0.762 78:-0.762 79:0 80:-0.762 81:-0.905 82:-0.762 83:-0.462 84:-0.905 85:-0.462 86:-0.964 87:0.762 88:0.987 89:-0.905 90:-0.762 91:0 92:-0.905 93:0.462 94:-0.905 95:-0.762 96:0 97:-0.462 98:0.762 99:0 100:0 101:-0.462 102:-0.762 103:-0.905 104:-0.462 105:-0.762 106:0 107:-0.905 108:-0.462 109:-0.762 110:-0.905 111:0.995 112:-0.762 113:-0.964 114:-0.762 115:-0.964 116:-0.905 117:0 118:-0.762 119:-0.762 120:-0.762 121:0 122:-0.762 123:-0.905 124:-0.762 125:-0.462 126:-0.905 127:0 128:1 129:-0.905 130:-0.964 131:-0.762 132:-0.905 133:-0.905 134:-0.462 135:-0.905 136:-0.462 137:-0.462 138:-0.905 139:-0.905 140:-0.905 141:-0.905 142:-0.462 143:-0.462 144:-0.462 145:-0.762 146:-0.462 147:-0.762 148:-0.462 149:-0.905 150:-0.462 151:-0.462 152:-0.964 153:-0.762 154:-0.762 155:-0.905 156:-0.462 157:-0.905 158:-0.762 159:-0.762 160:0.998 161:-0.462 162:-0.762 163:-0.462 164:-0.462 165:-0.762 166:-0.964 167:-0.462 168:-0.905 169:-0.462 170:-0.905 171:-0.462 172:0.462 173:-0.905 174:-0.762 175:-0.462 176:-0.905 177:0.987 178:-0.762 179:-0.462 180:0 181:-0.462 182:0.462 183:0.762 184:0 185:-0.462 186:-0.762 187:-0.905 188:-0.462 189:-0.762 190:-0.462 191:-0.905 192:-0.462 193:-0.462 194:-0.964 195:-0.762 196:-0.762 197:-0.905 198:-0.462 199:-0.905 200:-0.762 201:-0.762 202:0.998 203:-0.462 204:-0.762 205:-0.462 206:-0.462 207:-0.762 208:-0.964 209:-0.462 210:-0.905 211:-0.612 212:-0.831 213:-0.562 214:-0.077 215:-0.61 216:-0.712 217:0.422 218:-0.831 219:-0.054 220:-0.784 221:-0.612 222:0.154 223:-0.712 224:0.077 225:0.252 226:-0.462 227:-0.612 228:-0.831 229:-0.76 230:-0.462 231:0.05 232:0.696 233:0.224 234:-0.066 235:0.082 236:-0.351 237:0.045 238:0.021 239:-0.111 240:-0.034 
