svm_type nu_svr
kernel_type rbf
gamma 0.0078125
nr_class 2
total_sv 697
rho -0.344664
SV
-0.5 1:-0.612 2:-0.683 3:0.267 4:0.15 5:-0.683 6:-0.462 7:-0.462 8:-0.683 9:-0.462 10:-0.713 11:-0.683 12:0 13:-0.462 14:-0.231 15:-0.612 16:-0.231 17:-0.462 18:-0.683 19:-0.713 20:-0.462 21:-0.683 22:-0.462 23:-0.462 24:-0.905 25:-0.905 26:0 27:-0.964 28:-0.905 29:0.964 30:-0.905 31:0.762 32:0.462 33:-0.905 34:-0.905 35:-0.905 36:-0.905 37:-0.762 38:-0.462 39:0.905 40:-0.905 41:-0.462 42:-0.462 43:-0.762 44:-0.905 45:0.995 46:0.762 47:-0.905 48:-0.462 49:-0.462 50:-0.905 51:-0.462 52:-0.964 53:-0.905 54:0.462 55:-0.462 56:0 57:-0.762 58:0 59:-0.462 60:-0.905 61:-0.964 62:-0.462 63:-0.905 64:-0.462 65:-0.462 66:-0.964 67:-0.905 68:0 69:-0.964 70:-0.905 71:0.762 72:-0.762 73:0.964 74:0.762 75:-0.905 76:-0.905 77:-0.762 78:-0.762 79:-0.762 80:-0.462 81:0.462 82:-0.762 83:-0.462 84:-0.462 85:0 86:-0.905 87:-0.462 88:-0.762 89:-0.905 90:0.995 91:-0.762 92:-0.964 93:-0.762 94:-0.964 95:-0.905 96:0 97:-0.762 98:-0.762 99:-0.762 100:0 101:-0.762 102:-0.905 103:-0.762 104:-0.462 105:-0.905 106:-0.462 107:-0.905 108:-0.762 109:0 110:-0.905 111:-0.762 112:0 113:-0.905 114:0.762 115:-0.762 116:-0.462 117:0 118:-0.762 119:0.462 120:0.987 121:-0.462 122:-0.462 123:-0.905 124:-0.905 125:-0.462 126:-0.762 127:-0.762 128:-0.905 129:0.462 130:0 131:-0.905 132:0 133:0.462 134:-0.905 135:0 136:-0.905 137:-0.762 138:0.995 139:-0.762 140:0 141:0 142:0.462 143:0 144:-0.905 145:-0.964 146:-0.462 147:-0.762 148:-0.462 149:-0.964 150:0.762 151:0.987 152:-0.905 153:-0.762 154:0 155:-0.905 156:0.462 157:-0.905 158:-0.762 159:0 160:-0.462 161:0.762 162:0 163:0 164:-0.462 165:-0.762 166:-0.905 167:-0.462 168:-0.762 169:0 170:-0.462 171:-0.905 172:-0.762 173:-0.462 174:-0.905 175:-0.905 176:0.905 177:-0.762 178:0.462 179:0.462 180:-0.905 181:-0.762 182:-0.762 183:-0.905 184:-0.762 185:0 186:0.964 187:-0.905 188:-0.462 189:-0.462 190:0 191:-0.462 192:-0.905 193:-0.762 194:-0.462 195:-0.905 196:-0.905 197:0.905 198:-0.762 199:0.462 200:0.462 201:-0.905 202:-0.762 203:-0.762 204:-0.905 205:-0.762 206:0 207:0.964 208:-0.905 209:-0.462 210:-0.462 211:-0.635 212:-0.831 213:0.412 214:0.127 215:-0.831 216:-0.305 217:-0.074 218:-0.603 219:-0.281 220:-0.697 221:-0.606 222:0.501 223:-0.662 224:-0.127 225:-0.405 226:0.104 227:-0.154 228:-0.594 229:-0.954 230:-0.462 231:-0.76 232:0.53 233:-0.478 234:-0.064 235:-0.091 236:0.049 237:-0.042 238:0.125 239:-0.252 240:0.306 
-0.5 1:-0.308 2:-0.713 3:0.066 4:0.189 5:-0.707 6:-0.796 7:-0.405 8:-0.48 9:-0.05 10:-0.446 11:-0.408 12:-0.151 13:-0.536 14:0.1 15:-0.281 16:0.027 17:0.021 18:-0.304 19:-0.834 20:-0.462 21:-0.712 22:0 23:-0.462 24:-0.905 25:-0.762 26:-0.462 27:-0.905 28:-0.905 29:0.905 30:-0.762 31:0.462 32:0.462 33:-0.905 34:-0.762 35:-0.762 36:-0.905 37:-0.762 38:0 39:0.964 40:-0.905 41:-0.462 42:-0.462 43:-0.462 44:-0.964 45:0.762 46:0.987 47:-0.905 48:-0.762 49:0 50:-0.905 51:0.462 52:-0.905 53:-0.762 54:0 55:-0.462 56:0.762 57:0 58:0 59:-0.462 60:-0.762 61:-0.905 62:-0.462 63:-0.762 64:0 65:-0.462 66:-0.462 67:-0.462 68:-0.762 69:-0.762 70:-0.762 71:-0.462 72:-0.462 73:-0.462 74:-0.462 75:0 76:-0.462 77:-0.462 78:-0.462 79:0.462 80:0.987 81:0 82:-0.762 83:-0.462 84:-0.762 85:-0.762 86:-0.762 87:-0.905 88:-0.762 89:0.905 90:-0.905 91:0.762 92:-0.462 93:-0.762 94:-0.462 95:-0.462 96:-0.762 97:-0.905 98:-0.462 99:-0.762 100:-0.762 101:-0.762 102:-0.462 103:0.762 104:-0.462 105:0.998 106:0 107:-0.462 108:-0.905 109:-0.762 110:-0.462 111:-0.905 112:-0.905 113:0.905 114:-0.762 115:0.462 116:0.462 117:-0.905 118:-0.762 119:-0.762 120:-0.905 121:-0.762 122:0 123:0.964 124:-0.905 125:-0.462 126:-0.462 127:-0.462 128:-0.462 129:-0.964 130:-0.905 131:0 132:-0.964 133:-0.905 134:0.762 135:-0.762 136:0.964 137:0.762 138:-0.905 139:-0.905 140:-0.762 141:-0.762 142:-0.762 143:-0.462 144:0.462 145:-0.762 146:-0.462 147:-0.462 148:0.462 149:-0.462 150:0 151:0 152:-0.762 153:0 154:-0.462 155:-0.762 156:0 157:-0.762 158:-0.462 159:0.462 160:-0.462 161:0 162:-0.462 163:0.964 164:0.462 165:-0.762 166:-0.905 167:-0.462 168:-0.762 169:-0.462 170:-0.462 171:-0.905 172:-0.905 173:0 174:-0.964 175:-0.905 176:0.964 177:-0.905 178:0.762 179:0.462 180:-0.905 181:-0.905 182:-0.905 183:-0.905 184:-0.762 185:-0.462 186:0.905 187:-0.905 188:-0.462 189:-0.462 190:-0.462 191:-0.462 192:-0.905 193:-0.905 194:0 195:-0.964 196:-0.905 197:0.964 198:-0.905 199:0.762 200:0.462 201:-0.905 202:-0.905 203:-0.905 204:-0.905 205:-0.762 206:-0.462 207:0.905 208:-0.905 209:-0.462 210:-0.462 211:-0.462 212:-0.462 213:-0.462 214:-0.462 215:-0.462 216:-0.462 217:-0.462 218:-0.462 219:-0.462 220:-0.462 221:-0.462 222:-0.462 223:-0.462 224:-0.462 225:-0.462 226:-0.462 227:-0.462 228:-0.462 229:-0.462 230:-0.462 231:-0.462 232:0.331 233:-0.532 234:-0.126 235:0.589 236:-0.005 237:-0.508 238:-0.074 239:-0.188 240:0.519 
0.3189669074262569 1:-0.612 2:-0.683 3:0 4:-0.231 5:-0.683 6:-0.231 7:0 8:-0.683 9:-0.231 10:-0.683 11:-0.612 12:0.267 13:-0.612 14:-0.231 15:-0.231 16:0 17:-0.231 18:-0.683 19:-0.713 20:-0.462 21:-0.612 22:-0.462 23:-0.462 24:-0.905 25:-0.905 26:0 27:-0.964 28:-0.905 29:0.964 30:-0.905 31:0.762 32:0.462 33:-0.905 34:-0.905 35:-0.905 36:-0.905 37:-0.762 38:-0.462 39:0.905 40:-0.905 41:-0.462 42:-0.462 43:-0.462 44:-0.905 45:-0.762 46:0 47:-0.905 48:-0.762 49:0 50:-0.905 51:0.762 52:-0.762 53:-0.462 54:0 55:-0.762 56:0.462 57:0.987 58:-0.462 59:-0.462 60:-0.905 61:-0.905 62:-0.462 63:-0.762 64:-0.762 65:-0.762 66:-0.905 67:-0.762 68:0.905 69:-0.905 70:0.762 71:-0.462 72:-0.762 73:-0.462 74:-0.462 75:-0.762 76:-0.905 77:-0.462 78:-0.762 79:-0.762 80:-0.762 81:-0.462 82:0.762 83:-0.462 84:0.998 85:-0.462 86:-0.462 87:-0.964 88:-0.905 89:0 90:-0.964 91:-0.905 92:0.762 93:-0.762 94:0.964 95:0.762 96:-0.905 97:-0.905 98:-0.762 99:-0.762 100:-0.762 101:-0.462 102:0.462 103:-0.762 104:-0.462 105:-0.462 106:0 107:-0.462 108:-0.905 109:-0.762 110:-0.462 111:-0.905 112:-0.905 113:0.905 114:-0.762 115:0.462 116:0.462 117:-0.905 118:-0.762 119:-0.762 120:-0.905 121:-0.762 122:0 123:0.964 124:-0.905 125:-0.462 126:-0.462 127:-0.462 128:-0.462 129:-0.905 130:-0.762 131:0 132:-0.905 133:-0.762 134:0.462 135:-0.462 136:0.762 137:0.987 138:-0.762 139:-0.762 140:0 141:-0.462 142:-0.462 143:-0.462 144:0.462 145:-0.462 146:-0.462 147:-0.462 148:0.964 149:0 150:-0.762 151:-0.462 152:-0.762 153:0 154:-0.762 155:-0.462 156:-0.462 157:-0.462 158:-0.462 159:-0.762 160:-0.462 161:-0.462 162:-0.462 163:0.462 164:0 165:0 166:-0.905 167:-0.462 168:-0.762 169:-0.462 170:-0.462 171:-0.905 172:-0.905 173:0 174:-0.964 175:-0.905 176:0.964 177:-0.905 178:0.762 179:0.462 180:-0.905 181:-0.905 182:-0.905 183:-0.905 184:-0.762 185:-0.462 186:0.905 187:-0.905 188:-0.462 189:-0.462 190:0 191:-0.462 192:-0.905 193:-0.762 194:-0.462 195:-0.905 196:-0.905 197:0.905 198:-0.762 199:0.462 200:0.462 201:-0.905 202:-0.762 203:-0.762 204:-0.905 205:-0.762 206:0 207:0.964 208:-0.905 209:-0.462 210:-0.462 211:-0.15 212:-0.66 213:0.181 214:0.103 215:-0.517 216:-0.305 217:-0.462 218:-0.683 219:-0.305 220:-0.702 221:-0.533 222:0.234 223:-0.546 224:-0.151 225:-0.636 226:0.355 227:-0.05 228:-0.76 229:-0.697 230:-0.462 231:-0.532 232:0.53 233:-0.286 234:0.102 235:0.665 236:-0.005 237:-0.375 238:0.001 239:-0.188 240:0.306 
-0.1083777003214655 1:-0.462 2:-0.905 3:-0.462 4:0.462 5:-0.905 6:-0.762 7:-0.462 8:-0.905 9:0.987 10:-0.762 11:-0.462 12:0 13:-0.462 14:0.462 15:0.762 16:0 17:-0.462 18:-0.762 19:-0.905 20:-0.462 21:-0.762 22:-0.762 23:-0.905 24:0.995 25:0.762 26:-0.905 27:-0.462 28:-0.462 29:-0.905 30:-0.462 31:-0.964 32:-0.905 33:0.462 34:-0.462 35:0 36:-0.762 37:0 38:-0.462 39:-0.905 40:-0.964 41:-0.462 42:-0.905 43:-0.462 44:-0.905 45:-0.462 46:0.462 47:-0.905 48:-0.762 49:-0.462 50:-0.905 51:0.987 52:-0.762 53:-0.462 54:0 55:-0.462 56:0.462 57:0.762 58:0 59:-0.462 60:-0.762 61:-0.905 62:-0.462 63:-0.762 64:-0.762 65:-0.905 66:0.995 67:0.762 68:-0.905 69:-0.462 70:-0.462 71:-0.905 72:-0.462 73:-0.964 74:-0.905 75:0.462 76:-0.462 77:0 78:-0.762 79:0 80:-0.462 81:-0.905 82:-0.964 83:-0.462 84:-0.905 85:-0.462 86:-0.462 87:-0.905 88:-0.905 89:0 90:-0.964 91:-0.905 92:0.964 93:-0.905 94:0.762 95:0.462 96:-0.905 97:-0.905 98:-0.905 99:-0.905 100:-0.762 101:-0.462 102:0.905 103:-0.905 104:-0.462 105:-0.462 106:-0.462 107:-0.905 108:-0.462 109:-0.462 110:-0.964 111:-0.762 112:-0.762 113:-0.905 114:-0.462 115:-0.905 116:-0.762 117:-0.762 118:0.998 119:-0.462 120:-0.762 121:-0.462 122:-0.462 123:-0.762 124:-0.964 125:-0.462 126:-0.905 127:-0.462 128:-0.905 129:0 130:0.762 131:-0.905 132:-0.762 133:0 134:-0.905 135:0.462 136:-0.762 137:0 138:0 139:-0.462 140:0.987 141:0.462 142:0 143:-0.462 144:-0.762 145:-0.762 146:-0.462 147:-0.462 148:0.462 149:-0.462 150:0 151:0 152:-0.762 153:0 154:-0.462 155:-0.762 156:0 157:-0.762 158:-0.462 159:0.462 160:-0.462 161:0 162:-0.462 163:0.964 164:0.462 165:-0.762 166:-0.905 167:-0.462 168:-0.762 169:0.462 170:-0.462 171:0 172:0 173:-0.762 174:0 175:-0.462 176:-0.762 177:0 178:-0.762 179:-0.462 180:0.462 181:-0.462 182:0 183:-0.462 184:0.964 185:0.462 186:-0.762 187:-0.905 188:-0.462 189:-0.762 190:-0.462 191:-0.964 192:0.762 193:0.987 194:-0.905 195:-0.762 196:0 197:-0.905 198:0.462 199:-0.905 200:-0.762 201:0 202:-0.462 203:0.762 204:0 205:0 206:-0.462 207:-0.762 208:-0.905 209:-0.462 210:-0.762 211:-0.462 212:-0.462 213:-0.462 214:-0.462 215:-0.462 216:-0.462 217:-0.462 218:-0.462 219:-0.462 220:-0.462 221:-0.462 222:-0.462 223:-0.462 224:-0.462 225:-0.462 226:-0.462 227:-0.462 228:-0.462 229:-0.462 230:-0.462 231:-0.462 232:-0.093 233:-0.005 234:-0.282 235:1 236:-0.724 237:-0.414 238:-0.074 239:-0.29 240:-0.532 
0.5 1:-0.458 2:-0.612 3:-0.754 4:-0.754 5:0.37 6:-0.774 7:-0.61 8:0.194 9:-0.754 10:0.127 11:0.077 12:-0.677 13:-0.861 14:-0.754 15:-0.831 16:-0.474 17:-0.458 18:-0.056 19:-0.221 20:-0.462 21:0.171 22:-0.462 23:-0.462 24:-0.905 25:-0.905 26:0 27:-0.964 28:-0.905 29:0.964 30:-0.905 31:0.762 32:0.462 33:-0.905 34:-0.905 35:-0.905 36:-0.905 37:-0.762 38:-0.462 39:0.905 40:-0.905 41:-0.462 42:-0.462 43:-0.762 44:-0.905 45:0.462 46:0 47:-0.905 48:0 49:0.462 50:-0.905 51:0 52:-0.905 53:-0.762 54:0.995 55:-0.762 56:0 57:0 58:0.462 59:0 60:-0.905 61:-0.964 62:-0.462 63:-0.762 64:-0.462 65:-0.905 66:-0.462 67:0.462 68:-0.905 69:-0.762 70:-0.462 71:-0.905 72:0.987 73:-0.762 74:-0.462 75:0 76:-0.462 77:0.462 78:0.762 79:0 80:-0.462 81:-0.762 82:-0.905 83:-0.462 84:-0.762 85:-0.462 86:-0.462 87:-0.964 88:-0.905 89:0 90:-0.964 91:-0.905 92:0.762 93:-0.762 94:0.964 95:0.762 96:-0.905 97:-0.905 98:-0.762 99:-0.762 100:-0.762 101:-0.462 102:0.462 103:-0.762 104:-0.462 105:-0.462 106:-0.762 107:-0.905 108:0.462 109:0 110:-0.905 111:0 112:0.462 113:-0.905 114:0 115:-0.905 116:-0.762 117:0.995 118:-0.762 119:0 120:0 121:0.462 122:0 123:-0.905 124:-0.964 125:-0.462 126:-0.762 127:0 128:-0.905 129:-0.462 130:-0.762 131:-0.905 132:0.995 133:-0.762 134:-0.964 135:-0.762 136:-0.964 137:-0.905 138:0 139:-0.762 140:-0.762 141:-0.762 142:0 143:-0.762 144:-0.905 145:-0.762 146:-0.462 147:-0.905 148:0.964 149:0 150:-0.762 151:-0.462 152:-0.762 153:0 154:-0.762 155:-0.462 156:-0.462 157:-0.462 158:-0.462 159:-0.762 160:-0.462 161:-0.462 162:-0.462 163:0.462 164:0 165:0 166:-0.905 167:-0.462 168:-0.762 169:-0.462 170:-0.462 171:-0.905 172:-0.762 173:0 174:-0.905 175:-0.762 176:0.462 177:-0.462 178:0.762 179:0.987 180:-0.762 181:-0.762 182:0 183:-0.462 184:-0.462 185:-0.462 186:0.462 187:-0.462 188:-0.462 189:-0.462 190:0 191:-0.462 192:-0.905 193:-0.762 194:-0.462 195:-0.905 196:-0.905 197:0.905 198:-0.762 199:0.462 200:0.462 201:-0.905 202:-0.762 203:-0.762 204:-0.905 205:-0.762 206:0 207:0.964 208:-0.905 209:-0.462 210:-0.462 211:-0.462 212:-0.713 213:0.15 214:0.263 215:-0.683 216:-0.612 217:-0.231 218:-0.683 219:0 220:-0.683 221:-0.612 222:-0.231 223:-0.462 224:0.15 225:-0.231 226:-0.231 227:-0.462 228:-0.612 229:-0.683 230:-0.462 231:-0.612 232:0.53 233:0.039 234:0.044 235:0.665 236:-0.196 237:-0.402 238:0.001 239:-0.236 240:0.306 
-0.5 1:-0.462 2:-0.713 3:0.15 4:0.263 5:-0.683 6:-0.612 7:-0.231 8:-0.683 9:0 10:-0.683 11:-0.612 12:-0.231 13:-0.462 14:0.15 15:-0.231 16:-0.231 17:-0.462 18:-0.612 19:-0.683 20:-0.462 21:-0.612 22:-0.462 23:-0.905 24:0 25:0.762 26:-0.905 27:-0.762 28:0 29:-0.905 30:0.462 31:-0.762 32:0 33:0 34:-0.462 35:0.987 36:0.462 37:0 38:-0.462 39:-0.762 40:-0.762 41:-0.462 42:-0.462 43:0.964 44:0 45:-0.762 46:-0.462 47:-0.762 48:0 49:-0.762 50:-0.462 51:-0.462 52:-0.462 53:-0.462 54:-0.762 55:-0.462 56:-0.462 57:-0.462 58:0.462 59:0 60:0 61:-0.905 62:-0.462 63:-0.762 64:-0.462 65:-0.905 66:-0.762 67:0 68:-0.905 69:-0.762 70:0 71:-0.905 72:0.762 73:-0.762 74:-0.462 75:0 76:-0.762 77:0.462 78:0.987 79:-0.462 80:-0.462 81:-0.905 82:-0.905 83:-0.462 84:-0.762 85:-0.462 86:-0.905 87:-0.462 88:0.462 89:-0.905 90:-0.762 91:-0.462 92:-0.905 93:0.987 94:-0.762 95:-0.462 96:0 97:-0.462 98:0.462 99:0.762 100:0 101:-0.462 102:-0.762 103:-0.905 104:-0.462 105:-0.762 106:-0.762 107:-0.762 108:-0.905 109:-0.905 110:0.995 111:-0.905 112:-0.462 113:0 114:-0.905 115:0 116:0 117:-0.905 118:-0.964 119:-0.905 120:-0.905 121:-0.762 122:-0.762 123:-0.462 124:0.462 125:-0.462 126:0.905 127:-0.462 128:-0.964 129:0.762 130:0.987 131:-0.905 132:-0.762 133:0 134:-0.905 135:0.462 136:-0.905 137:-0.762 138:0 139:-0.462 140:0.762 141:0 142:0 143:-0.462 144:-0.762 145:-0.905 146:-0.462 147:-0.762 148:-0.462 149:-0.964 150:0.762 151:0.987 152:-0.905 153:-0.762 154:0 155:-0.905 156:0.462 157:-0.905 158:-0.762 159:0 160:-0.462 161:0.762 162:0 163:0 164:-0.462 165:-0.762 166:-0.905 167:-0.462 168:-0.762 169:-0.462 170:-0.905 171:-0.462 172:-0.462 173:-0.964 174:-0.762 175:-0.762 176:-0.905 177:-0.462 178:-0.905 179:-0.762 180:-0.762 181:0.998 182:-0.462 183:-0.762 184:-0.462 185:-0.462 186:-0.762 187:-0.964 188:-0.462 189:-0.905 190:-0.462 191:-0.462 192:-0.905 193:-0.905 194:0 195:-0.964 196:-0.905 197:0.964 198:-0.905 199:0.762 200:0.462 201:-0.905 202:-0.905 203:-0.905 204:-0.905 205:-0.762 206:-0.462 207:0.905 208:-0.905 209:-0.462 210:-0.462 211:-0.425 212:-0.686 213:-0.316 214:-0.326 215:-0.174 216:-0.458 217:-0.612 218:-0.857 219:-0.529 220:-0.796 221:-0.536 222:-0.251 223:-0.713 224:-0.381 225:-0.734 226:-0.131 227:-0.304 228:-0.857 229:0.038 230:-0.462 231:-0.024 232:-0.488 233:-0.431 234:-0.441 235:-0.058 236:-0.055 237:-0.596 238:0.125 239:-0.103 240:0.519 
-0.285595349103184 1:-0.462 2:-0.462 3:-0.713 4:-0.683 5:-0.231 6:-0.713 7:-0.683 8:0.15 9:-0.612 10:0.251 11:0.15 12:-0.683 13:-0.683 14:-0.612 15:-0.612 16:-0.612 17:-0.462 18:0 19:-0.612 20:-0.462 21:-0.462 22:0 23:-0.905 24:-0.462 25:-0.762 26:-0.905 27:0.995 28:-0.762 29:-0.964 30:-0.762 31:-0.964 32:-0.905 33:0 34:-0.762 35:-0.762 36:-0.762 37:0 38:-0.762 39:-0.905 40:-0.762 41:-0.462 42:-0.905 43:-0.762 44:-0.905 45:0.462 46:0 47:-0.905 48:0 49:0.462 50:-0.905 51:0 52:-0.905 53:-0.762 54:0.995 55:-0.762 56:0 57:0 58:0.462 59:0 60:-0.905 61:-0.964 62:-0.462 63:-0.762 64:0 65:-0.462 66:-0.905 67:-0.762 68:-0.462 69:-0.905 70:-0.905 71:0.905 72:-0.762 73:0.462 74:0.462 75:-0.905 76:-0.762 77:-0.762 78:-0.905 79:-0.762 80:0 81:0.964 82:-0.905 83:-0.462 84:-0.462 85:-0.462 86:-0.462 87:-0.964 88:-0.905 89:0 90:-0.964 91:-0.905 92:0.762 93:-0.762 94:0.964 95:0.762 96:-0.905 97:-0.905 98:-0.762 99:-0.762 100:-0.762 101:-0.462 102:0.462 103:-0.762 104:-0.462 105:-0.462 106:-0.462 107:-0.462 108:-0.905 109:-0.905 110:0 111:-0.964 112:-0.905 113:0.964 114:-0.905 115:0.762 116:0.462 117:-0.905 118:-0.905 119:-0.905 120:-0.905 121:-0.762 122:-0.462 123:0.905 124:-0.905 125:-0.462 126:-0.462 127:-0.762 128:-0.905 129:0.462 130:0 131:-0.905 132:0 133:0.462 134:-0.905 135:0 136:-0.905 137:-0.762 138:0.995 139:-0.762 140:0 141:0 142:0.462 143:0 144:-0.905 145:-0.964 146:-0.462 147:-0.762 148:-0.462 149:-0.964 150:0.762 151:0.987 152:-0.905 153:-0.762 154:0 155:-0.905 156:0.462 157:-0.905 158:-0.762 159:0 160:-0.462 161:0.762 162:0 163:0 164:-0.462 165:-0.762 166:-0.905 167:-0.462 168:-0.762 169:0.462 170:-0.462 171:0 172:0 173:-0.762 174:0 175:-0.462 176:-0.762 177:0 178:-0.762 179:-0.462 180:0.462 181:-0.462 182:0 183:-0.462 184:0.964 185:0.462 186:-0.762 187:-0.905 188:-0.462 189:-0.762 190:-0.762 191:-0.762 192:-0.905 193:-0.905 194:0.995 195:-0.905 196:-0.462 197:0 198:-0.905 199:0 200:0 201:-0.905 202:-0.964 203:-0.905 204:-0.905 205:-0.762 206:-0.762 207:-0.462 208:0.462 209:-0.462 210:0.905 211:-0.077 212:-0.767 213:-0.406 214:-0.471 215:-0.757 216:0.069 217:-0.683 218:-0.331 219:-0.558 220:-0.479 221:-0.425 222:-0.302 223:-0.712 224:-0.508 225:-0.683 226:-0.254 227:-0.458 228:-0.258 229:-0.833 230:-0.462 231:-0.734 232:-0.118 233:0.039 234:-0.144 235:0.665 236:0.009 237:-0.042 238:0.125 239:-0.29 240:0.183 
-0.3502014308281921 1:0.251 2:-0.379 3:-0.696 4:-0.536 5:-0.702 6:-0.415 7:-0.786 8:-0.406 9:-0.512 10:-0.372 11:-0.358 12:-0.786 13:-0.049 14:-0.512 15:-0.612 16:-0.05 17:-0.231 18:-0.177 19:-0.901 20:-0.462 21:-0.76 22:-0.762 23:-0.905 24:0.995 25:0.762 26:-0.905 27:-0.462 28:-0.462 29:-0.905 30:-0.462 31:-0.964 32:-0.905 33:0.462 34:-0.462 35:0 36:-0.762 37:0 38:-0.462 39:-0.905 40:-0.964 41:-0.462 42:-0.905 43:-0.462 44:-0.462 45:-0.964 46:-0.905 47:0 48:-0.964 49:-0.905 50:0.762 51:-0.762 52:0.964 53:0.762 54:-0.905 55:-0.905 56:-0.762 57:-0.762 58:-0.762 59:-0.462 60:0.462 61:-0.762 62:-0.462 63:-0.462 64:-0.462 65:-0.462 66:-0.905 67:-0.762 68:0 69:-0.905 70:-0.762 71:0.462 72:-0.462 73:0.762 74:0.987 75:-0.762 76:-0.762 77:0 78:-0.462 79:-0.462 80:-0.462 81:0.462 82:-0.462 83:-0.462 84:-0.462 85:-0.462 86:-0.462 87:-0.905 88:-0.905 89:0 90:-0.964 91:-0.905 92:0.964 93:-0.905 94:0.762 95:0.462 96:-0.905 97:-0.905 98:-0.905 99:-0.905 100:-0.762 101:-0.462 102:0.905 103:-0.905 104:-0.462 105:-0.462 106:-0.462 107:-0.905 108:-0.762 109:0 110:-0.905 111:-0.762 112:0 113:-0.905 114:0.762 115:-0.762 116:-0.462 117:0 118:-0.762 119:0.462 120:0.987 121:-0.462 122:-0.462 123:-0.905 124:-0.905 125:-0.462 126:-0.762 127:-0.462 128:-0.462 129:-0.905 130:-0.905 131:0 132:-0.964 133:-0.905 134:0.964 135:-0.905 136:0.762 137:0.462 138:-0.905 139:-0.905 140:-0.905 141:-0.905 142:-0.762 143:-0.462 144:0.905 145:-0.905 146:-0.462 147:-0.462 148:-0.462 149:-0.462 150:-0.905 151:-0.905 152:0 153:-0.964 154:-0.905 155:0.964 156:-0.905 157:0.762 158:0.462 159:-0.905 160:-0.905 161:-0.905 162:-0.905 163:-0.762 164:-0.462 165:0.905 166:-0.905 167:-0.462 168:-0.462 169:0.964 170:0 171:-0.762 172:-0.462 173:-0.762 174:0 175:-0.762 176:-0.462 177:-0.462 178:-0.462 179:-0.462 180:-0.762 181:-0.462 182:-0.462 183:-0.462 184:0.462 185:0 186:0 187:-0.905 188:-0.462 189:-0.762 190:-0.462 191:-0.905 192:0 193:0.762 194:-0.905 195:-0.762 196:0 197:-0.905 198:0.462 199:-0.762 200:0 201:0 202:-0.462 203:0.987 204:0.462 205:0 206:-0.462 207:-0.762 208:-0.762 209:-0.462 210:-0.462 211:-0.231 212:-0.905 213:-0.462 214:-0.458 215:-0.925 216:0.116 217:-0.712 218:-0.934 219:-0.371 220:-0.911 221:-0.784 222:-0.254 223:-0.125 224:-0.458 225:-0.508 226:-0.154 227:-0.612 228:-0.834 229:-0.853 230:-0.462 231:-0.881 232:-0.093 233:-0.596 234:0.035 235:1 236:0.049 237:-0.141 238:-0.099 239:-0.261 240:-0.577 
0.147511411568779 1:-0.462 2:-0.462 3:-0.462 4:-0.462 5:-0.462 6:-0.462 7:-0.462 8:-0.462 9:-0.462 10:-0.462 11:-0.462 12:-0.462 13:-0.462 14:-0.462 15:-0.462 16:-0.462 17:-0.462 18:-0.462 19:-0.462 20:-0.462 21:-0.462 22:-0.462 23:-0.905 24:-0.762 25:0 26:-0.905 27:-0.762 28:0 29:-0.905 30:0.762 31:-0.762 32:-0.462 33:0 34:-0.762 35:0.462 36:0.987 37:-0.462 38:-0.462 39:-0.905 40:-0.905 41:-0.462 42:-0.762 43:-0.762 44:-0.905 45:0.995 46:0.762 47:-0.905 48:-0.462 49:-0.462 50:-0.905 51:-0.462 52:-0.964 53:-0.905 54:0.462 55:-0.462 56:0 57:-0.762 58:0 59:-0.462 60:-0.905 61:-0.964 62:-0.462 63:-0.905 64:0 65:1 66:-0.905 67:-0.964 68:-0.762 69:-0.905 70:-0.905 71:-0.462 72:-0.905 73:-0.462 74:-0.462 75:-0.905 76:-0.905 77:-0.905 78:-0.905 79:-0.462 80:-0.462 81:-0.462 82:-0.762 83:-0.462 84:-0.762 85:-0.462 86:-0.462 87:-0.964 88:-0.905 89:0 90:-0.964 91:-0.905 92:0.762 93:-0.762 94:0.964 95:0.762 96:-0.905 97:-0.905 98:-0.762 99:-0.762 100:-0.762 101:-0.462 102:0.462 103:-0.762 104:-0.462 105:-0.462 106:-0.462 107:-0.462 108:-0.905 109:-0.905 110:0 111:-0.964 112:-0.905 113:0.964 114:-0.905 115:0.762 116:0.462 117:-0.905 118:-0.905 119:-0.905 120:-0.905 121:-0.762 122:-0.462 123:0.905 124:-0.905 125:-0.462 126:-0.462 127:0.964 128:0 129:-0.762 130:-0.462 131:-0.762 132:0 133:-0.762 134:-0.462 135:-0.462 136:-0.462 137:-0.462 138:-0.762 139:-0.462 140:-0.462 141:-0.462 142:0.462 143:0 144:0 145:-0.905 146:-0.462 147:-0.762 148:-0.762 149:-0.905 150:-0.462 151:0 152:-0.462 153:-0.762 154:0.999 155:-0.905 156:-0.462 157:-0.905 158:-0.762 159:0.462 160:-0.762 161:0 162:0 163:-0.462 164:-0.762 165:-0.905 166:-0.762 167:-0.462 168:0.762 169:0 170:-0.905 171:-0.462 172:-0.762 173:-0.905 174:0.995 175:-0.762 176:-0.964 177:-0.762 178:-0.964 179:-0.905 180:0 181:-0.762 182:-0.762 183:-0.762 184:0 185:-0.762 186:-0.905 187:-0.762 188:-0.462 189:-0.905 190:0.964 191:0 192:-0.762 193:-0.462 194:-0.762 195:0 196:-0.762 197:-0.462 198:-0.462 199:-0.462 200:-0.462 201:-0.762 202:-0.462 203:-0.462 204:-0.462 205:0.462 206:0 207:0 208:-0.905 209:-0.462 210:-0.762 211:0.228 212:-0.379 213:-0.304 214:-0.308 215:-0.81 216:-0.127 217:-0.354 218:-0.61 219:-0.308 220:-0.61 221:-0.562 222:-0.049 223:-0.562 224:-0.308 225:-0.308 226:0.462 227:0.164 228:-0.302 229:-0.901 230:-0.462 231:-0.762 232:-0.136 233:-0.478 234:-0.468 235:0.665 236:0.009 237:-0.167 238:-0.406 239:-0.145 240:0.223 
-0.1385061830551145 1:-0.562 2:-0.784 3:-0.379 4:0.002 5:-0.198 6:-0.76 7:-0.231 8:-0.529 9:-0.148 10:-0.458 11:-0.077 12:-0.379 13:-0.629 14:0.115 15:-0.148 16:-0.331 17:-0.562 18:-0.612 19:-0.304 20:-0.462 21:-0.006 22:-0.462 23:-0.905 24:-0.462 25:0.462 26:-0.905 27:-0.762 28:-0.462 29:-0.905 30:0.987 31:-0.762 32:-0.462 33:0 34:-0.462 35:0.462 36:0.762 37:0 38:-0.462 39:-0.762 40:-0.905 41:-0.462 42:-0.762 43:0 44:-0.462 45:-0.462 46:-0.462 47:-0.762 48:-0.762 49:-0.762 50:-0.462 51:-0.462 52:-0.462 53:-0.462 54:0 55:-0.462 56:-0.462 57:-0.462 58:0.462 59:0.987 60:0 61:-0.762 62:-0.462 63:-0.762 64:-0.462 65:-0.462 66:-0.905 67:-0.905 68:0 69:-0.964 70:-0.905 71:0.964 72:-0.905 73:0.762 74:0.462 75:-0.905 76:-0.905 77:-0.905 78:-0.905 79:-0.762 80:-0.462 81:0.905 82:-0.905 83:-0.462 84:-0.462 85:-0.462 86:-0.462 87:-0.964 88:-0.905 89:0 90:-0.964 91:-0.905 92:0.762 93:-0.762 94:0.964 95:0.762 96:-0.905 97:-0.905 98:-0.762 99:-0.762 100:-0.762 101:-0.462 102:0.462 103:-0.762 104:-0.462 105:-0.462 106:-0.462 107:-0.905 108:-0.462 109:0.462 110:-0.905 111:-0.762 112:-0.462 113:-0.905 114:0.987 115:-0.762 116:-0.462 117:0 118:-0.462 119:0.462 120:0.762 121:0 122:-0.462 123:-0.762 124:-0.905 125:-0.462 126:-0.762 127:0.964 128:0 129:-0.762 130:-0.462 131:-0.762 132:0 133:-0.762 134:-0.462 135:-0.462 136:-0.462 137:-0.462 138:-0.762 139:-0.462 140:-0.462 141:-0.462 142:0.462 143:0 144:0 145:-0.905 146:-0.462 147:-0.762 148:0 149:-0.462 150:-0.462 151:-0.462 152:-0.762 153:-0.762 154:-0.762 155:-0.462 156:-0.462 157:-0.462 158:-0.462 159:0 160:-0.462 161:-0.462 162:-0.462 163:0.462 164:0.987 165:0 166:-0.762 167:-0.462 168:-0.762 169:0 170:-0.462 171:-0.462 172:-0.462 173:-0.762 174:-0.762 175:-0.762 176:-0.462 177:-0.462 178:-0.462 179:-0.462 180:0 181:-0.462 182:-0.462 183:-0.462 184:0.462 185:0.987 186:0 187:-0.762 188:-0.462 189:-0.762 190:0.964 191:0 192:-0.762 193:-0.462 194:-0.762 195:0 196:-0.762 197:-0.462 198:-0.462 199:-0.462 200:-0.462 201:-0.762 202:-0.462 203:-0.462 204:-0.462 205:0.462 206:0 207:0 208:-0.905 209:-0.462 210:-0.762 211:-0.512 212:-0.683 213:-0.47 214:-0.171 215:-0.452 216:-0.813 217:-0.683 218:-0.071 219:-0.129 220:0.067 221:0.076 222:-0.376 223:-0.683 224:-0.227 225:-0.254 226:-0.381 227:-0.462 228:-0.174 229:-0.843 230:-0.462 231:-0.636 232:0.166 233:-0.397 234:0.194 235:0.665 236:0.217 237:-0.167 238:-0.004 239:-0.243 240:0.223 
0.5 1:-0.712 2:-0.857 3:-0.61 4:-0.225 5:-0.05 6:-0.81 7:0.269 8:-0.603 9:-0.368 10:-0.58 11:-0.458 12:-0.071 13:-0.779 14:-0.225 15:-0.175 16:-0.485 17:-0.712 18:-0.734 19:-0.378 20:-0.462 21:0.556 22:-0.462 23:-0.462 24:-0.905 25:-0.905 26:0 27:-0.964 28:-0.905 29:0.964 30:-0.905 31:0.762 32:0.462 33:-0.905 34:-0.905 35:-0.905 36:-0.905 37:-0.762 38:-0.462 39:0.905 40:-0.905 41:-0.462 42:-0.462 43:-0.462 44:-0.905 45:-0.762 46:0 47:-0.905 48:-0.762 49:0 50:-0.905 51:0.762 52:-0.762 53:-0.462 54:0 55:-0.762 56:0.462 57:0.987 58:-0.462 59:-0.462 60:-0.905 61:-0.905 62:-0.462 63:-0.762 64:-0.462 65:-0.462 66:-0.964 67:-0.905 68:0 69:-0.964 70:-0.905 71:0.762 72:-0.762 73:0.964 74:0.762 75:-0.905 76:-0.905 77:-0.762 78:-0.762 79:-0.762 80:-0.462 81:0.462 82:-0.762 83:-0.462 84:-0.462 85:-0.462 86:-0.462 87:-0.905 88:-0.905 89:0 90:-0.964 91:-0.905 92:0.964 93:-0.905 94:0.762 95:0.462 96:-0.905 97:-0.905 98:-0.905 99:-0.905 100:-0.762 101:-0.462 102:0.905 103:-0.905 104:-0.462 105:-0.462 106:-0.462 107:-0.905 108:-0.462 109:0.462 110:-0.905 111:-0.762 112:-0.462 113:-0.905 114:0.987 115:-0.762 116:-0.462 117:0 118:-0.462 119:0.462 120:0.762 121:0 122:-0.462 123:-0.762 124:-0.905 125:-0.462 126:-0.762 127:0 128:-0.905 129:-0.462 130:-0.762 131:-0.905 132:0.995 133:-0.762 134:-0.964 135:-0.762 136:-0.964 137:-0.905 138:0 139:-0.762 140:-0.762 141:-0.762 142:0 143:-0.762 144:-0.905 145:-0.762 146:-0.462 147:-0.905 148:-0.462 149:-0.964 150:0.762 151:0.987 152:-0.905 153:-0.762 154:0 155:-0.905 156:0.462 157:-0.905 158:-0.762 159:0 160:-0.462 161:0.762 162:0 163:0 164:-0.462 165:-0.762 166:-0.905 167:-0.462 168:-0.762 169:-0.462 170:-0.462 171:-0.964 172:-0.905 173:0 174:-0.964 175:-0.905 176:0.762 177:-0.762 178:0.964 179:0.762 180:-0.905 181:-0.905 182:-0.762 183:-0.762 184:-0.762 185:-0.462 186:0.462 187:-0.762 188:-0.462 189:-0.462 190:0.462 191:-0.462 192:0 193:0 194:-0.762 195:0 196:-0.462 197:-0.762 198:0 199:-0.762 200:-0.462 201:0.462 202:-0.462 203:0 204:-0.462 205:0.964 206:0.462 207:-0.762 208:-0.905 209:-0.462 210:-0.762 211:-0.612 212:-0.683 213:0 214:-0.231 215:-0.683 216:-0.231 217:0 218:-0.683 219:-0.231 220:-0.683 221:-0.612 222:0.267 223:-0.612 224:-0.231 225:-0.231 226:0 227:-0.231 228:-0.683 229:-0.713 230:-0.462 231:-0.612 232:0.53 233:-0.286 234:-0.064 235:1 236:0.217 237:-0.402 238:0.125 239:-0.339 240:0.089 
-0.5 1:-0.458 2:-0.831 3:-0.546 4:-0.405 5:-0.533 6:-0.21 7:0.095 8:-0.647 9:-0.612 10:-0.613 11:-0.556 12:0.08 13:-0.786 14:-0.381 15:-0.381 16:-0.358 17:-0.712 18:-0.677 19:-0.762 20:-0.462 21:0.002 22:-0.462 23:-0.905 24:-0.762 25:0 26:-0.905 27:-0.762 28:0 29:-0.905 30:0.762 31:-0.762 32:-0.462 33:0 34:-0.762 35:0.462 36:0.987 37:-0.462 38:-0.462 39:-0.905 40:-0.905 41:-0.462 42:-0.762 43:-0.762 44:-0.905 45:0.995 46:0.762 47:-0.905 48:-0.462 49:-0.462 50:-0.905 51:-0.462 52:-0.964 53:-0.905 54:0.462 55:-0.462 56:0 57:-0.762 58:0 59:-0.462 60:-0.905 61:-0.964 62:-0.462 63:-0.905 64:0.964 65:0 66:-0.762 67:-0.462 68:-0.762 69:0 70:-0.762 71:-0.462 72:-0.462 73:-0.462 74:-0.462 75:-0.762 76:-0.462 77:-0.462 78:-0.462 79:0.462 80:0 81:0 82:-0.905 83:-0.462 84:-0.762 85:-0.462 86:-0.462 87:-0.964 88:-0.905 89:0 90:-0.964 91:-0.905 92:0.762 93:-0.762 94:0.964 95:0.762 96:-0.905 97:-0.905 98:-0.762 99:-0.762 100:-0.762 101:-0.462 102:0.462 103:-0.762 104:-0.462 105:-0.462 106:-0.462 107:-0.964 108:0.762 109:0.987 110:-0.905 111:-0.762 112:0 113:-0.905 114:0.462 115:-0.905 116:-0.762 117:0 118:-0.462 119:0.762 120:0 121:0 122:-0.462 123:-0.762 124:-0.905 125:-0.462 126:-0.762 127:-0.762 128:-0.905 129:0.995 130:0.762 131:-0.905 132:-0.462 133:-0.462 134:-0.905 135:-0.462 136:-0.964 137:-0.905 138:0.462 139:-0.462 140:0 141:-0.762 142:0 143:-0.462 144:-0.905 145:-0.964 146:-0.462 147:-0.905 148:-0.762 149:-0.905 150:0.995 151:0.762 152:-0.905 153:-0.462 154:-0.462 155:-0.905 156:-0.462 157:-0.964 158:-0.905 159:0.462 160:-0.462 161:0 162:-0.762 163:0 164:-0.462 165:-0.905 166:-0.964 167:-0.462 168:-0.905 169:-0.462 170:-0.462 171:-0.964 172:-0.905 173:0 174:-0.964 175:-0.905 176:0.762 177:-0.762 178:0.964 179:0.762 180:-0.905 181:-0.905 182:-0.762 183:-0.762 184:-0.762 185:-0.462 186:0.462 187:-0.762 188:-0.462 189:-0.462 190:-0.462 191:-0.462 192:-0.964 193:-0.905 194:0 195:-0.964 196:-0.905 197:0.762 198:-0.762 199:0.964 200:0.762 201:-0.905 202:-0.905 203:-0.762 204:-0.762 205:-0.762 206:-0.462 207:0.462 208:-0.762 209:-0.462 210:-0.462 211:-0.662 212:-0.905 213:0.054 214:0 215:-0.905 216:-0.254 217:0.308 218:-0.905 219:0.254 220:-0.857 221:-0.662 222:0.663 223:-0.762 224:0.154 225:0.329 226:0.154 227:-0.154 228:-0.905 229:-0.944 230:-0.462 231:-0.762 232:-0.136 233:-0.478 234:-0.027 235:0.665 236:-0.377 237:-0.675 238:0.213 239:-0.339 240:0.295 
0.5 1:-0.154 2:-0.462 3:-0.559 4:-0.529 5:-0.331 6:-0.559 7:-0.683 8:0.05 9:-0.458 10:0.151 11:0.15 12:-0.376 13:-0.683 14:-0.458 15:-0.612 16:-0.137 17:-0.154 18:-0.1 19:-0.76 20:-0.462 21:-0.562 22:-0.462 23:-0.462 24:-0.905 25:-0.905 26:0 27:-0.964 28:-0.905 29:0.964 30:-0.905 31:0.762 32:0.462 33:-0.905 34:-0.905 35:-0.905 36:-0.905 37:-0.762 38:-0.462 39:0.905 40:-0.905 41:-0.462 42:-0.462 43:-0.762 44:-0.905 45:0.462 46:0 47:-0.905 48:0 49:0.462 50:-0.905 51:0 52:-0.905 53:-0.762 54:0.995 55:-0.762 56:0 57:0 58:0.462 59:0 60:-0.905 61:-0.964 62:-0.462 63:-0.762 64:0.462 65:-0.462 66:0 67:0 68:-0.762 69:0 70:-0.462 71:-0.762 72:0 73:-0.762 74:-0.462 75:0.462 76:-0.462 77:0 78:-0.462 79:0.964 80:0.462 81:-0.762 82:-0.905 83:-0.462 84:-0.762 85:-0.462 86:-0.462 87:-0.905 88:-0.762 89:0 90:-0.905 91:-0.762 92:0.462 93:-0.462 94:0.762 95:0.987 96:-0.762 97:-0.762 98:0 99:-0.462 100:-0.462 101:-0.462 102:0.462 103:-0.462 104:-0.462 105:-0.462 106:-0.462 107:-0.905 108:-0.462 109:0.462 110:-0.905 111:-0.762 112:-0.462 113:-0.905 114:0.987 115:-0.762 116:-0.462 117:0 118:-0.462 119:0.462 120:0.762 121:0 122:-0.462 123:-0.762 124:-0.905 125:-0.462 126:-0.762 127:0 128:-0.462 129:-0.462 130:-0.462 131:-0.762 132:-0.762 133:-0.762 134:-0.462 135:-0.462 136:-0.462 137:-0.462 138:0 139:-0.462 140:-0.462 141:-0.462 142:0.462 143:0.987 144:0 145:-0.762 146:-0.462 147:-0.762 148:0.462 149:-0.462 150:0 151:0 152:-0.762 153:0 154:-0.462 155:-0.762 156:0 157:-0.762 158:-0.462 159:0.462 160:-0.462 161:0 162:-0.462 163:0.964 164:0.462 165:-0.762 166:-0.905 167:-0.462 168:-0.762 169:-0.762 170:-0.762 171:-0.905 172:-0.905 173:0.995 174:-0.905 175:-0.462 176:0 177:-0.905 178:0 179:0 180:-0.905 181:-0.964 182:-0.905 183:-0.905 184:-0.762 185:-0.762 186:-0.462 187:0.462 188:-0.462 189:0.905 190:0.462 191:-0.462 192:0 193:0 194:-0.762 195:0 196:-0.462 197:-0.762 198:0 199:-0.762 200:-0.462 201:0.462 202:-0.462 203:0 204:-0.462 205:0.964 206:0.462 207:-0.762 208:-0.905 209:-0.462 210:-0.762 211:0 212:-0.61 213:-0.415 214:-0.151 215:-0.683 216:-0.415 217:-0.382 218:-0.556 219:0.127 220:-0.474 221:-0.258 222:0.08 223:-0.636 224:0.027 225:-0.029 226:0.201 227:0 228:-0.606 229:-0.881 230:-0.462 231:-0.712 232:0.53 233:0.039 234:-0.201 235:0.904 236:0.217 237:-0.397 238:-0.074 239:-0.545 240:0.089 
0.09209104797666405 1:-0.712 2:-0.843 3:0.006 4:-0.034 5:0.045 6:-0.734 7:-0.385 8:-0.452 9:-0.529 10:-0.472 11:-0.429 12:-0.298 13:-0.713 14:-0.326 15:-0.707 16:-0.381 17:-0.612 18:-0.66 19:-0.241 20:-0.462 21:0.024 22:-0.462 23:-0.462 24:-0.964 25:-0.905 26:0 27:-0.964 28:-0.905 29:0.762 30:-0.762 31:0.964 32:0.762 33:-0.905 34:-0.905 35:-0.762 36:-0.762 37:-0.762 38:-0.462 39:0.462 40:-0.762 41:-0.462 42:-0.462 43:0 44:-0.905 45:-0.462 46:-0.762 47:-0.905 48:0.995 49:-0.762 50:-0.964 51:-0.762 52:-0.964 53:-0.905 54:0 55:-0.762 56:-0.762 57:-0.762 58:0 59:-0.762 60:-0.905 61:-0.762 62:-0.462 63:-0.905 64:0 65:1 66:-0.905 67:-0.964 68:-0.762 69:-0.905 70:-0.905 71:-0.462 72:-0.905 73:-0.462 74:-0.462 75:-0.905 76:-0.905 77:-0.905 78:-0.905 79:-0.462 80:-0.462 81:-0.462 82:-0.762 83:-0.462 84:-0.762 85:-0.462 86:-0.462 87:-0.964 88:-0.905 89:0 90:-0.964 91:-0.905 92:0.762 93:-0.762 94:0.964 95:0.762 96:-0.905 97:-0.905 98:-0.762 99:-0.762 100:-0.762 101:-0.462 102:0.462 103:-0.762 104:-0.462 105:-0.462 106:0 107:-0.462 108:-0.905 109:-0.762 110:-0.462 111:-0.905 112:-0.905 113:0.905 114:-0.762 115:0.462 116:0.462 117:-0.905 118:-0.762 119:-0.762 120:-0.905 121:-0.762 122:0 123:0.964 124:-0.905 125:-0.462 126:-0.462 127:-0.462 128:-0.905 129:-0.462 130:0.462 131:-0.905 132:-0.762 133:-0.462 134:-0.905 135:0.987 136:-0.762 137:-0.462 138:0 139:-0.462 140:0.462 141:0.762 142:0 143:-0.462 144:-0.762 145:-0.905 146:-0.462 147:-0.762 148:-0.462 149:-0.964 150:0.762 151:0.987 152:-0.905 153:-0.762 154:0 155:-0.905 156:0.462 157:-0.905 158:-0.762 159:0 160:-0.462 161:0.762 162:0 163:0 164:-0.462 165:-0.762 166:-0.905 167:-0.462 168:-0.762 169:-0.462 170:-0.462 171:-0.905 172:-0.905 173:0 174:-0.964 175:-0.905 176:0.964 177:-0.905 178:0.762 179:0.462 180:-0.905 181:-0.905 182:-0.905 183:-0.905 184:-0.762 185:-0.462 186:0.905 187:-0.905 188:-0.462 189:-0.462 190:-0.462 191:-0.905 192:-0.462 193:-0.462 194:-0.964 195:-0.762 196:-0.762 197:-0.905 198:-0.462 199:-0.905 200:-0.762 201:-0.762 202:0.998 203:-0.462 204:-0.762 205:-0.462 206:-0.462 207:-0.762 208:-0.964 209:-0.462 210:-0.905 211:-0.462 212:-0.462 213:-0.462 214:-0.462 215:-0.462 216:-0.462 217:-0.462 218:-0.462 219:-0.462 220:-0.462 221:-0.462 222:-0.462 223:-0.462 224:-0.462 225:-0.462 226:-0.462 227:-0.462 228:-0.462 229:-0.462 230:-0.462 231:-0.462 232:0.23 233:-0.402 234:-0.468 235:0.665 236:-0.005 237:-0.269 238:0.125 239:-0.188 240:-0.131 
0.170365205114874 1:-0.07 2:-0.607 3:-0.66 4:-0.1 5:-0.734 6:-0.683 7:-0.66 8:-0.228 9:0.162 10:-0.304 11:-0.154 12:-0.429 13:-0.562 14:-0.1 15:0.002 16:-0.177 17:-0.231 18:-0.06 19:-0.905 20:-0.462 21:-0.662 22:-0.462 23:-0.905 24:-0.462 25:-0.462 26:-0.964 27:-0.762 28:-0.762 29:-0.905 30:-0.462 31:-0.905 32:-0.762 33:-0.762 34:0.998 35:-0.462 36:-0.762 37:-0.462 38:-0.462 39:-0.762 40:-0.964 41:-0.462 42:-0.905 43:-0.462 44:-0.905 45:-0.462 46:0.462 47:-0.905 48:-0.762 49:-0.462 50:-0.905 51:0.987 52:-0.762 53:-0.462 54:0 55:-0.462 56:0.462 57:0.762 58:0 59:-0.462 60:-0.762 61:-0.905 62:-0.462 63:-0.762 64:0.964 65:0 66:-0.762 67:-0.462 68:-0.762 69:0 70:-0.762 71:-0.462 72:-0.462 73:-0.462 74:-0.462 75:-0.762 76:-0.462 77:-0.462 78:-0.462 79:0.462 80:0 81:0 82:-0.905 83:-0.462 84:-0.762 85:0 86:-0.462 87:-0.905 88:-0.762 89:-0.462 90:-0.905 91:-0.905 92:0.905 93:-0.762 94:0.462 95:0.462 96:-0.905 97:-0.762 98:-0.762 99:-0.905 100:-0.762 101:0 102:0.964 103:-0.905 104:-0.462 105:-0.462 106:-0.462 107:-0.905 108:-0.762 109:0 110:-0.905 111:-0.762 112:0 113:-0.905 114:0.762 115:-0.762 116:-0.462 117:0 118:-0.762 119:0.462 120:0.987 121:-0.462 122:-0.462 123:-0.905 124:-0.905 125:-0.462 126:-0.762 127:-0.462 128:-0.905 129:0 130:0.762 131:-0.905 132:-0.762 133:0 134:-0.905 135:0.462 136:-0.762 137:0 138:0 139:-0.462 140:0.987 141:0.462 142:0 143:-0.462 144:-0.762 145:-0.762 146:-0.462 147:-0.462 148:-0.462 149:-0.462 150:-0.905 151:-0.905 152:0 153:-0.964 154:-0.905 155:0.964 156:-0.905 157:0.762 158:0.462 159:-0.905 160:-0.905 161:-0.905 162:-0.905 163:-0.762 164:-0.462 165:0.905 166:-0.905 167:-0.462 168:-0.462 169:-0.462 170:-0.964 171:0.762 172:0.987 173:-0.905 174:-0.762 175:0 176:-0.905 177:0.462 178:-0.905 179:-0.762 180:0 181:-0.462 182:0.762 183:0 184:0 185:-0.462 186:-0.762 187:-0.905 188:-0.462 189:-0.762 190:-0.762 191:-0.905 192:0.995 193:0.762 194:-0.905 195:-0.462 196:-0.462 197:-0.905 198:-0.462 199:-0.964 200:-0.905 201:0.462 202:-0.462 203:0 204:-0.762 205:0 206:-0.462 207:-0.905 208:-0.964 209:-0.462 210:-0.905 211:-0.462 212:-0.683 213:-0.398 214:0.002 215:-0.529 216:-0.779 217:-0.379 218:-0.276 219:-0.1 220:-0.137 221:0.177 222:-0.379 223:-0.61 224:0.162 225:-0.1 226:-0.331 227:-0.462 228:-0.304 229:-0.712 230:-0.462 231:-0.462 232:-0.342 233:-0.005 234:-0.027 235:0.817 236:0.049 237:-0.414 238:-0.099 239:-0.475 240:-0.068 
-0.4516631312754661 1:0 2:-0.462 3:-0.231 4:-0.231 5:-0.612 6:-0.231 7:-0.462 8:-0.612 9:-0.231 10:-0.612 11:-0.462 12:0 13:-0.462 14:-0.231 15:-0.462 16:0.251 17:0 18:-0.612 19:-0.683 20:-0.462 21:-0.612 22:0.462 23:-0.462 24:0 25:0 26:-0.762 27:0 28:-0.462 29:-0.762 30:0 31:-0.762 32:-0.462 33:0.462 34:-0.462 35:0 36:-0.462 37:0.964 38:0.462 39:-0.762 40:-0.905 41:-0.462 42:-0.762 43:-0.462 44:-0.462 45:-0.905 46:-0.905 47:0 48:-0.964 49:-0.905 50:0.964 51:-0.905 52:0.762 53:0.462 54:-0.905 55:-0.905 56:-0.905 57:-0.905 58:-0.762 59:-0.462 60:0.905 61:-0.905 62:-0.462 63:-0.462 64:-0.462 65:-0.462 66:-0.964 67:-0.905 68:0 69:-0.964 70:-0.905 71:0.762 72:-0.762 73:0.964 74:0.762 75:-0.905 76:-0.905 77:-0.762 78:-0.762 79:-0.762 80:-0.462 81:0.462 82:-0.762 83:-0.462 84:-0.462 85:0 86:-0.462 87:-0.462 88:-0.462 89:-0.762 90:-0.762 91:-0.762 92:-0.462 93:-0.462 94:-0.462 95:-0.462 96:0 97:-0.462 98:-0.462 99:-0.462 100:0.462 101:0.987 102:0 103:-0.762 104:-0.462 105:-0.762 106:-0.762 107:-0.905 108:0.995 109:0.762 110:-0.905 111:-0.462 112:-0.462 113:-0.905 114:-0.462 115:-0.964 116:-0.905 117:0.462 118:-0.462 119:0 120:-0.762 121:0 122:-0.462 123:-0.905 124:-0.964 125:-0.462 126:-0.905 127:0.462 128:-0.462 129:0 130:0 131:-0.762 132:0 133:-0.462 134:-0.762 135:0 136:-0.762 137:-0.462 138:0.462 139:-0.462 140:0 141:-0.462 142:0.964 143:0.462 144:-0.762 145:-0.905 146:-0.462 147:-0.762 148:-0.462 149:-0.905 150:0 151:0.762 152:-0.905 153:-0.762 154:0 155:-0.905 156:0.462 157:-0.762 158:0 159:0 160:-0.462 161:0.987 162:0.462 163:0 164:-0.462 165:-0.762 166:-0.762 167:-0.462 168:-0.462 169:0 170:-0.462 171:-0.462 172:-0.462 173:-0.762 174:-0.762 175:-0.762 176:-0.462 177:-0.462 178:-0.462 179:-0.462 180:0 181:-0.462 182:-0.462 183:-0.462 184:0.462 185:0.987 186:0 187:-0.762 188:-0.462 189:-0.762 190:0.964 191:0 192:-0.762 193:-0.462 194:-0.762 195:0 196:-0.762 197:-0.462 198:-0.462 199:-0.462 200:-0.462 201:-0.762 202:-0.462 203:-0.462 204:-0.462 205:0.462 206:0 207:0 208:-0.905 209:-0.462 210:-0.762 211:-0.231 212:-0.683 213:-0.512 214:-0.077 215:-0.833 216:-0.762 217:-0.535 218:-0.683 219:0.225 220:-0.612 221:-0.462 222:0 223:-0.512 224:-0 225:0.187 226:0.154 227:0.263 228:-0.405 229:-0.833 230:-0.462 231:-0.762 232:-0.316 233:-0.631 234:-0.064 235:0.243 236:-0.184 237:-0.261 238:0.141 239:-0.243 240:0.223 
0.5 1:-0.308 2:-0.683 3:-0.76 4:-0.331 5:-0.683 6:-0.76 7:-0.379 8:-0.228 9:0.05 10:-0.304 11:-0.154 12:-0.379 13:-0.712 14:-0.1 15:0.115 16:-0.562 17:-0.308 18:-0.208 19:-0.831 20:-0.462 21:-0.612 22:0 23:-0.462 24:-0.905 25:-0.762 26:-0.462 27:-0.905 28:-0.905 29:0.905 30:-0.762 31:0.462 32:0.462 33:-0.905 34:-0.762 35:-0.762 36:-0.905 37:-0.762 38:0 39:0.964 40:-0.905 41:-0.462 42:-0.462 43:-0.905 44:-0.762 45:-0.964 46:-0.905 47:0.462 48:-0.762 49:-0.762 50:-0.905 51:-0.905 52:-0.762 53:-0.462 54:-0.964 55:-0.964 56:-0.762 57:-0.905 58:-0.905 59:-0.762 60:-0.905 61:1 62:-0.462 63:0.762 64:-0.762 65:-0.905 66:0.995 67:0.762 68:-0.905 69:-0.462 70:-0.462 71:-0.905 72:-0.462 73:-0.964 74:-0.905 75:0.462 76:-0.462 77:0 78:-0.762 79:0 80:-0.462 81:-0.905 82:-0.964 83:-0.462 84:-0.905 85:0 86:-0.462 87:-0.905 88:-0.762 89:-0.462 90:-0.905 91:-0.905 92:0.905 93:-0.762 94:0.462 95:0.462 96:-0.905 97:-0.762 98:-0.762 99:-0.905 100:-0.762 101:0 102:0.964 103:-0.905 104:-0.462 105:-0.462 106:-0.462 107:-0.905 108:-0.462 109:0.462 110:-0.905 111:-0.762 112:-0.462 113:-0.905 114:0.987 115:-0.762 116:-0.462 117:0 118:-0.462 119:0.462 120:0.762 121:0 122:-0.462 123:-0.762 124:-0.905 125:-0.462 126:-0.762 127:-0.762 128:-0.905 129:0.462 130:0 131:-0.905 132:0 133:0.462 134:-0.905 135:0 136:-0.905 137:-0.762 138:0.995 139:-0.762 140:0 141:0 142:0.462 143:0 144:-0.905 145:-0.964 146:-0.462 147:-0.762 148:0.964 149:0 150:-0.762 151:-0.462 152:-0.762 153:0 154:-0.762 155:-0.462 156:-0.462 157:-0.462 158:-0.462 159:-0.762 160:-0.462 161:-0.462 162:-0.462 163:0.462 164:0 165:0 166:-0.905 167:-0.462 168:-0.762 169:-0.462 170:-0.964 171:0.762 172:0.987 173:-0.905 174:-0.762 175:0 176:-0.905 177:0.462 178:-0.905 179:-0.762 180:0 181:-0.462 182:0.762 183:0 184:0 185:-0.462 186:-0.762 187:-0.905 188:-0.462 189:-0.762 190:-0.462 191:-0.462 192:-0.964 193:-0.905 194:0 195:-0.964 196:-0.905 197:0.762 198:-0.762 199:0.964 200:0.762 201:-0.905 202:-0.905 203:-0.762 204:-0.762 205:-0.762 206:-0.462 207:0.462 208:-0.762 209:-0.462 210:-0.462 211:-0.612 212:-0.683 213:-0.251 214:-0.453 215:-0.452 216:-0.482 217:-0.222 218:-0.071 219:-0.381 220:0.03 221:0 222:0.045 223:-0.834 224:-0.381 225:-0.381 226:-0.15 227:-0.231 228:-0.221 229:-0.863 230:-0.462 231:-0.612 232:0.331 233:-0.388 234:-0.282 235:0.817 236:0.217 237:-0.042 238:0.001 239:-0.475 240:0.295 
-0.08714919370541199 1:-0.612 2:-0.683 3:0.267 4:0.15 5:-0.683 6:-0.462 7:-0.462 8:-0.683 9:-0.462 10:-0.713 11:-0.683 12:0 13:-0.462 14:-0.231 15:-0.612 16:-0.231 17:-0.462 18:-0.683 19:-0.713 20:-0.462 21:-0.683 22:0 23:-0.905 24:-0.462 25:-0.762 26:-0.905 27:0.995 28:-0.762 29:-0.964 30:-0.762 31:-0.964 32:-0.905 33:0 34:-0.762 35:-0.762 36:-0.762 37:0 38:-0.762 39:-0.905 40:-0.762 41:-0.462 42:-0.905 43:-0.762 44:-0.762 45:-0.905 46:-0.762 47:0.905 48:-0.905 49:0.762 50:-0.462 51:-0.762 52:-0.462 53:-0.462 54:-0.762 55:-0.905 56:-0.462 57:-0.762 58:-0.762 59:-0.762 60:-0.462 61:0.762 62:-0.462 63:0.998 64:-0.762 65:-0.762 66:-0.905 67:-0.905 68:0.995 69:-0.905 70:-0.462 71:0 72:-0.905 73:0 74:0 75:-0.905 76:-0.964 77:-0.905 78:-0.905 79:-0.762 80:-0.762 81:-0.462 82:0.462 83:-0.462 84:0.905 85:-0.462 86:-0.462 87:-0.964 88:-0.905 89:0 90:-0.964 91:-0.905 92:0.762 93:-0.762 94:0.964 95:0.762 96:-0.905 97:-0.905 98:-0.762 99:-0.762 100:-0.762 101:-0.462 102:0.462 103:-0.762 104:-0.462 105:-0.462 106:-0.462 107:-0.905 108:-0.462 109:0.462 110:-0.905 111:-0.762 112:-0.462 113:-0.905 114:0.987 115:-0.762 116:-0.462 117:0 118:-0.462 119:0.462 120:0.762 121:0 122:-0.462 123:-0.762 124:-0.905 125:-0.462 126:-0.762 127:-0.462 128:-0.462 129:-0.905 130:-0.905 131:0 132:-0.964 133:-0.905 134:0.964 135:-0.905 136:0.762 137:0.462 138:-0.905 139:-0.905 140:-0.905 141:-0.905 142:-0.762 143:-0.462 144:0.905 145:-0.905 146:-0.462 147:-0.462 148:-0.462 149:-0.905 150:-0.462 151:0.462 152:-0.905 153:-0.762 154:-0.462 155:-0.905 156:0.987 157:-0.762 158:-0.462 159:0 160:-0.462 161:0.462 162:0.762 163:0 164:-0.462 165:-0.762 166:-0.905 167:-0.462 168:-0.762 169:0 170:-0.462 171:-0.905 172:-0.762 173:-0.462 174:-0.905 175:-0.905 176:0.905 177:-0.762 178:0.462 179:0.462 180:-0.905 181:-0.762 182:-0.762 183:-0.905 184:-0.762 185:0 186:0.964 187:-0.905 188:-0.462 189:-0.462 190:0 191:-0.462 192:-0.462 193:-0.462 194:-0.762 195:-0.762 196:-0.762 197:-0.462 198:-0.462 199:-0.462 200:-0.462 201:0 202:-0.462 203:-0.462 204:-0.462 205:0.462 206:0.987 207:0 208:-0.762 209:-0.462 210:-0.762 211:0.88 212:-0.077 213:-0.635 214:-0.385 215:-0.762 216:0 217:-0.712 218:-0.512 219:-0.385 220:-0.512 221:-0.462 222:-0.558 223:-0.462 224:-0.385 225:-0.462 226:0.546 227:0.077 228:-0.127 229:-0.905 230:-0.462 231:-0.762 232:-0.118 233:-0.28 234:0.156 235:0.665 236:0.217 237:-0.141 238:-0.031 239:-0.252 240:0.174 
0.5 1:-0.231 2:-0.767 3:-0.425 4:-0.518 5:-0.603 6:0.049 7:-0.683 8:-0.379 9:-0.558 10:-0.311 11:-0.326 12:-0.302 13:-0.76 14:-0.508 15:-0.635 16:-0.254 17:-0.612 18:-0.425 19:-0.786 20:-0.462 21:-0.734 22:-0.462 23:-0.462 24:-0.905 25:-0.762 26:0 27:-0.905 28:-0.762 29:0.462 30:-0.462 31:0.762 32:0.987 33:-0.762 34:-0.762 35:0 36:-0.462 37:-0.462 38:-0.462 39:0.462 40:-0.462 41:-0.462 42:-0.462 43:-0.762 44:-0.905 45:0.462 46:0 47:-0.905 48:0 49:0.462 50:-0.905 51:0 52:-0.905 53:-0.762 54:0.995 55:-0.762 56:0 57:0 58:0.462 59:0 60:-0.905 61:-0.964 62:-0.462 63:-0.762 64:0.964 65:0 66:-0.762 67:-0.462 68:-0.762 69:0 70:-0.762 71:-0.462 72:-0.462 73:-0.462 74:-0.462 75:-0.762 76:-0.462 77:-0.462 78:-0.462 79:0.462 80:0 81:0 82:-0.905 83:-0.462 84:-0.762 85:0.462 86:-0.462 87:0 88:0 89:-0.762 90:0 91:-0.462 92:-0.762 93:0 94:-0.762 95:-0.462 96:0.462 97:-0.462 98:0 99:-0.462 100:0.964 101:0.462 102:-0.762 103:-0.905 104:-0.462 105:-0.762 106:-0.762 107:-0.905 108:-0.462 109:0 110:-0.462 111:-0.762 112:0.999 113:-0.905 114:-0.462 115:-0.905 116:-0.762 117:0.462 118:-0.762 119:0 120:0 121:-0.462 122:-0.762 123:-0.905 124:-0.762 125:-0.462 126:0.762 127:0 128:1 129:-0.905 130:-0.964 131:-0.762 132:-0.905 133:-0.905 134:-0.462 135:-0.905 136:-0.462 137:-0.462 138:-0.905 139:-0.905 140:-0.905 141:-0.905 142:-0.462 143:-0.462 144:-0.462 145:-0.762 146:-0.462 147:-0.762 148:-0.762 149:-0.905 150:0.462 151:0 152:-0.905 153:0 154:0.462 155:-0.905 156:0 157:-0.905 158:-0.762 159:0.995 160:-0.762 161:0 162:0 163:0.462 164:0 165:-0.905 166:-0.964 167:-0.462 168:-0.762 169:-0.462 170:-0.964 171:0.762 172:0.987 173:-0.905 174:-0.762 175:0 176:-0.905 177:0.462 178:-0.905 179:-0.762 180:0 181:-0.462 182:0.762 183:0 184:0 185:-0.462 186:-0.762 187:-0.905 188:-0.462 189:-0.762 190:-0.462 191:-0.462 192:-0.905 193:-0.762 194:0 195:-0.905 196:-0.762 197:0.462 198:-0.462 199:0.762 200:0.987 201:-0.762 202:-0.762 203:0 204:-0.462 205:-0.462 206:-0.462 207:0.462 208:-0.462 209:-0.462 210:-0.462 211:-0.148 212:-0.562 213:-0.398 214:-0.379 215:-0.304 216:-0.331 217:-0.562 218:-0.76 219:-0.379 220:-0.712 221:-0.462 222:-0.167 223:-0.629 224:-0.331 225:-0.61 226:0.103 227:-0.1 228:-0.76 229:-0.196 230:-0.462 231:-0.204 232:0.254 233:0.039 234:-0.027 235:-0.201 236:-0.298 237:-0.468 238:0.272 239:-0.475 240:0.371 
0.5 1:-0.462 2:-0.462 3:-0.462 4:-0.462 5:-0.462 6:-0.462 7:-0.462 8:-0.462 9:-0.462 10:-0.462 11:-0.462 12:-0.462 13:-0.462 14:-0.462 15:-0.462 16:-0.462 17:-0.462 18:-0.462 19:-0.462 20:-0.462 21:-0.462 22:-0.462 23:-0.905 24:-0.762 25:0 26:-0.905 27:-0.762 28:0 29:-0.905 30:0.762 31:-0.762 32:-0.462 33:0 34:-0.762 35:0.462 36:0.987 37:-0.462 38:-0.462 39:-0.905 40:-0.905 41:-0.462 42:-0.762 43:-0.462 44:-0.905 45:0 46:0.762 47:-0.905 48:-0.762 49:0 50:-0.905 51:0.462 52:-0.762 53:0 54:0 55:-0.462 56:0.987 57:0.462 58:0 59:-0.462 60:-0.762 61:-0.762 62:-0.462 63:-0.462 64:-0.462 65:-0.462 66:-0.964 67:-0.905 68:0 69:-0.964 70:-0.905 71:0.762 72:-0.762 73:0.964 74:0.762 75:-0.905 76:-0.905 77:-0.762 78:-0.762 79:-0.762 80:-0.462 81:0.462 82:-0.762 83:-0.462 84:-0.462 85:-0.462 86:-0.462 87:-0.905 88:-0.905 89:0 90:-0.964 91:-0.905 92:0.964 93:-0.905 94:0.762 95:0.462 96:-0.905 97:-0.905 98:-0.905 99:-0.905 100:-0.762 101:-0.462 102:0.905 103:-0.905 104:-0.462 105:-0.462 106:-0.462 107:-0.905 108:-0.462 109:0.462 110:-0.905 111:-0.762 112:-0.462 113:-0.905 114:0.987 115:-0.762 116:-0.462 117:0 118:-0.462 119:0.462 120:0.762 121:0 122:-0.462 123:-0.762 124:-0.905 125:-0.462 126:-0.762 127:0 128:-0.462 129:-0.462 130:-0.462 131:-0.762 132:-0.762 133:-0.762 134:-0.462 135:-0.462 136:-0.462 137:-0.462 138:0 139:-0.462 140:-0.462 141:-0.462 142:0.462 143:0.987 144:0 145:-0.762 146:-0.462 147:-0.762 148:-0.762 149:-0.905 150:0.995 151:0.762 152:-0.905 153:-0.462 154:-0.462 155:-0.905 156:-0.462 157:-0.964 158:-0.905 159:0.462 160:-0.462 161:0 162:-0.762 163:0 164:-0.462 165:-0.905 166:-0.964 167:-0.462 168:-0.905 169:-0.462 170:-0.462 171:-0.905 172:-0.905 173:0 174:-0.964 175:-0.905 176:0.964 177:-0.905 178:0.762 179:0.462 180:-0.905 181:-0.905 182:-0.905 183:-0.905 184:-0.762 185:-0.462 186:0.905 187:-0.905 188:-0.462 189:-0.462 190:0.462 191:-0.462 192:0 193:0 194:-0.762 195:0 196:-0.462 197:-0.762 198:0 199:-0.762 200:-0.462 201:0.462 202:-0.462 203:0 204:-0.462 205:0.964 206:0.462 207:-0.762 208:-0.905 209:-0.462 210:-0.762 211:-0.154 212:-0.462 213:-0.603 214:-0.508 215:-0.254 216:-0.603 217:-0.662 218:0.054 219:-0.308 220:0.254 221:0.504 222:-0.354 223:-0.662 224:0 225:-0.462 226:0.013 227:-0.154 228:0.054 229:-0.61 230:-0.462 231:-0.562 232:-0.136 233:-0.349 234:-0.064 235:1 236:0.217 237:-0.397 238:0.213 239:-0.188 240:0.089 
0.5 1:0.077 2:-0.61 3:-0.077 4:0.177 5:-0.81 6:-0.381 7:-0.358 8:-0.76 9:0.077 10:-0.712 11:-0.308 12:0.231 13:-0.462 14:0.252 15:-0.154 16:0.559 17:0.241 18:-0.635 19:-0.834 20:-0.462 21:-0.662 22:-0.762 23:-0.905 24:-0.462 25:0 26:-0.462 27:-0.762 28:0.999 29:-0.905 30:-0.462 31:-0.905 32:-0.762 33:0.462 34:-0.762 35:0 36:0 37:-0.462 38:-0.762 39:-0.905 40:-0.762 41:-0.462 42:0.762 43:-0.462 44:-0.905 45:-0.462 46:-0.462 47:-0.964 48:-0.762 49:-0.762 50:-0.905 51:-0.462 52:-0.905 53:-0.762 54:-0.762 55:0.998 56:-0.462 57:-0.762 58:-0.462 59:-0.462 60:-0.762 61:-0.964 62:-0.462 63:-0.905 64:-0.462 65:-0.462 66:-0.905 67:-0.905 68:0 69:-0.964 70:-0.905 71:0.964 72:-0.905 73:0.762 74:0.462 75:-0.905 76:-0.905 77:-0.905 78:-0.905 79:-0.762 80:-0.462 81:0.905 82:-0.905 83:-0.462 84:-0.462 85:-0.462 86:-0.462 87:-0.964 88:-0.905 89:0 90:-0.964 91:-0.905 92:0.762 93:-0.762 94:0.964 95:0.762 96:-0.905 97:-0.905 98:-0.762 99:-0.762 100:-0.762 101:-0.462 102:0.462 103:-0.762 104:-0.462 105:-0.462 106:-0.762 107:-0.905 108:0.462 109:0 110:-0.905 111:0 112:0.462 113:-0.905 114:0 115:-0.905 116:-0.762 117:0.995 118:-0.762 119:0 120:0 121:0.462 122:0 123:-0.905 124:-0.964 125:-0.462 126:-0.762 127:-0.462 128:-0.462 129:-0.905 130:-0.762 131:0 132:-0.905 133:-0.762 134:0.462 135:-0.462 136:0.762 137:0.987 138:-0.762 139:-0.762 140:0 141:-0.462 142:-0.462 143:-0.462 144:0.462 145:-0.462 146:-0.462 147:-0.462 148:-0.462 149:-0.462 150:-0.905 151:-0.905 152:0 153:-0.964 154:-0.905 155:0.964 156:-0.905 157:0.762 158:0.462 159:-0.905 160:-0.905 161:-0.905 162:-0.905 163:-0.762 164:-0.462 165:0.905 166:-0.905 167:-0.462 168:-0.462 169:-0.762 170:-0.905 171:0.995 172:0.762 173:-0.905 174:-0.462 175:-0.462 176:-0.905 177:-0.462 178:-0.964 179:-0.905 180:0.462 181:-0.462 182:0 183:-0.762 184:0 185:-0.462 186:-0.905 187:-0.964 188:-0.462 189:-0.905 190:0 191:-0.462 192:-0.462 193:-0.462 194:-0.762 195:-0.762 196:-0.762 197:-0.462 198:-0.462 199:-0.462 200:-0.462 201:0 202:-0.462 203:-0.462 204:-0.462 205:0.462 206:0.987 207:0 208:-0.762 209:-0.462 210:-0.762 211:-0.462 212:-0.683 213:-0.462 214:0 215:-0.683 216:-0.612 217:-0.462 218:-0.683 219:0.263 220:-0.612 221:-0.462 222:-0.231 223:-0.462 224:0 225:0.15 226:-0.231 227:-0.462 228:-0.612 229:-0.683 230:-0.462 231:-0.612 232:-0.388 233:-0.299 234:0.194 235:0.665 236:-0.196 237:-0.375 238:-0.099 239:-0.142 240:0.174 
-0.5 1:-0.224 2:-0.636 3:-0.067 4:0.115 5:-0.58 6:-0.702 7:-0.429 8:-0.276 9:-0.1 10:-0.208 11:-0.204 12:-0.429 13:-0.61 14:0.05 15:-0.331 16:-0.177 17:-0.385 18:-0.227 19:-0.857 20:-0.462 21:-0.662 22:0 23:-0.462 24:-0.905 25:-0.762 26:-0.462 27:-0.905 28:-0.905 29:0.905 30:-0.762 31:0.462 32:0.462 33:-0.905 34:-0.762 35:-0.762 36:-0.905 37:-0.762 38:0 39:0.964 40:-0.905 41:-0.462 42:-0.462 43:-0.762 44:-0.905 45:-0.462 46:0 47:-0.462 48:-0.762 49:0.999 50:-0.905 51:-0.462 52:-0.905 53:-0.762 54:0.462 55:-0.762 56:0 57:0 58:-0.462 59:-0.762 60:-0.905 61:-0.762 62:-0.462 63:0.762 64:0.964 65:0 66:-0.762 67:-0.462 68:-0.762 69:0 70:-0.762 71:-0.462 72:-0.462 73:-0.462 74:-0.462 75:-0.762 76:-0.462 77:-0.462 78:-0.462 79:0.462 80:0 81:0 82:-0.905 83:-0.462 84:-0.762 85:0 86:-0.462 87:-0.905 88:-0.762 89:-0.462 90:-0.905 91:-0.905 92:0.905 93:-0.762 94:0.462 95:0.462 96:-0.905 97:-0.762 98:-0.762 99:-0.905 100:-0.762 101:0 102:0.964 103:-0.905 104:-0.462 105:-0.462 106:-0.462 107:-0.905 108:-0.462 109:0.462 110:-0.905 111:-0.762 112:-0.462 113:-0.905 114:0.987 115:-0.762 116:-0.462 117:0 118:-0.462 119:0.462 120:0.762 121:0 122:-0.462 123:-0.762 124:-0.905 125:-0.462 126:-0.762 127:-0.462 128:-0.905 129:-0.462 130:-0.462 131:-0.964 132:-0.762 133:-0.762 134:-0.905 135:-0.462 136:-0.905 137:-0.762 138:-0.762 139:0.998 140:-0.462 141:-0.762 142:-0.462 143:-0.462 144:-0.762 145:-0.964 146:-0.462 147:-0.905 148:0 149:-0.462 150:-0.905 151:-0.762 152:-0.462 153:-0.905 154:-0.905 155:0.905 156:-0.762 157:0.462 158:0.462 159:-0.905 160:-0.762 161:-0.762 162:-0.905 163:-0.762 164:0 165:0.964 166:-0.905 167:-0.462 168:-0.462 169:0 170:-0.462 171:-0.462 172:-0.462 173:-0.762 174:-0.762 175:-0.762 176:-0.462 177:-0.462 178:-0.462 179:-0.462 180:0 181:-0.462 182:-0.462 183:-0.462 184:0.462 185:0.987 186:0 187:-0.762 188:-0.462 189:-0.762 190:-0.462 191:-0.964 192:0.762 193:0.987 194:-0.905 195:-0.762 196:0 197:-0.905 198:0.462 199:-0.905 200:-0.762 201:0 202:-0.462 203:0.762 204:0 205:0 206:-0.462 207:-0.762 208:-0.905 209:-0.462 210:-0.762 211:-0.462 212:-0.713 213:0.15 214:0.263 215:-0.683 216:-0.612 217:-0.231 218:-0.683 219:0 220:-0.683 221:-0.612 222:-0.231 223:-0.462 224:0.15 225:-0.231 226:-0.231 227:-0.462 228:-0.612 229:-0.683 230:-0.462 231:-0.612 232:0.331 233:-0.135 234:-0.027 235:0.817 236:0.217 237:-0.496 238:-0.341 239:-0.243 240:-0.532 
-0.5 1:-0.462 2:-0.462 3:-0.462 4:-0.462 5:-0.462 6:-0.462 7:-0.462 8:-0.462 9:-0.462 10:-0.462 11:-0.462 12:-0.462 13:-0.462 14:-0.462 15:-0.462 16:-0.462 17:-0.462 18:-0.462 19:-0.462 20:-0.462 21:-0.462 22:-0.462 23:-0.462 24:-0.964 25:-0.905 26:0 27:-0.964 28:-0.905 29:0.762 30:-0.762 31:0.964 32:0.762 33:-0.905 34:-0.905 35:-0.762 36:-0.762 37:-0.762 38:-0.462 39:0.462 40:-0.762 41:-0.462 42:-0.462 43:0 44:-0.462 45:-0.905 46:-0.762 47:-0.462 48:-0.905 49:-0.905 50:0.905 51:-0.762 52:0.462 53:0.462 54:-0.905 55:-0.762 56:-0.762 57:-0.905 58:-0.762 59:0 60:0.964 61:-0.905 62:-0.462 63:-0.462 64:-0.462 65:-0.905 66:-0.462 67:0.462 68:-0.905 69:-0.762 70:-0.462 71:-0.905 72:0.987 73:-0.762 74:-0.462 75:0 76:-0.462 77:0.462 78:0.762 79:0 80:-0.462 81:-0.762 82:-0.905 83:-0.462 84:-0.762 85:-0.762 86:-0.762 87:-0.905 88:-0.762 89:0.905 90:-0.905 91:0.762 92:-0.462 93:-0.762 94:-0.462 95:-0.462 96:-0.762 97:-0.905 98:-0.462 99:-0.762 100:-0.762 101:-0.762 102:-0.462 103:0.762 104:-0.462 105:0.998 106:-0.462 107:-0.964 108:0.762 109:0.987 110:-0.905 111:-0.762 112:0 113:-0.905 114:0.462 115:-0.905 116:-0.762 117:0 118:-0.462 119:0.762 120:0 121:0 122:-0.462 123:-0.762 124:-0.905 125:-0.462 126:-0.762 127:0 128:-0.905 129:-0.462 130:-0.762 131:-0.905 132:0.995 133:-0.762 134:-0.964 135:-0.762 136:-0.964 137:-0.905 138:0 139:-0.762 140:-0.762 141:-0.762 142:0 143:-0.762 144:-0.905 145:-0.762 146:-0.462 147:-0.905 148:-0.762 149:-0.905 150:0.995 151:0.762 152:-0.905 153:-0.462 154:-0.462 155:-0.905 156:-0.462 157:-0.964 158:-0.905 159:0.462 160:-0.462 161:0 162:-0.762 163:0 164:-0.462 165:-0.905 166:-0.964 167:-0.462 168:-0.905 169:0 170:-0.462 171:-0.462 172:-0.462 173:-0.762 174:-0.762 175:-0.762 176:-0.462 177:-0.462 178:-0.462 179:-0.462 180:0 181:-0.462 182:-0.462 183:-0.462 184:0.462 185:0.987 186:0 187:-0.762 188:-0.462 189:-0.762 190:-0.462 191:-0.462 192:-0.905 193:-0.762 194:0 195:-0.905 196:-0.762 197:0.462 198:-0.462 199:0.762 200:0.987 201:-0.762 202:-0.762 203:0 204:-0.462 205:-0.462 206:-0.462 207:0.462 208:-0.462 209:-0.462 210:-0.462 211:0.328 212:-0.398 213:-0.278 214:-0.029 215:-0.76 216:-0.405 217:-0.532 218:-0.382 219:-0.204 220:-0.456 221:-0.408 222:-0.532 223:-0.512 224:-0.104 225:-0.382 226:0.104 227:-0.154 228:-0.093 229:-0.905 230:-0.462 231:-0.712 232:0.23 233:-0.588 234:0.044 235:0.589 236:-0.377 237:-0.402 238:0.213 239:-0.243 240:0.371 
0.5 1:-0.231 2:0.269 3:-0.683 4:-0.713 5:-0.612 6:-0.683 7:-0.683 8:-0.462 9:-0.683 10:-0.462 11:-0.462 12:-0.683 13:-0.683 14:-0.683 15:-0.683 16:-0.462 17:-0.462 18:-0.462 19:-0.612 20:-0.462 21:-0.612 22:-0.462 23:-0.462 24:-0.905 25:-0.762 26:0 27:-0.905 28:-0.762 29:0.462 30:-0.462 31:0.762 32:0.987 33:-0.762 34:-0.762 35:0 36:-0.462 37:-0.462 38:-0.462 39:0.462 40:-0.462 41:-0.462 42:-0.462 43:0 44:-0.462 45:-0.462 46:-0.462 47:-0.762 48:-0.762 49:-0.762 50:-0.462 51:-0.462 52:-0.462 53:-0.462 54:0 55:-0.462 56:-0.462 57:-0.462 58:0.462 59:0.987 60:0 61:-0.762 62:-0.462 63:-0.762 64:0 65:-0.462 66:-0.905 67:-0.762 68:-0.462 69:-0.905 70:-0.905 71:0.905 72:-0.762 73:0.462 74:0.462 75:-0.905 76:-0.762 77:-0.762 78:-0.905 79:-0.762 80:0 81:0.964 82:-0.905 83:-0.462 84:-0.462 85:-0.462 86:-0.905 87:0 88:0.762 89:-0.905 90:-0.762 91:0 92:-0.905 93:0.462 94:-0.762 95:0 96:0 97:-0.462 98:0.987 99:0.462 100:0 101:-0.462 102:-0.762 103:-0.762 104:-0.462 105:-0.462 106:0 107:-0.905 108:-0.462 109:-0.762 110:-0.905 111:0.995 112:-0.762 113:-0.964 114:-0.762 115:-0.964 116:-0.905 117:0 118:-0.762 119:-0.762 120:-0.762 121:0 122:-0.762 123:-0.905 124:-0.762 125:-0.462 126:-0.905 127:0 128:-0.905 129:-0.462 130:-0.762 131:-0.905 132:0.995 133:-0.762 134:-0.964 135:-0.762 136:-0.964 137:-0.905 138:0 139:-0.762 140:-0.762 141:-0.762 142:0 143:-0.762 144:-0.905 145:-0.762 146:-0.462 147:-0.905 148:-0.462 149:-0.964 150:0.762 151:0.987 152:-0.905 153:-0.762 154:0 155:-0.905 156:0.462 157:-0.905 158:-0.762 159:0 160:-0.462 161:0.762 162:0 163:0 164:-0.462 165:-0.762 166:-0.905 167:-0.462 168:-0.762 169:0 170:-0.462 171:-0.462 172:-0.462 173:-0.762 174:-0.762 175:-0.762 176:-0.462 177:-0.462 178:-0.462 179:-0.462 180:0 181:-0.462 182:-0.462 183:-0.462 184:0.462 185:0.987 186:0 187:-0.762 188:-0.462 189:-0.762 190:-0.462 191:-0.462 192:-0.905 193:-0.762 194:0 195:-0.905 196:-0.762 197:0.462 198:-0.462 199:0.762 200:0.987 201:-0.762 202:-0.762 203:0 204:-0.462 205:-0.462 206:-0.462 207:0.462 208:-0.462 209:-0.462 210:-0.462 211:-0.227 212:-0.683 213:0.08 214:-0.127 215:-0.784 216:-0.151 217:-0.074 218:-0.556 219:-0.127 220:-0.629 221:-0.458 222:0.501 223:-0.662 224:-0.127 225:-0.305 226:0.425 227:0.154 228:-0.546 229:-0.934 230:-0.462 231:-0.712 232:0.254 233:-0.397 234:-0.144 235:-0.414 236:-0.175 237:-0.402 238:0.125 239:-0.243 240:0.371 
-0.2038259033183284 1:-0.458 2:-0.831 3:0.077 4:0.154 5:-0.881 6:-0.254 7:0 8:-0.881 9:0.329 10:-0.834 11:-0.612 12:0.575 13:-0.612 14:0.154 15:0.177 16:0.392 17:-0.077 18:-0.834 19:-0.934 20:-0.462 21:-0.762 22:-0.462 23:-0.462 24:-0.964 25:-0.905 26:0 27:-0.964 28:-0.905 29:0.762 30:-0.762 31:0.964 32:0.762 33:-0.905 34:-0.905 35:-0.762 36:-0.762 37:-0.762 38:-0.462 39:0.462 40:-0.762 41:-0.462 42:-0.462 43:-0.762 44:-0.905 45:0.462 46:0 47:-0.905 48:0 49:0.462 50:-0.905 51:0 52:-0.905 53:-0.762 54:0.995 55:-0.762 56:0 57:0 58:0.462 59:0 60:-0.905 61:-0.964 62:-0.462 63:-0.762 64:-0.462 65:-0.462 66:-0.905 67:-0.905 68:0 69:-0.964 70:-0.905 71:0.964 72:-0.905 73:0.762 74:0.462 75:-0.905 76:-0.905 77:-0.905 78:-0.905 79:-0.762 80:-0.462 81:0.905 82:-0.905 83:-0.462 84:-0.462 85:-0.462 86:-0.905 87:-0.462 88:0.462 89:-0.905 90:-0.762 91:-0.462 92:-0.905 93:0.987 94:-0.762 95:-0.462 96:0 97:-0.462 98:0.462 99:0.762 100:0 101:-0.462 102:-0.762 103:-0.905 104:-0.462 105:-0.762 106:-0.462 107:-0.462 108:-0.964 109:-0.905 110:0 111:-0.964 112:-0.905 113:0.762 114:-0.762 115:0.964 116:0.762 117:-0.905 118:-0.905 119:-0.762 120:-0.762 121:-0.762 122:-0.462 123:0.462 124:-0.762 125:-0.462 126:-0.462 127:-0.762 128:-0.905 129:0.462 130:0 131:-0.905 132:0 133:0.462 134:-0.905 135:0 136:-0.905 137:-0.762 138:0.995 139:-0.762 140:0 141:0 142:0.462 143:0 144:-0.905 145:-0.964 146:-0.462 147:-0.762 148:-0.462 149:-0.462 150:-0.905 151:-0.762 152:0 153:-0.905 154:-0.762 155:0.462 156:-0.462 157:0.762 158:0.987 159:-0.762 160:-0.762 161:0 162:-0.462 163:-0.462 164:-0.462 165:0.462 166:-0.462 167:-0.462 168:-0.462 169:-0.462 170:-0.905 171:-0.462 172:-0.462 173:-0.964 174:-0.762 175:-0.762 176:-0.905 177:-0.462 178:-0.905 179:-0.762 180:-0.762 181:0.998 182:-0.462 183:-0.762 184:-0.462 185:-0.462 186:-0.762 187:-0.964 188:-0.462 189:-0.905 190:-0.462 191:-0.462 192:-0.964 193:-0.905 194:0 195:-0.964 196:-0.905 197:0.762 198:-0.762 199:0.964 200:0.762 201:-0.905 202:-0.905 203:-0.762 204:-0.762 205:-0.762 206:-0.462 207:0.462 208:-0.762 209:-0.462 210:-0.462 211:-0.612 212:-0.612 213:-0.683 214:-0.612 215:0.222 216:-0.683 217:0.15 218:-0.462 219:-0.612 220:-0.462 221:-0.462 222:-0.612 223:-0.683 224:-0.462 225:-0.612 226:-0.612 227:-0.612 228:-0.462 229:0.15 230:-0.462 231:0.268 232:0.23 233:0.039 234:0.194 235:-0.058 236:-0.133 237:-0.042 238:0.157 239:-0.103 240:0.295 
0.2039864157475524 1:-0.231 2:-0.462 3:-0.683 4:-0.612 5:-0.462 6:-0.683 7:-0.683 8:0.222 9:-0.612 10:0 11:0 12:-0.683 13:-0.612 14:-0.612 15:-0.683 16:-0.612 17:-0.231 18:0.251 19:-0.683 20:-0.462 21:-0.462 22:0 23:-0.462 24:-0.462 25:-0.462 26:-0.762 27:-0.762 28:-0.762 29:-0.462 30:-0.462 31:-0.462 32:-0.462 33:0 34:-0.462 35:-0.462 36:-0.462 37:0.462 38:0.987 39:0 40:-0.762 41:-0.462 42:-0.762 43:-0.762 44:-0.905 45:0.995 46:0.762 47:-0.905 48:-0.462 49:-0.462 50:-0.905 51:-0.462 52:-0.964 53:-0.905 54:0.462 55:-0.462 56:0 57:-0.762 58:0 59:-0.462 60:-0.905 61:-0.964 62:-0.462 63:-0.905 64:-0.462 65:-0.462 66:-0.964 67:-0.905 68:0 69:-0.964 70:-0.905 71:0.762 72:-0.762 73:0.964 74:0.762 75:-0.905 76:-0.905 77:-0.762 78:-0.762 79:-0.762 80:-0.462 81:0.462 82:-0.762 83:-0.462 84:-0.462 85:-0.762 86:-0.762 87:-0.905 88:-0.905 89:0.995 90:-0.905 91:-0.462 92:0 93:-0.905 94:0 95:0 96:-0.905 97:-0.964 98:-0.905 99:-0.905 100:-0.762 101:-0.762 102:-0.462 103:0.462 104:-0.462 105:0.905 106:0.964 107:0 108:-0.762 109:-0.462 110:-0.762 111:0 112:-0.762 113:-0.462 114:-0.462 115:-0.462 116:-0.462 117:-0.762 118:-0.462 119:-0.462 120:-0.462 121:0.462 122:0 123:0 124:-0.905 125:-0.462 126:-0.762 127:0.964 128:0 129:-0.762 130:-0.462 131:-0.762 132:0 133:-0.762 134:-0.462 135:-0.462 136:-0.462 137:-0.462 138:-0.762 139:-0.462 140:-0.462 141:-0.462 142:0.462 143:0 144:0 145:-0.905 146:-0.462 147:-0.762 148:-0.462 149:-0.905 150:0 151:0.762 152:-0.905 153:-0.762 154:0 155:-0.905 156:0.462 157:-0.762 158:0 159:0 160:-0.462 161:0.987 162:0.462 163:0 164:-0.462 165:-0.762 166:-0.762 167:-0.462 168:-0.462 169:-0.462 170:-0.905 171:-0.462 172:-0.462 173:-0.964 174:-0.762 175:-0.762 176:-0.905 177:-0.462 178:-0.905 179:-0.762 180:-0.762 181:0.998 182:-0.462 183:-0.762 184:-0.462 185:-0.462 186:-0.762 187:-0.964 188:-0.462 189:-0.905 190:0 191:-0.905 192:-0.462 193:-0.762 194:-0.905 195:0.995 196:-0.762 197:-0.964 198:-0.762 199:-0.964 200:-0.905 201:0 202:-0.762 203:-0.762 204:-0.762 205:0 206:-0.762 207:-0.905 208:-0.762 209:-0.462 210:-0.905 211:-0.154 212:-0.462 213:-0.636 214:-0.607 215:-0.381 216:-0.736 217:-0.784 218:0.1 219:-0.535 220:0.201 221:0.15 222:-0.376 223:-0.683 224:-0.535 225:-0.612 226:-0.066 227:0.175 228:0.104 229:-0.786 230:-0.462 231:-0.612 232:-0.126 233:-0.478 234:-0.064 235:0.659 236:0.001 237:-0.167 238:0.141 239:-0.103 240:0.079 
0.5 1:0.251 2:-0.231 3:-0.612 4:-0.462 5:-0.612 6:-0.231 7:-0.612 8:-0.462 9:-0.462 10:-0.462 11:-0.462 12:-0.612 13:-0.462 14:-0.462 15:-0.462 16:0 17:-0.231 18:-0.231 19:-0.683 20:-0.462 21:-0.612 22:0.462 23:-0.462 24:0 25:0 26:-0.762 27:0 28:-0.462 29:-0.762 30:0 31:-0.762 32:-0.462 33:0.462 34:-0.462 35:0 36:-0.462 37:0.964 38:0.462 39:-0.762 40:-0.905 41:-0.462 42:-0.762 43:-0.462 44:-0.905 45:-0.462 46:0.462 47:-0.905 48:-0.762 49:-0.462 50:-0.905 51:0.987 52:-0.762 53:-0.462 54:0 55:-0.462 56:0.462 57:0.762 58:0 59:-0.462 60:-0.762 61:-0.905 62:-0.462 63:-0.762 64:-0.762 65:-0.905 66:0.462 67:0 68:-0.905 69:0 70:0.462 71:-0.905 72:0 73:-0.905 74:-0.762 75:0.995 76:-0.762 77:0 78:0 79:0.462 80:0 81:-0.905 82:-0.964 83:-0.462 84:-0.762 85:-0.762 86:-0.762 87:-0.905 88:-0.905 89:0.995 90:-0.905 91:-0.462 92:0 93:-0.905 94:0 95:0 96:-0.905 97:-0.964 98:-0.905 99:-0.905 100:-0.762 101:-0.762 102:-0.462 103:0.462 104:-0.462 105:0.905 106:-0.762 107:-0.905 108:-0.462 109:0 110:-0.462 111:-0.762 112:0.999 113:-0.905 114:-0.462 115:-0.905 116:-0.762 117:0.462 118:-0.762 119:0 120:0 121:-0.462 122:-0.762 123:-0.905 124:-0.762 125:-0.462 126:0.762 127:-0.462 128:-0.462 129:-0.964 130:-0.905 131:0 132:-0.964 133:-0.905 134:0.762 135:-0.762 136:0.964 137:0.762 138:-0.905 139:-0.905 140:-0.762 141:-0.762 142:-0.762 143:-0.462 144:0.462 145:-0.762 146:-0.462 147:-0.462 148:-0.462 149:-0.905 150:0 151:0.762 152:-0.905 153:-0.762 154:0 155:-0.905 156:0.462 157:-0.762 158:0 159:0 160:-0.462 161:0.987 162:0.462 163:0 164:-0.462 165:-0.762 166:-0.762 167:-0.462 168:-0.462 169:-0.462 170:-0.905 171:-0.462 172:0.462 173:-0.905 174:-0.762 175:-0.462 176:-0.905 177:0.987 178:-0.762 179:-0.462 180:0 181:-0.462 182:0.462 183:0.762 184:0 185:-0.462 186:-0.762 187:-0.905 188:-0.462 189:-0.762 190:-0.762 191:-0.905 192:0.462 193:0 194:-0.905 195:0 196:0.462 197:-0.905 198:0 199:-0.905 200:-0.762 201:0.995 202:-0.762 203:0 204:0 205:0.462 206:0 207:-0.905 208:-0.964 209:-0.462 210:-0.762 211:-0.154 212:-0.536 213:-0.61 214:-0.66 215:-0.532 216:-0.536 217:-0.81 218:-0.07 219:-0.66 220:-0.138 221:-0.228 222:-0.302 223:-0.66 224:-0.66 225:-0.66 226:-0.023 227:0.212 228:0.151 229:-0.81 230:-0.462 231:-0.686 232:-0.316 233:-0.005 234:0.001 235:0.659 236:-0.298 237:-0.508 238:0.141 239:-0.088 240:0.14 
0.5 1:-0.558 2:-0.831 3:0.829 4:0.635 5:-0.881 6:-0.385 7:-0.462 8:-0.881 9:-0.385 10:-0.93 11:-0.831 12:0.462 13:-0.462 14:0 15:-0.712 16:0.161 17:-0.308 18:-0.881 19:-0.954 20:-0.462 21:-0.881 22:-0.462 23:-0.905 24:0 25:0.762 26:-0.905 27:-0.762 28:0 29:-0.905 30:0.462 31:-0.762 32:0 33:0 34:-0.462 35:0.987 36:0.462 37:0 38:-0.462 39:-0.762 40:-0.762 41:-0.462 42:-0.462 43:-0.462 44:-0.462 45:-0.905 46:-0.905 47:0 48:-0.964 49:-0.905 50:0.964 51:-0.905 52:0.762 53:0.462 54:-0.905 55:-0.905 56:-0.905 57:-0.905 58:-0.762 59:-0.462 60:0.905 61:-0.905 62:-0.462 63:-0.462 64:0.462 65:-0.462 66:0 67:0 68:-0.762 69:0 70:-0.462 71:-0.762 72:0 73:-0.762 74:-0.462 75:0.462 76:-0.462 77:0 78:-0.462 79:0.964 80:0.462 81:-0.762 82:-0.905 83:-0.462 84:-0.762 85:-0.462 86:-0.462 87:-0.905 88:-0.905 89:0 90:-0.964 91:-0.905 92:0.964 93:-0.905 94:0.762 95:0.462 96:-0.905 97:-0.905 98:-0.905 99:-0.905 100:-0.762 101:-0.462 102:0.905 103:-0.905 104:-0.462 105:-0.462 106:-0.462 107:-0.462 108:-0.905 109:-0.762 110:0 111:-0.905 112:-0.762 113:0.462 114:-0.462 115:0.762 116:0.987 117:-0.762 118:-0.762 119:0 120:-0.462 121:-0.462 122:-0.462 123:0.462 124:-0.462 125:-0.462 126:-0.462 127:-0.462 128:-0.905 129:-0.462 130:0.462 131:-0.905 132:-0.762 133:-0.462 134:-0.905 135:0.987 136:-0.762 137:-0.462 138:0 139:-0.462 140:0.462 141:0.762 142:0 143:-0.462 144:-0.762 145:-0.905 146:-0.462 147:-0.762 148:-0.462 149:-0.462 150:-0.964 151:-0.905 152:0 153:-0.964 154:-0.905 155:0.762 156:-0.762 157:0.964 158:0.762 159:-0.905 160:-0.905 161:-0.762 162:-0.762 163:-0.762 164:-0.462 165:0.462 166:-0.762 167:-0.462 168:-0.462 169:-0.462 170:-0.905 171:-0.462 172:-0.462 173:-0.964 174:-0.762 175:-0.762 176:-0.905 177:-0.462 178:-0.905 179:-0.762 180:-0.762 181:0.998 182:-0.462 183:-0.762 184:-0.462 185:-0.462 186:-0.762 187:-0.964 188:-0.462 189:-0.905 190:-0.462 191:-0.462 192:-0.964 193:-0.905 194:0 195:-0.964 196:-0.905 197:0.762 198:-0.762 199:0.964 200:0.762 201:-0.905 202:-0.905 203:-0.762 204:-0.762 205:-0.762 206:-0.462 207:0.462 208:-0.762 209:-0.462 210:-0.462 211:0.154 212:-0.536 213:-0.231 214:-0.077 215:-0.786 216:-0.381 217:-0.562 218:-0.686 219:0.01 220:-0.662 221:-0.462 222:0.231 223:-0.462 224:-0.077 225:-0.258 226:0.636 227:0.483 228:-0.508 229:-0.857 230:-0.462 231:-0.762 232:-0.488 233:-0.631 234:-0.201 235:1 236:-0.375 237:-0.269 238:-0.193 239:-0.103 240:0.295 
0.5 1:-0.462 2:-0.462 3:-0.713 4:-0.683 5:-0.231 6:-0.713 7:-0.683 8:0.15 9:-0.612 10:0.251 11:0.15 12:-0.683 13:-0.683 14:-0.612 15:-0.612 16:-0.612 17:-0.462 18:0 19:-0.612 20:-0.462 21:-0.462 22:-0.462 23:-0.462 24:-0.964 25:-0.905 26:0 27:-0.964 28:-0.905 29:0.762 30:-0.762 31:0.964 32:0.762 33:-0.905 34:-0.905 35:-0.762 36:-0.762 37:-0.762 38:-0.462 39:0.462 40:-0.762 41:-0.462 42:-0.462 43:-0.462 44:-0.964 45:0.762 46:0.987 47:-0.905 48:-0.762 49:0 50:-0.905 51:0.462 52:-0.905 53:-0.762 54:0 55:-0.462 56:0.762 57:0 58:0 59:-0.462 60:-0.762 61:-0.905 62:-0.462 63:-0.762 64:0.462 65:-0.462 66:0 67:0 68:-0.762 69:0 70:-0.462 71:-0.762 72:0 73:-0.762 74:-0.462 75:0.462 76:-0.462 77:0 78:-0.462 79:0.964 80:0.462 81:-0.762 82:-0.905 83:-0.462 84:-0.762 85:-0.462 86:-0.462 87:-0.964 88:-0.905 89:0 90:-0.964 91:-0.905 92:0.762 93:-0.762 94:0.964 95:0.762 96:-0.905 97:-0.905 98:-0.762 99:-0.762 100:-0.762 101:-0.462 102:0.462 103:-0.762 104:-0.462 105:-0.462 106:0.462 107:-0.462 108:0 109:0 110:-0.762 111:0 112:-0.462 113:-0.762 114:0 115:-0.762 116:-0.462 117:0.462 118:-0.462 119:0 120:-0.462 121:0.964 122:0.462 123:-0.762 124:-0.905 125:-0.462 126:-0.762 127:0.462 128:-0.462 129:0 130:0 131:-0.762 132:0 133:-0.462 134:-0.762 135:0 136:-0.762 137:-0.462 138:0.462 139:-0.462 140:0 141:-0.462 142:0.964 143:0.462 144:-0.762 145:-0.905 146:-0.462 147:-0.762 148:-0.462 149:-0.462 150:-0.964 151:-0.905 152:0 153:-0.964 154:-0.905 155:0.762 156:-0.762 157:0.964 158:0.762 159:-0.905 160:-0.905 161:-0.762 162:-0.762 163:-0.762 164:-0.462 165:0.462 166:-0.762 167:-0.462 168:-0.462 169:0 170:-0.905 171:-0.462 172:-0.762 173:-0.905 174:0.995 175:-0.762 176:-0.964 177:-0.762 178:-0.964 179:-0.905 180:0 181:-0.762 182:-0.762 183:-0.762 184:0 185:-0.762 186:-0.905 187:-0.762 188:-0.462 189:-0.905 190:0.964 191:0 192:-0.762 193:-0.462 194:-0.762 195:0 196:-0.762 197:-0.462 198:-0.462 199:-0.462 200:-0.462 201:-0.762 202:-0.462 203:-0.462 204:-0.462 205:0.462 206:0 207:0 208:-0.905 209:-0.462 210:-0.762 211:-0.662 212:-0.757 213:-0.386 214:-0.175 215:-0.382 216:-0.779 217:0.121 218:-0.349 219:-0.562 220:-0.292 221:-0.278 222:0.006 223:-0.76 224:-0.254 225:-0.381 226:-0.485 227:-0.612 228:-0.449 229:-0.796 230:-0.462 231:0.076 232:0.23 233:-0.532 234:-0.201 235:0.665 236:-0.088 237:-0.261 238:-0.193 239:-0.145 240:0.223 
-0.3120414682385903 1:-0.712 2:-0.786 3:-0.831 4:-0.629 5:0.648 6:-0.881 7:-0.054 8:-0.305 9:-0.542 10:-0.281 11:-0.231 12:-0.707 13:-0.861 14:-0.529 15:-0.58 16:-0.635 17:-0.712 18:-0.512 19:0.334 20:-0.462 21:0.658 22:-0.462 23:-0.905 24:-0.462 25:0.462 26:-0.905 27:-0.762 28:-0.462 29:-0.905 30:0.987 31:-0.762 32:-0.462 33:0 34:-0.462 35:0.462 36:0.762 37:0 38:-0.462 39:-0.762 40:-0.905 41:-0.462 42:-0.762 43:0 44:-0.905 45:-0.462 46:-0.762 47:-0.905 48:0.995 49:-0.762 50:-0.964 51:-0.762 52:-0.964 53:-0.905 54:0 55:-0.762 56:-0.762 57:-0.762 58:0 59:-0.762 60:-0.905 61:-0.762 62:-0.462 63:-0.905 64:-0.762 65:-0.905 66:0.462 67:0 68:-0.905 69:0 70:0.462 71:-0.905 72:0 73:-0.905 74:-0.762 75:0.995 76:-0.762 77:0 78:0 79:0.462 80:0 81:-0.905 82:-0.964 83:-0.462 84:-0.762 85:-0.762 86:-0.762 87:-0.905 88:-0.905 89:0.995 90:-0.905 91:-0.462 92:0 93:-0.905 94:0 95:0 96:-0.905 97:-0.964 98:-0.905 99:-0.905 100:-0.762 101:-0.762 102:-0.462 103:0.462 104:-0.462 105:0.905 106:-0.462 107:-0.905 108:0 109:0.762 110:-0.905 111:-0.762 112:0 113:-0.905 114:0.462 115:-0.762 116:0 117:0 118:-0.462 119:0.987 120:0.462 121:0 122:-0.462 123:-0.762 124:-0.762 125:-0.462 126:-0.462 127:-0.462 128:-0.905 129:-0.762 130:0 131:-0.905 132:-0.762 133:0 134:-0.905 135:0.762 136:-0.762 137:-0.462 138:0 139:-0.762 140:0.462 141:0.987 142:-0.462 143:-0.462 144:-0.905 145:-0.905 146:-0.462 147:-0.762 148:-0.462 149:-0.462 150:-0.964 151:-0.905 152:0 153:-0.964 154:-0.905 155:0.762 156:-0.762 157:0.964 158:0.762 159:-0.905 160:-0.905 161:-0.762 162:-0.762 163:-0.762 164:-0.462 165:0.462 166:-0.762 167:-0.462 168:-0.462 169:0.964 170:0 171:-0.762 172:-0.462 173:-0.762 174:0 175:-0.762 176:-0.462 177:-0.462 178:-0.462 179:-0.462 180:-0.762 181:-0.462 182:-0.462 183:-0.462 184:0.462 185:0 186:0 187:-0.905 188:-0.462 189:-0.762 190:-0.462 191:-0.462 192:-0.905 193:-0.905 194:0 195:-0.964 196:-0.905 197:0.964 198:-0.905 199:0.762 200:0.462 201:-0.905 202:-0.905 203:-0.905 204:-0.905 205:-0.762 206:-0.462 207:0.905 208:-0.905 209:-0.462 210:-0.462 211:-0.231 212:-0.462 213:-0.462 214:-0.462 215:-0.612 216:-0.612 217:-0.612 218:-0.462 219:-0.462 220:-0.462 221:-0.462 222:-0.231 223:-0.462 224:-0.462 225:-0.462 226:0 227:0.263 228:-0.231 229:-0.612 230:-0.462 231:-0.612 232:0.166 233:-0.402 234:0.001 235:0.659 236:-0.349 237:-0.505 238:-0.193 239:-0.261 240:0.519 
-0.5 1:-0.462 2:-0.462 3:-0.462 4:-0.462 5:-0.462 6:-0.462 7:-0.462 8:-0.462 9:-0.462 10:-0.462 11:-0.462 12:-0.462 13:-0.462 14:-0.462 15:-0.462 16:-0.462 17:-0.462 18:-0.462 19:-0.462 20:-0.462 21:-0.462 22:-0.462 23:-0.905 24:-0.762 25:0 26:-0.905 27:-0.762 28:0 29:-0.905 30:0.762 31:-0.762 32:-0.462 33:0 34:-0.762 35:0.462 36:0.987 37:-0.462 38:-0.462 39:-0.905 40:-0.905 41:-0.462 42:-0.762 43:-0.762 44:-0.905 45:0.462 46:0 47:-0.905 48:0 49:0.462 50:-0.905 51:0 52:-0.905 53:-0.762 54:0.995 55:-0.762 56:0 57:0 58:0.462 59:0 60:-0.905 61:-0.964 62:-0.462 63:-0.762 64:0 65:-0.462 66:-0.905 67:-0.762 68:-0.462 69:-0.905 70:-0.905 71:0.905 72:-0.762 73:0.462 74:0.462 75:-0.905 76:-0.762 77:-0.762 78:-0.905 79:-0.762 80:0 81:0.964 82:-0.905 83:-0.462 84:-0.462 85:-0.762 86:-0.762 87:-0.905 88:-0.905 89:0.995 90:-0.905 91:-0.462 92:0 93:-0.905 94:0 95:0 96:-0.905 97:-0.964 98:-0.905 99:-0.905 100:-0.762 101:-0.762 102:-0.462 103:0.462 104:-0.462 105:0.905 106:-0.762 107:-0.905 108:0.995 109:0.762 110:-0.905 111:-0.462 112:-0.462 113:-0.905 114:-0.462 115:-0.964 116:-0.905 117:0.462 118:-0.462 119:0 120:-0.762 121:0 122:-0.462 123:-0.905 124:-0.964 125:-0.462 126:-0.905 127:-0.462 128:-0.964 129:0.762 130:0.987 131:-0.905 132:-0.762 133:0 134:-0.905 135:0.462 136:-0.905 137:-0.762 138:0 139:-0.462 140:0.762 141:0 142:0 143:-0.462 144:-0.762 145:-0.905 146:-0.462 147:-0.762 148:0 149:-0.462 150:-0.905 151:-0.762 152:-0.462 153:-0.905 154:-0.905 155:0.905 156:-0.762 157:0.462 158:0.462 159:-0.905 160:-0.762 161:-0.762 162:-0.905 163:-0.762 164:0 165:0.964 166:-0.905 167:-0.462 168:-0.462 169:-0.462 170:-0.462 171:-0.905 172:-0.905 173:0 174:-0.964 175:-0.905 176:0.964 177:-0.905 178:0.762 179:0.462 180:-0.905 181:-0.905 182:-0.905 183:-0.905 184:-0.762 185:-0.462 186:0.905 187:-0.905 188:-0.462 189:-0.462 190:-0.462 191:-0.905 192:-0.462 193:-0.462 194:-0.964 195:-0.762 196:-0.762 197:-0.905 198:-0.462 199:-0.905 200:-0.762 201:-0.762 202:0.998 203:-0.462 204:-0.762 205:-0.462 206:-0.462 207:-0.762 208:-0.964 209:-0.462 210:-0.905 211:0.194 212:-0.358 213:-0.636 214:-0.536 215:-0.469 216:-0.532 217:-0.712 218:-0.385 219:-0.536 220:-0.385 221:-0.385 222:-0.405 223:-0.546 224:-0.536 225:-0.536 226:0.258 227:0.366 228:-0.077 229:-0.606 230:-0.462 231:-0.484 232:-0.136 233:0.039 234:-0.144 235:0.659 236:-0.184 237:-0.596 238:-0.341 239:-0.188 240:-0.131 
0.5 1:-0.462 2:-0.462 3:-0.462 4:-0.462 5:-0.462 6:-0.462 7:-0.462 8:-0.462 9:-0.462 10:-0.462 11:-0.462 12:-0.462 13:-0.462 14:-0.462 15:-0.462 16:-0.462 17:-0.462 18:-0.462 19:-0.462 20:-0.462 21:-0.462 22:-0.762 23:-0.762 24:-0.905 25:-0.905 26:0.995 27:-0.905 28:-0.462 29:0 30:-0.905 31:0 32:0 33:-0.905 34:-0.964 35:-0.905 36:-0.905 37:-0.762 38:-0.762 39:-0.462 40:0.462 41:-0.462 42:0.905 43:-0.462 44:-0.964 45:0.762 46:0.987 47:-0.905 48:-0.762 49:0 50:-0.905 51:0.462 52:-0.905 53:-0.762 54:0 55:-0.462 56:0.762 57:0 58:0 59:-0.462 60:-0.762 61:-0.905 62:-0.462 63:-0.762 64:-0.462 65:-0.905 66:-0.762 67:0 68:-0.905 69:-0.762 70:0 71:-0.905 72:0.762 73:-0.762 74:-0.462 75:0 76:-0.762 77:0.462 78:0.987 79:-0.462 80:-0.462 81:-0.905 82:-0.905 83:-0.462 84:-0.762 85:-0.462 86:-0.462 87:-0.964 88:-0.905 89:0 90:-0.964 91:-0.905 92:0.762 93:-0.762 94:0.964 95:0.762 96:-0.905 97:-0.905 98:-0.762 99:-0.762 100:-0.762 101:-0.462 102:0.462 103:-0.762 104:-0.462 105:-0.462 106:0.964 107:0 108:-0.762 109:-0.462 110:-0.762 111:0 112:-0.762 113:-0.462 114:-0.462 115:-0.462 116:-0.462 117:-0.762 118:-0.462 119:-0.462 120:-0.462 121:0.462 122:0 123:0 124:-0.905 125:-0.462 126:-0.762 127:-0.462 128:-0.462 129:-0.905 130:-0.905 131:0 132:-0.964 133:-0.905 134:0.964 135:-0.905 136:0.762 137:0.462 138:-0.905 139:-0.905 140:-0.905 141:-0.905 142:-0.762 143:-0.462 144:0.905 145:-0.905 146:-0.462 147:-0.462 148:0 149:-0.462 150:-0.462 151:-0.462 152:-0.762 153:-0.762 154:-0.762 155:-0.462 156:-0.462 157:-0.462 158:-0.462 159:0 160:-0.462 161:-0.462 162:-0.462 163:0.462 164:0.987 165:0 166:-0.762 167:-0.462 168:-0.762 169:-0.462 170:-0.905 171:-0.462 172:0.462 173:-0.905 174:-0.762 175:-0.462 176:-0.905 177:0.987 178:-0.762 179:-0.462 180:0 181:-0.462 182:0.462 183:0.762 184:0 185:-0.462 186:-0.762 187:-0.905 188:-0.462 189:-0.762 190:0 191:-0.905 192:-0.462 193:-0.762 194:-0.905 195:0.995 196:-0.762 197:-0.964 198:-0.762 199:-0.964 200:-0.905 201:0 202:-0.762 203:-0.762 204:-0.762 205:0 206:-0.762 207:-0.905 208:-0.762 209:-0.462 210:-0.905 211:-0.358 212:-0.757 213:-0.367 214:0.104 215:-0.757 216:-0.76 217:-0.61 218:-0.302 219:0.162 220:-0.388 221:-0.228 222:-0.225 223:-0.562 224:-0.023 225:-0.048 226:-0.254 227:-0.308 228:-0.211 229:-0.915 230:-0.462 231:-0.686 232:0.343 233:-0.532 234:-0.441 235:0.665 236:0.001 237:-0.141 238:-0.004 239:-0.088 240:0.079 
-0.1661651398840103 1:-0.254 2:-0.831 3:0.024 4:-0.204 5:-0.881 6:0.216 7:-0.662 8:-0.861 9:-0.612 10:-0.88 11:-0.831 12:0.154 13:-0.612 14:-0.458 15:-0.712 16:0.077 17:-0.371 18:-0.754 19:-0.829 20:-0.462 21:-0.881 22:-0.462 23:-0.462 24:-0.964 25:-0.905 26:0 27:-0.964 28:-0.905 29:0.762 30:-0.762 31:0.964 32:0.762 33:-0.905 34:-0.905 35:-0.762 36:-0.762 37:-0.762 38:-0.462 39:0.462 40:-0.762 41:-0.462 42:-0.462 43:0 44:-0.905 45:-0.462 46:-0.762 47:-0.905 48:0.995 49:-0.762 50:-0.964 51:-0.762 52:-0.964 53:-0.905 54:0 55:-0.762 56:-0.762 57:-0.762 58:0 59:-0.762 60:-0.905 61:-0.762 62:-0.462 63:-0.905 64:-0.905 65:-0.762 66:-0.964 67:-0.905 68:0.462 69:-0.762 70:-0.762 71:-0.905 72:-0.905 73:-0.762 74:-0.462 75:-0.964 76:-0.964 77:-0.762 78:-0.905 79:-0.905 80:-0.762 81:-0.905 82:1 83:-0.462 84:0.762 85:-0.762 86:-0.762 87:-0.905 88:-0.762 89:0.905 90:-0.905 91:0.762 92:-0.462 93:-0.762 94:-0.462 95:-0.462 96:-0.762 97:-0.905 98:-0.462 99:-0.762 100:-0.762 101:-0.762 102:-0.462 103:0.762 104:-0.462 105:0.998 106:-0.462 107:-0.905 108:-0.462 109:0.462 110:-0.905 111:-0.762 112:-0.462 113:-0.905 114:0.987 115:-0.762 116:-0.462 117:0 118:-0.462 119:0.462 120:0.762 121:0 122:-0.462 123:-0.762 124:-0.905 125:-0.462 126:-0.762 127:-0.462 128:-0.462 129:-0.905 130:-0.905 131:0 132:-0.964 133:-0.905 134:0.964 135:-0.905 136:0.762 137:0.462 138:-0.905 139:-0.905 140:-0.905 141:-0.905 142:-0.762 143:-0.462 144:0.905 145:-0.905 146:-0.462 147:-0.462 148:-0.462 149:-0.964 150:0.762 151:0.987 152:-0.905 153:-0.762 154:0 155:-0.905 156:0.462 157:-0.905 158:-0.762 159:0 160:-0.462 161:0.762 162:0 163:0 164:-0.462 165:-0.762 166:-0.905 167:-0.462 168:-0.762 169:-0.462 170:-0.462 171:-0.905 172:-0.905 173:0 174:-0.964 175:-0.905 176:0.964 177:-0.905 178:0.762 179:0.462 180:-0.905 181:-0.905 182:-0.905 183:-0.905 184:-0.762 185:-0.462 186:0.905 187:-0.905 188:-0.462 189:-0.462 190:-0.762 191:-0.905 192:0.995 193:0.762 194:-0.905 195:-0.462 196:-0.462 197:-0.905 198:-0.462 199:-0.964 200:-0.905 201:0.462 202:-0.462 203:0 204:-0.762 205:0 206:-0.462 207:-0.905 208:-0.964 209:-0.462 210:-0.905 211:-0.462 212:-0.462 213:-0.462 214:-0.462 215:-0.462 216:-0.462 217:-0.462 218:-0.462 219:-0.462 220:-0.462 221:-0.462 222:-0.462 223:-0.462 224:-0.462 225:-0.462 226:-0.462 227:-0.462 228:-0.462 229:-0.462 230:-0.462 231:-0.462 232:0.23 233:-0.402 234:0.056 235:0.589 236:0.217 237:-0.141 238:0.125 239:-0.188 240:-0.068 
-0.2953724530482363 1:0.321 2:-0.603 3:-0.562 4:-0.662 5:-0.857 6:0.663 7:-0.762 8:-0.797 9:-0.662 10:-0.797 11:-0.757 12:-0.254 13:-0.662 14:-0.662 15:-0.662 16:0.154 17:-0.508 18:-0.603 19:-0.81 20:-0.462 21:-0.857 22:0 23:-0.905 24:-0.462 25:-0.762 26:-0.905 27:0.995 28:-0.762 29:-0.964 30:-0.762 31:-0.964 32:-0.905 33:0 34:-0.762 35:-0.762 36:-0.762 37:0 38:-0.762 39:-0.905 40:-0.762 41:-0.462 42:-0.905 43:-0.462 44:-0.462 45:-0.905 46:-0.905 47:0 48:-0.964 49:-0.905 50:0.964 51:-0.905 52:0.762 53:0.462 54:-0.905 55:-0.905 56:-0.905 57:-0.905 58:-0.762 59:-0.462 60:0.905 61:-0.905 62:-0.462 63:-0.462 64:0 65:-0.462 66:-0.462 67:-0.462 68:-0.762 69:-0.762 70:-0.762 71:-0.462 72:-0.462 73:-0.462 74:-0.462 75:0 76:-0.462 77:-0.462 78:-0.462 79:0.462 80:0.987 81:0 82:-0.762 83:-0.462 84:-0.762 85:-0.462 86:-0.462 87:-0.905 88:-0.905 89:0 90:-0.964 91:-0.905 92:0.964 93:-0.905 94:0.762 95:0.462 96:-0.905 97:-0.905 98:-0.905 99:-0.905 100:-0.762 101:-0.462 102:0.905 103:-0.905 104:-0.462 105:-0.462 106:-0.462 107:-0.905 108:-0.462 109:0.462 110:-0.905 111:-0.762 112:-0.462 113:-0.905 114:0.987 115:-0.762 116:-0.462 117:0 118:-0.462 119:0.462 120:0.762 121:0 122:-0.462 123:-0.762 124:-0.905 125:-0.462 126:-0.762 127:-0.462 128:-0.905 129:-0.462 130:0.462 131:-0.905 132:-0.762 133:-0.462 134:-0.905 135:0.987 136:-0.762 137:-0.462 138:0 139:-0.462 140:0.462 141:0.762 142:0 143:-0.462 144:-0.762 145:-0.905 146:-0.462 147:-0.762 148:0 149:-0.462 150:-0.462 151:-0.462 152:-0.762 153:-0.762 154:-0.762 155:-0.462 156:-0.462 157:-0.462 158:-0.462 159:0 160:-0.462 161:-0.462 162:-0.462 163:0.462 164:0.987 165:0 166:-0.762 167:-0.462 168:-0.762 169:0 170:-0.905 171:-0.462 172:-0.762 173:-0.905 174:0.995 175:-0.762 176:-0.964 177:-0.762 178:-0.964 179:-0.905 180:0 181:-0.762 182:-0.762 183:-0.762 184:0 185:-0.762 186:-0.905 187:-0.762 188:-0.462 189:-0.905 190:-0.462 191:-0.905 192:0 193:0.762 194:-0.905 195:-0.762 196:0 197:-0.905 198:0.462 199:-0.762 200:0 201:0 202:-0.462 203:0.987 204:0.462 205:0 206:-0.462 207:-0.762 208:-0.762 209:-0.462 210:-0.462 211:0.251 212:-0.231 213:-0.612 214:-0.462 215:-0.612 216:-0.231 217:-0.612 218:-0.462 219:-0.462 220:-0.462 221:-0.462 222:-0.612 223:-0.462 224:-0.462 225:-0.462 226:0 227:-0.231 228:-0.231 229:-0.683 230:-0.462 231:-0.612 232:-0.118 233:-0.631 234:-0.126 235:1 236:0.217 237:-0.269 238:-0.004 239:-0.145 240:-0.577 
0.5 1:-0.231 2:-0.683 3:-0.462 4:-0.612 5:-0.683 6:0.267 7:-0.612 8:-0.713 9:-0.612 10:-0.713 11:-0.683 12:-0.231 13:-0.612 14:-0.612 15:-0.612 16:-0.231 17:-0.612 18:-0.683 19:-0.612 20:-0.462 21:-0.683 22:-0.462 23:-0.462 24:-0.964 25:-0.905 26:0 27:-0.964 28:-0.905 29:0.762 30:-0.762 31:0.964 32:0.762 33:-0.905 34:-0.905 35:-0.762 36:-0.762 37:-0.762 38:-0.462 39:0.462 40:-0.762 41:-0.462 42:-0.462 43:0.462 44:-0.462 45:0 46:0 47:-0.762 48:0 49:-0.462 50:-0.762 51:0 52:-0.762 53:-0.462 54:0.462 55:-0.462 56:0 57:-0.462 58:0.964 59:0.462 60:-0.762 61:-0.905 62:-0.462 63:-0.762 64:0 65:-0.905 66:-0.462 67:-0.762 68:-0.905 69:0.995 70:-0.762 71:-0.964 72:-0.762 73:-0.964 74:-0.905 75:0 76:-0.762 77:-0.762 78:-0.762 79:0 80:-0.762 81:-0.905 82:-0.762 83:-0.462 84:-0.905 85:-0.462 86:-0.964 87:0.762 88:0.987 89:-0.905 90:-0.762 91:0 92:-0.905 93:0.462 94:-0.905 95:-0.762 96:0 97:-0.462 98:0.762 99:0 100:0 101:-0.462 102:-0.762 103:-0.905 104:-0.462 105:-0.762 106:-0.462 107:-0.905 108:-0.462 109:-0.462 110:-0.964 111:-0.762 112:-0.762 113:-0.905 114:-0.462 115:-0.905 116:-0.762 117:-0.762 118:0.998 119:-0.462 120:-0.762 121:-0.462 122:-0.462 123:-0.762 124:-0.964 125:-0.462 126:-0.905 127:-0.462 128:-0.905 129:-0.462 130:0.462 131:-0.905 132:-0.762 133:-0.462 134:-0.905 135:0.987 136:-0.762 137:-0.462 138:0 139:-0.462 140:0.462 141:0.762 142:0 143:-0.462 144:-0.762 145:-0.905 146:-0.462 147:-0.762 148:0 149:-0.905 150:-0.462 151:-0.762 152:-0.905 153:0.995 154:-0.762 155:-0.964 156:-0.762 157:-0.964 158:-0.905 159:0 160:-0.762 161:-0.762 162:-0.762 163:0 164:-0.762 165:-0.905 166:-0.762 167:-0.462 168:-0.905 169:0 170:-0.905 171:-0.462 172:-0.762 173:-0.905 174:0.995 175:-0.762 176:-0.964 177:-0.762 178:-0.964 179:-0.905 180:0 181:-0.762 182:-0.762 183:-0.762 184:0 185:-0.762 186:-0.905 187:-0.762 188:-0.462 189:-0.905 190:0.964 191:0 192:-0.762 193:-0.462 194:-0.762 195:0 196:-0.762 197:-0.462 198:-0.462 199:-0.462 200:-0.462 201:-0.762 202:-0.462 203:-0.462 204:-0.462 205:0.462 206:0 207:0 208:-0.905 209:-0.462 210:-0.762 211:-0 212:-0.713 213:0.381 214:0.493 215:-0.834 216:-0.381 217:-0.231 218:-0.834 219:0.231 220:-0.834 221:-0.612 222:0.231 223:-0.462 224:0.381 225:-0.231 226:0.482 227:-0 228:-0.762 229:-0.905 230:-0.462 231:-0.762 232:0.23 233:-0.424 234:-0.118 235:-0.042 236:-0.724 237:-0.269 238:-0.511 239:-0.145 240:0.223 
-0.1536164306452713 1:-0.462 2:-0.462 3:-0.462 4:-0.462 5:-0.462 6:-0.462 7:-0.462 8:-0.462 9:-0.462 10:-0.462 11:-0.462 12:-0.462 13:-0.462 14:-0.462 15:-0.462 16:-0.462 17:-0.462 18:-0.462 19:-0.462 20:-0.462 21:-0.462 22:-0.762 23:-0.762 24:-0.905 25:-0.762 26:0.905 27:-0.905 28:0.762 29:-0.462 30:-0.762 31:-0.462 32:-0.462 33:-0.762 34:-0.905 35:-0.462 36:-0.762 37:-0.762 38:-0.762 39:-0.462 40:0.762 41:-0.462 42:0.998 43:-0.762 44:-0.905 45:0.462 46:0 47:-0.905 48:0 49:0.462 50:-0.905 51:0 52:-0.905 53:-0.762 54:0.995 55:-0.762 56:0 57:0 58:0.462 59:0 60:-0.905 61:-0.964 62:-0.462 63:-0.762 64:-0.762 65:-0.762 66:-0.905 67:-0.762 68:0.905 69:-0.905 70:0.762 71:-0.462 72:-0.762 73:-0.462 74:-0.462 75:-0.762 76:-0.905 77:-0.462 78:-0.762 79:-0.762 80:-0.762 81:-0.462 82:0.762 83:-0.462 84:0.998 85:-0.462 86:-0.462 87:-0.905 88:-0.762 89:0 90:-0.905 91:-0.762 92:0.462 93:-0.462 94:0.762 95:0.987 96:-0.762 97:-0.762 98:0 99:-0.462 100:-0.462 101:-0.462 102:0.462 103:-0.462 104:-0.462 105:-0.462 106:-0.462 107:-0.964 108:0.762 109:0.987 110:-0.905 111:-0.762 112:0 113:-0.905 114:0.462 115:-0.905 116:-0.762 117:0 118:-0.462 119:0.762 120:0 121:0 122:-0.462 123:-0.762 124:-0.905 125:-0.462 126:-0.762 127:-0.462 128:-0.905 129:-0.462 130:-0.462 131:-0.964 132:-0.762 133:-0.762 134:-0.905 135:-0.462 136:-0.905 137:-0.762 138:-0.762 139:0.998 140:-0.462 141:-0.762 142:-0.462 143:-0.462 144:-0.762 145:-0.964 146:-0.462 147:-0.905 148:-0.762 149:-0.762 150:-0.905 151:-0.762 152:0.905 153:-0.905 154:0.762 155:-0.462 156:-0.762 157:-0.462 158:-0.462 159:-0.762 160:-0.905 161:-0.462 162:-0.762 163:-0.762 164:-0.762 165:-0.462 166:0.762 167:-0.462 168:0.998 169:0 170:-0.462 171:-0.905 172:-0.762 173:-0.462 174:-0.905 175:-0.905 176:0.905 177:-0.762 178:0.462 179:0.462 180:-0.905 181:-0.762 182:-0.762 183:-0.905 184:-0.762 185:0 186:0.964 187:-0.905 188:-0.462 189:-0.462 190:0.462 191:-0.462 192:0 193:0 194:-0.762 195:0 196:-0.462 197:-0.762 198:0 199:-0.762 200:-0.462 201:0.462 202:-0.462 203:0 204:-0.462 205:0.964 206:0.462 207:-0.762 208:-0.905 209:-0.462 210:-0.762 211:-0.562 212:-0.905 213:-0.154 214:0.154 215:-0.915 216:-0.508 217:-0.204 218:-0.905 219:0.416 220:-0.833 221:-0.612 222:0.205 223:-0.319 224:0.154 225:0.254 226:0.077 227:-0.308 228:-0.81 229:-0.934 230:-0.462 231:-0.786 232:0.056 233:0.039 234:0.102 235:0.904 236:-0.377 237:-0.496 238:-0.28 239:-0.252 240:0.089 
0.4802548077543459 1:-0.462 2:-0.462 3:-0.462 4:-0.462 5:-0.462 6:-0.462 7:-0.462 8:-0.462 9:-0.462 10:-0.462 11:-0.462 12:-0.462 13:-0.462 14:-0.462 15:-0.462 16:-0.462 17:-0.462 18:-0.462 19:-0.462 20:-0.462 21:-0.462 22:0 23:-0.462 24:-0.905 25:-0.762 26:-0.462 27:-0.905 28:-0.905 29:0.905 30:-0.762 31:0.462 32:0.462 33:-0.905 34:-0.762 35:-0.762 36:-0.905 37:-0.762 38:0 39:0.964 40:-0.905 41:-0.462 42:-0.462 43:-0.462 44:-0.905 45:-0.462 46:-0.462 47:-0.964 48:-0.762 49:-0.762 50:-0.905 51:-0.462 52:-0.905 53:-0.762 54:-0.762 55:0.998 56:-0.462 57:-0.762 58:-0.462 59:-0.462 60:-0.762 61:-0.964 62:-0.462 63:-0.905 64:-0.762 65:-0.762 66:-0.905 67:-0.905 68:0.995 69:-0.905 70:-0.462 71:0 72:-0.905 73:0 74:0 75:-0.905 76:-0.964 77:-0.905 78:-0.905 79:-0.762 80:-0.762 81:-0.462 82:0.462 83:-0.462 84:0.905 85:-0.762 86:-0.905 87:0.462 88:0 89:-0.905 90:0 91:0.462 92:-0.905 93:0 94:-0.905 95:-0.762 96:0.995 97:-0.762 98:0 99:0 100:0.462 101:0 102:-0.905 103:-0.964 104:-0.462 105:-0.762 106:0 107:-0.462 108:-0.905 109:-0.762 110:-0.462 111:-0.905 112:-0.905 113:0.905 114:-0.762 115:0.462 116:0.462 117:-0.905 118:-0.762 119:-0.762 120:-0.905 121:-0.762 122:0 123:0.964 124:-0.905 125:-0.462 126:-0.462 127:0.964 128:0 129:-0.762 130:-0.462 131:-0.762 132:0 133:-0.762 134:-0.462 135:-0.462 136:-0.462 137:-0.462 138:-0.762 139:-0.462 140:-0.462 141:-0.462 142:0.462 143:0 144:0 145:-0.905 146:-0.462 147:-0.762 148:-0.462 149:-0.905 150:0 151:0.762 152:-0.905 153:-0.762 154:0 155:-0.905 156:0.462 157:-0.762 158:0 159:0 160:-0.462 161:0.987 162:0.462 163:0 164:-0.462 165:-0.762 166:-0.762 167:-0.462 168:-0.462 169:0.964 170:0 171:-0.762 172:-0.462 173:-0.762 174:0 175:-0.762 176:-0.462 177:-0.462 178:-0.462 179:-0.462 180:-0.762 181:-0.462 182:-0.462 183:-0.462 184:0.462 185:0 186:0 187:-0.905 188:-0.462 189:-0.762 190:-0.762 191:-0.762 192:-0.905 193:-0.762 194:0.905 195:-0.905 196:0.762 197:-0.462 198:-0.762 199:-0.462 200:-0.462 201:-0.762 202:-0.905 203:-0.462 204:-0.762 205:-0.762 206:-0.762 207:-0.462 208:0.762 209:-0.462 210:0.998 211:-0.154 212:0.195 213:-0.831 214:-0.911 215:-0.532 216:-0.608 217:-0.881 218:-0.07 219:-0.881 220:-0.138 221:-0.228 222:-0.754 223:-0.881 224:-0.881 225:-0.881 226:-0.485 227:-0.512 228:-0.08 229:-0.81 230:-0.462 231:-0.686 232:0.331 233:-0.299 234:0.156 235:-0.042 236:-0.005 237:-0.167 238:0.141 239:-0.261 240:0.056 
-0.4610436465325196 1:-0.458 2:-0.905 3:0 4:-0.331 5:-0.915 6:0.205 7:-0.15 8:-0.925 9:-0.331 10:-0.925 11:-0.81 12:0.37 13:-0.469 14:-0.331 15:-0.381 16:0.154 17:-0.331 18:-0.881 19:-0.897 20:-0.462 21:-0.833 22:-0.462 23:-0.905 24:-0.462 25:0.462 26:-0.905 27:-0.762 28:-0.462 29:-0.905 30:0.987 31:-0.762 32:-0.462 33:0 34:-0.462 35:0.462 36:0.762 37:0 38:-0.462 39:-0.762 40:-0.905 41:-0.462 42:-0.762 43:-0.462 44:-0.905 45:-0.462 46:0.462 47:-0.905 48:-0.762 49:-0.462 50:-0.905 51:0.987 52:-0.762 53:-0.462 54:0 55:-0.462 56:0.462 57:0.762 58:0 59:-0.462 60:-0.762 61:-0.905 62:-0.462 63:-0.762 64:-0.762 65:-0.762 66:-0.905 67:-0.905 68:0.995 69:-0.905 70:-0.462 71:0 72:-0.905 73:0 74:0 75:-0.905 76:-0.964 77:-0.905 78:-0.905 79:-0.762 80:-0.762 81:-0.462 82:0.462 83:-0.462 84:0.905 85:0 86:-0.462 87:-0.905 88:-0.762 89:-0.462 90:-0.905 91:-0.905 92:0.905 93:-0.762 94:0.462 95:0.462 96:-0.905 97:-0.762 98:-0.762 99:-0.905 100:-0.762 101:0 102:0.964 103:-0.905 104:-0.462 105:-0.462 106:0 107:-0.462 108:-0.905 109:-0.762 110:-0.462 111:-0.905 112:-0.905 113:0.905 114:-0.762 115:0.462 116:0.462 117:-0.905 118:-0.762 119:-0.762 120:-0.905 121:-0.762 122:0 123:0.964 124:-0.905 125:-0.462 126:-0.462 127:-0.762 128:-0.905 129:0.462 130:0 131:-0.905 132:0 133:0.462 134:-0.905 135:0 136:-0.905 137:-0.762 138:0.995 139:-0.762 140:0 141:0 142:0.462 143:0 144:-0.905 145:-0.964 146:-0.462 147:-0.762 148:-0.762 149:-0.905 150:0.462 151:0 152:-0.905 153:0 154:0.462 155:-0.905 156:0 157:-0.905 158:-0.762 159:0.995 160:-0.762 161:0 162:0 163:0.462 164:0 165:-0.905 166:-0.964 167:-0.462 168:-0.762 169:-0.462 170:-0.462 171:-0.964 172:-0.905 173:0 174:-0.964 175:-0.905 176:0.762 177:-0.762 178:0.964 179:0.762 180:-0.905 181:-0.905 182:-0.762 183:-0.762 184:-0.762 185:-0.462 186:0.462 187:-0.762 188:-0.462 189:-0.462 190:-0.762 191:-0.762 192:-0.905 193:-0.905 194:0.995 195:-0.905 196:-0.462 197:0 198:-0.905 199:0 200:0 201:-0.905 202:-0.964 203:-0.905 204:-0.905 205:-0.762 206:-0.762 207:-0.462 208:0.462 209:-0.462 210:0.905 211:-0.712 212:-0.76 213:-0.376 214:-0.529 215:0.119 216:-0.529 217:-0.154 218:-0.379 219:-0.529 220:-0.379 221:-0.331 222:-0.198 223:-0.813 224:-0.529 225:-0.529 226:-0.304 227:-0.458 228:-0.61 229:-0.167 230:-0.462 231:0.121 232:0.166 233:-0.005 234:0.156 235:0.817 236:-0.005 237:-0.042 238:0.272 239:-0.339 240:0.183 
-0.3174121017509127 1:-0 2:-0.713 3:0.381 4:0.493 5:-0.834 6:-0.381 7:-0.231 8:-0.834 9:0.231 10:-0.834 11:-0.612 12:0.231 13:-0.462 14:0.381 15:-0.231 16:0.482 17:-0 18:-0.762 19:-0.905 20:-0.462 21:-0.762 22:0 23:-0.462 24:-0.905 25:-0.762 26:-0.462 27:-0.905 28:-0.905 29:0.905 30:-0.762 31:0.462 32:0.462 33:-0.905 34:-0.762 35:-0.762 36:-0.905 37:-0.762 38:0 39:0.964 40:-0.905 41:-0.462 42:-0.462 43:-0.462 44:-0.462 45:-0.964 46:-0.905 47:0 48:-0.964 49:-0.905 50:0.762 51:-0.762 52:0.964 53:0.762 54:-0.905 55:-0.905 56:-0.762 57:-0.762 58:-0.762 59:-0.462 60:0.462 61:-0.762 62:-0.462 63:-0.462 64:-0.462 65:-0.905 66:-0.462 67:0.462 68:-0.905 69:-0.762 70:-0.462 71:-0.905 72:0.987 73:-0.762 74:-0.462 75:0 76:-0.462 77:0.462 78:0.762 79:0 80:-0.462 81:-0.762 82:-0.905 83:-0.462 84:-0.762 85:-0.462 86:-0.462 87:-0.964 88:-0.905 89:0 90:-0.964 91:-0.905 92:0.762 93:-0.762 94:0.964 95:0.762 96:-0.905 97:-0.905 98:-0.762 99:-0.762 100:-0.762 101:-0.462 102:0.462 103:-0.762 104:-0.462 105:-0.462 106:-0.462 107:-0.905 108:-0.462 109:0.462 110:-0.905 111:-0.762 112:-0.462 113:-0.905 114:0.987 115:-0.762 116:-0.462 117:0 118:-0.462 119:0.462 120:0.762 121:0 122:-0.462 123:-0.762 124:-0.905 125:-0.462 126:-0.762 127:-0.762 128:-0.905 129:0.995 130:0.762 131:-0.905 132:-0.462 133:-0.462 134:-0.905 135:-0.462 136:-0.964 137:-0.905 138:0.462 139:-0.462 140:0 141:-0.762 142:0 143:-0.462 144:-0.905 145:-0.964 146:-0.462 147:-0.905 148:-0.462 149:-0.964 150:0.762 151:0.987 152:-0.905 153:-0.762 154:0 155:-0.905 156:0.462 157:-0.905 158:-0.762 159:0 160:-0.462 161:0.762 162:0 163:0 164:-0.462 165:-0.762 166:-0.905 167:-0.462 168:-0.762 169:0 170:-0.462 171:-0.905 172:-0.762 173:-0.462 174:-0.905 175:-0.905 176:0.905 177:-0.762 178:0.462 179:0.462 180:-0.905 181:-0.762 182:-0.762 183:-0.905 184:-0.762 185:0 186:0.964 187:-0.905 188:-0.462 189:-0.462 190:-0.462 191:-0.905 192:-0.762 193:0 194:-0.905 195:-0.762 196:0 197:-0.905 198:0.762 199:-0.762 200:-0.462 201:0 202:-0.762 203:0.462 204:0.987 205:-0.462 206:-0.462 207:-0.905 208:-0.905 209:-0.462 210:-0.762 211:-0.462 212:-0.462 213:-0.462 214:-0.462 215:-0.462 216:-0.462 217:-0.462 218:-0.462 219:-0.462 220:-0.462 221:-0.462 222:-0.462 223:-0.462 224:-0.462 225:-0.462 226:-0.462 227:-0.462 228:-0.462 229:-0.462 230:-0.462 231:-0.462 232:0.331 233:-0.596 234:0.044 235:0.665 236:0.217 237:-0.675 238:0.125 239:-0.252 240:-0.668 
0.5 1:0 2:-0.61 3:-0.231 4:0.077 5:-0.76 6:-0.331 7:-0.462 8:-0.76 9:0.252 10:-0.712 11:-0.462 12:0.154 13:-0.462 14:0.077 15:-0.054 16:0.405 17:0 18:-0.712 19:-0.831 20:-0.462 21:-0.712 22:-0.462 23:-0.905 24:-0.762 25:0 26:-0.905 27:-0.762 28:0 29:-0.905 30:0.762 31:-0.762 32:-0.462 33:0 34:-0.762 35:0.462 36:0.987 37:-0.462 38:-0.462 39:-0.905 40:-0.905 41:-0.462 42:-0.762 43:-0.762 44:-0.762 45:-0.905 46:-0.905 47:0.995 48:-0.905 49:-0.462 50:0 51:-0.905 52:0 53:0 54:-0.905 55:-0.964 56:-0.905 57:-0.905 58:-0.762 59:-0.762 60:-0.462 61:0.462 62:-0.462 63:0.905 64:-0.762 65:-0.762 66:-0.905 67:-0.905 68:0.995 69:-0.905 70:-0.462 71:0 72:-0.905 73:0 74:0 75:-0.905 76:-0.964 77:-0.905 78:-0.905 79:-0.762 80:-0.762 81:-0.462 82:0.462 83:-0.462 84:0.905 85:-0.462 86:-0.462 87:-0.905 88:-0.905 89:0 90:-0.964 91:-0.905 92:0.964 93:-0.905 94:0.762 95:0.462 96:-0.905 97:-0.905 98:-0.905 99:-0.905 100:-0.762 101:-0.462 102:0.905 103:-0.905 104:-0.462 105:-0.462 106:-0.905 107:-0.762 108:-0.964 109:-0.905 110:0.462 111:-0.762 112:-0.762 113:-0.905 114:-0.905 115:-0.762 116:-0.462 117:-0.964 118:-0.964 119:-0.762 120:-0.905 121:-0.905 122:-0.762 123:-0.905 124:1 125:-0.462 126:0.762 127:0.462 128:-0.462 129:0 130:0 131:-0.762 132:0 133:-0.462 134:-0.762 135:0 136:-0.762 137:-0.462 138:0.462 139:-0.462 140:0 141:-0.462 142:0.964 143:0.462 144:-0.762 145:-0.905 146:-0.462 147:-0.762 148:-0.462 149:-0.905 150:0 151:0.762 152:-0.905 153:-0.762 154:0 155:-0.905 156:0.462 157:-0.762 158:0 159:0 160:-0.462 161:0.987 162:0.462 163:0 164:-0.462 165:-0.762 166:-0.762 167:-0.462 168:-0.462 169:-0.462 170:-0.964 171:0.762 172:0.987 173:-0.905 174:-0.762 175:0 176:-0.905 177:0.462 178:-0.905 179:-0.762 180:0 181:-0.462 182:0.762 183:0 184:0 185:-0.462 186:-0.762 187:-0.905 188:-0.462 189:-0.762 190:0 191:-0.462 192:-0.905 193:-0.762 194:-0.462 195:-0.905 196:-0.905 197:0.905 198:-0.762 199:0.462 200:0.462 201:-0.905 202:-0.762 203:-0.762 204:-0.905 205:-0.762 206:0 207:0.964 208:-0.905 209:-0.462 210:-0.462 211:-0.462 212:-0.683 213:-0.713 214:-0.683 215:-0.482 216:-0.863 217:-0.833 218:-0.072 219:-0.612 220:0.029 221:0 222:-0.833 223:0.047 224:-0.612 225:-0.762 226:-0.612 227:-0.462 228:-0.15 229:-0.863 230:-0.462 231:-0.683 232:-0.136 233:-0.545 234:0.156 235:1 236:-0.191 237:-0.261 238:0.141 239:-0.475 240:0.306 
-0.5 1:-0.462 2:-0.462 3:-0.462 4:-0.462 5:-0.462 6:-0.462 7:-0.462 8:-0.462 9:-0.462 10:-0.462 11:-0.462 12:-0.462 13:-0.462 14:-0.462 15:-0.462 16:-0.462 17:-0.462 18:-0.462 19:-0.462 20:-0.462 21:-0.462 22:-0.462 23:-0.462 24:-0.964 25:-0.905 26:0 27:-0.964 28:-0.905 29:0.762 30:-0.762 31:0.964 32:0.762 33:-0.905 34:-0.905 35:-0.762 36:-0.762 37:-0.762 38:-0.462 39:0.462 40:-0.762 41:-0.462 42:-0.462 43:-0.462 44:-0.905 45:-0.462 46:0.462 47:-0.905 48:-0.762 49:-0.462 50:-0.905 51:0.987 52:-0.762 53:-0.462 54:0 55:-0.462 56:0.462 57:0.762 58:0 59:-0.462 60:-0.762 61:-0.905 62:-0.462 63:-0.762 64:-0.462 65:-0.462 66:-0.964 67:-0.905 68:0 69:-0.964 70:-0.905 71:0.762 72:-0.762 73:0.964 74:0.762 75:-0.905 76:-0.905 77:-0.762 78:-0.762 79:-0.762 80:-0.462 81:0.462 82:-0.762 83:-0.462 84:-0.462 85:0 86:-0.462 87:-0.462 88:-0.462 89:-0.762 90:-0.762 91:-0.762 92:-0.462 93:-0.462 94:-0.462 95:-0.462 96:0 97:-0.462 98:-0.462 99:-0.462 100:0.462 101:0.987 102:0 103:-0.762 104:-0.462 105:-0.762 106:0.462 107:-0.462 108:0 109:0 110:-0.762 111:0 112:-0.462 113:-0.762 114:0 115:-0.762 116:-0.462 117:0.462 118:-0.462 119:0 120:-0.462 121:0.964 122:0.462 123:-0.762 124:-0.905 125:-0.462 126:-0.762 127:0 128:-0.905 129:-0.462 130:-0.762 131:-0.905 132:0.995 133:-0.762 134:-0.964 135:-0.762 136:-0.964 137:-0.905 138:0 139:-0.762 140:-0.762 141:-0.762 142:0 143:-0.762 144:-0.905 145:-0.762 146:-0.462 147:-0.905 148:-0.462 149:-0.905 150:-0.462 151:0.462 152:-0.905 153:-0.762 154:-0.462 155:-0.905 156:0.987 157:-0.762 158:-0.462 159:0 160:-0.462 161:0.462 162:0.762 163:0 164:-0.462 165:-0.762 166:-0.905 167:-0.462 168:-0.762 169:-0.462 170:-0.462 171:-0.905 172:-0.905 173:0 174:-0.964 175:-0.905 176:0.964 177:-0.905 178:0.762 179:0.462 180:-0.905 181:-0.905 182:-0.905 183:-0.905 184:-0.762 185:-0.462 186:0.905 187:-0.905 188:-0.462 189:-0.462 190:0.964 191:0 192:-0.762 193:-0.462 194:-0.762 195:0 196:-0.762 197:-0.462 198:-0.462 199:-0.462 200:-0.462 201:-0.762 202:-0.462 203:-0.462 204:-0.462 205:0.462 206:0 207:0 208:-0.905 209:-0.462 210:-0.762 211:0.154 212:0.025 213:-0.462 214:-0.472 215:-0.635 216:-0.462 217:-0.683 218:-0.408 219:-0.429 220:-0.374 221:-0.258 222:-0.221 223:-0.683 224:-0.429 225:-0.66 226:0.201 227:0 228:-0.458 229:-0.834 230:-0.462 231:-0.712 232:0.23 233:-0.005 234:-0.064 235:0.243 236:-0.088 237:-0.402 238:-0.031 239:-0.188 240:0.223 
