svm_type nu_svr
kernel_type rbf
gamma 0.00195312
nr_class 2
total_sv 638
rho -0.478846
SV
2 1:-0.05 2:-0.703 3:0.331 4:0.329 5:-0.833 6:-0.254 7:-0.154 8:-0.833 9:0.154 10:-0.833 11:-0.612 12:0.397 13:-0.512 14:0.254 15:-0.231 16:0.559 17:0.077 18:-0.786 19:-0.915 20:-0.462 21:-0.762 22:-0.762 23:-0.762 24:-0.905 25:-0.762 26:0.905 27:-0.905 28:0.762 29:-0.462 30:-0.762 31:-0.462 32:-0.462 33:-0.762 34:-0.905 35:-0.462 36:-0.762 37:-0.762 38:-0.762 39:-0.462 40:0.762 41:-0.462 42:0.998 43:-0.462 44:-0.905 45:-0.462 46:0.462 47:-0.905 48:-0.762 49:-0.462 50:-0.905 51:0.987 52:-0.762 53:-0.462 54:0 55:-0.462 56:0.462 57:0.762 58:0 59:-0.462 60:-0.762 61:-0.905 62:-0.462 63:-0.762 64:-0.462 65:-0.905 66:-0.462 67:0.462 68:-0.905 69:-0.762 70:-0.462 71:-0.905 72:0.987 73:-0.762 74:-0.462 75:0 76:-0.462 77:0.462 78:0.762 79:0 80:-0.462 81:-0.762 82:-0.905 83:-0.462 84:-0.762 85:-0.462 86:-0.905 87:0 88:0.762 89:-0.905 90:-0.762 91:0 92:-0.905 93:0.462 94:-0.762 95:0 96:0 97:-0.462 98:0.987 99:0.462 100:0 101:-0.462 102:-0.762 103:-0.762 104:-0.462 105:-0.462 106:0 107:-0.462 108:-0.905 109:-0.762 110:-0.462 111:-0.905 112:-0.905 113:0.905 114:-0.762 115:0.462 116:0.462 117:-0.905 118:-0.762 119:-0.762 120:-0.905 121:-0.762 122:0 123:0.964 124:-0.905 125:-0.462 126:-0.462 127:0 128:-0.462 129:-0.462 130:-0.462 131:-0.762 132:-0.762 133:-0.762 134:-0.462 135:-0.462 136:-0.462 137:-0.462 138:0 139:-0.462 140:-0.462 141:-0.462 142:0.462 143:0.987 144:0 145:-0.762 146:-0.462 147:-0.762 148:-0.462 149:-0.462 150:-0.905 151:-0.905 152:0 153:-0.964 154:-0.905 155:0.964 156:-0.905 157:0.762 158:0.462 159:-0.905 160:-0.905 161:-0.905 162:-0.905 163:-0.762 164:-0.462 165:0.905 166:-0.905 167:-0.462 168:-0.462 169:-0.462 170:-0.905 171:-0.762 172:0 173:-0.905 174:-0.762 175:0 176:-0.905 177:0.762 178:-0.762 179:-0.462 180:0 181:-0.762 182:0.462 183:0.987 184:-0.462 185:-0.462 186:-0.905 187:-0.905 188:-0.462 189:-0.762 190:-0.462 191:-0.462 192:-0.905 193:-0.905 194:0 195:-0.964 196:-0.905 197:0.964 198:-0.905 199:0.762 200:0.462 201:-0.905 202:-0.905 203:-0.905 204:-0.905 205:-0.762 206:-0.462 207:0.905 208:-0.905 209:-0.462 210:-0.462 211:-0.077 212:-0.196 213:-0.61 214:-0.779 215:-0.784 216:0.119 217:-0.76 218:-0.713 219:-0.76 220:-0.713 221:-0.683 222:-0.379 223:-0.76 224:-0.76 225:-0.76 226:-0.231 227:-0.612 228:-0.683 229:-0.712 230:-0.462 231:-0.784 232:0.914 233:0.224 234:0.063 235:-0.108 236:-0.037 237:0.27 238:0.023 239:-0.254 240:-0.095 
-0.9200940460087865 1:-0.462 2:-0.683 3:-0.462 4:0 5:-0.683 6:-0.612 7:-0.462 8:-0.683 9:0.263 10:-0.612 11:-0.462 12:-0.231 13:-0.462 14:0 15:0.15 16:-0.231 17:-0.462 18:-0.612 19:-0.683 20:-0.462 21:-0.612 22:-0.762 23:-0.762 24:-0.905 25:-0.905 26:0.995 27:-0.905 28:-0.462 29:0 30:-0.905 31:0 32:0 33:-0.905 34:-0.964 35:-0.905 36:-0.905 37:-0.762 38:-0.762 39:-0.462 40:0.462 41:-0.462 42:0.905 43:-0.762 44:-0.905 45:0.995 46:0.762 47:-0.905 48:-0.462 49:-0.462 50:-0.905 51:-0.462 52:-0.964 53:-0.905 54:0.462 55:-0.462 56:0 57:-0.762 58:0 59:-0.462 60:-0.905 61:-0.964 62:-0.462 63:-0.905 64:0.462 65:-0.462 66:0 67:0 68:-0.762 69:0 70:-0.462 71:-0.762 72:0 73:-0.762 74:-0.462 75:0.462 76:-0.462 77:0 78:-0.462 79:0.964 80:0.462 81:-0.762 82:-0.905 83:-0.462 84:-0.762 85:-0.462 86:-0.905 87:-0.762 88:0 89:-0.905 90:-0.762 91:0 92:-0.905 93:0.762 94:-0.762 95:-0.462 96:0 97:-0.762 98:0.462 99:0.987 100:-0.462 101:-0.462 102:-0.905 103:-0.905 104:-0.462 105:-0.762 106:-0.462 107:-0.462 108:-0.964 109:-0.905 110:0 111:-0.964 112:-0.905 113:0.762 114:-0.762 115:0.964 116:0.762 117:-0.905 118:-0.905 119:-0.762 120:-0.762 121:-0.762 122:-0.462 123:0.462 124:-0.762 125:-0.462 126:-0.462 127:0.964 128:0 129:-0.762 130:-0.462 131:-0.762 132:0 133:-0.762 134:-0.462 135:-0.462 136:-0.462 137:-0.462 138:-0.762 139:-0.462 140:-0.462 141:-0.462 142:0.462 143:0 144:0 145:-0.905 146:-0.462 147:-0.762 148:-0.762 149:-0.762 150:-0.905 151:-0.905 152:0.995 153:-0.905 154:-0.462 155:0 156:-0.905 157:0 158:0 159:-0.905 160:-0.964 161:-0.905 162:-0.905 163:-0.762 164:-0.762 165:-0.462 166:0.462 167:-0.462 168:0.905 169:-0.762 170:-0.905 171:-0.462 172:0 173:-0.462 174:-0.762 175:0.999 176:-0.905 177:-0.462 178:-0.905 179:-0.762 180:0.462 181:-0.762 182:0 183:0 184:-0.462 185:-0.762 186:-0.905 187:-0.762 188:-0.462 189:0.762 190:-0.762 191:-0.905 192:-0.462 193:0 194:-0.462 195:-0.762 196:0.999 197:-0.905 198:-0.462 199:-0.905 200:-0.762 201:0.462 202:-0.762 203:0 204:0 205:-0.462 206:-0.762 207:-0.905 208:-0.762 209:-0.462 210:0.762 211:0.013 212:-0.382 213:-0.834 214:-0.535 215:-0.405 216:-0.58 217:-0.635 218:-0.074 219:-0.258 220:0.1 221:0.263 222:-0.635 223:-0.662 224:-0.077 225:-0.221 226:-0.154 227:-0.308 228:0.08 229:-0.683 230:-0.462 231:-0.612 232:1 233:-0.132 234:-0.16 235:-0.669 236:0.02 237:0.132 238:0.01 239:-0.264 240:-0.355 
2 1:-0.231 2:-0.683 3:-0.462 4:-0.612 5:-0.683 6:0.267 7:-0.612 8:-0.713 9:-0.612 10:-0.713 11:-0.683 12:-0.231 13:-0.612 14:-0.612 15:-0.612 16:-0.231 17:-0.612 18:-0.683 19:-0.612 20:-0.462 21:-0.683 22:-0.462 23:-0.462 24:-0.905 25:-0.905 26:0 27:-0.964 28:-0.905 29:0.964 30:-0.905 31:0.762 32:0.462 33:-0.905 34:-0.905 35:-0.905 36:-0.905 37:-0.762 38:-0.462 39:0.905 40:-0.905 41:-0.462 42:-0.462 43:-0.462 44:-0.462 45:-0.964 46:-0.905 47:0 48:-0.964 49:-0.905 50:0.762 51:-0.762 52:0.964 53:0.762 54:-0.905 55:-0.905 56:-0.762 57:-0.762 58:-0.762 59:-0.462 60:0.462 61:-0.762 62:-0.462 63:-0.462 64:-0.762 65:-0.905 66:-0.462 67:0 68:-0.462 69:-0.762 70:0.999 71:-0.905 72:-0.462 73:-0.905 74:-0.762 75:0.462 76:-0.762 77:0 78:0 79:-0.462 80:-0.762 81:-0.905 82:-0.762 83:-0.462 84:0.762 85:-0.762 86:-0.905 87:0.462 88:0 89:-0.905 90:0 91:0.462 92:-0.905 93:0 94:-0.905 95:-0.762 96:0.995 97:-0.762 98:0 99:0 100:0.462 101:0 102:-0.905 103:-0.964 104:-0.462 105:-0.762 106:-0.462 107:-0.462 108:-0.964 109:-0.905 110:0 111:-0.964 112:-0.905 113:0.762 114:-0.762 115:0.964 116:0.762 117:-0.905 118:-0.905 119:-0.762 120:-0.762 121:-0.762 122:-0.462 123:0.462 124:-0.762 125:-0.462 126:-0.462 127:0.462 128:-0.462 129:0 130:0 131:-0.762 132:0 133:-0.462 134:-0.762 135:0 136:-0.762 137:-0.462 138:0.462 139:-0.462 140:0 141:-0.462 142:0.964 143:0.462 144:-0.762 145:-0.905 146:-0.462 147:-0.762 148:-0.762 149:-0.905 150:0.995 151:0.762 152:-0.905 153:-0.462 154:-0.462 155:-0.905 156:-0.462 157:-0.964 158:-0.905 159:0.462 160:-0.462 161:0 162:-0.762 163:0 164:-0.462 165:-0.905 166:-0.964 167:-0.462 168:-0.905 169:-0.462 170:-0.462 171:-0.964 172:-0.905 173:0 174:-0.964 175:-0.905 176:0.762 177:-0.762 178:0.964 179:0.762 180:-0.905 181:-0.905 182:-0.762 183:-0.762 184:-0.762 185:-0.462 186:0.462 187:-0.762 188:-0.462 189:-0.462 190:-0.762 191:-0.762 192:-0.905 193:-0.762 194:0.905 195:-0.905 196:0.762 197:-0.462 198:-0.762 199:-0.462 200:-0.462 201:-0.762 202:-0.905 203:-0.462 204:-0.762 205:-0.762 206:-0.762 207:-0.462 208:0.762 209:-0.462 210:0.998 211:0.251 212:-0.231 213:-0.853 214:-0.683 215:-0.381 216:-0.482 217:-0.833 218:0.184 219:-0.636 220:0.217 221:0.1 222:-0.833 223:-0.683 224:-0.636 225:-0.636 226:-0.15 227:-0.231 228:0.305 229:-0.857 230:-0.462 231:-0.612 232:0.651 233:-0.175 234:0.021 235:-0.011 236:0.02 237:0.194 238:-0.168 239:-0.175 240:-0.173 
-2 1:-0.462 2:-0.462 3:-0.462 4:-0.462 5:-0.462 6:-0.462 7:-0.462 8:-0.462 9:-0.462 10:-0.462 11:-0.462 12:-0.462 13:-0.462 14:-0.462 15:-0.462 16:-0.462 17:-0.462 18:-0.462 19:-0.462 20:-0.462 21:-0.462 22:-0.462 23:-0.462 24:-0.905 25:-0.762 26:0 27:-0.905 28:-0.762 29:0.462 30:-0.462 31:0.762 32:0.987 33:-0.762 34:-0.762 35:0 36:-0.462 37:-0.462 38:-0.462 39:0.462 40:-0.462 41:-0.462 42:-0.462 43:-0.462 44:-0.462 45:-0.905 46:-0.905 47:0 48:-0.964 49:-0.905 50:0.964 51:-0.905 52:0.762 53:0.462 54:-0.905 55:-0.905 56:-0.905 57:-0.905 58:-0.762 59:-0.462 60:0.905 61:-0.905 62:-0.462 63:-0.462 64:-0.462 65:-0.905 66:-0.762 67:0 68:-0.905 69:-0.762 70:0 71:-0.905 72:0.762 73:-0.762 74:-0.462 75:0 76:-0.762 77:0.462 78:0.987 79:-0.462 80:-0.462 81:-0.905 82:-0.905 83:-0.462 84:-0.762 85:-0.462 86:-0.462 87:-0.905 88:-0.905 89:0 90:-0.964 91:-0.905 92:0.964 93:-0.905 94:0.762 95:0.462 96:-0.905 97:-0.905 98:-0.905 99:-0.905 100:-0.762 101:-0.462 102:0.905 103:-0.905 104:-0.462 105:-0.462 106:-0.462 107:-0.462 108:-0.905 109:-0.905 110:0 111:-0.964 112:-0.905 113:0.964 114:-0.905 115:0.762 116:0.462 117:-0.905 118:-0.905 119:-0.905 120:-0.905 121:-0.762 122:-0.462 123:0.905 124:-0.905 125:-0.462 126:-0.462 127:0.964 128:0 129:-0.762 130:-0.462 131:-0.762 132:0 133:-0.762 134:-0.462 135:-0.462 136:-0.462 137:-0.462 138:-0.762 139:-0.462 140:-0.462 141:-0.462 142:0.462 143:0 144:0 145:-0.905 146:-0.462 147:-0.762 148:-0.462 149:-0.905 150:0 151:0.762 152:-0.905 153:-0.762 154:0 155:-0.905 156:0.462 157:-0.762 158:0 159:0 160:-0.462 161:0.987 162:0.462 163:0 164:-0.462 165:-0.762 166:-0.762 167:-0.462 168:-0.462 169:0 170:-0.905 171:-0.462 172:-0.762 173:-0.905 174:0.995 175:-0.762 176:-0.964 177:-0.762 178:-0.964 179:-0.905 180:0 181:-0.762 182:-0.762 183:-0.762 184:0 185:-0.762 186:-0.905 187:-0.762 188:-0.462 189:-0.905 190:-0.462 191:-0.905 192:-0.462 193:-0.462 194:-0.964 195:-0.762 196:-0.762 197:-0.905 198:-0.462 199:-0.905 200:-0.762 201:-0.762 202:0.998 203:-0.462 204:-0.762 205:-0.462 206:-0.462 207:-0.762 208:-0.964 209:-0.462 210:-0.905 211:0.09 212:-0.529 213:-0.562 214:0 215:-0.834 216:-0.508 217:-0.612 218:-0.683 219:0.263 220:-0.612 221:-0.462 222:-0.254 223:-0.462 224:0 225:0.15 226:0.231 227:-0.067 228:-0.381 229:-0.881 230:-0.462 231:-0.762 232:0.273 233:0.048 234:-0.052 235:0.592 236:0.114 237:0.132 238:-0.362 239:-0.277 240:-0.383 
2 1:0 2:-0.61 3:-0.305 4:0.003 5:-0.683 6:-0.415 7:-0.536 8:-0.522 9:0.178 10:-0.508 11:-0.308 12:0.08 13:-0.536 14:0.003 15:-0.128 16:0.355 17:0 18:-0.484 19:-0.905 20:-0.462 21:-0.712 22:-0.762 23:-0.762 24:-0.905 25:-0.762 26:0.905 27:-0.905 28:0.762 29:-0.462 30:-0.762 31:-0.462 32:-0.462 33:-0.762 34:-0.905 35:-0.462 36:-0.762 37:-0.762 38:-0.762 39:-0.462 40:0.762 41:-0.462 42:0.998 43:-0.462 44:-0.964 45:0.762 46:0.987 47:-0.905 48:-0.762 49:0 50:-0.905 51:0.462 52:-0.905 53:-0.762 54:0 55:-0.462 56:0.762 57:0 58:0 59:-0.462 60:-0.762 61:-0.905 62:-0.462 63:-0.762 64:-0.762 65:-0.905 66:0.995 67:0.762 68:-0.905 69:-0.462 70:-0.462 71:-0.905 72:-0.462 73:-0.964 74:-0.905 75:0.462 76:-0.462 77:0 78:-0.762 79:0 80:-0.462 81:-0.905 82:-0.964 83:-0.462 84:-0.905 85:0.964 86:0 87:-0.762 88:-0.462 89:-0.762 90:0 91:-0.762 92:-0.462 93:-0.462 94:-0.462 95:-0.462 96:-0.762 97:-0.462 98:-0.462 99:-0.462 100:0.462 101:0 102:0 103:-0.905 104:-0.462 105:-0.762 106:-0.462 107:-0.905 108:-0.462 109:0.462 110:-0.905 111:-0.762 112:-0.462 113:-0.905 114:0.987 115:-0.762 116:-0.462 117:0 118:-0.462 119:0.462 120:0.762 121:0 122:-0.462 123:-0.762 124:-0.905 125:-0.462 126:-0.762 127:0.462 128:-0.462 129:0 130:0 131:-0.762 132:0 133:-0.462 134:-0.762 135:0 136:-0.762 137:-0.462 138:0.462 139:-0.462 140:0 141:-0.462 142:0.964 143:0.462 144:-0.762 145:-0.905 146:-0.462 147:-0.762 148:-0.462 149:-0.905 150:-0.462 151:-0.462 152:-0.964 153:-0.762 154:-0.762 155:-0.905 156:-0.462 157:-0.905 158:-0.762 159:-0.762 160:0.998 161:-0.462 162:-0.762 163:-0.462 164:-0.462 165:-0.762 166:-0.964 167:-0.462 168:-0.905 169:-0.462 170:-0.462 171:-0.964 172:-0.905 173:0 174:-0.964 175:-0.905 176:0.762 177:-0.762 178:0.964 179:0.762 180:-0.905 181:-0.905 182:-0.762 183:-0.762 184:-0.762 185:-0.462 186:0.462 187:-0.762 188:-0.462 189:-0.462 190:0 191:-0.462 192:-0.462 193:-0.462 194:-0.762 195:-0.762 196:-0.762 197:-0.462 198:-0.462 199:-0.462 200:-0.462 201:0 202:-0.462 203:-0.462 204:-0.462 205:0.462 206:0.987 207:0 208:-0.762 209:-0.462 210:-0.762 211:0.251 212:-0.231 213:-0.612 214:-0.462 215:-0.612 216:-0.231 217:-0.612 218:-0.462 219:-0.462 220:-0.462 221:-0.462 222:-0.612 223:-0.462 224:-0.462 225:-0.462 226:0 227:-0.231 228:-0.231 229:-0.683 230:-0.462 231:-0.612 232:0.914 233:-0.232 234:-0.491 235:0.337 236:0.144 237:0.194 238:-0.122 239:-0.175 240:-0.038 
0.4041097047306438 1:-0.381 2:-0.612 3:-0.905 4:-0.833 5:0.266 6:-0.905 7:-0.683 8:0.453 9:-0.833 10:0.231 11:0.231 12:-0.905 13:-0.863 14:-0.833 15:-0.905 16:-0.762 17:-0.381 18:0.251 19:-0.222 20:-0.462 21:0.221 22:-0.762 23:-0.762 24:-0.905 25:-0.905 26:0.995 27:-0.905 28:-0.462 29:0 30:-0.905 31:0 32:0 33:-0.905 34:-0.964 35:-0.905 36:-0.905 37:-0.762 38:-0.762 39:-0.462 40:0.462 41:-0.462 42:0.905 43:-0.462 44:-0.462 45:-0.964 46:-0.905 47:0 48:-0.964 49:-0.905 50:0.762 51:-0.762 52:0.964 53:0.762 54:-0.905 55:-0.905 56:-0.762 57:-0.762 58:-0.762 59:-0.462 60:0.462 61:-0.762 62:-0.462 63:-0.462 64:0.964 65:0 66:-0.762 67:-0.462 68:-0.762 69:0 70:-0.762 71:-0.462 72:-0.462 73:-0.462 74:-0.462 75:-0.762 76:-0.462 77:-0.462 78:-0.462 79:0.462 80:0 81:0 82:-0.905 83:-0.462 84:-0.762 85:-0.462 86:-0.462 87:-0.964 88:-0.905 89:0 90:-0.964 91:-0.905 92:0.762 93:-0.762 94:0.964 95:0.762 96:-0.905 97:-0.905 98:-0.762 99:-0.762 100:-0.762 101:-0.462 102:0.462 103:-0.762 104:-0.462 105:-0.462 106:0.964 107:0 108:-0.762 109:-0.462 110:-0.762 111:0 112:-0.762 113:-0.462 114:-0.462 115:-0.462 116:-0.462 117:-0.762 118:-0.462 119:-0.462 120:-0.462 121:0.462 122:0 123:0 124:-0.905 125:-0.462 126:-0.762 127:0 128:-0.905 129:-0.462 130:-0.762 131:-0.905 132:0.995 133:-0.762 134:-0.964 135:-0.762 136:-0.964 137:-0.905 138:0 139:-0.762 140:-0.762 141:-0.762 142:0 143:-0.762 144:-0.905 145:-0.762 146:-0.462 147:-0.905 148:-0.462 149:-0.905 150:-0.762 151:0 152:-0.905 153:-0.762 154:0 155:-0.905 156:0.762 157:-0.762 158:-0.462 159:0 160:-0.762 161:0.462 162:0.987 163:-0.462 164:-0.462 165:-0.905 166:-0.905 167:-0.462 168:-0.762 169:0.462 170:-0.462 171:0 172:0 173:-0.762 174:0 175:-0.462 176:-0.762 177:0 178:-0.762 179:-0.462 180:0.462 181:-0.462 182:0 183:-0.462 184:0.964 185:0.462 186:-0.762 187:-0.905 188:-0.462 189:-0.762 190:0 191:1 192:-0.905 193:-0.964 194:-0.762 195:-0.905 196:-0.905 197:-0.462 198:-0.905 199:-0.462 200:-0.462 201:-0.905 202:-0.905 203:-0.905 204:-0.905 205:-0.462 206:-0.462 207:-0.462 208:-0.762 209:-0.462 210:-0.762 211:-0.231 212:-0.713 213:0.15 214:0.262 215:-0.833 216:-0.762 217:-0.381 218:-0.683 219:-0 220:-0.683 221:-0.612 222:0 223:-0.462 224:0.15 225:-0.231 226:0.231 227:0.263 228:-0.381 229:-0.833 230:-0.462 231:-0.762 232:1 233:-0.175 234:-0.034 235:0.337 236:-0.232 237:0.185 238:-0.439 239:-0.257 240:-0.289 
2 1:0.321 2:-0.308 3:-0.636 4:-0.512 5:-0.712 6:-0.532 7:-0.786 8:-0.234 9:-0.512 10:-0.308 11:-0.308 12:-0.405 13:-0.512 14:-0.512 15:-0.536 16:0.258 17:0.493 18:0.161 19:-0.833 20:-0.462 21:-0.712 22:-0.462 23:-0.462 24:-0.964 25:-0.905 26:0 27:-0.964 28:-0.905 29:0.762 30:-0.762 31:0.964 32:0.762 33:-0.905 34:-0.905 35:-0.762 36:-0.762 37:-0.762 38:-0.462 39:0.462 40:-0.762 41:-0.462 42:-0.462 43:-0.762 44:-0.762 45:-0.905 46:-0.762 47:0.905 48:-0.905 49:0.762 50:-0.462 51:-0.762 52:-0.462 53:-0.462 54:-0.762 55:-0.905 56:-0.462 57:-0.762 58:-0.762 59:-0.762 60:-0.462 61:0.762 62:-0.462 63:0.998 64:0 65:1 66:-0.905 67:-0.964 68:-0.762 69:-0.905 70:-0.905 71:-0.462 72:-0.905 73:-0.462 74:-0.462 75:-0.905 76:-0.905 77:-0.905 78:-0.905 79:-0.462 80:-0.462 81:-0.462 82:-0.762 83:-0.462 84:-0.762 85:0 86:-0.462 87:-0.905 88:-0.762 89:-0.462 90:-0.905 91:-0.905 92:0.905 93:-0.762 94:0.462 95:0.462 96:-0.905 97:-0.762 98:-0.762 99:-0.905 100:-0.762 101:0 102:0.964 103:-0.905 104:-0.462 105:-0.462 106:-0.762 107:-0.905 108:-0.462 109:0 110:-0.462 111:-0.762 112:0.999 113:-0.905 114:-0.462 115:-0.905 116:-0.762 117:0.462 118:-0.762 119:0 120:0 121:-0.462 122:-0.762 123:-0.905 124:-0.762 125:-0.462 126:0.762 127:-0.462 128:-0.905 129:0 130:0.762 131:-0.905 132:-0.762 133:0 134:-0.905 135:0.462 136:-0.762 137:0 138:0 139:-0.462 140:0.987 141:0.462 142:0 143:-0.462 144:-0.762 145:-0.762 146:-0.462 147:-0.462 148:-0.462 149:-0.905 150:-0.762 151:0 152:-0.905 153:-0.762 154:0 155:-0.905 156:0.762 157:-0.762 158:-0.462 159:0 160:-0.762 161:0.462 162:0.987 163:-0.462 164:-0.462 165:-0.905 166:-0.905 167:-0.462 168:-0.762 169:-0.462 170:-0.462 171:-0.905 172:-0.905 173:0 174:-0.964 175:-0.905 176:0.964 177:-0.905 178:0.762 179:0.462 180:-0.905 181:-0.905 182:-0.905 183:-0.905 184:-0.762 185:-0.462 186:0.905 187:-0.905 188:-0.462 189:-0.462 190:-0.462 191:-0.964 192:0.762 193:0.987 194:-0.905 195:-0.762 196:0 197:-0.905 198:0.462 199:-0.905 200:-0.762 201:0 202:-0.462 203:0.762 204:0 205:0 206:-0.462 207:-0.762 208:-0.905 209:-0.462 210:-0.762 211:-0.231 212:-0.462 213:-0.683 214:-0.612 215:-0.462 216:-0.683 217:-0.683 218:0.222 219:-0.612 220:0 221:0 222:-0.683 223:-0.612 224:-0.612 225:-0.683 226:-0.612 227:-0.231 228:0.251 229:-0.683 230:-0.462 231:-0.462 232:0.536 233:-0.34 234:-0.574 235:0.435 236:-0.64 237:-0.215 238:-0.439 239:-0.213 240:-0.086 
-0.4413812686230705 1:-0.462 2:-0.683 3:-0.379 4:0.002 5:-0.529 6:-0.779 7:-0.379 8:-0.208 9:-0.148 10:-0.204 11:0.077 12:-0.379 13:-0.61 14:0.115 15:-0.148 16:-0.331 17:-0.462 18:-0.156 19:-0.76 20:-0.462 21:-0.462 22:-0.462 23:-0.462 24:-0.964 25:-0.905 26:0 27:-0.964 28:-0.905 29:0.762 30:-0.762 31:0.964 32:0.762 33:-0.905 34:-0.905 35:-0.762 36:-0.762 37:-0.762 38:-0.462 39:0.462 40:-0.762 41:-0.462 42:-0.462 43:-0.462 44:-0.905 45:-0.462 46:0.462 47:-0.905 48:-0.762 49:-0.462 50:-0.905 51:0.987 52:-0.762 53:-0.462 54:0 55:-0.462 56:0.462 57:0.762 58:0 59:-0.462 60:-0.762 61:-0.905 62:-0.462 63:-0.762 64:0 65:1 66:-0.905 67:-0.964 68:-0.762 69:-0.905 70:-0.905 71:-0.462 72:-0.905 73:-0.462 74:-0.462 75:-0.905 76:-0.905 77:-0.905 78:-0.905 79:-0.462 80:-0.462 81:-0.462 82:-0.762 83:-0.462 84:-0.762 85:0.462 86:-0.462 87:0 88:0 89:-0.762 90:0 91:-0.462 92:-0.762 93:0 94:-0.762 95:-0.462 96:0.462 97:-0.462 98:0 99:-0.462 100:0.964 101:0.462 102:-0.762 103:-0.905 104:-0.462 105:-0.762 106:-0.762 107:-0.905 108:0.995 109:0.762 110:-0.905 111:-0.462 112:-0.462 113:-0.905 114:-0.462 115:-0.964 116:-0.905 117:0.462 118:-0.462 119:0 120:-0.762 121:0 122:-0.462 123:-0.905 124:-0.964 125:-0.462 126:-0.905 127:0.462 128:-0.462 129:0 130:0 131:-0.762 132:0 133:-0.462 134:-0.762 135:0 136:-0.762 137:-0.462 138:0.462 139:-0.462 140:0 141:-0.462 142:0.964 143:0.462 144:-0.762 145:-0.905 146:-0.462 147:-0.762 148:-0.462 149:-0.462 150:-0.905 151:-0.762 152:0 153:-0.905 154:-0.762 155:0.462 156:-0.462 157:0.762 158:0.987 159:-0.762 160:-0.762 161:0 162:-0.462 163:-0.462 164:-0.462 165:0.462 166:-0.462 167:-0.462 168:-0.462 169:-0.462 170:-0.905 171:-0.462 172:-0.462 173:-0.964 174:-0.762 175:-0.762 176:-0.905 177:-0.462 178:-0.905 179:-0.762 180:-0.762 181:0.998 182:-0.462 183:-0.762 184:-0.462 185:-0.462 186:-0.762 187:-0.964 188:-0.462 189:-0.905 190:0 191:1 192:-0.905 193:-0.964 194:-0.762 195:-0.905 196:-0.905 197:-0.462 198:-0.905 199:-0.462 200:-0.462 201:-0.905 202:-0.905 203:-0.905 204:-0.905 205:-0.462 206:-0.462 207:-0.462 208:-0.762 209:-0.462 210:-0.762 211:-0.562 212:-0.831 213:-0.05 214:0.334 215:-0.754 216:-0.696 217:-0.536 218:-0.594 219:0.189 220:-0.575 221:-0.456 222:0.003 223:-0.536 224:0.08 225:-0.024 226:-0.127 227:-0.462 228:-0.532 229:-0.925 230:-0.462 231:-0.76 232:0.536 233:0.224 234:-0.574 235:0.144 236:-0.298 237:0.194 238:-0.045 239:0.002 240:-0.289 
0.9557865771559916 1:-0.535 2:-0.757 3:0.099 4:-0.048 5:-0.603 6:-0.386 7:-0.66 8:-0.359 9:-0.612 10:-0.321 11:-0.349 12:-0.071 13:-0.66 14:-0.381 15:-0.762 16:-0.254 17:-0.512 18:-0.449 19:-0.863 20:-0.462 21:-0.757 22:-0.762 23:-0.762 24:-0.905 25:-0.905 26:0.995 27:-0.905 28:-0.462 29:0 30:-0.905 31:0 32:0 33:-0.905 34:-0.964 35:-0.905 36:-0.905 37:-0.762 38:-0.762 39:-0.462 40:0.462 41:-0.462 42:0.905 43:0.462 44:-0.462 45:0 46:0 47:-0.762 48:0 49:-0.462 50:-0.762 51:0 52:-0.762 53:-0.462 54:0.462 55:-0.462 56:0 57:-0.462 58:0.964 59:0.462 60:-0.762 61:-0.905 62:-0.462 63:-0.762 64:-0.462 65:-0.964 66:0.762 67:0.987 68:-0.905 69:-0.762 70:0 71:-0.905 72:0.462 73:-0.905 74:-0.762 75:0 76:-0.462 77:0.762 78:0 79:0 80:-0.462 81:-0.762 82:-0.905 83:-0.462 84:-0.762 85:0 86:-0.462 87:-0.905 88:-0.762 89:-0.462 90:-0.905 91:-0.905 92:0.905 93:-0.762 94:0.462 95:0.462 96:-0.905 97:-0.762 98:-0.762 99:-0.905 100:-0.762 101:0 102:0.964 103:-0.905 104:-0.462 105:-0.462 106:0.462 107:-0.462 108:0 109:0 110:-0.762 111:0 112:-0.462 113:-0.762 114:0 115:-0.762 116:-0.462 117:0.462 118:-0.462 119:0 120:-0.462 121:0.964 122:0.462 123:-0.762 124:-0.905 125:-0.462 126:-0.762 127:-0.762 128:-0.905 129:0.462 130:0 131:-0.905 132:0 133:0.462 134:-0.905 135:0 136:-0.905 137:-0.762 138:0.995 139:-0.762 140:0 141:0 142:0.462 143:0 144:-0.905 145:-0.964 146:-0.462 147:-0.762 148:0 149:-0.462 150:-0.905 151:-0.762 152:-0.462 153:-0.905 154:-0.905 155:0.905 156:-0.762 157:0.462 158:0.462 159:-0.905 160:-0.762 161:-0.762 162:-0.905 163:-0.762 164:0 165:0.964 166:-0.905 167:-0.462 168:-0.462 169:-0.462 170:-0.905 171:0 172:0.762 173:-0.905 174:-0.762 175:0 176:-0.905 177:0.462 178:-0.762 179:0 180:0 181:-0.462 182:0.987 183:0.462 184:0 185:-0.462 186:-0.762 187:-0.762 188:-0.462 189:-0.462 190:-0.462 191:-0.905 192:-0.762 193:0 194:-0.905 195:-0.762 196:0 197:-0.905 198:0.762 199:-0.762 200:-0.462 201:0 202:-0.762 203:0.462 204:0.987 205:-0.462 206:-0.462 207:-0.905 208:-0.905 209:-0.462 210:-0.762 211:-0.462 212:-0.536 213:-0.911 214:-0.707 215:-0.151 216:-0.911 217:-0.707 218:0.384 219:-0.408 220:0.609 221:0.633 222:-0.707 223:-0.834 224:-0.304 225:-0.371 226:-0.612 227:-0.462 228:0.234 229:-0.686 230:-0.462 231:-0.512 232:1 233:-0.204 234:-0.413 235:0.435 236:-0.37 237:0.483 238:-0.107 239:-0.307 240:-0.336 
-2 1:-0.231 2:-0.462 3:-0.462 4:-0.462 5:-0.612 6:-0.612 7:-0.612 8:-0.462 9:-0.462 10:-0.462 11:-0.462 12:-0.231 13:-0.462 14:-0.462 15:-0.462 16:0 17:0.263 18:-0.231 19:-0.612 20:-0.462 21:-0.612 22:-0.762 23:-0.762 24:-0.905 25:-0.762 26:0.905 27:-0.905 28:0.762 29:-0.462 30:-0.762 31:-0.462 32:-0.462 33:-0.762 34:-0.905 35:-0.462 36:-0.762 37:-0.762 38:-0.762 39:-0.462 40:0.762 41:-0.462 42:0.998 43:0.462 44:-0.462 45:0 46:0 47:-0.762 48:0 49:-0.462 50:-0.762 51:0 52:-0.762 53:-0.462 54:0.462 55:-0.462 56:0 57:-0.462 58:0.964 59:0.462 60:-0.762 61:-0.905 62:-0.462 63:-0.762 64:-0.462 65:-0.905 66:0 67:0.762 68:-0.905 69:-0.762 70:0 71:-0.905 72:0.462 73:-0.762 74:0 75:0 76:-0.462 77:0.987 78:0.462 79:0 80:-0.462 81:-0.762 82:-0.762 83:-0.462 84:-0.462 85:-0.462 86:-0.462 87:-0.964 88:-0.905 89:0 90:-0.964 91:-0.905 92:0.762 93:-0.762 94:0.964 95:0.762 96:-0.905 97:-0.905 98:-0.762 99:-0.762 100:-0.762 101:-0.462 102:0.462 103:-0.762 104:-0.462 105:-0.462 106:-0.462 107:-0.462 108:-0.905 109:-0.762 110:0 111:-0.905 112:-0.762 113:0.462 114:-0.462 115:0.762 116:0.987 117:-0.762 118:-0.762 119:0 120:-0.462 121:-0.462 122:-0.462 123:0.462 124:-0.462 125:-0.462 126:-0.462 127:0 128:-0.462 129:-0.462 130:-0.462 131:-0.762 132:-0.762 133:-0.762 134:-0.462 135:-0.462 136:-0.462 137:-0.462 138:0 139:-0.462 140:-0.462 141:-0.462 142:0.462 143:0.987 144:0 145:-0.762 146:-0.462 147:-0.762 148:-0.462 149:-0.462 150:-0.964 151:-0.905 152:0 153:-0.964 154:-0.905 155:0.762 156:-0.762 157:0.964 158:0.762 159:-0.905 160:-0.905 161:-0.762 162:-0.762 163:-0.762 164:-0.462 165:0.462 166:-0.762 167:-0.462 168:-0.462 169:-0.462 170:-0.905 171:-0.462 172:0.462 173:-0.905 174:-0.762 175:-0.462 176:-0.905 177:0.987 178:-0.762 179:-0.462 180:0 181:-0.462 182:0.462 183:0.762 184:0 185:-0.462 186:-0.762 187:-0.905 188:-0.462 189:-0.762 190:-0.762 191:-0.905 192:0.995 193:0.762 194:-0.905 195:-0.462 196:-0.462 197:-0.905 198:-0.462 199:-0.964 200:-0.905 201:0.462 202:-0.462 203:0 204:-0.762 205:0 206:-0.462 207:-0.905 208:-0.964 209:-0.462 210:-0.905 211:0.251 212:-0.379 213:-0.686 214:-0.204 215:-0.683 216:-0.405 217:-0.662 218:-0.456 219:0.021 220:-0.358 221:-0.221 222:-0.508 223:-0.512 224:-0.077 225:-0.054 226:0.154 227:-0.231 228:-0.177 229:-0.831 230:-0.462 231:-0.712 232:0.914 233:-0.204 234:-0.362 235:0.337 236:0.019 237:0.27 238:-0.253 239:-0.204 240:0.185 
-2 1:-0.331 2:-0.683 3:-0.154 4:-0.154 5:-0.833 6:-0.508 7:-0.304 8:-0.683 9:-0.067 10:-0.66 11:-0.562 12:0.332 13:-0.562 14:-0.154 15:-0.104 16:0.385 17:0.416 18:-0.429 19:-0.853 20:-0.462 21:-0.762 22:-0.462 23:-0.462 24:-0.905 25:-0.905 26:0 27:-0.964 28:-0.905 29:0.964 30:-0.905 31:0.762 32:0.462 33:-0.905 34:-0.905 35:-0.905 36:-0.905 37:-0.762 38:-0.462 39:0.905 40:-0.905 41:-0.462 42:-0.462 43:0 44:-0.462 45:-0.905 46:-0.762 47:-0.462 48:-0.905 49:-0.905 50:0.905 51:-0.762 52:0.462 53:0.462 54:-0.905 55:-0.762 56:-0.762 57:-0.905 58:-0.762 59:0 60:0.964 61:-0.905 62:-0.462 63:-0.462 64:-0.462 65:-0.462 66:-0.905 67:-0.905 68:0 69:-0.964 70:-0.905 71:0.964 72:-0.905 73:0.762 74:0.462 75:-0.905 76:-0.905 77:-0.905 78:-0.905 79:-0.762 80:-0.462 81:0.905 82:-0.905 83:-0.462 84:-0.462 85:-0.462 86:-0.905 87:-0.462 88:-0.462 89:-0.964 90:-0.762 91:-0.762 92:-0.905 93:-0.462 94:-0.905 95:-0.762 96:-0.762 97:0.998 98:-0.462 99:-0.762 100:-0.462 101:-0.462 102:-0.762 103:-0.964 104:-0.462 105:-0.905 106:-0.462 107:-0.905 108:-0.462 109:0.462 110:-0.905 111:-0.762 112:-0.462 113:-0.905 114:0.987 115:-0.762 116:-0.462 117:0 118:-0.462 119:0.462 120:0.762 121:0 122:-0.462 123:-0.762 124:-0.905 125:-0.462 126:-0.762 127:0 128:-0.905 129:-0.462 130:-0.762 131:-0.905 132:0.995 133:-0.762 134:-0.964 135:-0.762 136:-0.964 137:-0.905 138:0 139:-0.762 140:-0.762 141:-0.762 142:0 143:-0.762 144:-0.905 145:-0.762 146:-0.462 147:-0.905 148:-0.762 149:-0.905 150:0.995 151:0.762 152:-0.905 153:-0.462 154:-0.462 155:-0.905 156:-0.462 157:-0.964 158:-0.905 159:0.462 160:-0.462 161:0 162:-0.762 163:0 164:-0.462 165:-0.905 166:-0.964 167:-0.462 168:-0.905 169:-0.762 170:-0.762 171:-0.905 172:-0.905 173:0.995 174:-0.905 175:-0.462 176:0 177:-0.905 178:0 179:0 180:-0.905 181:-0.964 182:-0.905 183:-0.905 184:-0.762 185:-0.762 186:-0.462 187:0.462 188:-0.462 189:0.905 190:-0.462 191:-0.462 192:-0.964 193:-0.905 194:0 195:-0.964 196:-0.905 197:0.762 198:-0.762 199:0.964 200:0.762 201:-0.905 202:-0.905 203:-0.762 204:-0.762 205:-0.762 206:-0.462 207:0.462 208:-0.762 209:-0.462 210:-0.462 211:-0.077 212:-0.683 213:-0.462 214:-0.562 215:-0.843 216:-0.176 217:-0.762 218:-0.703 219:-0.562 220:-0.703 221:-0.66 222:-0.127 223:-0.319 224:-0.562 225:-0.612 226:0.154 227:0.162 228:-0.429 229:-0.796 230:-0.462 231:-0.833 232:0.651 233:0.108 234:-0.131 235:-0.624 236:0.144 237:0.185 238:-0.168 239:-0.14 240:-0.157 
2 1:-0.458 2:-0.76 3:-0.707 4:-0.453 5:0.069 6:-0.707 7:-0.308 8:-0.429 9:-0.199 10:-0.381 11:-0.231 12:-0.376 13:-0.813 14:-0.298 15:-0.201 16:-0.374 17:-0.458 18:-0.66 19:-0.221 20:-0.462 21:0.072 22:-0.762 23:-0.762 24:-0.905 25:-0.905 26:0.995 27:-0.905 28:-0.462 29:0 30:-0.905 31:0 32:0 33:-0.905 34:-0.964 35:-0.905 36:-0.905 37:-0.762 38:-0.762 39:-0.462 40:0.462 41:-0.462 42:0.905 43:-0.462 44:-0.462 45:-0.905 46:-0.905 47:0 48:-0.964 49:-0.905 50:0.964 51:-0.905 52:0.762 53:0.462 54:-0.905 55:-0.905 56:-0.905 57:-0.905 58:-0.762 59:-0.462 60:0.905 61:-0.905 62:-0.462 63:-0.462 64:-0.905 65:-0.762 66:-0.964 67:-0.905 68:0.462 69:-0.762 70:-0.762 71:-0.905 72:-0.905 73:-0.762 74:-0.462 75:-0.964 76:-0.964 77:-0.762 78:-0.905 79:-0.905 80:-0.762 81:-0.905 82:1 83:-0.462 84:0.762 85:0.462 86:-0.462 87:0 88:0 89:-0.762 90:0 91:-0.462 92:-0.762 93:0 94:-0.762 95:-0.462 96:0.462 97:-0.462 98:0 99:-0.462 100:0.964 101:0.462 102:-0.762 103:-0.905 104:-0.462 105:-0.762 106:-0.462 107:-0.905 108:0 109:0.762 110:-0.905 111:-0.762 112:0 113:-0.905 114:0.462 115:-0.762 116:0 117:0 118:-0.462 119:0.987 120:0.462 121:0 122:-0.462 123:-0.762 124:-0.762 125:-0.462 126:-0.462 127:-0.462 128:-0.964 129:0.762 130:0.987 131:-0.905 132:-0.762 133:0 134:-0.905 135:0.462 136:-0.905 137:-0.762 138:0 139:-0.462 140:0.762 141:0 142:0 143:-0.462 144:-0.762 145:-0.905 146:-0.462 147:-0.762 148:0 149:-0.462 150:-0.905 151:-0.762 152:-0.462 153:-0.905 154:-0.905 155:0.905 156:-0.762 157:0.462 158:0.462 159:-0.905 160:-0.762 161:-0.762 162:-0.905 163:-0.762 164:0 165:0.964 166:-0.905 167:-0.462 168:-0.462 169:-0.462 170:-0.905 171:-0.462 172:-0.462 173:-0.964 174:-0.762 175:-0.762 176:-0.905 177:-0.462 178:-0.905 179:-0.762 180:-0.762 181:0.998 182:-0.462 183:-0.762 184:-0.462 185:-0.462 186:-0.762 187:-0.964 188:-0.462 189:-0.905 190:-0.462 191:-0.462 192:-0.964 193:-0.905 194:0 195:-0.964 196:-0.905 197:0.762 198:-0.762 199:0.964 200:0.762 201:-0.905 202:-0.905 203:-0.762 204:-0.762 205:-0.762 206:-0.462 207:0.462 208:-0.762 209:-0.462 210:-0.462 211:-0.308 212:-0.462 213:-0.713 214:-0.683 215:-0.331 216:-0.813 217:-0.784 218:0.15 219:-0.612 220:0.251 221:0.15 222:-0.529 223:-0.683 224:-0.612 225:-0.612 226:-0.304 227:0.021 228:0.154 229:-0.712 230:-0.462 231:-0.562 232:1 233:0.048 234:0.036 235:0.144 236:-0.258 237:-0.262 238:-0.107 239:0.002 240:-0.157 
-0.305608576011263 1:0.013 2:-0.529 3:-0.562 4:-0.462 5:-0.813 6:-0.458 7:-0.712 8:-0.683 9:-0.462 10:-0.683 11:-0.612 12:-0.712 13:0.268 14:-0.462 15:-0.612 16:-0.154 17:-0.308 18:-0.458 19:-0.861 20:-0.462 21:-0.784 22:-0.762 23:-0.762 24:-0.905 25:-0.762 26:0.905 27:-0.905 28:0.762 29:-0.462 30:-0.762 31:-0.462 32:-0.462 33:-0.762 34:-0.905 35:-0.462 36:-0.762 37:-0.762 38:-0.762 39:-0.462 40:0.762 41:-0.462 42:0.998 43:-0.762 44:-0.905 45:-0.462 46:0 47:-0.462 48:-0.762 49:0.999 50:-0.905 51:-0.462 52:-0.905 53:-0.762 54:0.462 55:-0.762 56:0 57:0 58:-0.462 59:-0.762 60:-0.905 61:-0.762 62:-0.462 63:0.762 64:-0.762 65:-0.762 66:-0.905 67:-0.905 68:0.995 69:-0.905 70:-0.462 71:0 72:-0.905 73:0 74:0 75:-0.905 76:-0.964 77:-0.905 78:-0.905 79:-0.762 80:-0.762 81:-0.462 82:0.462 83:-0.462 84:0.905 85:-0.762 86:-0.905 87:0.995 88:0.762 89:-0.905 90:-0.462 91:-0.462 92:-0.905 93:-0.462 94:-0.964 95:-0.905 96:0.462 97:-0.462 98:0 99:-0.762 100:0 101:-0.462 102:-0.905 103:-0.964 104:-0.462 105:-0.905 106:-0.462 107:-0.462 108:-0.964 109:-0.905 110:0 111:-0.964 112:-0.905 113:0.762 114:-0.762 115:0.964 116:0.762 117:-0.905 118:-0.905 119:-0.762 120:-0.762 121:-0.762 122:-0.462 123:0.462 124:-0.762 125:-0.462 126:-0.462 127:0.462 128:-0.462 129:0 130:0 131:-0.762 132:0 133:-0.462 134:-0.762 135:0 136:-0.762 137:-0.462 138:0.462 139:-0.462 140:0 141:-0.462 142:0.964 143:0.462 144:-0.762 145:-0.905 146:-0.462 147:-0.762 148:0 149:-0.905 150:-0.462 151:-0.762 152:-0.905 153:0.995 154:-0.762 155:-0.964 156:-0.762 157:-0.964 158:-0.905 159:0 160:-0.762 161:-0.762 162:-0.762 163:0 164:-0.762 165:-0.905 166:-0.762 167:-0.462 168:-0.905 169:-0.762 170:-0.905 171:-0.462 172:0 173:-0.462 174:-0.762 175:0.999 176:-0.905 177:-0.462 178:-0.905 179:-0.762 180:0.462 181:-0.762 182:0 183:0 184:-0.462 185:-0.762 186:-0.905 187:-0.762 188:-0.462 189:0.762 190:0.964 191:0 192:-0.762 193:-0.462 194:-0.762 195:0 196:-0.762 197:-0.462 198:-0.462 199:-0.462 200:-0.462 201:-0.762 202:-0.462 203:-0.462 204:-0.462 205:0.462 206:0 207:0 208:-0.905 209:-0.462 210:-0.762 211:-0.22 212:-0.683 213:-0.734 214:-0.784 215:0.069 216:-0.121 217:-0.612 218:-0.398 219:-0.784 220:-0.398 221:-0.379 222:-0.58 223:-0.813 224:-0.784 225:-0.784 226:-0.304 227:-0.635 228:-0.533 229:-0.174 230:-0.462 231:0.024 232:0.914 233:-0.022 234:-0.307 235:0.153 236:0.02 237:0.194 238:-0.498 239:-0.264 240:-0.204 
-1.280170472728979 1:-0.462 2:-0.713 3:0.15 4:0.263 5:-0.683 6:-0.612 7:-0.231 8:-0.683 9:0 10:-0.683 11:-0.612 12:-0.231 13:-0.462 14:0.15 15:-0.231 16:-0.231 17:-0.462 18:-0.612 19:-0.683 20:-0.462 21:-0.612 22:0 23:-0.462 24:-0.905 25:-0.762 26:-0.462 27:-0.905 28:-0.905 29:0.905 30:-0.762 31:0.462 32:0.462 33:-0.905 34:-0.762 35:-0.762 36:-0.905 37:-0.762 38:0 39:0.964 40:-0.905 41:-0.462 42:-0.462 43:-0.462 44:-0.905 45:0 46:0.762 47:-0.905 48:-0.762 49:0 50:-0.905 51:0.462 52:-0.762 53:0 54:0 55:-0.462 56:0.987 57:0.462 58:0 59:-0.462 60:-0.762 61:-0.762 62:-0.462 63:-0.462 64:-0.462 65:-0.462 66:-0.964 67:-0.905 68:0 69:-0.964 70:-0.905 71:0.762 72:-0.762 73:0.964 74:0.762 75:-0.905 76:-0.905 77:-0.762 78:-0.762 79:-0.762 80:-0.462 81:0.462 82:-0.762 83:-0.462 84:-0.462 85:0 86:-0.462 87:-0.905 88:-0.762 89:-0.462 90:-0.905 91:-0.905 92:0.905 93:-0.762 94:0.462 95:0.462 96:-0.905 97:-0.762 98:-0.762 99:-0.905 100:-0.762 101:0 102:0.964 103:-0.905 104:-0.462 105:-0.462 106:-0.462 107:-0.964 108:0.762 109:0.987 110:-0.905 111:-0.762 112:0 113:-0.905 114:0.462 115:-0.905 116:-0.762 117:0 118:-0.462 119:0.762 120:0 121:0 122:-0.462 123:-0.762 124:-0.905 125:-0.462 126:-0.762 127:0.462 128:-0.462 129:0 130:0 131:-0.762 132:0 133:-0.462 134:-0.762 135:0 136:-0.762 137:-0.462 138:0.462 139:-0.462 140:0 141:-0.462 142:0.964 143:0.462 144:-0.762 145:-0.905 146:-0.462 147:-0.762 148:0 149:-0.905 150:-0.462 151:-0.762 152:-0.905 153:0.995 154:-0.762 155:-0.964 156:-0.762 157:-0.964 158:-0.905 159:0 160:-0.762 161:-0.762 162:-0.762 163:0 164:-0.762 165:-0.905 166:-0.762 167:-0.462 168:-0.905 169:0 170:-0.905 171:-0.462 172:-0.762 173:-0.905 174:0.995 175:-0.762 176:-0.964 177:-0.762 178:-0.964 179:-0.905 180:0 181:-0.762 182:-0.762 183:-0.762 184:0 185:-0.762 186:-0.905 187:-0.762 188:-0.462 189:-0.905 190:0 191:-0.905 192:-0.462 193:-0.762 194:-0.905 195:0.995 196:-0.762 197:-0.964 198:-0.762 199:-0.964 200:-0.905 201:0 202:-0.762 203:-0.762 204:-0.762 205:0 206:-0.762 207:-0.905 208:-0.762 209:-0.462 210:-0.905 211:-0.308 212:-0.536 213:-0.784 214:-0.58 215:-0.305 216:-0.911 217:-0.754 218:0.532 219:-0.558 220:0.509 221:0.535 222:-0.754 223:-0.784 224:-0.471 225:-0.606 226:-0.635 227:-0.308 228:0.425 229:-0.81 230:-0.462 231:-0.462 232:0.377 233:-0.258 234:-0.299 235:0.435 236:-0.232 237:0.194 238:-0.498 239:-0.277 240:-0.186 
0.7346514048831669 1:-0.485 2:-0.61 3:-0.301 4:-0.326 5:-0.379 6:-0.787 7:-0.757 8:0.23 9:-0.662 10:0.238 11:0.156 12:-0.449 13:-0.734 14:-0.508 15:-0.786 16:-0.508 17:-0.385 18:0.09 19:-0.853 20:-0.462 21:-0.61 22:-0.762 23:-0.762 24:-0.905 25:-0.905 26:0.995 27:-0.905 28:-0.462 29:0 30:-0.905 31:0 32:0 33:-0.905 34:-0.964 35:-0.905 36:-0.905 37:-0.762 38:-0.762 39:-0.462 40:0.462 41:-0.462 42:0.905 43:0 44:-0.462 45:-0.905 46:-0.762 47:-0.462 48:-0.905 49:-0.905 50:0.905 51:-0.762 52:0.462 53:0.462 54:-0.905 55:-0.762 56:-0.762 57:-0.905 58:-0.762 59:0 60:0.964 61:-0.905 62:-0.462 63:-0.462 64:-0.762 65:-0.762 66:-0.905 67:-0.905 68:0.995 69:-0.905 70:-0.462 71:0 72:-0.905 73:0 74:0 75:-0.905 76:-0.964 77:-0.905 78:-0.905 79:-0.762 80:-0.762 81:-0.462 82:0.462 83:-0.462 84:0.905 85:0.462 86:-0.462 87:0 88:0 89:-0.762 90:0 91:-0.462 92:-0.762 93:0 94:-0.762 95:-0.462 96:0.462 97:-0.462 98:0 99:-0.462 100:0.964 101:0.462 102:-0.762 103:-0.905 104:-0.462 105:-0.762 106:0 107:-0.462 108:-0.462 109:-0.462 110:-0.762 111:-0.762 112:-0.762 113:-0.462 114:-0.462 115:-0.462 116:-0.462 117:0 118:-0.462 119:-0.462 120:-0.462 121:0.462 122:0.987 123:0 124:-0.762 125:-0.462 126:-0.762 127:0.462 128:-0.462 129:0 130:0 131:-0.762 132:0 133:-0.462 134:-0.762 135:0 136:-0.762 137:-0.462 138:0.462 139:-0.462 140:0 141:-0.462 142:0.964 143:0.462 144:-0.762 145:-0.905 146:-0.462 147:-0.762 148:-0.762 149:-0.762 150:-0.905 151:-0.905 152:0.995 153:-0.905 154:-0.462 155:0 156:-0.905 157:0 158:0 159:-0.905 160:-0.964 161:-0.905 162:-0.905 163:-0.762 164:-0.762 165:-0.462 166:0.462 167:-0.462 168:0.905 169:-0.762 170:-0.762 171:-0.905 172:-0.762 173:0.905 174:-0.905 175:0.762 176:-0.462 177:-0.762 178:-0.462 179:-0.462 180:-0.762 181:-0.905 182:-0.462 183:-0.762 184:-0.762 185:-0.762 186:-0.462 187:0.762 188:-0.462 189:0.998 190:-0.462 191:-0.462 192:-0.964 193:-0.905 194:0 195:-0.964 196:-0.905 197:0.762 198:-0.762 199:0.964 200:0.762 201:-0.905 202:-0.905 203:-0.762 204:-0.762 205:-0.762 206:-0.462 207:0.462 208:-0.762 209:-0.462 210:-0.462 211:-0.154 212:-0.462 213:-0.603 214:-0.603 215:-0.254 216:-0.643 217:-0.757 218:0.389 219:-0.603 220:0.254 221:0.154 222:-0.449 223:-0.757 224:-0.603 225:-0.757 226:-0.187 227:-0.154 228:0.349 229:-0.905 230:-0.462 231:-0.562 232:1 233:0.108 234:-0.307 235:0.144 236:-0.148 237:0.194 238:0.01 239:-0.173 240:-0.157 
2 1:-0.231 2:-0.462 3:-0.462 4:-0.462 5:-0.612 6:-0.612 7:-0.612 8:-0.462 9:-0.462 10:-0.462 11:-0.462 12:-0.231 13:-0.462 14:-0.462 15:-0.462 16:0 17:0.263 18:-0.231 19:-0.612 20:-0.462 21:-0.612 22:-0.462 23:-0.462 24:-0.905 25:-0.905 26:0 27:-0.964 28:-0.905 29:0.964 30:-0.905 31:0.762 32:0.462 33:-0.905 34:-0.905 35:-0.905 36:-0.905 37:-0.762 38:-0.462 39:0.905 40:-0.905 41:-0.462 42:-0.462 43:-0.462 44:-0.462 45:-0.905 46:-0.905 47:0 48:-0.964 49:-0.905 50:0.964 51:-0.905 52:0.762 53:0.462 54:-0.905 55:-0.905 56:-0.905 57:-0.905 58:-0.762 59:-0.462 60:0.905 61:-0.905 62:-0.462 63:-0.462 64:-0.462 65:-0.905 66:-0.462 67:0.462 68:-0.905 69:-0.762 70:-0.462 71:-0.905 72:0.987 73:-0.762 74:-0.462 75:0 76:-0.462 77:0.462 78:0.762 79:0 80:-0.462 81:-0.762 82:-0.905 83:-0.462 84:-0.762 85:0.964 86:0 87:-0.762 88:-0.462 89:-0.762 90:0 91:-0.762 92:-0.462 93:-0.462 94:-0.462 95:-0.462 96:-0.762 97:-0.462 98:-0.462 99:-0.462 100:0.462 101:0 102:0 103:-0.905 104:-0.462 105:-0.762 106:-0.462 107:-0.462 108:-0.964 109:-0.905 110:0 111:-0.964 112:-0.905 113:0.762 114:-0.762 115:0.964 116:0.762 117:-0.905 118:-0.905 119:-0.762 120:-0.762 121:-0.762 122:-0.462 123:0.462 124:-0.762 125:-0.462 126:-0.462 127:0 128:-0.905 129:-0.462 130:-0.762 131:-0.905 132:0.995 133:-0.762 134:-0.964 135:-0.762 136:-0.964 137:-0.905 138:0 139:-0.762 140:-0.762 141:-0.762 142:0 143:-0.762 144:-0.905 145:-0.762 146:-0.462 147:-0.905 148:0.964 149:0 150:-0.762 151:-0.462 152:-0.762 153:0 154:-0.762 155:-0.462 156:-0.462 157:-0.462 158:-0.462 159:-0.762 160:-0.462 161:-0.462 162:-0.462 163:0.462 164:0 165:0 166:-0.905 167:-0.462 168:-0.762 169:-0.462 170:-0.462 171:-0.964 172:-0.905 173:0 174:-0.964 175:-0.905 176:0.762 177:-0.762 178:0.964 179:0.762 180:-0.905 181:-0.905 182:-0.762 183:-0.762 184:-0.762 185:-0.462 186:0.462 187:-0.762 188:-0.462 189:-0.462 190:-0.762 191:-0.905 192:0.995 193:0.762 194:-0.905 195:-0.462 196:-0.462 197:-0.905 198:-0.462 199:-0.964 200:-0.905 201:0.462 202:-0.462 203:0 204:-0.762 205:0 206:-0.462 207:-0.905 208:-0.964 209:-0.462 210:-0.905 211:0 212:-0.683 213:-0.281 214:-0.154 215:-0.853 216:-0.381 217:-0.485 218:-0.833 219:-0.027 220:-0.81 221:-0.562 222:-0.023 223:-0.025 224:-0.077 225:-0.321 226:0.251 227:0 228:-0.786 229:-0.925 230:-0.462 231:-0.81 232:0.651 233:0.048 234:0.063 235:0.337 236:0.02 237:0.185 238:0.156 239:-0.175 240:0.185 
2 1:-0.462 2:-0.462 3:-0.713 4:-0.683 5:-0.231 6:-0.713 7:-0.683 8:0.15 9:-0.612 10:0.251 11:0.15 12:-0.683 13:-0.683 14:-0.612 15:-0.612 16:-0.612 17:-0.462 18:0 19:-0.612 20:-0.462 21:-0.462 22:-0.762 23:-0.905 24:0.995 25:0.762 26:-0.905 27:-0.462 28:-0.462 29:-0.905 30:-0.462 31:-0.964 32:-0.905 33:0.462 34:-0.462 35:0 36:-0.762 37:0 38:-0.462 39:-0.905 40:-0.964 41:-0.462 42:-0.905 43:0.462 44:-0.462 45:0 46:0 47:-0.762 48:0 49:-0.462 50:-0.762 51:0 52:-0.762 53:-0.462 54:0.462 55:-0.462 56:0 57:-0.462 58:0.964 59:0.462 60:-0.762 61:-0.905 62:-0.462 63:-0.762 64:0.462 65:-0.462 66:0 67:0 68:-0.762 69:0 70:-0.462 71:-0.762 72:0 73:-0.762 74:-0.462 75:0.462 76:-0.462 77:0 78:-0.462 79:0.964 80:0.462 81:-0.762 82:-0.905 83:-0.462 84:-0.762 85:-0.762 86:-0.905 87:0.995 88:0.762 89:-0.905 90:-0.462 91:-0.462 92:-0.905 93:-0.462 94:-0.964 95:-0.905 96:0.462 97:-0.462 98:0 99:-0.762 100:0 101:-0.462 102:-0.905 103:-0.964 104:-0.462 105:-0.905 106:0 107:-0.462 108:-0.462 109:-0.462 110:-0.762 111:-0.762 112:-0.762 113:-0.462 114:-0.462 115:-0.462 116:-0.462 117:0 118:-0.462 119:-0.462 120:-0.462 121:0.462 122:0.987 123:0 124:-0.762 125:-0.462 126:-0.762 127:-0.462 128:-0.462 129:-0.905 130:-0.905 131:0 132:-0.964 133:-0.905 134:0.964 135:-0.905 136:0.762 137:0.462 138:-0.905 139:-0.905 140:-0.905 141:-0.905 142:-0.762 143:-0.462 144:0.905 145:-0.905 146:-0.462 147:-0.462 148:-0.905 149:-0.762 150:-0.964 151:-0.905 152:0.462 153:-0.762 154:-0.762 155:-0.905 156:-0.905 157:-0.762 158:-0.462 159:-0.964 160:-0.964 161:-0.762 162:-0.905 163:-0.905 164:-0.762 165:-0.905 166:1 167:-0.462 168:0.762 169:-0.462 170:-0.462 171:-0.905 172:-0.762 173:0 174:-0.905 175:-0.762 176:0.462 177:-0.462 178:0.762 179:0.987 180:-0.762 181:-0.762 182:0 183:-0.462 184:-0.462 185:-0.462 186:0.462 187:-0.462 188:-0.462 189:-0.462 190:-0.762 191:-0.905 192:0.995 193:0.762 194:-0.905 195:-0.462 196:-0.462 197:-0.905 198:-0.462 199:-0.964 200:-0.905 201:0.462 202:-0.462 203:0 204:-0.762 205:0 206:-0.462 207:-0.905 208:-0.964 209:-0.462 210:-0.905 211:-0.385 212:-0.703 213:-0.276 214:-0.251 215:-0.452 216:-0.57 217:-0.58 218:0.02 219:-0.425 220:-0.081 221:-0.174 222:-0.453 223:-0.734 224:-0.326 225:-0.58 226:-0.381 227:-0.512 228:0.048 229:-0.881 230:-0.462 231:-0.636 232:-0.06 233:-0.204 234:-0.16 235:0.153 236:-0.148 237:0.222 238:-0.055 239:-0.045 240:0.185 
-2 1:0.077 2:-0.61 3:-0.077 4:0.177 5:-0.81 6:-0.381 7:-0.358 8:-0.76 9:0.077 10:-0.712 11:-0.308 12:0.231 13:-0.462 14:0.252 15:-0.154 16:0.559 17:0.241 18:-0.635 19:-0.834 20:-0.462 21:-0.662 22:-0.462 23:-0.462 24:-0.964 25:-0.905 26:0 27:-0.964 28:-0.905 29:0.762 30:-0.762 31:0.964 32:0.762 33:-0.905 34:-0.905 35:-0.762 36:-0.762 37:-0.762 38:-0.462 39:0.462 40:-0.762 41:-0.462 42:-0.462 43:-0.462 44:-0.905 45:-0.762 46:0 47:-0.905 48:-0.762 49:0 50:-0.905 51:0.762 52:-0.762 53:-0.462 54:0 55:-0.762 56:0.462 57:0.987 58:-0.462 59:-0.462 60:-0.905 61:-0.905 62:-0.462 63:-0.762 64:-0.462 65:-0.905 66:-0.762 67:0 68:-0.905 69:-0.762 70:0 71:-0.905 72:0.762 73:-0.762 74:-0.462 75:0 76:-0.762 77:0.462 78:0.987 79:-0.462 80:-0.462 81:-0.905 82:-0.905 83:-0.462 84:-0.762 85:0 86:-0.905 87:-0.462 88:-0.762 89:-0.905 90:0.995 91:-0.762 92:-0.964 93:-0.762 94:-0.964 95:-0.905 96:0 97:-0.762 98:-0.762 99:-0.762 100:0 101:-0.762 102:-0.905 103:-0.762 104:-0.462 105:-0.905 106:-0.462 107:-0.462 108:-0.964 109:-0.905 110:0 111:-0.964 112:-0.905 113:0.762 114:-0.762 115:0.964 116:0.762 117:-0.905 118:-0.905 119:-0.762 120:-0.762 121:-0.762 122:-0.462 123:0.462 124:-0.762 125:-0.462 126:-0.462 127:0.462 128:-0.462 129:0 130:0 131:-0.762 132:0 133:-0.462 134:-0.762 135:0 136:-0.762 137:-0.462 138:0.462 139:-0.462 140:0 141:-0.462 142:0.964 143:0.462 144:-0.762 145:-0.905 146:-0.462 147:-0.762 148:0.964 149:0 150:-0.762 151:-0.462 152:-0.762 153:0 154:-0.762 155:-0.462 156:-0.462 157:-0.462 158:-0.462 159:-0.762 160:-0.462 161:-0.462 162:-0.462 163:0.462 164:0 165:0 166:-0.905 167:-0.462 168:-0.762 169:-0.905 170:-0.762 171:-0.964 172:-0.905 173:0.462 174:-0.762 175:-0.762 176:-0.905 177:-0.905 178:-0.762 179:-0.462 180:-0.964 181:-0.964 182:-0.762 183:-0.905 184:-0.905 185:-0.762 186:-0.905 187:1 188:-0.462 189:0.762 190:0 191:-0.462 192:-0.462 193:-0.462 194:-0.762 195:-0.762 196:-0.762 197:-0.462 198:-0.462 199:-0.462 200:-0.462 201:0 202:-0.462 203:-0.462 204:-0.462 205:0.462 206:0.987 207:0 208:-0.762 209:-0.462 210:-0.762 211:0.077 212:-0.462 213:-0.308 214:-0.308 215:-0.712 216:-0.458 217:-0.612 218:-0.562 219:-0.308 220:-0.562 221:-0.462 222:0.077 223:-0.462 224:-0.308 225:-0.462 226:0.475 227:0.571 228:-0.331 229:-0.76 230:-0.462 231:-0.712 232:0.536 233:-0.127 234:-0.052 235:0.055 236:0.02 237:0.194 238:0.156 239:-0.624 240:-0.038 
2 1:-0.458 2:-0.905 3:0 4:-0.331 5:-0.915 6:0.205 7:-0.15 8:-0.925 9:-0.331 10:-0.925 11:-0.81 12:0.37 13:-0.469 14:-0.331 15:-0.381 16:0.154 17:-0.331 18:-0.881 19:-0.897 20:-0.462 21:-0.833 22:-0.462 23:-0.905 24:-0.762 25:0 26:-0.905 27:-0.762 28:0 29:-0.905 30:0.762 31:-0.762 32:-0.462 33:0 34:-0.762 35:0.462 36:0.987 37:-0.462 38:-0.462 39:-0.905 40:-0.905 41:-0.462 42:-0.762 43:-0.762 44:-0.905 45:0.462 46:0 47:-0.905 48:0 49:0.462 50:-0.905 51:0 52:-0.905 53:-0.762 54:0.995 55:-0.762 56:0 57:0 58:0.462 59:0 60:-0.905 61:-0.964 62:-0.462 63:-0.762 64:-0.462 65:-0.905 66:-0.462 67:-0.462 68:-0.964 69:-0.762 70:-0.762 71:-0.905 72:-0.462 73:-0.905 74:-0.762 75:-0.762 76:0.998 77:-0.462 78:-0.762 79:-0.462 80:-0.462 81:-0.762 82:-0.964 83:-0.462 84:-0.905 85:-0.762 86:-0.762 87:-0.905 88:-0.762 89:0.905 90:-0.905 91:0.762 92:-0.462 93:-0.762 94:-0.462 95:-0.462 96:-0.762 97:-0.905 98:-0.462 99:-0.762 100:-0.762 101:-0.762 102:-0.462 103:0.762 104:-0.462 105:0.998 106:-0.462 107:-0.964 108:0.762 109:0.987 110:-0.905 111:-0.762 112:0 113:-0.905 114:0.462 115:-0.905 116:-0.762 117:0 118:-0.462 119:0.762 120:0 121:0 122:-0.462 123:-0.762 124:-0.905 125:-0.462 126:-0.762 127:-0.762 128:-0.905 129:0.462 130:0 131:-0.905 132:0 133:0.462 134:-0.905 135:0 136:-0.905 137:-0.762 138:0.995 139:-0.762 140:0 141:0 142:0.462 143:0 144:-0.905 145:-0.964 146:-0.462 147:-0.762 148:-0.462 149:-0.462 150:-0.964 151:-0.905 152:0 153:-0.964 154:-0.905 155:0.762 156:-0.762 157:0.964 158:0.762 159:-0.905 160:-0.905 161:-0.762 162:-0.762 163:-0.762 164:-0.462 165:0.462 166:-0.762 167:-0.462 168:-0.462 169:-0.462 170:-0.462 171:-0.964 172:-0.905 173:0 174:-0.964 175:-0.905 176:0.762 177:-0.762 178:0.964 179:0.762 180:-0.905 181:-0.905 182:-0.762 183:-0.762 184:-0.762 185:-0.462 186:0.462 187:-0.762 188:-0.462 189:-0.462 190:-0.762 191:-0.762 192:-0.905 193:-0.762 194:0.905 195:-0.905 196:0.762 197:-0.462 198:-0.762 199:-0.462 200:-0.462 201:-0.762 202:-0.905 203:-0.462 204:-0.762 205:-0.762 206:-0.762 207:-0.462 208:0.762 209:-0.462 210:0.998 211:-0.462 212:-0.683 213:-0.462 214:0 215:-0.683 216:-0.612 217:-0.462 218:-0.683 219:0.263 220:-0.612 221:-0.462 222:-0.231 223:-0.462 224:0 225:0.15 226:-0.231 227:-0.462 228:-0.612 229:-0.683 230:-0.462 231:-0.612 232:0.066 233:0.199 234:-0.486 235:0.3 236:-0.232 237:0.483 238:-0.253 239:-0.175 240:-0.173 
2 1:-0.462 2:-0.683 3:-0.462 4:0 5:-0.683 6:-0.612 7:-0.462 8:-0.683 9:0.263 10:-0.612 11:-0.462 12:-0.231 13:-0.462 14:0 15:0.15 16:-0.231 17:-0.462 18:-0.612 19:-0.683 20:-0.462 21:-0.612 22:-0.462 23:-0.462 24:-0.964 25:-0.905 26:0 27:-0.964 28:-0.905 29:0.762 30:-0.762 31:0.964 32:0.762 33:-0.905 34:-0.905 35:-0.762 36:-0.762 37:-0.762 38:-0.462 39:0.462 40:-0.762 41:-0.462 42:-0.462 43:-0.462 44:-0.462 45:-0.905 46:-0.905 47:0 48:-0.964 49:-0.905 50:0.964 51:-0.905 52:0.762 53:0.462 54:-0.905 55:-0.905 56:-0.905 57:-0.905 58:-0.762 59:-0.462 60:0.905 61:-0.905 62:-0.462 63:-0.462 64:0.964 65:0 66:-0.762 67:-0.462 68:-0.762 69:0 70:-0.762 71:-0.462 72:-0.462 73:-0.462 74:-0.462 75:-0.762 76:-0.462 77:-0.462 78:-0.462 79:0.462 80:0 81:0 82:-0.905 83:-0.462 84:-0.762 85:-0.762 86:-0.905 87:0.995 88:0.762 89:-0.905 90:-0.462 91:-0.462 92:-0.905 93:-0.462 94:-0.964 95:-0.905 96:0.462 97:-0.462 98:0 99:-0.762 100:0 101:-0.462 102:-0.905 103:-0.964 104:-0.462 105:-0.905 106:0.462 107:-0.462 108:0 109:0 110:-0.762 111:0 112:-0.462 113:-0.762 114:0 115:-0.762 116:-0.462 117:0.462 118:-0.462 119:0 120:-0.462 121:0.964 122:0.462 123:-0.762 124:-0.905 125:-0.462 126:-0.762 127:-0.462 128:-0.462 129:-0.905 130:-0.905 131:0 132:-0.964 133:-0.905 134:0.964 135:-0.905 136:0.762 137:0.462 138:-0.905 139:-0.905 140:-0.905 141:-0.905 142:-0.762 143:-0.462 144:0.905 145:-0.905 146:-0.462 147:-0.462 148:-0.762 149:-0.905 150:0.995 151:0.762 152:-0.905 153:-0.462 154:-0.462 155:-0.905 156:-0.462 157:-0.964 158:-0.905 159:0.462 160:-0.462 161:0 162:-0.762 163:0 164:-0.462 165:-0.905 166:-0.964 167:-0.462 168:-0.905 169:-0.762 170:-0.762 171:-0.905 172:-0.905 173:0.995 174:-0.905 175:-0.462 176:0 177:-0.905 178:0 179:0 180:-0.905 181:-0.964 182:-0.905 183:-0.905 184:-0.762 185:-0.762 186:-0.462 187:0.462 188:-0.462 189:0.905 190:-0.762 191:-0.905 192:0.462 193:0 194:-0.905 195:0 196:0.462 197:-0.905 198:0 199:-0.905 200:-0.762 201:0.995 202:-0.762 203:0 204:0 205:0.462 206:0 207:-0.905 208:-0.964 209:-0.462 210:-0.762 211:-0.07 212:-0.607 213:-0.429 214:0.05 215:-0.734 216:-0.683 217:-0.429 218:-0.228 219:-0.1 220:-0.304 221:0.077 222:-0.429 223:-0.562 224:0.162 225:-0.148 226:-0.177 227:-0.231 228:-0.06 229:-0.833 230:-0.462 231:-0.512 232:0.536 233:0.048 234:-0.034 235:0.153 236:-0.37 237:0.222 238:-0.168 239:-0.14 240:-0.086 
2 1:-0.381 2:-0.44 3:-0.074 4:-0.315 5:-0.834 6:-0.405 7:-0.174 8:-0.683 9:-0.305 10:-0.683 11:-0.612 12:0.347 13:-0.686 14:-0.305 15:-0.305 16:0.308 17:0.252 18:-0.529 19:-0.863 20:-0.462 21:-0.762 22:-0.762 23:-0.762 24:-0.905 25:-0.905 26:0.995 27:-0.905 28:-0.462 29:0 30:-0.905 31:0 32:0 33:-0.905 34:-0.964 35:-0.905 36:-0.905 37:-0.762 38:-0.762 39:-0.462 40:0.462 41:-0.462 42:0.905 43:-0.462 44:-0.905 45:-0.462 46:0.462 47:-0.905 48:-0.762 49:-0.462 50:-0.905 51:0.987 52:-0.762 53:-0.462 54:0 55:-0.462 56:0.462 57:0.762 58:0 59:-0.462 60:-0.762 61:-0.905 62:-0.462 63:-0.762 64:0 65:-0.462 66:-0.462 67:-0.462 68:-0.762 69:-0.762 70:-0.762 71:-0.462 72:-0.462 73:-0.462 74:-0.462 75:0 76:-0.462 77:-0.462 78:-0.462 79:0.462 80:0.987 81:0 82:-0.762 83:-0.462 84:-0.762 85:-0.462 86:-0.905 87:0 88:0.762 89:-0.905 90:-0.762 91:0 92:-0.905 93:0.462 94:-0.762 95:0 96:0 97:-0.462 98:0.987 99:0.462 100:0 101:-0.462 102:-0.762 103:-0.762 104:-0.462 105:-0.462 106:-0.462 107:-0.462 108:-0.964 109:-0.905 110:0 111:-0.964 112:-0.905 113:0.762 114:-0.762 115:0.964 116:0.762 117:-0.905 118:-0.905 119:-0.762 120:-0.762 121:-0.762 122:-0.462 123:0.462 124:-0.762 125:-0.462 126:-0.462 127:0 128:-0.462 129:-0.905 130:-0.762 131:-0.462 132:-0.905 133:-0.905 134:0.905 135:-0.762 136:0.462 137:0.462 138:-0.905 139:-0.762 140:-0.762 141:-0.905 142:-0.762 143:0 144:0.964 145:-0.905 146:-0.462 147:-0.462 148:-0.462 149:-0.462 150:-0.964 151:-0.905 152:0 153:-0.964 154:-0.905 155:0.762 156:-0.762 157:0.964 158:0.762 159:-0.905 160:-0.905 161:-0.762 162:-0.762 163:-0.762 164:-0.462 165:0.462 166:-0.762 167:-0.462 168:-0.462 169:0.462 170:-0.462 171:0 172:0 173:-0.762 174:0 175:-0.462 176:-0.762 177:0 178:-0.762 179:-0.462 180:0.462 181:-0.462 182:0 183:-0.462 184:0.964 185:0.462 186:-0.762 187:-0.905 188:-0.462 189:-0.762 190:0.462 191:-0.462 192:0 193:0 194:-0.762 195:0 196:-0.462 197:-0.762 198:0 199:-0.762 200:-0.462 201:0.462 202:-0.462 203:0 204:-0.462 205:0.964 206:0.462 207:-0.762 208:-0.905 209:-0.462 210:-0.762 211:-0.358 212:-0.536 213:-0.677 214:-0.635 215:-0.305 216:-0.754 217:-0.606 218:0.382 219:-0.485 220:0.384 221:0.52 222:-0.517 223:-0.762 224:-0.254 225:-0.533 226:-0.408 227:-0.231 228:0.401 229:-0.693 230:-0.462 231:-0.512 232:1 233:0.224 234:-0.256 235:-0.108 236:0.02 237:0.092 238:-0.253 239:-0.257 240:-0.209 
2 1:-0.154 2:-0.536 3:-0.529 4:-0.529 5:-0.415 6:-0.609 7:-0.734 8:0.077 9:-0.529 10:-0.024 11:-0.05 12:-0.425 13:-0.44 14:-0.529 15:-0.734 16:-0.137 17:-0.154 18:0.072 19:-0.915 20:-0.462 21:-0.636 22:-0.462 23:-0.462 24:-0.905 25:-0.905 26:0 27:-0.964 28:-0.905 29:0.964 30:-0.905 31:0.762 32:0.462 33:-0.905 34:-0.905 35:-0.905 36:-0.905 37:-0.762 38:-0.462 39:0.905 40:-0.905 41:-0.462 42:-0.462 43:-0.762 44:-0.905 45:-0.462 46:0 47:-0.462 48:-0.762 49:0.999 50:-0.905 51:-0.462 52:-0.905 53:-0.762 54:0.462 55:-0.762 56:0 57:0 58:-0.462 59:-0.762 60:-0.905 61:-0.762 62:-0.462 63:0.762 64:-0.462 65:-0.964 66:0.762 67:0.987 68:-0.905 69:-0.762 70:0 71:-0.905 72:0.462 73:-0.905 74:-0.762 75:0 76:-0.462 77:0.762 78:0 79:0 80:-0.462 81:-0.762 82:-0.905 83:-0.462 84:-0.762 85:0.964 86:0 87:-0.762 88:-0.462 89:-0.762 90:0 91:-0.762 92:-0.462 93:-0.462 94:-0.462 95:-0.462 96:-0.762 97:-0.462 98:-0.462 99:-0.462 100:0.462 101:0 102:0 103:-0.905 104:-0.462 105:-0.762 106:-0.462 107:-0.462 108:-0.964 109:-0.905 110:0 111:-0.964 112:-0.905 113:0.762 114:-0.762 115:0.964 116:0.762 117:-0.905 118:-0.905 119:-0.762 120:-0.762 121:-0.762 122:-0.462 123:0.462 124:-0.762 125:-0.462 126:-0.462 127:-0.762 128:-0.905 129:0.462 130:0 131:-0.905 132:0 133:0.462 134:-0.905 135:0 136:-0.905 137:-0.762 138:0.995 139:-0.762 140:0 141:0 142:0.462 143:0 144:-0.905 145:-0.964 146:-0.462 147:-0.762 148:-0.462 149:-0.462 150:-0.905 151:-0.905 152:0 153:-0.964 154:-0.905 155:0.964 156:-0.905 157:0.762 158:0.462 159:-0.905 160:-0.905 161:-0.905 162:-0.905 163:-0.762 164:-0.462 165:0.905 166:-0.905 167:-0.462 168:-0.462 169:0.964 170:0 171:-0.762 172:-0.462 173:-0.762 174:0 175:-0.762 176:-0.462 177:-0.462 178:-0.462 179:-0.462 180:-0.762 181:-0.462 182:-0.462 183:-0.462 184:0.462 185:0 186:0 187:-0.905 188:-0.462 189:-0.762 190:-0.462 191:-0.462 192:-0.964 193:-0.905 194:0 195:-0.964 196:-0.905 197:0.762 198:-0.762 199:0.964 200:0.762 201:-0.905 202:-0.905 203:-0.762 204:-0.762 205:-0.762 206:-0.462 207:0.462 208:-0.762 209:-0.462 210:-0.462 211:0.013 212:-0.308 213:-0.784 214:-0.683 215:-0.331 216:-0.559 217:-0.784 218:0.251 219:-0.683 220:0.15 221:0 222:-0.784 223:-0.683 224:-0.683 225:-0.683 226:-0.304 227:-0.308 228:0.376 229:-0.831 230:-0.462 231:-0.562 232:0.651 233:-0.022 234:-0.413 235:0.337 236:0.02 237:0.483 238:0.023 239:-0.086 240:-0.157 
-2 1:-0.462 2:-0.831 3:-0.308 4:0.408 5:-0.831 6:-0.712 7:-0.308 8:-0.831 9:0.571 10:-0.712 11:-0.308 12:-0.077 13:-0.462 14:0.483 15:0.458 16:-0.077 17:-0.462 18:-0.712 19:-0.784 20:-0.462 21:-0.612 22:-0.462 23:-0.462 24:-0.964 25:-0.905 26:0 27:-0.964 28:-0.905 29:0.762 30:-0.762 31:0.964 32:0.762 33:-0.905 34:-0.905 35:-0.762 36:-0.762 37:-0.762 38:-0.462 39:0.462 40:-0.762 41:-0.462 42:-0.462 43:-0.462 44:-0.462 45:-0.905 46:-0.905 47:0 48:-0.964 49:-0.905 50:0.964 51:-0.905 52:0.762 53:0.462 54:-0.905 55:-0.905 56:-0.905 57:-0.905 58:-0.762 59:-0.462 60:0.905 61:-0.905 62:-0.462 63:-0.462 64:-0.462 65:-0.964 66:0.762 67:0.987 68:-0.905 69:-0.762 70:0 71:-0.905 72:0.462 73:-0.905 74:-0.762 75:0 76:-0.462 77:0.762 78:0 79:0 80:-0.462 81:-0.762 82:-0.905 83:-0.462 84:-0.762 85:-0.762 86:-0.905 87:0.995 88:0.762 89:-0.905 90:-0.462 91:-0.462 92:-0.905 93:-0.462 94:-0.964 95:-0.905 96:0.462 97:-0.462 98:0 99:-0.762 100:0 101:-0.462 102:-0.905 103:-0.964 104:-0.462 105:-0.905 106:0 107:-0.462 108:-0.905 109:-0.762 110:-0.462 111:-0.905 112:-0.905 113:0.905 114:-0.762 115:0.462 116:0.462 117:-0.905 118:-0.762 119:-0.762 120:-0.905 121:-0.762 122:0 123:0.964 124:-0.905 125:-0.462 126:-0.462 127:-0.762 128:-0.905 129:0.462 130:0 131:-0.905 132:0 133:0.462 134:-0.905 135:0 136:-0.905 137:-0.762 138:0.995 139:-0.762 140:0 141:0 142:0.462 143:0 144:-0.905 145:-0.964 146:-0.462 147:-0.762 148:0.964 149:0 150:-0.762 151:-0.462 152:-0.762 153:0 154:-0.762 155:-0.462 156:-0.462 157:-0.462 158:-0.462 159:-0.762 160:-0.462 161:-0.462 162:-0.462 163:0.462 164:0 165:0 166:-0.905 167:-0.462 168:-0.762 169:0.462 170:-0.462 171:0 172:0 173:-0.762 174:0 175:-0.462 176:-0.762 177:0 178:-0.762 179:-0.462 180:0.462 181:-0.462 182:0 183:-0.462 184:0.964 185:0.462 186:-0.762 187:-0.905 188:-0.462 189:-0.762 190:-0.762 191:-0.762 192:-0.905 193:-0.905 194:0.995 195:-0.905 196:-0.462 197:0 198:-0.905 199:0 200:0 201:-0.905 202:-0.964 203:-0.905 204:-0.905 205:-0.762 206:-0.762 207:-0.462 208:0.462 209:-0.462 210:0.905 211:0.251 212:-0.453 213:-0.762 214:-0.231 215:-0.834 216:-0.381 217:-0.381 218:-0.683 219:0.15 220:-0.612 221:-0.462 222:-0.381 223:-0.612 224:0 225:0.263 226:-0 227:-0.231 228:-0.453 229:-0.905 230:-0.462 231:-0.762 232:0.536 233:0.048 234:-0.413 235:0.153 236:-0.037 237:0.483 238:0.156 239:-0.257 240:0.01 
2 1:-0.462 2:-0.683 3:-0.462 4:0 5:-0.683 6:-0.612 7:-0.462 8:-0.683 9:0.263 10:-0.612 11:-0.462 12:-0.231 13:-0.462 14:0 15:0.15 16:-0.231 17:-0.462 18:-0.612 19:-0.683 20:-0.462 21:-0.612 22:-0.462 23:-0.462 24:-0.964 25:-0.905 26:0 27:-0.964 28:-0.905 29:0.762 30:-0.762 31:0.964 32:0.762 33:-0.905 34:-0.905 35:-0.762 36:-0.762 37:-0.762 38:-0.462 39:0.462 40:-0.762 41:-0.462 42:-0.462 43:0.964 44:0 45:-0.762 46:-0.462 47:-0.762 48:0 49:-0.762 50:-0.462 51:-0.462 52:-0.462 53:-0.462 54:-0.762 55:-0.462 56:-0.462 57:-0.462 58:0.462 59:0 60:0 61:-0.905 62:-0.462 63:-0.762 64:-0.762 65:-0.762 66:-0.905 67:-0.905 68:0.995 69:-0.905 70:-0.462 71:0 72:-0.905 73:0 74:0 75:-0.905 76:-0.964 77:-0.905 78:-0.905 79:-0.762 80:-0.762 81:-0.462 82:0.462 83:-0.462 84:0.905 85:-0.462 86:-0.462 87:-0.964 88:-0.905 89:0 90:-0.964 91:-0.905 92:0.762 93:-0.762 94:0.964 95:0.762 96:-0.905 97:-0.905 98:-0.762 99:-0.762 100:-0.762 101:-0.462 102:0.462 103:-0.762 104:-0.462 105:-0.462 106:0 107:-0.462 108:-0.905 109:-0.762 110:-0.462 111:-0.905 112:-0.905 113:0.905 114:-0.762 115:0.462 116:0.462 117:-0.905 118:-0.762 119:-0.762 120:-0.905 121:-0.762 122:0 123:0.964 124:-0.905 125:-0.462 126:-0.462 127:-0.462 128:-0.905 129:0 130:0.762 131:-0.905 132:-0.762 133:0 134:-0.905 135:0.462 136:-0.762 137:0 138:0 139:-0.462 140:0.987 141:0.462 142:0 143:-0.462 144:-0.762 145:-0.762 146:-0.462 147:-0.462 148:0 149:-0.462 150:-0.462 151:-0.462 152:-0.762 153:-0.762 154:-0.762 155:-0.462 156:-0.462 157:-0.462 158:-0.462 159:0 160:-0.462 161:-0.462 162:-0.462 163:0.462 164:0.987 165:0 166:-0.762 167:-0.462 168:-0.762 169:-0.462 170:-0.964 171:0.762 172:0.987 173:-0.905 174:-0.762 175:0 176:-0.905 177:0.462 178:-0.905 179:-0.762 180:0 181:-0.462 182:0.762 183:0 184:0 185:-0.462 186:-0.762 187:-0.905 188:-0.462 189:-0.762 190:-0.462 191:-0.905 192:-0.462 193:-0.462 194:-0.964 195:-0.762 196:-0.762 197:-0.905 198:-0.462 199:-0.905 200:-0.762 201:-0.762 202:0.998 203:-0.462 204:-0.762 205:-0.462 206:-0.462 207:-0.762 208:-0.964 209:-0.462 210:-0.905 211:-0.462 212:-0.683 213:-0.843 214:-0.405 215:-0.453 216:-0.843 217:-0.405 218:-0.171 219:0.1 220:0.034 221:0.225 222:-0.405 223:-0.786 224:0.104 225:0.212 226:-0.512 227:-0.462 228:-0.222 229:-0.734 230:-0.462 231:-0.612 232:0.536 233:-0.113 234:-0.307 235:0.337 236:-0.037 237:-0.215 238:-0.038 239:-0.413 240:-0.383 
2 1:-0.662 2:-0.905 3:-0.065 4:0.381 5:-0.683 6:-0.712 7:0.422 8:-0.905 9:-0.154 10:-0.867 11:-0.532 12:0.308 13:-0.612 14:0.329 15:0.027 16:-0.231 17:-0.612 18:-0.857 19:-0.796 20:-0.462 21:0.076 22:0 23:-0.462 24:-0.905 25:-0.762 26:-0.462 27:-0.905 28:-0.905 29:0.905 30:-0.762 31:0.462 32:0.462 33:-0.905 34:-0.762 35:-0.762 36:-0.905 37:-0.762 38:0 39:0.964 40:-0.905 41:-0.462 42:-0.462 43:-0.462 44:-0.905 45:-0.462 46:0.462 47:-0.905 48:-0.762 49:-0.462 50:-0.905 51:0.987 52:-0.762 53:-0.462 54:0 55:-0.462 56:0.462 57:0.762 58:0 59:-0.462 60:-0.762 61:-0.905 62:-0.462 63:-0.762 64:-0.462 65:-0.462 66:-0.964 67:-0.905 68:0 69:-0.964 70:-0.905 71:0.762 72:-0.762 73:0.964 74:0.762 75:-0.905 76:-0.905 77:-0.762 78:-0.762 79:-0.762 80:-0.462 81:0.462 82:-0.762 83:-0.462 84:-0.462 85:0.964 86:0 87:-0.762 88:-0.462 89:-0.762 90:0 91:-0.762 92:-0.462 93:-0.462 94:-0.462 95:-0.462 96:-0.762 97:-0.462 98:-0.462 99:-0.462 100:0.462 101:0 102:0 103:-0.905 104:-0.462 105:-0.762 106:0 107:1 108:-0.905 109:-0.964 110:-0.762 111:-0.905 112:-0.905 113:-0.462 114:-0.905 115:-0.462 116:-0.462 117:-0.905 118:-0.905 119:-0.905 120:-0.905 121:-0.462 122:-0.462 123:-0.462 124:-0.762 125:-0.462 126:-0.762 127:0.462 128:-0.462 129:0 130:0 131:-0.762 132:0 133:-0.462 134:-0.762 135:0 136:-0.762 137:-0.462 138:0.462 139:-0.462 140:0 141:-0.462 142:0.964 143:0.462 144:-0.762 145:-0.905 146:-0.462 147:-0.762 148:-0.462 149:-0.462 150:-0.964 151:-0.905 152:0 153:-0.964 154:-0.905 155:0.762 156:-0.762 157:0.964 158:0.762 159:-0.905 160:-0.905 161:-0.762 162:-0.762 163:-0.762 164:-0.462 165:0.462 166:-0.762 167:-0.462 168:-0.462 169:-0.462 170:-0.905 171:-0.462 172:-0.462 173:-0.964 174:-0.762 175:-0.762 176:-0.905 177:-0.462 178:-0.905 179:-0.762 180:-0.762 181:0.998 182:-0.462 183:-0.762 184:-0.462 185:-0.462 186:-0.762 187:-0.964 188:-0.462 189:-0.905 190:-0.762 191:-0.905 192:-0.462 193:0 194:-0.462 195:-0.762 196:0.999 197:-0.905 198:-0.462 199:-0.905 200:-0.762 201:0.462 202:-0.762 203:0 204:0 205:-0.462 206:-0.762 207:-0.905 208:-0.762 209:-0.462 210:0.762 211:-0.231 212:-0.831 213:-0.646 214:-0.532 215:-0.754 216:0.083 217:-0.532 218:-0.657 219:-0.254 220:-0.575 221:-0.48 222:-0.151 223:-0.786 224:-0.354 225:-0.179 226:-0.281 227:-0.612 228:-0.677 229:-0.81 230:-0.462 231:-0.784 232:0.377 233:0.224 234:-0.299 235:0.337 236:0.087 237:0.194 238:-0.253 239:0.002 240:-0.355 
2 1:0.013 2:-0.559 3:0.05 4:0.263 5:-0.784 6:-0.458 7:-0.331 8:-0.683 9:0 10:-0.683 11:-0.612 12:-0.331 13:-0.462 14:0.15 15:-0.231 16:0.077 17:-0.308 18:-0.458 19:-0.831 20:-0.462 21:-0.712 22:-0.462 23:-0.964 24:0.762 25:0.987 26:-0.905 27:-0.762 28:0 29:-0.905 30:0.462 31:-0.905 32:-0.762 33:0 34:-0.462 35:0.762 36:0 37:0 38:-0.462 39:-0.762 40:-0.905 41:-0.462 42:-0.762 43:0 44:-0.462 45:-0.905 46:-0.762 47:-0.462 48:-0.905 49:-0.905 50:0.905 51:-0.762 52:0.462 53:0.462 54:-0.905 55:-0.762 56:-0.762 57:-0.905 58:-0.762 59:0 60:0.964 61:-0.905 62:-0.462 63:-0.462 64:-0.462 65:-0.905 66:-0.462 67:0.462 68:-0.905 69:-0.762 70:-0.462 71:-0.905 72:0.987 73:-0.762 74:-0.462 75:0 76:-0.462 77:0.462 78:0.762 79:0 80:-0.462 81:-0.762 82:-0.905 83:-0.462 84:-0.762 85:0 86:-0.462 87:-0.905 88:-0.762 89:-0.462 90:-0.905 91:-0.905 92:0.905 93:-0.762 94:0.462 95:0.462 96:-0.905 97:-0.762 98:-0.762 99:-0.905 100:-0.762 101:0 102:0.964 103:-0.905 104:-0.462 105:-0.462 106:-0.462 107:-0.462 108:-0.905 109:-0.905 110:0 111:-0.964 112:-0.905 113:0.964 114:-0.905 115:0.762 116:0.462 117:-0.905 118:-0.905 119:-0.905 120:-0.905 121:-0.762 122:-0.462 123:0.905 124:-0.905 125:-0.462 126:-0.462 127:-0.462 128:-0.905 129:-0.462 130:-0.462 131:-0.964 132:-0.762 133:-0.762 134:-0.905 135:-0.462 136:-0.905 137:-0.762 138:-0.762 139:0.998 140:-0.462 141:-0.762 142:-0.462 143:-0.462 144:-0.762 145:-0.964 146:-0.462 147:-0.905 148:0.964 149:0 150:-0.762 151:-0.462 152:-0.762 153:0 154:-0.762 155:-0.462 156:-0.462 157:-0.462 158:-0.462 159:-0.762 160:-0.462 161:-0.462 162:-0.462 163:0.462 164:0 165:0 166:-0.905 167:-0.462 168:-0.762 169:0 170:-0.905 171:-0.462 172:-0.762 173:-0.905 174:0.995 175:-0.762 176:-0.964 177:-0.762 178:-0.964 179:-0.905 180:0 181:-0.762 182:-0.762 183:-0.762 184:0 185:-0.762 186:-0.905 187:-0.762 188:-0.462 189:-0.905 190:-0.462 191:-0.964 192:0.762 193:0.987 194:-0.905 195:-0.762 196:0 197:-0.905 198:0.462 199:-0.905 200:-0.762 201:0 202:-0.462 203:0.762 204:0 205:0 206:-0.462 207:-0.762 208:-0.905 209:-0.462 210:-0.762 211:-0.385 212:-0.61 213:-0.633 214:-0.326 215:-0.379 216:-0.887 217:-0.603 218:0.23 219:-0.354 220:0.305 221:0.458 222:-0.603 223:-0.734 224:-0.179 225:-0.378 226:-0.508 227:-0.385 228:0.138 229:-0.786 230:-0.462 231:-0.462 232:-0.331 233:0.108 234:0.063 235:0.435 236:0.114 237:-0.035 238:0.156 239:-0.277 240:-0.086 
-1.107783760341043 1:0.201 2:-0.472 3:-0.05 4:0.098 5:-0.833 6:-0.254 7:-0.304 8:-0.683 9:-0.077 10:-0.683 11:-0.612 12:-0.215 13:-0.512 14:0.023 15:-0.231 16:0.308 17:-0.154 18:-0.405 19:-0.915 20:-0.462 21:-0.762 22:-0.762 23:-0.762 24:-0.905 25:-0.905 26:0.995 27:-0.905 28:-0.462 29:0 30:-0.905 31:0 32:0 33:-0.905 34:-0.964 35:-0.905 36:-0.905 37:-0.762 38:-0.762 39:-0.462 40:0.462 41:-0.462 42:0.905 43:-0.462 44:-0.905 45:-0.462 46:0.462 47:-0.905 48:-0.762 49:-0.462 50:-0.905 51:0.987 52:-0.762 53:-0.462 54:0 55:-0.462 56:0.462 57:0.762 58:0 59:-0.462 60:-0.762 61:-0.905 62:-0.462 63:-0.762 64:0 65:-0.462 66:-0.905 67:-0.762 68:-0.462 69:-0.905 70:-0.905 71:0.905 72:-0.762 73:0.462 74:0.462 75:-0.905 76:-0.762 77:-0.762 78:-0.905 79:-0.762 80:0 81:0.964 82:-0.905 83:-0.462 84:-0.462 85:-0.462 86:-0.964 87:0.762 88:0.987 89:-0.905 90:-0.762 91:0 92:-0.905 93:0.462 94:-0.905 95:-0.762 96:0 97:-0.462 98:0.762 99:0 100:0 101:-0.462 102:-0.762 103:-0.905 104:-0.462 105:-0.762 106:-0.762 107:-0.905 108:0.462 109:0 110:-0.905 111:0 112:0.462 113:-0.905 114:0 115:-0.905 116:-0.762 117:0.995 118:-0.762 119:0 120:0 121:0.462 122:0 123:-0.905 124:-0.964 125:-0.462 126:-0.762 127:0 128:-0.905 129:-0.462 130:-0.762 131:-0.905 132:0.995 133:-0.762 134:-0.964 135:-0.762 136:-0.964 137:-0.905 138:0 139:-0.762 140:-0.762 141:-0.762 142:0 143:-0.762 144:-0.905 145:-0.762 146:-0.462 147:-0.905 148:0.462 149:-0.462 150:0 151:0 152:-0.762 153:0 154:-0.462 155:-0.762 156:0 157:-0.762 158:-0.462 159:0.462 160:-0.462 161:0 162:-0.462 163:0.964 164:0.462 165:-0.762 166:-0.905 167:-0.462 168:-0.762 169:0.964 170:0 171:-0.762 172:-0.462 173:-0.762 174:0 175:-0.762 176:-0.462 177:-0.462 178:-0.462 179:-0.462 180:-0.762 181:-0.462 182:-0.462 183:-0.462 184:0.462 185:0 186:0 187:-0.905 188:-0.462 189:-0.762 190:0.964 191:0 192:-0.762 193:-0.462 194:-0.762 195:0 196:-0.762 197:-0.462 198:-0.462 199:-0.462 200:-0.462 201:-0.762 202:-0.462 203:-0.462 204:-0.462 205:0.462 206:0 207:0 208:-0.905 209:-0.462 210:-0.762 211:-0.462 212:-0.462 213:-0.462 214:-0.462 215:-0.462 216:-0.462 217:-0.462 218:-0.462 219:-0.462 220:-0.462 221:-0.462 222:-0.462 223:-0.462 224:-0.462 225:-0.462 226:-0.462 227:-0.462 228:-0.462 229:-0.462 230:-0.462 231:-0.462 232:1 233:0.224 234:-0.261 235:-0.047 236:-0.295 237:0.185 238:-0.126 239:-0.086 240:-0.204 
2 1:0 2:-0.61 3:-0.231 4:-0.231 5:-0.779 6:-0.331 7:-0.562 8:-0.76 9:-0.231 10:-0.76 11:-0.562 12:-0.1 13:0.025 14:-0.231 15:-0.562 16:0.251 17:0 18:-0.712 19:-0.851 20:-0.462 21:-0.76 22:-0.462 23:-0.462 24:-0.964 25:-0.905 26:0 27:-0.964 28:-0.905 29:0.762 30:-0.762 31:0.964 32:0.762 33:-0.905 34:-0.905 35:-0.762 36:-0.762 37:-0.762 38:-0.462 39:0.462 40:-0.762 41:-0.462 42:-0.462 43:-0.462 44:-0.462 45:-0.905 46:-0.905 47:0 48:-0.964 49:-0.905 50:0.964 51:-0.905 52:0.762 53:0.462 54:-0.905 55:-0.905 56:-0.905 57:-0.905 58:-0.762 59:-0.462 60:0.905 61:-0.905 62:-0.462 63:-0.462 64:-0.462 65:-0.905 66:-0.462 67:0.462 68:-0.905 69:-0.762 70:-0.462 71:-0.905 72:0.987 73:-0.762 74:-0.462 75:0 76:-0.462 77:0.462 78:0.762 79:0 80:-0.462 81:-0.762 82:-0.905 83:-0.462 84:-0.762 85:0 86:-0.462 87:-0.462 88:-0.462 89:-0.762 90:-0.762 91:-0.762 92:-0.462 93:-0.462 94:-0.462 95:-0.462 96:0 97:-0.462 98:-0.462 99:-0.462 100:0.462 101:0.987 102:0 103:-0.762 104:-0.462 105:-0.762 106:-0.462 107:-0.462 108:-0.964 109:-0.905 110:0 111:-0.964 112:-0.905 113:0.762 114:-0.762 115:0.964 116:0.762 117:-0.905 118:-0.905 119:-0.762 120:-0.762 121:-0.762 122:-0.462 123:0.462 124:-0.762 125:-0.462 126:-0.462 127:-0.462 128:-0.905 129:0 130:0.762 131:-0.905 132:-0.762 133:0 134:-0.905 135:0.462 136:-0.762 137:0 138:0 139:-0.462 140:0.987 141:0.462 142:0 143:-0.462 144:-0.762 145:-0.762 146:-0.462 147:-0.462 148:0.462 149:-0.462 150:0 151:0 152:-0.762 153:0 154:-0.462 155:-0.762 156:0 157:-0.762 158:-0.462 159:0.462 160:-0.462 161:0 162:-0.462 163:0.964 164:0.462 165:-0.762 166:-0.905 167:-0.462 168:-0.762 169:-0.462 170:-0.905 171:-0.762 172:0 173:-0.905 174:-0.762 175:0 176:-0.905 177:0.762 178:-0.762 179:-0.462 180:0 181:-0.762 182:0.462 183:0.987 184:-0.462 185:-0.462 186:-0.905 187:-0.905 188:-0.462 189:-0.762 190:-0.462 191:-0.462 192:-0.905 193:-0.762 194:0 195:-0.905 196:-0.762 197:0.462 198:-0.462 199:0.762 200:0.987 201:-0.762 202:-0.762 203:0 204:-0.462 205:-0.462 206:-0.462 207:0.462 208:-0.462 209:-0.462 210:-0.462 211:-0.05 212:-0.683 213:-0.077 214:0.154 215:-0.833 216:-0.254 217:-0.308 218:-0.833 219:0.329 220:-0.786 221:-0.512 222:0.397 223:-0.512 224:0.154 225:0.023 226:0.559 227:0.077 228:-0.786 229:-0.915 230:-0.462 231:-0.762 232:0.536 233:0.048 234:0.063 235:0.281 236:0.02 237:-0.215 238:-0.126 239:-0.254 240:-0.211 
-2 1:-0.462 2:-0.683 3:-0.231 4:0.15 5:-0.683 6:-0.612 7:-0.231 8:-0.683 9:0 10:-0.612 11:-0.231 12:-0.231 13:-0.462 14:0.263 15:0 16:-0.231 17:-0.462 18:-0.612 19:-0.612 20:-0.462 21:-0.462 22:0 23:-0.462 24:-0.905 25:-0.762 26:-0.462 27:-0.905 28:-0.905 29:0.905 30:-0.762 31:0.462 32:0.462 33:-0.905 34:-0.762 35:-0.762 36:-0.905 37:-0.762 38:0 39:0.964 40:-0.905 41:-0.462 42:-0.462 43:-0.762 44:-0.905 45:0.462 46:0 47:-0.905 48:0 49:0.462 50:-0.905 51:0 52:-0.905 53:-0.762 54:0.995 55:-0.762 56:0 57:0 58:0.462 59:0 60:-0.905 61:-0.964 62:-0.462 63:-0.762 64:0 65:-0.462 66:-0.462 67:-0.462 68:-0.762 69:-0.762 70:-0.762 71:-0.462 72:-0.462 73:-0.462 74:-0.462 75:0 76:-0.462 77:-0.462 78:-0.462 79:0.462 80:0.987 81:0 82:-0.762 83:-0.462 84:-0.762 85:0.462 86:-0.462 87:0 88:0 89:-0.762 90:0 91:-0.462 92:-0.762 93:0 94:-0.762 95:-0.462 96:0.462 97:-0.462 98:0 99:-0.462 100:0.964 101:0.462 102:-0.762 103:-0.905 104:-0.462 105:-0.762 106:-0.462 107:-0.905 108:-0.462 109:0.462 110:-0.905 111:-0.762 112:-0.462 113:-0.905 114:0.987 115:-0.762 116:-0.462 117:0 118:-0.462 119:0.462 120:0.762 121:0 122:-0.462 123:-0.762 124:-0.905 125:-0.462 126:-0.762 127:0 128:-0.462 129:-0.462 130:-0.462 131:-0.762 132:-0.762 133:-0.762 134:-0.462 135:-0.462 136:-0.462 137:-0.462 138:0 139:-0.462 140:-0.462 141:-0.462 142:0.462 143:0.987 144:0 145:-0.762 146:-0.462 147:-0.762 148:0 149:-0.905 150:-0.462 151:-0.762 152:-0.905 153:0.995 154:-0.762 155:-0.964 156:-0.762 157:-0.964 158:-0.905 159:0 160:-0.762 161:-0.762 162:-0.762 163:0 164:-0.762 165:-0.905 166:-0.762 167:-0.462 168:-0.905 169:-0.462 170:-0.462 171:-0.905 172:-0.905 173:0 174:-0.964 175:-0.905 176:0.964 177:-0.905 178:0.762 179:0.462 180:-0.905 181:-0.905 182:-0.905 183:-0.905 184:-0.762 185:-0.462 186:0.905 187:-0.905 188:-0.462 189:-0.462 190:-0.762 191:-0.905 192:0.462 193:0 194:-0.905 195:0 196:0.462 197:-0.905 198:0 199:-0.905 200:-0.762 201:0.995 202:-0.762 203:0 204:0 205:0.462 206:0 207:-0.905 208:-0.964 209:-0.462 210:-0.762 211:-0.612 212:-0.911 213:0.384 214:0.366 215:-0.603 216:-0.532 217:0.281 218:-0.831 219:0.104 220:-0.831 221:-0.712 222:0.205 223:-0.636 224:0.304 225:-0.127 226:0.027 227:-0.358 228:-0.76 229:-0.647 230:-0.462 231:-0.469 232:0.377 233:0.199 234:-0.256 235:0.144 236:0.144 237:0.27 238:-0.498 239:-0.213 240:-0.086 
1.545534987476913 1:-0.462 2:-0.462 3:-0.462 4:-0.462 5:-0.462 6:-0.462 7:-0.462 8:-0.462 9:-0.462 10:-0.462 11:-0.462 12:-0.462 13:-0.462 14:-0.462 15:-0.462 16:-0.462 17:-0.462 18:-0.462 19:-0.462 20:-0.462 21:-0.462 22:0 23:-0.905 24:-0.462 25:-0.762 26:-0.905 27:0.995 28:-0.762 29:-0.964 30:-0.762 31:-0.964 32:-0.905 33:0 34:-0.762 35:-0.762 36:-0.762 37:0 38:-0.762 39:-0.905 40:-0.762 41:-0.462 42:-0.905 43:-0.462 44:-0.462 45:-0.964 46:-0.905 47:0 48:-0.964 49:-0.905 50:0.762 51:-0.762 52:0.964 53:0.762 54:-0.905 55:-0.905 56:-0.762 57:-0.762 58:-0.762 59:-0.462 60:0.462 61:-0.762 62:-0.462 63:-0.462 64:-0.762 65:-0.905 66:0.462 67:0 68:-0.905 69:0 70:0.462 71:-0.905 72:0 73:-0.905 74:-0.762 75:0.995 76:-0.762 77:0 78:0 79:0.462 80:0 81:-0.905 82:-0.964 83:-0.462 84:-0.762 85:-0.462 86:-0.462 87:-0.905 88:-0.905 89:0 90:-0.964 91:-0.905 92:0.964 93:-0.905 94:0.762 95:0.462 96:-0.905 97:-0.905 98:-0.905 99:-0.905 100:-0.762 101:-0.462 102:0.905 103:-0.905 104:-0.462 105:-0.462 106:0 107:-0.462 108:-0.462 109:-0.462 110:-0.762 111:-0.762 112:-0.762 113:-0.462 114:-0.462 115:-0.462 116:-0.462 117:0 118:-0.462 119:-0.462 120:-0.462 121:0.462 122:0.987 123:0 124:-0.762 125:-0.462 126:-0.762 127:0 128:-0.905 129:-0.462 130:-0.762 131:-0.905 132:0.995 133:-0.762 134:-0.964 135:-0.762 136:-0.964 137:-0.905 138:0 139:-0.762 140:-0.762 141:-0.762 142:0 143:-0.762 144:-0.905 145:-0.762 146:-0.462 147:-0.905 148:0 149:-0.462 150:-0.905 151:-0.762 152:-0.462 153:-0.905 154:-0.905 155:0.905 156:-0.762 157:0.462 158:0.462 159:-0.905 160:-0.762 161:-0.762 162:-0.905 163:-0.762 164:0 165:0.964 166:-0.905 167:-0.462 168:-0.462 169:0 170:-0.462 171:-0.462 172:-0.462 173:-0.762 174:-0.762 175:-0.762 176:-0.462 177:-0.462 178:-0.462 179:-0.462 180:0 181:-0.462 182:-0.462 183:-0.462 184:0.462 185:0.987 186:0 187:-0.762 188:-0.462 189:-0.762 190:0 191:1 192:-0.905 193:-0.964 194:-0.762 195:-0.905 196:-0.905 197:-0.462 198:-0.905 199:-0.462 200:-0.462 201:-0.905 202:-0.905 203:-0.905 204:-0.905 205:-0.462 206:-0.462 207:-0.462 208:-0.762 209:-0.462 210:-0.762 211:-0.154 212:-0.905 213:-0.462 214:-0.662 215:-0.925 216:0.409 217:-0.762 218:-0.944 219:-0.662 220:-0.944 221:-0.857 222:-0.254 223:-0.175 224:-0.662 225:-0.762 226:-0.154 227:-0.662 228:-0.857 229:-0.829 230:-0.462 231:-0.905 232:-0.048 233:-0.175 234:-0.177 235:0.592 236:-0.148 237:0.185 238:-0.107 239:-0.148 240:-0.289 
2 1:0.013 2:-0.633 3:0.05 4:0.263 5:-0.867 6:-0.508 7:-0.381 8:-0.757 9:0 10:-0.757 11:-0.662 12:-0.381 13:-0.219 14:0.15 15:-0.281 16:0.077 17:-0.308 18:-0.508 19:-0.915 20:-0.462 21:-0.786 22:-0.462 23:-0.905 24:-0.462 25:0.462 26:-0.905 27:-0.762 28:-0.462 29:-0.905 30:0.987 31:-0.762 32:-0.462 33:0 34:-0.462 35:0.462 36:0.762 37:0 38:-0.462 39:-0.762 40:-0.905 41:-0.462 42:-0.762 43:0 44:-0.462 45:-0.905 46:-0.762 47:-0.462 48:-0.905 49:-0.905 50:0.905 51:-0.762 52:0.462 53:0.462 54:-0.905 55:-0.762 56:-0.762 57:-0.905 58:-0.762 59:0 60:0.964 61:-0.905 62:-0.462 63:-0.462 64:0 65:-0.462 66:-0.905 67:-0.762 68:-0.462 69:-0.905 70:-0.905 71:0.905 72:-0.762 73:0.462 74:0.462 75:-0.905 76:-0.762 77:-0.762 78:-0.905 79:-0.762 80:0 81:0.964 82:-0.905 83:-0.462 84:-0.462 85:-0.762 86:-0.762 87:-0.905 88:-0.762 89:0.905 90:-0.905 91:0.762 92:-0.462 93:-0.762 94:-0.462 95:-0.462 96:-0.762 97:-0.905 98:-0.462 99:-0.762 100:-0.762 101:-0.762 102:-0.462 103:0.762 104:-0.462 105:0.998 106:-0.462 107:-0.905 108:-0.462 109:0.462 110:-0.905 111:-0.762 112:-0.462 113:-0.905 114:0.987 115:-0.762 116:-0.462 117:0 118:-0.462 119:0.462 120:0.762 121:0 122:-0.462 123:-0.762 124:-0.905 125:-0.462 126:-0.762 127:-0.462 128:-0.462 129:-0.964 130:-0.905 131:0 132:-0.964 133:-0.905 134:0.762 135:-0.762 136:0.964 137:0.762 138:-0.905 139:-0.905 140:-0.762 141:-0.762 142:-0.762 143:-0.462 144:0.462 145:-0.762 146:-0.462 147:-0.462 148:-0.462 149:-0.462 150:-0.964 151:-0.905 152:0 153:-0.964 154:-0.905 155:0.762 156:-0.762 157:0.964 158:0.762 159:-0.905 160:-0.905 161:-0.762 162:-0.762 163:-0.762 164:-0.462 165:0.462 166:-0.762 167:-0.462 168:-0.462 169:-0.462 170:-0.905 171:-0.762 172:0 173:-0.905 174:-0.762 175:0 176:-0.905 177:0.762 178:-0.762 179:-0.462 180:0 181:-0.762 182:0.462 183:0.987 184:-0.462 185:-0.462 186:-0.905 187:-0.905 188:-0.462 189:-0.762 190:-0.762 191:-0.762 192:-0.905 193:-0.905 194:0.995 195:-0.905 196:-0.462 197:0 198:-0.905 199:0 200:0 201:-0.905 202:-0.964 203:-0.905 204:-0.905 205:-0.762 206:-0.762 207:-0.462 208:0.462 209:-0.462 210:0.905 211:-0.462 212:-0.462 213:-0.462 214:-0.462 215:-0.462 216:-0.462 217:-0.462 218:-0.462 219:-0.462 220:-0.462 221:-0.462 222:-0.462 223:-0.462 224:-0.462 225:-0.462 226:-0.462 227:-0.462 228:-0.462 229:-0.462 230:-0.462 231:-0.462 232:0.045 233:0.108 234:-0.261 235:0.3 236:0.144 237:-0.253 238:-0.253 239:-0.254 240:0.01 
-2 1:-0.462 2:-0.683 3:-0.462 4:0 5:-0.683 6:-0.612 7:-0.462 8:-0.683 9:0.263 10:-0.612 11:-0.462 12:-0.231 13:-0.462 14:0 15:0.15 16:-0.231 17:-0.462 18:-0.612 19:-0.683 20:-0.462 21:-0.612 22:-0.462 23:-0.462 24:-0.964 25:-0.905 26:0 27:-0.964 28:-0.905 29:0.762 30:-0.762 31:0.964 32:0.762 33:-0.905 34:-0.905 35:-0.762 36:-0.762 37:-0.762 38:-0.462 39:0.462 40:-0.762 41:-0.462 42:-0.462 43:-0.462 44:-0.462 45:-0.905 46:-0.905 47:0 48:-0.964 49:-0.905 50:0.964 51:-0.905 52:0.762 53:0.462 54:-0.905 55:-0.905 56:-0.905 57:-0.905 58:-0.762 59:-0.462 60:0.905 61:-0.905 62:-0.462 63:-0.462 64:-0.462 65:-0.964 66:0.762 67:0.987 68:-0.905 69:-0.762 70:0 71:-0.905 72:0.462 73:-0.905 74:-0.762 75:0 76:-0.462 77:0.762 78:0 79:0 80:-0.462 81:-0.762 82:-0.905 83:-0.462 84:-0.762 85:-0.762 86:-0.905 87:0.995 88:0.762 89:-0.905 90:-0.462 91:-0.462 92:-0.905 93:-0.462 94:-0.964 95:-0.905 96:0.462 97:-0.462 98:0 99:-0.762 100:0 101:-0.462 102:-0.905 103:-0.964 104:-0.462 105:-0.905 106:-0.462 107:-0.462 108:-0.905 109:-0.905 110:0 111:-0.964 112:-0.905 113:0.964 114:-0.905 115:0.762 116:0.462 117:-0.905 118:-0.905 119:-0.905 120:-0.905 121:-0.762 122:-0.462 123:0.905 124:-0.905 125:-0.462 126:-0.462 127:-0.762 128:-0.905 129:0.462 130:0 131:-0.905 132:0 133:0.462 134:-0.905 135:0 136:-0.905 137:-0.762 138:0.995 139:-0.762 140:0 141:0 142:0.462 143:0 144:-0.905 145:-0.964 146:-0.462 147:-0.762 148:0 149:-0.462 150:-0.905 151:-0.762 152:-0.462 153:-0.905 154:-0.905 155:0.905 156:-0.762 157:0.462 158:0.462 159:-0.905 160:-0.762 161:-0.762 162:-0.905 163:-0.762 164:0 165:0.964 166:-0.905 167:-0.462 168:-0.462 169:0 170:-0.905 171:-0.462 172:-0.762 173:-0.905 174:0.995 175:-0.762 176:-0.964 177:-0.762 178:-0.964 179:-0.905 180:0 181:-0.762 182:-0.762 183:-0.762 184:0 185:-0.762 186:-0.905 187:-0.762 188:-0.462 189:-0.905 190:-0.762 191:-0.762 192:-0.905 193:-0.905 194:0.995 195:-0.905 196:-0.462 197:0 198:-0.905 199:0 200:0 201:-0.905 202:-0.964 203:-0.905 204:-0.905 205:-0.762 206:-0.762 207:-0.462 208:0.462 209:-0.462 210:0.905 211:0.251 212:-0.453 213:-0.612 214:0 215:-0.834 216:-0.381 217:-0.612 218:-0.683 219:0.263 220:-0.612 221:-0.462 222:-0.381 223:-0.462 224:0 225:0.15 226:0.231 227:-0.231 228:-0.381 229:-0.905 230:-0.462 231:-0.762 232:0.536 233:0.048 234:-0.413 235:0.153 236:0.114 237:0.483 238:-0.107 239:-0.277 240:0.01 
2 1:0.392 2:-0.533 3:-0.281 4:-0.331 5:-0.81 6:0.332 7:-0.612 8:-0.779 9:-0.331 10:-0.779 11:-0.61 12:0.104 13:-0.562 14:-0.331 15:-0.562 16:0.559 17:-0.023 18:-0.683 19:-0.857 20:-0.462 21:-0.81 22:-0.762 23:-0.762 24:-0.905 25:-0.762 26:0.905 27:-0.905 28:0.762 29:-0.462 30:-0.762 31:-0.462 32:-0.462 33:-0.762 34:-0.905 35:-0.462 36:-0.762 37:-0.762 38:-0.762 39:-0.462 40:0.762 41:-0.462 42:0.998 43:0.964 44:0 45:-0.762 46:-0.462 47:-0.762 48:0 49:-0.762 50:-0.462 51:-0.462 52:-0.462 53:-0.462 54:-0.762 55:-0.462 56:-0.462 57:-0.462 58:0.462 59:0 60:0 61:-0.905 62:-0.462 63:-0.762 64:0.964 65:0 66:-0.762 67:-0.462 68:-0.762 69:0 70:-0.762 71:-0.462 72:-0.462 73:-0.462 74:-0.462 75:-0.762 76:-0.462 77:-0.462 78:-0.462 79:0.462 80:0 81:0 82:-0.905 83:-0.462 84:-0.762 85:-0.762 86:-0.905 87:0.995 88:0.762 89:-0.905 90:-0.462 91:-0.462 92:-0.905 93:-0.462 94:-0.964 95:-0.905 96:0.462 97:-0.462 98:0 99:-0.762 100:0 101:-0.462 102:-0.905 103:-0.964 104:-0.462 105:-0.905 106:-0.462 107:-0.462 108:-0.964 109:-0.905 110:0 111:-0.964 112:-0.905 113:0.762 114:-0.762 115:0.964 116:0.762 117:-0.905 118:-0.905 119:-0.762 120:-0.762 121:-0.762 122:-0.462 123:0.462 124:-0.762 125:-0.462 126:-0.462 127:0 128:-0.905 129:-0.462 130:-0.762 131:-0.905 132:0.995 133:-0.762 134:-0.964 135:-0.762 136:-0.964 137:-0.905 138:0 139:-0.762 140:-0.762 141:-0.762 142:0 143:-0.762 144:-0.905 145:-0.762 146:-0.462 147:-0.905 148:-0.762 149:-0.762 150:-0.905 151:-0.762 152:0.905 153:-0.905 154:0.762 155:-0.462 156:-0.762 157:-0.462 158:-0.462 159:-0.762 160:-0.905 161:-0.462 162:-0.762 163:-0.762 164:-0.762 165:-0.462 166:0.762 167:-0.462 168:0.998 169:0 170:-0.905 171:-0.462 172:-0.762 173:-0.905 174:0.995 175:-0.762 176:-0.964 177:-0.762 178:-0.964 179:-0.905 180:0 181:-0.762 182:-0.762 183:-0.762 184:0 185:-0.762 186:-0.905 187:-0.762 188:-0.462 189:-0.905 190:-0.462 191:-0.905 192:-0.462 193:-0.462 194:-0.964 195:-0.762 196:-0.762 197:-0.905 198:-0.462 199:-0.905 200:-0.762 201:-0.762 202:0.998 203:-0.462 204:-0.762 205:-0.462 206:-0.462 207:-0.762 208:-0.964 209:-0.462 210:-0.905 211:0.405 212:-0.305 213:-0.612 214:-0.462 215:-0.796 216:-0.381 217:-0.762 218:-0.536 219:-0.462 220:-0.536 221:-0.512 222:-0.508 223:-0.219 224:-0.462 225:-0.512 226:0.308 227:0.252 228:-0.127 229:-0.867 230:-0.462 231:-0.786 232:0.914 233:-0.113 234:-0.034 235:0.153 236:0.02 237:0.185 238:0.036 239:-0.277 240:-0.383 
2 1:-0.308 2:-0.683 3:-0.61 4:-0.562 5:-0.713 6:-0.76 7:-0.76 8:-0.228 9:-0.562 10:-0.376 11:-0.304 12:-0.76 13:0.168 14:-0.562 15:-0.76 16:-0.562 17:-0.308 18:-0.137 19:-0.861 20:-0.462 21:-0.683 22:-0.762 23:-0.762 24:-0.905 25:-0.905 26:0.995 27:-0.905 28:-0.462 29:0 30:-0.905 31:0 32:0 33:-0.905 34:-0.964 35:-0.905 36:-0.905 37:-0.762 38:-0.762 39:-0.462 40:0.462 41:-0.462 42:0.905 43:-0.762 44:-0.905 45:0.462 46:0 47:-0.905 48:0 49:0.462 50:-0.905 51:0 52:-0.905 53:-0.762 54:0.995 55:-0.762 56:0 57:0 58:0.462 59:0 60:-0.905 61:-0.964 62:-0.462 63:-0.762 64:0 65:-0.462 66:-0.905 67:-0.762 68:-0.462 69:-0.905 70:-0.905 71:0.905 72:-0.762 73:0.462 74:0.462 75:-0.905 76:-0.762 77:-0.762 78:-0.905 79:-0.762 80:0 81:0.964 82:-0.905 83:-0.462 84:-0.462 85:0.964 86:0 87:-0.762 88:-0.462 89:-0.762 90:0 91:-0.762 92:-0.462 93:-0.462 94:-0.462 95:-0.462 96:-0.762 97:-0.462 98:-0.462 99:-0.462 100:0.462 101:0 102:0 103:-0.905 104:-0.462 105:-0.762 106:-0.462 107:-0.905 108:0 109:0.762 110:-0.905 111:-0.762 112:0 113:-0.905 114:0.462 115:-0.762 116:0 117:0 118:-0.462 119:0.987 120:0.462 121:0 122:-0.462 123:-0.762 124:-0.762 125:-0.462 126:-0.462 127:0.964 128:0 129:-0.762 130:-0.462 131:-0.762 132:0 133:-0.762 134:-0.462 135:-0.462 136:-0.462 137:-0.462 138:-0.762 139:-0.462 140:-0.462 141:-0.462 142:0.462 143:0 144:0 145:-0.905 146:-0.462 147:-0.762 148:-0.762 149:-0.762 150:-0.905 151:-0.762 152:0.905 153:-0.905 154:0.762 155:-0.462 156:-0.762 157:-0.462 158:-0.462 159:-0.762 160:-0.905 161:-0.462 162:-0.762 163:-0.762 164:-0.762 165:-0.462 166:0.762 167:-0.462 168:0.998 169:0 170:1 171:-0.905 172:-0.964 173:-0.762 174:-0.905 175:-0.905 176:-0.462 177:-0.905 178:-0.462 179:-0.462 180:-0.905 181:-0.905 182:-0.905 183:-0.905 184:-0.462 185:-0.462 186:-0.462 187:-0.762 188:-0.462 189:-0.762 190:-0.462 191:-0.462 192:-0.905 193:-0.905 194:0 195:-0.964 196:-0.905 197:0.964 198:-0.905 199:0.762 200:0.462 201:-0.905 202:-0.905 203:-0.905 204:-0.905 205:-0.762 206:-0.462 207:0.905 208:-0.905 209:-0.462 210:-0.462 211:-0.231 212:-0.831 213:-0.546 214:-0.378 215:-0.754 216:0.083 217:-0.686 218:-0.657 219:-0.179 220:-0.575 221:-0.48 222:-0.151 223:-0.686 224:-0.354 225:-0.254 226:-0.127 227:-0.612 228:-0.629 229:-0.81 230:-0.462 231:-0.784 232:1 233:0.199 234:-0.261 235:0.337 236:-0.258 237:0.132 238:0.036 239:-0.289 240:-0.095 
2 1:-0.324 2:-0.754 3:-0.026 4:0.408 5:-0.881 6:-0.535 7:-0.512 8:-0.831 9:0.263 10:-0.779 11:-0.61 12:0.027 13:-0.462 14:0.154 15:0.05 16:0.077 17:-0.385 18:-0.683 19:-0.925 20:-0.462 21:-0.81 22:-0.762 23:-0.762 24:-0.905 25:-0.905 26:0.995 27:-0.905 28:-0.462 29:0 30:-0.905 31:0 32:0 33:-0.905 34:-0.964 35:-0.905 36:-0.905 37:-0.762 38:-0.762 39:-0.462 40:0.462 41:-0.462 42:0.905 43:-0.462 44:-0.905 45:-0.462 46:0.462 47:-0.905 48:-0.762 49:-0.462 50:-0.905 51:0.987 52:-0.762 53:-0.462 54:0 55:-0.462 56:0.462 57:0.762 58:0 59:-0.462 60:-0.762 61:-0.905 62:-0.462 63:-0.762 64:0 65:-0.462 66:-0.462 67:-0.462 68:-0.762 69:-0.762 70:-0.762 71:-0.462 72:-0.462 73:-0.462 74:-0.462 75:0 76:-0.462 77:-0.462 78:-0.462 79:0.462 80:0.987 81:0 82:-0.762 83:-0.462 84:-0.762 85:-0.762 86:-0.762 87:-0.905 88:-0.905 89:0.995 90:-0.905 91:-0.462 92:0 93:-0.905 94:0 95:0 96:-0.905 97:-0.964 98:-0.905 99:-0.905 100:-0.762 101:-0.762 102:-0.462 103:0.462 104:-0.462 105:0.905 106:-0.462 107:-0.964 108:0.762 109:0.987 110:-0.905 111:-0.762 112:0 113:-0.905 114:0.462 115:-0.905 116:-0.762 117:0 118:-0.462 119:0.762 120:0 121:0 122:-0.462 123:-0.762 124:-0.905 125:-0.462 126:-0.762 127:0.964 128:0 129:-0.762 130:-0.462 131:-0.762 132:0 133:-0.762 134:-0.462 135:-0.462 136:-0.462 137:-0.462 138:-0.762 139:-0.462 140:-0.462 141:-0.462 142:0.462 143:0 144:0 145:-0.905 146:-0.462 147:-0.762 148:0.964 149:0 150:-0.762 151:-0.462 152:-0.762 153:0 154:-0.762 155:-0.462 156:-0.462 157:-0.462 158:-0.462 159:-0.762 160:-0.462 161:-0.462 162:-0.462 163:0.462 164:0 165:0 166:-0.905 167:-0.462 168:-0.762 169:-0.762 170:-0.762 171:-0.905 172:-0.905 173:0.995 174:-0.905 175:-0.462 176:0 177:-0.905 178:0 179:0 180:-0.905 181:-0.964 182:-0.905 183:-0.905 184:-0.762 185:-0.762 186:-0.462 187:0.462 188:-0.462 189:0.905 190:0 191:-0.462 192:-0.462 193:-0.462 194:-0.762 195:-0.762 196:-0.762 197:-0.462 198:-0.462 199:-0.462 200:-0.462 201:0 202:-0.462 203:-0.462 204:-0.462 205:0.462 206:0.987 207:0 208:-0.762 209:-0.462 210:-0.762 211:0 212:-0.462 213:-0.231 214:-0.231 215:-0.612 216:-0.231 217:-0.462 218:-0.612 219:-0.231 220:-0.612 221:-0.462 222:0 223:-0.462 224:-0.231 225:-0.462 226:0.251 227:0 228:-0.612 229:-0.683 230:-0.462 231:-0.612 232:1 233:0.224 234:-0.256 235:0.207 236:-0.232 237:0.132 238:0.156 239:-0.14 240:-0.038 
0.02938226179038196 1:0.726 2:-0.077 3:-0.712 4:-0.462 5:-0.712 6:-0.077 7:-0.712 8:-0.462 9:-0.462 10:-0.462 11:-0.462 12:-0.712 13:-0.462 14:-0.462 15:-0.462 16:0.308 17:-0.077 18:-0.077 19:-0.831 20:-0.462 21:-0.712 22:-0.762 23:-0.905 24:0.995 25:0.762 26:-0.905 27:-0.462 28:-0.462 29:-0.905 30:-0.462 31:-0.964 32:-0.905 33:0.462 34:-0.462 35:0 36:-0.762 37:0 38:-0.462 39:-0.905 40:-0.964 41:-0.462 42:-0.905 43:-0.762 44:-0.905 45:-0.462 46:0 47:-0.462 48:-0.762 49:0.999 50:-0.905 51:-0.462 52:-0.905 53:-0.762 54:0.462 55:-0.762 56:0 57:0 58:-0.462 59:-0.762 60:-0.905 61:-0.762 62:-0.462 63:0.762 64:0.964 65:0 66:-0.762 67:-0.462 68:-0.762 69:0 70:-0.762 71:-0.462 72:-0.462 73:-0.462 74:-0.462 75:-0.762 76:-0.462 77:-0.462 78:-0.462 79:0.462 80:0 81:0 82:-0.905 83:-0.462 84:-0.762 85:0.964 86:0 87:-0.762 88:-0.462 89:-0.762 90:0 91:-0.762 92:-0.462 93:-0.462 94:-0.462 95:-0.462 96:-0.762 97:-0.462 98:-0.462 99:-0.462 100:0.462 101:0 102:0 103:-0.905 104:-0.462 105:-0.762 106:-0.462 107:-0.905 108:-0.462 109:-0.462 110:-0.964 111:-0.762 112:-0.762 113:-0.905 114:-0.462 115:-0.905 116:-0.762 117:-0.762 118:0.998 119:-0.462 120:-0.762 121:-0.462 122:-0.462 123:-0.762 124:-0.964 125:-0.462 126:-0.905 127:-0.462 128:-0.964 129:0.762 130:0.987 131:-0.905 132:-0.762 133:0 134:-0.905 135:0.462 136:-0.905 137:-0.762 138:0 139:-0.462 140:0.762 141:0 142:0 143:-0.462 144:-0.762 145:-0.905 146:-0.462 147:-0.762 148:-0.762 149:-0.905 150:0.995 151:0.762 152:-0.905 153:-0.462 154:-0.462 155:-0.905 156:-0.462 157:-0.964 158:-0.905 159:0.462 160:-0.462 161:0 162:-0.762 163:0 164:-0.462 165:-0.905 166:-0.964 167:-0.462 168:-0.905 169:-0.462 170:-0.905 171:-0.462 172:0.462 173:-0.905 174:-0.762 175:-0.462 176:-0.905 177:0.987 178:-0.762 179:-0.462 180:0 181:-0.462 182:0.462 183:0.762 184:0 185:-0.462 186:-0.762 187:-0.905 188:-0.462 189:-0.762 190:-0.762 191:-0.762 192:-0.905 193:-0.762 194:0.905 195:-0.905 196:0.762 197:-0.462 198:-0.762 199:-0.462 200:-0.462 201:-0.762 202:-0.905 203:-0.462 204:-0.762 205:-0.762 206:-0.762 207:-0.462 208:0.762 209:-0.462 210:0.998 211:-0.037 212:-0.609 213:-0.024 214:0.189 215:-0.541 216:-0.532 217:-0.331 218:-0.607 219:-0.074 220:-0.607 221:-0.535 222:-0.405 223:-0.546 224:0.076 225:-0.305 226:0.027 227:-0.358 228:-0.458 229:-0.677 230:-0.462 231:-0.484 232:-0.06 233:-0.022 234:-0.034 235:0.337 236:-0.232 237:-0.262 238:-0.168 239:-0.204 240:-0.173 
-1.845107790017335 1:-0.635 2:-0.905 3:-0.462 4:-0.127 5:-0.536 6:-0.469 7:0.706 8:-0.915 9:-0.512 10:-0.915 11:-0.786 12:0.385 13:-0.762 14:-0.127 15:-0.127 16:-0.385 17:-0.762 18:-0.905 19:-0.762 20:-0.462 21:0.484 22:-0.462 23:-0.462 24:-0.964 25:-0.905 26:0 27:-0.964 28:-0.905 29:0.762 30:-0.762 31:0.964 32:0.762 33:-0.905 34:-0.905 35:-0.762 36:-0.762 37:-0.762 38:-0.462 39:0.462 40:-0.762 41:-0.462 42:-0.462 43:0.964 44:0 45:-0.762 46:-0.462 47:-0.762 48:0 49:-0.762 50:-0.462 51:-0.462 52:-0.462 53:-0.462 54:-0.762 55:-0.462 56:-0.462 57:-0.462 58:0.462 59:0 60:0 61:-0.905 62:-0.462 63:-0.762 64:0.462 65:-0.462 66:0 67:0 68:-0.762 69:0 70:-0.462 71:-0.762 72:0 73:-0.762 74:-0.462 75:0.462 76:-0.462 77:0 78:-0.462 79:0.964 80:0.462 81:-0.762 82:-0.905 83:-0.462 84:-0.762 85:0.964 86:0 87:-0.762 88:-0.462 89:-0.762 90:0 91:-0.762 92:-0.462 93:-0.462 94:-0.462 95:-0.462 96:-0.762 97:-0.462 98:-0.462 99:-0.462 100:0.462 101:0 102:0 103:-0.905 104:-0.462 105:-0.762 106:0.964 107:0 108:-0.762 109:-0.462 110:-0.762 111:0 112:-0.762 113:-0.462 114:-0.462 115:-0.462 116:-0.462 117:-0.762 118:-0.462 119:-0.462 120:-0.462 121:0.462 122:0 123:0 124:-0.905 125:-0.462 126:-0.762 127:-0.462 128:-0.462 129:-0.905 130:-0.905 131:0 132:-0.964 133:-0.905 134:0.964 135:-0.905 136:0.762 137:0.462 138:-0.905 139:-0.905 140:-0.905 141:-0.905 142:-0.762 143:-0.462 144:0.905 145:-0.905 146:-0.462 147:-0.462 148:-0.762 149:-0.762 150:-0.905 151:-0.905 152:0.995 153:-0.905 154:-0.462 155:0 156:-0.905 157:0 158:0 159:-0.905 160:-0.964 161:-0.905 162:-0.905 163:-0.762 164:-0.762 165:-0.462 166:0.462 167:-0.462 168:0.905 169:0 170:-0.905 171:-0.462 172:-0.762 173:-0.905 174:0.995 175:-0.762 176:-0.964 177:-0.762 178:-0.964 179:-0.905 180:0 181:-0.762 182:-0.762 183:-0.762 184:0 185:-0.762 186:-0.905 187:-0.762 188:-0.462 189:-0.905 190:-0.762 191:-0.905 192:-0.462 193:0 194:-0.462 195:-0.762 196:0.999 197:-0.905 198:-0.462 199:-0.905 200:-0.762 201:0.462 202:-0.762 203:0 204:0 205:-0.462 206:-0.762 207:-0.905 208:-0.762 209:-0.462 210:0.762 211:-0.458 212:-0.831 213:0.267 214:0.05 215:-0.831 216:0.024 217:-0.562 218:-0.851 219:-0.562 220:-0.88 221:-0.831 222:0.154 223:-0.562 224:-0.331 225:-0.712 226:-0.077 227:-0.562 228:-0.831 229:-0.813 230:-0.462 231:-0.831 232:0.536 233:-0.113 234:-0.16 235:0.337 236:-0.232 237:0.222 238:0.01 239:-0.277 240:-0.355 
2 1:-0.231 2:-0.462 3:-0.683 4:-0.683 5:-0.381 6:-0.863 7:-0.833 8:0.251 9:-0.683 10:0.15 11:-0 12:-0.452 13:-0.683 14:-0.683 15:-0.683 16:-0.15 17:0.263 18:0.452 19:-0.833 20:-0.462 21:-0.612 22:-0.462 23:-0.462 24:-0.964 25:-0.905 26:0 27:-0.964 28:-0.905 29:0.762 30:-0.762 31:0.964 32:0.762 33:-0.905 34:-0.905 35:-0.762 36:-0.762 37:-0.762 38:-0.462 39:0.462 40:-0.762 41:-0.462 42:-0.462 43:-0.762 44:-0.905 45:0.462 46:0 47:-0.905 48:0 49:0.462 50:-0.905 51:0 52:-0.905 53:-0.762 54:0.995 55:-0.762 56:0 57:0 58:0.462 59:0 60:-0.905 61:-0.964 62:-0.462 63:-0.762 64:0.462 65:-0.462 66:0 67:0 68:-0.762 69:0 70:-0.462 71:-0.762 72:0 73:-0.762 74:-0.462 75:0.462 76:-0.462 77:0 78:-0.462 79:0.964 80:0.462 81:-0.762 82:-0.905 83:-0.462 84:-0.762 85:-0.762 86:-0.762 87:-0.905 88:-0.762 89:0.905 90:-0.905 91:0.762 92:-0.462 93:-0.762 94:-0.462 95:-0.462 96:-0.762 97:-0.905 98:-0.462 99:-0.762 100:-0.762 101:-0.762 102:-0.462 103:0.762 104:-0.462 105:0.998 106:0 107:-0.905 108:-0.462 109:-0.762 110:-0.905 111:0.995 112:-0.762 113:-0.964 114:-0.762 115:-0.964 116:-0.905 117:0 118:-0.762 119:-0.762 120:-0.762 121:0 122:-0.762 123:-0.905 124:-0.762 125:-0.462 126:-0.905 127:0.462 128:-0.462 129:0 130:0 131:-0.762 132:0 133:-0.462 134:-0.762 135:0 136:-0.762 137:-0.462 138:0.462 139:-0.462 140:0 141:-0.462 142:0.964 143:0.462 144:-0.762 145:-0.905 146:-0.462 147:-0.762 148:-0.762 149:-0.762 150:-0.905 151:-0.905 152:0.995 153:-0.905 154:-0.462 155:0 156:-0.905 157:0 158:0 159:-0.905 160:-0.964 161:-0.905 162:-0.905 163:-0.762 164:-0.762 165:-0.462 166:0.462 167:-0.462 168:0.905 169:-0.462 170:-0.905 171:0 172:0.762 173:-0.905 174:-0.762 175:0 176:-0.905 177:0.462 178:-0.762 179:0 180:0 181:-0.462 182:0.987 183:0.462 184:0 185:-0.462 186:-0.762 187:-0.762 188:-0.462 189:-0.462 190:-0.462 191:-0.964 192:0.762 193:0.987 194:-0.905 195:-0.762 196:0 197:-0.905 198:0.462 199:-0.905 200:-0.762 201:0 202:-0.462 203:0.762 204:0 205:0 206:-0.462 207:-0.762 208:-0.905 209:-0.462 210:-0.762 211:-0.612 212:-0.612 213:-0.683 214:-0.683 215:0.267 216:-0.683 217:-0.462 218:-0.231 219:-0.683 220:-0.231 221:-0.231 222:-0.683 223:-0.713 224:-0.683 225:-0.683 226:-0.612 227:-0.612 228:-0.462 229:0 230:-0.462 231:0.222 232:0.536 233:0.199 234:-0.16 235:0.3 236:-0.395 237:0.194 238:0.01 239:-0.307 240:-0.086 
0.9364163914916146 1:-0.462 2:-0.831 3:-0.542 4:0.103 5:-0.754 6:-0.796 7:-0.151 8:-0.627 9:0.408 10:-0.474 11:-0.104 12:-0.151 13:-0.686 14:0.433 15:0.52 16:-0.358 17:-0.462 18:-0.629 19:-0.834 20:-0.462 21:-0.612 22:-0.462 23:-0.462 24:-0.964 25:-0.905 26:0 27:-0.964 28:-0.905 29:0.762 30:-0.762 31:0.964 32:0.762 33:-0.905 34:-0.905 35:-0.762 36:-0.762 37:-0.762 38:-0.462 39:0.462 40:-0.762 41:-0.462 42:-0.462 43:0 44:-0.905 45:-0.462 46:-0.762 47:-0.905 48:0.995 49:-0.762 50:-0.964 51:-0.762 52:-0.964 53:-0.905 54:0 55:-0.762 56:-0.762 57:-0.762 58:0 59:-0.762 60:-0.905 61:-0.762 62:-0.462 63:-0.905 64:0 65:-0.462 66:-0.905 67:-0.762 68:-0.462 69:-0.905 70:-0.905 71:0.905 72:-0.762 73:0.462 74:0.462 75:-0.905 76:-0.762 77:-0.762 78:-0.905 79:-0.762 80:0 81:0.964 82:-0.905 83:-0.462 84:-0.462 85:-0.462 86:-0.462 87:-0.964 88:-0.905 89:0 90:-0.964 91:-0.905 92:0.762 93:-0.762 94:0.964 95:0.762 96:-0.905 97:-0.905 98:-0.762 99:-0.762 100:-0.762 101:-0.462 102:0.462 103:-0.762 104:-0.462 105:-0.462 106:-0.762 107:-0.762 108:-0.905 109:-0.905 110:0.995 111:-0.905 112:-0.462 113:0 114:-0.905 115:0 116:0 117:-0.905 118:-0.964 119:-0.905 120:-0.905 121:-0.762 122:-0.762 123:-0.462 124:0.462 125:-0.462 126:0.905 127:0 128:-0.905 129:-0.462 130:-0.762 131:-0.905 132:0.995 133:-0.762 134:-0.964 135:-0.762 136:-0.964 137:-0.905 138:0 139:-0.762 140:-0.762 141:-0.762 142:0 143:-0.762 144:-0.905 145:-0.762 146:-0.462 147:-0.905 148:0.462 149:-0.462 150:0 151:0 152:-0.762 153:0 154:-0.462 155:-0.762 156:0 157:-0.762 158:-0.462 159:0.462 160:-0.462 161:0 162:-0.462 163:0.964 164:0.462 165:-0.762 166:-0.905 167:-0.462 168:-0.762 169:-0.462 170:-0.905 171:-0.762 172:0 173:-0.905 174:-0.762 175:0 176:-0.905 177:0.762 178:-0.762 179:-0.462 180:0 181:-0.762 182:0.462 183:0.987 184:-0.462 185:-0.462 186:-0.905 187:-0.905 188:-0.462 189:-0.762 190:-0.462 191:-0.462 192:-0.905 193:-0.905 194:0 195:-0.964 196:-0.905 197:0.964 198:-0.905 199:0.762 200:0.462 201:-0.905 202:-0.905 203:-0.905 204:-0.905 205:-0.762 206:-0.462 207:0.905 208:-0.905 209:-0.462 210:-0.462 211:0.251 212:-0.231 213:-0.612 214:-0.462 215:-0.612 216:-0.231 217:-0.612 218:-0.462 219:-0.462 220:-0.462 221:-0.462 222:-0.612 223:-0.462 224:-0.462 225:-0.462 226:0 227:-0.231 228:-0.231 229:-0.683 230:-0.462 231:-0.612 232:0.536 233:-0.277 234:-0.261 235:0.337 236:-0.022 237:0.185 238:-0.126 239:-0.254 240:-0.095 
-2 1:-0.462 2:-0.683 3:-0.462 4:0 5:-0.683 6:-0.612 7:-0.462 8:-0.683 9:0.263 10:-0.612 11:-0.462 12:-0.231 13:-0.462 14:0 15:0.15 16:-0.231 17:-0.462 18:-0.612 19:-0.683 20:-0.462 21:-0.612 22:-0.762 23:-0.905 24:-0.462 25:0 26:-0.462 27:-0.762 28:0.999 29:-0.905 30:-0.462 31:-0.905 32:-0.762 33:0.462 34:-0.762 35:0 36:0 37:-0.462 38:-0.762 39:-0.905 40:-0.762 41:-0.462 42:0.762 43:-0.462 44:-0.462 45:-0.964 46:-0.905 47:0 48:-0.964 49:-0.905 50:0.762 51:-0.762 52:0.964 53:0.762 54:-0.905 55:-0.905 56:-0.762 57:-0.762 58:-0.762 59:-0.462 60:0.462 61:-0.762 62:-0.462 63:-0.462 64:0.964 65:0 66:-0.762 67:-0.462 68:-0.762 69:0 70:-0.762 71:-0.462 72:-0.462 73:-0.462 74:-0.462 75:-0.762 76:-0.462 77:-0.462 78:-0.462 79:0.462 80:0 81:0 82:-0.905 83:-0.462 84:-0.762 85:0 86:-0.462 87:-0.905 88:-0.762 89:-0.462 90:-0.905 91:-0.905 92:0.905 93:-0.762 94:0.462 95:0.462 96:-0.905 97:-0.762 98:-0.762 99:-0.905 100:-0.762 101:0 102:0.964 103:-0.905 104:-0.462 105:-0.462 106:-0.462 107:-0.462 108:-0.964 109:-0.905 110:0 111:-0.964 112:-0.905 113:0.762 114:-0.762 115:0.964 116:0.762 117:-0.905 118:-0.905 119:-0.762 120:-0.762 121:-0.762 122:-0.462 123:0.462 124:-0.762 125:-0.462 126:-0.462 127:0 128:-0.462 129:-0.905 130:-0.762 131:-0.462 132:-0.905 133:-0.905 134:0.905 135:-0.762 136:0.462 137:0.462 138:-0.905 139:-0.762 140:-0.762 141:-0.905 142:-0.762 143:0 144:0.964 145:-0.905 146:-0.462 147:-0.462 148:-0.462 149:-0.905 150:-0.462 151:0.462 152:-0.905 153:-0.762 154:-0.462 155:-0.905 156:0.987 157:-0.762 158:-0.462 159:0 160:-0.462 161:0.462 162:0.762 163:0 164:-0.462 165:-0.762 166:-0.905 167:-0.462 168:-0.762 169:-0.762 170:-0.762 171:-0.905 172:-0.762 173:0.905 174:-0.905 175:0.762 176:-0.462 177:-0.762 178:-0.462 179:-0.462 180:-0.762 181:-0.905 182:-0.462 183:-0.762 184:-0.762 185:-0.762 186:-0.462 187:0.762 188:-0.462 189:0.998 190:-0.462 191:-0.964 192:0.762 193:0.987 194:-0.905 195:-0.762 196:0 197:-0.905 198:0.462 199:-0.905 200:-0.762 201:0 202:-0.462 203:0.762 204:0 205:0 206:-0.462 207:-0.762 208:-0.905 209:-0.462 210:-0.762 211:-0.254 212:-0.831 213:0.024 214:-0.204 215:-0.881 216:0.216 217:-0.662 218:-0.861 219:-0.612 220:-0.88 221:-0.831 222:0.154 223:-0.612 224:-0.458 225:-0.712 226:0.077 227:-0.371 228:-0.754 229:-0.829 230:-0.462 231:-0.881 232:-0.055 233:-0.175 234:-0.034 235:0.435 236:0.02 237:0.092 238:-0.239 239:-0.173 240:-0.086 
-2 1:-0.137 2:-0.529 3:0.093 4:0.1 5:-0.707 6:-0.382 7:-0.612 8:-0.529 9:-0.462 10:-0.509 11:-0.442 12:-0.15 13:-0.512 14:-0.154 15:-0.612 16:0.077 17:-0.308 18:-0.376 19:-0.861 20:-0.462 21:-0.784 22:0 23:-0.905 24:-0.462 25:-0.762 26:-0.905 27:0.995 28:-0.762 29:-0.964 30:-0.762 31:-0.964 32:-0.905 33:0 34:-0.762 35:-0.762 36:-0.762 37:0 38:-0.762 39:-0.905 40:-0.762 41:-0.462 42:-0.905 43:0 44:-0.905 45:-0.462 46:-0.762 47:-0.905 48:0.995 49:-0.762 50:-0.964 51:-0.762 52:-0.964 53:-0.905 54:0 55:-0.762 56:-0.762 57:-0.762 58:0 59:-0.762 60:-0.905 61:-0.762 62:-0.462 63:-0.905 64:0.462 65:-0.462 66:0 67:0 68:-0.762 69:0 70:-0.462 71:-0.762 72:0 73:-0.762 74:-0.462 75:0.462 76:-0.462 77:0 78:-0.462 79:0.964 80:0.462 81:-0.762 82:-0.905 83:-0.462 84:-0.762 85:-0.462 86:-0.462 87:-0.905 88:-0.905 89:0 90:-0.964 91:-0.905 92:0.964 93:-0.905 94:0.762 95:0.462 96:-0.905 97:-0.905 98:-0.905 99:-0.905 100:-0.762 101:-0.462 102:0.905 103:-0.905 104:-0.462 105:-0.462 106:-0.462 107:-0.905 108:0 109:0.762 110:-0.905 111:-0.762 112:0 113:-0.905 114:0.462 115:-0.762 116:0 117:0 118:-0.462 119:0.987 120:0.462 121:0 122:-0.462 123:-0.762 124:-0.762 125:-0.462 126:-0.462 127:-0.762 128:-0.905 129:0.462 130:0 131:-0.905 132:0 133:0.462 134:-0.905 135:0 136:-0.905 137:-0.762 138:0.995 139:-0.762 140:0 141:0 142:0.462 143:0 144:-0.905 145:-0.964 146:-0.462 147:-0.762 148:0 149:-0.462 150:-0.462 151:-0.462 152:-0.762 153:-0.762 154:-0.762 155:-0.462 156:-0.462 157:-0.462 158:-0.462 159:0 160:-0.462 161:-0.462 162:-0.462 163:0.462 164:0.987 165:0 166:-0.762 167:-0.462 168:-0.762 169:-0.762 170:-0.905 171:0.462 172:0 173:-0.905 174:0 175:0.462 176:-0.905 177:0 178:-0.905 179:-0.762 180:0.995 181:-0.762 182:0 183:0 184:0.462 185:0 186:-0.905 187:-0.964 188:-0.462 189:-0.762 190:-0.462 191:-0.462 192:-0.964 193:-0.905 194:0 195:-0.964 196:-0.905 197:0.762 198:-0.762 199:0.964 200:0.762 201:-0.905 202:-0.905 203:-0.762 204:-0.762 205:-0.762 206:-0.462 207:0.462 208:-0.762 209:-0.462 210:-0.462 211:-0.462 212:-0.462 213:-0.462 214:-0.462 215:-0.462 216:-0.462 217:-0.462 218:-0.462 219:-0.462 220:-0.462 221:-0.462 222:-0.462 223:-0.462 224:-0.462 225:-0.462 226:-0.462 227:-0.462 228:-0.462 229:-0.462 230:-0.462 231:-0.462 232:-0.048 233:-0.277 234:-0.16 235:0.592 236:-0.258 237:0.483 238:-0.038 239:-0.129 240:-0.157 
-0.8349379676178975 1:-0.304 2:-0.757 3:-0.308 4:-0.077 5:-0.646 6:-0.508 7:0.218 8:-0.857 9:-0.308 10:-0.857 11:-0.662 12:0.258 13:-0.369 14:-0.077 15:-0.281 16:0.013 17:-0.304 18:-0.834 19:-0.843 20:-0.462 21:-0.024 22:0 23:1 24:-0.905 25:-0.964 26:-0.762 27:-0.905 28:-0.905 29:-0.462 30:-0.905 31:-0.462 32:-0.462 33:-0.905 34:-0.905 35:-0.905 36:-0.905 37:-0.462 38:-0.462 39:-0.462 40:-0.762 41:-0.462 42:-0.762 43:-0.762 44:-0.905 45:0.462 46:0 47:-0.905 48:0 49:0.462 50:-0.905 51:0 52:-0.905 53:-0.762 54:0.995 55:-0.762 56:0 57:0 58:0.462 59:0 60:-0.905 61:-0.964 62:-0.462 63:-0.762 64:-0.462 65:-0.964 66:0.762 67:0.987 68:-0.905 69:-0.762 70:0 71:-0.905 72:0.462 73:-0.905 74:-0.762 75:0 76:-0.462 77:0.762 78:0 79:0 80:-0.462 81:-0.762 82:-0.905 83:-0.462 84:-0.762 85:-0.462 86:-0.462 87:-0.905 88:-0.762 89:0 90:-0.905 91:-0.762 92:0.462 93:-0.462 94:0.762 95:0.987 96:-0.762 97:-0.762 98:0 99:-0.462 100:-0.462 101:-0.462 102:0.462 103:-0.462 104:-0.462 105:-0.462 106:0.462 107:-0.462 108:0 109:0 110:-0.762 111:0 112:-0.462 113:-0.762 114:0 115:-0.762 116:-0.462 117:0.462 118:-0.462 119:0 120:-0.462 121:0.964 122:0.462 123:-0.762 124:-0.905 125:-0.462 126:-0.762 127:-0.905 128:-0.762 129:-0.964 130:-0.905 131:0.462 132:-0.762 133:-0.762 134:-0.905 135:-0.905 136:-0.762 137:-0.462 138:-0.964 139:-0.964 140:-0.762 141:-0.905 142:-0.905 143:-0.762 144:-0.905 145:1 146:-0.462 147:0.762 148:-0.462 149:-0.462 150:-0.905 151:-0.905 152:0 153:-0.964 154:-0.905 155:0.964 156:-0.905 157:0.762 158:0.462 159:-0.905 160:-0.905 161:-0.905 162:-0.905 163:-0.762 164:-0.462 165:0.905 166:-0.905 167:-0.462 168:-0.462 169:-0.462 170:-0.905 171:0 172:0.762 173:-0.905 174:-0.762 175:0 176:-0.905 177:0.462 178:-0.762 179:0 180:0 181:-0.462 182:0.987 183:0.462 184:0 185:-0.462 186:-0.762 187:-0.762 188:-0.462 189:-0.462 190:0.462 191:-0.462 192:0 193:0 194:-0.762 195:0 196:-0.462 197:-0.762 198:0 199:-0.762 200:-0.462 201:0.462 202:-0.462 203:0 204:-0.462 205:0.964 206:0.462 207:-0.762 208:-0.905 209:-0.462 210:-0.762 211:-0.462 212:-0.462 213:-0.462 214:-0.462 215:-0.462 216:-0.462 217:-0.462 218:-0.462 219:-0.462 220:-0.462 221:-0.462 222:-0.462 223:-0.462 224:-0.462 225:-0.462 226:-0.462 227:-0.462 228:-0.462 229:-0.462 230:-0.462 231:-0.462 232:-0.005 233:0.199 234:-0.413 235:0.629 236:-0.37 237:-0.055 238:0.023 239:-0.307 240:-0.209 
